11 64
6 0.170435 -0.345495 -0.037820 0.118752 -0.071757 0.098128 0.255671 0.324251 0.219126 -0.048459 0.157005 0.129977 -0.093465 -0.388797 0.412318 -0.386266 0.096601 -0.359269 0.173275 -0.032576 -0.030930 -0.159086 -0.181244 -0.118565 0.357518 -0.142857 -0.120443 -0.227196 -0.048650 0.134000 -0.028644 -0.090152 -0.098687 0.025118 -0.061124 -0.278515 0.231706 0.101295 0.013201 -0.255707 -0.267626 -0.032533 0.257752 0.266502 -0.336762 0.178594 0.004145 -0.473553 0.217623 0.231532 -0.236278 0.156698 -0.008188 0.263100 -0.190701 -0.106374 -0.070925 -0.069366 0.116781 -0.204871 0.243691 -0.220531 0.100069 0.268840
2 -0.036035 -0.062956 -0.035305 -0.109902 0.067057 0.058933 0.106390 0.191410 -0.040376 -0.222858 0.240767 0.185810 -0.012789 -0.232881 -0.089821 -0.260922 0.102242 0.026399 -0.136351 -0.013903 -0.068189 0.085327 0.113598 0.163627 -0.135898 -0.071564 -0.052593 -0.090910 0.176133 -0.008326 -0.052468 -0.148633 -0.255145 0.264461 -0.125813 -0.177361 0.296299 -0.067138 0.062033 -0.110100 -0.085023 -0.265930 0.265650 0.358937 -0.155443 -0.003790 0.045361 -0.334803 -0.047239 -0.170685 0.056154 -0.149130 -0.029382 0.103952 -0.278029 -0.047223 0.046356 0.211800 -0.346990 0.244552 -0.056341 -0.049643 -0.204179 0.127358
5 0.078283 -0.233736 -0.043195 0.011675 -0.013083 0.069632 0.190479 0.238698 0.116574 -0.115314 0.183552 0.152201 -0.064191 -0.304100 0.205216 -0.335964 0.093856 -0.197830 0.042217 -0.011333 -0.039279 -0.041093 -0.067634 0.010466 0.146706 -0.106022 -0.092345 -0.159335 0.032437 0.064601 -0.042009 -0.097129 -0.166143 0.121278 -0.073675 -0.237452 0.246540 0.031058 0.046086 -0.170670 -0.170104 -0.128493 0.222703 0.294117 -0.251352 0.098329 0.008105 -0.389016 0.087755 0.059679 -0.118779 0.032976 0.001051 0.178340 -0.216672 -0.083805 -0.023757 0.048511 -0.068613 -0.026604 0.096156 -0.162625 -0.011845 0.211114
3 -0.040433 -0.070119 -0.029339 -0.092508 0.068289 0.060555 0.112657 0.195600 -0.024491 -0.220870 0.251313 0.176416 -0.030474 -0.242687 -0.068022 -0.266885 0.116192 -0.003898 -0.122932 -0.013318 -0.075233 0.075399 0.088298 0.157533 -0.096919 -0.074832 -0.054939 -0.094887 0.169136 0.001006 -0.065671 -0.151691 -0.247927 0.254186 -0.117530 -0.197777 0.304004 -0.044617 0.057470 -0.105919 -0.096692 -0.275766 0.266746 0.371339 -0.159698 0.005272 0.055501 -0.350917 -0.051362 -0.147443 0.050503 -0.134157 -0.037163 0.103197 -0.270952 -0.053808 0.031949 0.190288 -0.324228 0.218556 -0.040851 -0.062580 -0.190538 0.152433
0 -0.031485 -0.090841 -0.027769 -0.107030 0.049617 0.068635 0.111685 0.202274 -0.024032 -0.211118 0.245282 0.179527 -0.017057 -0.247314 -0.049113 -0.274722 0.117089 -0.002578 -0.119046 -0.023207 -0.075182 0.059067 0.094653 0.148888 -0.111301 -0.076914 -0.049070 -0.106764 0.153494 -0.009101 -0.049771 -0.136213 -0.241945 0.244526 -0.113359 -0.194760 0.301118 -0.051500 0.067253 -0.133627 -0.115489 -0.264234 0.265279 0.366154 -0.169693 0.018297 0.043025 -0.354539 -0.035130 -0.133596 0.028001 -0.128466 -0.041992 0.107714 -0.279481 -0.053449 0.024972 0.205943 -0.334846 0.223430 -0.031067 -0.072632 -0.190302 0.147526
1 0.037063 -0.183638 -0.019544 -0.019674 0.002791 0.063712 0.152812 0.230970 0.073918 -0.128537 0.180136 0.141483 -0.040918 -0.276662 0.120127 -0.294693 0.105081 -0.135266 0.009622 -0.024322 -0.047304 -0.024727 -0.014986 0.040212 0.074997 -0.087042 -0.067391 -0.125351 0.067538 0.040582 -0.047513 -0.099758 -0.167827 0.145099 -0.090477 -0.213249 0.238049 0.002455 0.053266 -0.165462 -0.162671 -0.160127 0.236741 0.301659 -0.212413 0.069583 0.016558 -0.358618 0.064307 0.019433 -0.077970 -0.007425 -0.021668 0.164918 -0.231193 -0.063796 -0.014903 0.090632 -0.142932 0.049194 0.070767 -0.130394 -0.069784 0.178027
4 0.003790 -0.110537 -0.033359 -0.044987 0.040950 0.056187 0.119745 0.208652 0.031422 -0.173720 0.218969 0.158804 -0.030315 -0.246095 0.027565 -0.266405 0.101060 -0.072531 -0.055025 -0.007498 -0.053934 0.023423 0.025441 0.087947 -0.004878 -0.077274 -0.067005 -0.111016 0.114664 0.015742 -0.056642 -0.127593 -0.196802 0.184141 -0.096729 -0.197720 0.268505 -0.011054 0.046890 -0.122695 -0.118780 -0.212300 0.245598 0.325285 -0.173473 0.031183 0.035752 -0.346835 0.000367 -0.072926 -0.006977 -0.071233 -0.022260 0.123320 -0.233395 -0.053873 0.015364 0.126363 -0.209678 0.112680 0.026871 -0.096497 -0.115720 0.160160
7 0.134774 -0.293417 -0.039346 0.069584 -0.059658 0.087748 0.221925 0.281054 0.177701 -0.067023 0.151837 0.131405 -0.078929 -0.350705 0.328853 -0.356811 0.100774 -0.286461 0.118003 -0.019763 -0.032986 -0.111986 -0.132862 -0.062930 0.274307 -0.120442 -0.115202 -0.185043 -0.023654 0.101056 -0.028638 -0.076446 -0.126347 0.055164 -0.071200 -0.256212 0.225853 0.061655 0.034811 -0.206875 -0.228504 -0.067365 0.227402 0.278419 -0.286721 0.147439 -0.000062 -0.420710 0.157198 0.164961 -0.191066 0.103873 0.002055 0.233613 -0.207724 -0.087723 -0.057682 -0.026006 0.045348 -0.122386 0.174328 -0.198326 0.059967 0.243921
8 0.175585 -0.364292 -0.032478 0.120197 -0.087976 0.096800 0.261230 0.313699 0.226640 -0.028420 0.139930 0.125223 -0.104904 -0.382386 0.437678 -0.398441 0.105258 -0.367685 0.193662 -0.014018 -0.029154 -0.158091 -0.197128 -0.131321 0.374553 -0.123760 -0.127831 -0.206268 -0.067407 0.138777 -0.032454 -0.073741 -0.094350 0.023710 -0.061055 -0.284890 0.233195 0.099001 0.036629 -0.225908 -0.263497 -0.025468 0.222550 0.271876 -0.325752 0.190236 -0.016506 -0.460384 0.202817 0.247793 -0.252055 0.153786 0.020075 0.270095 -0.200106 -0.104387 -0.089188 -0.081475 0.127697 -0.224930 0.228099 -0.245576 0.122343 0.277689
10 -0.055601 -0.042896 -0.038714 -0.128177 0.084325 0.074270 0.102631 0.194569 -0.050326 -0.254802 0.269743 0.202298 -0.015063 -0.225549 -0.135937 -0.249436 0.117951 0.062969 -0.172685 -0.015000 -0.074583 0.099200 0.143594 0.200405 -0.182215 -0.071695 -0.041901 -0.097262 0.196394 -0.027709 -0.066859 -0.169031 -0.268652 0.297997 -0.142545 -0.183588 0.327217 -0.088607 0.055773 -0.119524 -0.093508 -0.306720 0.295167 0.398342 -0.138313 -0.003066 0.068079 -0.348800 -0.057871 -0.213434 0.080941 -0.173833 -0.034050 0.090008 -0.299151 -0.037345 0.056141 0.230644 -0.411601 0.295018 -0.068291 -0.039774 -0.252567 0.130277
9 -0.041127 -0.064873 -0.040752 -0.105129 0.067277 0.056252 0.102176 0.191442 -0.020095 -0.218641 0.242625 0.185254 -0.015720 -0.236760 -0.080256 -0.258327 0.101046 0.017835 -0.132087 -0.010854 -0.075285 0.085136 0.107421 0.150447 -0.121972 -0.066550 -0.053749 -0.101333 0.164107 -0.005903 -0.054571 -0.135608 -0.248535 0.244849 -0.107579 -0.187582 0.296779 -0.055369 0.050967 -0.103677 -0.096728 -0.272743 0.262163 0.361150 -0.159439 -0.005331 0.047761 -0.337063 -0.050283 -0.165334 0.043777 -0.133323 -0.038365 0.099173 -0.258309 -0.050881 0.036384 0.199150 -0.330329 0.220973 -0.044023 -0.058386 -0.199545 0.138429
