21 64
4 0.103700 -0.175895 0.014873 0.259121 0.077782 0.123949 0.295673 0.451727 0.172288 -0.177380 0.277056 0.021594 -0.167211 -0.526074 0.333678 -0.345393 0.253431 -0.459151 0.170891 -0.151218 -0.160623 -0.140645 -0.297460 -0.093376 0.473741 -0.320704 -0.136190 -0.241952 0.076620 0.250821 -0.089062 -0.273723 -0.154589 0.083490 -0.148794 -0.351458 0.261520 0.163578 -0.122443 -0.402811 -0.274919 -0.125686 0.536465 0.359467 -0.436416 0.016506 0.112072 -0.581415 0.277994 0.321901 -0.053211 0.216851 -0.193402 0.370112 -0.177653 -0.162774 -0.001299 -0.032692 0.166132 -0.198168 0.290985 -0.095407 -0.009228 0.242295
12 -0.042694 -0.383365 0.040769 -0.235757 -0.036641 -0.074812 -0.092533 0.004698 0.269236 0.206857 -0.081362 0.510500 0.086573 0.105991 0.114115 -0.117839 -0.462140 -0.109356 -0.169149 -0.100056 0.519462 -0.023326 0.424319 0.093950 0.047090 0.312294 0.256364 -0.057198 -0.047906 -0.142739 -0.102494 0.197025 0.034338 -0.046312 0.260719 -0.077167 0.171177 0.084039 -0.101554 0.037407 -0.402009 0.060604 0.122366 0.130279 0.042840 0.506152 0.293833 -0.086943 -0.000289 -0.049780 -0.320718 0.009097 0.126136 -0.051209 -0.050055 0.009057 -0.203939 -0.186027 -0.168706 -0.158643 0.503649 -0.355008 0.058277 0.083327
18 0.091343 -0.523867 -0.014332 -0.313430 -0.043586 -0.235765 -0.264351 0.074926 0.331341 0.323874 -0.187099 0.675753 0.235187 0.109572 0.086564 -0.204884 -0.658716 -0.055472 -0.130547 0.049245 0.820734 -0.180701 0.603685 0.219785 0.189263 0.540901 0.444197 -0.047422 0.004212 -0.224479 -0.148457 0.211823 0.065100 -0.009955 0.374316 -0.080838 0.142319 0.147135 -0.086597 0.080912 -0.468898 0.126024 0.030348 0.050045 0.104285 0.752886 0.435283 -0.197387 0.072495 -0.169964 -0.488838 -0.087280 0.251326 -0.147470 -0.065240 0.235958 -0.152690 -0.343694 -0.291679 -0.171660 0.686101 -0.569459 0.168026 0.305552
2 -0.065097 -0.235634 -0.036140 -0.046094 0.117169 0.074346 0.082364 0.276144 0.168849 -0.157039 0.270346 0.204813 -0.092209 -0.369337 0.186938 -0.305367 0.137677 -0.176541 0.039801 -0.146176 -0.033932 0.075354 -0.063039 0.031650 0.067653 -0.200639 -0.042443 -0.173768 0.015821 0.089993 -0.019755 -0.078621 -0.237036 0.143799 -0.003671 -0.287947 0.248175 0.097346 -0.050721 -0.214650 -0.243782 -0.190390 0.443820 0.380798 -0.359264 0.089111 0.064752 -0.420614 0.104833 0.075301 -0.113267 0.147604 -0.127639 0.233946 -0.228593 -0.177698 -0.008157 0.116474 -0.140096 -0.027700 0.186474 -0.165911 -0.125254 0.208413
15 -0.344454 -0.312784 0.269276 -0.225139 -0.094753 0.186977 0.303007 -0.187795 0.362402 0.188151 -0.073877 0.466615 -0.065990 0.290125 0.240122 -0.046740 -0.478821 -0.439861 -0.531341 -0.454297 0.331355 0.205921 0.437007 -0.096438 -0.070998 0.231421 0.030442 -0.081843 -0.149379 -0.128046 -0.199181 0.396852 0.180275 -0.262443 0.238402 -0.148843 0.294628 -0.064331 -0.151612 -0.018670 -0.629915 0.024753 0.191646 0.323000 0.091963 0.296177 0.124271 0.230527 -0.161670 0.228627 -0.186003 0.132375 -0.000514 0.142156 0.056183 -0.400807 -0.593583 -0.084209 0.079405 -0.318433 0.545836 -0.186695 -0.010326 -0.517323
14 -0.257318 -0.285411 0.156397 -0.219120 -0.028937 0.116951 0.143638 -0.079916 0.280380 0.119230 -0.006599 0.419232 -0.046871 0.134088 0.175198 -0.084047 -0.323812 -0.261826 -0.349843 -0.323707 0.267343 0.184538 0.340088 -0.032325 -0.095076 0.152944 0.059053 -0.071865 -0.114617 -0.080302 -0.107860 0.279616 0.043109 -0.121685 0.201439 -0.145747 0.255103 -0.015749 -0.119950 -0.013497 -0.476627 -0.022312 0.224167 0.301082 -0.009957 0.265864 0.125257 0.080403 -0.108863 0.122497 -0.178865 0.101239 -0.007640 0.115857 -0.021664 -0.288414 -0.391079 -0.010443 -0.054350 -0.202968 0.405005 -0.202012 -0.046756 -0.277020
6 0.225451 -0.165019 0.044367 0.502960 0.024198 0.233192 0.497461 0.537457 0.228037 -0.156315 0.239672 -0.067956 -0.277264 -0.566718 0.494383 -0.314804 0.262754 -0.651549 0.212756 -0.207913 -0.221444 -0.283155 -0.405101 -0.222267 0.749137 -0.406052 -0.200311 -0.341236 0.044387 0.384125 -0.112915 -0.382316 -0.031364 -0.008121 -0.225233 -0.348615 0.295054 0.186422 -0.260430 -0.526653 -0.353097 0.008675 0.620551 0.314774 -0.475414 0.052511 0.200061 -0.623726 0.437243 0.526160 -0.031454 0.316146 -0.220696 0.465484 -0.083188 -0.193699 -0.045321 -0.217496 0.414231 -0.371341 0.403125 -0.011185 0.076059 0.207119
9 -0.114759 -0.272213 -0.031300 -0.156130 0.060954 0.048622 -0.020043 0.116808 0.228424 -0.030960 0.120498 0.345391 -0.052583 -0.118562 0.123572 -0.159237 -0.113383 -0.036875 -0.084011 -0.147664 0.153524 0.113952 0.189265 0.039834 -0.082641 0.005972 0.069421 -0.137891 -0.076428 -0.022986 -0.005593 0.081867 -0.125265 0.039021 0.135980 -0.151932 0.243297 0.055739 -0.114699 -0.045634 -0.293490 -0.100005 0.319570 0.289030 -0.173664 0.251150 0.167559 -0.197467 0.016541 -0.032883 -0.189563 0.111959 -0.028793 0.081503 -0.119196 -0.138413 -0.097264 0.023051 -0.215618 -0.049538 0.247402 -0.203675 -0.107516 0.128155
5 0.052673 -0.257449 -0.046055 0.100970 0.125735 0.018754 0.186564 0.421715 0.185220 -0.220005 0.326954 0.098856 -0.115699 -0.561922 0.260046 -0.435025 0.249922 -0.364155 0.185262 -0.093199 -0.116505 -0.069912 -0.259423 0.036259 0.356416 -0.291207 -0.063146 -0.234756 0.089069 0.156687 -0.099549 -0.222706 -0.277246 0.154361 -0.066964 -0.407636 0.254062 0.181851 -0.047840 -0.373930 -0.231455 -0.244140 0.492119 0.400022 -0.474079 0.022920 0.102158 -0.640981 0.213973 0.191158 -0.127564 0.211203 -0.179296 0.275585 -0.232850 -0.130763 0.060698 0.069213 -0.004040 -0.106057 0.230180 -0.209248 -0.057360 0.394099
3 0.039842 -0.196617 0.023974 0.104659 0.048800 0.016463 0.210677 0.324797 0.147439 -0.130012 0.201133 0.069822 -0.093370 -0.430388 0.201243 -0.321535 0.147796 -0.356037 0.109552 -0.111588 -0.087897 -0.084351 -0.162185 0.000053 0.347666 -0.178201 -0.039547 -0.167883 0.089207 0.142904 -0.115850 -0.153924 -0.185922 0.072390 -0.058166 -0.324911 0.214008 0.135529 -0.063710 -0.302875 -0.244595 -0.187792 0.381603 0.324702 -0.338855 0.020788 0.126058 -0.478619 0.153782 0.211185 -0.108645 0.163225 -0.159720 0.232441 -0.154738 -0.112923 -0.028670 0.016194 0.054001 -0.119386 0.230612 -0.148662 -0.032137 0.261106
11 -0.052183 -0.374438 -0.028940 -0.190039 0.032011 0.005177 -0.126568 0.065577 0.304594 0.110132 -0.022153 0.491906 -0.000843 0.065986 0.151761 -0.098627 -0.364649 0.007102 -0.123893 -0.120193 0.455921 0.016707 0.380443 0.088638 -0.043938 0.183157 0.206917 -0.116099 -0.123695 -0.108187 -0.018595 0.134455 0.019194 -0.016130 0.234461 -0.040551 0.222415 0.081620 -0.164765 0.048784 -0.351585 0.080414 0.246112 0.159281 -0.030002 0.529683 0.315907 -0.102589 0.060137 -0.080781 -0.284820 0.072272 0.112758 -0.015899 -0.070625 -0.030344 -0.124797 -0.171570 -0.250474 -0.108046 0.425241 -0.302344 0.004142 0.146903
1 -0.086962 -0.285556 -0.023434 -0.056044 0.164774 -0.012750 0.133837 0.386789 0.181278 -0.267044 0.379881 0.143034 -0.078805 -0.575950 0.190292 -0.486234 0.287546 -0.313237 0.135907 -0.138142 -0.141043 0.055889 -0.212769 0.091199 0.172598 -0.287878 -0.056010 -0.193806 0.098393 0.084753 -0.106106 -0.134300 -0.368747 0.193754 -0.031567 -0.462959 0.267747 0.152509 0.034354 -0.359816 -0.244573 -0.377128 0.512239 0.505564 -0.502019 -0.050305 0.021502 -0.624647 0.116437 0.131776 -0.142463 0.206157 -0.221393 0.279578 -0.307710 -0.194142 0.034826 0.240208 -0.148378 -0.009055 0.173119 -0.253549 -0.154408 0.364718
13 -0.159545 -0.335933 0.131086 -0.248008 -0.060358 0.007714 0.061266 -0.078701 0.290738 0.181417 -0.087475 0.454520 0.039655 0.154073 0.136231 -0.098280 -0.446097 -0.223871 -0.305972 -0.229276 0.415392 0.072489 0.405630 0.035599 -0.028104 0.277744 0.170299 -0.053402 -0.080981 -0.146370 -0.144214 0.282262 0.071175 -0.138537 0.251757 -0.116227 0.219176 0.026567 -0.101416 0.012417 -0.457369 0.012421 0.125859 0.211465 0.059848 0.380352 0.213490 0.043002 -0.085958 0.053409 -0.267443 0.058716 0.065427 0.016105 -0.006643 -0.149747 -0.352303 -0.112093 -0.081832 -0.201775 0.474635 -0.283402 0.019541 -0.143998
10 -0.025705 -0.297541 -0.043170 -0.124687 0.034515 0.061171 -0.064474 0.094942 0.259678 0.058883 0.023268 0.398967 -0.034691 -0.007189 0.140786 -0.075096 -0.237788 0.008544 -0.089885 -0.111583 0.319697 0.023156 0.273906 0.053893 -0.031241 0.093300 0.139305 -0.132042 -0.106788 -0.041264 -0.001142 0.072915 -0.011879 0.017626 0.146370 -0.062099 0.210628 0.052068 -0.168470 -0.007324 -0.316304 0.045723 0.277816 0.184385 -0.069574 0.425358 0.261356 -0.138568 0.094146 -0.054307 -0.226065 0.085886 0.069593 0.038332 -0.083491 -0.043988 -0.092536 -0.140340 -0.199702 -0.085280 0.344832 -0.215885 -0.039985 0.124641
0 -0.101401 -0.266884 -0.019720 -0.115561 0.109874 -0.000292 0.079841 0.261186 0.167714 -0.177389 0.292597 0.206915 -0.050403 -0.399331 0.153954 -0.377095 0.143682 -0.224450 0.032251 -0.131062 -0.048479 0.078164 -0.069211 0.083967 0.068183 -0.167241 -0.011503 -0.166668 0.046503 0.026189 -0.073827 -0.040725 -0.287837 0.134461 0.040248 -0.356612 0.253965 0.115127 0.010616 -0.244716 -0.253251 -0.295831 0.394421 0.422292 -0.366942 0.035735 0.050266 -0.464031 0.040722 0.066036 -0.150330 0.142683 -0.156200 0.181749 -0.236307 -0.171075 -0.025057 0.188657 -0.172750 -0.011942 0.181045 -0.240572 -0.127971 0.266646
20 0.050505 -0.531662 0.007148 -0.338562 -0.066606 -0.252075 -0.223139 0.052931 0.325618 0.283365 -0.184973 0.665469 0.231819 0.108804 0.054578 -0.204223 -0.666828 -0.063834 -0.148582 0.016224 0.777462 -0.154781 0.613111 0.223649 0.140534 0.546014 0.447621 -0.056717 -0.002999 -0.263245 -0.171141 0.230893 0.039247 -0.046050 0.390854 -0.087606 0.179495 0.130676 -0.092082 0.057626 -0.482925 0.049947 0.032070 0.090166 0.113116 0.702325 0.458546 -0.191630 0.024451 -0.179416 -0.505627 -0.064995 0.221385 -0.190658 -0.050536 0.201364 -0.179727 -0.294479 -0.308909 -0.152325 0.666241 -0.560125 0.145165 0.310147
19 0.073312 -0.552575 0.000732 -0.364179 -0.061089 -0.268032 -0.260102 0.056339 0.334428 0.298753 -0.180216 0.700887 0.243038 0.093004 0.050442 -0.223813 -0.677327 -0.067651 -0.126993 0.052196 0.801762 -0.168817 0.618583 0.245118 0.152421 0.564466 0.459905 -0.052879 0.007136 -0.265954 -0.167075 0.236107 0.018477 -0.031615 0.395749 -0.104808 0.158133 0.155171 -0.068498 0.066929 -0.479599 0.046233 0.030733 0.086624 0.106412 0.727394 0.463199 -0.233325 0.023580 -0.189850 -0.522748 -0.080620 0.217793 -0.196771 -0.058848 0.231068 -0.170761 -0.284947 -0.315188 -0.154418 0.674026 -0.600874 0.152912 0.353508
17 -0.403885 -0.289484 0.303479 -0.208044 -0.114021 0.226212 0.382767 -0.196849 0.376512 0.184781 -0.047937 0.468685 -0.100603 0.295377 0.252027 -0.026771 -0.449401 -0.501170 -0.582857 -0.517398 0.250798 0.259641 0.430634 -0.160008 -0.091948 0.197200 -0.021141 -0.088746 -0.158087 -0.089407 -0.198185 0.422374 0.170618 -0.286772 0.216547 -0.179753 0.338056 -0.088125 -0.176143 -0.036431 -0.667646 -0.011674 0.233730 0.388206 0.060150 0.217033 0.094711 0.275334 -0.197033 0.289989 -0.157283 0.157399 -0.040926 0.183634 0.072118 -0.491481 -0.657917 -0.019483 0.126817 -0.358763 0.534172 -0.153010 -0.047529 -0.624453
7 0.266290 -0.154892 0.022009 0.495360 0.005104 0.212414 0.458017 0.522004 0.216001 -0.132049 0.195861 -0.074236 -0.254699 -0.550692 0.471767 -0.287126 0.245994 -0.600067 0.229683 -0.164684 -0.189509 -0.308321 -0.387612 -0.198574 0.756096 -0.374788 -0.181617 -0.318881 0.040394 0.370225 -0.096982 -0.373284 -0.028483 -0.008881 -0.229516 -0.314014 0.253497 0.171717 -0.252623 -0.497611 -0.325683 0.037477 0.569374 0.270997 -0.436606 0.078185 0.212605 -0.600384 0.446253 0.495620 -0.045869 0.296884 -0.187398 0.438927 -0.082418 -0.133302 -0.017858 -0.248789 0.407579 -0.344116 0.382913 -0.014109 0.094543 0.238920
8 0.242683 -0.187714 0.022144 0.462083 0.030282 0.192858 0.438284 0.549865 0.211108 -0.151914 0.241837 -0.048374 -0.251429 -0.596807 0.468676 -0.345688 0.275837 -0.600554 0.251266 -0.157838 -0.196375 -0.284846 -0.397115 -0.181611 0.736350 -0.379015 -0.171018 -0.315255 0.060340 0.371385 -0.105961 -0.383335 -0.076965 0.039433 -0.219581 -0.359139 0.284066 0.194454 -0.220711 -0.500885 -0.328372 -0.015414 0.597387 0.321851 -0.479491 0.074772 0.197212 -0.663668 0.426675 0.478938 -0.058025 0.284930 -0.196783 0.448205 -0.127494 -0.146131 -0.010013 -0.200592 0.349292 -0.330297 0.377058 -0.056366 0.072539 0.284893
16 -0.351043 -0.312443 0.244940 -0.234514 -0.093168 0.175916 0.284026 -0.174503 0.363684 0.178723 -0.062320 0.491817 -0.078030 0.275615 0.226812 -0.044943 -0.469701 -0.401135 -0.521378 -0.452329 0.303585 0.231806 0.454803 -0.103023 -0.102021 0.221453 0.041304 -0.091544 -0.159978 -0.123464 -0.178382 0.398122 0.135650 -0.251664 0.246711 -0.144582 0.320417 -0.071238 -0.175829 -0.018131 -0.624000 0.006578 0.223406 0.342766 0.066395 0.282889 0.147023 0.222239 -0.174358 0.210535 -0.188340 0.140479 -0.007238 0.131900 0.055368 -0.400000 -0.569356 -0.048372 0.039507 -0.311143 0.520677 -0.200212 -0.046045 -0.487599
