23 64
20 -0.043568 -0.014482 -0.144490 -0.271797 -0.533605 -0.383365 -0.020582 -0.064414 -0.044828 0.239815 -0.292231 0.150098 0.469309 -0.239756 -0.095329 -0.038861 -0.342330 0.247644 0.169349 0.315354 0.559485 -0.280427 0.552553 0.242650 0.068270 0.601397 0.390999 -0.268873 0.108672 -0.169815 -0.010847 -0.165574 0.069814 0.123464 -0.075637 -0.237902 0.145701 -0.155406 -0.085880 -0.163142 -0.493911 -0.062066 -0.672660 0.042389 0.173515 0.480133 0.162591 0.193327 0.500375 -0.512940 -0.284839 -0.102079 0.380940 -0.564619 0.075715 0.511372 0.122980 -0.493953 -0.609022 0.236608 0.201636 -0.071084 0.218771 0.606011
12 -0.055997 -0.147326 -0.000259 -0.217943 -0.054736 -0.177145 -0.156669 -0.173692 0.079359 0.189422 -0.089713 0.187629 0.155475 -0.037184 0.122233 -0.044389 -0.454988 -0.019762 0.034329 -0.070539 0.639036 -0.045082 0.161406 0.197309 -0.069044 0.159418 0.291405 -0.056754 0.018208 -0.083753 -0.002855 -0.036711 0.084788 -0.010866 0.163006 -0.057574 0.078884 0.289167 -0.070349 0.079345 -0.103427 0.196455 -0.137222 -0.109758 0.006834 0.547301 0.218427 0.089364 0.151520 -0.155962 -0.154118 0.099094 0.206208 -0.228534 0.009376 -0.004104 -0.008979 -0.382266 -0.141362 -0.066210 0.348117 -0.046859 0.201103 0.197822
3 -0.266982 -0.312943 0.307834 -0.264001 -0.021397 -0.058347 0.065253 0.205417 0.295103 0.083002 0.180241 0.391674 0.035393 -0.120284 0.219558 -0.382890 -0.040425 -0.547424 -0.269582 -0.356920 0.337158 -0.037355 0.113757 0.167734 0.078716 -0.051803 0.031579 0.172279 0.106771 -0.129004 -0.134385 0.151701 -0.106056 0.007390 -0.034641 -0.362351 0.410060 0.231764 0.233648 -0.061967 -0.360558 -0.137471 0.414765 0.532583 -0.242281 0.207990 0.142188 -0.152899 -0.192689 0.356932 -0.074063 0.009434 0.030720 0.276424 -0.465910 -0.298756 -0.361916 0.297485 -0.196672 -0.022876 0.388155 -0.459177 0.009153 -0.112727
19 0.062272 -0.078667 -0.193150 -0.174654 -0.344745 -0.226677 -0.078258 -0.053226 0.128484 0.183001 -0.242061 0.225002 0.268442 -0.174415 0.030707 -0.024767 -0.413236 0.224749 0.141871 0.278646 0.566520 -0.235515 0.452391 0.200570 0.051734 0.450848 0.288353 -0.298347 -0.006560 -0.104712 0.035914 -0.135209 0.107740 0.022126 0.004933 -0.142031 0.159777 -0.005018 -0.170876 -0.001472 -0.344619 0.081362 -0.428397 -0.014607 0.123862 0.602683 0.264544 0.102282 0.431170 -0.437966 -0.262893 -0.007529 0.331610 -0.430218 0.132185 0.385699 0.104581 -0.560660 -0.416385 0.081410 0.227694 -0.073426 0.217729 0.582351
11 0.029410 -0.175971 -0.074303 -0.120830 -0.027011 -0.076442 -0.118168 -0.055851 0.225482 0.119603 -0.078314 0.246196 0.053879 -0.060674 0.192871 -0.081586 -0.414807 -0.002834 0.009668 -0.012650 0.569248 -0.084957 0.187550 0.162752 -0.007515 0.129943 0.188453 -0.144553 -0.053729 -0.050861 0.017933 -0.047711 0.104339 -0.053386 0.133373 -0.060858 0.178005 0.252563 -0.137591 0.119478 -0.124755 0.209789 -0.020982 -0.028717 -0.017916 0.592556 0.280678 0.014730 0.181693 -0.147272 -0.162314 0.110789 0.211479 -0.140498 0.027117 0.015812 -0.010243 -0.418937 -0.134544 -0.104344 0.323510 -0.095142 0.184247 0.273686
10 0.168439 -0.152618 -0.279164 -0.018350 -0.202608 -0.021862 -0.025864 0.044753 0.330988 0.090252 -0.169693 0.274966 0.040594 -0.154552 0.174287 -0.026288 -0.358355 0.224755 0.093269 0.244456 0.478883 -0.208235 0.353062 0.135902 0.100754 0.289889 0.170841 -0.374046 -0.144938 -0.023049 0.048806 -0.132170 0.138028 -0.029389 0.029047 -0.102255 0.270318 0.027226 -0.296312 0.074895 -0.303243 0.157502 -0.166673 0.050290 0.057570 0.694506 0.367255 -0.014370 0.422342 -0.351111 -0.269656 0.100084 0.325164 -0.256737 0.133227 0.284447 0.079125 -0.649172 -0.295560 -0.045304 0.235550 -0.093044 0.157745 0.584793
6 0.077182 -0.305996 -0.066669 0.006101 0.066621 0.078981 0.011085 0.059183 0.403158 0.038215 -0.013383 0.267395 -0.152178 -0.121089 0.370566 -0.154462 -0.318347 -0.142644 0.001141 -0.116440 0.456361 -0.055662 0.041851 0.083640 0.093762 -0.023506 0.087674 -0.189591 -0.172255 0.041455 -0.014884 -0.029873 0.089420 -0.111869 0.152433 -0.117916 0.312233 0.297144 -0.219913 0.097966 -0.163305 0.199392 0.243612 0.124302 -0.135890 0.619850 0.352148 -0.123038 0.162461 0.049818 -0.216955 0.254510 0.157170 0.062754 -0.007924 -0.147431 -0.108463 -0.421251 0.005698 -0.267041 0.370680 -0.161567 0.150301 0.261613
5 -0.043458 -0.283252 0.058231 -0.102529 0.057053 0.014578 0.009235 0.047734 0.313394 0.046769 0.071564 0.283952 -0.076984 -0.086767 0.293839 -0.204874 -0.239794 -0.273728 -0.096997 -0.209629 0.420857 -0.014864 0.019512 0.127828 0.044171 -0.066304 0.068734 -0.036253 -0.062206 -0.032303 -0.047999 0.033391 0.003769 -0.067911 0.103742 -0.164035 0.297031 0.295947 -0.044204 0.060784 -0.152060 0.092416 0.272360 0.207924 -0.158758 0.443994 0.254818 -0.109452 -0.002794 0.135163 -0.141683 0.167832 0.113019 0.101030 -0.160933 -0.223701 -0.168468 -0.153280 -0.019270 -0.172439 0.351754 -0.222243 0.111913 0.094020
14 -0.215811 -0.199956 0.236831 -0.277731 -0.005297 -0.152407 -0.040946 -0.122287 0.050754 0.172125 -0.008754 0.162070 0.126575 -0.053231 0.155313 -0.162418 -0.268478 -0.317574 -0.063700 -0.288599 0.518506 0.049629 0.015107 0.168479 -0.042193 0.068231 0.232831 0.143480 0.063290 -0.095256 -0.115250 0.065818 0.002254 0.004700 0.129968 -0.192650 0.138223 0.287840 0.097093 -0.029118 -0.191678 0.040495 0.046719 0.125157 -0.066111 0.310227 0.094404 0.053883 -0.046570 0.139384 -0.110329 0.095976 0.101482 0.005699 -0.184270 -0.215278 -0.210692 -0.064193 -0.075719 -0.109573 0.388070 -0.175985 0.149586 -0.091073
16 -0.343605 -0.234005 0.365641 -0.360602 -0.096481 -0.156304 0.032039 0.128802 0.181839 0.157477 0.118656 0.357909 0.177040 -0.065506 0.106903 -0.343925 -0.062694 -0.527742 -0.269895 -0.330445 0.357864 -0.029957 0.184022 0.167604 0.035346 0.071988 0.095910 0.245677 0.176778 -0.207175 -0.169031 0.195669 -0.094260 0.027137 -0.053751 -0.359486 0.309213 0.149455 0.321206 -0.109736 -0.406873 -0.168909 0.253309 0.479680 -0.148617 0.097225 0.031114 -0.043769 -0.203789 0.306960 -0.049369 -0.066563 0.047365 0.205619 -0.457270 -0.212648 -0.359956 0.352492 -0.252760 0.040212 0.383056 -0.459053 0.002546 -0.205710
0 -0.374172 -0.314415 0.384470 -0.377042 -0.203171 -0.135651 0.111956 0.350640 0.300746 0.109289 0.235220 0.495809 0.179616 -0.165505 0.123348 -0.477691 0.122678 -0.625540 -0.355309 -0.320058 0.231530 -0.133566 0.282895 0.183824 0.104592 0.042783 -0.003227 0.218691 0.208746 -0.231963 -0.149874 0.220597 -0.181479 0.063055 -0.188796 -0.511836 0.501182 0.075781 0.412488 -0.182998 -0.568621 -0.349671 0.390039 0.773154 -0.267274 0.043831 0.055720 -0.175225 -0.236523 0.389298 -0.081296 -0.143246 0.019916 0.284890 -0.642458 -0.208788 -0.437224 0.595637 -0.418780 0.155902 0.355407 -0.635646 -0.070520 -0.121005
1 -0.397419 -0.307081 0.422601 -0.386259 -0.128681 -0.155770 0.085894 0.256667 0.266362 0.138064 0.180166 0.431493 0.178644 -0.116373 0.123222 -0.440820 0.050673 -0.635617 -0.314250 -0.368237 0.295637 -0.065822 0.213640 0.169464 0.082748 0.047270 0.045002 0.275219 0.200465 -0.229023 -0.193023 0.239811 -0.143339 0.043994 -0.124630 -0.465207 0.397904 0.114900 0.403799 -0.167167 -0.511622 -0.279797 0.365022 0.662483 -0.228031 0.034221 0.015978 -0.113653 -0.235322 0.407218 -0.076815 -0.083415 0.019812 0.301681 -0.588449 -0.246736 -0.434589 0.522244 -0.322605 0.081548 0.395741 -0.587692 -0.047915 -0.213036
18 -0.039241 -0.057751 -0.064646 -0.244764 -0.188291 -0.246132 -0.165452 -0.128387 0.028801 0.222532 -0.170368 0.184366 0.290321 -0.070171 0.013271 -0.039103 -0.421394 0.115194 0.048050 0.101902 0.619443 -0.134206 0.341592 0.221851 -0.037346 0.333997 0.319968 -0.115667 0.074623 -0.120006 0.006615 -0.070286 0.104681 0.051399 0.076621 -0.093439 0.061077 0.118279 -0.053145 0.027072 -0.207495 0.148670 -0.338002 -0.102324 0.086687 0.512722 0.162233 0.147300 0.271593 -0.307303 -0.154380 -0.027237 0.268456 -0.322600 0.042699 0.221173 0.062389 -0.408297 -0.327363 0.061770 0.276610 -0.060012 0.190314 0.299895
2 -0.299261 -0.277692 0.316339 -0.312298 -0.140292 -0.104972 0.086464 0.339485 0.287305 0.086502 0.210667 0.472709 0.146117 -0.147151 0.120795 -0.443805 0.065673 -0.539370 -0.333907 -0.280623 0.241021 -0.115850 0.276087 0.165370 0.093825 0.019581 -0.022861 0.183351 0.201442 -0.185575 -0.119653 0.173707 -0.157533 0.066542 -0.173978 -0.425369 0.456758 0.081340 0.346752 -0.128224 -0.469652 -0.254617 0.396677 0.663374 -0.254729 0.075003 0.068079 -0.173310 -0.194605 0.324127 -0.047277 -0.140336 0.033930 0.295363 -0.576153 -0.187987 -0.359393 0.499210 -0.366591 0.134803 0.325285 -0.550251 -0.064416 -0.114870
9 0.226599 -0.229574 -0.322890 0.050856 -0.129232 0.054192 -0.013712 0.073409 0.466241 0.048342 -0.162261 0.318314 -0.082430 -0.194576 0.299494 -0.051639 -0.418888 0.184739 0.113681 0.210178 0.488545 -0.180428 0.294449 0.090354 0.138718 0.219080 0.114258 -0.445513 -0.244540 0.038580 0.074996 -0.119026 0.144345 -0.119227 0.104172 -0.090999 0.327485 0.122490 -0.400073 0.144179 -0.285307 0.215263 -0.029543 0.061042 -0.008284 0.793278 0.460290 -0.087759 0.422094 -0.303610 -0.320614 0.213581 0.295353 -0.186183 0.193704 0.192048 0.049867 -0.743999 -0.176892 -0.178728 0.287551 -0.101122 0.193108 0.645334
8 0.209050 -0.317246 -0.242983 0.111386 -0.077854 0.149463 0.098093 0.163869 0.526015 -0.007246 -0.083063 0.306005 -0.210083 -0.206792 0.394114 -0.128069 -0.254183 0.034429 0.079439 0.098775 0.351396 -0.153905 0.161833 0.044224 0.191904 0.087985 0.032393 -0.383137 -0.284794 0.074569 0.026086 -0.087165 0.102157 -0.115724 0.066995 -0.148540 0.421870 0.116879 -0.352996 0.094395 -0.298752 0.150215 0.158604 0.223278 -0.088087 0.714445 0.439736 -0.169048 0.332227 -0.094121 -0.319203 0.257909 0.248406 -0.007969 0.069989 0.050874 -0.050710 -0.595870 -0.109832 -0.235631 0.275297 -0.183584 0.138338 0.548342
15 -0.328012 -0.199808 0.348910 -0.369366 -0.029025 -0.186002 -0.034898 -0.052725 0.064228 0.175950 0.099251 0.244880 0.207810 -0.017394 0.097699 -0.249278 -0.208736 -0.456988 -0.196525 -0.351986 0.489474 0.032389 0.071502 0.178237 -0.068279 0.059064 0.167712 0.256679 0.185186 -0.192200 -0.166003 0.147831 -0.035878 0.019403 0.044851 -0.259012 0.184487 0.270434 0.287804 -0.040653 -0.244118 -0.072677 0.128103 0.266077 -0.085296 0.181522 0.002652 0.018422 -0.192966 0.205431 -0.050033 -0.015355 0.070703 0.092809 -0.366805 -0.265598 -0.301081 0.173768 -0.129927 -0.007439 0.421242 -0.279051 0.078858 -0.234460
17 -0.395875 -0.262143 0.414815 -0.407773 -0.130748 -0.176977 0.033669 0.184646 0.222305 0.171579 0.181330 0.436552 0.219166 -0.067456 0.086884 -0.383865 -0.025756 -0.602058 -0.330171 -0.345938 0.365803 -0.061110 0.227636 0.181498 0.034529 0.078445 0.067480 0.285973 0.225914 -0.235645 -0.172140 0.228878 -0.111921 0.042106 -0.100505 -0.425653 0.365021 0.163230 0.403197 -0.103729 -0.460956 -0.245197 0.294302 0.586250 -0.183181 0.071054 0.017945 -0.071176 -0.258781 0.338944 -0.052186 -0.121285 0.042671 0.225098 -0.550753 -0.240081 -0.423017 0.474316 -0.301640 0.082310 0.409741 -0.533594 -0.011601 -0.236343
7 0.175498 -0.333764 -0.192774 0.078027 -0.026960 0.137718 0.086286 0.113503 0.518628 -0.007977 -0.060802 0.296885 -0.213727 -0.202038 0.423680 -0.132986 -0.294131 -0.057406 0.053367 -0.003154 0.404122 -0.105815 0.083876 0.065973 0.171041 0.019058 0.037359 -0.332907 -0.279983 0.064439 0.015893 -0.055668 0.079788 -0.152950 0.113224 -0.146421 0.393635 0.200729 -0.339366 0.092413 -0.260391 0.165305 0.216449 0.207928 -0.116729 0.703438 0.443998 -0.161539 0.273037 -0.026750 -0.312366 0.312171 0.211691 0.022256 0.050792 -0.051191 -0.082963 -0.564139 -0.017399 -0.276039 0.334101 -0.172372 0.165716 0.466987
4 -0.174487 -0.255034 0.204476 -0.202218 0.014087 -0.037818 0.006944 0.168304 0.276999 0.067545 0.160321 0.362054 0.030116 -0.087525 0.203642 -0.303914 -0.114083 -0.413526 -0.224139 -0.271387 0.355231 -0.042325 0.107739 0.138410 0.040989 -0.047074 0.025306 0.105280 0.083845 -0.102566 -0.086375 0.098861 -0.059477 -0.008522 -0.006749 -0.261237 0.355903 0.244822 0.153929 0.003895 -0.254115 -0.050274 0.363226 0.392572 -0.196033 0.261031 0.155617 -0.142291 -0.138123 0.233020 -0.059114 0.008329 0.058436 0.212881 -0.361673 -0.241182 -0.263085 0.161945 -0.145119 -0.045346 0.362986 -0.355942 0.029160 -0.064461
13 -0.096954 -0.177451 0.102010 -0.226777 0.015394 -0.143978 -0.108986 -0.165352 0.080218 0.169470 -0.049119 0.151044 0.114457 -0.035341 0.169237 -0.103722 -0.393241 -0.160997 -0.016821 -0.192900 0.601338 0.010542 0.040581 0.181893 -0.079025 0.077292 0.258843 0.043981 0.027177 -0.079665 -0.062249 0.011536 0.058977 -0.025466 0.171258 -0.095391 0.112085 0.332077 -0.000958 0.055880 -0.076096 0.163907 -0.023044 -0.030067 -0.030034 0.466651 0.165090 0.067521 0.039855 -0.001989 -0.129727 0.123451 0.163694 -0.087347 -0.078886 -0.141141 -0.100836 -0.266975 -0.056615 -0.123587 0.374315 -0.085989 0.177945 0.038479
21 -0.117463 0.014389 -0.060824 -0.339746 -0.484772 -0.433897 -0.072678 -0.143531 -0.139971 0.285536 -0.281810 0.111179 0.516268 -0.204784 -0.120410 -0.040977 -0.370052 0.189937 0.159316 0.235473 0.624034 -0.229122 0.502358 0.272350 0.015797 0.575366 0.442193 -0.169909 0.170383 -0.182260 -0.027302 -0.151974 0.065427 0.153371 -0.047245 -0.228465 0.066257 -0.084480 -0.012410 -0.166736 -0.434092 -0.026192 -0.691646 -0.028439 0.167711 0.440073 0.096970 0.246920 0.446732 -0.466530 -0.225261 -0.114235 0.356714 -0.555900 0.046378 0.450248 0.113688 -0.433626 -0.583537 0.239050 0.226552 -0.047732 0.230668 0.481377
22 -0.052071 -0.014601 -0.140369 -0.311085 -0.512775 -0.438284 -0.082791 -0.124359 -0.089073 0.277024 -0.316847 0.151970 0.517919 -0.237001 -0.085695 -0.042055 -0.442279 0.255227 0.198282 0.308259 0.685655 -0.272506 0.574308 0.279233 0.028596 0.627445 0.449815 -0.270244 0.141843 -0.166422 -0.003299 -0.192457 0.083625 0.136435 -0.037688 -0.225896 0.102400 -0.091062 -0.093147 -0.149916 -0.447463 -0.002580 -0.727510 -0.036316 0.182235 0.563844 0.156501 0.238108 0.534811 -0.552716 -0.282136 -0.103243 0.392619 -0.610768 0.106668 0.510187 0.159584 -0.547357 -0.611356 0.220127 0.252355 -0.036974 0.265140 0.615327
