12 64
9 -0.176953 -0.258233 -0.120574 0.042302 -0.006956 0.161463 0.000963 0.375479 0.563403 -0.135733 -0.026980 0.287160 -0.224888 -0.145199 0.186087 -0.164765 0.012531 0.219554 -0.019647 -0.009061 -0.146613 0.068465 0.394971 -0.235770 -0.068921 0.166271 -0.130171 -0.257287 -0.321282 0.015092 0.047724 0.198770 0.060930 -0.201671 0.147584 -0.110119 0.512157 -0.100663 -0.246386 0.248512 -0.426458 -0.172573 0.357269 0.477734 -0.132024 0.231244 0.217870 -0.111262 0.008141 -0.087893 -0.267903 0.166185 -0.018928 0.191018 0.028149 -0.080381 -0.215532 -0.110276 -0.397325 -0.076520 0.061057 -0.254945 -0.189291 0.355784
8 -0.101060 -0.231064 -0.063060 0.044233 0.006754 0.104896 0.069288 0.320157 0.376486 -0.129675 0.039416 0.204380 -0.173442 -0.209941 0.175007 -0.225549 0.053062 0.039755 0.013933 -0.026543 -0.102812 0.029236 0.207789 -0.121838 0.048105 0.052150 -0.115641 -0.182274 -0.160389 0.047028 -0.000933 0.075066 -0.030278 -0.075256 0.050823 -0.155751 0.380945 -0.037159 -0.128745 0.104618 -0.306650 -0.155884 0.310153 0.397135 -0.174150 0.160621 0.150195 -0.200329 0.029799 -0.007389 -0.184323 0.119482 -0.028929 0.197185 -0.068775 -0.085565 -0.138879 -0.051603 -0.254754 -0.042003 0.064067 -0.201837 -0.113491 0.302539
6 0.053967 -0.102473 -0.039572 0.094199 0.081476 0.003298 0.184780 0.270857 0.072342 -0.180747 0.222887 0.113849 -0.074748 -0.378959 0.116262 -0.326058 0.066858 -0.265148 0.018941 -0.035370 -0.048554 0.003143 -0.098917 0.047141 0.264915 -0.169661 -0.144539 -0.126657 0.169985 0.143684 -0.070509 -0.190877 -0.234605 0.132271 -0.100044 -0.239189 0.209468 0.106512 -0.022417 -0.115818 -0.085389 -0.158741 0.313165 0.277853 -0.289306 -0.016548 0.082130 -0.427417 0.051285 0.034381 0.010931 0.024445 -0.078744 0.210307 -0.177699 -0.111253 0.044669 0.018550 0.043277 -0.018617 0.106200 -0.052185 0.002792 0.218066
2 0.079741 -0.103274 -0.016140 0.078696 0.082952 -0.020694 0.218521 0.260376 -0.005239 -0.185415 0.252517 0.089877 -0.051073 -0.429306 0.110240 -0.376381 0.089282 -0.335481 0.026184 -0.046553 -0.039425 -0.003487 -0.160996 0.100859 0.303710 -0.216743 -0.145188 -0.096401 0.242275 0.159028 -0.085895 -0.233474 -0.294814 0.194531 -0.143097 -0.270055 0.166878 0.123876 0.037289 -0.175763 -0.045304 -0.166773 0.302406 0.267028 -0.324027 -0.049329 0.048131 -0.478283 0.053690 0.063762 0.038099 -0.000671 -0.088737 0.228683 -0.237887 -0.119485 0.071602 0.064485 0.077977 0.015519 0.094970 -0.037510 0.022545 0.205281
1 -0.054484 -0.196296 -0.027303 0.035053 0.032002 0.044050 0.112054 0.289193 0.239257 -0.134423 0.099555 0.148279 -0.112177 -0.282436 0.139591 -0.273593 0.073280 -0.095898 0.030371 -0.045623 -0.079081 0.013092 0.077361 -0.037969 0.130774 -0.036278 -0.103154 -0.136731 -0.016937 0.074120 -0.039426 -0.012026 -0.117134 0.015788 -0.011771 -0.202173 0.269630 0.015832 -0.052252 -0.018654 -0.222933 -0.165448 0.294151 0.337664 -0.226808 0.072221 0.096248 -0.282773 0.049179 0.036925 -0.122323 0.092159 -0.066007 0.206574 -0.128104 -0.093364 -0.071576 0.009671 -0.141718 -0.014824 0.079626 -0.151867 -0.076250 0.255353
4 0.121700 -0.066230 -0.021408 0.108825 0.114184 -0.046739 0.249403 0.272881 -0.056999 -0.217816 0.322934 0.080451 -0.034042 -0.491817 0.106807 -0.416624 0.099656 -0.433217 0.029003 -0.037821 -0.024568 -0.011395 -0.252552 0.140791 0.387238 -0.277715 -0.172804 -0.091759 0.331567 0.185496 -0.116140 -0.315635 -0.355273 0.243845 -0.186868 -0.311327 0.151559 0.172830 0.055069 -0.221468 0.002725 -0.188139 0.330429 0.271117 -0.358203 -0.094542 0.043276 -0.566675 0.053304 0.066041 0.092219 -0.023401 -0.097354 0.243571 -0.272600 -0.126530 0.121979 0.066386 0.165796 0.005220 0.125917 -0.014335 0.059034 0.209283
5 0.077976 -0.090673 -0.043411 0.090674 0.092343 -0.013437 0.207324 0.249658 0.031223 -0.194655 0.255835 0.104794 -0.064864 -0.402339 0.112856 -0.352386 0.075007 -0.316856 0.011822 -0.028700 -0.034015 0.006629 -0.154908 0.094797 0.297992 -0.207849 -0.154269 -0.115111 0.215469 0.147189 -0.085993 -0.226253 -0.277842 0.170017 -0.124126 -0.261896 0.184391 0.123923 0.006528 -0.143365 -0.043585 -0.166788 0.298137 0.269833 -0.303128 -0.039591 0.067209 -0.459010 0.043853 0.036723 0.038730 0.010084 -0.072294 0.205453 -0.204941 -0.114858 0.074080 0.032643 0.086234 -0.008135 0.098903 -0.042775 0.027706 0.215807
3 0.074501 -0.088759 -0.017685 0.087515 0.088726 -0.017719 0.215298 0.246517 -0.005251 -0.190777 0.259323 0.081917 -0.064437 -0.417467 0.107994 -0.363147 0.094052 -0.339077 0.017655 -0.043604 -0.039394 -0.002096 -0.171125 0.113329 0.313740 -0.221111 -0.147169 -0.094107 0.240091 0.156880 -0.091685 -0.239640 -0.290238 0.190213 -0.139487 -0.269273 0.168661 0.132800 0.029519 -0.160157 -0.036073 -0.170658 0.295088 0.267137 -0.309683 -0.045057 0.063210 -0.470451 0.039459 0.062206 0.052747 -0.000827 -0.088381 0.212771 -0.228288 -0.118994 0.071284 0.049341 0.086908 0.014365 0.090712 -0.032408 0.029793 0.214549
0 -0.018029 -0.162775 -0.032632 0.040565 0.036070 0.040776 0.132048 0.261964 0.167416 -0.148358 0.147804 0.131976 -0.101766 -0.303641 0.137536 -0.288046 0.078978 -0.147571 0.010426 -0.042696 -0.073534 0.006997 0.015487 0.005824 0.158867 -0.084898 -0.114098 -0.136185 0.035014 0.085032 -0.039604 -0.064458 -0.157074 0.053231 -0.032635 -0.211460 0.253185 0.047428 -0.031969 -0.049466 -0.172790 -0.164052 0.277265 0.315359 -0.238028 0.055135 0.090694 -0.324244 0.030927 0.036325 -0.074046 0.058793 -0.070666 0.186318 -0.147459 -0.100352 -0.039762 0.022065 -0.091397 -0.001201 0.073930 -0.119564 -0.044193 0.246346
7 0.003758 -0.135708 -0.057386 0.065361 0.047536 0.042414 0.134325 0.274579 0.179444 -0.162617 0.150768 0.143794 -0.101179 -0.311465 0.132209 -0.275866 0.060587 -0.145734 0.001515 -0.031277 -0.062772 0.012285 0.014492 0.001160 0.178330 -0.093897 -0.138603 -0.145171 0.045672 0.095317 -0.035847 -0.082953 -0.164773 0.047717 -0.047533 -0.200239 0.256222 0.043936 -0.059871 -0.036146 -0.161391 -0.153153 0.299988 0.314335 -0.234863 0.046324 0.105801 -0.329228 0.040267 0.011870 -0.056910 0.057988 -0.058982 0.198908 -0.139092 -0.092652 -0.016160 -0.006017 -0.059639 -0.010355 0.085419 -0.099961 -0.036394 0.242561
10 -0.153137 -0.247435 -0.118133 0.051241 0.003644 0.158853 0.018728 0.367182 0.531578 -0.148266 -0.005476 0.278903 -0.220339 -0.148706 0.182489 -0.169787 0.019025 0.187393 -0.020913 -0.009709 -0.125196 0.057350 0.356322 -0.200082 -0.046868 0.133661 -0.131402 -0.248613 -0.288164 0.013407 0.033902 0.156105 0.045167 -0.169519 0.114727 -0.113064 0.495143 -0.094713 -0.231948 0.214659 -0.397444 -0.164905 0.362087 0.466330 -0.130962 0.227041 0.217960 -0.131038 0.022210 -0.083977 -0.240173 0.155073 -0.007300 0.189162 0.002886 -0.074961 -0.186044 -0.109054 -0.371720 -0.063143 0.066381 -0.240444 -0.174595 0.346082
11 -0.180952 -0.267120 -0.120408 0.051978 -0.000947 0.164569 -0.005283 0.389816 0.579703 -0.150017 -0.029692 0.294437 -0.236863 -0.132849 0.202439 -0.171108 0.009132 0.221069 -0.019515 -0.016422 -0.131995 0.060867 0.403697 -0.231079 -0.070854 0.157479 -0.139896 -0.258524 -0.335151 0.002257 0.053601 0.191777 0.072433 -0.212707 0.145035 -0.095240 0.530219 -0.100027 -0.250328 0.260022 -0.421202 -0.158974 0.375675 0.482522 -0.128947 0.249042 0.234131 -0.101462 0.010529 -0.085493 -0.261784 0.169521 -0.008264 0.193596 0.021953 -0.083635 -0.209438 -0.111926 -0.411776 -0.070558 0.063025 -0.263801 -0.176640 0.367175
