19 64
16 -0.151393 -0.050732 -0.105692 -0.018833 -0.158094 -0.231604 -0.106945 0.062509 0.508695 0.438869 -0.093231 0.652816 0.043663 0.411908 0.352825 -0.133534 -0.665600 -0.290440 -0.534281 -0.202096 0.354869 0.044309 0.658549 -0.329037 0.153999 0.267390 0.118958 -0.075151 -0.087147 -0.155465 -0.040394 0.444588 0.064738 -0.437398 0.367531 0.053903 0.533169 0.063309 -0.317519 0.250984 -0.274621 0.376768 0.152818 0.090059 -0.029371 0.261467 0.277546 0.432074 -0.341281 0.198319 -0.002751 0.004312 0.262596 0.059096 0.181888 -0.111160 -0.207607 -0.077922 0.043668 -0.580151 0.535588 -0.534468 -0.032388 -0.300493
9 -0.280149 -0.170900 0.159229 -0.319043 0.049501 0.047773 -0.034844 -0.143871 0.066112 -0.002821 0.036480 0.158119 -0.055219 -0.080846 0.027127 -0.094926 -0.196697 -0.000963 -0.215226 -0.329405 0.177229 0.279057 0.154468 0.105538 -0.394670 0.027019 0.091102 0.082554 -0.037283 -0.028039 -0.014311 0.212360 -0.128057 -0.043625 0.201752 -0.104640 0.271471 0.176567 0.002869 0.192535 -0.118880 -0.153820 0.188648 0.289710 -0.071669 0.242291 0.128782 0.025272 -0.297666 -0.008566 -0.117567 0.082590 -0.080655 0.069648 -0.161528 -0.366896 -0.304137 0.077663 -0.214464 0.057097 0.100965 -0.001474 -0.135234 -0.075105
12 -0.229360 -0.098014 -0.002175 -0.181379 -0.077786 -0.125647 -0.122426 -0.090410 0.325997 0.275386 -0.045393 0.461590 0.008448 0.269898 0.191170 -0.044658 -0.500476 -0.121757 -0.412391 -0.267655 0.317803 0.167169 0.460495 -0.131007 -0.150395 0.171271 0.139799 0.009838 -0.096730 -0.134532 -0.009421 0.380837 -0.009779 -0.292038 0.324273 0.023580 0.401901 0.119334 -0.197025 0.259680 -0.183394 0.159816 0.142068 0.147080 -0.010972 0.279472 0.236844 0.329840 -0.350635 0.084620 -0.064713 0.056103 0.134936 -0.001824 0.054064 -0.227053 -0.247832 -0.009315 -0.070895 -0.305089 0.351081 -0.299521 -0.084008 -0.222783
14 -0.297204 -0.176756 0.150018 -0.346250 0.035705 0.003332 -0.067920 -0.174908 0.087194 0.063681 0.016690 0.222245 -0.027991 0.004626 0.039251 -0.091533 -0.242543 -0.024775 -0.266997 -0.322963 0.228520 0.283990 0.212979 0.107560 -0.380374 0.063808 0.124100 0.100688 -0.046397 -0.060857 -0.013447 0.265363 -0.118803 -0.055922 0.240320 -0.096400 0.259398 0.162238 0.003854 0.203032 -0.125521 -0.106373 0.141289 0.259083 -0.056042 0.245612 0.119644 0.108263 -0.324315 0.012659 -0.113185 0.061866 -0.039300 0.039918 -0.136119 -0.347615 -0.305641 0.108315 -0.216665 0.011199 0.126253 -0.077439 -0.117173 -0.128958
3 -0.231708 -0.253547 0.193248 -0.226072 0.056147 0.076346 0.083526 0.025859 0.024477 -0.070290 0.146393 0.105896 -0.080946 -0.255023 0.121029 -0.294233 -0.031569 -0.174962 -0.095684 -0.291705 0.066627 0.164431 0.036078 0.094507 -0.153423 -0.044730 0.023048 0.016099 0.049533 0.035826 -0.074569 0.078126 -0.154852 0.069260 0.106751 -0.231351 0.262042 0.184088 0.102585 0.023687 -0.200677 -0.210039 0.245458 0.349700 -0.193912 0.202106 0.046756 -0.245294 -0.178579 0.089824 -0.111575 0.054700 -0.151201 0.176967 -0.260660 -0.336791 -0.274016 0.096651 -0.195770 0.074960 0.130709 -0.053211 -0.094893 0.061412
2 -0.311437 -0.313744 0.239722 -0.379987 0.094590 0.082894 0.048399 -0.069275 -0.020518 -0.112264 0.174799 0.099115 -0.046999 -0.265886 0.061512 -0.294382 -0.019434 -0.128862 -0.106185 -0.350196 0.116167 0.247292 0.009609 0.202086 -0.339535 -0.063134 0.064076 0.057665 0.044708 -0.026561 -0.077230 0.122054 -0.198732 0.118508 0.135220 -0.260659 0.210070 0.198469 0.186155 0.007454 -0.189024 -0.299469 0.231641 0.383442 -0.189253 0.217198 -0.003172 -0.247566 -0.213793 0.037246 -0.161349 0.077352 -0.185659 0.141383 -0.332438 -0.403580 -0.305874 0.185432 -0.282171 0.182177 0.101018 -0.028090 -0.131282 0.038222
4 -0.184209 -0.340714 0.193177 -0.151535 0.054557 0.094057 0.148337 0.178409 0.067051 -0.130476 0.251887 0.100168 -0.088793 -0.372966 0.243413 -0.432900 0.073032 -0.325837 0.018880 -0.273197 0.011734 0.048812 -0.073929 0.052148 0.022863 -0.112736 -0.024641 -0.072000 0.067307 0.026574 -0.125155 -0.006671 -0.157224 0.089660 0.051027 -0.323693 0.287074 0.203456 0.152200 -0.144204 -0.295951 -0.251553 0.340143 0.415286 -0.280224 0.200002 0.006491 -0.465806 -0.066022 0.168117 -0.148761 0.090232 -0.189740 0.245995 -0.332388 -0.308856 -0.238805 0.091961 -0.157143 0.037712 0.238110 -0.142675 -0.061713 0.188647
6 -0.071005 -0.435738 0.218773 0.061503 0.018718 0.172697 0.312218 0.455296 0.149971 -0.147881 0.299803 0.107601 -0.183543 -0.608294 0.467930 -0.614310 0.113354 -0.537103 0.149877 -0.317958 -0.053408 -0.093073 -0.142211 -0.118593 0.343129 -0.182213 -0.122966 -0.175611 0.103517 0.187337 -0.158436 -0.140573 -0.154607 0.080915 -0.047211 -0.407338 0.445207 0.264456 0.089875 -0.252339 -0.454475 -0.197003 0.579470 0.532679 -0.442398 0.288071 0.072518 -0.747739 0.081206 0.340640 -0.181600 0.142929 -0.227825 0.485909 -0.418512 -0.343056 -0.269757 -0.054484 -0.039646 -0.094807 0.415185 -0.172223 -0.020912 0.320374
13 -0.238114 -0.105184 0.061727 -0.255434 -0.035866 -0.090292 -0.095212 -0.134521 0.216861 0.204092 -0.033993 0.337340 0.029058 0.163291 0.108947 -0.068064 -0.391749 -0.091570 -0.369141 -0.269296 0.282669 0.196752 0.347756 -0.023071 -0.239145 0.141107 0.139979 0.059763 -0.050727 -0.109228 -0.025460 0.340268 -0.041893 -0.194900 0.281372 -0.038801 0.321081 0.131978 -0.088964 0.222166 -0.138847 0.052846 0.095632 0.171772 -0.019478 0.235281 0.154356 0.256293 -0.337204 0.058761 -0.077787 0.039238 0.071984 0.016832 -0.016411 -0.256500 -0.271319 0.047277 -0.113425 -0.178087 0.248526 -0.207952 -0.094684 -0.218447
10 -0.292932 -0.141015 0.110086 -0.295349 0.027014 -0.011924 -0.078156 -0.159321 0.148637 0.069380 0.013257 0.259205 -0.044401 0.074592 0.047865 -0.053682 -0.292543 -0.012407 -0.301912 -0.313442 0.234587 0.262645 0.265543 0.070386 -0.362973 0.072471 0.124526 0.068848 -0.065521 -0.090532 -0.019019 0.266710 -0.085187 -0.116223 0.250935 -0.053632 0.314932 0.152488 -0.064308 0.227571 -0.118101 -0.069584 0.163715 0.244711 -0.027574 0.254849 0.182721 0.160912 -0.334461 -0.000379 -0.085542 0.072882 -0.005795 0.004846 -0.082260 -0.324499 -0.280612 0.069916 -0.206101 -0.034075 0.154981 -0.096586 -0.130130 -0.126353
11 -0.280647 -0.091163 0.058726 -0.254133 -0.019587 -0.087802 -0.129757 -0.148626 0.251398 0.181318 -0.062313 0.362067 -0.015094 0.203281 0.100835 -0.026826 -0.445843 -0.031927 -0.399159 -0.309878 0.301791 0.244758 0.405493 -0.029015 -0.315339 0.143418 0.136912 0.068127 -0.097041 -0.118851 0.004893 0.359510 -0.037321 -0.249462 0.319621 0.018389 0.387262 0.148251 -0.153552 0.314710 -0.112528 0.065381 0.144165 0.186868 -0.001002 0.267006 0.236967 0.327761 -0.394038 0.031106 -0.062026 0.061698 0.077149 -0.004521 0.016051 -0.299936 -0.283563 0.038673 -0.152635 -0.176182 0.228492 -0.186602 -0.103841 -0.213020
15 -0.280068 -0.236792 0.191821 -0.330987 0.055718 0.054698 0.004431 -0.107551 0.033320 -0.027137 0.101434 0.132869 -0.035301 -0.136535 0.065264 -0.189657 -0.111617 -0.094098 -0.163288 -0.318246 0.156737 0.229445 0.080923 0.137365 -0.318318 -0.006111 0.077576 0.066329 0.001914 -0.041470 -0.052988 0.175358 -0.133588 0.023292 0.167057 -0.178170 0.216892 0.177811 0.102848 0.085483 -0.161213 -0.194690 0.174795 0.305332 -0.113399 0.226973 0.042367 -0.091215 -0.241031 0.035110 -0.135341 0.070840 -0.113327 0.095475 -0.230367 -0.355304 -0.298095 0.117229 -0.214588 0.089401 0.125408 -0.042450 -0.108653 -0.034377
5 -0.262999 -0.406714 0.221980 -0.276160 0.084568 0.090026 0.134309 0.097355 0.026075 -0.171382 0.317676 0.092816 -0.067559 -0.373347 0.205016 -0.470769 0.122567 -0.325785 0.000930 -0.295331 0.015509 0.095443 -0.108180 0.163185 -0.084546 -0.137323 0.011888 -0.070637 0.070262 -0.036901 -0.142416 0.023073 -0.191262 0.149209 0.092771 -0.385658 0.234076 0.219974 0.245543 -0.188255 -0.294613 -0.350337 0.282963 0.436523 -0.296581 0.194392 -0.054697 -0.495584 -0.098273 0.139532 -0.183065 0.096910 -0.236797 0.173842 -0.373320 -0.351858 -0.259957 0.192397 -0.239393 0.125659 0.195996 -0.159474 -0.080131 0.209163
1 -0.320213 -0.378028 0.236860 -0.361952 0.100098 0.055262 0.069778 0.009937 0.005767 -0.156161 0.280309 0.088501 -0.025533 -0.298442 0.117668 -0.404078 0.093901 -0.249220 -0.045013 -0.308441 0.055257 0.149458 -0.064274 0.217478 -0.212978 -0.104544 0.057040 -0.012883 0.065300 -0.090898 -0.135667 0.084682 -0.188181 0.142160 0.124220 -0.353740 0.181000 0.202125 0.267012 -0.145969 -0.250147 -0.368187 0.225220 0.405718 -0.241596 0.169053 -0.070731 -0.382620 -0.148367 0.091528 -0.180231 0.088975 -0.232090 0.116670 -0.357192 -0.353073 -0.266142 0.246728 -0.290423 0.178559 0.151567 -0.142713 -0.111057 0.143072
0 -0.359032 -0.377464 0.252838 -0.439594 0.101212 0.080718 0.038824 -0.073451 -0.033339 -0.160475 0.285323 0.081327 -0.028680 -0.281582 0.087754 -0.367840 0.088463 -0.195769 -0.086447 -0.337745 0.065399 0.204557 -0.062483 0.265107 -0.335352 -0.099421 0.082812 0.004834 0.035973 -0.108407 -0.109399 0.122643 -0.202647 0.144959 0.170542 -0.349124 0.186878 0.223651 0.278792 -0.104194 -0.235573 -0.403842 0.190033 0.418546 -0.217201 0.200052 -0.065023 -0.349305 -0.216070 0.058156 -0.191400 0.082562 -0.250433 0.066075 -0.359651 -0.397998 -0.309576 0.276400 -0.338687 0.222291 0.111174 -0.111495 -0.124214 0.125170
18 -0.129751 -0.051051 -0.098806 0.012018 -0.162252 -0.228518 -0.089547 0.103847 0.518510 0.466827 -0.109453 0.660592 0.049554 0.378453 0.363156 -0.153575 -0.675948 -0.307626 -0.535450 -0.192840 0.370126 0.028886 0.677135 -0.355174 0.206512 0.285757 0.099535 -0.062700 -0.055449 -0.097416 -0.037077 0.433424 0.075473 -0.419663 0.343902 0.039201 0.543794 0.072822 -0.319743 0.282456 -0.285565 0.401241 0.161718 0.098375 -0.052367 0.277093 0.271015 0.418921 -0.321382 0.212684 -0.003595 -0.019732 0.275293 0.115905 0.166508 -0.114009 -0.226397 -0.110886 0.065052 -0.598904 0.551536 -0.522761 -0.019357 -0.315800
17 -0.125729 -0.035627 -0.103273 0.040316 -0.186877 -0.235809 -0.086765 0.104797 0.553063 0.493746 -0.129579 0.690369 0.037568 0.413146 0.374694 -0.113851 -0.726423 -0.312139 -0.558392 -0.210195 0.384072 0.024816 0.711879 -0.397418 0.207305 0.298237 0.101937 -0.064756 -0.072595 -0.089746 -0.026121 0.447424 0.090039 -0.470382 0.352624 0.066684 0.592129 0.083480 -0.373552 0.314188 -0.287008 0.427612 0.184658 0.100804 -0.041777 0.293288 0.324832 0.466972 -0.343455 0.226668 -0.001974 -0.007258 0.293462 0.104653 0.198516 -0.129730 -0.243609 -0.130587 0.094024 -0.647879 0.579170 -0.521759 -0.019015 -0.340002
7 -0.011176 -0.451075 0.165461 0.141271 -0.023841 0.154063 0.335616 0.542950 0.227763 -0.116140 0.308164 0.160571 -0.181161 -0.597001 0.564289 -0.665932 0.113428 -0.620477 0.162849 -0.270979 -0.062226 -0.177528 -0.127412 -0.184352 0.507442 -0.182039 -0.158429 -0.231393 0.089368 0.172306 -0.167719 -0.142444 -0.136214 0.039342 -0.067976 -0.416136 0.467712 0.230756 0.069186 -0.305397 -0.509040 -0.134138 0.592320 0.528091 -0.462481 0.288918 0.070799 -0.774748 0.136548 0.396096 -0.185935 0.147652 -0.184315 0.517237 -0.406120 -0.274953 -0.230858 -0.090189 0.020447 -0.176942 0.487339 -0.273478 0.018993 0.359393
8 -0.023348 -0.409264 0.168142 0.105576 -0.020294 0.147611 0.298077 0.460118 0.185185 -0.092359 0.258940 0.140184 -0.171948 -0.534730 0.494534 -0.586475 0.087575 -0.530652 0.144536 -0.257082 -0.046974 -0.126619 -0.108554 -0.167965 0.407078 -0.145845 -0.130087 -0.181183 0.074392 0.172495 -0.144446 -0.116559 -0.126534 0.045592 -0.049835 -0.366718 0.432851 0.217227 0.065205 -0.235578 -0.445860 -0.122962 0.524406 0.480968 -0.406957 0.276303 0.064439 -0.676893 0.093979 0.347805 -0.173034 0.125600 -0.159845 0.468440 -0.371306 -0.273601 -0.235408 -0.081954 0.001597 -0.156452 0.417529 -0.225679 0.008680 0.301821
