21 64
4 0.012352 -0.293914 -0.127181 0.064135 0.267780 -0.124033 0.308806 0.122233 0.186455 -0.292026 0.446487 0.258958 -0.149764 -0.336487 0.275011 -0.524900 -0.013293 -0.570469 -0.063923 -0.036008 0.186781 0.156057 -0.383412 0.261140 0.363577 -0.259077 -0.045434 -0.222509 0.126636 0.071792 -0.263925 -0.305931 -0.321864 0.225342 0.143375 -0.484720 0.420051 0.331927 -0.086881 -0.168088 -0.002215 -0.289991 0.244010 0.391376 -0.394213 0.042067 0.169507 -0.514630 -0.052869 0.013296 -0.054455 0.146987 0.102066 -0.018196 -0.105266 -0.307096 0.063709 -0.024768 0.147497 -0.345132 0.244000 -0.291685 0.226089 0.303256
5 -0.007760 -0.363538 -0.124646 0.041750 0.278549 -0.102274 0.332825 0.077500 0.197300 -0.311104 0.456335 0.262610 -0.179294 -0.320802 0.282204 -0.520615 -0.023990 -0.552272 -0.030828 -0.042464 0.196470 0.181936 -0.403437 0.274623 0.318706 -0.265452 -0.032141 -0.247741 0.088791 0.063538 -0.268876 -0.304906 -0.307464 0.240587 0.168625 -0.485907 0.399217 0.339045 -0.081075 -0.169567 -0.005355 -0.305445 0.223909 0.375953 -0.399015 0.079201 0.164668 -0.528909 -0.031384 -0.008850 -0.103181 0.189482 0.102464 -0.061434 -0.092850 -0.340782 0.050340 -0.042215 0.137012 -0.342233 0.231146 -0.276476 0.231216 0.332526
12 -0.163961 -0.425208 0.360883 -0.388826 -0.165043 0.039951 -0.106221 -0.254279 0.036782 0.302656 -0.236664 0.346039 -0.140658 0.161900 0.216266 -0.023853 -0.423945 -0.064991 -0.015862 -0.368085 0.392877 0.162590 0.268258 -0.026569 -0.416276 0.258784 0.317453 0.246346 -0.249180 -0.097862 0.016893 0.322776 -0.059600 -0.148291 0.258162 0.071971 0.323790 0.206531 0.036137 0.205580 -0.213932 0.098714 0.179911 0.199248 0.106071 0.579618 0.310144 0.134197 -0.361736 0.237493 -0.283135 0.064839 0.069392 0.005343 -0.175643 -0.292173 -0.459802 0.076739 -0.230467 -0.160797 0.235508 -0.280239 -0.011133 -0.084638
2 -0.041693 -0.342766 0.003782 -0.062822 0.098450 -0.006927 0.204731 0.068453 0.047667 -0.160843 0.192401 0.213037 -0.136215 -0.219038 0.195827 -0.363632 -0.033744 -0.213363 -0.002529 -0.084578 0.151530 0.170507 -0.121539 0.137185 0.042002 -0.044644 0.029070 -0.082450 -0.016474 0.057010 -0.116551 -0.144486 -0.213042 0.205270 0.134404 -0.257596 0.394174 0.154546 -0.019808 -0.018482 -0.099061 -0.205380 0.155517 0.347566 -0.216383 0.185467 0.132846 -0.322564 -0.091431 -0.028180 -0.154839 0.039600 0.119229 0.007713 -0.178187 -0.256321 -0.085880 0.006588 -0.137803 -0.135020 0.100770 -0.199637 0.126866 0.214592
13 -0.113855 -0.298863 0.328050 -0.332678 -0.156406 0.005486 -0.054507 -0.178655 0.062169 0.344944 -0.299775 0.293083 -0.055423 0.146532 0.214679 -0.069019 -0.388689 -0.124018 -0.149250 -0.348739 0.379467 0.123357 0.287682 -0.035712 -0.294510 0.288418 0.318703 0.250323 -0.191775 -0.076123 -0.036388 0.336783 -0.020573 -0.160723 0.241595 0.011294 0.357194 0.125620 0.000703 0.121163 -0.243072 0.150798 0.133274 0.209733 0.100356 0.456556 0.245190 0.227527 -0.317277 0.302659 -0.217103 0.018953 0.119231 0.118076 -0.137336 -0.227209 -0.450939 0.070066 -0.196501 -0.235266 0.259772 -0.325208 -0.017976 -0.246437
16 -0.006893 -0.089714 0.276263 -0.254975 -0.196914 -0.165180 -0.009812 -0.166776 0.174259 0.504031 -0.347943 0.351079 0.030636 0.244882 0.304035 -0.148872 -0.561576 -0.430906 -0.402241 -0.389311 0.440751 0.015367 0.332816 -0.054669 -0.047691 0.242793 0.362321 0.255654 -0.057762 -0.152000 -0.152059 0.413208 -0.050858 -0.349644 0.233594 -0.021391 0.431394 0.146326 -0.071317 -0.025978 -0.164636 0.357242 0.148506 0.124374 0.081316 0.321445 0.298185 0.408443 -0.392267 0.533533 -0.028841 0.024407 0.187015 0.204796 -0.035104 -0.153841 -0.386290 0.101225 0.049167 -0.482166 0.413965 -0.501664 -0.044617 -0.478848
0 -0.054968 -0.337736 -0.023003 -0.036910 0.147524 -0.031251 0.218252 0.062541 0.101089 -0.187556 0.258189 0.197359 -0.128951 -0.215993 0.212659 -0.370406 -0.011691 -0.296760 -0.003507 -0.079981 0.147872 0.154152 -0.201645 0.155509 0.107463 -0.098758 0.031098 -0.135966 -0.007808 0.036858 -0.161480 -0.162767 -0.191803 0.186084 0.160615 -0.315397 0.356581 0.197078 -0.037526 -0.090074 -0.095991 -0.231023 0.154964 0.327478 -0.249995 0.138678 0.116699 -0.348358 -0.050955 -0.006328 -0.151280 0.103252 0.090075 -0.027527 -0.122709 -0.266655 -0.056665 -0.005016 -0.058463 -0.199958 0.155562 -0.220286 0.141876 0.222553
14 -0.147255 -0.351481 0.263531 -0.272171 -0.060818 0.089772 0.008446 -0.066874 0.003318 0.160152 -0.192104 0.226528 -0.083963 0.006707 0.164299 -0.121286 -0.161404 -0.004058 -0.054241 -0.249685 0.263810 0.191130 0.192643 -0.005920 -0.268767 0.266435 0.220862 0.168860 -0.209402 0.021347 -0.014091 0.187436 -0.025322 0.041291 0.222573 -0.072489 0.352312 0.048592 0.001415 0.119773 -0.304235 -0.023137 0.111088 0.315290 0.032691 0.378019 0.141881 0.056277 -0.196562 0.137720 -0.259579 -0.022087 0.106815 0.118581 -0.171887 -0.233644 -0.400386 0.051528 -0.324088 -0.129102 0.146918 -0.243994 0.033001 -0.114597
9 -0.119294 -0.351305 0.133929 -0.174389 -0.008808 0.060426 0.096610 0.022273 0.013469 0.004374 -0.035609 0.197030 -0.094603 -0.089741 0.159761 -0.218156 -0.078270 -0.014257 -0.019852 -0.168809 0.172375 0.183082 0.093904 0.019692 -0.170934 0.159493 0.140059 0.040110 -0.146420 0.028176 -0.048856 0.048164 -0.081828 0.120790 0.190293 -0.130326 0.391627 0.040349 -0.015930 0.059640 -0.246691 -0.121814 0.111059 0.337294 -0.064345 0.282998 0.115116 -0.101311 -0.130326 0.021398 -0.238070 -0.004869 0.121786 0.063404 -0.177537 -0.226167 -0.260342 0.022347 -0.314326 -0.092778 0.102644 -0.205478 0.043248 0.041757
10 -0.080394 -0.277354 0.127696 -0.156914 -0.023792 0.024851 0.071901 -0.007173 0.047432 0.055829 -0.056568 0.203595 -0.076510 -0.025507 0.163266 -0.178166 -0.134605 -0.081539 -0.069814 -0.175209 0.200895 0.123674 0.103758 0.031881 -0.121230 0.131676 0.155813 0.049321 -0.116941 -0.015181 -0.065425 0.072979 -0.067742 0.042631 0.165123 -0.101549 0.348669 0.057206 -0.029732 0.022501 -0.200072 -0.042458 0.118595 0.266359 -0.033815 0.268697 0.150981 -0.034243 -0.136446 0.086268 -0.174859 0.011380 0.117130 0.056944 -0.135519 -0.180044 -0.227715 0.022232 -0.221007 -0.131355 0.144060 -0.227166 0.029090 -0.011091
3 0.000439 -0.261943 -0.062745 0.013762 0.189394 -0.063803 0.219930 0.097250 0.115987 -0.222192 0.321010 0.218496 -0.141518 -0.287283 0.210050 -0.412380 -0.000297 -0.405886 -0.041667 -0.040466 0.142748 0.131480 -0.256808 0.219745 0.242145 -0.170895 -0.027189 -0.151500 0.073973 0.077494 -0.168880 -0.224934 -0.267974 0.192010 0.120996 -0.371403 0.351194 0.263498 -0.056932 -0.089298 -0.033557 -0.242290 0.205694 0.343370 -0.302466 0.088158 0.166539 -0.420743 -0.071675 0.012722 -0.064296 0.083938 0.055006 -0.005953 -0.110450 -0.248966 0.002242 0.004987 0.044124 -0.223305 0.158683 -0.230124 0.178220 0.271536
1 -0.061651 -0.418444 -0.073837 0.007449 0.256705 -0.046816 0.306356 0.122351 0.139483 -0.325635 0.403307 0.220873 -0.173359 -0.343485 0.237797 -0.493909 0.061049 -0.401590 0.040633 -0.046361 0.150062 0.198907 -0.342075 0.238501 0.220509 -0.186937 -0.016460 -0.215458 0.034894 0.083478 -0.226896 -0.292429 -0.266400 0.298880 0.167338 -0.456405 0.397988 0.261345 -0.050961 -0.141332 -0.093412 -0.360383 0.211466 0.424074 -0.368099 0.103723 0.122740 -0.535456 0.002806 -0.056655 -0.174017 0.150447 0.085799 -0.039689 -0.145393 -0.328421 -0.001845 -0.022505 -0.029432 -0.236008 0.174933 -0.242775 0.203462 0.355801
8 -0.083633 -0.348499 0.086755 -0.124442 0.021644 0.046672 0.128252 0.041460 0.012751 -0.063359 0.048362 0.190156 -0.121725 -0.136060 0.164733 -0.260213 -0.040896 -0.062750 0.013646 -0.116573 0.146762 0.165237 0.011422 0.062285 -0.094680 0.085110 0.086712 -0.000027 -0.102586 0.042641 -0.060572 -0.034652 -0.125509 0.161256 0.150121 -0.161751 0.377648 0.076821 -0.001896 0.049698 -0.179268 -0.155663 0.116429 0.332899 -0.108339 0.254537 0.119593 -0.193008 -0.113015 -0.008268 -0.204353 -0.001295 0.118391 0.032441 -0.185884 -0.220835 -0.188412 0.014152 -0.260335 -0.079478 0.072349 -0.189764 0.076806 0.136593
11 -0.106671 -0.335739 0.205982 -0.228520 -0.067925 0.018442 -0.006102 -0.094315 0.047251 0.124953 -0.105345 0.255245 -0.112754 0.041380 0.188043 -0.127683 -0.244542 -0.086578 -0.027601 -0.237708 0.266931 0.124407 0.149061 0.019291 -0.218113 0.150747 0.196575 0.111240 -0.163397 -0.051200 -0.021199 0.147361 -0.070853 -0.040808 0.196810 -0.024236 0.325309 0.139494 -0.000422 0.102308 -0.169984 0.012264 0.149441 0.219493 0.004008 0.381395 0.224552 0.010361 -0.222033 0.138620 -0.203208 0.039467 0.083496 0.015233 -0.140218 -0.223968 -0.288361 0.051511 -0.207090 -0.133008 0.165113 -0.240801 0.035035 0.004314
20 -0.092649 -0.357822 0.042724 -0.086867 0.076350 0.019060 0.164161 0.049628 0.041111 -0.134123 0.125983 0.174529 -0.121632 -0.157318 0.167220 -0.279368 -0.026034 -0.116442 0.027870 -0.114654 0.148543 0.167533 -0.068102 0.095704 -0.036217 0.016000 0.075087 -0.061298 -0.080447 0.025574 -0.103126 -0.093208 -0.132681 0.173500 0.162137 -0.199879 0.356382 0.103895 -0.030048 -0.014509 -0.161549 -0.198352 0.131211 0.321817 -0.149129 0.210551 0.122575 -0.249303 -0.063122 -0.036917 -0.204255 0.059322 0.107260 -0.012528 -0.158196 -0.238900 -0.126946 -0.014859 -0.203632 -0.101786 0.110973 -0.174302 0.098181 0.182492
6 -0.026608 -0.387387 -0.096755 0.035173 0.271144 -0.070491 0.327351 0.115078 0.160550 -0.325426 0.442956 0.246637 -0.181862 -0.356328 0.271195 -0.521520 0.016504 -0.501365 -0.001980 -0.055553 0.172940 0.185808 -0.379310 0.259454 0.292978 -0.238531 -0.028820 -0.241071 0.073243 0.088014 -0.246483 -0.315696 -0.299581 0.271722 0.169724 -0.480679 0.416254 0.317975 -0.078705 -0.165002 -0.057795 -0.334563 0.242213 0.411868 -0.399863 0.096590 0.163331 -0.560409 -0.017201 -0.022450 -0.129407 0.166165 0.080252 -0.040632 -0.122188 -0.344158 0.022967 -0.035352 0.063949 -0.296422 0.219810 -0.256986 0.226293 0.352719
7 0.033952 -0.300480 -0.129025 0.048955 0.256904 -0.092105 0.301484 0.117159 0.182091 -0.299264 0.433097 0.268880 -0.165938 -0.364372 0.276199 -0.518250 -0.012123 -0.556995 -0.070125 -0.035105 0.185664 0.150360 -0.368562 0.291114 0.362354 -0.266732 -0.061416 -0.232247 0.112124 0.084551 -0.230403 -0.299313 -0.339669 0.221509 0.136569 -0.479204 0.401935 0.332414 -0.091544 -0.156883 -0.015727 -0.285333 0.256758 0.396232 -0.395876 0.075753 0.198048 -0.536638 -0.048702 0.011641 -0.061980 0.143805 0.074887 -0.011224 -0.110118 -0.299975 0.053866 -0.026980 0.143054 -0.308155 0.225806 -0.276308 0.235475 0.335257
19 -0.126840 -0.401237 0.304248 -0.325111 -0.111051 0.058265 -0.073494 -0.171838 0.032987 0.199600 -0.180800 0.302003 -0.135449 0.075898 0.180325 -0.062342 -0.304403 -0.057909 0.012927 -0.274210 0.315187 0.137164 0.203231 0.011650 -0.329191 0.226781 0.245231 0.177576 -0.225859 -0.053453 0.022810 0.230225 -0.059602 -0.081582 0.226496 0.010612 0.291702 0.182353 0.032407 0.167521 -0.212952 0.021598 0.163780 0.221208 0.059716 0.489230 0.269042 0.031549 -0.279690 0.177193 -0.267927 0.037201 0.036018 0.003028 -0.145218 -0.247528 -0.398713 0.083701 -0.233201 -0.126776 0.175447 -0.255959 0.034123 -0.005945
18 -0.007496 -0.101709 0.348519 -0.330102 -0.258318 -0.172559 -0.092499 -0.186531 0.179375 0.632736 -0.459394 0.413474 0.052891 0.294189 0.321485 -0.120312 -0.646325 -0.413399 -0.448014 -0.441608 0.518243 -0.005114 0.458108 -0.075305 -0.112147 0.334541 0.438403 0.336135 -0.090865 -0.159034 -0.109792 0.518996 -0.034520 -0.411868 0.271491 0.018550 0.469237 0.166466 -0.068139 0.028941 -0.209046 0.436896 0.163521 0.128359 0.121922 0.422408 0.356733 0.504597 -0.460589 0.613813 -0.054217 -0.014440 0.192167 0.242448 -0.049769 -0.145726 -0.480235 0.139671 -0.008318 -0.505737 0.454644 -0.572587 -0.060643 -0.550634
17 -0.020807 -0.131176 0.359169 -0.330918 -0.256104 -0.166102 -0.087884 -0.195123 0.178744 0.614815 -0.437451 0.413061 0.040950 0.286057 0.309229 -0.102851 -0.629504 -0.409909 -0.414290 -0.435465 0.513165 -0.000177 0.433457 -0.071800 -0.128912 0.326666 0.427263 0.334053 -0.098380 -0.144100 -0.098615 0.503716 -0.032967 -0.398426 0.267250 0.008765 0.457379 0.189388 -0.059536 0.046190 -0.202640 0.398528 0.161096 0.138587 0.111897 0.427738 0.359102 0.482194 -0.457079 0.599201 -0.078702 -0.004083 0.177117 0.211946 -0.050399 -0.170898 -0.492057 0.149725 -0.003032 -0.495922 0.441866 -0.551110 -0.044555 -0.521377
15 -0.185994 -0.424163 0.272965 -0.298180 -0.068937 0.127088 0.045706 -0.106655 -0.012034 0.118800 -0.171301 0.210092 -0.107103 0.018740 0.168219 -0.123883 -0.171091 0.049352 -0.014884 -0.266537 0.265637 0.226243 0.182271 -0.012151 -0.348897 0.271287 0.213091 0.154263 -0.238121 -0.006860 -0.027775 0.184529 -0.006321 0.064799 0.228376 -0.049950 0.356620 0.029305 0.034760 0.143367 -0.315147 -0.058517 0.084615 0.321474 0.056538 0.427182 0.113165 0.029045 -0.193600 0.073448 -0.311670 0.000610 0.127554 0.083973 -0.210533 -0.276173 -0.420770 0.007942 -0.366027 -0.074165 0.130352 -0.193017 0.024227 -0.077991
