22 64
16 -0.157953 0.015466 0.386756 -0.341929 -0.090899 -0.049957 -0.019456 -0.426124 -0.109163 0.501830 -0.359507 0.295191 0.064556 0.441157 0.209348 0.020216 -0.641202 -0.434492 -0.550724 -0.536298 0.551997 0.202243 0.339762 0.031077 -0.094462 0.298869 0.426779 0.306825 -0.047085 -0.209555 -0.210341 0.401212 0.036583 -0.256974 0.358372 0.095107 0.192660 0.046796 -0.117279 -0.091087 -0.304070 0.417263 0.056408 -0.025979 0.303164 0.294062 0.223112 0.509278 -0.414690 0.446402 0.097778 -0.051057 0.122493 0.136578 0.046013 -0.185253 -0.425134 -0.021891 0.103320 -0.423998 0.542581 -0.314600 0.036739 -0.777457
19 -0.140188 -0.205646 0.452337 -0.530386 -0.316610 -0.167182 0.070246 -0.039081 0.033803 0.003624 -0.239590 0.101881 0.187977 -0.532055 -0.141663 -0.416828 -0.198549 -0.415287 0.153916 0.050576 0.325211 -0.272782 0.129794 0.491298 0.221140 0.339670 0.071534 0.104323 0.140444 -0.251988 -0.065104 0.048680 -0.058796 -0.099417 -0.096607 -0.384685 -0.068165 0.308030 0.505107 -0.004099 -0.519961 -0.252654 -0.168592 0.163328 -0.040341 0.163956 0.268330 -0.442732 0.008372 0.007284 -0.164832 -0.049440 -0.161551 -0.147672 -0.155893 0.168910 -0.380707 -0.005087 -0.318337 0.418724 0.023602 -0.266223 0.388032 0.564762
6 -0.088270 -0.358266 0.106264 -0.095655 -0.056366 0.161739 0.215169 -0.047136 0.185476 -0.067575 0.099626 0.223901 -0.228412 -0.102204 0.320685 -0.204990 -0.180729 -0.278517 -0.061731 -0.274624 0.223427 0.060771 0.003536 0.106819 0.033483 -0.102303 -0.030951 -0.090347 -0.117356 -0.060388 -0.081430 0.026328 -0.083491 -0.053611 0.038369 -0.113275 0.285486 0.133078 -0.019250 0.001731 -0.251452 -0.018911 0.262152 0.283878 -0.076863 0.434296 0.250402 -0.206301 -0.061291 0.122637 -0.157676 0.192676 0.037181 0.073345 -0.222368 -0.276866 -0.224574 -0.174864 -0.007712 -0.022988 0.247538 -0.095815 0.067906 0.183570
3 -0.144557 -0.303041 0.350162 -0.422240 -0.245973 -0.088494 0.139254 0.041919 0.113856 -0.103958 -0.106221 0.114941 0.069242 -0.556399 -0.026913 -0.453939 -0.106276 -0.382913 0.166927 0.001377 0.251102 -0.207488 0.064793 0.439068 0.214675 0.187380 -0.018826 0.022469 0.091651 -0.191429 -0.063581 0.006102 -0.110185 -0.049175 -0.111638 -0.389728 0.029444 0.271520 0.427082 -0.001584 -0.473610 -0.291295 -0.033945 0.272465 -0.130043 0.214100 0.251670 -0.501070 0.036788 0.002958 -0.204599 0.037681 -0.142204 -0.069986 -0.238976 0.052305 -0.325500 -0.028036 -0.297910 0.400253 0.024166 -0.226638 0.315717 0.623637
10 -0.162339 -0.342890 0.133889 -0.137765 0.022516 0.165764 0.131197 -0.037134 0.136586 0.020331 -0.011476 0.160661 -0.164079 0.044822 0.269333 -0.099514 -0.067029 -0.118066 -0.182132 -0.412833 0.163969 0.200857 0.108214 0.024669 -0.145071 -0.054593 0.067302 0.067589 -0.152768 -0.045947 -0.122480 0.220738 -0.100946 -0.018222 0.098135 -0.055009 0.234057 -0.101551 -0.071344 -0.074182 -0.249055 -0.030633 0.308607 0.362808 0.005657 0.328308 0.080610 0.063247 -0.112258 0.231013 -0.210022 0.178980 0.023550 0.277929 -0.295212 -0.308695 -0.257967 0.004527 -0.078997 -0.047542 0.263346 -0.120235 -0.160856 -0.167552
11 -0.117457 -0.271516 0.149221 -0.148778 -0.041622 0.117538 0.120235 -0.118080 0.111482 0.042605 -0.009813 0.196433 -0.158471 0.023222 0.270513 -0.122201 -0.222090 -0.226582 -0.148932 -0.329520 0.257308 0.113162 0.075381 0.081144 -0.051842 -0.028541 0.062873 0.020307 -0.121148 -0.081701 -0.081914 0.130993 -0.059541 -0.085638 0.109360 -0.042038 0.231177 0.080041 -0.038506 0.004260 -0.221627 0.057820 0.210563 0.215814 0.008375 0.378306 0.202059 -0.008452 -0.135217 0.177543 -0.118407 0.144673 0.043254 0.104019 -0.179068 -0.257393 -0.246853 -0.105580 -0.015435 -0.069791 0.261234 -0.115521 0.023337 -0.033754
13 -0.166447 -0.155990 0.264715 -0.261138 0.000451 0.061744 0.017599 -0.275373 -0.023564 0.279509 -0.215982 0.185588 -0.038969 0.277402 0.225356 0.004659 -0.346548 -0.217191 -0.373047 -0.507143 0.370876 0.248936 0.204734 0.028204 -0.201293 0.113225 0.278264 0.232687 -0.118952 -0.114480 -0.152883 0.342510 -0.028806 -0.126868 0.258942 0.054826 0.173650 -0.038191 -0.101055 -0.070514 -0.220760 0.215770 0.165129 0.136969 0.172432 0.307687 0.111589 0.360028 -0.277522 0.346021 -0.065857 0.074039 0.075354 0.226100 -0.126195 -0.275375 -0.339576 0.011787 0.015209 -0.239914 0.382633 -0.182310 -0.086522 -0.552078
8 -0.161462 -0.363548 0.144129 -0.168827 -0.046599 0.080360 0.107094 0.076605 0.149014 0.012816 -0.048641 0.123801 -0.089365 -0.101485 0.205423 -0.183444 0.009884 -0.084366 -0.079347 -0.329300 0.080011 0.125541 0.144349 0.014710 -0.099427 0.001215 0.041532 0.085332 -0.106972 -0.037162 -0.090387 0.243697 -0.142366 -0.018455 0.048746 -0.114474 0.203816 -0.109412 0.028595 -0.064346 -0.277148 -0.126369 0.260244 0.396643 -0.065559 0.239776 0.036694 -0.017401 -0.083593 0.211749 -0.275312 0.151827 -0.023173 0.292364 -0.336156 -0.233511 -0.255106 0.089427 -0.166639 0.053798 0.176439 -0.163078 -0.163489 -0.020426
7 -0.127539 -0.377427 0.133267 -0.177698 -0.096147 0.079478 0.159411 0.095293 0.197771 -0.092747 0.021968 0.147093 -0.107578 -0.262192 0.199430 -0.271988 -0.015189 -0.182549 0.011053 -0.221166 0.110474 0.014384 0.074763 0.133275 0.026567 -0.032943 -0.045531 -0.025589 -0.074973 -0.070537 -0.061211 0.115369 -0.141879 -0.033364 -0.021159 -0.193845 0.196503 0.027379 0.100175 -0.039107 -0.319405 -0.178572 0.230377 0.379527 -0.128776 0.284087 0.142493 -0.236736 -0.010944 0.114788 -0.258719 0.168853 -0.050707 0.162941 -0.312248 -0.181959 -0.232344 -0.008017 -0.162540 0.154675 0.141428 -0.146099 -0.007699 0.268158
2 -0.168979 -0.354730 0.240905 -0.311947 -0.143487 -0.056364 0.106782 0.173366 0.136070 -0.071687 -0.102644 0.089246 0.072076 -0.392798 0.035437 -0.372005 0.039150 -0.177690 0.069118 -0.150104 0.094615 -0.052462 0.155586 0.201305 0.040518 0.112222 -0.009771 0.075846 0.028191 -0.113742 -0.068800 0.165421 -0.157539 -0.008304 -0.063410 -0.276273 0.079298 -0.011310 0.277524 -0.087176 -0.390971 -0.280776 0.123999 0.381092 -0.148012 0.110915 0.042735 -0.262391 0.022177 0.101949 -0.292246 0.074985 -0.118672 0.193421 -0.343252 -0.059004 -0.263002 0.156041 -0.308359 0.300496 0.060276 -0.217966 0.015618 0.287688
5 -0.092562 -0.303149 0.150570 -0.185536 -0.062950 0.100109 0.184473 -0.090918 0.147864 -0.084162 0.050926 0.197234 -0.155795 -0.170500 0.223682 -0.251283 -0.192348 -0.312259 -0.024491 -0.175993 0.274696 0.023905 -0.022537 0.230316 0.067812 -0.035951 -0.026290 -0.062139 -0.070073 -0.109227 -0.080510 -0.006324 -0.071889 -0.038538 0.019583 -0.169904 0.188621 0.187943 0.091717 0.019500 -0.257637 -0.045788 0.141160 0.220884 -0.061980 0.367124 0.238692 -0.248540 -0.041084 0.057944 -0.117535 0.142422 0.026783 -0.004256 -0.176925 -0.185788 -0.219768 -0.165354 -0.049033 0.054351 0.173274 -0.120297 0.179148 0.256734
4 -0.074118 -0.260360 0.246061 -0.274556 -0.195023 -0.004578 0.182510 -0.042062 0.134996 -0.100192 0.014139 0.197834 -0.045217 -0.382362 0.108666 -0.365774 -0.233175 -0.435826 0.096616 -0.016339 0.316670 -0.166827 -0.012793 0.351054 0.233705 0.087343 -0.050153 -0.075964 0.043495 -0.168692 -0.066395 -0.092509 -0.055837 -0.072147 -0.070273 -0.287761 0.136396 0.335493 0.268946 0.041555 -0.372735 -0.135252 0.021491 0.189017 -0.089140 0.328421 0.325571 -0.466854 0.005361 -0.020177 -0.102768 0.060174 -0.031328 -0.140557 -0.150364 -0.026758 -0.258641 -0.194137 -0.115024 0.199773 0.133390 -0.169549 0.361822 0.537571
15 -0.199872 -0.329896 0.171432 -0.160452 0.074958 0.213268 0.110658 -0.156357 0.074788 0.072011 -0.033859 0.170771 -0.185899 0.185180 0.317579 -0.039367 -0.153813 -0.129858 -0.272001 -0.517887 0.251127 0.299559 0.110464 0.006898 -0.228121 -0.056956 0.104308 0.120495 -0.187825 -0.056058 -0.136513 0.265302 -0.063845 -0.026569 0.175182 0.024036 0.218627 -0.107461 -0.110424 -0.048112 -0.223158 0.073168 0.310610 0.308219 0.083267 0.383923 0.052745 0.190052 -0.181060 0.266864 -0.165639 0.173115 0.054213 0.304667 -0.279569 -0.391027 -0.295448 -0.028051 -0.019823 -0.122709 0.333158 -0.084648 -0.151900 -0.366031
12 -0.130611 -0.261001 0.154190 -0.133670 -0.018284 0.149036 0.108557 -0.192820 0.074755 0.143229 -0.029192 0.239343 -0.180702 0.192564 0.324851 -0.029037 -0.291111 -0.220079 -0.265649 -0.451399 0.292931 0.205066 0.124609 -0.005197 -0.124383 -0.025689 0.138654 0.069641 -0.154567 -0.069496 -0.111663 0.211185 -0.058931 -0.098820 0.183389 0.038821 0.269395 0.017548 -0.142521 -0.021884 -0.211127 0.149657 0.261559 0.209006 0.076996 0.419320 0.193240 0.148691 -0.214657 0.261073 -0.104118 0.146794 0.081484 0.160549 -0.174842 -0.328523 -0.276696 -0.098081 0.049470 -0.200962 0.366275 -0.119366 -0.065285 -0.272406
9 -0.261364 -0.443909 0.183143 -0.285351 -0.030019 -0.007810 0.051313 0.273354 0.191371 -0.039804 -0.137987 0.028109 0.048861 -0.293779 0.077682 -0.289693 0.239637 0.046804 -0.028369 -0.351413 -0.064127 0.143319 0.244635 0.037701 -0.167805 0.054504 0.039165 0.176405 -0.070272 -0.038211 -0.097011 0.400821 -0.236770 0.025884 0.013407 -0.231399 0.112197 -0.284967 0.146232 -0.155890 -0.373695 -0.350929 0.295707 0.578231 -0.162365 0.044563 -0.138959 -0.019889 -0.019848 0.239241 -0.441732 0.171584 -0.152413 0.491182 -0.487129 -0.194239 -0.282029 0.344858 -0.380969 0.254735 0.078352 -0.230788 -0.332143 0.000705
14 -0.187733 -0.209911 0.249803 -0.228784 0.052907 0.135453 0.046999 -0.275564 -0.021084 0.212860 -0.156130 0.190894 -0.106113 0.292543 0.259282 0.015634 -0.294342 -0.197317 -0.353795 -0.525634 0.361907 0.295985 0.161467 0.035957 -0.220257 0.055260 0.229802 0.206769 -0.155398 -0.091695 -0.149142 0.299435 -0.025032 -0.070848 0.245829 0.063132 0.170542 -0.062071 -0.118261 -0.061944 -0.219826 0.195416 0.212959 0.173316 0.169349 0.345675 0.093790 0.327530 -0.248252 0.321480 -0.072721 0.096308 0.077360 0.241387 -0.160105 -0.327696 -0.327113 -0.010449 0.015523 -0.220570 0.376429 -0.139611 -0.082141 -0.538463
1 -0.255525 -0.487929 0.201999 -0.292088 -0.043058 0.000535 0.091448 0.275482 0.211643 -0.095129 -0.101721 0.036986 0.021847 -0.359039 0.087498 -0.339678 0.238065 -0.008854 0.038264 -0.314939 -0.029236 0.099591 0.191041 0.102298 -0.119052 0.032215 0.003088 0.147693 -0.058188 -0.056232 -0.103979 0.328650 -0.234384 0.044496 -0.036570 -0.271466 0.110614 -0.223179 0.202171 -0.146109 -0.387507 -0.380217 0.293573 0.587011 -0.183931 0.089754 -0.097777 -0.127169 0.019718 0.206507 -0.445574 0.187729 -0.146627 0.443640 -0.513184 -0.187965 -0.279358 0.297393 -0.386111 0.306522 0.065268 -0.227132 -0.258884 0.133937
0 -0.211950 -0.406094 0.250149 -0.337340 -0.109252 -0.035008 0.093505 0.199432 0.156484 -0.098532 -0.105375 0.049895 0.059599 -0.417202 0.039902 -0.377978 0.130507 -0.128495 0.074102 -0.197690 0.052281 -0.011815 0.147807 0.210538 -0.016538 0.089747 -0.004975 0.102814 -0.005245 -0.106861 -0.078294 0.219752 -0.181649 0.009518 -0.051287 -0.303196 0.071937 -0.060152 0.285574 -0.107686 -0.405395 -0.345935 0.162040 0.460112 -0.163171 0.104112 -0.003068 -0.244101 0.022662 0.134545 -0.352243 0.115403 -0.154454 0.262023 -0.402856 -0.096832 -0.287080 0.213414 -0.359852 0.338022 0.040844 -0.226200 -0.054541 0.277516
18 -0.156787 0.013557 0.379806 -0.366834 -0.069786 -0.039632 -0.035245 -0.456683 -0.129013 0.493243 -0.362535 0.279916 0.076795 0.434098 0.190388 0.025644 -0.637908 -0.402128 -0.539310 -0.513426 0.584223 0.215503 0.318731 0.071281 -0.117676 0.300209 0.427060 0.310673 -0.048935 -0.205448 -0.194716 0.387103 0.051467 -0.222384 0.362338 0.094704 0.146571 0.057548 -0.093538 -0.068340 -0.286914 0.426978 0.012449 -0.059792 0.307015 0.309500 0.197581 0.507345 -0.389571 0.403872 0.095381 -0.058728 0.135700 0.117908 0.046961 -0.178834 -0.414877 -0.046580 0.088625 -0.392216 0.515700 -0.286927 0.066547 -0.770277
21 -0.130029 -0.174847 0.497939 -0.585315 -0.372677 -0.187762 0.093345 -0.112072 0.011927 0.006210 -0.237892 0.133107 0.198972 -0.590871 -0.151538 -0.462291 -0.302021 -0.524611 0.180397 0.105923 0.431094 -0.336997 0.093882 0.592714 0.299405 0.370896 0.075082 0.075567 0.173898 -0.295649 -0.056948 -0.032870 -0.031205 -0.114326 -0.112912 -0.424088 -0.074692 0.443995 0.569767 0.030118 -0.561543 -0.216945 -0.248772 0.091254 -0.037477 0.221793 0.362120 -0.535423 0.017534 -0.042753 -0.107196 -0.072567 -0.139836 -0.275497 -0.109324 0.210728 -0.401985 -0.104966 -0.310942 0.448482 0.028722 -0.270813 0.544328 0.686628
17 -0.128024 0.062938 0.383833 -0.331928 -0.116684 -0.078135 -0.022039 -0.446433 -0.126291 0.512586 -0.353657 0.303649 0.093637 0.438446 0.172383 0.034252 -0.681558 -0.465922 -0.534681 -0.467985 0.578111 0.149656 0.326155 0.051158 -0.047104 0.320122 0.419482 0.285220 -0.013651 -0.209802 -0.189934 0.347447 0.069012 -0.262466 0.341703 0.092536 0.164893 0.105649 -0.100488 -0.069340 -0.285821 0.437461 -0.008700 -0.097640 0.305281 0.277882 0.249529 0.483957 -0.396776 0.405308 0.137305 -0.087327 0.131862 0.051076 0.108064 -0.141427 -0.407021 -0.051926 0.135000 -0.427858 0.528878 -0.298362 0.114111 -0.739950
20 -0.120005 -0.156541 0.479581 -0.556178 -0.347233 -0.179384 0.083966 -0.133481 -0.014288 0.020606 -0.248827 0.117386 0.198976 -0.518526 -0.146911 -0.414256 -0.315583 -0.490274 0.141122 0.077264 0.429451 -0.306544 0.100635 0.558639 0.266324 0.368360 0.096295 0.085651 0.159849 -0.290078 -0.065243 -0.017222 -0.015827 -0.120100 -0.077509 -0.373406 -0.074326 0.407640 0.518962 0.022818 -0.525071 -0.185949 -0.249647 0.065339 -0.000775 0.215249 0.346625 -0.467325 -0.001941 -0.035970 -0.100614 -0.077366 -0.124693 -0.267092 -0.087065 0.194182 -0.388289 -0.108808 -0.280682 0.405499 0.049202 -0.246577 0.518338 0.597526
