27 64
24 0.166154 0.215114 0.009357 0.105002 -0.088983 -0.147639 -0.068306 -0.088246 0.352419 -0.068000 0.129440 -0.128473 0.413354 -0.351289 -0.214671 -0.138208 -0.076667 -0.015133 0.063288 0.290515 0.320396 0.082048 0.525058 0.511228 -0.032071 0.121459 -0.285319 -0.665117 -0.525419 0.431164 -0.073120 0.257006 -0.217618 -0.663469 -0.210681 -0.269367 0.500729 -0.147171 -0.428144 -0.284620 -0.337846 0.102436 -0.187259 0.112684 0.023498 0.598265 -0.171135 0.417678 0.046805 -0.227584 0.197978 0.392708 -0.281136 0.046989 0.244823 0.130160 0.339259 -0.192594 -0.447023 -0.025938 0.058799 -0.113696 0.172074 0.341025
9 0.163224 0.126814 -0.116054 0.101894 -0.059786 -0.083357 -0.031799 0.011625 0.318564 -0.117979 0.113668 -0.012165 0.206486 -0.385156 -0.046678 -0.100006 -0.120920 0.038091 0.097950 0.190636 0.236115 0.071133 0.275335 0.312375 -0.023426 0.041346 -0.212324 -0.525333 -0.367169 0.284266 -0.028304 0.097243 -0.228646 -0.441641 -0.123289 -0.220097 0.480004 -0.044383 -0.394025 -0.136455 -0.207501 0.023049 -0.004399 0.196865 -0.042646 0.472522 0.019561 0.173996 0.054731 -0.234893 0.074395 0.334161 -0.122596 0.000170 0.157559 0.051874 0.250814 -0.245884 -0.268669 -0.085241 0.098268 -0.071650 0.115655 0.422201
8 0.302459 0.000768 -0.218129 0.141343 -0.096027 -0.038152 0.020901 0.173358 0.297150 -0.088387 0.092041 0.161975 0.096183 -0.499332 0.128254 -0.103450 -0.222992 0.071659 0.226617 0.172674 0.221658 -0.026139 -0.011341 0.153992 0.064503 0.069148 -0.141497 -0.412542 -0.211935 0.172383 -0.017608 -0.081453 -0.279389 -0.183516 -0.076528 -0.208532 0.498905 0.017044 -0.303197 -0.045651 -0.082103 0.030091 0.123567 0.288027 -0.110037 0.395025 0.154922 -0.080169 0.136875 -0.282664 -0.072753 0.225580 0.096811 -0.035964 0.073728 0.075158 0.183055 -0.302294 -0.083844 -0.211636 0.161621 -0.110526 0.169747 0.540525
11 -0.027872 -0.050635 0.007288 -0.136953 -0.012857 0.036975 -0.185076 -0.134398 0.213555 -0.012600 -0.122687 0.113548 0.043742 -0.167289 0.052141 0.098398 -0.321321 0.204752 0.111681 -0.079417 0.422654 0.163048 0.230802 0.274685 -0.461455 0.073812 0.007268 -0.257540 -0.412106 0.155201 0.029913 0.164187 -0.133181 -0.299171 -0.008964 -0.100379 0.425820 0.029534 -0.352732 0.049917 -0.066796 0.085634 0.140392 0.237544 0.103905 0.642975 0.117350 0.419166 -0.077919 -0.093942 -0.051765 0.275753 0.001075 -0.099789 0.053892 -0.242974 -0.041697 -0.117605 -0.320635 -0.168408 0.174113 -0.056410 0.060187 0.206450
17 -0.153213 -0.221497 0.288489 -0.410895 -0.022068 0.135783 0.011472 0.025708 0.063537 0.113343 -0.143184 0.442477 0.175705 -0.069272 0.107757 -0.193537 -0.440742 -0.411713 -0.302983 -0.247715 0.502171 -0.027825 0.018719 0.340596 -0.050568 0.241489 -0.029624 0.131937 0.036727 -0.204623 -0.250702 0.282591 -0.038579 0.041471 0.026524 -0.342645 0.169433 -0.010405 0.238697 -0.014605 -0.331933 -0.019649 0.197599 0.417041 0.198828 0.211754 -0.090334 0.100758 -0.345591 0.216163 -0.060764 -0.260464 0.127548 0.038910 -0.286429 -0.382458 -0.615196 0.213766 -0.007213 -0.243098 0.534616 -0.429283 0.312717 -0.327722
14 -0.236214 -0.155242 0.213623 -0.385032 0.049295 0.162234 -0.149674 -0.260076 0.098096 0.076035 -0.180431 0.204717 0.022400 0.008339 0.134203 0.048295 -0.383452 -0.057796 -0.129360 -0.347429 0.542592 0.257690 0.110680 0.314734 -0.482333 0.068979 0.072038 0.016244 -0.337700 -0.020302 -0.089867 0.330950 -0.068134 -0.185959 0.084769 -0.147976 0.272108 0.041317 -0.129766 0.034486 -0.212303 0.092361 0.219259 0.303556 0.219087 0.554185 0.005751 0.440051 -0.296670 0.156943 -0.062679 0.148838 0.050105 0.019826 -0.160920 -0.488799 -0.388057 0.014012 -0.191862 -0.221914 0.383589 -0.174911 0.105216 -0.239216
5 0.291650 0.001834 -0.155520 0.090378 -0.007449 -0.080280 0.187367 0.278365 0.171065 -0.260391 0.215171 0.218777 0.101445 -0.578289 0.128435 -0.351760 -0.193438 -0.337274 0.003370 0.107672 0.225474 -0.084621 -0.243204 0.312231 0.406158 -0.048616 -0.250321 -0.250602 0.084807 -0.015164 -0.185069 -0.190434 -0.375080 -0.043287 -0.102902 -0.340502 0.452907 0.097918 -0.066087 -0.091485 -0.094312 -0.160229 0.231923 0.406062 -0.136277 0.100879 0.201347 -0.445006 -0.073988 -0.180601 0.034233 0.022641 0.130216 0.002920 -0.151321 0.000265 0.083679 -0.186741 0.122308 -0.141842 0.283236 -0.240857 0.334849 0.487274
18 -0.002385 -0.198898 0.179217 -0.331106 -0.055705 0.077882 -0.065961 0.099441 0.037406 0.141480 -0.223248 0.462588 0.191514 -0.171967 0.062972 -0.110422 -0.507072 -0.188892 -0.114778 -0.095238 0.480470 -0.100803 0.032388 0.282412 -0.103547 0.340824 0.019897 0.075324 0.074911 -0.117207 -0.155729 0.154757 -0.067250 0.118803 0.018484 -0.298232 0.161428 -0.001305 0.162514 0.058449 -0.166460 0.008279 0.139926 0.355629 0.166543 0.239591 -0.027374 0.097005 -0.201197 0.058386 -0.117080 -0.307495 0.156994 -0.070997 -0.148377 -0.247158 -0.498739 0.179488 -0.030641 -0.277401 0.427555 -0.350821 0.321786 -0.127031
21 0.251115 -0.012261 -0.168931 0.043118 -0.086732 -0.022925 -0.059854 0.181229 0.209362 -0.019040 -0.066412 0.270986 0.111860 -0.446159 0.068990 -0.014556 -0.369694 0.130380 0.220004 0.174603 0.286081 -0.076396 0.008074 0.155954 -0.038154 0.201251 -0.078977 -0.309887 -0.109230 0.142104 0.010768 -0.094466 -0.201299 -0.054646 -0.047629 -0.216901 0.385505 0.034896 -0.241932 0.067471 -0.006355 0.031051 0.103800 0.269286 -0.034989 0.343388 0.152891 0.014957 0.105040 -0.273403 -0.091092 0.036564 0.125603 -0.157737 0.134076 0.009599 0.014852 -0.179939 -0.069675 -0.277595 0.181670 -0.111524 0.238291 0.443389
23 -0.033030 -0.114155 0.094900 -0.221901 -0.038646 0.103522 -0.154078 -0.046162 0.117889 0.121650 -0.235443 0.284468 0.108344 -0.116806 0.047046 0.091194 -0.449098 0.089152 0.036426 -0.089232 0.444978 0.046165 0.124080 0.223605 -0.348363 0.257494 0.046745 -0.089402 -0.216307 0.056940 -0.046802 0.179640 -0.041058 -0.074904 0.029447 -0.167670 0.255210 -0.014533 -0.139368 0.078944 -0.109159 0.103908 0.114648 0.256527 0.182107 0.445327 0.010512 0.369712 -0.109874 -0.020826 -0.103617 -0.020128 0.095598 -0.113584 0.024898 -0.272610 -0.317115 0.011372 -0.157798 -0.299319 0.300105 -0.162082 0.191909 -0.042063
22 0.083160 -0.053466 -0.044355 -0.079955 -0.052897 0.037623 -0.139268 -0.016516 0.182305 0.042963 -0.137260 0.213129 0.088495 -0.242973 0.063029 0.081968 -0.376843 0.183733 0.150101 0.016917 0.369247 0.064544 0.139293 0.192336 -0.302638 0.194086 -0.003125 -0.245352 -0.259773 0.144826 0.006021 0.080497 -0.141125 -0.145257 -0.003144 -0.145951 0.349597 -0.012144 -0.279106 0.055935 -0.045708 0.084070 0.096983 0.248945 0.088535 0.495858 0.076145 0.295815 0.010958 -0.162953 -0.094815 0.118352 0.062012 -0.113781 0.105515 -0.136384 -0.073118 -0.117521 -0.175835 -0.257309 0.201557 -0.076545 0.137003 0.214283
20 0.232191 -0.016408 -0.070296 0.035268 -0.080998 -0.043881 0.032897 0.243764 0.120864 -0.047029 -0.037597 0.274224 0.172212 -0.408563 0.014143 -0.121465 -0.333655 -0.075546 0.085695 0.153722 0.253918 -0.150980 -0.021056 0.209772 0.155029 0.227493 -0.116837 -0.217560 0.037564 0.058586 -0.098854 -0.097948 -0.181176 -0.000246 -0.061750 -0.260471 0.322901 0.000670 -0.093217 0.000247 -0.074401 -0.046027 0.087802 0.290568 0.003194 0.165882 0.109108 -0.102668 0.009681 -0.192782 -0.041567 -0.121500 0.105152 -0.125739 0.051506 0.016849 -0.073925 -0.075405 0.000775 -0.229779 0.240602 -0.186802 0.318266 0.321492
19 0.122862 -0.143712 0.113206 -0.184679 -0.072761 0.004901 0.009799 0.225300 0.033166 0.035571 -0.142053 0.426624 0.177687 -0.297344 0.013976 -0.176249 -0.414464 -0.235227 -0.041464 0.045080 0.353420 -0.197165 -0.023916 0.288550 0.107474 0.300916 -0.063802 0.004518 0.152565 -0.080196 -0.147525 -0.000206 -0.132779 0.128728 -0.052062 -0.318735 0.198607 0.022448 0.153501 0.036011 -0.112353 -0.073669 0.135125 0.349242 0.078566 0.117190 0.061794 -0.106154 -0.151128 -0.006778 -0.064209 -0.330515 0.125632 -0.117790 -0.100936 -0.111269 -0.356916 0.170331 0.008255 -0.225619 0.326865 -0.346698 0.376533 0.100909
2 0.148059 -0.187416 0.133098 -0.215694 -0.061145 -0.039146 0.105757 0.316970 0.006340 -0.055358 0.023447 0.455370 0.210962 -0.416842 0.082576 -0.399408 -0.338704 -0.451808 -0.131508 -0.040996 0.356618 -0.196980 -0.132911 0.358279 0.281106 0.179500 -0.118777 0.064705 0.272771 -0.197100 -0.231112 -0.029553 -0.287962 0.173281 -0.082374 -0.378233 0.272584 0.042771 0.298143 -0.076645 -0.178929 -0.154436 0.257646 0.471266 -0.017792 0.031118 0.072839 -0.379895 -0.227209 0.028780 -0.037137 -0.342714 0.147733 0.025370 -0.347179 -0.100382 -0.308381 0.215289 0.038138 -0.110307 0.409535 -0.452979 0.382728 0.133120
10 0.109032 0.037183 -0.107206 0.021561 -0.052622 -0.011895 -0.105386 -0.092058 0.316366 -0.050341 0.034209 0.020302 0.115301 -0.283477 0.036456 0.022255 -0.189171 0.187158 0.156449 0.072049 0.322438 0.147887 0.250471 0.263244 -0.270351 0.029968 -0.091094 -0.447729 -0.457952 0.248878 0.015446 0.133329 -0.201292 -0.398194 -0.075476 -0.132096 0.479765 -0.032844 -0.426812 -0.077828 -0.140023 0.101340 0.054089 0.199471 0.012072 0.628687 0.057687 0.313422 0.066810 -0.211301 -0.013724 0.403363 -0.040498 -0.015005 0.113066 -0.043955 0.195014 -0.270009 -0.308427 -0.122970 0.113705 -0.029646 0.029499 0.353795
15 -0.274107 -0.181815 0.254112 -0.443093 0.036495 0.210627 -0.107223 -0.247272 0.114291 0.124773 -0.170337 0.265107 0.078457 0.054184 0.165704 -0.004925 -0.431740 -0.159984 -0.243435 -0.386651 0.566231 0.224151 0.098519 0.297965 -0.433272 0.122697 0.050110 0.056709 -0.263980 -0.109604 -0.162382 0.402835 -0.006042 -0.151098 0.100276 -0.192281 0.218403 -0.000371 -0.006787 0.017439 -0.295197 0.105871 0.198296 0.328570 0.260020 0.496814 -0.101932 0.420230 -0.322594 0.188317 -0.074611 0.060903 0.083280 0.078247 -0.217796 -0.511335 -0.512151 0.027916 -0.122433 -0.241623 0.485507 -0.226191 0.124276 -0.395838
4 0.282009 -0.013616 -0.026889 0.017087 -0.036354 -0.115101 0.173769 0.378282 0.092912 -0.214682 0.197942 0.306046 0.240940 -0.580283 0.047610 -0.445769 -0.228148 -0.465303 -0.063443 0.127387 0.255634 -0.196370 -0.182378 0.368686 0.487107 0.078760 -0.270717 -0.165041 0.229521 -0.081946 -0.246803 -0.159153 -0.361339 0.024504 -0.142304 -0.403304 0.397296 0.057334 0.122637 -0.135568 -0.163286 -0.198327 0.217526 0.444223 -0.095896 -0.008035 0.104789 -0.502489 -0.139750 -0.138130 0.069580 -0.195750 0.095484 0.025042 -0.223758 0.040371 -0.026892 0.002130 0.094061 -0.102855 0.353288 -0.362188 0.417690 0.382232
16 -0.294108 -0.216859 0.298900 -0.496076 0.039140 0.216734 -0.042605 -0.162067 0.077847 0.108729 -0.171235 0.380914 0.084092 0.036706 0.189671 -0.113084 -0.478262 -0.342451 -0.349564 -0.412079 0.580744 0.159847 0.031459 0.335558 -0.282861 0.153776 0.018314 0.144225 -0.118342 -0.215869 -0.242240 0.383952 -0.020059 -0.051096 0.096984 -0.276444 0.200900 0.004580 0.128391 0.019554 -0.341911 0.041075 0.252369 0.419539 0.272818 0.367889 -0.094016 0.289622 -0.417264 0.257535 -0.056201 -0.100390 0.130502 0.083631 -0.308594 -0.549620 -0.647975 0.119460 -0.039748 -0.268322 0.578148 -0.348178 0.214748 -0.453065
12 -0.103283 -0.115172 0.062837 -0.250050 -0.018273 0.084327 -0.220705 -0.285209 0.215041 0.081836 -0.121522 0.098756 0.031107 -0.093021 0.122291 0.137728 -0.330253 0.212406 0.091150 -0.226671 0.492577 0.283822 0.228616 0.250063 -0.612966 0.032305 0.097957 -0.197321 -0.508939 0.139831 0.033359 0.298492 -0.150272 -0.335988 0.049086 -0.064032 0.395820 0.038538 -0.349825 0.005523 -0.130979 0.153506 0.163463 0.227903 0.120340 0.762270 0.066932 0.509582 -0.103598 -0.018862 -0.117594 0.399406 -0.000881 -0.008464 -0.030779 -0.327772 -0.087888 -0.142883 -0.327692 -0.175064 0.238139 -0.044366 -0.040881 0.054290
1 -0.048144 -0.281156 0.227858 -0.392188 -0.026029 0.078422 0.102581 0.183427 0.061210 0.011673 0.000437 0.496039 0.157666 -0.277001 0.208303 -0.391342 -0.384763 -0.553400 -0.277045 -0.269382 0.463881 -0.085411 -0.169452 0.349670 0.152719 0.133261 -0.058147 0.170416 0.193408 -0.317770 -0.299219 0.156966 -0.210234 0.142818 0.001450 -0.404365 0.246614 0.055769 0.358322 -0.081484 -0.321437 -0.119169 0.339738 0.541392 0.054524 0.115051 0.008228 -0.271671 -0.337711 0.193152 -0.093850 -0.265767 0.188875 0.121585 -0.482387 -0.311466 -0.530302 0.201639 0.066966 -0.167308 0.583893 -0.516673 0.318770 -0.129272
13 -0.185950 -0.125501 0.159649 -0.347075 0.008918 0.133597 -0.221632 -0.330204 0.178819 0.107020 -0.204273 0.117467 0.044405 -0.017608 0.107297 0.136868 -0.385248 0.135022 -0.014848 -0.289242 0.567796 0.285915 0.232300 0.312152 -0.656564 0.074686 0.106750 -0.112298 -0.492573 0.097234 -0.015296 0.365576 -0.072474 -0.321966 0.061350 -0.103191 0.355224 0.039931 -0.280281 0.032194 -0.167087 0.154880 0.155206 0.248463 0.207596 0.753104 0.018286 0.597666 -0.201966 0.076577 -0.096454 0.312337 0.011954 -0.006888 -0.063599 -0.439021 -0.259176 -0.077751 -0.319384 -0.208757 0.299395 -0.086707 0.014589 -0.120348
7 0.383038 0.010852 -0.310663 0.187071 -0.079188 -0.056815 0.100765 0.259125 0.318858 -0.191410 0.189514 0.188969 0.067964 -0.645694 0.198606 -0.194996 -0.213384 -0.029508 0.200364 0.160429 0.204684 -0.044178 -0.161277 0.173167 0.227968 -0.033022 -0.196283 -0.431051 -0.120952 0.114554 -0.047788 -0.178541 -0.388604 -0.149917 -0.081584 -0.254542 0.555545 0.067989 -0.302262 -0.070573 -0.068497 -0.038675 0.222270 0.370201 -0.191635 0.323940 0.254380 -0.306013 0.138756 -0.322447 -0.076769 0.248965 0.142107 -0.006306 -0.004802 0.093205 0.244518 -0.379047 0.036598 -0.198990 0.218200 -0.121163 0.203265 0.669563
0 -0.055526 -0.277906 0.248698 -0.412417 -0.012683 0.059511 0.124318 0.198457 0.008606 -0.046812 0.044928 0.488603 0.143767 -0.294308 0.196957 -0.456886 -0.333024 -0.629216 -0.322980 -0.277957 0.440914 -0.097342 -0.195479 0.406972 0.204685 0.081651 -0.082650 0.207716 0.249734 -0.356580 -0.309918 0.124412 -0.253501 0.167511 -0.017737 -0.421679 0.251637 0.082876 0.417911 -0.091238 -0.309261 -0.183679 0.361613 0.569849 0.038004 0.066545 0.038640 -0.365600 -0.406557 0.221352 -0.052236 -0.312114 0.168845 0.118831 -0.551833 -0.316301 -0.524128 0.264102 0.057960 -0.094112 0.561394 -0.545075 0.335198 -0.095779
6 0.349242 0.004073 -0.170963 0.151961 -0.066603 -0.091366 0.155583 0.355942 0.209335 -0.184482 0.209109 0.231297 0.160551 -0.629280 0.117205 -0.312437 -0.204022 -0.254113 0.098622 0.158189 0.180077 -0.154998 -0.188238 0.219699 0.417818 0.033290 -0.218489 -0.329543 0.060916 0.045120 -0.143757 -0.192389 -0.345159 -0.062039 -0.090711 -0.330288 0.468624 0.077577 -0.108982 -0.132617 -0.141573 -0.107984 0.212151 0.369711 -0.182688 0.118729 0.186354 -0.445040 0.046185 -0.224895 -0.011753 0.036392 0.093359 -0.002437 -0.060073 0.093942 0.115845 -0.207013 0.086898 -0.183966 0.292192 -0.233188 0.314817 0.538877
3 0.154172 -0.061820 0.064006 -0.085235 -0.008195 -0.084097 0.192922 0.320102 0.043808 -0.232518 0.173125 0.311019 0.170341 -0.507935 0.052746 -0.477535 -0.196197 -0.555798 -0.168358 0.018744 0.270421 -0.153495 -0.172485 0.440591 0.461581 0.026998 -0.252638 -0.056619 0.248896 -0.135107 -0.273998 -0.108169 -0.355473 0.055731 -0.136602 -0.426149 0.367656 0.078648 0.192038 -0.110713 -0.195753 -0.253940 0.259699 0.494026 -0.067456 -0.013640 0.130325 -0.484923 -0.267864 -0.008197 0.091050 -0.227180 0.076219 0.035960 -0.327713 -0.080990 -0.150245 0.094453 0.060673 -0.041611 0.355308 -0.401719 0.400502 0.298489
25 0.174795 0.265199 -0.029939 0.153414 -0.097808 -0.178387 -0.015507 -0.075194 0.371687 -0.136482 0.181481 -0.199300 0.423882 -0.372511 -0.247918 -0.202872 0.014039 -0.086941 0.039164 0.370520 0.264200 0.058895 0.539473 0.535154 0.092263 0.061280 -0.357146 -0.726056 -0.525743 0.459133 -0.076524 0.231398 -0.211508 -0.719998 -0.262836 -0.296369 0.496235 -0.138799 -0.441697 -0.318655 -0.382282 0.056500 -0.238074 0.081038 -0.001586 0.546427 -0.177957 0.349367 0.050124 -0.231608 0.238715 0.414370 -0.305634 0.050267 0.246027 0.165138 0.407056 -0.235606 -0.439710 0.029621 0.017043 -0.105367 0.196467 0.397372
26 0.193616 0.305513 -0.028636 0.164840 -0.083654 -0.196317 -0.031909 -0.098021 0.392373 -0.168006 0.183203 -0.222176 0.446977 -0.433284 -0.270460 -0.184695 -0.010059 -0.056567 0.051418 0.385587 0.309231 0.096727 0.603319 0.600340 0.040505 0.065214 -0.395102 -0.809452 -0.600798 0.523547 -0.069910 0.248673 -0.248535 -0.809182 -0.278508 -0.327844 0.590207 -0.144100 -0.529891 -0.320549 -0.387350 0.045988 -0.237948 0.111493 -0.002589 0.644325 -0.167364 0.411406 0.027631 -0.257808 0.282031 0.477889 -0.354185 0.024503 0.296794 0.152705 0.446673 -0.255248 -0.508986 0.015510 0.019936 -0.104936 0.207169 0.478910
