24 64
18 0.371917 -0.167842 -0.009034 -0.162161 -0.118572 -0.176878 -0.109603 0.028714 0.353178 0.454117 -0.397691 0.396169 0.273049 0.079767 0.081088 -0.326669 -0.483409 -0.280845 -0.210281 0.455776 0.461685 -0.350597 0.487407 0.094633 0.533275 0.681230 0.133908 0.002852 0.135971 -0.091814 -0.207270 0.323100 0.206720 -0.150406 0.162293 -0.208613 -0.167988 0.005483 0.185271 0.150733 -0.283774 0.254202 -0.404500 -0.143662 0.212287 0.345837 -0.010006 -0.096632 0.067964 0.030362 -0.241635 -0.306337 0.176177 0.140714 0.198745 0.525816 -0.212010 -0.318430 0.135830 -0.314364 0.323708 -0.577272 0.239858 0.068279
9 -0.417304 -0.172195 -0.140459 -0.151251 0.212730 -0.094928 -0.223738 0.405065 0.497656 -0.365984 0.266121 0.525258 -0.226163 -0.249910 -0.024923 -0.498710 -0.033004 0.123580 -0.047552 0.180327 0.065047 0.151570 0.407582 0.267271 -0.059169 0.148266 -0.122631 -0.206592 -0.050256 -0.140010 -0.114496 -0.043355 -0.219274 0.087870 0.099998 -0.349849 0.725700 0.143369 -0.045490 0.464405 -0.224693 -0.410856 0.413670 0.672138 -0.159912 0.236374 0.351672 -0.296749 -0.317284 -0.364756 0.069029 -0.100473 0.067524 -0.100336 -0.150658 -0.080797 -0.045290 0.080278 -0.809019 0.113770 -0.044328 -0.535446 -0.081428 0.789621
3 -0.340422 -0.220223 0.046676 -0.215899 0.105850 -0.098605 -0.051912 0.167693 0.267369 -0.172767 0.254435 0.381526 -0.158668 -0.209996 0.041613 -0.438631 -0.018070 -0.121104 -0.049766 -0.001292 0.116908 0.159522 0.192203 0.217645 -0.025565 0.047581 -0.038423 -0.014976 0.063384 -0.099389 -0.110545 -0.023270 -0.230475 0.143831 0.046630 -0.318150 0.467592 0.204135 0.136203 0.276216 -0.175784 -0.305215 0.267772 0.492517 -0.206905 0.179276 0.208483 -0.294061 -0.258309 -0.136499 0.028073 -0.042060 0.044449 -0.002886 -0.254164 -0.141824 -0.106761 0.119882 -0.494761 0.119597 -0.009196 -0.377628 -0.052680 0.462443
2 -0.248996 -0.199138 0.154214 -0.340744 0.014774 -0.143509 -0.023479 -0.021567 0.081661 0.025322 0.172006 0.326338 0.024041 -0.171491 0.002286 -0.359494 -0.118149 -0.221237 -0.077159 -0.061258 0.214606 0.155121 0.149831 0.181446 -0.095204 0.091098 0.048659 0.109326 0.184202 -0.080643 -0.093318 0.056876 -0.234728 0.161533 0.018490 -0.290413 0.214218 0.207674 0.265801 0.139118 -0.135415 -0.214648 0.100475 0.314676 -0.176593 0.128646 0.030747 -0.223119 -0.212952 -0.055189 -0.020443 -0.078755 0.015822 0.047097 -0.272434 -0.127536 -0.146942 0.183838 -0.281401 0.105270 0.056961 -0.264440 -0.048767 0.153029
21 -0.120808 0.134186 -0.030300 -0.562606 -0.250939 0.093873 -0.310442 -0.397250 0.075960 0.394707 -0.397136 0.307075 0.350131 -0.335119 -0.003510 0.055174 -0.633226 0.057162 0.238151 0.365703 0.816334 -0.024100 0.212757 0.467796 -0.266588 0.462873 0.005718 -0.228194 -0.063273 0.177306 -0.008180 0.158765 0.030914 0.100925 -0.321121 -0.512066 -0.230736 0.041594 0.064983 0.143835 -0.295598 0.287810 -0.454066 0.033221 0.356426 0.730040 -0.396596 0.548362 0.211164 -0.245689 0.002786 -0.141509 0.252574 -0.262814 0.047597 -0.070452 -0.299746 -0.425966 -0.151793 -0.226856 0.325478 -0.052373 0.381666 0.108903
15 -0.021977 -0.018462 0.113029 -0.472939 -0.201873 0.006681 -0.143949 -0.366071 0.067264 0.434299 -0.326639 0.296045 0.294791 -0.136153 0.045552 -0.067953 -0.584337 -0.160988 0.014496 0.196777 0.708192 -0.049459 0.254843 0.302968 -0.081438 0.444046 0.093431 -0.035897 0.074545 0.063046 -0.069503 0.203036 0.082407 0.040701 -0.129493 -0.346170 -0.228007 0.106566 0.185329 0.118353 -0.263130 0.275508 -0.401090 -0.061280 0.239511 0.571511 -0.249568 0.291772 0.123040 -0.080276 -0.067534 -0.147732 0.181647 -0.068162 0.018428 0.023126 -0.310973 -0.333229 0.008273 -0.176753 0.323338 -0.111897 0.279620 -0.073162
12 -0.079753 -0.139694 0.175887 -0.365328 -0.086296 -0.112879 -0.061067 -0.177123 0.032611 0.274564 -0.073546 0.307861 0.150118 -0.066231 0.015374 -0.216370 -0.323224 -0.234440 -0.110942 0.012531 0.386417 0.047637 0.242532 0.154144 -0.013737 0.279143 0.124362 0.125051 0.177014 -0.030734 -0.078994 0.167355 -0.082721 0.077074 0.033546 -0.224556 -0.034398 0.156671 0.239242 0.115451 -0.184012 0.030323 -0.129818 0.072397 0.001088 0.262758 -0.045950 -0.043776 -0.097353 0.001710 -0.071934 -0.137519 0.048193 0.057793 -0.117752 0.011232 -0.218888 -0.009768 -0.070035 -0.025482 0.182700 -0.211678 0.057820 -0.042861
5 -0.192932 -0.364392 0.107325 -0.139838 -0.010677 -0.027337 0.215533 0.108352 0.264911 -0.091308 0.307280 0.282850 -0.225871 -0.300566 0.280196 -0.502804 0.126420 -0.426974 0.086561 -0.040535 0.097861 0.086683 -0.166719 0.151361 0.207644 -0.101109 -0.078312 0.023994 0.032555 -0.031927 -0.162860 -0.075038 -0.248913 0.190363 -0.081603 -0.436978 0.400995 0.241586 0.263970 0.074460 -0.212243 -0.258140 0.203703 0.506671 -0.303670 0.188921 0.096547 -0.427404 -0.125316 0.119780 -0.079089 0.104097 0.136423 0.114795 -0.388798 -0.195357 -0.162218 0.043154 -0.184060 -0.017241 0.038189 -0.402122 0.056189 0.409126
17 0.131477 -0.120488 0.118095 -0.333289 -0.142160 -0.155108 -0.105468 -0.147142 0.143572 0.430145 -0.273322 0.356294 0.288263 -0.007386 0.011358 -0.222577 -0.463200 -0.269399 -0.155693 0.234887 0.498112 -0.146126 0.377958 0.149798 0.194549 0.518445 0.144505 0.080305 0.191139 -0.031381 -0.128317 0.265448 0.063550 -0.022817 0.057627 -0.251421 -0.169620 0.090884 0.236920 0.117571 -0.237668 0.157207 -0.333007 -0.059663 0.135842 0.324416 -0.096511 0.011106 0.003371 0.010138 -0.155752 -0.246843 0.105720 0.073589 0.046642 0.243323 -0.252778 -0.148599 0.062270 -0.178563 0.283813 -0.343516 0.172500 -0.068742
6 -0.128612 -0.487388 0.167708 -0.095115 -0.134487 0.114221 0.434068 0.091560 0.281699 -0.050654 0.359274 0.250693 -0.338271 -0.508429 0.544368 -0.578358 0.240822 -0.676546 0.284547 -0.077997 0.129917 0.062307 -0.474672 0.120230 0.363626 -0.227627 -0.176047 0.008352 -0.040295 0.105692 -0.189766 -0.165101 -0.314945 0.269412 -0.280071 -0.627309 0.460159 0.286870 0.331386 -0.050029 -0.324879 -0.237383 0.241394 0.675339 -0.381156 0.331060 0.006805 -0.535348 -0.009424 0.321510 -0.145951 0.230095 0.233012 0.240588 -0.574210 -0.331997 -0.267350 -0.076036 -0.000895 -0.152680 0.115947 -0.414833 0.180825 0.459810
4 -0.181696 -0.310520 0.095811 -0.147144 0.001994 -0.062066 0.125793 0.172188 0.247770 -0.103756 0.298110 0.308169 -0.157880 -0.308938 0.218823 -0.493645 0.115764 -0.378113 0.075642 0.004850 0.076550 0.072172 -0.091406 0.124148 0.174093 -0.032411 -0.093591 0.030458 0.069353 -0.042202 -0.157866 -0.053124 -0.270172 0.164962 -0.074914 -0.426355 0.411369 0.214813 0.253559 0.094048 -0.207083 -0.313806 0.233061 0.544628 -0.259030 0.142968 0.077033 -0.433603 -0.174745 0.068369 -0.069964 0.021679 0.090749 0.127945 -0.376993 -0.149689 -0.147737 0.110417 -0.213716 -0.012925 0.065488 -0.424011 0.030162 0.404978
0 -0.283231 -0.255476 0.180280 -0.329584 -0.014905 -0.111325 0.046995 -0.009405 0.097847 -0.002701 0.267381 0.305522 -0.037992 -0.252007 0.093023 -0.406352 -0.000155 -0.329274 0.000493 -0.089925 0.169425 0.156907 -0.003916 0.180787 -0.042727 0.004065 0.013333 0.107225 0.154557 -0.063162 -0.117671 0.020089 -0.286307 0.197709 -0.036826 -0.391768 0.274388 0.249305 0.313234 0.086373 -0.175935 -0.289930 0.139609 0.431534 -0.235477 0.135748 0.008043 -0.302504 -0.219302 0.026485 -0.040230 -0.015361 0.024836 0.058899 -0.367951 -0.201146 -0.181943 0.202239 -0.254392 0.079813 0.065907 -0.306372 -0.028954 0.224265
13 -0.094727 -0.092153 0.235090 -0.497593 -0.168724 -0.056994 -0.067540 -0.339928 -0.042448 0.389474 -0.167083 0.298827 0.236471 -0.147551 0.033210 -0.140470 -0.453839 -0.256243 -0.056944 -0.009962 0.573337 0.077144 0.206610 0.219322 -0.149833 0.319110 0.136187 0.129450 0.180870 0.047475 -0.054106 0.183571 -0.078867 0.105758 -0.074635 -0.306687 -0.119386 0.183282 0.265706 0.089535 -0.215894 0.118525 -0.225808 0.056007 0.068407 0.410083 -0.169798 0.113832 -0.029052 0.006418 -0.068941 -0.131001 0.086064 0.048551 -0.143808 -0.077999 -0.310104 -0.089221 -0.013193 -0.067018 0.258825 -0.097056 0.128439 -0.162993
16 0.085757 -0.076267 0.114256 -0.377653 -0.192987 -0.032283 -0.086714 -0.258832 0.095378 0.429590 -0.307917 0.293401 0.264910 -0.094195 0.089585 -0.144179 -0.484271 -0.247834 -0.024959 0.209204 0.578397 -0.103672 0.241346 0.205739 0.085930 0.449181 0.095495 0.012410 0.092339 0.028415 -0.108181 0.226321 0.061260 0.005202 -0.072360 -0.310163 -0.203724 0.066683 0.208096 0.060883 -0.265708 0.234081 -0.356614 -0.040565 0.201377 0.452435 -0.208283 0.150513 0.087903 0.018097 -0.118016 -0.166685 0.157170 0.037271 0.010151 0.123007 -0.284339 -0.258421 0.086928 -0.216123 0.315261 -0.232612 0.242145 -0.079302
1 -0.275838 -0.309809 0.140987 -0.250960 -0.002276 -0.085967 0.116734 0.084136 0.178133 -0.082147 0.320149 0.292257 -0.121569 -0.329704 0.163391 -0.472337 0.108566 -0.367309 0.089633 -0.060590 0.106764 0.140746 -0.114273 0.177842 0.056036 -0.070649 -0.048241 0.067506 0.104165 -0.042104 -0.148595 -0.039647 -0.316510 0.225208 -0.093916 -0.456527 0.352364 0.238707 0.305492 0.062084 -0.192385 -0.336690 0.208903 0.528278 -0.293415 0.122932 0.020349 -0.382490 -0.180464 0.060500 -0.058343 0.050434 0.068707 0.087854 -0.422728 -0.223980 -0.158789 0.178686 -0.258904 0.049759 0.040855 -0.366793 -0.008919 0.350668
14 -0.106966 -0.054055 0.203799 -0.515437 -0.180863 -0.005998 -0.117720 -0.369181 -0.035116 0.410359 -0.238393 0.301825 0.252044 -0.152112 0.040074 -0.088665 -0.486293 -0.200334 -0.011407 0.046912 0.627088 0.069423 0.226706 0.259333 -0.165217 0.362339 0.115325 0.071774 0.113993 0.074387 -0.036876 0.196071 -0.036930 0.105507 -0.108049 -0.328080 -0.177382 0.129743 0.223967 0.090834 -0.260406 0.181416 -0.278886 0.033173 0.143743 0.477814 -0.229019 0.224269 0.031168 -0.019074 -0.052611 -0.138606 0.107840 0.009837 -0.092183 -0.067654 -0.321670 -0.155129 -0.033805 -0.103007 0.279406 -0.089930 0.188493 -0.153921
11 -0.383823 -0.277747 -0.092214 -0.115800 0.261951 -0.195786 -0.192109 0.484602 0.593059 -0.360913 0.305002 0.601982 -0.255432 -0.149054 0.007457 -0.659477 -0.050100 -0.010744 -0.174187 0.168064 0.068905 0.091850 0.503296 0.241493 0.109544 0.192761 -0.084353 -0.129352 0.029223 -0.248589 -0.174667 -0.016579 -0.178768 0.041143 0.223347 -0.305867 0.785176 0.216002 0.041873 0.528430 -0.222398 -0.418225 0.440061 0.648858 -0.225908 0.201397 0.479993 -0.461709 -0.388400 -0.315040 0.044242 -0.139731 0.068784 -0.030592 -0.156864 0.020015 -0.042188 0.109567 -0.809702 0.134856 -0.033899 -0.695558 -0.087921 0.825515
19 0.357023 -0.176627 0.047789 -0.216287 -0.101327 -0.244402 -0.144345 -0.008660 0.338371 0.491656 -0.406291 0.437936 0.313038 0.153490 0.024722 -0.346152 -0.564769 -0.312858 -0.294572 0.428442 0.505865 -0.352336 0.583098 0.104265 0.516222 0.738081 0.190498 0.063043 0.208311 -0.152818 -0.218497 0.362798 0.225051 -0.179940 0.235066 -0.162632 -0.199142 0.057823 0.234523 0.191528 -0.265547 0.256234 -0.423498 -0.206633 0.216579 0.328646 0.039906 -0.119849 0.008291 0.017531 -0.235682 -0.351087 0.137111 0.129759 0.225857 0.563746 -0.225279 -0.275269 0.128782 -0.274675 0.336918 -0.595874 0.219572 0.020580
20 0.372287 -0.191009 0.003595 -0.163235 -0.093587 -0.249751 -0.129246 0.062677 0.387845 0.454033 -0.398549 0.439008 0.292419 0.139972 0.041822 -0.378683 -0.529419 -0.296331 -0.291000 0.461483 0.473232 -0.378692 0.589534 0.096725 0.579435 0.741978 0.176394 0.027225 0.185844 -0.157813 -0.235602 0.346058 0.232992 -0.185447 0.246109 -0.173513 -0.140897 0.032208 0.200882 0.194281 -0.284359 0.234677 -0.409451 -0.170406 0.206531 0.322261 0.070672 -0.148542 0.020704 0.005278 -0.252080 -0.346622 0.162812 0.128508 0.231972 0.590562 -0.205321 -0.302558 0.096958 -0.287399 0.332730 -0.640190 0.225250 0.091617
23 -0.152897 0.142141 0.007836 -0.666650 -0.270316 0.092629 -0.350141 -0.471520 0.033734 0.446704 -0.430005 0.343626 0.419242 -0.359996 -0.030831 0.066142 -0.727232 0.048414 0.234281 0.356730 0.916286 0.006449 0.245870 0.514764 -0.357553 0.516053 0.021342 -0.214416 -0.032941 0.189925 -0.012387 0.198643 0.010830 0.117622 -0.339986 -0.556059 -0.274610 0.057324 0.099043 0.149461 -0.312829 0.294290 -0.491268 0.038056 0.397224 0.788370 -0.463102 0.606399 0.191223 -0.269165 -0.001985 -0.176187 0.245438 -0.276040 0.028229 -0.116437 -0.354512 -0.414653 -0.153831 -0.234125 0.379333 -0.029295 0.399321 0.047176
10 -0.388832 -0.230981 -0.082180 -0.173228 0.259941 -0.205650 -0.238491 0.424542 0.537628 -0.320439 0.268149 0.611067 -0.192740 -0.113028 -0.066889 -0.595773 -0.115257 0.045606 -0.214885 0.162790 0.107803 0.114341 0.570293 0.256681 0.019814 0.241010 -0.041760 -0.114513 0.063105 -0.253063 -0.163599 0.012668 -0.174880 0.046675 0.233770 -0.276460 0.725980 0.195787 0.032099 0.522891 -0.212014 -0.404108 0.405214 0.600024 -0.177428 0.201654 0.457913 -0.399640 -0.393860 -0.361266 0.054733 -0.178257 0.046124 -0.055964 -0.126650 0.035942 -0.043635 0.126707 -0.820633 0.158258 -0.020371 -0.642901 -0.123205 0.742185
22 -0.161731 0.142614 -0.014011 -0.690251 -0.313555 0.149858 -0.346805 -0.500007 0.052510 0.456967 -0.465415 0.354959 0.408451 -0.451257 0.032839 0.075101 -0.745672 0.053981 0.330420 0.400435 0.985492 0.012141 0.209602 0.554604 -0.383904 0.527141 -0.019654 -0.280584 -0.090095 0.254624 -0.002734 0.172590 -0.003813 0.143825 -0.427569 -0.646423 -0.262214 0.040631 0.071233 0.139673 -0.356556 0.314873 -0.517453 0.104641 0.428484 0.906098 -0.523293 0.675043 0.260791 -0.277532 -0.010153 -0.150404 0.287724 -0.290793 0.016084 -0.159319 -0.381769 -0.488714 -0.162542 -0.286570 0.406055 -0.014865 0.460232 0.109025
7 -0.049913 -0.508468 0.071864 -0.005779 -0.133096 0.137948 0.439684 0.211744 0.397092 -0.110255 0.337966 0.259000 -0.381227 -0.538544 0.591295 -0.621040 0.313474 -0.647444 0.320393 0.033126 0.060147 -0.008852 -0.482711 0.114961 0.489314 -0.210443 -0.237024 -0.066458 -0.119643 0.095887 -0.210637 -0.162743 -0.306363 0.230586 -0.291247 -0.654138 0.513482 0.211296 0.282779 -0.052139 -0.356676 -0.259351 0.258717 0.738977 -0.360546 0.329486 0.030841 -0.579289 0.022511 0.319384 -0.186487 0.237488 0.270953 0.256985 -0.550239 -0.249763 -0.236401 -0.120209 -0.012064 -0.198988 0.098714 -0.524083 0.207896 0.599766
8 -0.063220 -0.471761 0.062088 -0.006593 -0.124661 0.143133 0.393802 0.197800 0.384268 -0.099475 0.297491 0.253806 -0.368615 -0.510263 0.557092 -0.577964 0.274886 -0.581410 0.328085 0.057982 0.078294 -0.006923 -0.439158 0.116577 0.447243 -0.169299 -0.225282 -0.079976 -0.134345 0.106616 -0.200962 -0.160079 -0.270767 0.223423 -0.282249 -0.628015 0.500183 0.198023 0.249955 -0.017792 -0.345249 -0.230367 0.232880 0.702651 -0.314168 0.350367 0.025122 -0.514120 0.024390 0.281478 -0.166120 0.213230 0.274030 0.220348 -0.501865 -0.240967 -0.235356 -0.145637 -0.043801 -0.208448 0.094443 -0.499660 0.213545 0.591321
