23 64
15 -0.061553 -0.257271 0.197484 -0.283432 -0.070149 0.050615 -0.006150 -0.119608 0.131124 0.169872 -0.076052 0.336282 0.012588 0.019135 0.104374 -0.069811 -0.222060 -0.197213 -0.150900 -0.126474 0.369420 0.078859 0.160626 0.123219 -0.128335 0.181427 0.067592 0.135883 -0.053131 -0.020030 -0.016114 0.186682 -0.047151 -0.002899 0.052253 -0.157555 0.147264 0.111628 0.091764 0.122576 -0.222603 -0.031345 0.079603 0.267072 0.039685 0.336648 0.101101 0.023574 -0.147768 0.101292 -0.182678 -0.045162 0.076848 0.084228 -0.168600 -0.160197 -0.334020 0.061758 -0.054203 -0.091958 0.215760 -0.217588 0.094642 -0.126636
10 -0.111363 -0.274246 0.178492 -0.271193 -0.191600 0.017975 0.017417 -0.167698 0.115583 0.147908 -0.176502 0.279393 -0.012870 0.007362 0.167202 0.012070 -0.312243 -0.067828 -0.039249 -0.192061 0.455321 0.063145 0.245609 0.111139 -0.221184 0.262425 0.208283 0.039457 -0.159601 -0.093761 -0.048075 0.115577 -0.020560 -0.077034 0.078113 -0.108956 0.313130 0.054455 -0.085516 0.044192 -0.324706 -0.047294 0.044044 0.325454 0.155420 0.535972 0.272129 0.139562 -0.051124 0.021017 -0.265948 0.075338 0.151095 -0.075098 -0.119680 -0.120356 -0.296483 -0.140251 -0.209793 -0.081927 0.296593 -0.159684 0.078972 0.065071
11 -0.105694 -0.297672 0.206409 -0.352000 -0.281850 -0.194570 -0.053541 -0.216874 -0.077708 0.168485 -0.290351 0.223352 0.127583 -0.071563 0.186424 -0.087465 -0.436721 -0.037211 0.118456 -0.173026 0.610969 0.017366 0.321544 0.187508 -0.347755 0.315083 0.299181 0.035527 -0.085831 -0.101141 0.038061 0.005776 -0.083908 -0.049697 0.069204 -0.080413 0.292147 0.106646 -0.036104 -0.012964 -0.160246 0.004299 -0.147653 0.209795 0.120593 0.602631 0.228029 0.278115 0.028563 -0.033746 -0.271788 0.023044 0.172154 -0.225212 -0.088843 -0.094944 -0.160271 -0.032914 -0.336600 -0.014503 0.227187 -0.109261 0.220711 0.186690
14 -0.068414 -0.339532 0.267489 -0.429068 -0.016303 0.052334 -0.093322 -0.211566 0.084208 0.264671 -0.152118 0.369540 0.005022 0.066212 0.062945 -0.065397 -0.201968 -0.163500 -0.157350 -0.170809 0.421374 0.159501 0.125035 0.211480 -0.230455 0.151276 0.139469 0.291635 -0.105014 0.002318 0.070102 0.299058 -0.092462 0.070289 0.110150 -0.125067 -0.001126 0.156164 0.204472 0.175278 -0.150508 0.060289 0.063763 0.168369 -0.026536 0.321029 0.059655 0.082022 -0.202928 0.196773 -0.212155 -0.045213 0.075657 0.128757 -0.220556 -0.207186 -0.383277 0.228681 -0.093774 -0.058995 0.097872 -0.289317 0.107408 -0.253006
20 -0.107508 -0.347149 0.237066 -0.435098 -0.481923 -0.417225 -0.053269 -0.288745 -0.269399 0.198267 -0.429401 0.224059 0.285647 -0.158059 0.233644 -0.166514 -0.652407 -0.017475 0.272553 -0.147124 0.853721 -0.068154 0.508905 0.271491 -0.472700 0.489179 0.454287 -0.059275 -0.014724 -0.139004 0.063522 -0.160469 -0.133076 -0.035886 0.047860 -0.101698 0.411448 0.113347 -0.081587 -0.134747 -0.133224 -0.011523 -0.385585 0.203724 0.179017 0.815688 0.285323 0.433450 0.156111 -0.155717 -0.337294 -0.039323 0.243266 -0.482969 -0.030488 -0.029712 -0.056918 -0.044437 -0.533528 0.027573 0.271861 -0.058555 0.377891 0.403866
16 -0.039415 -0.167570 0.135136 -0.137905 -0.066244 -0.008363 0.041522 0.023863 0.153151 0.103127 0.060002 0.349669 0.043168 -0.029879 0.117081 -0.138351 -0.192505 -0.303880 -0.161776 -0.054790 0.285170 0.009508 0.144614 0.033946 0.030781 0.163890 -0.022455 0.050463 0.064636 -0.000217 -0.076874 0.073825 -0.060286 -0.010957 -0.001019 -0.215526 0.261711 0.127480 0.052859 0.089357 -0.213941 -0.113028 0.127276 0.337334 0.004644 0.228494 0.090675 -0.086054 -0.157137 0.063345 -0.098545 -0.110872 0.066981 0.084059 -0.147911 -0.131347 -0.259518 0.050807 0.019626 -0.161494 0.290693 -0.226942 0.100366 -0.068334
17 -0.040123 -0.200732 0.143249 -0.172601 0.033021 -0.122507 -0.003441 0.131689 0.102829 0.069086 0.209741 0.406074 0.134465 -0.099389 0.040030 -0.314302 -0.066231 -0.426304 -0.153289 0.038231 0.227046 0.011585 0.061915 0.088196 0.098655 0.077781 -0.125221 0.134838 0.235458 0.049525 -0.044200 0.043964 -0.173816 0.144817 -0.055863 -0.314963 0.145971 0.199445 0.270774 0.104980 -0.061537 -0.197004 0.126147 0.327716 -0.180826 0.001574 -0.100079 -0.226933 -0.213702 0.080734 -0.037908 -0.246560 0.014735 0.148564 -0.254054 -0.159623 -0.189081 0.357537 0.043380 -0.108797 0.181771 -0.318716 0.147054 -0.106348
3 -0.149901 -0.228573 0.126312 -0.158974 0.086789 -0.242412 0.003004 0.263196 0.067731 -0.111016 0.342970 0.330076 0.167457 -0.236612 0.043166 -0.468409 0.067563 -0.464151 -0.040161 0.004928 0.153888 0.027660 -0.029104 0.123245 0.142039 -0.005900 -0.139825 0.107293 0.302043 -0.043924 -0.132883 -0.056130 -0.285576 0.195411 -0.070201 -0.389760 0.216484 0.183568 0.316792 -0.021958 -0.067646 -0.387839 0.204590 0.456998 -0.253344 -0.127165 -0.137422 -0.365525 -0.203309 0.026893 -0.034820 -0.197336 -0.021864 0.134847 -0.367970 -0.166813 -0.062040 0.436683 -0.071135 -0.011692 0.202709 -0.364572 0.120887 0.083352
7 -0.138525 -0.185961 0.093713 -0.066796 -0.043313 0.111067 0.106316 0.112653 0.373345 -0.011686 0.134604 0.348949 -0.071709 -0.072889 0.175138 -0.073386 -0.103101 -0.294074 -0.177567 -0.133408 0.208629 0.046218 0.101582 -0.033462 0.129723 0.164398 -0.045141 -0.034381 -0.070050 -0.086647 -0.215800 0.121635 -0.022792 -0.120085 0.039389 -0.282315 0.429252 0.057392 -0.103328 0.061493 -0.496701 -0.278189 0.329340 0.589140 0.083932 0.273682 0.236215 -0.204787 -0.152505 0.036552 -0.193935 0.070884 0.064826 0.140321 -0.182664 -0.140093 -0.346049 -0.188096 0.009486 -0.203925 0.477551 -0.278331 -0.013610 0.060386
4 -0.194002 -0.219376 0.096701 -0.108940 0.127577 -0.192020 0.026795 0.322396 0.176364 -0.180919 0.395154 0.323541 0.123320 -0.235971 0.061415 -0.443584 0.117710 -0.466850 -0.054976 -0.026822 0.096780 0.048288 -0.068512 0.071813 0.197835 -0.021036 -0.165931 0.069719 0.247282 -0.101457 -0.210058 -0.032276 -0.258550 0.137256 -0.045802 -0.405827 0.278618 0.142321 0.251518 -0.045734 -0.181879 -0.459047 0.316138 0.553488 -0.217799 -0.159516 -0.096906 -0.430705 -0.206698 0.011984 -0.058715 -0.115338 -0.025340 0.177600 -0.376341 -0.166140 -0.080766 0.341412 -0.052252 -0.045291 0.295638 -0.396925 0.060151 0.109430
12 -0.049077 -0.341073 0.278230 -0.464100 -0.220907 -0.081449 -0.103417 -0.356594 -0.081443 0.322731 -0.326788 0.318217 0.081519 0.047970 0.149531 -0.002659 -0.481197 -0.053048 -0.005475 -0.228604 0.668112 0.100762 0.289391 0.226135 -0.441469 0.267870 0.312196 0.198912 -0.108835 -0.027320 0.115390 0.160559 -0.092838 -0.001215 0.090466 -0.025230 0.131670 0.171770 0.059215 0.103719 -0.080844 0.154410 -0.105167 0.100938 0.095912 0.635199 0.191707 0.320099 -0.081183 0.090402 -0.263750 -0.009892 0.166066 -0.106999 -0.143399 -0.184342 -0.286581 0.070524 -0.216470 -0.043206 0.170554 -0.121313 0.185343 -0.088901
2 -0.187688 -0.317368 0.137288 -0.249513 0.135890 -0.350546 -0.026211 0.292378 -0.016905 -0.177241 0.383141 0.321397 0.237009 -0.296238 0.025611 -0.605787 0.115057 -0.468252 0.040251 -0.022439 0.166923 0.075163 -0.077390 0.193521 0.054757 -0.086397 -0.132032 0.156986 0.359273 -0.094159 -0.116528 -0.077483 -0.403554 0.292799 -0.086143 -0.399904 0.148374 0.173193 0.449615 -0.108431 0.039308 -0.430009 0.210886 0.440317 -0.360539 -0.226097 -0.258348 -0.401816 -0.189098 0.014574 -0.051849 -0.197838 -0.029215 0.150332 -0.484138 -0.202591 0.044034 0.644397 -0.159907 0.090590 0.129056 -0.405000 0.122747 0.100565
19 0.040071 -0.284650 0.272517 -0.391279 -0.026074 0.016743 -0.100274 -0.198984 0.066809 0.351381 -0.107164 0.463577 0.066526 0.084252 0.042696 -0.109226 -0.274582 -0.296619 -0.216104 -0.040226 0.451675 0.081107 0.152045 0.185678 -0.149498 0.186576 0.054083 0.300996 0.038557 0.105401 0.109032 0.261093 -0.080896 0.100402 0.044884 -0.169478 -0.039722 0.255693 0.283995 0.260292 -0.029317 0.113518 -0.005486 0.099617 -0.069441 0.289202 -0.014772 0.049715 -0.246430 0.214478 -0.125666 -0.214815 0.066719 0.141437 -0.171640 -0.193774 -0.394183 0.313505 0.054171 -0.147843 0.084692 -0.296961 0.191504 -0.342163
18 0.042341 -0.203566 0.182342 -0.255779 0.006975 -0.066245 -0.066105 -0.016255 0.073555 0.249595 0.059565 0.457958 0.129670 -0.000575 0.038194 -0.230599 -0.189393 -0.380655 -0.218662 0.052294 0.345763 0.021104 0.128171 0.122061 0.023852 0.143345 -0.062314 0.213356 0.184400 0.122154 0.059011 0.140385 -0.114199 0.142933 -0.013870 -0.244469 0.032343 0.247336 0.290155 0.218861 -0.005967 0.009528 0.019611 0.163444 -0.148970 0.128303 -0.093480 -0.085892 -0.229528 0.143021 -0.039254 -0.296690 0.052695 0.158696 -0.186893 -0.153543 -0.274518 0.340625 0.086482 -0.155973 0.121397 -0.307942 0.199944 -0.260349
9 -0.184208 -0.279494 0.140319 -0.199832 -0.141064 0.159550 0.088559 -0.069403 0.346044 0.069026 -0.091660 0.317000 -0.119084 -0.001239 0.194700 0.048152 -0.216033 -0.098889 -0.128304 -0.223756 0.318774 0.104649 0.216506 0.015172 -0.082994 0.274818 0.133342 -0.030752 -0.268771 -0.139602 -0.163456 0.215783 0.036174 -0.176390 0.138876 -0.184223 0.423241 -0.009633 -0.189218 0.062881 -0.588538 -0.183673 0.220309 0.525109 0.194961 0.489962 0.347202 -0.001404 -0.094110 0.024712 -0.329066 0.187150 0.117748 0.027496 -0.113584 -0.135031 -0.424915 -0.300745 -0.161585 -0.160177 0.433267 -0.241938 -0.023830 0.090395
0 -0.255732 -0.377809 0.156358 -0.320057 0.164897 -0.336907 -0.048862 0.272642 -0.009358 -0.210897 0.370152 0.273472 0.211382 -0.301909 0.013799 -0.620989 0.212147 -0.422758 0.068996 -0.058460 0.116145 0.115958 -0.122667 0.247519 0.021110 -0.108484 -0.089838 0.182024 0.277810 -0.154660 -0.122842 -0.013012 -0.414428 0.303177 -0.025934 -0.412919 0.094781 0.140886 0.492484 -0.146655 -0.012719 -0.477169 0.203390 0.451349 -0.373543 -0.263424 -0.275861 -0.412443 -0.193029 0.040498 -0.106067 -0.130145 -0.059962 0.141352 -0.509403 -0.204185 0.024587 0.693401 -0.249577 0.154111 0.073390 -0.462882 0.096924 0.141204
13 -0.049581 -0.329475 0.271381 -0.448352 -0.148669 -0.026627 -0.093315 -0.303494 0.000208 0.296869 -0.264421 0.316067 0.055656 0.042709 0.127731 -0.023197 -0.387684 -0.097499 -0.070792 -0.222467 0.580506 0.113407 0.210948 0.216277 -0.367603 0.216437 0.249734 0.229869 -0.111838 -0.029600 0.085269 0.222064 -0.082451 -0.005950 0.101007 -0.063441 0.101834 0.178581 0.106768 0.128862 -0.107881 0.120198 -0.033347 0.132275 0.057194 0.528622 0.154249 0.229712 -0.131513 0.134079 -0.251657 0.000290 0.136691 -0.009385 -0.176601 -0.200236 -0.333078 0.096776 -0.154241 -0.055032 0.162869 -0.174268 0.146255 -0.150215
8 -0.138582 -0.217127 0.121106 -0.065956 -0.084152 0.210476 0.146836 0.070249 0.456409 0.053597 0.084061 0.396854 -0.139647 -0.005024 0.208468 -0.003076 -0.146831 -0.276530 -0.228221 -0.148169 0.228324 0.053421 0.149993 -0.084102 0.120442 0.248516 -0.017584 -0.036059 -0.157681 -0.080225 -0.245651 0.188631 0.055743 -0.166743 0.068544 -0.281178 0.505867 0.038676 -0.156730 0.122234 -0.613774 -0.254631 0.340064 0.642485 0.163502 0.387436 0.305605 -0.176337 -0.179914 0.062386 -0.246209 0.090887 0.110285 0.155299 -0.158292 -0.149802 -0.476143 -0.307836 0.011717 -0.277137 0.530528 -0.306220 -0.042031 0.018567
1 -0.320347 -0.442562 0.185614 -0.349208 0.220172 -0.433954 -0.052719 0.361971 0.008855 -0.275255 0.453830 0.318575 0.256739 -0.382360 0.011675 -0.748421 0.250355 -0.521257 0.118860 -0.076515 0.149654 0.139394 -0.155861 0.279511 0.054644 -0.137831 -0.111621 0.218570 0.364149 -0.182301 -0.184396 -0.049617 -0.503379 0.364554 -0.058687 -0.503849 0.121884 0.167355 0.568782 -0.192670 -0.010898 -0.590341 0.288238 0.561674 -0.450006 -0.332899 -0.324280 -0.504624 -0.201226 0.039434 -0.119303 -0.130109 -0.069518 0.191676 -0.619439 -0.241254 0.062969 0.803591 -0.281814 0.170702 0.126525 -0.543462 0.098311 0.187685
5 -0.252928 -0.313147 0.105862 -0.182677 0.185144 -0.283302 0.016122 0.345592 0.131551 -0.256868 0.463822 0.315232 0.155494 -0.298285 0.053716 -0.578020 0.192023 -0.501130 0.018318 -0.042578 0.090031 0.093076 -0.138829 0.152882 0.159649 -0.097356 -0.157370 0.096065 0.288738 -0.148070 -0.225681 -0.056214 -0.362279 0.228535 -0.043719 -0.460683 0.232471 0.152007 0.365031 -0.123414 -0.113630 -0.540520 0.320245 0.572850 -0.320133 -0.245451 -0.187377 -0.494392 -0.202223 0.009319 -0.081221 -0.094155 -0.044474 0.170023 -0.468325 -0.204555 -0.003528 0.508356 -0.130578 0.029121 0.235790 -0.459391 0.063525 0.172230
6 -0.102418 -0.144595 0.095828 -0.011021 0.037237 -0.026807 0.092586 0.235059 0.283620 -0.054866 0.310825 0.372760 0.035314 -0.135590 0.131552 -0.246405 -0.052739 -0.468278 -0.159978 -0.037256 0.165092 -0.008227 0.020486 -0.042123 0.228575 0.086653 -0.149760 -0.008447 0.168079 -0.027774 -0.227919 -0.003871 -0.099566 -0.005479 -0.042241 -0.361330 0.389888 0.163433 0.054654 0.040220 -0.302128 -0.337440 0.331935 0.556441 -0.061052 0.073432 0.069542 -0.348033 -0.196191 0.037957 -0.067218 -0.092130 0.015198 0.175364 -0.236776 -0.160994 -0.232868 0.037623 0.101500 -0.220077 0.451148 -0.303778 0.043550 0.024075
22 -0.027936 -0.294577 0.226566 -0.374334 -0.528555 -0.404799 -0.037337 -0.314588 -0.261317 0.255217 -0.435017 0.297341 0.289868 -0.144820 0.283013 -0.123335 -0.785088 -0.074766 0.251634 -0.100872 0.945537 -0.111022 0.578493 0.222241 -0.472520 0.544886 0.422420 -0.114603 0.042740 -0.057510 0.070984 -0.228185 -0.112281 -0.065872 -0.014844 -0.114357 0.485508 0.160337 -0.161014 -0.092807 -0.092117 0.036188 -0.390734 0.223909 0.230262 0.944088 0.321671 0.478529 0.172214 -0.173812 -0.297131 -0.101757 0.262636 -0.491983 0.032998 -0.032512 -0.065009 -0.122923 -0.427630 -0.083709 0.356801 0.004877 0.411375 0.378883
21 -0.058371 -0.276001 0.209329 -0.359425 -0.468150 -0.402022 -0.038737 -0.248887 -0.235486 0.212961 -0.358568 0.272971 0.286029 -0.165504 0.250553 -0.170712 -0.676215 -0.097613 0.234789 -0.093029 0.846187 -0.097257 0.501125 0.216081 -0.399386 0.472294 0.371023 -0.087111 0.062832 -0.074125 0.059832 -0.207351 -0.126646 -0.036529 -0.014518 -0.132764 0.439659 0.158477 -0.093993 -0.092566 -0.094142 0.007012 -0.346936 0.217549 0.160978 0.800457 0.263118 0.393002 0.145398 -0.157119 -0.260622 -0.096577 0.240766 -0.435083 -0.012817 -0.033549 -0.045985 -0.066998 -0.418075 -0.046402 0.314517 -0.035893 0.383911 0.362394
