13 64
10 -0.110466 -0.169893 -0.152027 0.188390 0.270321 0.089766 -0.000188 -0.106055 0.271069 -0.285140 0.222636 0.331916 -0.351701 0.540500 0.044443 0.286690 -0.270084 0.137460 -0.029108 -0.178016 0.466628 0.052619 0.087865 0.272140 -0.181264 -0.338336 0.083324 -0.150485 -0.138401 -0.282558 -0.089509 -0.370204 0.135306 0.087369 -0.119243 0.347399 0.166517 -0.002570 -0.341160 0.011516 0.202626 0.233940 0.452922 -0.086875 0.161931 0.466820 0.546154 0.160340 0.221088 -0.237594 0.171880 0.265282 0.315359 -0.338768 -0.037953 -0.072252 0.371155 -0.288801 -0.142992 0.092315 0.192574 0.084844 -0.048120 0.163745
5 -0.073919 -0.186647 -0.138518 0.075939 0.162717 0.072356 0.049486 -0.036349 0.199868 -0.245119 0.235327 0.285539 -0.263739 0.243399 0.097962 0.038920 -0.143647 0.033504 -0.057738 -0.111487 0.272459 0.070313 0.045013 0.228945 -0.106895 -0.264703 -0.001618 -0.151368 -0.087823 -0.182175 -0.048636 -0.236797 -0.026580 0.096473 -0.063318 0.132612 0.215971 0.020541 -0.181154 0.015391 0.106611 0.070732 0.320621 0.069334 0.012825 0.333384 0.355363 -0.016949 0.079602 -0.168632 0.083743 0.160047 0.203043 -0.201495 -0.106788 -0.103072 0.223492 -0.130241 -0.146874 0.090939 0.092006 -0.013517 -0.022975 0.217170
2 -0.054755 -0.270195 -0.114178 -0.137036 -0.038767 0.113592 0.101960 0.111088 0.145186 -0.198456 0.277398 0.273006 -0.146070 -0.189068 0.192911 -0.299213 0.077067 -0.050420 -0.113821 -0.064055 -0.013211 0.064870 0.067405 0.171934 -0.077170 -0.156887 -0.100182 -0.189373 -0.066542 -0.095188 0.028407 -0.007094 -0.257278 0.105611 -0.006413 -0.178031 0.351313 -0.002368 0.043174 -0.033118 -0.156383 -0.204435 0.219362 0.394596 -0.189002 0.239801 0.126489 -0.307531 -0.093387 -0.075915 -0.102607 0.028306 0.024381 0.008718 -0.291873 -0.132698 -0.022843 0.115832 -0.287596 0.179036 -0.005686 -0.188971 -0.076862 0.345350
0 -0.071501 -0.296389 -0.105129 -0.186012 -0.085050 0.138342 0.095817 0.126329 0.160278 -0.184071 0.292248 0.271600 -0.134207 -0.240995 0.215964 -0.328636 0.133903 -0.053051 -0.124489 -0.064955 -0.063922 0.048914 0.076935 0.166201 -0.085236 -0.131515 -0.096680 -0.205108 -0.093294 -0.107984 0.034106 0.053467 -0.274517 0.089682 0.013477 -0.237295 0.379692 -0.010926 0.076097 -0.053950 -0.239770 -0.268702 0.204120 0.469744 -0.199596 0.255899 0.103880 -0.350876 -0.120587 -0.051768 -0.155845 0.025822 -0.013835 0.022074 -0.325120 -0.128596 -0.085259 0.145711 -0.334144 0.200634 -0.000582 -0.237038 -0.105526 0.386528
7 -0.054063 -0.257658 -0.124262 -0.111605 -0.025841 0.119678 0.090701 0.087481 0.172375 -0.197445 0.259061 0.271560 -0.162731 -0.131073 0.187393 -0.235850 0.054477 -0.031735 -0.110665 -0.070839 0.024349 0.057698 0.068907 0.180745 -0.073147 -0.167710 -0.089981 -0.187637 -0.089021 -0.114442 0.022562 -0.016123 -0.220300 0.084794 -0.015364 -0.136764 0.322994 -0.012914 0.005265 -0.027225 -0.143467 -0.166398 0.228824 0.358526 -0.148621 0.264749 0.163088 -0.256971 -0.062255 -0.082371 -0.093048 0.061241 0.047434 -0.015585 -0.266562 -0.116843 0.000487 0.064796 -0.261787 0.172116 0.014824 -0.168563 -0.072608 0.335362
3 -0.063255 -0.219924 -0.105562 -0.058721 0.031380 0.092140 0.087907 0.059574 0.138578 -0.209307 0.262218 0.248822 -0.183511 -0.062210 0.149213 -0.192343 0.021493 -0.041626 -0.094142 -0.074790 0.063385 0.064966 0.040862 0.194161 -0.061297 -0.187701 -0.068629 -0.159200 -0.051696 -0.104685 -0.007319 -0.090582 -0.184596 0.109297 -0.026581 -0.090119 0.296407 0.019198 -0.020340 -0.010565 -0.059947 -0.126067 0.236162 0.285741 -0.121769 0.246514 0.193998 -0.217697 -0.053037 -0.091660 -0.023288 0.056577 0.066482 -0.054789 -0.225118 -0.122404 0.048999 0.036940 -0.224631 0.146817 0.014629 -0.121770 -0.051549 0.299058
4 -0.061920 -0.195596 -0.127109 0.002016 0.090739 0.083060 0.061906 0.030554 0.168474 -0.233321 0.265022 0.273001 -0.208410 0.065237 0.129264 -0.094859 -0.049774 -0.012840 -0.081613 -0.083969 0.156610 0.062205 0.038559 0.204170 -0.081619 -0.221757 -0.049084 -0.161277 -0.063154 -0.145851 -0.023851 -0.160020 -0.118217 0.098954 -0.044791 0.004280 0.274538 0.024591 -0.090084 0.000181 0.010566 -0.048348 0.284241 0.203189 -0.061138 0.280478 0.262793 -0.144787 -0.000661 -0.136307 0.028143 0.092264 0.127435 -0.116834 -0.178765 -0.109823 0.130710 -0.033451 -0.188269 0.119110 0.062181 -0.080539 -0.035250 0.265482
6 -0.067168 -0.217808 -0.113211 -0.013060 0.063854 0.096635 0.067523 0.033638 0.170567 -0.207026 0.241579 0.263524 -0.205858 0.051914 0.136597 -0.091965 -0.038551 0.000158 -0.071679 -0.097356 0.134642 0.052888 0.058034 0.183901 -0.088819 -0.205473 -0.032401 -0.165369 -0.081490 -0.135593 -0.013901 -0.127963 -0.109659 0.090739 -0.036744 -0.002026 0.264400 0.010374 -0.086759 -0.018069 -0.029691 -0.047531 0.275619 0.205195 -0.070206 0.292420 0.252742 -0.142581 0.014515 -0.110628 -0.006234 0.105415 0.107369 -0.103325 -0.179596 -0.109317 0.100229 -0.028655 -0.205446 0.124111 0.062054 -0.083656 -0.055895 0.263955
8 -0.063220 -0.279937 -0.106489 -0.128765 -0.049326 0.131619 0.095806 0.103411 0.168212 -0.181179 0.258982 0.269789 -0.162413 -0.155454 0.198258 -0.260733 0.082747 -0.028097 -0.100032 -0.066573 -0.007039 0.052498 0.078395 0.158302 -0.081326 -0.140055 -0.083011 -0.185138 -0.097010 -0.104360 0.021606 0.004831 -0.222605 0.093277 -0.009368 -0.164187 0.349218 -0.017401 0.029708 -0.028452 -0.180944 -0.193598 0.219032 0.394831 -0.157577 0.272616 0.141974 -0.281496 -0.076787 -0.066240 -0.118977 0.046242 0.036771 0.000853 -0.286616 -0.118956 -0.037911 0.083423 -0.297622 0.173040 0.007357 -0.193885 -0.089883 0.348110
9 -0.069408 -0.295313 -0.119445 -0.171836 -0.073876 0.134954 0.096613 0.128423 0.177839 -0.189019 0.283093 0.286590 -0.142549 -0.229056 0.212069 -0.316662 0.108336 -0.038835 -0.122720 -0.064287 -0.050119 0.061901 0.090989 0.157470 -0.086748 -0.133667 -0.103473 -0.209884 -0.097142 -0.102788 0.037720 0.047977 -0.272162 0.084974 0.011910 -0.218016 0.378992 -0.016752 0.052004 -0.036781 -0.228577 -0.250741 0.219678 0.457419 -0.199805 0.257789 0.117935 -0.336120 -0.108954 -0.068646 -0.152917 0.037864 -0.000195 0.024182 -0.311553 -0.130889 -0.069437 0.126895 -0.324428 0.191103 0.001711 -0.225257 -0.105990 0.382647
12 -0.119515 -0.184849 -0.156098 0.187276 0.273250 0.077638 -0.004837 -0.114850 0.266412 -0.287617 0.231432 0.349168 -0.361649 0.549231 0.054553 0.279937 -0.294284 0.134908 -0.022808 -0.191064 0.481784 0.068176 0.092223 0.271619 -0.189234 -0.354717 0.078580 -0.147595 -0.137501 -0.283083 -0.077629 -0.373902 0.119668 0.088854 -0.112908 0.366016 0.167471 0.011103 -0.342562 0.030717 0.225059 0.248588 0.461926 -0.100609 0.148532 0.477277 0.555592 0.164929 0.208900 -0.243421 0.175953 0.271842 0.322110 -0.349268 -0.044273 -0.092556 0.384583 -0.283804 -0.138697 0.094455 0.190510 0.090225 -0.038183 0.172869
11 -0.114922 -0.187163 -0.145197 0.166756 0.249892 0.082361 -0.000735 -0.082966 0.266234 -0.281989 0.219871 0.329472 -0.340845 0.489459 0.068740 0.230655 -0.254652 0.119937 -0.030325 -0.179806 0.436703 0.054499 0.093856 0.259677 -0.175037 -0.330473 0.062720 -0.150448 -0.140543 -0.270742 -0.069162 -0.339046 0.108791 0.075261 -0.100717 0.321048 0.184470 0.007334 -0.311201 0.023629 0.186720 0.214764 0.440706 -0.059817 0.125549 0.452766 0.518550 0.136245 0.191023 -0.217802 0.152801 0.251964 0.291873 -0.310936 -0.054025 -0.089140 0.343226 -0.249577 -0.157083 0.097786 0.174091 0.060257 -0.035386 0.182952
1 -0.087269 -0.324337 -0.097701 -0.209910 -0.092410 0.135815 0.101932 0.149479 0.178364 -0.189027 0.297244 0.282156 -0.131167 -0.278407 0.220959 -0.363523 0.156977 -0.060794 -0.120131 -0.070858 -0.076626 0.052740 0.087538 0.173101 -0.082380 -0.126042 -0.099301 -0.203067 -0.091237 -0.111253 0.025603 0.074099 -0.299432 0.097989 0.008432 -0.272012 0.392126 -0.021346 0.097036 -0.065702 -0.273993 -0.304046 0.220065 0.517002 -0.220421 0.254977 0.093588 -0.378259 -0.122170 -0.042240 -0.182174 0.032628 -0.025891 0.048962 -0.359259 -0.131898 -0.102791 0.169034 -0.364350 0.219264 0.000049 -0.265585 -0.125950 0.411229
