17 64
6 0.274006 -0.302552 -0.235008 0.223128 -0.052640 0.246345 0.423192 0.310233 0.353134 -0.141323 0.281637 0.365762 -0.231365 -0.370752 0.415218 -0.268770 -0.045800 -0.329681 0.055047 -0.032056 0.054634 -0.051193 -0.121056 -0.091541 0.439238 -0.236546 -0.199087 -0.375779 -0.020643 0.133540 -0.115201 -0.213910 -0.234275 0.106493 -0.223108 -0.243413 0.346780 -0.054277 -0.232561 -0.302575 -0.372674 -0.008405 0.519222 0.402732 -0.265085 0.314887 0.215752 -0.593456 0.318163 0.037832 -0.181835 0.239264 0.142855 0.307099 -0.264807 -0.063889 0.063229 -0.362881 0.227359 -0.209259 0.398835 -0.123035 -0.049243 0.305005
10 -0.207986 -0.091715 0.087311 -0.210504 0.147726 0.105461 -0.009083 -0.039435 0.071767 -0.140827 0.123939 0.271225 -0.092761 0.067052 0.032270 -0.096863 -0.191767 0.002197 -0.239613 -0.269922 0.204831 0.246229 0.169408 0.109513 -0.372166 -0.000430 0.089983 -0.010172 -0.035366 -0.178484 -0.118547 0.015456 -0.097349 0.028003 0.103451 -0.022886 0.396620 0.023433 -0.083074 -0.000233 -0.149748 -0.100534 0.380600 0.324018 0.050008 0.209706 0.192856 -0.050206 -0.198909 -0.103375 0.048617 0.012311 0.038460 0.067831 -0.167157 -0.214375 -0.108742 0.059085 -0.300962 0.023238 0.199452 -0.100836 -0.182688 -0.115002
14 -0.214168 -0.058540 0.248469 -0.353228 0.113879 0.210582 0.038515 -0.318226 -0.015002 0.072755 -0.175079 0.312209 -0.162094 0.269344 0.133327 0.059867 -0.371785 -0.103581 -0.406210 -0.535625 0.359058 0.416856 0.213699 0.125815 -0.443058 0.093122 0.323799 0.116925 -0.234157 -0.240732 -0.182993 0.206287 -0.101330 -0.083887 0.248668 0.066968 0.360496 -0.110844 -0.253392 -0.200378 -0.352696 0.142317 0.432535 0.279468 0.245450 0.285685 0.304622 0.257178 -0.254576 0.171220 0.063707 0.124229 0.073101 0.173195 -0.059403 -0.244601 -0.274133 0.022512 -0.209561 -0.206318 0.358862 -0.202290 -0.202674 -0.537406
5 0.046128 -0.239965 -0.149646 0.039089 0.053670 0.082121 0.185558 0.256435 0.252265 -0.210320 0.328961 0.333792 -0.111956 -0.276434 0.199982 -0.289714 -0.043110 -0.170556 0.008192 -0.035692 0.074942 0.049018 -0.023676 0.002569 0.103169 -0.165012 -0.148599 -0.224576 0.064882 0.004979 -0.094126 -0.155991 -0.237623 0.125684 -0.118783 -0.205859 0.361423 0.041376 -0.065561 -0.099868 -0.179725 -0.169861 0.434122 0.399702 -0.229458 0.191273 0.132663 -0.472171 0.076970 -0.120585 -0.102101 0.099186 0.083607 0.166160 -0.287630 -0.125268 0.064764 -0.090315 -0.039082 -0.030058 0.247051 -0.128106 -0.094737 0.280110
11 -0.257182 -0.097212 0.144365 -0.279940 0.152104 0.091206 -0.041428 -0.103066 0.046551 -0.099835 0.065132 0.292899 -0.089378 0.122798 0.050352 -0.086169 -0.259315 -0.017805 -0.277481 -0.360743 0.258154 0.305980 0.202454 0.111496 -0.444439 0.021188 0.148873 0.042712 -0.072881 -0.224008 -0.123867 0.082575 -0.110099 -0.016499 0.165897 0.013014 0.402660 0.022631 -0.093974 -0.014788 -0.171350 -0.056780 0.406219 0.314623 0.081949 0.219298 0.210273 0.035378 -0.259245 -0.049871 0.054405 0.033898 0.033030 0.082432 -0.159229 -0.254131 -0.148589 0.102447 -0.316000 -0.011020 0.238630 -0.138093 -0.189049 -0.212397
3 -0.135805 -0.170812 -0.052094 -0.075032 0.153792 0.040538 0.043648 0.209361 0.165928 -0.276600 0.340863 0.296272 -0.072389 -0.179007 0.036772 -0.274819 -0.039529 -0.035964 -0.077689 -0.071882 0.086567 0.132258 0.081441 0.081754 -0.159249 -0.094938 -0.104220 -0.126344 0.107966 -0.070742 -0.094924 -0.138117 -0.184929 0.148148 -0.040726 -0.164254 0.411487 0.088100 0.010826 0.049847 -0.087772 -0.269726 0.405495 0.417163 -0.159071 0.142753 0.114515 -0.367979 -0.090622 -0.228579 -0.005791 -0.021213 0.025938 0.086214 -0.280097 -0.180972 0.020458 0.060452 -0.270986 0.107905 0.141138 -0.092098 -0.144071 0.215358
2 -0.166251 -0.141721 0.012096 -0.148778 0.145454 0.051552 0.009093 0.097242 0.108603 -0.205528 0.236617 0.291027 -0.063142 -0.066143 0.029711 -0.199092 -0.120995 -0.011974 -0.139944 -0.165305 0.146089 0.186464 0.128393 0.086017 -0.273917 -0.053123 -0.009730 -0.064710 0.050148 -0.122947 -0.092722 -0.063012 -0.156267 0.097119 0.024658 -0.086858 0.391430 0.057749 -0.019641 0.020224 -0.101164 -0.182281 0.391377 0.356264 -0.075933 0.161472 0.135269 -0.217220 -0.138133 -0.173602 0.013868 -0.009806 0.033571 0.077150 -0.235825 -0.197386 -0.025491 0.086370 -0.288567 0.074552 0.163869 -0.096932 -0.162361 0.053345
15 -0.243456 -0.064105 0.197042 -0.306478 0.136010 0.174354 0.018850 -0.227106 0.011596 -0.024211 -0.047178 0.285583 -0.134729 0.211889 0.088132 -0.011256 -0.323198 -0.058749 -0.365525 -0.443904 0.294726 0.361740 0.213650 0.115453 -0.445304 0.063297 0.220780 0.062500 -0.148397 -0.234481 -0.165851 0.141353 -0.076439 -0.055705 0.211160 0.044807 0.381361 -0.048895 -0.171550 -0.092569 -0.263885 0.044195 0.395919 0.283952 0.182712 0.255436 0.245589 0.146688 -0.263309 0.044318 0.075655 0.067920 0.047740 0.119983 -0.090997 -0.254735 -0.225146 0.031439 -0.255253 -0.101172 0.291875 -0.140827 -0.196475 -0.385064
12 -0.255391 -0.095148 0.163955 -0.301073 0.125476 0.098715 -0.042200 -0.162949 0.021902 -0.042403 0.023997 0.304624 -0.098919 0.160770 0.071109 -0.038410 -0.311148 -0.027997 -0.286992 -0.414700 0.285039 0.332675 0.209829 0.090701 -0.460487 0.026801 0.195922 0.064562 -0.101441 -0.228411 -0.120517 0.120006 -0.121896 -0.042718 0.190095 0.049145 0.384677 0.014756 -0.128681 -0.040744 -0.194078 -0.002533 0.414529 0.283332 0.108104 0.246202 0.236957 0.086269 -0.273216 -0.006210 0.047393 0.065288 0.038206 0.082783 -0.146059 -0.266312 -0.167449 0.083824 -0.278445 -0.050842 0.277681 -0.135429 -0.201572 -0.273171
4 -0.021797 -0.178587 -0.105929 0.005811 0.096258 0.072978 0.121092 0.230901 0.207506 -0.230919 0.320244 0.308237 -0.092695 -0.217367 0.126154 -0.258718 -0.048620 -0.113009 -0.038491 -0.047897 0.078699 0.080415 0.021249 0.022561 0.001109 -0.123438 -0.130653 -0.179160 0.080591 -0.027000 -0.097327 -0.150829 -0.197489 0.120412 -0.085539 -0.172749 0.378896 0.053576 -0.049687 -0.035276 -0.144478 -0.196241 0.419595 0.394553 -0.172939 0.161495 0.129002 -0.410859 0.003469 -0.164529 -0.042114 0.038466 0.060599 0.135176 -0.263180 -0.135140 0.044734 -0.045111 -0.117287 0.011974 0.212983 -0.103224 -0.110205 0.225347
13 -0.257061 -0.077516 0.211038 -0.357866 0.119899 0.116857 -0.035888 -0.239720 0.007458 0.010753 -0.058811 0.308152 -0.101280 0.207325 0.095738 -0.010257 -0.369170 -0.057700 -0.348396 -0.492016 0.338492 0.378953 0.217127 0.104172 -0.508052 0.056955 0.265633 0.107729 -0.148627 -0.263566 -0.150136 0.183233 -0.124311 -0.088202 0.235203 0.062886 0.400311 -0.009450 -0.162114 -0.091484 -0.236178 0.051576 0.428284 0.286980 0.165379 0.265700 0.263466 0.174450 -0.309020 0.064343 0.049924 0.094362 0.054718 0.118256 -0.127424 -0.281358 -0.221304 0.081513 -0.263062 -0.113614 0.324828 -0.171888 -0.216200 -0.397857
1 0.014387 -0.248933 -0.133795 0.023477 0.072402 0.064727 0.165815 0.280227 0.246886 -0.230786 0.346339 0.329924 -0.094153 -0.286182 0.164943 -0.304298 -0.021171 -0.151301 0.021677 -0.032004 0.071066 0.048057 -0.008972 0.015526 0.075909 -0.160659 -0.148999 -0.210580 0.091695 -0.002044 -0.098639 -0.165141 -0.236433 0.150743 -0.130173 -0.215830 0.355030 0.045173 -0.033588 -0.091653 -0.171675 -0.206847 0.442998 0.413912 -0.240390 0.173960 0.114060 -0.487573 0.078393 -0.142991 -0.101538 0.082409 0.067193 0.165519 -0.311934 -0.126898 0.070319 -0.053228 -0.086705 0.012958 0.233083 -0.125159 -0.112095 0.294382
0 -0.086135 -0.199533 -0.065120 -0.072161 0.096625 0.038116 0.056709 0.203148 0.172765 -0.222970 0.313631 0.295972 -0.058113 -0.188709 0.092979 -0.265508 -0.048501 -0.066696 -0.043178 -0.080691 0.088088 0.095112 0.056721 0.046053 -0.116230 -0.108212 -0.088970 -0.138695 0.076308 -0.070825 -0.073454 -0.105776 -0.193394 0.115533 -0.044005 -0.155536 0.374096 0.076887 0.007293 -0.011659 -0.114397 -0.219890 0.389010 0.382017 -0.174438 0.160602 0.103778 -0.364676 -0.050062 -0.170542 -0.054207 0.020514 0.035092 0.095247 -0.282447 -0.163065 0.023337 0.048366 -0.209967 0.069807 0.176453 -0.115155 -0.129339 0.212669
9 -0.148739 -0.112452 0.031397 -0.150214 0.121440 0.093466 0.029972 0.030720 0.111702 -0.148032 0.150814 0.275369 -0.089955 -0.018441 0.068355 -0.142817 -0.158945 -0.034986 -0.184177 -0.207288 0.158095 0.205171 0.132705 0.068601 -0.251778 -0.023557 0.024909 -0.056592 -0.016881 -0.124892 -0.102056 -0.006221 -0.126859 0.033852 0.065468 -0.062437 0.375669 0.023627 -0.081354 -0.007388 -0.157604 -0.111474 0.373991 0.329872 -0.016450 0.181629 0.165168 -0.133272 -0.143517 -0.102988 0.013872 0.027134 0.038120 0.098958 -0.171941 -0.190013 -0.076483 0.028610 -0.228152 0.000297 0.197407 -0.106094 -0.151731 -0.032927
7 0.312528 -0.314526 -0.277069 0.239651 -0.077401 0.243422 0.430089 0.359356 0.394823 -0.157760 0.295991 0.375667 -0.223254 -0.432374 0.439365 -0.296635 -0.011284 -0.337355 0.075369 0.006036 0.043717 -0.080628 -0.137280 -0.086691 0.496808 -0.256214 -0.251061 -0.390721 -0.018634 0.141811 -0.097231 -0.212562 -0.267790 0.103404 -0.264169 -0.270365 0.345583 -0.067428 -0.218041 -0.295103 -0.380821 -0.028263 0.524829 0.441924 -0.291699 0.316475 0.207562 -0.637079 0.342658 0.028292 -0.210070 0.246750 0.157373 0.336629 -0.306927 -0.038270 0.083727 -0.375165 0.248538 -0.185863 0.392860 -0.139754 -0.033091 0.373070
8 0.287306 -0.331535 -0.268392 0.239185 -0.059620 0.236850 0.425067 0.373695 0.395269 -0.174660 0.327059 0.388503 -0.231121 -0.428692 0.429280 -0.317119 -0.009686 -0.325919 0.087716 0.012377 0.043132 -0.071335 -0.130791 -0.093775 0.467992 -0.248851 -0.249918 -0.388762 -0.003377 0.142086 -0.109097 -0.233412 -0.263729 0.127880 -0.262559 -0.277802 0.382571 -0.047214 -0.201946 -0.267788 -0.366624 -0.055279 0.537501 0.462228 -0.300426 0.324692 0.204736 -0.660726 0.324267 0.002832 -0.205708 0.229281 0.163485 0.325456 -0.322716 -0.056595 0.081650 -0.363365 0.209187 -0.180086 0.386567 -0.144014 -0.045540 0.392591
16 -0.272292 -0.041562 0.293775 -0.410168 0.131029 0.226541 0.033946 -0.380643 -0.032953 0.074700 -0.199332 0.331340 -0.176684 0.336935 0.134766 0.061597 -0.445423 -0.104970 -0.490139 -0.619592 0.394784 0.476647 0.266614 0.139581 -0.542248 0.114209 0.368430 0.137030 -0.252994 -0.301568 -0.215538 0.247753 -0.093707 -0.121840 0.302452 0.100289 0.421446 -0.118094 -0.271405 -0.200309 -0.370496 0.163614 0.465058 0.292350 0.297394 0.309210 0.336531 0.322339 -0.332187 0.180604 0.101650 0.123456 0.072794 0.174539 -0.050259 -0.289317 -0.317803 0.036218 -0.257330 -0.214446 0.387372 -0.211690 -0.241276 -0.626536
