26 64
20 -0.319517 -0.225236 0.005516 -0.104242 -0.346309 -0.386799 -0.026704 -0.206685 -0.076208 -0.021257 0.029495 0.014575 0.224819 -0.076491 0.007517 -0.001793 -0.542271 0.084791 0.350499 -0.271684 0.613999 0.000191 0.193767 0.287957 -0.220307 0.062373 0.362409 -0.233406 -0.084015 -0.162884 -0.161574 -0.161377 -0.181047 -0.123568 0.025529 0.081049 0.359416 0.109494 -0.292553 -0.210829 -0.135088 0.016890 -0.123527 0.028236 0.154473 0.603891 0.343920 0.356975 0.106427 -0.362096 -0.236256 0.326750 0.243726 -0.588817 -0.146469 -0.209183 0.201517 -0.408603 -0.364498 0.128479 0.396106 0.196737 0.209002 0.475200
12 -0.208559 -0.286826 -0.016420 -0.178620 -0.246647 -0.177323 0.003946 -0.109412 0.053748 -0.080005 0.058008 0.142139 0.088101 -0.101389 0.080200 -0.075654 -0.364363 0.069488 0.212792 -0.220189 0.442481 0.021026 0.169029 0.229351 -0.261802 -0.007706 0.213075 -0.190809 -0.117387 -0.191936 -0.073819 -0.070158 -0.184907 -0.078441 -0.013615 0.023456 0.331074 0.062301 -0.152721 -0.153706 -0.169176 -0.044359 0.060946 0.160282 0.057150 0.521310 0.290897 0.111173 0.073676 -0.257009 -0.247292 0.266318 0.183683 -0.339398 -0.232662 -0.174868 0.097358 -0.226287 -0.345834 0.168323 0.278082 0.051135 0.069271 0.406028
13 -0.040697 -0.250744 0.034799 -0.140552 -0.160561 -0.022339 0.039622 -0.079272 0.159956 -0.037083 -0.070606 0.105350 -0.001863 -0.113981 0.150230 -0.136138 -0.269052 -0.036283 0.113072 -0.166092 0.349073 0.017709 0.103991 0.195107 -0.128678 0.018625 0.112808 -0.102408 -0.180134 -0.113716 -0.084744 0.047432 -0.136843 -0.153537 -0.013423 -0.003335 0.250666 0.030413 -0.101241 -0.111208 -0.186573 0.052997 0.120215 0.174625 0.079100 0.453885 0.231917 0.056128 0.050512 -0.068033 -0.223984 0.238363 0.126496 -0.015942 -0.190676 -0.105905 -0.018614 -0.222267 -0.166006 0.055463 0.205700 -0.043212 0.068602 0.220075
8 -0.037787 -0.349124 -0.046258 -0.210959 -0.155122 0.073661 0.133934 -0.012745 0.133262 -0.183139 0.009625 0.130508 -0.093870 -0.207280 0.272099 -0.260493 -0.149272 0.005244 0.053681 -0.217128 0.241721 0.067840 0.076675 0.149812 -0.215247 -0.109701 0.031118 -0.129398 -0.169193 -0.197802 -0.015248 0.015328 -0.203827 -0.067374 -0.033782 -0.018534 0.327506 -0.020367 -0.025019 -0.121354 -0.214976 -0.071250 0.214932 0.308813 -0.023844 0.450315 0.217644 -0.168266 0.043433 -0.089273 -0.281910 0.234487 0.150514 0.061630 -0.370612 -0.155133 -0.015827 -0.169054 -0.256338 0.212856 0.143725 -0.042492 -0.035464 0.319575
23 -0.037196 0.328504 -0.216752 0.429069 -0.094093 -0.022495 -0.046538 0.312559 0.278840 -0.292986 0.331835 -0.269853 0.209374 -0.648957 -0.331332 -0.463929 0.109228 -0.115946 0.316080 0.292760 0.027440 -0.024201 -0.207008 0.793665 0.487230 -0.254427 -0.331867 -0.524164 -0.255549 0.630557 -0.329046 -0.129963 -0.595249 -0.130942 -0.448338 -0.323764 0.488930 -0.038315 -0.421843 -0.295830 -0.091483 0.202527 0.153097 0.304847 0.046414 0.132663 -0.076786 0.377859 -0.051160 -0.297409 0.305127 0.139799 0.002865 0.181464 -0.210486 -0.261802 0.354730 -0.278802 -0.213408 -0.014350 -0.121109 0.133362 0.417841 0.274040
14 0.107037 -0.340928 0.213264 -0.217070 -0.139398 -0.022155 0.020301 -0.151233 0.376823 0.181233 -0.202446 0.403062 -0.018127 -0.002854 0.247924 -0.157898 -0.458013 -0.442975 0.001348 -0.056949 0.574233 -0.082387 0.148281 0.199999 0.102245 0.212619 0.049180 0.034316 -0.150265 -0.101519 -0.094961 0.183534 -0.033457 -0.277852 0.012802 -0.139896 0.110610 0.210344 0.034467 0.037012 -0.248942 0.141090 0.120558 0.174641 0.109230 0.516238 0.287914 0.004005 -0.011369 0.173932 -0.248741 0.143224 0.089902 0.096362 -0.037171 -0.033273 -0.264527 -0.141787 0.174212 -0.247736 0.360521 -0.335648 0.290230 0.063525
9 -0.075522 -0.402916 -0.100558 -0.290166 -0.160808 0.108729 0.083261 0.107494 0.268770 -0.261394 0.114068 0.312631 -0.078827 -0.221088 0.175171 -0.259851 -0.104324 0.119356 0.005565 -0.167139 0.165576 0.042697 0.212338 0.184512 -0.378286 -0.125474 -0.022379 -0.222269 -0.195742 -0.265753 0.059264 0.055372 -0.247414 -0.048201 -0.083769 -0.060131 0.422258 -0.068758 0.002733 -0.122663 -0.267803 -0.193520 0.353518 0.438827 -0.107048 0.423396 0.251759 -0.244587 0.039350 -0.189845 -0.309289 0.204624 0.103126 0.003501 -0.409868 -0.146510 -0.015989 0.046127 -0.463509 0.330697 0.080666 -0.134904 -0.156420 0.408004
15 0.111150 -0.185615 0.164254 -0.096148 -0.105423 -0.032198 0.038563 -0.086262 0.360359 0.139558 -0.073016 0.323714 0.032702 -0.096723 0.177874 -0.249041 -0.371804 -0.564023 -0.027830 0.051117 0.472202 -0.096650 0.035496 0.261217 0.297241 0.134975 -0.105584 -0.015637 -0.064437 0.044782 -0.141936 0.140215 -0.096172 -0.255012 -0.070727 -0.235204 0.095447 0.244498 0.047846 0.050861 -0.184818 0.140961 0.076554 0.168812 0.071390 0.357704 0.151735 0.000767 -0.083665 0.162925 -0.094174 0.057844 0.048618 0.149200 -0.034006 -0.084753 -0.221268 -0.131160 0.295759 -0.288116 0.306723 -0.285836 0.384007 0.013968
7 0.043914 -0.169575 -0.075189 -0.089515 -0.101688 0.053276 0.142833 0.037954 0.168911 -0.157665 0.122839 0.141093 -0.036628 -0.306588 0.242004 -0.366205 -0.104886 -0.299331 -0.044185 -0.052932 0.205044 0.014461 -0.068367 0.244903 0.141173 -0.159565 -0.174567 -0.148148 -0.042582 -0.014846 -0.062304 -0.000651 -0.272317 -0.075028 -0.112216 -0.196685 0.246834 0.088916 0.010557 -0.069071 -0.153328 -0.045630 0.161406 0.306465 -0.070151 0.276379 0.095083 -0.202316 -0.065041 -0.005082 -0.096796 0.099127 0.085567 0.151380 -0.306516 -0.181496 -0.031761 -0.136526 0.044971 0.045316 0.154606 -0.089634 0.170039 0.224561
6 0.080505 -0.192387 0.009496 -0.076043 -0.067222 0.016421 0.154922 0.005222 0.235308 -0.079844 0.109541 0.239294 -0.057297 -0.259732 0.282083 -0.384294 -0.181642 -0.512020 -0.061355 -0.020384 0.294696 -0.013528 -0.089170 0.227046 0.270856 -0.106759 -0.188393 -0.092202 0.007894 0.018368 -0.091513 -0.006029 -0.231195 -0.108512 -0.098037 -0.258570 0.201678 0.211674 0.045585 -0.017485 -0.144880 -0.018048 0.169183 0.288072 -0.084239 0.274438 0.130320 -0.237562 -0.084905 0.098682 -0.075231 0.075539 0.063528 0.180422 -0.221993 -0.177188 -0.100807 -0.119618 0.219423 -0.114154 0.230486 -0.178945 0.270927 0.162159
3 0.020559 0.182375 -0.143716 0.291579 -0.071027 0.022591 0.012512 0.250436 0.303319 -0.251741 0.255703 -0.131621 0.109836 -0.559718 -0.163132 -0.486726 0.075083 -0.233417 0.187176 0.217501 0.074299 -0.015330 -0.154099 0.672975 0.444582 -0.221553 -0.320239 -0.394776 -0.203797 0.479564 -0.263406 -0.073172 -0.520614 -0.134954 -0.373368 -0.310962 0.414412 0.004395 -0.282579 -0.223876 -0.119297 0.152586 0.195056 0.335233 0.008222 0.171031 -0.014925 0.196000 -0.060359 -0.164103 0.209364 0.118465 -0.005135 0.274444 -0.236367 -0.213529 0.229174 -0.209244 -0.113475 -0.009617 -0.074768 0.025018 0.358824 0.229567
2 0.064713 -0.065815 -0.154852 0.022040 -0.060006 0.124226 0.116793 0.236507 0.274032 -0.295163 0.260961 0.110790 -0.009355 -0.477061 0.074876 -0.506151 0.080740 -0.241004 -0.012264 0.097807 0.040635 0.006789 -0.090391 0.415910 0.196553 -0.259830 -0.340929 -0.277870 -0.094305 0.168253 -0.079347 -0.030371 -0.425903 -0.035960 -0.283305 -0.286129 0.368241 0.017236 -0.028409 -0.127137 -0.149582 -0.054308 0.290900 0.430496 -0.135888 0.168421 0.011823 -0.203193 -0.077336 -0.095529 0.024619 0.048819 0.028786 0.291915 -0.385531 -0.207134 0.069424 -0.016123 -0.105825 0.126585 -0.030974 -0.091410 0.163326 0.247571
11 -0.237584 -0.362951 -0.052993 -0.225943 -0.236639 -0.109111 0.018338 -0.042808 0.069924 -0.203477 0.061370 0.120547 0.034565 -0.128508 0.105375 -0.117255 -0.281082 0.222210 0.211738 -0.284647 0.367163 0.047986 0.217156 0.222886 -0.426252 -0.073611 0.209489 -0.223049 -0.186106 -0.281115 -0.026899 -0.067504 -0.197675 -0.066380 -0.016886 0.082750 0.409570 -0.024773 -0.144774 -0.191271 -0.197422 -0.102302 0.162478 0.236619 0.026568 0.547841 0.318777 0.047613 0.109406 -0.305725 -0.307607 0.313412 0.183558 -0.295956 -0.334934 -0.184517 0.127309 -0.177254 -0.535700 0.332866 0.202096 0.067353 -0.052890 0.481352
19 0.243281 -0.404738 0.293691 -0.283761 -0.139364 0.095831 -0.069393 -0.058137 0.706990 0.258980 -0.289482 0.647275 -0.007434 0.036123 0.147090 -0.159569 -0.494787 -0.482263 -0.052133 0.111922 0.589301 -0.198489 0.301550 0.287044 0.076513 0.363345 -0.048112 0.020256 -0.284843 -0.087600 -0.072449 0.385966 0.007089 -0.420493 -0.065905 -0.213723 0.109213 0.186331 0.112988 0.093987 -0.348457 0.194888 0.259761 0.266897 0.144564 0.557906 0.315730 0.006795 -0.024938 0.238317 -0.293125 0.090248 0.007190 0.242193 0.038666 0.076275 -0.420475 0.055417 0.150419 -0.323939 0.308403 -0.588819 0.292668 -0.011742
10 -0.166512 -0.339509 -0.112798 -0.208077 -0.195423 0.030063 0.022364 0.044463 0.177270 -0.253977 0.081043 0.137486 -0.010402 -0.175901 0.058630 -0.135599 -0.144529 0.311844 0.180434 -0.203985 0.252381 0.052011 0.207273 0.272754 -0.445355 -0.111554 0.135247 -0.269511 -0.267086 -0.232790 -0.022241 -0.025889 -0.232261 -0.035078 -0.100774 0.045392 0.439158 -0.131620 -0.150677 -0.225161 -0.240244 -0.097782 0.265612 0.324927 0.019359 0.519795 0.277697 0.006647 0.140306 -0.316188 -0.292080 0.306720 0.176676 -0.155060 -0.384732 -0.140264 0.131447 -0.132704 -0.610615 0.372255 0.096881 0.019101 -0.148418 0.453217
1 0.003127 -0.303592 -0.117928 -0.193633 -0.093246 0.205364 0.084304 0.216588 0.316422 -0.316751 0.129829 0.210954 -0.089912 -0.317187 0.111039 -0.355328 0.092146 0.094071 -0.002036 -0.064886 0.028212 0.030913 0.125862 0.281006 -0.246948 -0.199642 -0.150951 -0.229761 -0.234304 -0.116790 0.041176 0.065210 -0.304351 -0.029530 -0.196122 -0.113703 0.388523 -0.135224 0.015942 -0.171619 -0.256044 -0.139983 0.409708 0.473777 -0.123670 0.303701 0.140457 -0.245154 0.051369 -0.133364 -0.210697 0.162368 0.047097 0.229773 -0.450913 -0.119387 0.020842 0.102810 -0.444574 0.349507 -0.065115 -0.143003 -0.139420 0.314613
18 0.237275 -0.366182 0.287087 -0.255086 -0.147458 0.030698 -0.090171 -0.099163 0.698405 0.332130 -0.299104 0.649663 0.039829 0.053501 0.147571 -0.139664 -0.583463 -0.532792 -0.039615 0.134080 0.686228 -0.208295 0.285983 0.300787 0.163920 0.411046 -0.012703 0.024442 -0.250697 -0.055351 -0.122406 0.376529 0.023132 -0.423211 -0.044644 -0.237332 0.095459 0.230854 0.079792 0.121401 -0.335238 0.249782 0.181727 0.214772 0.179871 0.593772 0.308880 0.079479 -0.033289 0.229209 -0.270850 0.083041 0.059383 0.185859 0.083047 0.075567 -0.415495 -0.045485 0.222092 -0.421105 0.392360 -0.592434 0.367547 -0.022593
0 -0.026104 -0.249682 -0.185755 -0.160432 -0.105148 0.165540 0.129622 0.221276 0.229144 -0.372368 0.272387 0.185835 -0.068419 -0.406493 0.149180 -0.431442 0.105676 -0.010755 -0.032173 -0.051823 0.001373 0.038479 0.022550 0.295535 -0.147726 -0.290198 -0.225881 -0.284056 -0.133198 -0.082280 0.033806 -0.017025 -0.374463 0.021845 -0.203448 -0.190545 0.428578 -0.055892 0.026942 -0.157022 -0.211317 -0.212578 0.356397 0.497714 -0.185154 0.253947 0.095270 -0.330474 -0.026377 -0.168902 -0.148323 0.112265 0.055477 0.152645 -0.494463 -0.210594 0.048780 0.076831 -0.362253 0.341103 -0.032153 -0.089133 -0.061892 0.381646
16 0.181747 -0.248700 0.268104 -0.123986 -0.139370 -0.065878 0.015797 -0.109495 0.551487 0.268389 -0.171258 0.522128 0.030677 -0.022253 0.199963 -0.244233 -0.507734 -0.757034 -0.059987 0.098184 0.625964 -0.169323 0.144496 0.309238 0.395574 0.263022 -0.087982 0.013389 -0.110695 0.047215 -0.159182 0.223510 -0.071714 -0.378248 -0.075014 -0.294459 0.097166 0.309466 0.040712 0.065775 -0.258794 0.216153 0.121586 0.200287 0.100397 0.443732 0.272418 0.063571 -0.075868 0.284999 -0.124790 0.066612 0.029758 0.184902 0.078365 -0.015867 -0.316756 -0.069774 0.393085 -0.453009 0.390026 -0.476963 0.482593 -0.036747
5 0.062494 -0.061380 -0.075470 0.027211 -0.025066 0.007018 0.149070 0.078990 0.210192 -0.173066 0.223306 0.143414 -0.024041 -0.360797 0.191850 -0.463346 -0.074008 -0.506729 -0.050451 0.062938 0.201552 0.008563 -0.176668 0.334423 0.377082 -0.202997 -0.293395 -0.157869 0.038618 0.130898 -0.134551 -0.067625 -0.333325 -0.057092 -0.180213 -0.311123 0.231831 0.185170 0.011749 -0.035896 -0.080909 -0.025569 0.161362 0.308808 -0.106082 0.160823 0.039091 -0.209641 -0.124563 0.025054 0.053396 0.035078 0.057997 0.209185 -0.261263 -0.214709 0.006381 -0.121310 0.206354 -0.079245 0.139586 -0.118623 0.311978 0.180038
4 0.043487 0.077501 -0.104706 0.153595 -0.033960 -0.014982 0.097186 0.164285 0.239801 -0.212689 0.290699 0.047654 0.048692 -0.469366 0.048646 -0.510178 -0.007920 -0.494461 0.028658 0.156312 0.150586 -0.011878 -0.208090 0.477012 0.483143 -0.234406 -0.359466 -0.248054 0.003350 0.298680 -0.193694 -0.099280 -0.432697 -0.080687 -0.285394 -0.359108 0.297572 0.165750 -0.080882 -0.091543 -0.074062 0.021666 0.172491 0.332064 -0.084385 0.111777 -0.008192 -0.083779 -0.137178 -0.039629 0.166247 0.026317 0.020321 0.239791 -0.257492 -0.236098 0.098746 -0.134305 0.153013 -0.081396 0.072794 -0.067414 0.383819 0.191404
17 0.195136 -0.423541 0.333337 -0.292147 -0.202535 -0.044145 -0.057057 -0.119036 0.711425 0.347549 -0.260873 0.752520 0.055905 0.093252 0.161802 -0.128481 -0.625298 -0.647678 -0.061673 0.109721 0.743821 -0.242190 0.340285 0.289635 0.162833 0.414940 -0.007455 0.032362 -0.191108 -0.099627 -0.087736 0.342883 0.024962 -0.429663 -0.060177 -0.271754 0.105695 0.293107 0.109851 0.113545 -0.348155 0.175679 0.174430 0.247804 0.131615 0.590074 0.371639 0.064182 -0.027134 0.254525 -0.295360 0.074182 0.043442 0.088279 0.097140 0.055610 -0.437745 0.055704 0.246791 -0.417175 0.433948 -0.619600 0.407370 0.000121
21 -0.401184 -0.243804 0.041098 -0.148959 -0.392896 -0.486150 -0.057837 -0.280400 -0.110761 0.028607 0.051417 0.064845 0.267761 -0.034018 -0.018235 0.061352 -0.637912 0.070338 0.413109 -0.298504 0.728247 -0.004140 0.226019 0.299352 -0.271436 0.088659 0.438581 -0.224635 -0.041075 -0.198958 -0.153685 -0.208763 -0.172157 -0.104616 0.024676 0.083556 0.347010 0.180035 -0.290269 -0.203785 -0.121914 0.007947 -0.176259 -0.015474 0.152916 0.657094 0.389103 0.417307 0.130962 -0.406794 -0.239478 0.350272 0.270176 -0.750295 -0.122749 -0.224471 0.224920 -0.413062 -0.392237 0.131537 0.453591 0.219872 0.243158 0.526873
22 -0.379872 -0.317803 -0.000738 -0.214712 -0.372749 -0.434677 -0.015191 -0.250822 -0.117650 -0.043515 0.104269 0.132055 0.223094 -0.056632 0.060439 0.008446 -0.592202 0.063211 0.343896 -0.319428 0.679652 0.013603 0.224700 0.252995 -0.338500 0.031653 0.383900 -0.229681 -0.003439 -0.272746 -0.105691 -0.211847 -0.196601 -0.056998 0.027781 0.060687 0.360624 0.165280 -0.222618 -0.197657 -0.120146 -0.095498 -0.116064 0.067983 0.093915 0.646896 0.372817 0.259695 0.111711 -0.404510 -0.286806 0.319635 0.262049 -0.718201 -0.205780 -0.247465 0.202234 -0.331888 -0.396133 0.193970 0.451154 0.192564 0.175082 0.562518
24 0.051843 0.357311 -0.130678 0.490702 -0.073280 0.004159 -0.059957 0.317232 0.401950 -0.228221 0.260126 -0.267532 0.209314 -0.667227 -0.345950 -0.535522 0.102287 -0.259375 0.319244 0.355633 0.079760 -0.046614 -0.196183 0.888469 0.637767 -0.197417 -0.377302 -0.499908 -0.315737 0.752985 -0.382670 -0.071248 -0.617703 -0.225836 -0.493482 -0.360981 0.465304 -0.021206 -0.437849 -0.311134 -0.123246 0.333823 0.183444 0.309055 0.087351 0.160995 -0.075163 0.454650 -0.034709 -0.202030 0.347698 0.148775 -0.049564 0.381402 -0.153543 -0.206320 0.332359 -0.292855 -0.115231 -0.114165 -0.144385 0.067069 0.513845 0.165114
25 0.019807 0.303048 -0.171912 0.429449 -0.081524 0.025694 -0.032291 0.321653 0.368487 -0.284870 0.285172 -0.254288 0.170555 -0.659030 -0.302314 -0.545832 0.147849 -0.207031 0.288647 0.314343 0.034633 -0.026235 -0.180109 0.830295 0.547180 -0.256743 -0.372638 -0.496367 -0.297570 0.676091 -0.325333 -0.087713 -0.611969 -0.183330 -0.484584 -0.336659 0.469889 -0.033263 -0.404309 -0.310408 -0.132375 0.255766 0.209150 0.334924 0.043573 0.153347 -0.061551 0.360625 -0.028198 -0.218288 0.296552 0.153198 -0.033768 0.359903 -0.226992 -0.229099 0.334377 -0.259458 -0.173019 -0.018192 -0.164353 0.088368 0.432441 0.205693
