22 64
16 -0.310756 -0.237204 0.176192 -0.156615 -0.085278 -0.211195 -0.145534 -0.021268 0.152662 0.390118 -0.175112 0.565362 -0.089435 0.436956 0.286156 -0.097502 -0.442734 -0.237873 -0.311644 -0.440509 0.364419 0.217714 0.570625 -0.155429 0.005979 0.191570 0.283229 0.231959 -0.123512 -0.153474 -0.057491 0.369615 -0.138216 -0.158818 0.294205 0.145412 0.373068 -0.059732 -0.198237 0.092123 -0.270538 0.294631 0.317855 0.181001 0.030176 0.269420 0.300300 0.448482 -0.373034 0.371483 -0.004985 0.007310 0.176314 0.128550 -0.102827 -0.181471 -0.190906 0.210517 -0.191111 -0.338398 0.413450 -0.537383 -0.085400 -0.327734
6 0.030754 -0.332992 0.247066 -0.252143 -0.002315 0.248211 0.202180 -0.117412 0.012722 0.006692 -0.079141 0.051819 -0.067548 -0.377024 0.194417 -0.151792 -0.017537 -0.319826 0.016919 -0.218151 0.233123 0.097000 -0.202221 0.216560 0.064904 0.016371 0.014467 0.017038 -0.112835 0.143487 -0.032614 0.074976 -0.092350 0.060836 0.066166 -0.313907 -0.045347 0.153876 0.066443 -0.140170 -0.393979 -0.120174 0.122932 0.278423 -0.095304 0.303192 0.054493 -0.308621 0.087222 0.202837 -0.304947 0.156687 -0.143999 0.233059 -0.164074 -0.239737 -0.391795 -0.117023 0.127237 -0.054183 0.226262 -0.018533 0.203753 -0.003188
7 -0.055823 -0.343465 0.104748 -0.224156 0.013103 0.200054 0.091980 0.033775 0.158477 -0.053374 -0.001090 0.127475 -0.060984 -0.280280 0.196298 -0.151793 0.069799 -0.128139 -0.036214 -0.219715 0.108317 0.132825 -0.035339 0.108943 -0.069304 -0.020663 -0.037063 -0.014557 -0.159891 0.044310 -0.006655 0.188082 -0.142897 0.012475 0.067249 -0.245074 0.076345 -0.006303 0.023212 -0.095744 -0.354850 -0.193095 0.236532 0.404921 -0.111002 0.242791 0.003989 -0.205937 0.026901 0.132967 -0.329469 0.171101 -0.113591 0.277265 -0.246779 -0.221680 -0.288294 0.029212 -0.042657 0.017058 0.191063 -0.110356 -0.010269 0.032883
3 -0.112265 -0.243252 0.333189 -0.415673 -0.208015 -0.090438 0.112037 -0.002446 0.033240 -0.012053 -0.164857 0.140906 0.113828 -0.436791 -0.132483 -0.283040 -0.053897 -0.321415 0.097576 -0.003843 0.164039 -0.116180 0.104884 0.367579 0.171299 0.251374 0.085183 0.055148 0.067978 -0.119703 -0.068945 0.076459 -0.151868 -0.000942 -0.045023 -0.373563 -0.067137 0.127072 0.289187 -0.140505 -0.502161 -0.321720 -0.031957 0.261743 -0.078709 0.056993 0.201503 -0.372909 0.037711 0.057907 -0.230097 0.008844 -0.198914 -0.058028 -0.119754 0.088324 -0.319072 0.118772 -0.234280 0.261264 0.045147 -0.245082 0.206388 0.370813
19 -0.134195 -0.223851 0.552330 -0.542717 -0.335282 -0.145805 0.135719 -0.137348 -0.107488 0.057781 -0.345390 0.104029 0.146358 -0.501535 -0.268022 -0.244093 -0.183144 -0.402699 0.214660 0.015128 0.305818 -0.204417 0.117068 0.512177 0.232950 0.428674 0.222995 0.153738 0.099638 -0.163713 -0.088048 0.000839 -0.097675 -0.011216 -0.068148 -0.384343 -0.147266 0.249715 0.379097 -0.132592 -0.633361 -0.316897 -0.162946 0.160986 0.023762 0.114997 0.390290 -0.425977 0.052676 0.054675 -0.219432 -0.031856 -0.219858 -0.237176 -0.051212 0.188957 -0.436741 0.024676 -0.304168 0.352317 0.026275 -0.230414 0.389118 0.488872
8 -0.138961 -0.344832 0.140387 -0.212494 0.017676 0.166885 0.042084 -0.000392 0.112636 -0.025229 -0.010004 0.137121 -0.097683 -0.149290 0.168846 -0.104279 0.030314 -0.052253 -0.007492 -0.241182 0.116218 0.163719 0.030425 0.059411 -0.144159 0.026695 0.029670 0.031151 -0.176575 0.012544 -0.017695 0.175172 -0.097425 0.025214 0.107659 -0.154351 0.122059 -0.003884 0.010164 -0.021921 -0.317344 -0.162071 0.222128 0.357361 -0.053880 0.269860 0.040161 -0.123226 -0.036289 0.107364 -0.288897 0.142222 -0.073687 0.195644 -0.226180 -0.229112 -0.278715 0.029694 -0.137540 0.014868 0.170666 -0.115003 -0.039215 0.027381
2 -0.086523 -0.325925 0.192451 -0.338164 -0.102711 0.079284 0.104152 0.072280 0.099442 -0.074276 -0.088019 0.073491 0.062934 -0.393847 -0.000958 -0.212713 0.098765 -0.102395 0.051681 -0.116731 0.041879 0.014856 0.050807 0.197449 -0.057070 0.119033 0.024761 0.004940 -0.070211 -0.050864 -0.036142 0.178836 -0.153202 0.016946 0.001246 -0.309178 0.008581 -0.037721 0.170878 -0.174856 -0.443870 -0.339591 0.110592 0.390365 -0.099387 0.107121 0.019830 -0.296321 0.066168 0.062969 -0.363180 0.107029 -0.182140 0.157757 -0.234695 -0.061895 -0.300953 0.133713 -0.220636 0.209093 0.077275 -0.151684 -0.011784 0.194068
12 -0.321431 -0.315310 0.153743 -0.128064 0.062234 0.006111 -0.156574 -0.067499 0.123389 0.198336 -0.018407 0.432420 -0.216636 0.314432 0.311412 -0.006742 -0.289338 -0.087837 -0.159044 -0.455574 0.331387 0.314964 0.313494 -0.123274 -0.177298 0.040111 0.178444 0.174458 -0.217251 -0.043033 0.005047 0.245112 -0.101038 -0.057783 0.287048 0.134706 0.335146 0.053765 -0.205693 0.195553 -0.195510 0.171806 0.399184 0.243559 0.009842 0.409793 0.253769 0.266616 -0.307949 0.232807 -0.080109 0.102773 0.102616 0.132835 -0.170511 -0.344555 -0.207160 0.070892 -0.162990 -0.250875 0.361075 -0.289972 -0.069275 -0.202631
9 -0.270895 -0.388770 0.012576 -0.202531 0.063681 0.099980 -0.105924 0.174862 0.274902 -0.093662 0.072871 0.251271 -0.105154 -0.057010 0.176524 -0.101244 0.096247 0.151410 -0.052481 -0.311869 -0.005040 0.246267 0.229305 -0.073692 -0.332316 -0.025818 0.007028 0.006248 -0.244033 -0.084051 0.020465 0.312870 -0.186187 -0.042411 0.154152 -0.072007 0.279683 -0.145608 -0.080603 0.015241 -0.291487 -0.253784 0.434377 0.520733 -0.105395 0.212339 0.031291 -0.016011 -0.121783 0.057301 -0.337348 0.197219 -0.084177 0.259764 -0.312722 -0.263868 -0.179222 0.231342 -0.337554 0.062850 0.174586 -0.225708 -0.295074 0.055777
13 -0.148641 -0.294677 0.209348 -0.177540 0.023244 0.153574 0.005507 -0.111143 0.023788 0.106877 -0.079297 0.156095 -0.149365 -0.004772 0.240904 -0.011227 -0.123282 -0.104795 -0.058728 -0.378458 0.249247 0.218328 0.036431 0.009139 -0.157852 0.020639 0.132484 0.128304 -0.197771 0.054906 -0.002833 0.169366 -0.068129 -0.011872 0.182966 -0.031306 0.172559 0.083398 -0.092626 0.037381 -0.251372 0.034440 0.255592 0.251700 -0.002520 0.370131 0.148672 0.045297 -0.127609 0.220381 -0.199459 0.143929 -0.010572 0.187494 -0.181930 -0.312809 -0.306922 -0.036998 -0.051182 -0.131598 0.262328 -0.088235 0.010258 -0.147485
15 0.002711 -0.329205 0.288067 -0.242626 0.015477 0.289774 0.198540 -0.201512 -0.045631 0.068340 -0.108060 0.029337 -0.103047 -0.277417 0.246713 -0.096952 -0.076994 -0.312362 -0.023539 -0.308531 0.297002 0.155147 -0.207988 0.179349 0.012494 0.015108 0.056000 0.071768 -0.141296 0.165114 -0.038796 0.093255 -0.044279 0.061884 0.113511 -0.241301 -0.033680 0.165969 0.033397 -0.094739 -0.367476 -0.019870 0.113975 0.228836 -0.040485 0.381927 0.049021 -0.203992 0.040994 0.247239 -0.276361 0.157422 -0.101220 0.255491 -0.168612 -0.312243 -0.433461 -0.183548 0.162973 -0.109778 0.270933 0.032760 0.209441 -0.135469
14 -0.051056 -0.311025 0.268402 -0.178343 0.054336 0.274385 0.104798 -0.205643 -0.067663 0.119073 -0.102313 0.080087 -0.170433 -0.105031 0.292094 -0.003088 -0.117263 -0.222945 -0.047186 -0.397959 0.308744 0.232273 -0.138710 0.072283 -0.079538 -0.010970 0.112202 0.124325 -0.198777 0.174530 -0.003530 0.109218 -0.044940 0.047286 0.179798 -0.098603 0.060873 0.152305 -0.084622 -0.020426 -0.284632 0.076559 0.210278 0.208885 -0.008135 0.427138 0.109311 -0.046983 -0.051370 0.281720 -0.220287 0.157164 -0.049806 0.250205 -0.161137 -0.371109 -0.387693 -0.150831 0.127372 -0.193936 0.301755 0.019649 0.140815 -0.230675
11 -0.383095 -0.373133 0.108720 -0.148736 0.096239 0.048963 -0.204785 0.029810 0.202724 0.058662 0.040734 0.396626 -0.242162 0.251818 0.295082 -0.005406 -0.159663 0.075714 -0.111639 -0.481631 0.229152 0.342658 0.320821 -0.133478 -0.349156 -0.015827 0.133335 0.136071 -0.291891 -0.092520 0.034159 0.275018 -0.129727 -0.077614 0.278657 0.134697 0.417898 0.000005 -0.209868 0.206059 -0.198018 0.020198 0.511951 0.391751 -0.015728 0.410509 0.244170 0.223105 -0.307236 0.157693 -0.165263 0.169179 0.052945 0.160241 -0.257429 -0.384032 -0.190731 0.147471 -0.317649 -0.125363 0.302743 -0.272868 -0.193119 -0.085270
5 0.016071 -0.345964 0.241332 -0.303836 -0.009425 0.171128 0.220235 -0.111623 0.075981 -0.037766 -0.037356 0.140181 -0.042082 -0.437745 0.146533 -0.257475 -0.051997 -0.434250 0.024981 -0.111526 0.273734 0.056162 -0.188565 0.329702 0.177441 0.041950 -0.030532 -0.022270 -0.047424 0.087620 -0.059076 0.037739 -0.130729 0.073586 0.033622 -0.413398 -0.079622 0.210183 0.150547 -0.125677 -0.421069 -0.184415 0.074721 0.284493 -0.138304 0.255054 0.084717 -0.413703 0.096523 0.141806 -0.278007 0.131166 -0.149729 0.148820 -0.135742 -0.175974 -0.367679 -0.090740 0.116074 -0.013111 0.197876 -0.107832 0.294334 0.143749
10 -0.361235 -0.408550 0.041070 -0.172451 0.101188 0.110795 -0.187246 0.123528 0.259915 -0.054593 0.089655 0.329524 -0.207824 0.127249 0.240606 -0.012525 0.011226 0.204753 -0.071272 -0.429293 0.090360 0.324276 0.290289 -0.123985 -0.433398 -0.042290 0.080838 0.065593 -0.315642 -0.108998 0.033049 0.300412 -0.160205 -0.050779 0.222365 0.062116 0.404334 -0.106357 -0.179226 0.120110 -0.248430 -0.154676 0.540916 0.517921 -0.041404 0.354081 0.155617 0.113463 -0.224002 0.078039 -0.278425 0.208494 -0.009438 0.212045 -0.329702 -0.346960 -0.175102 0.198221 -0.402617 0.000230 0.241845 -0.241850 -0.317590 0.005785
0 -0.185689 -0.409133 0.094015 -0.341828 -0.047069 0.131035 0.021210 0.195934 0.223451 -0.198793 0.024864 0.076209 0.027756 -0.386964 0.021768 -0.203494 0.258367 0.106154 0.061462 -0.161465 -0.101289 0.079014 0.103540 0.119098 -0.264581 0.045481 -0.028718 -0.051006 -0.169452 -0.110268 -0.008939 0.269512 -0.186768 -0.001343 0.025594 -0.292334 0.116275 -0.146354 0.140799 -0.156048 -0.445864 -0.494582 0.253831 0.572034 -0.131507 0.111695 -0.047241 -0.296706 0.040212 -0.008931 -0.466923 0.181048 -0.222740 0.217606 -0.346096 -0.124433 -0.267993 0.243439 -0.393092 0.305941 0.047694 -0.169763 -0.219583 0.271724
4 0.012041 -0.310713 0.315789 -0.373108 -0.080873 0.128291 0.212675 -0.077089 0.033126 -0.084606 -0.086400 0.083081 0.027286 -0.569179 0.015492 -0.264169 -0.007999 -0.423370 0.112562 -0.050175 0.243537 -0.036115 -0.183287 0.411937 0.193676 0.112245 -0.014648 -0.004821 0.000525 0.038206 -0.058613 -0.002600 -0.140306 0.063956 -0.037027 -0.463492 -0.125581 0.227823 0.236609 -0.168447 -0.499147 -0.304750 0.039373 0.308213 -0.118303 0.191675 0.139225 -0.522489 0.134755 0.088747 -0.296667 0.102429 -0.222421 0.079880 -0.144684 -0.072264 -0.387267 -0.057939 0.021696 0.137325 0.141997 -0.098217 0.324639 0.290226
1 -0.291850 -0.418175 0.020609 -0.273879 0.019764 0.076060 -0.100723 0.268989 0.299702 -0.174123 0.056161 0.173127 -0.025866 -0.186855 0.074313 -0.149233 0.232867 0.237874 0.008854 -0.265567 -0.123478 0.185007 0.254842 -0.032682 -0.386162 0.004049 -0.004850 -0.008127 -0.224764 -0.146708 0.005814 0.354218 -0.215160 -0.039946 0.089414 -0.143982 0.239898 -0.237144 0.017733 -0.076352 -0.360040 -0.427417 0.416721 0.611556 -0.125944 0.112574 -0.035089 -0.099791 -0.059739 0.009653 -0.432450 0.209699 -0.162221 0.277355 -0.382674 -0.186963 -0.181052 0.337210 -0.477413 0.238356 0.091089 -0.238367 -0.388128 0.171106
18 -0.281805 -0.230811 0.201744 -0.149857 -0.083882 -0.235394 -0.117179 -0.076821 0.146240 0.465099 -0.189300 0.634069 -0.083995 0.464508 0.309632 -0.131610 -0.540631 -0.375204 -0.339657 -0.393443 0.476362 0.198192 0.566586 -0.116870 0.148898 0.234283 0.284839 0.239906 -0.074083 -0.116013 -0.074860 0.332591 -0.105533 -0.129795 0.302036 0.110006 0.321390 0.013717 -0.179006 0.129266 -0.283601 0.386827 0.244170 0.098817 0.027371 0.303206 0.315096 0.440599 -0.359920 0.395045 0.046326 -0.040924 0.220258 0.100767 -0.043058 -0.162732 -0.211536 0.136642 -0.094045 -0.425904 0.461693 -0.573071 0.044878 -0.358944
17 -0.299773 -0.268744 0.189119 -0.135805 -0.060741 -0.195421 -0.115575 -0.068397 0.168349 0.450416 -0.156553 0.646923 -0.118228 0.483892 0.353738 -0.110242 -0.516750 -0.356601 -0.357686 -0.450015 0.461102 0.243431 0.556833 -0.153316 0.095302 0.192519 0.269561 0.235664 -0.113538 -0.097496 -0.065056 0.358125 -0.120619 -0.133203 0.320436 0.120532 0.361403 -0.002411 -0.218324 0.132115 -0.280538 0.370725 0.309122 0.155580 0.015722 0.331093 0.305610 0.459942 -0.380586 0.417182 0.015676 -0.007904 0.213552 0.141834 -0.075872 -0.232473 -0.228017 0.157449 -0.082757 -0.451327 0.488038 -0.560770 0.003683 -0.399011
20 -0.150789 -0.226881 0.541413 -0.537893 -0.350499 -0.161185 0.141972 -0.124228 -0.115944 0.064299 -0.352983 0.091755 0.163490 -0.483504 -0.274894 -0.246040 -0.179093 -0.367578 0.204567 0.008348 0.298678 -0.204960 0.148087 0.495831 0.226172 0.447005 0.241837 0.155496 0.102554 -0.179159 -0.100414 0.010099 -0.087327 -0.002772 -0.060793 -0.369859 -0.128390 0.211997 0.375135 -0.138749 -0.646209 -0.318970 -0.186005 0.162164 0.034570 0.110609 0.378090 -0.400372 0.055521 0.038550 -0.231021 -0.039042 -0.193512 -0.243570 -0.065967 0.199918 -0.429242 0.014081 -0.344714 0.370335 0.027232 -0.230842 0.366355 0.483280
21 -0.123115 -0.237912 0.666196 -0.636725 -0.414251 -0.176977 0.207045 -0.207764 -0.153575 0.112594 -0.419214 0.124828 0.184364 -0.613870 -0.297552 -0.311962 -0.261710 -0.568120 0.238324 0.042667 0.424101 -0.263422 0.094829 0.641930 0.373904 0.513754 0.265233 0.181162 0.154372 -0.162183 -0.112990 -0.039682 -0.097651 0.010393 -0.093001 -0.489438 -0.205880 0.345862 0.466273 -0.158764 -0.758687 -0.311669 -0.261370 0.132112 0.017430 0.150756 0.464529 -0.517925 0.088950 0.083146 -0.221260 -0.056996 -0.224111 -0.296162 -0.032942 0.235487 -0.528439 -0.043674 -0.287424 0.376184 0.048806 -0.264964 0.550007 0.558387
