16 64
12 -0.300268 -0.402132 0.079381 -0.581218 -0.087324 -0.018733 -0.241914 -0.327444 0.184148 0.282413 0.097974 0.470705 -0.048030 -0.212970 0.152080 0.114410 -0.394297 0.078517 0.016801 -0.487040 0.396023 0.533280 0.070749 -0.064017 -0.587903 0.041614 0.313803 0.189315 -0.197008 0.013164 0.066279 0.478472 -0.485650 -0.067320 0.330515 -0.151244 0.287348 0.332967 -0.130843 0.245282 -0.295937 -0.220572 0.413984 0.475698 -0.149760 0.542165 0.268024 -0.068986 -0.404967 -0.023768 -0.512294 0.395042 0.000931 0.066854 -0.379618 -0.504176 -0.376175 -0.036427 -0.074417 -0.162820 0.442966 -0.129941 -0.319530 0.037019
3 -0.182853 -0.312627 0.131255 0.019184 0.131982 0.084082 0.245568 0.306067 0.128918 -0.374633 0.279527 0.043692 -0.171723 -0.196717 0.213521 -0.590546 0.270773 -0.333962 -0.022197 -0.045207 -0.037426 -0.089924 -0.037546 0.253604 0.217901 -0.158308 -0.248470 -0.083846 0.111082 -0.130431 -0.210243 -0.192019 -0.031627 0.191523 -0.162331 -0.279402 0.264276 -0.014362 0.322516 -0.078694 -0.129511 -0.246013 0.197438 0.402051 -0.161805 0.083032 -0.075651 -0.396139 0.011050 0.078313 0.069403 -0.080116 -0.027498 0.199269 -0.375205 -0.116475 -0.047124 0.140013 -0.308465 0.272348 -0.038793 -0.226787 0.082556 0.340554
9 -0.094320 -0.289404 -0.082909 -0.212629 -0.083937 0.141218 -0.047843 -0.076958 0.337981 0.117952 0.068760 0.378113 -0.176249 -0.170543 0.221531 0.072142 -0.229976 0.104906 -0.016497 -0.229198 0.189063 0.282823 0.100207 -0.123328 -0.264533 0.038746 0.107442 -0.061691 -0.262704 0.063370 0.050605 0.264671 -0.235508 -0.103961 0.189128 -0.122021 0.394448 0.147959 -0.259884 0.204717 -0.319062 -0.120568 0.362150 0.434999 -0.098564 0.486810 0.307880 -0.117457 -0.163319 -0.051393 -0.378287 0.308509 0.076996 0.090015 -0.179057 -0.282352 -0.265983 -0.231530 -0.063666 -0.197325 0.305854 -0.119933 -0.217700 0.172777
4 -0.128350 -0.269973 0.060097 0.017508 0.085563 0.087435 0.174049 0.249310 0.188203 -0.269392 0.212222 0.097320 -0.158752 -0.161041 0.206961 -0.424593 0.175394 -0.224904 -0.006946 -0.033192 -0.006145 -0.048013 -0.011289 0.145194 0.149677 -0.099743 -0.186997 -0.091936 0.021269 -0.092957 -0.149569 -0.111480 -0.032479 0.107200 -0.099473 -0.222481 0.275528 -0.003422 0.182194 -0.021438 -0.151049 -0.192960 0.205131 0.370403 -0.124502 0.131852 -0.005744 -0.310682 0.005836 0.042249 -0.008870 -0.011513 0.014465 0.164484 -0.284755 -0.100891 -0.061730 0.046702 -0.232635 0.144375 0.023327 -0.210403 0.041284 0.296527
6 -0.020176 -0.255506 -0.086216 0.070294 -0.011625 0.202309 0.153221 0.179096 0.346956 -0.124615 0.131074 0.213583 -0.254027 -0.143562 0.271342 -0.167172 0.029269 -0.046391 -0.012389 -0.039616 0.009130 0.013209 0.052668 -0.032836 0.085568 -0.039166 -0.107887 -0.200027 -0.178395 0.024874 -0.049211 -0.010591 -0.025546 -0.022583 -0.001093 -0.156338 0.397667 0.010543 -0.131550 0.076085 -0.267034 -0.100220 0.280403 0.388521 -0.096065 0.335910 0.207674 -0.238799 0.032187 0.000238 -0.161959 0.146593 0.080880 0.124332 -0.137884 -0.113845 -0.132360 -0.214411 -0.129188 -0.071385 0.131104 -0.157853 -0.053375 0.312385
7 -0.003058 -0.249216 -0.131770 0.011766 -0.060294 0.210254 0.092069 0.104349 0.386282 -0.041310 0.088627 0.276906 -0.244368 -0.136374 0.269478 -0.046192 -0.051219 0.037922 -0.019884 -0.069293 0.059871 0.078962 0.082187 -0.076156 -0.002059 -0.009912 -0.056940 -0.183730 -0.246793 0.036692 0.002974 0.085675 -0.076941 -0.076410 0.044059 -0.123416 0.400279 0.016106 -0.217425 0.126411 -0.300848 -0.080104 0.301735 0.401812 -0.070662 0.406732 0.267538 -0.176525 -0.000076 -0.030050 -0.242915 0.213675 0.109278 0.108593 -0.128551 -0.127628 -0.161095 -0.271504 -0.089805 -0.121152 0.184146 -0.144829 -0.104659 0.287024
5 -0.190028 -0.293105 0.126208 -0.060487 0.120292 0.031164 0.172072 0.202552 0.100324 -0.289426 0.245209 0.062537 -0.114609 -0.167480 0.169519 -0.497793 0.191577 -0.291776 -0.015372 -0.073255 0.013283 -0.022664 -0.047544 0.230280 0.118373 -0.130936 -0.167150 -0.036518 0.096578 -0.131441 -0.182434 -0.114253 -0.071928 0.162977 -0.094797 -0.254239 0.201328 0.024565 0.295228 -0.066176 -0.099403 -0.232425 0.162311 0.343358 -0.150579 0.070744 -0.081303 -0.321939 -0.032258 0.062892 0.021393 -0.039151 -0.028186 0.150477 -0.336422 -0.139404 -0.055178 0.158064 -0.255002 0.214615 -0.005742 -0.211765 0.055695 0.261387
10 -0.013714 -0.287535 -0.152375 -0.053179 -0.090271 0.238047 0.045988 0.018138 0.431857 0.047996 0.078985 0.367794 -0.275209 -0.134883 0.287094 0.073198 -0.152014 0.108200 -0.016772 -0.143428 0.130030 0.171370 0.102156 -0.128464 -0.118876 0.012181 0.036357 -0.178018 -0.322586 0.072415 0.034885 0.163142 -0.132269 -0.107078 0.116765 -0.112383 0.460562 0.071304 -0.332672 0.173022 -0.359104 -0.075455 0.377517 0.448764 -0.068939 0.538430 0.373323 -0.151360 -0.042653 -0.046557 -0.343363 0.309069 0.129741 0.084787 -0.128182 -0.197166 -0.223522 -0.348922 -0.070147 -0.209045 0.279127 -0.132787 -0.183248 0.271875
2 -0.241009 -0.355620 0.201009 -0.047257 0.180409 0.028869 0.257190 0.336053 0.063087 -0.445807 0.330834 0.022554 -0.110760 -0.224926 0.194277 -0.738029 0.314487 -0.423653 -0.025097 -0.066951 -0.014138 -0.095064 -0.061812 0.344539 0.206563 -0.193904 -0.280700 -0.035112 0.207425 -0.199799 -0.257188 -0.222548 -0.062620 0.261779 -0.203262 -0.323652 0.218297 -0.017154 0.485212 -0.140454 -0.089227 -0.299182 0.188943 0.417163 -0.196716 0.005256 -0.188774 -0.450850 -0.001924 0.086812 0.112963 -0.141367 -0.053312 0.236340 -0.481069 -0.137461 -0.020564 0.282014 -0.371012 0.380381 -0.063915 -0.262595 0.113397 0.321622
1 -0.272585 -0.359263 0.225671 -0.061216 0.188473 -0.000487 0.236318 0.323901 0.062134 -0.431377 0.322155 0.003541 -0.103593 -0.216072 0.179899 -0.734364 0.328573 -0.434952 -0.006045 -0.071761 -0.018350 -0.091652 -0.072190 0.347160 0.210179 -0.180457 -0.256886 -0.008367 0.209249 -0.206883 -0.273291 -0.203498 -0.057609 0.255510 -0.184722 -0.337464 0.193396 -0.001826 0.502015 -0.138786 -0.086743 -0.318598 0.170743 0.411489 -0.194065 -0.016946 -0.199481 -0.432897 -0.016238 0.108915 0.105448 -0.129963 -0.070952 0.224091 -0.470373 -0.138578 -0.032531 0.302901 -0.372827 0.370608 -0.065045 -0.282202 0.111285 0.322587
11 0.005461 -0.265816 -0.142963 0.100366 -0.053918 0.244930 0.124256 0.172832 0.442112 -0.063203 0.081249 0.278624 -0.315340 -0.126532 0.311804 -0.060921 -0.034500 0.050095 0.001356 -0.047891 0.018904 0.043576 0.107877 -0.126910 0.049577 -0.000452 -0.076980 -0.232858 -0.287368 0.073199 0.003117 0.042780 -0.017455 -0.093199 0.047141 -0.113534 0.484047 0.017619 -0.274298 0.158739 -0.320135 -0.057467 0.336626 0.418372 -0.083294 0.442479 0.322088 -0.189653 0.028638 -0.013125 -0.234369 0.219364 0.120494 0.115541 -0.082253 -0.124912 -0.170266 -0.323150 -0.119152 -0.165931 0.171111 -0.158763 -0.095273 0.344513
8 -0.008329 -0.269515 -0.142044 -0.016947 -0.091035 0.218541 0.050183 0.048571 0.423546 0.049264 0.051173 0.331029 -0.274696 -0.132510 0.284512 0.044829 -0.125358 0.103647 0.004293 -0.103328 0.090484 0.149043 0.101961 -0.155825 -0.077717 0.039632 0.014266 -0.163273 -0.315324 0.089960 0.032340 0.154739 -0.103871 -0.112736 0.112770 -0.110090 0.457821 0.063681 -0.308995 0.201815 -0.333665 -0.067923 0.333961 0.428455 -0.067521 0.491119 0.339997 -0.135913 -0.049030 -0.030611 -0.321894 0.275583 0.132516 0.096717 -0.100591 -0.175155 -0.223614 -0.335471 -0.070869 -0.223066 0.232472 -0.146326 -0.154656 0.275666
0 -0.272656 -0.353371 0.216425 -0.123900 0.161588 0.003929 0.201101 0.256581 0.039730 -0.389153 0.324133 0.028052 -0.079281 -0.213471 0.173237 -0.682758 0.284592 -0.406506 -0.028878 -0.103279 0.011385 -0.051734 -0.070979 0.345917 0.135320 -0.177005 -0.222721 0.003654 0.192803 -0.214527 -0.244088 -0.151933 -0.095604 0.239570 -0.150903 -0.325505 0.182460 0.017697 0.487920 -0.130089 -0.094202 -0.318413 0.162626 0.407825 -0.182958 0.016206 -0.190701 -0.413172 -0.056739 0.090829 0.073500 -0.113499 -0.073940 0.198960 -0.480077 -0.162992 -0.053853 0.302038 -0.355129 0.366708 -0.037207 -0.262883 0.087978 0.289970
14 -0.273458 -0.363142 0.085607 -0.550558 -0.067031 -0.018590 -0.221036 -0.305075 0.151787 0.252406 0.082170 0.422329 -0.029641 -0.205242 0.130410 0.090681 -0.351062 0.059327 0.002687 -0.448599 0.372101 0.495289 0.053571 -0.032856 -0.544607 0.038662 0.288538 0.186799 -0.171602 0.010171 0.057076 0.437481 -0.450865 -0.049090 0.302662 -0.152549 0.250570 0.302632 -0.102649 0.210020 -0.267776 -0.208091 0.371654 0.439892 -0.137603 0.479370 0.228053 -0.061510 -0.371909 -0.015608 -0.462241 0.349268 -0.004473 0.074217 -0.353698 -0.462914 -0.348652 -0.009428 -0.072242 -0.141501 0.397976 -0.123554 -0.281024 0.009585
13 -0.305257 -0.376739 0.122213 -0.607317 -0.058329 -0.054999 -0.234467 -0.328355 0.120290 0.256737 0.095736 0.413431 0.005406 -0.226096 0.116998 0.054086 -0.369070 0.031575 -0.000077 -0.485461 0.399615 0.518008 0.037835 -0.009148 -0.589893 0.031980 0.307201 0.228436 -0.130767 -0.010827 0.038653 0.457113 -0.483477 -0.039132 0.310496 -0.170916 0.240196 0.335543 -0.046004 0.204549 -0.243359 -0.233387 0.369737 0.446808 -0.152727 0.466192 0.195209 -0.069581 -0.412202 -0.009159 -0.466277 0.346081 -0.018149 0.084904 -0.400920 -0.499400 -0.361768 0.036989 -0.079738 -0.117931 0.408691 -0.124822 -0.292444 -0.015150
15 -0.260872 -0.348445 0.215538 -0.080197 0.177687 0.015464 0.229924 0.288337 0.046442 -0.414669 0.321002 0.018252 -0.094280 -0.210204 0.179934 -0.704602 0.287707 -0.417260 -0.025435 -0.087180 0.005374 -0.067904 -0.068045 0.338490 0.172055 -0.180905 -0.255163 -0.008163 0.205414 -0.202870 -0.254762 -0.188838 -0.068029 0.248303 -0.176020 -0.315784 0.189043 0.003609 0.487405 -0.123362 -0.083762 -0.299157 0.170079 0.397889 -0.182142 0.006831 -0.196800 -0.422547 -0.030263 0.086404 0.100316 -0.129022 -0.062348 0.220859 -0.472731 -0.155108 -0.039280 0.280013 -0.348709 0.367627 -0.047846 -0.249156 0.107404 0.290487
