19 64
16 -0.287781 -0.136849 0.103386 -0.222366 -0.079447 -0.083885 0.030996 0.038464 0.332164 0.362341 -0.114117 0.519593 0.141602 0.284077 0.338634 -0.445230 -0.507592 -0.434480 -0.647114 -0.223247 0.296861 0.116028 0.666660 -0.189530 0.174259 0.374118 -0.009274 -0.017293 0.028536 -0.178602 -0.159206 0.527389 0.128993 -0.256564 0.348193 -0.131382 0.316002 -0.094571 0.046129 0.154147 -0.484285 0.273394 -0.027021 0.156286 -0.004139 0.144956 -0.149875 0.291089 -0.318086 0.227343 0.020550 -0.185451 0.121400 0.320692 0.030656 -0.140296 -0.403732 0.027684 -0.074132 -0.354510 0.461619 -0.523573 0.027364 -0.491895
15 -0.200606 -0.152396 0.064956 -0.184950 -0.033034 0.055277 0.018481 0.006541 0.254691 0.165969 -0.053222 0.356965 0.048428 0.163394 0.251180 -0.234237 -0.340625 -0.213439 -0.401224 -0.225883 0.267840 0.103607 0.423614 -0.073873 0.013374 0.179503 -0.026251 -0.035928 -0.044304 -0.160250 -0.086358 0.335017 0.086068 -0.164224 0.184570 -0.044654 0.199652 -0.086853 0.006644 0.084221 -0.377765 0.177967 0.103129 0.157100 0.033266 0.235459 -0.045862 0.144193 -0.138491 0.093259 -0.039074 -0.037779 0.081770 0.244495 -0.078225 -0.128189 -0.265256 -0.072492 -0.084300 -0.127806 0.362675 -0.264896 -0.019132 -0.280685
12 -0.305942 -0.288890 0.231421 -0.348919 0.009954 -0.015894 -0.120278 -0.022849 0.030893 0.038803 0.045818 0.217191 0.046875 0.048427 0.147480 -0.222439 -0.164762 -0.095670 -0.141320 -0.368833 0.284299 0.115957 0.228432 0.099467 -0.328978 0.004823 0.105585 0.132435 -0.019153 -0.212160 -0.011203 0.211784 -0.055594 -0.018746 0.123841 -0.016487 0.179224 0.086492 0.193977 0.020447 -0.172247 -0.007851 0.217721 0.207718 -0.054076 0.281165 -0.000126 0.036226 -0.189553 0.102350 -0.094576 0.011517 -0.025559 0.121896 -0.333014 -0.259482 -0.206477 0.223097 -0.330125 0.156150 0.218784 -0.183931 -0.073011 -0.103324
11 -0.198825 -0.247271 0.128457 -0.180733 0.071927 0.064300 -0.034660 0.089728 0.084142 -0.155429 0.153258 0.152804 -0.072379 -0.085486 0.173129 -0.234643 -0.041727 -0.100824 -0.069910 -0.300017 0.210692 0.048447 0.079323 0.174184 -0.181127 -0.149234 -0.007446 0.018642 -0.010262 -0.171791 -0.032413 0.009929 -0.091682 0.018937 0.001385 -0.043916 0.238845 0.097719 0.108971 -0.020719 -0.123496 -0.067547 0.347836 0.280277 -0.085896 0.298520 0.122890 -0.152355 -0.079340 0.042367 -0.036861 0.070012 -0.030220 0.130412 -0.357398 -0.214630 -0.078029 0.087963 -0.277428 0.215385 0.180953 -0.101779 -0.053410 0.124497
9 -0.084062 -0.172142 -0.058695 -0.047048 -0.021639 0.200716 0.097150 0.091608 0.321018 -0.009724 0.019344 0.306964 -0.102014 -0.002385 0.274835 -0.136149 -0.210484 -0.106941 -0.243177 -0.192300 0.159079 0.071680 0.281867 -0.053499 0.076785 0.016335 -0.110948 -0.183108 -0.134483 -0.091837 -0.038107 0.178065 0.021863 -0.140178 0.064694 -0.030445 0.209665 -0.119610 -0.146770 0.007735 -0.408178 0.109408 0.285249 0.233830 -0.006756 0.307434 0.113342 -0.057690 0.042662 0.015118 -0.094710 0.120559 0.041854 0.241891 -0.101078 -0.093109 -0.150797 -0.236792 -0.039429 -0.046582 0.330121 -0.125852 -0.061936 -0.014279
5 0.000694 -0.170583 -0.113175 0.108741 0.074910 0.232446 0.189306 0.250677 0.320029 -0.273415 0.238506 0.209950 -0.234688 -0.221709 0.310308 -0.264493 0.002697 -0.202976 -0.133050 -0.146651 0.095505 -0.035116 0.033682 0.130996 0.252023 -0.228248 -0.215608 -0.255482 -0.034242 -0.064727 -0.103675 -0.121321 -0.090258 -0.014842 -0.110281 -0.136650 0.328075 -0.013161 -0.129964 -0.070677 -0.284615 -0.039820 0.463527 0.384923 -0.106628 0.337688 0.255938 -0.367085 0.111038 -0.006843 0.001787 0.152313 0.018861 0.242231 -0.261155 -0.086530 0.008992 -0.285029 -0.047466 0.093342 0.271505 -0.078817 -0.032638 0.326528
2 -0.207839 -0.261773 0.189975 -0.185787 0.144818 -0.013802 -0.039001 0.177580 0.003735 -0.266310 0.286727 0.080305 -0.061433 -0.211413 0.129642 -0.383414 0.104271 -0.179778 -0.018501 -0.282013 0.216208 -0.014072 -0.058382 0.331352 -0.173955 -0.244822 -0.000332 0.090270 0.136493 -0.167588 -0.089495 -0.149949 -0.170731 0.158938 -0.085537 -0.159745 0.326700 0.227307 0.254676 -0.045142 0.023490 -0.210841 0.387795 0.385561 -0.172450 0.272764 0.129293 -0.302925 -0.127230 0.056907 0.030840 -0.007711 -0.043617 0.120741 -0.520187 -0.245132 -0.026133 0.226857 -0.385523 0.330594 0.104775 -0.131900 -0.037946 0.256087
10 -0.082379 -0.187880 -0.017205 -0.057022 0.062185 0.205379 0.078424 0.115529 0.256406 -0.154549 0.129693 0.228045 -0.122510 -0.065019 0.223916 -0.156106 -0.092098 -0.092473 -0.170708 -0.207368 0.217465 0.030927 0.131279 0.120376 -0.006049 -0.110358 -0.102922 -0.129057 -0.065772 -0.133571 -0.073407 0.011414 -0.013633 -0.023379 -0.046879 -0.057749 0.242218 -0.038908 -0.056471 -0.027864 -0.275937 0.008216 0.368361 0.304739 -0.008425 0.358773 0.161261 -0.167178 0.062521 -0.029193 -0.047742 0.111498 0.051699 0.206203 -0.262682 -0.114613 -0.073060 -0.191474 -0.133441 0.115422 0.282156 -0.070915 -0.063292 0.100532
6 0.074250 -0.200919 -0.201520 0.168308 0.018438 0.404533 0.259778 0.274457 0.442356 -0.286048 0.194300 0.249121 -0.312758 -0.265301 0.397007 -0.156137 -0.022116 -0.131141 -0.118253 -0.174655 0.066060 -0.039173 0.070825 0.047854 0.304348 -0.249369 -0.274538 -0.391927 -0.171412 -0.039850 -0.061936 -0.081381 -0.060160 -0.094676 -0.140583 -0.089854 0.308182 -0.129735 -0.289296 -0.129395 -0.477686 0.023110 0.577405 0.416610 -0.073536 0.456448 0.331545 -0.416013 0.265890 -0.029045 -0.095507 0.288254 0.008899 0.321448 -0.232396 -0.051560 -0.007863 -0.498686 0.031223 0.079054 0.371048 -0.004739 -0.082591 0.371085
7 0.077821 -0.171444 -0.218005 0.138260 -0.033865 0.405056 0.259118 0.223992 0.483439 -0.176554 0.098214 0.296826 -0.260192 -0.183002 0.414744 -0.128903 -0.115685 -0.136182 -0.215264 -0.163391 0.087467 -0.017544 0.179452 -0.023194 0.324731 -0.147057 -0.274618 -0.393101 -0.206674 -0.052526 -0.053626 0.051077 -0.008927 -0.171089 -0.082728 -0.066473 0.263110 -0.205266 -0.311961 -0.101288 -0.553328 0.109495 0.483768 0.361753 -0.021308 0.436502 0.268637 -0.290146 0.249267 -0.011438 -0.115821 0.268022 0.040393 0.353527 -0.150588 -0.020126 -0.069339 -0.533006 0.088712 -0.001815 0.410877 -0.042757 -0.072696 0.229842
13 -0.354067 -0.333630 0.340711 -0.436384 0.066918 -0.087218 -0.174578 0.003600 -0.066078 -0.043906 0.122793 0.125905 0.082555 -0.044430 0.104081 -0.327754 -0.054172 -0.124664 -0.080747 -0.418867 0.329112 0.083230 0.105055 0.251928 -0.456822 -0.073082 0.157925 0.245928 0.069162 -0.251464 -0.036275 0.127008 -0.113739 0.072097 0.082106 -0.087794 0.241111 0.222544 0.360659 0.001895 -0.031469 -0.133535 0.248384 0.290523 -0.110974 0.289676 -0.008296 -0.040978 -0.261536 0.131883 -0.076638 -0.030058 -0.053777 0.103506 -0.504050 -0.330436 -0.202584 0.397242 -0.472691 0.292254 0.149736 -0.201256 -0.068722 -0.030007
8 0.035263 -0.196436 -0.183509 0.092833 -0.044267 0.381349 0.228819 0.176873 0.467468 -0.108497 0.053231 0.324672 -0.236330 -0.112908 0.391574 -0.100109 -0.161900 -0.102764 -0.214387 -0.171682 0.111280 0.022090 0.233215 -0.067275 0.252358 -0.079039 -0.228484 -0.351764 -0.225547 -0.050074 -0.042360 0.108016 0.019982 -0.169233 -0.036151 -0.042373 0.242360 -0.211095 -0.297244 -0.062344 -0.557116 0.131941 0.433226 0.324329 -0.003724 0.432999 0.229285 -0.211328 0.219922 -0.009710 -0.142588 0.250306 0.056057 0.331962 -0.119928 -0.039710 -0.111498 -0.495026 0.061474 -0.039035 0.405429 -0.060895 -0.080066 0.150384
14 -0.248696 -0.220395 0.170558 -0.269262 0.019474 0.003708 -0.067666 0.000576 0.115300 0.079451 0.003824 0.257183 0.050358 0.088687 0.161303 -0.223240 -0.202494 -0.138177 -0.236151 -0.279270 0.285741 0.102990 0.277987 0.056238 -0.187828 0.082340 0.060237 0.084330 -0.015648 -0.169087 -0.050318 0.224761 0.011443 -0.043768 0.133889 -0.051114 0.194699 0.031433 0.123931 0.054638 -0.222411 0.047280 0.159822 0.198170 -0.018413 0.246470 -0.017425 0.080400 -0.159895 0.094019 -0.060719 -0.030305 0.032145 0.165745 -0.224669 -0.196030 -0.223938 0.117825 -0.242539 0.032798 0.249449 -0.221347 -0.035381 -0.177066
3 -0.123071 -0.217483 0.084876 -0.018090 0.167810 0.049610 0.069736 0.282571 0.107643 -0.358026 0.363770 0.082590 -0.163304 -0.303469 0.192088 -0.425004 0.169093 -0.257400 -0.029343 -0.201922 0.138681 -0.071849 -0.116878 0.337255 0.072159 -0.311210 -0.107627 -0.035859 0.150459 -0.105886 -0.139683 -0.259772 -0.183167 0.160161 -0.150838 -0.228463 0.394976 0.212286 0.149653 -0.062930 -0.023284 -0.233881 0.460767 0.459337 -0.202503 0.278296 0.219206 -0.444007 -0.052783 0.046687 0.078750 0.024544 -0.038537 0.161614 -0.485443 -0.189558 0.030385 0.062951 -0.285690 0.284435 0.128316 -0.126709 -0.016705 0.411339
4 -0.045226 -0.166545 -0.020266 0.076907 0.159885 0.132913 0.125111 0.305383 0.211750 -0.365455 0.350236 0.135080 -0.198286 -0.281616 0.229481 -0.360796 0.125315 -0.242126 -0.074841 -0.140341 0.128831 -0.078641 -0.084833 0.273098 0.180958 -0.291939 -0.179703 -0.139319 0.101139 -0.086064 -0.146682 -0.263615 -0.137349 0.110918 -0.171815 -0.207215 0.397089 0.127021 0.024785 -0.060696 -0.110096 -0.174864 0.487614 0.456826 -0.151620 0.299430 0.251648 -0.451992 0.030851 -0.009163 0.080468 0.055467 0.007496 0.197255 -0.403304 -0.123390 0.054256 -0.111259 -0.179085 0.206947 0.195015 -0.101833 -0.012993 0.403365
1 -0.363540 -0.378035 0.345498 -0.426403 0.059371 -0.081181 -0.170653 0.036186 -0.073280 -0.084594 0.143504 0.099442 0.049199 -0.103863 0.111367 -0.329984 0.009259 -0.113412 0.003294 -0.436301 0.276765 0.070727 0.066882 0.256697 -0.444287 -0.125072 0.152208 0.229781 0.048106 -0.240715 -0.013921 0.102672 -0.151418 0.083410 0.060681 -0.091154 0.216392 0.226149 0.361060 -0.040220 -0.044506 -0.174677 0.296676 0.308685 -0.154673 0.286304 0.015432 -0.103185 -0.222963 0.150514 -0.110218 0.022092 -0.105098 0.096678 -0.531893 -0.336734 -0.178753 0.424175 -0.491555 0.340410 0.126452 -0.187705 -0.081726 0.066242
0 -0.306869 -0.345286 0.296190 -0.322668 0.107743 -0.065996 -0.118671 0.136729 -0.071597 -0.222597 0.282586 0.064746 -0.019187 -0.213019 0.144451 -0.427192 0.115678 -0.187001 0.015415 -0.383709 0.222953 0.003034 -0.048818 0.339524 -0.321616 -0.238499 0.079531 0.165565 0.113075 -0.221551 -0.050007 -0.062381 -0.203248 0.139455 -0.010201 -0.161483 0.330491 0.294986 0.360256 -0.060588 0.022435 -0.252176 0.371081 0.397136 -0.210304 0.290208 0.091512 -0.276658 -0.224573 0.132333 -0.025916 -0.005473 -0.111094 0.087082 -0.587607 -0.326231 -0.099678 0.398878 -0.493799 0.381138 0.095013 -0.187401 -0.049447 0.244856
18 -0.270006 -0.104452 0.092780 -0.190171 -0.020659 -0.126442 0.028042 0.079948 0.345338 0.343723 -0.059898 0.512284 0.167769 0.265071 0.303478 -0.502563 -0.464713 -0.477768 -0.676777 -0.145004 0.334551 0.079594 0.628427 -0.121985 0.241915 0.381123 -0.021822 0.005374 0.118405 -0.150516 -0.209086 0.455905 0.145495 -0.182705 0.316599 -0.210348 0.346314 -0.040477 0.092626 0.197425 -0.414900 0.233519 -0.067485 0.184637 -0.020212 0.127827 -0.170757 0.256364 -0.324947 0.201147 0.070258 -0.259705 0.163483 0.319377 0.009942 -0.117372 -0.382719 0.024710 -0.082053 -0.362251 0.444089 -0.552584 0.061515 -0.471817
17 -0.307966 -0.125548 0.138562 -0.227564 -0.024894 -0.160330 0.011300 0.070757 0.322354 0.355083 -0.055176 0.517723 0.191328 0.282391 0.283444 -0.513917 -0.464520 -0.492815 -0.679660 -0.167445 0.350889 0.082367 0.637536 -0.110483 0.190079 0.391877 0.000442 0.044868 0.135128 -0.162972 -0.206528 0.466803 0.143710 -0.174548 0.325509 -0.219827 0.360143 -0.012216 0.135035 0.205768 -0.393604 0.205420 -0.079138 0.196704 -0.030404 0.115358 -0.183130 0.280214 -0.364569 0.218828 0.065657 -0.281760 0.155374 0.297089 -0.010524 -0.150854 -0.409398 0.103326 -0.118259 -0.350295 0.433475 -0.570190 0.066584 -0.498817
