11 64
8 -0.016142 -0.186141 0.035615 -0.031934 -0.076411 0.216585 0.185338 0.171787 0.050941 0.002294 0.011191 0.209865 -0.177046 -0.035734 -0.057502 -0.138916 0.174441 0.297846 0.051806 0.192400 -0.123420 0.116303 0.230287 -0.119074 -0.204213 0.302649 0.010880 0.065650 -0.018100 0.106181 -0.138625 -0.068577 -0.051300 0.376970 -0.218023 -0.139059 0.460435 -0.285682 0.104788 0.167240 -0.216280 -0.215632 0.087792 0.481619 0.095347 0.196868 -0.047800 -0.178260 -0.049385 -0.182831 -0.092519 -0.250826 0.286716 0.194697 -0.325620 0.074107 -0.169852 -0.025468 -0.526704 0.092719 -0.193813 -0.168436 -0.309758 0.091713
2 -0.014452 -0.182866 0.021319 -0.035732 -0.037629 0.160121 0.178171 0.177596 0.056974 -0.044783 0.060173 0.196058 -0.145211 -0.092796 -0.029515 -0.189810 0.158523 0.182959 0.037076 0.145433 -0.093586 0.099369 0.161409 -0.052765 -0.133214 0.201348 -0.012066 0.034415 0.019817 0.082178 -0.133088 -0.083958 -0.097805 0.335924 -0.192722 -0.167163 0.400197 -0.213952 0.104439 0.096460 -0.179294 -0.217094 0.121146 0.444605 0.020699 0.148320 -0.034865 -0.218768 -0.034313 -0.144793 -0.075503 -0.193657 0.220751 0.183955 -0.311392 0.038305 -0.118109 0.013608 -0.433890 0.090868 -0.143268 -0.165495 -0.248701 0.117122
5 0.028683 -0.275637 -0.076584 0.018840 0.095946 0.030226 0.271428 0.134874 0.222176 -0.196455 0.213930 0.155888 -0.170626 -0.253427 0.173020 -0.346663 0.121192 -0.272765 0.015754 0.011170 0.039019 0.031699 -0.160212 0.215690 0.244420 -0.178153 -0.078954 -0.139104 0.042319 0.021600 -0.182187 -0.141440 -0.211722 0.190836 -0.100833 -0.325522 0.191110 0.021354 0.033153 -0.163475 -0.095721 -0.188374 0.196534 0.330202 -0.226421 0.099823 0.077189 -0.346691 0.108043 0.049934 -0.095135 0.142745 0.073337 0.116858 -0.212435 -0.087649 0.032722 -0.025834 -0.023455 -0.023414 0.043605 -0.203415 -0.003967 0.295872
6 0.038103 -0.303858 -0.091883 0.039124 0.125393 0.012179 0.302774 0.146316 0.263461 -0.232009 0.251276 0.150560 -0.182667 -0.303096 0.218071 -0.385079 0.120738 -0.372735 0.017791 -0.024647 0.060559 0.010246 -0.223533 0.265958 0.333992 -0.260662 -0.090041 -0.184407 0.051847 0.019574 -0.198832 -0.164267 -0.235071 0.168424 -0.090842 -0.368346 0.158943 0.069306 0.009619 -0.234653 -0.098355 -0.188466 0.238136 0.321602 -0.289327 0.097109 0.110896 -0.395145 0.155101 0.098288 -0.104466 0.219151 0.033763 0.117683 -0.199762 -0.115500 0.060417 -0.039675 0.054601 -0.047215 0.095763 -0.210201 0.033793 0.341024
0 -0.019435 -0.198491 0.004643 -0.023655 0.006601 0.104986 0.183849 0.160676 0.100991 -0.090991 0.117714 0.163663 -0.141978 -0.145888 0.033655 -0.234841 0.155492 0.019571 0.030279 0.089624 -0.059443 0.067122 0.047656 0.033943 -0.005714 0.075830 -0.027709 -0.015527 0.030449 0.053253 -0.146987 -0.091748 -0.127799 0.266397 -0.143823 -0.221683 0.320398 -0.113057 0.087689 0.010889 -0.153981 -0.220000 0.140424 0.400820 -0.058212 0.119506 0.001478 -0.258393 -0.007289 -0.065794 -0.075810 -0.082996 0.141852 0.148957 -0.268037 -0.006973 -0.078306 0.014766 -0.292836 0.053956 -0.070284 -0.179255 -0.161815 0.178716
1 0.004727 -0.264756 -0.050915 0.012379 0.096267 0.022432 0.249110 0.153086 0.218818 -0.186859 0.201505 0.145367 -0.156246 -0.252152 0.147024 -0.333047 0.135733 -0.254940 0.028944 0.006496 0.029168 0.027028 -0.139520 0.198113 0.231606 -0.151106 -0.066004 -0.114130 0.052204 0.018614 -0.191817 -0.130778 -0.199308 0.189692 -0.107832 -0.325017 0.188244 0.012932 0.042893 -0.159728 -0.115530 -0.207329 0.209511 0.345051 -0.211087 0.085864 0.070091 -0.340438 0.104557 0.052629 -0.096227 0.132354 0.058347 0.132023 -0.222116 -0.075492 0.019002 -0.013305 -0.050694 -0.010849 0.051940 -0.206713 -0.029744 0.285575
3 -0.023707 -0.204097 0.009079 -0.014847 0.016625 0.105538 0.205108 0.171460 0.101135 -0.102414 0.123590 0.167331 -0.161122 -0.165892 0.027484 -0.253951 0.165435 0.011342 0.032655 0.091517 -0.064210 0.079799 0.046328 0.046130 0.013647 0.072345 -0.034922 -0.007108 0.048553 0.072082 -0.163072 -0.109560 -0.147698 0.293303 -0.161623 -0.238558 0.334332 -0.116011 0.089089 0.020328 -0.152155 -0.234976 0.156111 0.425968 -0.068486 0.118077 0.010572 -0.276931 -0.009626 -0.066505 -0.067185 -0.087083 0.146546 0.167311 -0.286742 -0.012552 -0.077859 0.009658 -0.300599 0.062005 -0.083580 -0.177750 -0.170674 0.194075
4 0.005465 -0.239755 -0.045631 0.008834 0.086505 0.029628 0.231906 0.168748 0.188711 -0.184438 0.206956 0.154465 -0.145264 -0.251512 0.128066 -0.332790 0.140105 -0.221403 0.023449 0.024814 0.013886 0.034682 -0.115653 0.172299 0.197432 -0.120597 -0.076315 -0.096337 0.066566 0.024840 -0.181205 -0.137435 -0.204306 0.206054 -0.119366 -0.312408 0.225003 0.003474 0.057201 -0.124546 -0.111903 -0.220302 0.210735 0.367734 -0.192513 0.079601 0.056542 -0.348335 0.069091 0.022149 -0.076805 0.078031 0.069695 0.141579 -0.242654 -0.066946 0.011987 0.002789 -0.086800 0.004250 0.035679 -0.202493 -0.042786 0.272669
7 0.059761 -0.336379 -0.124210 0.042003 0.139610 0.006102 0.338143 0.142872 0.313778 -0.266775 0.275158 0.158158 -0.196475 -0.343248 0.264883 -0.422243 0.124093 -0.448205 0.005283 -0.041718 0.090750 -0.000556 -0.276241 0.332883 0.406320 -0.332658 -0.113273 -0.221621 0.044943 0.002973 -0.210093 -0.169363 -0.269936 0.152979 -0.095173 -0.408034 0.130199 0.083748 -0.000746 -0.287717 -0.099851 -0.187025 0.257131 0.329360 -0.330963 0.107589 0.134141 -0.424429 0.194779 0.127732 -0.122363 0.285770 0.028408 0.122154 -0.208433 -0.128093 0.087790 -0.057258 0.116937 -0.050403 0.122148 -0.228385 0.070364 0.387176
10 -0.026384 -0.173832 0.044204 -0.039751 -0.087546 0.248686 0.177912 0.186867 0.040619 0.012861 -0.000853 0.232155 -0.181348 -0.005262 -0.102105 -0.109376 0.187256 0.385007 0.048745 0.221645 -0.142803 0.131912 0.291016 -0.154062 -0.275554 0.368548 0.026216 0.084315 -0.020598 0.109413 -0.147203 -0.071624 -0.032320 0.417142 -0.244206 -0.123740 0.515509 -0.337492 0.106708 0.202525 -0.242903 -0.238432 0.095238 0.526302 0.143599 0.213237 -0.054068 -0.169764 -0.063144 -0.233698 -0.089420 -0.305749 0.321585 0.204800 -0.349820 0.102171 -0.190537 -0.027291 -0.616669 0.116289 -0.219280 -0.168503 -0.372190 0.069849
9 -0.026152 -0.168066 0.029335 -0.037958 -0.065229 0.200194 0.166704 0.176530 0.051853 -0.008997 0.024967 0.208824 -0.159047 -0.049098 -0.067695 -0.139343 0.165704 0.287574 0.039666 0.182457 -0.127901 0.118875 0.230491 -0.116259 -0.204380 0.290732 0.006632 0.054412 -0.006914 0.099465 -0.131478 -0.062464 -0.060437 0.356418 -0.199569 -0.142005 0.450686 -0.266987 0.095035 0.160697 -0.213872 -0.227734 0.099534 0.474972 0.080990 0.172305 -0.044039 -0.185553 -0.058232 -0.189317 -0.085686 -0.243980 0.256470 0.187046 -0.308201 0.066879 -0.161332 -0.010230 -0.513124 0.092874 -0.178852 -0.161453 -0.308062 0.092155
