23 64
20 0.046163 0.165769 -0.243491 -0.205990 -0.423043 -0.491046 -0.114373 -0.063871 -0.192174 0.277809 -0.323240 -0.041926 0.637631 -0.210003 -0.149935 -0.065344 -0.398561 0.302410 0.084351 0.321423 0.491361 -0.256618 0.509124 0.151276 0.120562 0.575081 0.384704 -0.220041 0.258360 -0.158689 -0.046508 -0.091746 0.074401 0.079871 0.028870 -0.110936 -0.060197 -0.195638 -0.071070 -0.176715 -0.280452 0.064814 -0.791515 -0.218480 0.191009 0.265969 -0.063022 0.257981 0.450311 -0.542426 -0.200258 -0.169081 0.337793 -0.445729 0.138509 0.561185 0.266089 -0.525567 -0.409241 0.200231 0.222313 0.049970 0.169772 0.390415
11 0.060726 -0.137190 -0.021131 -0.146425 -0.056655 -0.149454 -0.165337 -0.078884 0.095856 0.081536 -0.153332 0.154341 0.135660 -0.065106 0.147044 -0.103309 -0.435945 -0.013713 0.061967 0.014383 0.554976 -0.131939 0.206529 0.192606 -0.027779 0.177480 0.158290 -0.096629 0.006069 -0.112618 0.013454 -0.044882 0.077794 -0.108596 0.107516 0.000528 0.060426 0.209359 -0.053624 0.087781 -0.036572 0.178005 -0.106842 -0.090401 0.075758 0.520894 0.209618 0.041947 0.145585 -0.159167 -0.141117 0.035665 0.133974 -0.159192 0.037557 0.080598 0.035842 -0.330196 -0.097840 -0.018573 0.284709 -0.052156 0.241133 0.289706
3 -0.230681 -0.341817 0.344844 -0.278612 -0.167411 -0.215718 0.181951 0.218509 0.120425 -0.029477 0.017709 0.340186 0.132885 -0.188178 0.122579 -0.472676 -0.156214 -0.536724 -0.194854 -0.307528 0.345558 -0.145021 0.326968 0.283430 0.098667 0.107954 0.105883 0.057991 0.198240 -0.229140 -0.203139 0.020787 -0.171960 -0.010716 -0.081906 -0.340360 0.419196 0.061230 0.190228 -0.282594 -0.401320 -0.256896 0.266983 0.525539 -0.134640 0.185847 0.236645 -0.136984 -0.083193 0.248859 -0.112764 -0.064574 -0.030508 0.086452 -0.366157 -0.140091 -0.253886 0.352531 -0.351323 0.130612 0.344322 -0.410891 0.075472 0.099297
18 0.047587 0.050337 -0.137449 -0.181336 -0.225888 -0.320223 -0.154127 -0.067902 -0.060319 0.201088 -0.224258 0.057441 0.401608 -0.114360 -0.045801 -0.077767 -0.379282 0.161342 0.043861 0.200763 0.477130 -0.183381 0.369384 0.160652 0.047885 0.390457 0.266498 -0.134667 0.161163 -0.124944 -0.023022 -0.047419 0.073947 0.018008 0.057816 -0.064916 -0.029548 -0.019636 -0.033147 -0.033563 -0.147813 0.111305 -0.469721 -0.162023 0.135541 0.332610 0.022518 0.156143 0.275348 -0.353902 -0.140484 -0.110348 0.229794 -0.283191 0.087124 0.345516 0.151862 -0.385834 -0.261224 0.098333 0.217838 -0.014094 0.164448 0.290691
6 0.100424 -0.326617 -0.068098 -0.053272 -0.056407 0.008610 -0.047743 0.022299 0.301570 0.053966 -0.110003 0.268209 -0.050982 -0.090092 0.287311 -0.093897 -0.343231 -0.021470 0.136577 -0.000822 0.423232 -0.094325 0.170618 0.044301 0.006850 0.126355 0.091843 -0.197932 -0.171149 -0.020881 0.021415 -0.000483 0.058869 -0.124715 0.100558 -0.051657 0.175937 0.148096 -0.167606 0.055285 -0.171162 0.127328 0.094845 0.083166 -0.010218 0.590594 0.260428 -0.070874 0.208301 -0.061520 -0.298527 0.181162 0.124359 -0.044993 0.027341 -0.004327 -0.046984 -0.340222 -0.049164 -0.169429 0.315508 -0.140034 0.152179 0.347444
10 0.218814 -0.216513 -0.281188 -0.037131 -0.134721 -0.003723 -0.117909 0.000397 0.294582 0.113305 -0.222091 0.274826 0.022292 -0.089679 0.197614 -0.024922 -0.381795 0.283364 0.186491 0.281338 0.414917 -0.113417 0.335012 0.021327 0.023438 0.323868 0.108517 -0.297831 -0.184355 -0.004886 0.062364 -0.009656 0.087235 -0.055913 0.075096 -0.002358 0.098798 -0.033935 -0.230688 0.151125 -0.186872 0.189391 -0.161094 -0.023310 0.115766 0.647530 0.196654 -0.012159 0.343628 -0.340022 -0.324679 0.083175 0.268163 -0.136329 0.134528 0.277349 0.095583 -0.572688 -0.164924 -0.106354 0.200060 -0.102189 0.119737 0.506537
5 -0.042565 -0.276384 0.128455 -0.169306 -0.044171 -0.097541 -0.011898 -0.014677 0.155539 0.021388 -0.052378 0.232652 0.036197 -0.080632 0.213069 -0.199614 -0.332311 -0.254274 -0.007511 -0.169261 0.469391 -0.080083 0.138810 0.187283 -0.015183 0.068424 0.112846 -0.041906 -0.006563 -0.124921 -0.060189 -0.004512 -0.010176 -0.108058 0.073417 -0.111318 0.198063 0.215834 -0.001225 -0.031997 -0.141946 0.033526 0.123686 0.146887 -0.024951 0.433435 0.241297 -0.044597 0.033683 0.059637 -0.161724 0.093433 0.051698 -0.038718 -0.099029 -0.114216 -0.115606 -0.089371 -0.077453 -0.061067 0.335648 -0.170413 0.186592 0.176639
12 0.038068 -0.056196 -0.053451 -0.200902 -0.131204 -0.244677 -0.210899 -0.159697 -0.009391 0.187471 -0.179924 0.117862 0.276501 -0.049483 0.058351 -0.032879 -0.486629 0.066191 0.074712 0.066252 0.600454 -0.138755 0.267295 0.181077 -0.049515 0.278273 0.262997 -0.095791 0.084612 -0.121431 0.003905 -0.038755 0.088329 -0.058484 0.119018 -0.003261 -0.028285 0.173547 -0.050637 0.048787 -0.058345 0.182190 -0.294092 -0.186370 0.126483 0.503442 0.134626 0.124405 0.195106 -0.258697 -0.152075 -0.009019 0.172331 -0.270823 0.076397 0.172361 0.084305 -0.394411 -0.130424 0.008473 0.313674 0.005840 0.215953 0.266256
14 -0.103569 -0.222708 0.192610 -0.234976 -0.067571 -0.159854 -0.046876 -0.071987 0.062132 0.081076 -0.071513 0.195891 0.127847 -0.055928 0.154578 -0.170421 -0.343901 -0.276447 -0.033045 -0.203293 0.514199 -0.077964 0.154052 0.213066 -0.051507 0.112614 0.183752 0.016688 0.050844 -0.147587 -0.073011 0.008053 0.004278 -0.088425 0.087543 -0.126867 0.149796 0.229076 0.040678 -0.072927 -0.155849 0.023117 0.042769 0.111813 0.003468 0.389269 0.195471 0.030812 0.015529 0.071096 -0.133429 0.051361 0.037122 -0.084649 -0.096047 -0.108925 -0.135366 -0.039799 -0.104353 -0.039423 0.361972 -0.155016 0.196768 0.085894
16 -0.225949 -0.327563 0.338614 -0.286680 -0.169376 -0.187316 0.149327 0.145096 0.125421 0.020135 -0.007993 0.342270 0.124950 -0.112516 0.142584 -0.404173 -0.206077 -0.508668 -0.189473 -0.305787 0.368069 -0.123737 0.317216 0.236569 0.053820 0.128902 0.123264 0.058597 0.145088 -0.239148 -0.186194 0.060551 -0.120843 -0.050646 -0.042095 -0.290674 0.378369 0.070139 0.171165 -0.250724 -0.392603 -0.190049 0.229730 0.453749 -0.086875 0.216885 0.216479 -0.077300 -0.090194 0.245605 -0.116494 -0.043822 -0.012060 0.061493 -0.309480 -0.142522 -0.269299 0.300933 -0.300220 0.071210 0.364422 -0.395774 0.083662 0.040143
2 -0.249710 -0.342184 0.354552 -0.311445 -0.207137 -0.237668 0.194644 0.262114 0.111369 -0.015834 0.022539 0.383825 0.182252 -0.179278 0.077373 -0.504177 -0.123542 -0.537752 -0.236549 -0.284552 0.312287 -0.165840 0.404404 0.286451 0.101555 0.145052 0.100719 0.066640 0.235721 -0.255808 -0.203311 0.043663 -0.189246 0.023314 -0.118962 -0.364068 0.424672 -0.008050 0.239907 -0.321124 -0.452369 -0.293853 0.251084 0.562469 -0.143331 0.124332 0.197212 -0.137055 -0.085483 0.243686 -0.107074 -0.128734 -0.028417 0.093800 -0.403125 -0.099031 -0.259581 0.448909 -0.425848 0.185836 0.320853 -0.461377 0.043121 0.069963
0 -0.317393 -0.352458 0.380248 -0.358715 -0.298950 -0.293849 0.250212 0.286689 0.100875 0.023669 0.030016 0.392097 0.257392 -0.196534 0.055484 -0.533806 -0.069985 -0.583554 -0.271246 -0.303337 0.266417 -0.188406 0.461569 0.272783 0.126861 0.198469 0.148128 0.056317 0.263517 -0.296265 -0.244070 0.086245 -0.210710 0.037611 -0.130216 -0.449617 0.462508 -0.084897 0.267268 -0.439444 -0.579761 -0.385808 0.191773 0.645261 -0.158699 0.049591 0.152586 -0.109902 -0.075628 0.277185 -0.148090 -0.140020 -0.031235 0.064177 -0.431228 -0.076359 -0.299619 0.532152 -0.502639 0.205013 0.348744 -0.528597 -0.000541 0.046478
19 0.163341 -0.066199 -0.160007 -0.133471 -0.138450 -0.159185 -0.196661 -0.092215 0.098113 0.136315 -0.244031 0.165210 0.194884 -0.083697 0.085251 -0.056985 -0.487137 0.179287 0.114276 0.225765 0.552285 -0.169830 0.324297 0.160861 0.002870 0.339763 0.171747 -0.178674 0.002398 -0.096613 0.036621 -0.054328 0.106042 -0.077177 0.081603 0.024449 0.010091 0.094682 -0.095691 0.147207 -0.070309 0.218327 -0.293681 -0.167589 0.166806 0.570660 0.177190 0.056989 0.251397 -0.352685 -0.177011 -0.032209 0.230632 -0.230639 0.126015 0.288712 0.117612 -0.514238 -0.158347 0.009171 0.221796 -0.025922 0.230294 0.417215
1 -0.355422 -0.425204 0.431722 -0.376730 -0.294825 -0.305761 0.275993 0.307726 0.154004 0.032537 0.027686 0.434370 0.249314 -0.191828 0.082785 -0.560347 -0.083115 -0.654854 -0.265860 -0.358837 0.301935 -0.190023 0.475649 0.270537 0.135391 0.199822 0.167060 0.070001 0.257596 -0.310044 -0.280093 0.109178 -0.209753 0.024878 -0.130926 -0.486612 0.484979 -0.076388 0.273650 -0.481660 -0.632387 -0.408491 0.255684 0.700337 -0.180685 0.067958 0.169853 -0.113553 -0.064566 0.340937 -0.190430 -0.098628 -0.043518 0.096269 -0.459374 -0.118515 -0.344311 0.570252 -0.503099 0.171543 0.412783 -0.582117 -0.010551 0.025515
4 -0.096134 -0.295092 0.233555 -0.195523 -0.048401 -0.116571 0.027115 0.092273 0.155125 -0.023970 -0.008234 0.284971 0.045047 -0.111720 0.192350 -0.310353 -0.274460 -0.384293 -0.083262 -0.226338 0.440623 -0.116952 0.184438 0.230954 0.017925 0.058674 0.075216 0.018318 0.069317 -0.163754 -0.100266 -0.011852 -0.055338 -0.093262 0.012988 -0.174755 0.300868 0.216025 0.087314 -0.072689 -0.195009 -0.058202 0.240232 0.291520 -0.062017 0.361471 0.267878 -0.112785 -0.051829 0.145515 -0.108029 0.011977 0.004357 0.036245 -0.210441 -0.147473 -0.179251 0.090899 -0.157372 0.003643 0.344083 -0.265506 0.173245 0.143392
17 -0.321252 -0.391972 0.433090 -0.348396 -0.233590 -0.267111 0.219522 0.227142 0.135386 0.026258 0.043467 0.401078 0.204556 -0.151076 0.117572 -0.497194 -0.146941 -0.657905 -0.256895 -0.375299 0.365999 -0.170682 0.379075 0.275992 0.090694 0.144714 0.145793 0.086780 0.227676 -0.280872 -0.237776 0.080118 -0.164284 -0.020753 -0.083921 -0.419772 0.460119 0.052609 0.248829 -0.373535 -0.510240 -0.330309 0.260326 0.608751 -0.156867 0.138824 0.205814 -0.097109 -0.113966 0.334012 -0.148375 -0.080839 -0.046991 0.065112 -0.407730 -0.185560 -0.345943 0.493648 -0.388768 0.114794 0.421998 -0.500804 0.067658 0.002069
7 0.208298 -0.406359 -0.157866 -0.015172 -0.035039 0.130627 -0.052031 0.041595 0.451247 -0.001428 -0.158409 0.361772 -0.189547 -0.106067 0.384249 -0.103292 -0.384413 0.055866 0.178766 0.084787 0.448940 -0.084190 0.194722 0.052008 0.017466 0.130827 -0.001190 -0.272031 -0.311014 -0.003516 0.072682 0.009374 0.058427 -0.170578 0.092094 -0.011441 0.217491 0.124564 -0.232317 0.178468 -0.176538 0.191917 0.170078 0.122058 0.019731 0.755945 0.351201 -0.131791 0.244636 -0.115741 -0.354349 0.228071 0.176939 0.007652 0.048879 0.032048 -0.041371 -0.472523 -0.036373 -0.196258 0.274068 -0.178714 0.187784 0.500134
15 -0.213841 -0.291962 0.322725 -0.291117 -0.129501 -0.178157 0.079642 0.032095 0.087787 0.052923 -0.004779 0.274902 0.144524 -0.069032 0.143410 -0.307687 -0.259808 -0.462245 -0.151614 -0.301972 0.436614 -0.101041 0.226550 0.228123 -0.014589 0.112301 0.148626 0.067940 0.124602 -0.219141 -0.156592 0.057034 -0.055120 -0.072210 0.014854 -0.241156 0.284159 0.162519 0.158689 -0.184580 -0.298928 -0.128177 0.147750 0.325713 -0.049377 0.270214 0.180148 -0.025992 -0.083586 0.200846 -0.120918 -0.009252 -0.006054 -0.003661 -0.245018 -0.175745 -0.257388 0.198709 -0.201305 0.025836 0.386941 -0.293081 0.133142 0.002165
9 0.292850 -0.376764 -0.314412 0.009585 -0.083600 0.144377 -0.092710 0.032728 0.496066 0.057308 -0.226344 0.398687 -0.165639 -0.111303 0.356693 -0.047091 -0.427654 0.267451 0.244812 0.282876 0.428105 -0.077106 0.303313 -0.031243 0.013086 0.285024 0.012548 -0.373969 -0.359093 0.045986 0.102827 0.023284 0.089277 -0.139643 0.108551 0.002785 0.193094 0.020921 -0.313490 0.258133 -0.213923 0.222874 0.020539 0.071411 0.083297 0.824132 0.304555 -0.113906 0.345185 -0.299804 -0.427503 0.196668 0.265872 -0.044544 0.156552 0.189988 0.022238 -0.652541 -0.086829 -0.235622 0.227825 -0.165652 0.148983 0.613579
8 0.268988 -0.472260 -0.263158 0.036899 -0.086699 0.198903 -0.025095 0.089692 0.555770 0.038184 -0.198315 0.432155 -0.246476 -0.107951 0.425352 -0.075731 -0.357083 0.195190 0.257150 0.215922 0.382395 -0.076385 0.269655 -0.065728 0.036082 0.236110 -0.012184 -0.360445 -0.414540 0.057450 0.087673 0.036026 0.081023 -0.140759 0.085256 -0.025895 0.266812 0.009105 -0.308839 0.220395 -0.273310 0.190354 0.135246 0.176179 0.040439 0.833274 0.331542 -0.152414 0.333518 -0.188526 -0.465333 0.242652 0.256125 0.023053 0.091395 0.117402 -0.043731 -0.586072 -0.089384 -0.269273 0.245332 -0.230480 0.128944 0.599244
13 -0.063509 -0.070049 0.100756 -0.237796 -0.119265 -0.264284 -0.118496 -0.149562 -0.052065 0.151189 -0.123139 0.073289 0.284391 -0.058266 0.063506 -0.098634 -0.418992 -0.137058 -0.006457 -0.101172 0.561562 -0.117696 0.174063 0.205225 -0.060364 0.195792 0.258022 -0.003911 0.135976 -0.160455 -0.065932 -0.020721 0.056513 -0.079281 0.106700 -0.074516 0.040024 0.217704 0.032453 -0.057075 -0.080245 0.086003 -0.201099 -0.077115 0.075381 0.368011 0.114724 0.121574 0.082670 -0.090143 -0.108710 0.003962 0.102016 -0.208469 -0.012601 0.022408 -0.022773 -0.201581 -0.098075 0.003834 0.350238 -0.028287 0.212100 0.103753
21 0.075930 0.157614 -0.275417 -0.211352 -0.435300 -0.454116 -0.127677 -0.076798 -0.146078 0.293443 -0.346685 0.000419 0.604410 -0.212019 -0.134915 -0.053030 -0.422370 0.346912 0.109353 0.376084 0.506319 -0.255368 0.537086 0.146595 0.115785 0.604558 0.371214 -0.245923 0.220081 -0.148105 -0.024513 -0.085931 0.082861 0.079794 0.014122 -0.105986 -0.061681 -0.204681 -0.083301 -0.128407 -0.298051 0.099121 -0.797963 -0.223289 0.207947 0.329380 -0.045341 0.248649 0.478032 -0.578761 -0.211516 -0.164196 0.366967 -0.445036 0.157031 0.600591 0.268051 -0.586821 -0.423341 0.193243 0.201367 0.036871 0.168367 0.443026
22 0.060248 0.170199 -0.265388 -0.206526 -0.439686 -0.481394 -0.111451 -0.062422 -0.180571 0.291180 -0.334254 -0.022092 0.637288 -0.213192 -0.156363 -0.062002 -0.388686 0.330091 0.095504 0.371190 0.467910 -0.251904 0.539716 0.131773 0.117756 0.613470 0.374808 -0.238739 0.253557 -0.142731 -0.045757 -0.084181 0.067617 0.095097 0.011162 -0.128726 -0.062823 -0.235223 -0.075058 -0.171940 -0.297002 0.051844 -0.817686 -0.199994 0.205261 0.266120 -0.090644 0.261989 0.466538 -0.565860 -0.210026 -0.188029 0.345592 -0.440964 0.154291 0.595865 0.269167 -0.528332 -0.422322 0.190204 0.200856 0.037886 0.148519 0.403766
