20 64
17 0.102479 -0.302949 0.194823 -0.236209 -0.218899 -0.356893 -0.285543 -0.034847 0.561850 0.686038 -0.131609 0.723122 0.354682 0.241615 -0.184924 0.116834 -0.479264 -0.389264 -0.172352 0.408228 0.620971 -0.352659 0.482700 0.006713 0.173619 0.599921 0.069340 0.254161 0.234972 0.209878 0.085464 0.390074 0.225685 -0.126860 0.012100 -0.371956 -0.113582 0.497128 0.255692 0.602307 -0.025836 -0.059663 -0.321060 0.050761 -0.046517 0.335007 0.082442 0.178553 -0.170762 0.122764 -0.386450 -0.323079 0.099227 -0.191591 0.153597 0.034179 -0.523634 0.230788 0.293012 -0.440076 0.304165 -0.472768 0.303113 -0.133414
6 0.200436 -0.297704 -0.018942 0.190239 -0.052929 0.048295 0.405510 0.340420 0.332152 -0.123168 0.236063 0.191928 -0.114682 -0.501610 0.401191 -0.478307 0.047149 -0.663062 0.020598 -0.003950 0.068987 -0.177031 -0.244001 0.037969 0.622942 -0.207096 -0.324449 -0.179318 0.135913 0.205770 -0.118374 -0.149925 -0.190010 0.007426 -0.198834 -0.441857 0.264581 0.206611 0.052032 -0.117006 -0.201573 -0.143444 0.285503 0.422819 -0.370109 0.136940 0.083429 -0.539818 0.120823 0.257278 -0.152898 0.116743 0.002047 0.333015 -0.254835 -0.188861 -0.130903 -0.119156 0.374324 -0.209867 0.277628 -0.186284 0.246749 0.297906
13 -0.072405 -0.270177 0.230448 -0.316305 -0.111565 -0.215027 -0.256948 -0.096330 0.363063 0.462035 -0.088676 0.605187 0.212641 0.214610 -0.077988 0.026314 -0.497367 -0.252960 -0.217505 0.078687 0.562385 -0.090483 0.448471 0.019503 -0.119260 0.424848 0.091681 0.242450 0.134780 0.054396 0.052648 0.352066 0.104806 -0.124397 0.100337 -0.188910 0.067366 0.389615 0.186497 0.502085 -0.056409 -0.014717 -0.067324 0.122435 -0.000443 0.370879 0.117433 0.164305 -0.285708 0.065621 -0.247701 -0.218865 0.070101 -0.072080 -0.004881 -0.134493 -0.452155 0.193729 0.068138 -0.261601 0.300798 -0.337423 0.147675 -0.185339
5 0.103151 -0.235534 0.002798 0.156050 -0.002222 -0.001017 0.380278 0.371613 0.231914 -0.225721 0.298696 0.154566 -0.085635 -0.501768 0.337081 -0.557169 0.093407 -0.640469 -0.009778 -0.037804 -0.003733 -0.117473 -0.223202 0.062710 0.546108 -0.233844 -0.344823 -0.153555 0.204216 0.126046 -0.148906 -0.182816 -0.248751 0.044576 -0.197483 -0.418412 0.300982 0.163953 0.113385 -0.141848 -0.158433 -0.219533 0.316543 0.453427 -0.367663 0.002038 0.026480 -0.556285 0.034794 0.198213 -0.047939 0.049822 -0.037493 0.331653 -0.305201 -0.198821 -0.067013 0.009610 0.254478 -0.099199 0.217342 -0.181475 0.196469 0.285089
15 -0.243617 -0.224647 0.227293 -0.294917 0.013803 -0.057777 -0.115891 -0.031873 0.115669 0.096752 0.057522 0.402587 0.043687 0.064901 0.065906 -0.185195 -0.348492 -0.192924 -0.218318 -0.233742 0.349920 0.141902 0.314438 0.037348 -0.253197 0.136786 0.006919 0.151338 0.082298 -0.084878 -0.007379 0.197278 -0.071110 -0.054942 0.114253 -0.062198 0.252418 0.213561 0.140191 0.270764 -0.113844 -0.047695 0.223016 0.248813 -0.039010 0.268184 0.087517 0.004622 -0.327550 0.019797 -0.052466 -0.115007 -0.008284 0.096873 -0.212541 -0.288307 -0.290147 0.190491 -0.152066 -0.012445 0.249226 -0.180601 0.013008 -0.139514
2 -0.253643 -0.187045 0.179492 -0.121174 0.096123 -0.015289 0.154165 0.270734 -0.029032 -0.303168 0.297302 0.204789 -0.058852 -0.314708 0.236657 -0.590780 -0.036354 -0.416395 -0.152625 -0.346138 0.035929 0.166822 0.046913 0.069212 0.013365 -0.186264 -0.226007 0.006201 0.192531 -0.108763 -0.116263 -0.072367 -0.318159 0.052683 -0.026250 -0.179163 0.441265 0.097725 0.183667 -0.057934 -0.161435 -0.221006 0.486544 0.487696 -0.250973 -0.012980 0.005588 -0.386053 -0.278404 0.079097 0.125176 -0.074564 -0.115849 0.335843 -0.440952 -0.351477 -0.088643 0.280166 -0.190217 0.150582 0.192707 -0.157372 0.010142 0.070144
10 -0.293640 -0.232149 0.232499 -0.306347 0.054214 0.025738 -0.102580 -0.030694 0.073883 0.004775 0.078517 0.399654 -0.048496 0.049100 0.137679 -0.214070 -0.335139 -0.158058 -0.238392 -0.351890 0.334301 0.230398 0.305833 0.054568 -0.326665 0.065910 0.007469 0.125348 0.006346 -0.128301 -0.003963 0.168249 -0.121815 -0.052956 0.147900 -0.009427 0.356340 0.174694 0.075348 0.230000 -0.165711 -0.032198 0.360559 0.320254 -0.027667 0.320521 0.155047 -0.020678 -0.358365 0.019038 -0.008051 -0.070123 -0.017983 0.143717 -0.266034 -0.345923 -0.273514 0.171290 -0.245137 0.031055 0.262533 -0.167417 -0.022788 -0.123552
3 -0.229763 -0.161838 0.163341 -0.101179 0.096016 0.008024 0.124344 0.206219 0.004031 -0.246860 0.252608 0.207461 -0.090818 -0.254180 0.204885 -0.476393 -0.068699 -0.356700 -0.151914 -0.309626 0.069640 0.165689 0.058031 0.070196 0.009232 -0.145289 -0.186396 0.016205 0.155878 -0.072284 -0.107906 -0.059285 -0.267285 0.038548 -0.009810 -0.154696 0.409053 0.117903 0.121462 0.013769 -0.146066 -0.185008 0.445456 0.442316 -0.194373 0.051974 0.065716 -0.322535 -0.268317 0.062599 0.110692 -0.056140 -0.091602 0.285023 -0.369953 -0.324231 -0.109853 0.186288 -0.152740 0.105902 0.187899 -0.126598 0.006575 0.069126
14 -0.205463 -0.272408 0.265840 -0.364506 -0.039230 -0.111250 -0.254554 -0.097889 0.206211 0.306624 -0.064755 0.530888 0.105084 0.187430 0.006967 -0.052420 -0.428769 -0.168685 -0.220862 -0.127796 0.478022 0.073941 0.434128 0.035065 -0.265069 0.309211 0.099787 0.227423 0.034219 -0.032262 0.067202 0.321178 0.019198 -0.092253 0.171261 -0.080506 0.155974 0.287291 0.145543 0.400634 -0.126559 0.005231 0.098638 0.180528 0.004318 0.364383 0.125657 0.142194 -0.335195 0.066093 -0.156980 -0.169325 0.012252 0.008767 -0.099057 -0.222190 -0.400433 0.236336 -0.128215 -0.128585 0.268052 -0.294837 0.079482 -0.191399
1 -0.024535 -0.254702 0.090240 0.037670 0.012175 0.006793 0.290925 0.343119 0.125622 -0.231444 0.254763 0.140883 -0.079883 -0.452070 0.341039 -0.580511 0.094833 -0.565124 -0.020637 -0.173277 -0.014028 -0.033868 -0.141016 0.060620 0.372275 -0.219109 -0.274269 -0.092420 0.147159 0.035984 -0.118560 -0.110057 -0.269399 0.035415 -0.116910 -0.335203 0.311738 0.115285 0.150160 -0.176130 -0.209956 -0.199190 0.370629 0.455536 -0.338027 -0.000030 0.000587 -0.488348 -0.040871 0.225709 -0.023735 0.037655 -0.094523 0.356726 -0.356168 -0.237536 -0.089924 0.135148 0.074057 -0.008967 0.205796 -0.211621 0.138191 0.215807
0 -0.128004 -0.204667 0.130078 -0.067417 0.026763 0.012025 0.171940 0.267703 0.033012 -0.233133 0.255262 0.163273 -0.055647 -0.337151 0.280261 -0.527713 0.043499 -0.447540 -0.094195 -0.237954 -0.004621 0.040948 -0.035601 0.064783 0.152390 -0.175411 -0.216671 -0.053916 0.119251 -0.057784 -0.078554 -0.055024 -0.258666 0.013745 -0.032218 -0.235630 0.348377 0.106065 0.161025 -0.121381 -0.196275 -0.197968 0.372147 0.433029 -0.258768 0.009640 0.005723 -0.398217 -0.169312 0.156734 0.035845 -0.030785 -0.123468 0.285075 -0.348311 -0.261118 -0.105843 0.226846 -0.076931 0.067527 0.182814 -0.199077 0.082039 0.138424
4 -0.073930 -0.172433 0.078704 0.030527 0.063048 0.031699 0.229735 0.291443 0.097229 -0.265708 0.282746 0.174018 -0.104427 -0.369581 0.276398 -0.498531 0.017524 -0.460992 -0.081288 -0.193253 0.026814 0.047556 -0.084426 0.056978 0.239831 -0.197878 -0.269216 -0.070918 0.156642 0.007409 -0.121015 -0.135086 -0.259306 0.035899 -0.096135 -0.251853 0.383384 0.127046 0.093685 -0.059632 -0.160378 -0.197621 0.421099 0.461777 -0.252337 0.036307 0.062317 -0.441888 -0.131371 0.105352 0.056725 -0.005960 -0.063864 0.315346 -0.346154 -0.261228 -0.073884 0.081901 0.021913 0.018719 0.209928 -0.138658 0.089135 0.175306
12 -0.194202 -0.277941 0.259977 -0.378695 -0.064987 -0.142879 -0.293238 -0.134411 0.254004 0.372474 -0.062897 0.594319 0.134760 0.243067 -0.033278 0.013044 -0.500614 -0.160123 -0.233857 -0.086648 0.539006 0.048242 0.479448 0.023796 -0.286699 0.356922 0.117609 0.242990 0.056403 -0.024409 0.077814 0.351097 0.047256 -0.112364 0.169821 -0.078021 0.139509 0.336861 0.146407 0.476139 -0.098835 0.007331 0.061775 0.154203 0.025809 0.410567 0.151976 0.175948 -0.356411 0.035586 -0.186843 -0.186446 0.035660 -0.052010 -0.072402 -0.215647 -0.426333 0.220060 -0.088329 -0.160582 0.297187 -0.295503 0.080689 -0.199564
11 -0.327443 -0.247203 0.288970 -0.395968 0.026857 -0.084029 -0.241048 -0.094958 0.131799 0.167695 0.013619 0.522055 0.055925 0.187311 0.022871 -0.126343 -0.473767 -0.133262 -0.279198 -0.281180 0.468439 0.198057 0.461961 0.044037 -0.413866 0.225955 0.073038 0.226628 0.056886 -0.123954 0.030684 0.279380 -0.047033 -0.087260 0.188906 -0.001589 0.291737 0.264496 0.136120 0.403543 -0.109226 -0.017819 0.251350 0.249130 0.015128 0.359677 0.151886 0.116670 -0.437718 -0.006530 -0.053448 -0.162283 0.001034 0.051398 -0.200008 -0.329440 -0.359249 0.252936 -0.248294 -0.018802 0.281188 -0.225730 -0.001827 -0.210868
16 -0.307693 -0.182536 0.233195 -0.243436 0.068860 -0.041970 -0.024290 0.106057 -0.015492 -0.117607 0.158189 0.280640 -0.015769 -0.090567 0.143234 -0.392012 -0.173012 -0.269637 -0.197726 -0.340094 0.155835 0.192366 0.210326 0.055090 -0.181865 -0.021207 -0.071869 0.098121 0.106137 -0.143257 -0.053354 0.084496 -0.206273 -0.013420 0.093409 -0.079498 0.358793 0.127087 0.158379 0.080312 -0.150058 -0.131070 0.370645 0.361547 -0.124052 0.091863 0.048549 -0.148669 -0.350442 0.066327 0.074916 -0.104207 -0.097355 0.206039 -0.315685 -0.320727 -0.182588 0.303017 -0.255373 0.098598 0.194922 -0.191684 -0.015150 -0.058608
9 -0.276225 -0.174159 0.183763 -0.208320 0.088277 0.002754 0.005117 0.076182 0.041144 -0.126204 0.172317 0.308160 -0.052506 -0.087830 0.141920 -0.335011 -0.240468 -0.226112 -0.214040 -0.329809 0.211409 0.226039 0.201996 0.045638 -0.201808 -0.028688 -0.092960 0.073584 0.103394 -0.105949 -0.064533 0.058713 -0.191544 -0.009971 0.074516 -0.065073 0.394262 0.146464 0.092365 0.156486 -0.128653 -0.111555 0.398944 0.370333 -0.102213 0.171352 0.097959 -0.153124 -0.332374 -0.007620 0.062565 -0.070019 -0.038885 0.209303 -0.311722 -0.348059 -0.182415 0.163712 -0.199971 0.070741 0.224983 -0.115949 -0.032291 -0.054501
19 0.142178 -0.347431 0.183355 -0.244443 -0.217624 -0.244855 -0.259962 -0.071280 0.566403 0.664038 -0.161937 0.717741 0.265425 0.207145 -0.078546 0.116431 -0.498272 -0.371126 -0.152178 0.344330 0.640133 -0.317813 0.441795 0.015708 0.157692 0.555085 0.071395 0.212886 0.131514 0.206282 0.103627 0.396027 0.210282 -0.151414 0.036687 -0.335449 -0.092035 0.482228 0.199997 0.570893 -0.086699 0.011537 -0.248324 0.062731 -0.027723 0.459608 0.138760 0.137159 -0.139554 0.150246 -0.414753 -0.245550 0.102725 -0.136578 0.131983 0.012209 -0.538839 0.122797 0.302616 -0.447923 0.336215 -0.456315 0.305977 -0.096554
7 0.363220 -0.354951 -0.092341 0.280954 -0.114806 0.124162 0.513996 0.385269 0.441338 -0.113949 0.227698 0.185531 -0.165591 -0.614425 0.529221 -0.492233 0.111097 -0.767605 0.067826 0.065877 0.059187 -0.282597 -0.365182 0.049854 0.834297 -0.263579 -0.391288 -0.271125 0.070515 0.279919 -0.102979 -0.175707 -0.190696 -0.019993 -0.260055 -0.529772 0.243293 0.208324 0.006676 -0.192345 -0.268267 -0.114816 0.274789 0.457136 -0.418945 0.212065 0.119922 -0.639231 0.254818 0.342637 -0.244759 0.200752 0.028657 0.380147 -0.245931 -0.145111 -0.142252 -0.246208 0.538880 -0.293341 0.314019 -0.216259 0.337372 0.406950
18 0.118799 -0.330494 0.179793 -0.258662 -0.207921 -0.263927 -0.291393 -0.077062 0.553889 0.683467 -0.169123 0.717336 0.287659 0.234776 -0.101356 0.125103 -0.502888 -0.336430 -0.168944 0.346231 0.647733 -0.304549 0.472561 0.011907 0.132043 0.575539 0.093474 0.229036 0.140555 0.199854 0.106045 0.411483 0.221743 -0.139349 0.055248 -0.322986 -0.099507 0.472718 0.203456 0.588319 -0.078096 0.022000 -0.271610 0.043737 -0.019906 0.449088 0.119058 0.174811 -0.149768 0.133201 -0.403865 -0.265177 0.112855 -0.144187 0.137243 0.021617 -0.531576 0.133139 0.267950 -0.439938 0.329257 -0.459743 0.289008 -0.123690
8 0.255410 -0.323840 -0.041661 0.221967 -0.071194 0.090352 0.449395 0.358325 0.366387 -0.131922 0.234964 0.190454 -0.149918 -0.547053 0.462902 -0.497110 0.073729 -0.695880 0.041832 0.014484 0.066403 -0.200114 -0.293490 0.040306 0.689678 -0.228214 -0.356387 -0.206176 0.102868 0.228617 -0.117805 -0.164617 -0.198004 0.004252 -0.223749 -0.469243 0.280633 0.201050 0.039787 -0.132968 -0.229189 -0.132992 0.296040 0.455558 -0.379299 0.178081 0.097137 -0.584782 0.156372 0.283869 -0.180594 0.143707 0.024285 0.366419 -0.272493 -0.180452 -0.138376 -0.175086 0.419089 -0.235422 0.287498 -0.200877 0.278578 0.343419
