25 64
16 -0.100072 -0.313880 0.015047 -0.220343 -0.254987 -0.156723 0.005735 0.006922 0.365825 0.612500 -0.127499 0.617709 0.122488 0.088106 0.440336 -0.203820 -0.491239 -0.435444 -0.586822 -0.365222 0.447128 0.100814 0.552212 -0.183588 0.235585 0.268328 0.217746 0.060939 -0.030543 0.106895 -0.004705 0.585225 -0.135882 -0.218262 0.393878 -0.245203 0.413744 0.100517 -0.230622 0.122293 -0.491313 0.191162 0.078443 0.344716 -0.189051 0.443776 0.181033 0.291336 -0.308452 0.426345 -0.344078 0.017547 0.160004 0.270751 -0.109396 -0.284228 -0.486981 -0.013058 0.121026 -0.532224 0.641616 -0.509294 -0.012176 -0.374212
6 0.211490 -0.189769 0.359384 -0.102763 0.090558 0.256772 0.257521 -0.218724 -0.201761 0.037063 -0.027571 -0.131516 0.010515 -0.482144 0.225944 -0.118136 -0.115578 -0.428617 0.106780 -0.286604 0.318854 0.139850 -0.404079 0.218527 -0.037019 -0.034751 -0.020858 0.025247 0.047143 0.372278 -0.112884 -0.102410 -0.164639 0.099855 -0.035748 -0.314158 -0.053910 0.231184 0.035855 -0.259456 -0.077332 0.002930 0.119869 0.216336 -0.073100 0.348720 -0.127752 -0.205418 0.149039 0.227195 -0.142491 0.132049 -0.244676 0.390299 -0.099893 -0.326665 -0.287515 -0.128669 0.410758 -0.217324 0.271614 0.269150 0.241183 -0.237611
20 0.133889 0.175845 0.373207 0.163038 -0.241434 -0.393368 0.098851 0.001096 -0.162109 0.011902 0.034822 0.029982 0.409946 -0.672225 -0.099744 -0.270940 -0.553903 -0.512682 0.366836 0.094088 0.519775 -0.219402 0.061995 0.618518 0.409064 0.476515 -0.038440 -0.342757 0.257389 0.220089 -0.386619 -0.368914 -0.394132 -0.135673 -0.161922 -0.433938 0.370007 0.127731 -0.102322 -0.302190 -0.065717 -0.019942 -0.232342 0.278391 0.132326 0.345030 0.130209 0.156238 0.129143 -0.268463 0.272858 -0.084531 -0.259679 -0.288723 0.337375 0.193741 0.127707 -0.155683 0.009869 -0.181565 0.302867 0.031727 0.677435 0.588952
19 0.107930 0.093218 0.439998 0.172374 -0.046784 -0.239769 0.085029 -0.059183 -0.063038 -0.094624 0.128059 0.015367 0.238845 -0.574590 -0.068627 -0.212588 -0.489253 -0.524002 0.429329 0.027415 0.499453 -0.139643 -0.131046 0.599201 0.271971 0.318297 -0.091402 -0.299431 0.156653 0.194433 -0.376981 -0.396076 -0.297986 -0.145063 -0.144054 -0.365461 0.295331 0.252802 -0.048342 -0.238327 0.032795 0.006419 -0.042363 0.225401 0.100827 0.354618 0.140624 0.045424 0.139375 -0.227540 0.291648 0.045936 -0.317467 -0.212859 0.339254 0.079185 0.105313 -0.145539 0.099928 -0.204039 0.262239 0.076718 0.638858 0.516306
12 -0.184384 -0.393176 0.116788 -0.232837 -0.031934 0.037621 -0.002190 -0.067561 0.351550 0.305432 -0.041931 0.416906 -0.035052 0.064270 0.395792 -0.101431 -0.366478 -0.283119 -0.317742 -0.454513 0.435979 0.176369 0.258279 -0.095442 -0.101855 0.060263 0.170787 0.031945 -0.166583 0.033188 -0.001724 0.390582 -0.009595 -0.181764 0.324356 -0.150554 0.314127 0.196124 -0.171844 0.080162 -0.359706 0.121537 0.271747 0.294837 -0.160472 0.492772 0.173456 0.158614 -0.143769 0.311551 -0.333190 0.224514 0.055561 0.237578 -0.130623 -0.414959 -0.421637 -0.056332 0.050415 -0.364462 0.534929 -0.265757 -0.032889 -0.283842
4 0.069871 0.002076 0.346649 0.098336 0.054355 -0.086889 0.093364 -0.060304 -0.021999 -0.117342 0.143838 -0.000999 0.114881 -0.450021 0.023028 -0.181944 -0.330246 -0.421964 0.301235 -0.068758 0.396254 -0.032824 -0.203572 0.425646 0.112045 0.132667 -0.093897 -0.191011 0.100377 0.168076 -0.277227 -0.297076 -0.212399 -0.077458 -0.102238 -0.291034 0.229366 0.252581 -0.014019 -0.168319 0.047812 -0.009323 0.083315 0.218410 0.024395 0.308006 0.072469 -0.040769 0.101799 -0.120440 0.179796 0.093952 -0.240237 -0.040484 0.161842 -0.072583 0.026844 -0.116093 0.130426 -0.171021 0.232028 0.101648 0.432774 0.295301
9 -0.130746 -0.336965 0.029010 -0.295037 0.034760 0.077866 0.052809 0.178373 0.359687 -0.209876 0.072560 0.104497 0.013276 -0.444300 0.230224 -0.305093 0.001855 -0.129040 -0.127166 -0.324662 0.095320 0.073260 0.046504 0.115212 -0.276520 -0.105415 -0.016295 -0.143296 -0.087134 -0.093675 -0.071462 0.236756 -0.193371 -0.188746 0.105573 -0.363598 0.357961 0.110642 -0.033233 -0.161398 -0.299283 -0.398248 0.415770 0.612852 -0.217467 0.264525 0.094803 -0.251385 -0.040140 0.107245 -0.404991 0.295109 -0.201589 0.291999 -0.296038 -0.339441 -0.284169 0.114267 -0.162062 0.045866 0.300203 -0.137366 -0.214340 0.177731
7 0.191730 -0.117422 0.180878 -0.109892 -0.016115 0.125516 0.201168 -0.076021 -0.104438 -0.016716 -0.006985 -0.065620 0.047279 -0.504132 0.184974 -0.206251 -0.058119 -0.335262 0.034326 -0.162027 0.192722 0.068350 -0.251526 0.220546 0.021005 -0.041891 -0.084321 -0.010460 0.086068 0.248778 -0.079592 -0.039281 -0.272326 0.046781 -0.093098 -0.321739 0.059784 0.129729 0.051973 -0.190538 -0.054647 -0.097300 0.091766 0.308160 -0.095641 0.236113 -0.082183 -0.192925 0.042759 0.149471 -0.122181 0.066272 -0.164285 0.316977 -0.175844 -0.212580 -0.186688 -0.032794 0.257067 -0.085658 0.161876 0.127214 0.149535 -0.030198
3 0.107538 0.037508 0.154500 -0.014660 -0.145110 -0.194552 0.115814 0.112838 -0.021624 -0.113865 0.067296 0.001835 0.221976 -0.642848 0.007276 -0.339690 -0.182994 -0.351612 0.126571 0.013592 0.196412 -0.114266 -0.012135 0.410739 0.200807 0.158055 -0.103389 -0.198982 0.208482 0.120644 -0.230714 -0.139490 -0.406831 -0.079304 -0.152547 -0.428003 0.312921 0.080253 0.006676 -0.223588 -0.067323 -0.241559 0.005601 0.435686 -0.041039 0.176975 0.060753 -0.113056 -0.005929 -0.085247 0.038992 -0.019645 -0.216876 0.019564 -0.029937 0.019652 0.001864 0.024778 -0.011906 0.000249 0.158908 -0.029979 0.246667 0.438129
8 -0.025612 -0.347846 0.123458 -0.244285 0.064016 0.173979 0.117785 -0.008641 0.207683 -0.006781 0.009802 0.100436 -0.070302 -0.291755 0.321253 -0.221243 -0.045370 -0.233554 -0.138411 -0.353494 0.204977 0.159133 -0.092436 0.049011 -0.205609 -0.111548 0.012261 0.027304 -0.090165 0.078340 -0.035639 0.208531 -0.134052 -0.060688 0.107489 -0.278586 0.220725 0.170781 0.007651 -0.070009 -0.194901 -0.141822 0.315244 0.428153 -0.190353 0.334471 0.013698 -0.163011 -0.052212 0.254793 -0.335695 0.231146 -0.086394 0.396004 -0.290209 -0.399600 -0.348402 0.024754 0.074952 -0.124865 0.280211 -0.070664 -0.093818 -0.126032
13 0.002443 -0.327918 0.230853 -0.209656 0.060292 0.200956 0.129416 -0.176943 0.096327 0.205323 -0.064216 0.128626 -0.050244 -0.146431 0.338463 -0.082836 -0.200254 -0.312109 -0.147052 -0.406072 0.370308 0.205182 -0.103368 0.003507 -0.143324 -0.020379 0.102133 0.097995 -0.096179 0.200393 -0.031458 0.202797 -0.035742 -0.018236 0.169065 -0.206689 0.099877 0.217545 -0.042290 -0.047493 -0.211542 0.086410 0.206206 0.236554 -0.128338 0.422014 -0.011833 -0.010706 -0.009174 0.319775 -0.287483 0.203187 -0.042976 0.382606 -0.167516 -0.419726 -0.408600 -0.099300 0.240442 -0.301423 0.383637 0.001672 0.037129 -0.375998
2 0.148195 -0.112889 0.078402 -0.153884 -0.051975 0.009503 0.162940 0.106493 0.019547 -0.119382 0.037440 -0.032652 0.114129 -0.621794 0.132674 -0.352936 0.011923 -0.277920 -0.010639 -0.092796 0.080093 0.005381 -0.132714 0.240502 0.005527 -0.030467 -0.116959 -0.067397 0.147188 0.146435 -0.111670 0.018148 -0.367138 -0.002421 -0.118040 -0.421795 0.209750 0.079747 0.084818 -0.197695 -0.072107 -0.296286 0.139656 0.486490 -0.158962 0.140657 -0.067029 -0.267171 -0.027148 0.084694 -0.171776 0.041192 -0.178342 0.312043 -0.260761 -0.163298 -0.149441 0.098792 0.076578 0.022177 0.120521 -0.004704 0.017909 0.163095
21 0.147564 0.173858 0.322352 0.066806 -0.286647 -0.341886 0.111805 0.020452 -0.177467 -0.009845 -0.010831 -0.012437 0.432545 -0.788844 -0.095766 -0.295558 -0.472964 -0.466384 0.355676 0.109144 0.460377 -0.229592 0.043497 0.622305 0.349569 0.435040 -0.058047 -0.349048 0.262582 0.227674 -0.335923 -0.322943 -0.428661 -0.109824 -0.220804 -0.504529 0.322308 0.092904 -0.064928 -0.347970 -0.118387 -0.099235 -0.235907 0.339802 0.103630 0.324818 0.068245 0.098452 0.153376 -0.243403 0.195095 -0.084348 -0.272236 -0.234303 0.242015 0.168419 0.077980 -0.124562 -0.016796 -0.103966 0.271691 0.054495 0.607707 0.597308
15 0.196172 -0.206231 0.413288 -0.132349 0.102218 0.311011 0.262821 -0.331682 -0.250057 0.139859 -0.081663 -0.122290 0.006201 -0.395730 0.245015 -0.048501 -0.184878 -0.428932 0.104116 -0.321972 0.417946 0.198358 -0.423544 0.194464 -0.081666 0.000756 0.019269 0.080098 0.015580 0.424783 -0.101058 -0.080579 -0.091157 0.145355 -0.014023 -0.279404 -0.129180 0.244522 0.043343 -0.219956 -0.087228 0.123956 0.058793 0.124092 -0.033329 0.415399 -0.188384 -0.108830 0.171398 0.254378 -0.138993 0.127388 -0.188013 0.403873 -0.079035 -0.378744 -0.350381 -0.198181 0.463858 -0.288835 0.303529 0.315158 0.288413 -0.400939
22 0.167588 0.120443 0.252443 0.028676 -0.218259 -0.255903 0.130761 0.042006 -0.175233 -0.074251 0.000839 -0.055250 0.350552 -0.759428 -0.054200 -0.314420 -0.323068 -0.400191 0.289575 0.089335 0.337767 -0.171258 -0.020604 0.537282 0.253372 0.314791 -0.089569 -0.280638 0.253309 0.216082 -0.284696 -0.278171 -0.428070 -0.058357 -0.220382 -0.479229 0.279813 0.068583 -0.020594 -0.320361 -0.060917 -0.176595 -0.163750 0.376821 0.058776 0.255758 0.010574 -0.002460 0.112231 -0.184005 0.120215 -0.080382 -0.256724 -0.105958 0.117043 0.100929 0.054143 -0.054678 0.007282 -0.050231 0.194394 0.070878 0.463288 0.509574
5 0.121002 -0.078604 0.336517 0.026299 0.099760 0.064901 0.163376 -0.147497 -0.084351 -0.080607 0.089293 -0.056085 0.036426 -0.431373 0.100751 -0.158477 -0.236096 -0.400779 0.248860 -0.128472 0.359596 0.059097 -0.320242 0.356910 0.020909 0.032952 -0.088727 -0.104550 0.059970 0.247084 -0.204843 -0.242372 -0.182110 0.018471 -0.094044 -0.281593 0.101412 0.247609 0.029115 -0.169745 0.061041 0.023333 0.085845 0.181045 -0.019954 0.314445 -0.031974 -0.089597 0.123963 -0.002930 0.083067 0.117331 -0.209597 0.112661 0.064206 -0.187927 -0.070384 -0.116877 0.235605 -0.184937 0.183793 0.176484 0.365602 0.086737
11 -0.310477 -0.514954 0.113988 -0.296363 0.109227 0.124339 -0.028202 0.018261 0.518745 0.030699 0.040410 0.356208 -0.130147 0.008223 0.420012 -0.156435 -0.262784 -0.177603 -0.246440 -0.553083 0.387392 0.200022 0.187086 -0.049225 -0.361518 -0.093306 0.127782 -0.049366 -0.280443 -0.124201 -0.014371 0.368711 0.050358 -0.255408 0.333727 -0.157919 0.407974 0.240603 -0.151685 0.045499 -0.355867 -0.046182 0.503771 0.429502 -0.207771 0.526704 0.220867 0.034328 -0.092917 0.252500 -0.417363 0.404835 -0.026141 0.255570 -0.209411 -0.536235 -0.417465 -0.003527 -0.126643 -0.221875 0.515589 -0.245153 -0.154262 -0.131549
14 0.116741 -0.277593 0.367489 -0.171966 0.100242 0.297854 0.206821 -0.298014 -0.143652 0.197837 -0.103400 -0.025416 -0.041883 -0.266905 0.293301 -0.028840 -0.167751 -0.370441 0.007044 -0.378245 0.405784 0.232881 -0.307497 0.097972 -0.118156 0.001223 0.082925 0.125361 -0.059182 0.367516 -0.048915 0.037940 -0.049316 0.111014 0.087391 -0.232962 -0.067818 0.235211 -0.001643 -0.143892 -0.156702 0.130590 0.115497 0.152984 -0.069824 0.430516 -0.116312 -0.058615 0.109271 0.314639 -0.217770 0.157647 -0.128723 0.416790 -0.108585 -0.407592 -0.402594 -0.158498 0.379010 -0.314694 0.329578 0.195706 0.195021 -0.446854
10 -0.254929 -0.480562 0.061199 -0.324889 0.123532 0.147977 0.025365 0.136178 0.507154 -0.205015 0.104511 0.210731 -0.098863 -0.258173 0.334807 -0.249683 -0.072057 -0.126569 -0.183979 -0.492878 0.210233 0.145742 0.082712 0.060543 -0.407250 -0.177247 0.043509 -0.132930 -0.214154 -0.171521 -0.061879 0.297844 -0.074283 -0.242376 0.213276 -0.282447 0.421477 0.179044 -0.095898 -0.108143 -0.348256 -0.319686 0.577259 0.608303 -0.235053 0.409374 0.192027 -0.191880 -0.043434 0.167814 -0.463220 0.430652 -0.157955 0.300202 -0.310608 -0.484947 -0.353449 0.075630 -0.196224 -0.020941 0.421610 -0.179620 -0.264963 0.080530
1 -0.090561 -0.290368 -0.008908 -0.278969 0.010978 0.009657 0.072419 0.274658 0.372258 -0.300149 0.111166 0.066141 0.054886 -0.575461 0.175808 -0.403876 0.081354 -0.145967 -0.099749 -0.242873 0.010995 0.011355 0.027075 0.195641 -0.215403 -0.124719 -0.079373 -0.168581 -0.009824 -0.122817 -0.117817 0.200202 -0.301197 -0.183841 0.009742 -0.442331 0.398670 0.067650 0.025460 -0.212575 -0.249948 -0.513805 0.417121 0.706977 -0.240857 0.169479 0.077653 -0.324774 -0.054641 0.070228 -0.373292 0.262581 -0.228483 0.299668 -0.352718 -0.266464 -0.210733 0.196005 -0.205970 0.137025 0.222267 -0.176884 -0.239849 0.324407
0 0.052907 -0.124617 -0.048323 -0.203395 -0.124977 -0.101792 0.101057 0.296147 0.210229 -0.229508 0.095817 0.032557 0.165863 -0.692804 0.109196 -0.459310 0.079456 -0.216354 -0.106494 -0.070606 -0.052890 -0.084140 0.054067 0.251607 0.015055 -0.017710 -0.122420 -0.185572 0.138347 -0.034226 -0.132870 0.133836 -0.434976 -0.142697 -0.070237 -0.502869 0.390721 0.012355 0.047452 -0.235533 -0.199408 -0.519789 0.213024 0.688582 -0.204380 0.076172 0.040263 -0.328979 -0.105294 0.030279 -0.261241 0.073813 -0.230912 0.240175 -0.302459 -0.095442 -0.131097 0.207798 -0.138686 0.141416 0.145316 -0.181538 -0.131348 0.418250
18 -0.131707 -0.360840 0.003302 -0.250928 -0.193607 -0.098026 -0.019659 0.002564 0.411462 0.574636 -0.119171 0.601988 0.082917 0.116061 0.451253 -0.178058 -0.445314 -0.367809 -0.566225 -0.384706 0.447816 0.130470 0.511184 -0.204006 0.137216 0.215747 0.216437 0.074381 -0.081168 0.088331 0.025549 0.595714 -0.076263 -0.202112 0.403053 -0.224046 0.381528 0.121607 -0.212176 0.153433 -0.480206 0.185979 0.126321 0.333920 -0.206415 0.464032 0.159232 0.269630 -0.273713 0.418257 -0.386748 0.067995 0.172064 0.297787 -0.142286 -0.330487 -0.501524 -0.022394 0.091847 -0.505567 0.624336 -0.486901 -0.055691 -0.397076
17 -0.115265 -0.325823 0.010564 -0.222544 -0.243895 -0.139217 -0.004217 0.004981 0.372725 0.619494 -0.133485 0.611506 0.114170 0.130028 0.421938 -0.162721 -0.459863 -0.396384 -0.585854 -0.360084 0.428401 0.103003 0.553630 -0.215854 0.210739 0.264860 0.228349 0.076309 -0.047241 0.107916 0.018971 0.594173 -0.090394 -0.204553 0.402100 -0.224079 0.378588 0.096820 -0.228698 0.139290 -0.497957 0.186659 0.072311 0.318661 -0.190628 0.426313 0.172054 0.295435 -0.290248 0.426517 -0.367070 0.020910 0.165791 0.262214 -0.103539 -0.286921 -0.499179 -0.008403 0.112905 -0.523317 0.626268 -0.496501 -0.032137 -0.405340
24 0.064728 0.115763 0.390210 0.201359 -0.068822 -0.307448 0.053402 -0.022194 -0.011850 -0.050801 0.157191 0.089821 0.254111 -0.515158 -0.052209 -0.245770 -0.535003 -0.512765 0.385759 0.050325 0.522871 -0.139794 -0.043777 0.575396 0.305137 0.338762 -0.096024 -0.311198 0.167744 0.178787 -0.375346 -0.376948 -0.302978 -0.149427 -0.131626 -0.352845 0.380680 0.240586 -0.063797 -0.169830 0.052462 0.061488 -0.067124 0.222776 0.079751 0.358438 0.142838 0.132661 0.094812 -0.252998 0.343568 0.012754 -0.238762 -0.247944 0.342825 0.089635 0.142915 -0.139073 0.039377 -0.233682 0.262305 0.005026 0.640202 0.529889
23 0.179119 0.194682 0.404682 0.146844 -0.232312 -0.313608 0.112701 -0.072562 -0.222211 0.049734 -0.002015 0.009275 0.407141 -0.706977 -0.095270 -0.225104 -0.580292 -0.534667 0.425529 0.116876 0.569712 -0.201364 -0.033113 0.645576 0.388086 0.464614 -0.067992 -0.338036 0.240267 0.310832 -0.360762 -0.396875 -0.378534 -0.086590 -0.218958 -0.455240 0.274409 0.152079 -0.083859 -0.307593 -0.044599 0.057207 -0.262612 0.218965 0.151539 0.381466 0.051891 0.180259 0.175558 -0.246241 0.298713 -0.094972 -0.256728 -0.270673 0.353304 0.146025 0.090460 -0.191765 0.099902 -0.235600 0.298212 0.101531 0.753554 0.507423
