17 64
4 -0.104474 -0.201765 -0.082451 -0.117907 0.135686 -0.087341 0.144213 0.155754 0.189760 -0.204337 0.260746 0.246238 -0.049577 -0.369699 0.081714 -0.423960 0.036103 -0.278988 -0.053650 -0.022522 -0.036468 0.204911 -0.056032 0.128432 0.154463 -0.102866 -0.120616 -0.126264 0.114880 0.026156 -0.137131 0.002470 -0.369414 0.123865 0.053382 -0.376209 0.193900 0.073873 0.033456 -0.075143 -0.148405 -0.332571 0.247330 0.398807 -0.316322 -0.105026 -0.003767 -0.397786 -0.085682 -0.045427 -0.094198 0.095872 -0.084154 0.157428 -0.159674 -0.166282 -0.004594 0.146178 -0.029558 -0.050530 0.080629 -0.231674 -0.050789 0.242863
3 -0.103374 -0.215227 -0.069417 -0.110847 0.062144 -0.047660 0.122265 0.082667 0.170232 -0.133975 0.246898 0.221810 -0.096397 -0.289284 0.094795 -0.311422 -0.014014 -0.172890 -0.029085 -0.063411 -0.007277 0.177235 -0.031654 0.086260 0.044373 -0.100187 -0.056137 -0.098489 0.076345 0.026567 -0.108098 0.013120 -0.317213 0.101343 0.042660 -0.283277 0.246582 0.111149 0.013759 0.006673 -0.102427 -0.272285 0.224090 0.355739 -0.255901 0.052889 0.071034 -0.330165 -0.120372 -0.051937 -0.118068 0.115655 -0.030177 0.085926 -0.194666 -0.192009 -0.038759 0.052539 -0.062710 -0.019714 0.074241 -0.154368 -0.108727 0.264818
9 -0.115375 -0.180219 -0.053807 -0.095141 -0.028679 0.041274 0.033082 -0.015345 0.197139 -0.005681 0.176224 0.258523 -0.159612 -0.150943 0.155443 -0.096208 -0.174871 -0.026425 -0.029435 -0.149585 0.077368 0.208853 0.050674 -0.078926 -0.112458 -0.023619 -0.003692 -0.049211 -0.046131 0.028333 -0.046923 0.097676 -0.225969 -0.032722 0.091512 -0.110593 0.362366 0.154485 -0.107337 0.199585 -0.130398 -0.147146 0.271339 0.336485 -0.107402 0.280238 0.200481 -0.190458 -0.221852 -0.076526 -0.150620 0.151023 0.051651 0.058275 -0.186531 -0.242788 -0.139377 -0.150893 -0.037534 -0.093725 0.180833 -0.067979 -0.158975 0.205151
8 -0.119381 -0.187045 0.003927 -0.106599 -0.033339 0.080348 0.028396 -0.053295 0.173154 0.032885 0.105749 0.257321 -0.182983 -0.091734 0.201553 -0.069951 -0.189611 -0.050626 -0.038496 -0.194607 0.128677 0.223672 0.051573 -0.082086 -0.115383 0.004768 0.015924 0.002669 -0.102453 0.015992 -0.047037 0.120909 -0.189368 -0.050269 0.103441 -0.073914 0.354418 0.128516 -0.111284 0.195847 -0.168392 -0.078125 0.275844 0.330002 -0.045014 0.321351 0.205800 -0.119867 -0.230022 -0.010637 -0.138813 0.146100 0.077922 0.096522 -0.188578 -0.246670 -0.184160 -0.165241 -0.029485 -0.129189 0.208904 -0.094907 -0.115376 0.121864
7 -0.134410 -0.160297 0.143148 -0.234249 0.077183 0.150399 0.085842 -0.065712 0.080467 -0.013679 -0.096755 0.274247 -0.129296 -0.112675 0.278731 -0.231436 -0.096747 -0.332994 -0.218262 -0.288152 0.173388 0.331325 0.044423 0.098653 0.074440 0.042583 -0.050113 0.060421 -0.192689 -0.045829 -0.066338 0.218253 -0.232386 -0.052238 0.176992 -0.169056 0.142760 -0.090115 -0.073284 -0.084854 -0.418984 -0.003946 0.292201 0.375852 -0.004355 0.081840 0.053941 -0.030352 -0.167394 0.219198 -0.046767 0.088544 -0.039330 0.346632 -0.111435 -0.194147 -0.253721 0.064696 0.023625 -0.185479 0.244645 -0.299091 0.110197 -0.203721
14 -0.167079 -0.191132 0.242648 -0.311313 0.061005 0.221581 0.049645 -0.167340 0.052174 0.068098 -0.233188 0.307820 -0.161935 0.014070 0.361888 -0.170687 -0.170690 -0.336721 -0.262323 -0.403738 0.294068 0.397065 0.086261 0.090944 -0.021677 0.105653 0.009887 0.155011 -0.323724 -0.099073 -0.049525 0.310997 -0.180358 -0.108618 0.236106 -0.084612 0.153802 -0.136575 -0.090429 -0.073024 -0.497348 0.122105 0.312625 0.375164 0.113882 0.188210 0.074862 0.129881 -0.215346 0.315086 -0.053719 0.097971 0.015029 0.403145 -0.121796 -0.229486 -0.354135 0.054547 0.001085 -0.243668 0.307347 -0.354904 0.158218 -0.375377
5 -0.096514 -0.263211 -0.102777 -0.140668 0.146500 -0.116517 0.186640 0.141121 0.208055 -0.226057 0.283142 0.247170 -0.051191 -0.378255 0.077308 -0.473131 0.052734 -0.292978 -0.040408 -0.009140 -0.025690 0.197802 -0.085111 0.194113 0.148782 -0.143971 -0.097969 -0.145284 0.130152 0.005930 -0.162948 -0.014194 -0.395228 0.170691 0.037112 -0.414093 0.172925 0.069323 0.071370 -0.129815 -0.106442 -0.350463 0.216573 0.386671 -0.362001 -0.106857 -0.020643 -0.414086 -0.044413 -0.045468 -0.122995 0.129576 -0.061189 0.125549 -0.182853 -0.169685 0.031367 0.180979 -0.052642 -0.023905 0.039688 -0.254622 -0.064068 0.282471
10 -0.109167 -0.225855 -0.153514 -0.031801 -0.087331 0.010433 0.018594 -0.010790 0.284554 0.000910 0.332705 0.283850 -0.215094 -0.151701 0.120048 -0.007569 -0.230630 0.132080 0.067051 -0.110472 0.074277 0.156209 0.047228 -0.148910 -0.230404 -0.076038 0.045807 -0.101260 0.006780 0.049322 -0.057185 0.027509 -0.234362 -0.011155 0.033004 -0.079612 0.520981 0.285482 -0.144473 0.342956 0.002587 -0.216445 0.307204 0.357426 -0.142519 0.463640 0.330587 -0.276196 -0.250700 -0.223367 -0.220504 0.216697 0.137069 -0.095128 -0.271162 -0.285519 -0.088770 -0.302424 -0.084507 -0.047948 0.182873 0.038805 -0.322454 0.435472
11 -0.138229 -0.288421 -0.153024 -0.044531 -0.157609 0.014703 -0.039085 -0.070820 0.328738 0.069095 0.349656 0.313527 -0.262022 -0.070247 0.172896 0.073104 -0.347189 0.246964 0.117838 -0.169121 0.152996 0.155284 0.082020 -0.237257 -0.403991 -0.068325 0.104491 -0.066732 -0.045474 0.020869 -0.029282 0.065506 -0.195666 -0.072500 0.051907 0.021827 0.654638 0.380234 -0.155495 0.501684 0.074779 -0.167098 0.327104 0.351263 -0.101906 0.673206 0.417665 -0.218061 -0.338808 -0.264263 -0.284318 0.265959 0.232173 -0.168755 -0.343479 -0.365778 -0.131731 -0.408429 -0.130608 -0.051763 0.220471 0.083238 -0.389109 0.495450
2 -0.084720 -0.262742 -0.089089 -0.165044 0.097520 -0.090998 0.176162 0.128555 0.164778 -0.197174 0.272240 0.250381 -0.046310 -0.367517 0.084029 -0.454751 0.034261 -0.244188 -0.050486 -0.035098 -0.020625 0.190261 -0.050935 0.174608 0.076631 -0.135921 -0.082616 -0.125016 0.125956 -0.000125 -0.131547 -0.001337 -0.401175 0.172907 0.019472 -0.370787 0.211221 0.059833 0.087552 -0.113160 -0.102913 -0.324466 0.219077 0.389784 -0.341461 -0.052110 -0.012297 -0.400092 -0.073859 -0.050487 -0.124684 0.098917 -0.041956 0.129036 -0.234633 -0.176463 0.013100 0.186619 -0.097742 0.019799 0.029972 -0.229291 -0.094405 0.264698
13 -0.120633 -0.236573 -0.054177 -0.069827 -0.145598 0.074398 -0.026754 -0.124319 0.247662 0.124102 0.205341 0.276760 -0.255626 -0.029368 0.215143 0.094600 -0.340208 0.152856 0.058857 -0.231760 0.192451 0.187192 0.066839 -0.217000 -0.338538 -0.017050 0.117032 0.008174 -0.105384 0.027555 -0.031364 0.111969 -0.159908 -0.101096 0.081592 0.039472 0.566971 0.305868 -0.168487 0.421423 -0.021646 -0.066905 0.312520 0.324913 -0.017586 0.626551 0.380797 -0.115845 -0.330230 -0.128157 -0.234350 0.235442 0.207891 -0.060629 -0.292653 -0.342678 -0.203193 -0.387939 -0.062878 -0.121329 0.258033 0.045057 -0.291976 0.293885
6 -0.125103 -0.179704 0.073124 -0.192908 0.131712 0.059884 0.125594 0.029794 0.117640 -0.101298 0.011301 0.258347 -0.092054 -0.217688 0.205893 -0.337777 -0.025958 -0.355417 -0.167917 -0.186565 0.088408 0.293130 0.000027 0.133194 0.146242 -0.008633 -0.084871 -0.016513 -0.083075 -0.013639 -0.101011 0.135665 -0.277906 0.023070 0.145738 -0.271574 0.121198 -0.053574 -0.031763 -0.129976 -0.342687 -0.121910 0.270591 0.375127 -0.137207 -0.043426 0.002876 -0.164371 -0.104063 0.150730 -0.054437 0.089530 -0.081437 0.304032 -0.093386 -0.175341 -0.159352 0.133441 0.012579 -0.155179 0.176483 -0.301757 0.085528 -0.073363
12 -0.134775 -0.260153 -0.108260 -0.049384 -0.177324 0.055144 -0.038133 -0.118039 0.267938 0.116497 0.307381 0.310593 -0.278121 -0.035802 0.193949 0.123410 -0.359252 0.216893 0.099752 -0.214610 0.169262 0.174835 0.080214 -0.249095 -0.380411 -0.052794 0.123119 -0.029051 -0.068238 0.032185 -0.023366 0.080103 -0.194006 -0.078058 0.056290 0.054639 0.622128 0.355705 -0.178590 0.477961 0.024765 -0.114960 0.336033 0.336322 -0.048912 0.689345 0.431048 -0.180942 -0.353733 -0.208782 -0.256520 0.253168 0.222886 -0.142057 -0.338850 -0.361813 -0.164349 -0.428593 -0.089287 -0.076269 0.257618 0.092956 -0.368520 0.416624
1 -0.107508 -0.298588 -0.069599 -0.208790 0.166238 -0.136203 0.209317 0.159399 0.179268 -0.255230 0.265362 0.250591 -0.007814 -0.413380 0.078401 -0.572599 0.101766 -0.359184 -0.066448 -0.022467 -0.024559 0.206473 -0.088555 0.270114 0.162583 -0.153213 -0.103003 -0.129820 0.146304 -0.035705 -0.179500 0.004976 -0.438256 0.209201 0.029832 -0.467947 0.123062 0.013704 0.147813 -0.235139 -0.139966 -0.373957 0.207457 0.412228 -0.393933 -0.181763 -0.095436 -0.428834 -0.020989 -0.000632 -0.122437 0.108482 -0.087116 0.177570 -0.222074 -0.155931 0.037102 0.305277 -0.096730 0.019269 0.016267 -0.327330 -0.040617 0.239747
0 -0.102532 -0.311365 -0.061145 -0.236600 0.144954 -0.117032 0.216040 0.140634 0.147274 -0.251597 0.272847 0.255216 -0.008886 -0.407095 0.096710 -0.588378 0.108127 -0.361546 -0.087706 -0.037101 -0.025013 0.204173 -0.086259 0.288979 0.132797 -0.161243 -0.095080 -0.131561 0.136517 -0.052837 -0.166869 0.010921 -0.449871 0.219937 0.032591 -0.464549 0.139535 0.006365 0.170407 -0.254883 -0.145260 -0.367599 0.194090 0.418518 -0.390441 -0.158384 -0.101432 -0.431648 -0.040045 0.010224 -0.119875 0.088897 -0.083574 0.168545 -0.247888 -0.162987 0.025766 0.333000 -0.125698 0.043390 0.003714 -0.336696 -0.038865 0.231821
16 -0.189935 -0.200636 0.291347 -0.358351 0.079818 0.260311 0.075461 -0.190838 0.041310 0.068968 -0.289109 0.347890 -0.178588 0.018864 0.424110 -0.220339 -0.190719 -0.431517 -0.330658 -0.472732 0.326913 0.461308 0.102071 0.117029 0.016084 0.122180 -0.004562 0.174189 -0.371162 -0.124841 -0.065386 0.362987 -0.208681 -0.133107 0.276847 -0.100679 0.146986 -0.190571 -0.102196 -0.127961 -0.598253 0.157160 0.356380 0.420593 0.137830 0.169278 0.064056 0.157824 -0.239826 0.390764 -0.033102 0.100254 -0.003321 0.491431 -0.117730 -0.249967 -0.405412 0.086184 0.021578 -0.287772 0.357047 -0.424079 0.207635 -0.475021
15 -0.183314 -0.214689 0.247268 -0.340739 0.083986 0.222330 0.077884 -0.165515 0.061409 0.037785 -0.223098 0.326147 -0.154292 -0.007395 0.376548 -0.232232 -0.166867 -0.390379 -0.291184 -0.415148 0.298806 0.421623 0.082794 0.126055 0.000176 0.095319 -0.013263 0.140311 -0.317287 -0.120955 -0.071041 0.323847 -0.204237 -0.099245 0.245540 -0.122291 0.136359 -0.158569 -0.066129 -0.113514 -0.528629 0.103648 0.319293 0.398558 0.094353 0.155860 0.040182 0.105680 -0.209844 0.323187 -0.053434 0.102406 -0.000913 0.433207 -0.130469 -0.241256 -0.357644 0.086911 0.004089 -0.238563 0.315980 -0.386308 0.174996 -0.390798
