18 64
6 0.075807 -0.372275 -0.035163 0.182932 0.029132 0.085477 0.452429 0.299028 0.426787 -0.179169 0.292753 0.196976 -0.246593 -0.502955 0.478629 -0.519746 -0.005151 -0.642760 0.030592 -0.131792 0.077838 -0.048089 -0.263308 0.019826 0.572391 -0.253392 -0.252537 -0.232470 0.074281 0.160747 -0.240368 -0.133337 -0.210850 -0.005008 -0.106972 -0.460899 0.389003 0.226143 -0.042821 -0.121037 -0.268568 -0.166899 0.415138 0.500577 -0.380846 0.242351 0.164774 -0.576895 0.097676 0.242460 -0.183373 0.287105 0.019212 0.357167 -0.276347 -0.289695 -0.145501 -0.279533 0.315847 -0.263153 0.365149 -0.195437 0.112177 0.374012
12 -0.376627 -0.234564 0.231569 -0.291976 -0.107368 0.059592 0.024762 -0.283469 0.143460 0.169699 0.075161 0.370662 -0.034428 0.269806 0.085211 0.113178 -0.448975 -0.130828 -0.296787 -0.417976 0.328591 0.265747 0.301919 -0.103994 -0.422653 0.121476 0.074399 0.098577 -0.064033 -0.124726 -0.044293 0.308953 0.025415 -0.170833 0.179734 0.027908 0.284484 0.144814 -0.028542 0.256838 -0.232204 -0.058791 0.167722 0.237446 0.092644 0.346948 0.140207 0.212474 -0.364740 0.008615 -0.146620 0.079347 0.034458 -0.061265 -0.131939 -0.454482 -0.427354 0.001171 -0.024097 -0.093187 0.357087 0.012289 -0.099204 -0.315165
15 -0.430970 -0.277867 0.363930 -0.216779 -0.189356 0.135833 0.121216 -0.344459 0.196934 0.254903 0.062613 0.362955 -0.074798 0.414681 0.214475 0.172481 -0.547957 -0.317641 -0.338522 -0.519103 0.426855 0.187639 0.301931 -0.205007 -0.320631 0.156520 0.014315 0.136618 -0.080667 -0.145352 -0.110378 0.345522 0.210006 -0.290347 0.146261 0.066829 0.298626 0.185574 0.002298 0.321913 -0.323861 0.029973 0.143042 0.225158 0.210294 0.479833 0.139008 0.294660 -0.393438 0.135404 -0.143789 0.092603 0.071198 -0.037165 -0.146323 -0.546340 -0.595460 -0.160669 0.154990 -0.181787 0.534052 0.058414 0.003381 -0.441362
4 0.003998 -0.308757 -0.064375 0.002876 0.088567 0.008210 0.276086 0.202567 0.310616 -0.196335 0.276568 0.219781 -0.147026 -0.418641 0.282469 -0.449568 -0.000975 -0.410982 -0.012575 -0.098876 0.078520 0.069377 -0.173709 0.117047 0.269615 -0.204686 -0.143414 -0.172565 0.073951 0.067916 -0.174112 -0.078646 -0.280863 0.067990 -0.028356 -0.396651 0.324419 0.176858 -0.003913 -0.101356 -0.161289 -0.229772 0.342547 0.443107 -0.342821 0.141532 0.114369 -0.465517 0.015362 0.082602 -0.157073 0.209746 0.005057 0.228195 -0.250899 -0.243782 -0.063491 -0.068281 0.095704 -0.130724 0.217602 -0.201944 0.014802 0.311614
2 -0.082869 -0.243035 -0.114097 -0.252503 0.129516 -0.025664 0.091297 0.082659 0.186092 -0.194322 0.220120 0.301670 -0.039612 -0.357814 0.047920 -0.351417 -0.073132 -0.065794 -0.132898 -0.119563 0.065910 0.271340 0.036139 0.187070 -0.184798 -0.120773 -0.003887 -0.144515 0.043716 0.001109 -0.048448 0.044741 -0.392616 0.130835 0.104046 -0.302606 0.315300 0.092619 -0.034321 -0.058957 -0.105435 -0.287826 0.314374 0.409952 -0.328039 0.069670 0.096176 -0.326801 -0.095805 -0.134847 -0.165661 0.133400 -0.036908 0.121551 -0.206661 -0.241698 -0.025175 0.165901 -0.208203 0.027648 0.052924 -0.160495 -0.172852 0.188357
9 -0.198453 -0.189708 -0.017810 -0.323334 0.041515 0.020386 -0.001753 -0.080359 0.157922 -0.040351 0.109424 0.336176 -0.006711 -0.110918 -0.002653 -0.114700 -0.241501 0.050846 -0.230875 -0.221094 0.137471 0.325410 0.214346 0.053391 -0.403869 0.027161 0.059318 -0.060578 -0.040720 -0.047294 0.007561 0.207724 -0.239587 -0.006367 0.190501 -0.135910 0.304912 0.072600 -0.081757 0.096671 -0.164206 -0.200151 0.244434 0.328448 -0.145923 0.154210 0.112055 -0.064428 -0.220348 -0.151530 -0.174878 0.099360 -0.027412 0.041302 -0.121344 -0.300039 -0.182995 0.125412 -0.212552 -0.001305 0.122761 -0.071506 -0.205901 -0.045108
11 -0.321960 -0.216081 0.111226 -0.382627 -0.012011 0.007648 -0.043269 -0.221016 0.137380 0.059669 0.076896 0.373597 0.007398 0.120840 0.001974 0.007488 -0.370255 0.015594 -0.292899 -0.341826 0.269559 0.336030 0.291850 0.019449 -0.535451 0.081738 0.114322 0.046021 -0.067858 -0.139494 -0.003477 0.291210 -0.125208 -0.088071 0.223146 -0.031839 0.302692 0.107403 -0.041314 0.181740 -0.159041 -0.137167 0.199474 0.275567 -0.017107 0.244768 0.128186 0.134657 -0.330885 -0.101344 -0.162633 0.085623 0.013301 -0.048568 -0.129470 -0.389227 -0.293537 0.140938 -0.197747 -0.015622 0.209979 -0.052811 -0.178196 -0.213096
3 -0.031680 -0.267024 -0.079101 -0.091318 0.106121 -0.001356 0.222135 0.164933 0.248586 -0.206142 0.257637 0.236265 -0.117952 -0.420846 0.173694 -0.423127 -0.003357 -0.281060 -0.077884 -0.108089 0.042104 0.147027 -0.088050 0.166114 0.110062 -0.177800 -0.085368 -0.165501 0.079441 0.060284 -0.132737 -0.042472 -0.341809 0.107577 0.017515 -0.381831 0.334765 0.141597 -0.023175 -0.095598 -0.143690 -0.275031 0.335233 0.449868 -0.349936 0.097581 0.125179 -0.425559 -0.035864 0.008802 -0.143693 0.170324 -0.033802 0.190994 -0.231375 -0.240553 -0.053941 0.035750 -0.040318 -0.051722 0.127510 -0.179686 -0.075269 0.277547
10 -0.305698 -0.207221 0.047250 -0.425417 0.025866 0.017420 -0.058978 -0.201909 0.131543 0.011368 0.097733 0.399896 0.011804 0.051554 -0.053847 -0.013216 -0.334576 0.104677 -0.303384 -0.305003 0.227766 0.389739 0.310015 0.065611 -0.592709 0.074210 0.129351 0.003563 -0.066574 -0.127531 0.013558 0.280752 -0.202425 -0.024881 0.234733 -0.064434 0.312189 0.069489 -0.069741 0.151214 -0.166226 -0.192635 0.228748 0.314459 -0.058517 0.213720 0.131772 0.075329 -0.309644 -0.181112 -0.175171 0.083331 -0.004544 -0.045036 -0.131330 -0.359793 -0.244350 0.178003 -0.283441 0.031091 0.152717 -0.057118 -0.245747 -0.165687
13 -0.319529 -0.204562 0.183964 -0.314824 -0.080309 0.039901 0.008011 -0.262631 0.139554 0.145513 0.049830 0.338785 -0.006738 0.200603 0.055370 0.082827 -0.410780 -0.081488 -0.292147 -0.375978 0.302111 0.270588 0.269672 -0.060114 -0.446811 0.112825 0.101777 0.084384 -0.065807 -0.120279 -0.037496 0.302832 -0.020457 -0.151640 0.189441 -0.003638 0.284364 0.131028 -0.037311 0.207995 -0.196135 -0.075182 0.158036 0.239227 0.060336 0.299135 0.130441 0.192034 -0.337658 -0.011661 -0.156239 0.086499 0.034732 -0.044194 -0.117384 -0.409794 -0.379884 0.035007 -0.060427 -0.087913 0.300593 -0.011140 -0.125953 -0.293550
0 -0.123888 -0.267290 -0.125965 -0.330146 0.167289 -0.067096 0.052759 0.045124 0.184230 -0.230313 0.268019 0.312483 -0.016193 -0.346238 0.014196 -0.383193 -0.034677 -0.060166 -0.146227 -0.105485 0.073134 0.297805 0.009156 0.274576 -0.248775 -0.137429 0.035980 -0.146203 0.042157 -0.065997 -0.068336 0.058702 -0.430847 0.162801 0.142943 -0.350048 0.300909 0.105099 0.012501 -0.096038 -0.077160 -0.359545 0.281154 0.428591 -0.340519 0.039388 0.072986 -0.334240 -0.124587 -0.163626 -0.176646 0.139657 -0.046698 0.053116 -0.215700 -0.239556 0.000558 0.255295 -0.276846 0.061566 0.019728 -0.221738 -0.187823 0.222048
1 -0.070836 -0.329065 -0.145332 -0.249915 0.201334 -0.098289 0.155007 0.142981 0.268182 -0.296502 0.320499 0.286703 -0.056876 -0.467214 0.095209 -0.524208 0.051726 -0.226005 -0.079376 -0.069296 0.063810 0.230233 -0.119643 0.333099 -0.028110 -0.219775 -0.015667 -0.178906 0.087310 -0.046646 -0.157432 -0.021732 -0.475425 0.197534 0.069926 -0.473954 0.306816 0.127876 0.046514 -0.190162 -0.080003 -0.400687 0.327274 0.497053 -0.425825 0.014227 0.073956 -0.468701 -0.037764 -0.082153 -0.189810 0.204608 -0.032862 0.126193 -0.272403 -0.220796 0.047977 0.219417 -0.194407 0.023120 0.046824 -0.301099 -0.138532 0.350654
5 -0.026306 -0.351119 -0.127780 -0.129845 0.169621 -0.071606 0.245035 0.178280 0.316299 -0.285842 0.342587 0.261773 -0.113593 -0.473309 0.204688 -0.549653 0.059024 -0.373792 -0.045332 -0.065400 0.073133 0.146550 -0.198912 0.289694 0.162342 -0.254430 -0.080635 -0.197449 0.093457 -0.008968 -0.199736 -0.074836 -0.419745 0.160995 0.017293 -0.496441 0.325000 0.167156 0.042675 -0.190198 -0.099222 -0.355664 0.331994 0.499991 -0.424264 0.061244 0.095760 -0.511632 -0.002920 0.009908 -0.178439 0.230634 -0.004874 0.159674 -0.278077 -0.233503 0.022274 0.103736 -0.048168 -0.057501 0.118175 -0.302595 -0.049322 0.387801
14 -0.264184 -0.205651 0.077151 -0.333711 -0.006753 0.034775 -0.016393 -0.173325 0.134068 0.047585 0.074023 0.346561 -0.009391 0.042662 0.014879 -0.010991 -0.314112 0.016317 -0.248216 -0.292609 0.217712 0.318556 0.250164 0.005776 -0.444874 0.071825 0.085889 0.014246 -0.066351 -0.077384 0.004716 0.254778 -0.142952 -0.055732 0.198196 -0.061483 0.274722 0.089138 -0.062016 0.154631 -0.182296 -0.137292 0.203917 0.278386 -0.048623 0.224137 0.115407 0.063015 -0.269262 -0.097476 -0.170172 0.088978 -0.001613 -0.003426 -0.118741 -0.348385 -0.268382 0.097789 -0.164413 -0.028794 0.191654 -0.042660 -0.167038 -0.162891
8 0.090299 -0.389369 -0.047331 0.179125 0.029990 0.085006 0.468320 0.318056 0.447993 -0.191872 0.295754 0.202536 -0.253455 -0.539379 0.497239 -0.558563 0.011587 -0.655618 0.034538 -0.120697 0.074166 -0.046984 -0.278068 0.033470 0.590071 -0.259219 -0.262513 -0.237891 0.071359 0.162730 -0.249826 -0.132854 -0.235450 0.003044 -0.114456 -0.491174 0.411477 0.222145 -0.033514 -0.128217 -0.274221 -0.182346 0.423167 0.535332 -0.399636 0.244954 0.162077 -0.603257 0.100538 0.247866 -0.197817 0.294796 0.031328 0.381272 -0.298554 -0.287345 -0.144854 -0.277920 0.308610 -0.265905 0.356942 -0.223393 0.112078 0.402192
7 0.074336 -0.324884 -0.060077 0.121140 0.037504 0.066705 0.385204 0.272248 0.381741 -0.181489 0.259377 0.190517 -0.203100 -0.486898 0.400866 -0.481694 0.004208 -0.533769 0.005221 -0.112268 0.062528 -0.014775 -0.219437 0.055294 0.465389 -0.232881 -0.216918 -0.214571 0.065808 0.133210 -0.198935 -0.103666 -0.239648 0.009029 -0.086018 -0.426804 0.357447 0.185124 -0.042824 -0.120818 -0.233935 -0.175953 0.383903 0.473419 -0.361677 0.197278 0.150742 -0.523741 0.079961 0.184889 -0.172626 0.256693 0.010660 0.325541 -0.259063 -0.249481 -0.109469 -0.207813 0.234641 -0.201899 0.294766 -0.187477 0.069735 0.347201
16 -0.467057 -0.255991 0.393243 -0.248257 -0.217429 0.121068 0.094571 -0.384732 0.179756 0.302453 0.028939 0.393086 -0.063281 0.483073 0.187564 0.226898 -0.600725 -0.293784 -0.382772 -0.559094 0.440769 0.214005 0.369214 -0.232753 -0.391409 0.196046 0.054089 0.169541 -0.093438 -0.163231 -0.096559 0.392198 0.216195 -0.324332 0.175428 0.107720 0.325034 0.177977 -0.022006 0.346574 -0.331483 0.044972 0.142231 0.218806 0.245299 0.479604 0.167648 0.378894 -0.452479 0.144844 -0.134181 0.076921 0.072878 -0.065626 -0.123123 -0.564471 -0.630567 -0.122332 0.131320 -0.196780 0.543514 0.055977 -0.023935 -0.515004
17 -0.483070 -0.266706 0.430818 -0.226424 -0.256117 0.138935 0.115998 -0.400831 0.202617 0.346769 0.021408 0.405180 -0.068386 0.526563 0.211796 0.268833 -0.637761 -0.333643 -0.398812 -0.585895 0.468413 0.191477 0.387021 -0.280089 -0.375974 0.220751 0.042875 0.183426 -0.099502 -0.149886 -0.099884 0.412537 0.270912 -0.363914 0.168919 0.117892 0.342124 0.198972 -0.028495 0.385145 -0.362048 0.062305 0.134064 0.223193 0.273629 0.522152 0.180159 0.415300 -0.468533 0.177713 -0.147772 0.076808 0.082876 -0.069313 -0.117982 -0.599159 -0.695450 -0.162768 0.183322 -0.233924 0.596271 0.076051 -0.001108 -0.559413
