23 64
9 -0.109591 -0.144569 0.027787 -0.000637 -0.296306 -0.112876 0.220651 0.037731 0.059319 0.058092 -0.028478 0.230530 0.055639 -0.061009 0.112278 -0.094492 -0.250617 -0.154371 -0.047940 -0.039132 0.196080 -0.050028 0.280559 -0.056760 0.121133 0.215219 0.022173 -0.154869 0.009769 -0.003860 -0.013064 -0.069681 0.004834 -0.043502 0.009591 -0.113911 0.350723 -0.009525 -0.130759 0.014912 -0.319670 -0.089212 -0.111780 0.210614 -0.017154 0.203291 0.199719 0.042763 0.032357 -0.092464 -0.136274 -0.030375 0.156426 -0.210943 0.023039 -0.064842 -0.138606 -0.148203 -0.130002 -0.065549 0.195438 -0.050742 0.193608 0.172851
20 -0.203127 -0.141022 0.025116 -0.045301 -0.675220 -0.469702 0.352443 0.061801 -0.232329 0.127790 -0.136667 -0.148359 0.388570 -0.386164 -0.018037 -0.095292 -0.199851 0.030578 0.208768 -0.088887 0.279523 -0.250188 0.272084 0.012687 0.171078 0.340478 0.351883 -0.169266 0.179244 -0.038655 -0.065121 -0.243605 -0.016358 0.065987 -0.042782 -0.210242 0.438923 -0.034646 -0.120196 -0.231847 -0.445664 -0.285392 -0.561712 0.184501 -0.066201 0.241242 0.248691 0.113992 0.284406 -0.262893 -0.381580 0.057683 0.316289 -0.571155 -0.117921 0.054272 -0.040003 -0.388630 -0.446213 0.234475 0.211324 0.170732 0.236708 0.541464
15 -0.074145 -0.211979 0.125138 -0.072769 -0.268298 -0.060502 0.155631 -0.055481 0.230740 0.212845 -0.123307 0.525514 0.048885 0.219890 0.132209 -0.052148 -0.441916 -0.332032 -0.203930 0.051578 0.351089 -0.065876 0.492744 -0.072600 0.121130 0.399933 -0.044429 -0.104621 -0.019349 -0.035338 -0.031605 0.102109 0.114614 -0.140283 0.015205 -0.120307 0.242954 -0.034084 -0.074570 0.124745 -0.358697 0.013934 -0.108588 0.198326 0.128436 0.277787 0.151748 0.182001 -0.048431 0.010956 -0.120145 -0.162805 0.140053 -0.149102 0.154436 -0.032002 -0.296329 -0.015143 0.025016 -0.265904 0.297359 -0.249159 0.262620 -0.078867
10 -0.138430 -0.197422 0.010178 0.020140 -0.135484 -0.003677 0.226635 0.127920 0.096500 -0.091917 0.162728 0.270394 -0.114242 -0.159576 0.206577 -0.218589 -0.128640 -0.203079 -0.058626 -0.152180 0.141863 0.039858 0.125361 0.011706 0.102596 -0.035517 -0.049812 -0.158774 -0.007141 0.020112 0.002677 -0.154327 -0.116952 0.049042 -0.009038 -0.138779 0.472914 0.092105 -0.118816 0.018933 -0.260252 -0.096388 0.185645 0.327528 -0.179303 0.231546 0.270088 -0.159132 -0.026098 -0.036560 -0.043969 0.037059 0.121294 -0.071994 -0.145185 -0.206604 -0.090126 -0.082040 -0.181211 -0.015524 0.164626 -0.081445 0.124031 0.240292
14 -0.142408 -0.361481 0.289344 -0.322369 -0.068129 -0.042519 -0.073818 -0.082188 0.281528 0.257141 -0.082740 0.569109 -0.008681 0.176322 0.131845 -0.142740 -0.321841 -0.381764 -0.171452 -0.106116 0.421456 0.001838 0.360284 0.114977 -0.084898 0.231031 0.068121 0.125074 -0.039185 -0.067482 -0.001273 0.255445 -0.007904 -0.073999 0.055476 -0.189855 0.118039 0.170281 0.147555 0.123203 -0.237747 0.023690 0.149585 0.239797 -0.022277 0.338733 0.135435 0.094832 -0.166407 0.248760 -0.141880 -0.078915 -0.007304 0.047168 -0.067030 -0.154354 -0.370363 0.308412 -0.075801 -0.192170 0.253233 -0.439719 0.118664 -0.143904
5 -0.109277 -0.185726 -0.086265 0.151194 -0.134180 0.033108 0.337180 0.211633 0.114281 -0.185812 0.264732 0.323794 -0.196382 -0.230299 0.292582 -0.305532 -0.123435 -0.265131 -0.090975 -0.114751 0.081617 0.063726 0.107406 -0.029421 0.250372 -0.094811 -0.175242 -0.278880 -0.000540 0.093059 0.022132 -0.267590 -0.162826 0.077609 -0.015005 -0.162653 0.612273 0.094854 -0.210526 0.063224 -0.280204 -0.106819 0.226941 0.392366 -0.255363 0.221661 0.321489 -0.264698 -0.030693 -0.093663 0.013823 0.012750 0.157513 -0.073696 -0.121498 -0.247908 -0.044183 -0.164501 -0.137677 -0.062353 0.157266 -0.056825 0.205291 0.342243
8 -0.112398 -0.116886 -0.072102 0.137588 -0.499241 -0.235438 0.407065 0.143772 -0.077052 0.007598 0.000476 0.062396 0.136478 -0.308863 0.122348 -0.148528 -0.197897 -0.086371 0.099653 0.001819 0.173594 -0.145937 0.244538 -0.084488 0.317320 0.238499 0.064735 -0.281262 0.098457 0.074433 -0.023280 -0.302396 -0.021274 0.062667 -0.059836 -0.178583 0.516152 -0.038961 -0.224122 -0.062393 -0.423881 -0.187294 -0.312219 0.250747 -0.094587 0.228346 0.271153 -0.035838 0.208586 -0.255831 -0.206994 -0.007623 0.295329 -0.388973 -0.026862 -0.009570 -0.033825 -0.419954 -0.248774 0.048881 0.192902 0.118138 0.295322 0.482624
12 -0.186229 -0.347026 0.233746 -0.286355 -0.041402 -0.033129 -0.028131 -0.022878 0.186677 0.119013 0.042557 0.399718 -0.053087 0.019417 0.155088 -0.196890 -0.190884 -0.290636 -0.093745 -0.226477 0.293237 0.049129 0.191652 0.115494 -0.135634 0.036787 0.089284 0.092900 -0.031453 -0.081229 -0.005822 0.162352 -0.106808 -0.017938 0.056206 -0.165302 0.211336 0.194326 0.130318 0.034680 -0.190911 -0.041190 0.248350 0.271459 -0.134385 0.293778 0.158593 -0.038399 -0.161857 0.211458 -0.130376 0.035315 -0.021207 0.055621 -0.205224 -0.234726 -0.267582 0.265471 -0.165971 -0.057359 0.203737 -0.323211 0.014487 -0.012773
11 -0.213051 -0.298639 0.143162 -0.177736 -0.054884 -0.050584 0.073914 0.085578 0.121311 -0.022109 0.130508 0.271271 -0.080696 -0.143754 0.189877 -0.268519 -0.084950 -0.230434 -0.053392 -0.272017 0.209826 0.062378 0.095935 0.118865 -0.071855 -0.088180 0.060858 0.011376 -0.013018 -0.048635 0.004404 0.002807 -0.163203 0.046353 0.032420 -0.174606 0.372191 0.185330 0.050350 -0.010362 -0.188451 -0.094493 0.271066 0.332455 -0.239457 0.249433 0.213696 -0.115619 -0.104535 0.130639 -0.093472 0.088846 0.035100 0.027124 -0.273182 -0.275005 -0.159449 0.161952 -0.264186 0.037866 0.150291 -0.213621 0.026006 0.145038
2 -0.233130 -0.340765 0.135360 -0.172254 -0.015692 -0.043282 0.115305 0.172940 0.100351 -0.106191 0.252660 0.299027 -0.136759 -0.267527 0.227745 -0.388233 -0.013879 -0.272650 -0.043313 -0.332449 0.185891 0.092403 0.033276 0.171837 -0.059028 -0.220311 0.032678 0.005574 0.039146 -0.017195 0.012223 -0.088135 -0.281343 0.146102 -0.015902 -0.226152 0.485737 0.240672 0.075184 -0.037584 -0.166608 -0.140332 0.415542 0.435691 -0.374390 0.258321 0.259735 -0.258867 -0.122357 0.142322 -0.052853 0.098367 0.033264 0.084796 -0.417436 -0.351716 -0.115015 0.223159 -0.342960 0.110151 0.125619 -0.223772 -0.007762 0.233860
17 -0.067027 -0.275632 0.247983 -0.224217 -0.372071 -0.214854 0.060773 -0.125097 0.257383 0.423329 -0.260919 0.613231 0.208847 0.288714 0.030425 -0.013920 -0.527093 -0.406130 -0.197749 0.124611 0.511803 -0.189361 0.636753 0.007141 0.102169 0.588869 0.092578 0.014886 0.058137 -0.055094 -0.041180 0.219785 0.151456 -0.154706 -0.008677 -0.209722 0.110825 0.012526 0.052599 0.114909 -0.368536 -0.004623 -0.275658 0.161694 0.174367 0.326129 0.128916 0.317066 -0.039266 0.099799 -0.223183 -0.241268 0.128327 -0.230709 0.180670 0.060440 -0.397058 0.139951 0.006597 -0.289029 0.332245 -0.384723 0.295364 -0.134783
16 -0.050565 -0.209976 0.154544 -0.114329 -0.320363 -0.133058 0.128935 -0.088364 0.258236 0.307870 -0.197175 0.605103 0.118647 0.299300 0.097005 -0.033538 -0.519206 -0.388416 -0.254343 0.105426 0.415258 -0.115362 0.604169 -0.059083 0.134131 0.509397 -0.006863 -0.078614 0.012599 -0.056179 -0.045588 0.163454 0.130931 -0.179121 0.012323 -0.145828 0.208368 -0.054765 -0.057698 0.116618 -0.362423 0.022787 -0.188667 0.184109 0.180404 0.274043 0.145703 0.281997 -0.065517 0.046746 -0.135907 -0.225735 0.146313 -0.188430 0.218085 0.028239 -0.330177 0.064057 0.050066 -0.325798 0.324293 -0.332801 0.285229 -0.144272
18 -0.071593 -0.314079 0.277814 -0.307996 -0.303317 -0.215355 -0.033051 -0.135516 0.285269 0.458529 -0.263264 0.643741 0.211689 0.282314 0.027943 -0.055730 -0.508811 -0.410827 -0.195450 0.121456 0.561855 -0.178743 0.627009 0.076179 0.066201 0.572198 0.122839 0.080395 0.066915 -0.064593 -0.036416 0.276772 0.128465 -0.121823 0.003876 -0.237866 0.037213 0.062784 0.134909 0.136840 -0.334680 0.023982 -0.235749 0.150360 0.145219 0.364393 0.095863 0.294165 -0.055743 0.146660 -0.226714 -0.243135 0.099871 -0.161033 0.123507 0.066565 -0.407023 0.205721 -0.024641 -0.267061 0.324050 -0.459351 0.262399 -0.146778
19 -0.067889 -0.321347 0.276214 -0.283975 -0.168734 -0.095549 -0.053541 -0.113539 0.285005 0.336940 -0.160613 0.606940 0.069117 0.235630 0.072147 -0.082325 -0.411297 -0.402140 -0.162771 0.052049 0.462693 -0.101853 0.465831 0.089277 0.014727 0.394456 0.056452 0.088567 0.011859 -0.051311 -0.013341 0.241555 0.069719 -0.103822 0.011361 -0.198479 0.047240 0.129466 0.143045 0.154134 -0.258934 0.028829 -0.032802 0.170556 0.079948 0.345447 0.122540 0.149499 -0.113329 0.185504 -0.160190 -0.175896 0.024786 -0.060259 0.058678 -0.024195 -0.378662 0.239590 0.000779 -0.239614 0.267166 -0.431909 0.206503 -0.122697
13 -0.296754 -0.451283 0.340250 -0.479800 -0.028339 -0.133443 -0.093503 -0.015193 0.140315 0.135677 0.059702 0.272766 0.017532 -0.135049 0.146310 -0.298083 -0.069710 -0.271871 -0.037293 -0.427958 0.347115 0.054497 0.076630 0.262810 -0.314866 -0.091231 0.281166 0.232288 -0.000325 -0.147662 -0.026353 0.222767 -0.212399 0.045943 0.074922 -0.260705 0.245597 0.306209 0.275807 -0.102251 -0.154814 -0.120274 0.315815 0.349675 -0.285436 0.326918 0.153466 -0.050870 -0.177000 0.343472 -0.227575 0.164699 -0.052356 0.104410 -0.449133 -0.341165 -0.294509 0.435042 -0.376459 0.099728 0.186896 -0.379611 -0.119491 0.020122
1 -0.359124 -0.475181 0.387227 -0.545278 -0.069808 -0.238927 -0.110559 -0.004101 0.086289 0.153351 0.024865 0.202660 0.105726 -0.178013 0.088860 -0.317474 -0.035958 -0.239309 0.016567 -0.472940 0.376675 0.026328 0.093323 0.311213 -0.362611 -0.077242 0.373909 0.290564 0.051596 -0.191322 -0.050935 0.226609 -0.235544 0.080275 0.052149 -0.285150 0.222408 0.290529 0.336534 -0.180248 -0.155258 -0.174222 0.264397 0.355224 -0.305367 0.299865 0.129447 -0.003901 -0.138430 0.351927 -0.274385 0.186416 -0.048022 0.070213 -0.522961 -0.324332 -0.272670 0.499028 -0.487885 0.197537 0.176683 -0.380154 -0.158132 0.048488
4 -0.163799 -0.242190 -0.028495 0.078669 -0.039483 0.053035 0.276971 0.255683 0.117047 -0.238244 0.353147 0.345324 -0.252047 -0.299806 0.315116 -0.393032 -0.048373 -0.296646 -0.078822 -0.218117 0.088462 0.110850 0.031523 0.047714 0.171073 -0.226846 -0.166573 -0.203377 0.015541 0.079957 0.032476 -0.271198 -0.255721 0.136762 -0.027630 -0.192340 0.652755 0.189592 -0.128127 0.060371 -0.232701 -0.131416 0.414388 0.471752 -0.359303 0.243484 0.346406 -0.367667 -0.095758 -0.021052 0.047422 0.045246 0.106293 0.026521 -0.279602 -0.340044 -0.044846 -0.034143 -0.222569 0.012321 0.140465 -0.111715 0.135764 0.362309
3 -0.201848 -0.286083 0.045922 -0.032719 -0.000833 0.042553 0.202799 0.204250 0.101318 -0.204488 0.349906 0.329754 -0.249656 -0.285707 0.285749 -0.400420 -0.017194 -0.297008 -0.081385 -0.284518 0.108893 0.122751 0.004801 0.126753 0.063190 -0.266367 -0.090932 -0.113829 0.020627 0.041987 0.028266 -0.200202 -0.287411 0.151447 -0.010070 -0.205555 0.592876 0.245034 -0.035963 0.038897 -0.182542 -0.139727 0.450394 0.463337 -0.379681 0.263783 0.334834 -0.357854 -0.149548 0.060367 0.033455 0.069064 0.049666 0.051039 -0.350463 -0.374035 -0.080762 0.088398 -0.275013 0.067470 0.112720 -0.157202 0.063480 0.324957
0 -0.305630 -0.403256 0.215687 -0.322601 -0.004980 -0.077513 0.026759 0.109790 0.091275 -0.057565 0.238950 0.250654 -0.094467 -0.260072 0.215468 -0.390937 0.020488 -0.259291 -0.043816 -0.442852 0.221003 0.098363 -0.000559 0.245301 -0.205621 -0.251704 0.156346 0.093417 0.014566 -0.099473 0.001007 0.026422 -0.298616 0.124646 0.044576 -0.249543 0.441966 0.298165 0.168848 -0.098236 -0.155955 -0.168068 0.424180 0.437836 -0.393241 0.290592 0.238930 -0.218342 -0.174157 0.234542 -0.120381 0.166157 -0.019611 0.084949 -0.500334 -0.399523 -0.172645 0.341001 -0.428029 0.168793 0.136643 -0.284061 -0.091123 0.196495
6 -0.074079 -0.136794 -0.157602 0.281945 -0.255777 0.025705 0.460424 0.258437 0.056463 -0.207163 0.253922 0.232392 -0.175863 -0.334102 0.304307 -0.270040 -0.134068 -0.213528 -0.005528 -0.064294 0.035489 0.007340 0.097948 -0.123504 0.387293 -0.045687 -0.188589 -0.393523 0.009926 0.158518 0.024183 -0.391763 -0.119993 0.083146 -0.042946 -0.153938 0.680206 0.053316 -0.322757 0.039880 -0.378287 -0.125691 0.117725 0.373780 -0.246618 0.232986 0.368183 -0.313100 0.087892 -0.205117 -0.023321 0.029631 0.219054 -0.168706 -0.063506 -0.196719 -0.005667 -0.400550 -0.120642 -0.059129 0.185289 0.082509 0.276021 0.482408
7 -0.088621 -0.129014 -0.138270 0.217796 -0.377813 -0.096118 0.447895 0.220856 0.002426 -0.123566 0.141977 0.134339 -0.027668 -0.370622 0.231649 -0.224097 -0.147575 -0.148597 0.048691 -0.045460 0.095528 -0.065814 0.146629 -0.093672 0.373266 0.061961 -0.075753 -0.357494 0.045556 0.124548 0.010870 -0.355189 -0.091060 0.071446 -0.051231 -0.179029 0.613250 0.012868 -0.290136 -0.020396 -0.415470 -0.164165 -0.076837 0.331234 -0.201854 0.234358 0.335575 -0.202987 0.164179 -0.234854 -0.126169 0.040993 0.255809 -0.265567 -0.062878 -0.114676 -0.009853 -0.435303 -0.183622 0.010602 0.191019 0.112950 0.288560 0.518157
21 -0.198728 -0.113203 -0.003539 -0.000896 -0.711652 -0.482044 0.389237 0.078658 -0.229560 0.125372 -0.135290 -0.130980 0.391052 -0.410533 -0.017494 -0.097206 -0.216108 0.028749 0.231699 -0.030306 0.300180 -0.269612 0.298768 0.004472 0.236759 0.372237 0.322461 -0.209736 0.201101 -0.006576 -0.057444 -0.311720 0.000373 0.093663 -0.086259 -0.228706 0.465508 -0.044486 -0.146896 -0.204382 -0.471629 -0.278689 -0.610474 0.187280 -0.064794 0.256183 0.263101 0.115353 0.337916 -0.320137 -0.357647 0.032506 0.363537 -0.610781 -0.090308 0.089524 -0.013813 -0.464161 -0.454320 0.233457 0.204522 0.197423 0.289152 0.600195
22 -0.145597 -0.096012 -0.045618 0.073453 -0.699898 -0.436455 0.423245 0.087477 -0.196217 0.109276 -0.139406 -0.084631 0.359950 -0.362657 0.012057 -0.077541 -0.253928 0.005423 0.196783 0.024131 0.276291 -0.264044 0.330903 -0.053105 0.290837 0.404668 0.248393 -0.269437 0.180272 0.025610 -0.058787 -0.320621 0.028218 0.059870 -0.080901 -0.208927 0.471364 -0.089461 -0.213199 -0.177554 -0.477645 -0.260053 -0.609398 0.187235 -0.021531 0.248857 0.254963 0.119894 0.340371 -0.341546 -0.341792 -0.000550 0.362484 -0.595708 -0.005747 0.102931 -0.013172 -0.504071 -0.360019 0.148015 0.226561 0.206900 0.325953 0.567122
