25 64
16 -0.131280 -0.189279 0.144296 -0.263428 -0.153192 -0.027262 0.056694 -0.104157 0.442817 0.452138 -0.132107 0.661772 0.030677 0.222085 0.241870 -0.257704 -0.567373 -0.461091 -0.464173 -0.071673 0.569120 -0.047946 0.525300 0.146383 0.214185 0.365274 0.163826 -0.055524 -0.033147 -0.103600 -0.162729 0.312185 0.123374 -0.118771 0.144959 -0.276433 0.337393 0.103949 -0.001294 0.109962 -0.482303 0.337676 -0.015915 0.152204 0.015515 0.482469 0.200545 0.238782 -0.119748 0.217524 0.010136 -0.089227 0.254063 0.038731 0.061110 -0.032935 -0.406518 -0.131911 -0.128960 -0.381136 0.430352 -0.579415 0.141467 -0.211617
10 -0.064252 -0.175594 0.105610 -0.048176 -0.103175 0.171686 -0.014292 0.066833 0.289385 0.151836 -0.048489 0.328415 -0.129508 -0.166718 0.243826 -0.059232 -0.258228 -0.093934 0.004501 -0.130844 0.253491 0.049949 0.214441 -0.031565 0.004129 0.153732 -0.054998 -0.087580 -0.180831 0.160319 0.028427 0.131432 -0.038404 -0.116701 0.014535 -0.138632 0.352812 0.110069 -0.147904 0.206168 -0.332778 0.117195 0.270349 0.329448 -0.032231 0.499132 0.200347 0.021022 -0.044261 0.073003 -0.102564 0.083616 0.020387 0.175908 -0.065945 -0.175865 -0.295700 -0.207227 -0.085612 -0.198241 0.268534 -0.139820 0.068943 0.119997
11 -0.127584 -0.278245 0.122841 -0.105273 -0.024073 0.078609 -0.004237 0.109070 0.226113 0.069178 0.039559 0.307277 -0.124396 -0.175161 0.273914 -0.226797 -0.192825 -0.160867 -0.010826 -0.216880 0.234792 0.086933 0.157245 -0.005242 -0.037236 0.024692 -0.031893 -0.022715 -0.099451 0.090387 0.027237 0.102147 -0.102832 -0.042950 0.060820 -0.137525 0.351949 0.174802 -0.028419 0.158757 -0.228708 0.055680 0.316867 0.318842 -0.170201 0.403915 0.156653 -0.082946 -0.094827 0.120269 -0.112269 0.085738 0.009088 0.205320 -0.192942 -0.262549 -0.236108 -0.033178 -0.145736 -0.112077 0.225357 -0.184691 0.040801 0.116908
19 -0.140772 -0.145576 0.569900 -0.693333 -0.320476 0.004313 -0.149832 -0.578418 0.057746 0.307948 -0.424626 0.186724 -0.023205 -0.186586 -0.112046 0.132765 -0.394060 -0.317614 0.322681 -0.024186 0.588209 -0.131084 -0.046437 0.483093 -0.157622 0.271389 0.276502 0.259724 -0.180454 -0.202592 0.164243 0.124875 0.087982 -0.202226 -0.076235 -0.180459 -0.352042 0.559687 0.390601 0.153517 -0.368602 0.117416 -0.178433 -0.174442 0.111067 0.449489 0.443716 -0.060214 0.049885 0.157295 -0.119240 0.200952 -0.107411 -0.361642 0.091818 0.083280 -0.468217 -0.107209 -0.092590 0.180591 -0.021891 -0.156036 0.430392 0.316126
14 -0.185614 -0.153577 0.477812 -0.534662 -0.223084 0.035287 -0.118443 -0.417986 0.094133 0.288047 -0.323968 0.199385 -0.087652 -0.110016 0.000913 0.093121 -0.358783 -0.270088 0.158803 -0.172671 0.520969 -0.048252 0.018463 0.296395 -0.126404 0.185397 0.266193 0.259009 -0.157036 -0.139732 0.132276 0.133237 0.102122 -0.177774 0.017747 -0.106700 -0.135626 0.511136 0.235165 0.204356 -0.362766 0.146052 0.002304 -0.077540 0.042469 0.452957 0.459347 -0.048714 -0.029142 0.198786 -0.105383 0.193815 -0.043154 -0.187145 -0.001838 -0.045742 -0.453328 -0.163340 -0.101576 0.092280 0.097315 -0.138101 0.281455 0.171695
22 0.365784 -0.049448 -0.033486 0.112195 -0.355049 0.286605 -0.077730 0.142354 0.280808 0.050171 -0.180829 0.214234 0.104725 -0.870754 0.166009 0.021934 -0.177457 0.074635 0.693758 0.457575 0.128609 -0.078686 -0.032051 0.307389 0.047912 0.427226 -0.518826 -0.543276 -0.447506 0.607372 0.025728 0.102467 -0.484690 -0.166849 -0.428924 -0.542886 0.228828 -0.296732 -0.239478 -0.015362 -0.231511 -0.029714 -0.033466 0.670660 0.201005 0.611210 -0.308599 0.286016 0.211559 -0.195474 -0.171829 0.047764 -0.206193 0.082357 0.184433 0.014014 -0.160262 -0.105101 0.082467 -0.397304 0.051010 -0.070132 0.488371 0.670226
8 0.222930 -0.148842 -0.051151 0.122564 -0.203153 0.209443 -0.024339 0.233674 0.234034 -0.021367 -0.026158 0.204552 0.024163 -0.666918 0.221291 -0.119659 -0.071140 0.041346 0.472539 0.243333 0.049002 -0.000538 -0.004313 0.149043 0.029142 0.225123 -0.417269 -0.394060 -0.306994 0.469835 0.023399 0.067614 -0.415062 -0.065302 -0.278265 -0.398843 0.308141 -0.213566 -0.173832 0.009850 -0.158663 -0.061145 0.116106 0.603851 0.018973 0.457171 -0.240361 0.117501 0.108856 -0.111303 -0.159644 0.039048 -0.136542 0.183615 -0.001606 -0.099765 -0.104348 -0.006758 -0.004591 -0.281402 0.060709 -0.091389 0.287196 0.497212
15 -0.060718 -0.121129 0.167813 -0.193010 -0.170108 0.086487 -0.011678 -0.100641 0.306068 0.309166 -0.158010 0.399420 -0.012536 -0.027464 0.157901 -0.054370 -0.398977 -0.230457 -0.123910 -0.043455 0.401279 -0.029480 0.292349 0.095438 0.066226 0.293147 0.051916 -0.047631 -0.125826 0.043539 -0.027629 0.212644 0.062340 -0.147708 0.034668 -0.198820 0.210499 0.133666 -0.035191 0.164037 -0.385095 0.208888 0.037541 0.168555 0.051285 0.465569 0.182943 0.139102 -0.040741 0.108733 -0.058135 0.013056 0.081765 0.041909 0.056732 -0.052565 -0.363508 -0.195545 -0.055824 -0.238862 0.282562 -0.265441 0.159525 -0.009460
12 -0.230968 -0.346862 0.296501 -0.373281 -0.034761 -0.029075 -0.019814 -0.115965 0.074094 0.040826 0.019178 0.222998 -0.129676 -0.177062 0.150973 -0.237691 -0.155966 -0.263401 0.081104 -0.298105 0.310208 0.088432 -0.010637 0.202092 -0.146540 -0.090928 0.126209 0.170069 -0.031779 -0.097895 0.065917 0.060110 -0.137542 0.014125 0.054134 -0.127612 0.106680 0.382654 0.231899 0.097455 -0.161547 -0.023375 0.239853 0.149096 -0.229067 0.316511 0.261432 -0.220158 -0.114606 0.178904 -0.124251 0.170435 -0.045620 0.024961 -0.281882 -0.261839 -0.239745 0.109938 -0.197802 0.139441 0.081369 -0.173736 0.080935 0.193581
6 -0.053046 -0.310800 0.057052 -0.057954 -0.027381 0.051548 0.030171 0.180256 0.181616 -0.047490 0.115977 0.255539 -0.076242 -0.358084 0.250382 -0.306613 -0.071349 -0.147106 0.153669 -0.104085 0.131290 0.081242 0.036081 0.097981 -0.019511 -0.027704 -0.149242 -0.126428 -0.095992 0.165648 0.004742 0.040115 -0.281156 0.037476 -0.051450 -0.249053 0.317294 0.065277 0.007938 0.027334 -0.128891 -0.062517 0.277799 0.414852 -0.217451 0.321898 -0.010250 -0.114076 -0.033944 0.059180 -0.130512 0.085929 -0.051199 0.187347 -0.222795 -0.255511 -0.115798 0.112450 -0.140183 -0.084933 0.118235 -0.179118 0.089374 0.274903
4 -0.092091 -0.405668 0.125752 -0.231402 0.001827 -0.072738 0.026554 0.097247 0.058459 -0.177829 0.174809 0.184004 -0.032769 -0.460525 0.171054 -0.440549 0.042774 -0.230598 0.300083 -0.083545 0.130203 0.089699 -0.147052 0.325970 -0.099067 -0.148156 -0.126515 -0.054877 -0.031306 0.038327 -0.003071 -0.026010 -0.433257 0.140155 -0.110541 -0.326178 0.146557 0.127715 0.250029 -0.109593 0.010648 -0.213064 0.205388 0.383208 -0.300439 0.185587 -0.085294 -0.236605 -0.029450 0.054768 -0.143852 0.121073 -0.114410 0.071313 -0.331279 -0.252695 -0.013807 0.366485 -0.208300 0.112369 -0.051326 -0.225388 0.150457 0.425326
3 -0.172560 -0.425086 0.212667 -0.347678 0.006938 -0.113401 0.033794 -0.010007 0.029637 -0.107013 0.129437 0.205258 -0.049851 -0.321206 0.129999 -0.440851 -0.002746 -0.287530 0.182699 -0.154064 0.195840 0.089289 -0.082700 0.340886 -0.121207 -0.141709 0.002742 0.059403 0.024790 -0.065063 0.013895 -0.003224 -0.329576 0.152502 -0.037713 -0.274503 0.073117 0.229124 0.336301 -0.073633 -0.021616 -0.169180 0.155308 0.250494 -0.321372 0.166151 0.013288 -0.256849 -0.056075 0.114612 -0.128460 0.110394 -0.091856 0.022480 -0.326136 -0.236380 -0.075084 0.375069 -0.255436 0.188219 -0.071206 -0.249273 0.121441 0.324727
9 0.051548 -0.160199 -0.015364 0.079784 -0.127372 0.197495 -0.005454 0.202876 0.347302 0.130347 -0.019253 0.368443 -0.059666 -0.307465 0.284904 -0.116700 -0.239844 -0.042094 0.070067 0.019211 0.173402 0.044641 0.250981 -0.053048 0.058828 0.234429 -0.217799 -0.262758 -0.220986 0.318232 0.005779 0.152186 -0.151795 -0.112171 -0.048858 -0.246382 0.438399 -0.065498 -0.237157 0.166152 -0.314112 0.092493 0.235669 0.477009 -0.025233 0.505794 0.006206 0.099828 -0.001914 -0.006254 -0.119493 0.021047 -0.002963 0.249448 -0.007003 -0.155171 -0.240560 -0.165552 -0.051972 -0.332984 0.266266 -0.168129 0.111882 0.183637
13 -0.182810 -0.217311 0.365498 -0.416614 -0.119490 0.012143 -0.056394 -0.255844 0.093133 0.176324 -0.153701 0.187776 -0.099220 -0.125863 0.084677 -0.059679 -0.273713 -0.258263 0.071554 -0.249983 0.411859 0.016323 0.001938 0.221718 -0.129729 0.045886 0.199118 0.211705 -0.083630 -0.108086 0.073438 0.108147 0.001226 -0.102053 0.047504 -0.103767 0.021720 0.434962 0.199203 0.153114 -0.243144 0.084132 0.126066 0.034623 -0.075500 0.385745 0.355559 -0.107333 -0.089029 0.195244 -0.105171 0.177740 -0.022923 -0.050012 -0.138337 -0.163484 -0.350708 -0.067662 -0.115099 0.078736 0.119855 -0.136927 0.154585 0.126871
5 -0.159392 -0.607848 0.119794 -0.350266 0.065401 -0.191056 0.096317 0.117718 0.079016 -0.259796 0.306423 0.306079 -0.011844 -0.485376 0.205751 -0.724836 0.092375 -0.373267 0.269221 -0.073184 0.153867 0.137983 -0.133294 0.488945 -0.106559 -0.223464 -0.130912 -0.085271 0.050249 -0.043959 -0.061412 -0.036204 -0.578824 0.289500 -0.101066 -0.469709 0.148493 0.110406 0.425129 -0.230754 0.072223 -0.314714 0.174500 0.453104 -0.470976 0.122083 -0.204226 -0.324919 -0.030052 0.066722 -0.170964 0.103958 -0.109218 0.055597 -0.438976 -0.298935 0.062858 0.638250 -0.339361 0.184613 -0.135744 -0.408084 0.153395 0.498115
1 -0.181879 -0.603431 0.159864 -0.385906 0.061053 -0.201759 0.081739 0.107223 0.067772 -0.232654 0.270682 0.298595 0.006556 -0.463803 0.179208 -0.711998 0.086171 -0.369711 0.257615 -0.094147 0.169379 0.129049 -0.102980 0.479533 -0.123544 -0.200124 -0.093682 -0.044368 0.064311 -0.067229 -0.052613 -0.020412 -0.542129 0.284606 -0.092329 -0.451937 0.114733 0.122293 0.451662 -0.231457 0.043707 -0.303531 0.169687 0.421247 -0.467199 0.108151 -0.192513 -0.321975 -0.018117 0.082630 -0.175111 0.099048 -0.118395 0.065161 -0.439423 -0.279107 0.040633 0.646364 -0.364223 0.214489 -0.132636 -0.407539 0.137834 0.458867
2 -0.198453 -0.548625 0.185319 -0.407239 0.049158 -0.178077 0.064647 0.053404 0.051039 -0.156106 0.209772 0.310457 -0.015269 -0.330618 0.178922 -0.633157 0.003542 -0.351041 0.141478 -0.160207 0.220125 0.123509 -0.034455 0.384469 -0.148535 -0.181473 -0.016420 0.031760 0.074362 -0.116843 -0.003905 -0.002264 -0.412186 0.236154 -0.026851 -0.332324 0.119472 0.194249 0.425041 -0.143718 0.004973 -0.202403 0.179484 0.306302 -0.433479 0.132892 -0.078221 -0.311645 -0.053884 0.106792 -0.148834 0.077208 -0.062801 0.064051 -0.415630 -0.271083 -0.017414 0.542975 -0.349775 0.216237 -0.085100 -0.367665 0.107906 0.325149
7 0.111430 -0.218448 -0.027937 0.111641 -0.115148 0.208245 -0.017813 0.275208 0.203198 -0.091609 0.066921 0.170621 -0.074463 -0.628170 0.281128 -0.154233 -0.024145 0.037968 0.391502 0.015017 0.032221 0.073848 -0.043625 0.065054 -0.030160 0.037594 -0.357923 -0.283406 -0.262541 0.411563 0.062184 0.041351 -0.408919 -0.045815 -0.190871 -0.289129 0.381308 -0.083344 -0.176979 0.063056 -0.133821 -0.087029 0.319979 0.604904 -0.105749 0.450217 -0.101300 -0.021015 0.027960 -0.043774 -0.177112 0.118513 -0.137843 0.264399 -0.168494 -0.250771 -0.107897 -0.009597 -0.040176 -0.175616 0.108152 -0.027069 0.165679 0.453206
0 -0.258123 -0.658055 0.206457 -0.461122 0.069578 -0.203874 0.081368 0.077716 0.066192 -0.192263 0.293852 0.361830 -0.038618 -0.372271 0.235298 -0.755418 0.031566 -0.422184 0.132333 -0.220611 0.234371 0.152404 -0.048977 0.437639 -0.164899 -0.244363 -0.015679 0.033456 0.088152 -0.140817 -0.016078 0.004297 -0.486456 0.280909 -0.004073 -0.394525 0.181966 0.239532 0.487849 -0.164018 0.004327 -0.258407 0.232282 0.387426 -0.526564 0.162457 -0.082309 -0.379728 -0.099481 0.144309 -0.176683 0.096000 -0.075619 0.076993 -0.513679 -0.352946 -0.029595 0.640664 -0.416925 0.249161 -0.081446 -0.441089 0.101295 0.382959
18 -0.053252 -0.171727 0.058307 -0.195282 -0.172439 -0.011732 0.065040 -0.037054 0.519678 0.488057 -0.122018 0.738190 0.105217 0.190670 0.249376 -0.283709 -0.597718 -0.436413 -0.490498 0.056997 0.566316 -0.068037 0.611341 0.144988 0.264848 0.470297 0.078717 -0.178226 -0.041716 -0.013519 -0.196447 0.349416 0.100171 -0.108081 0.112777 -0.362538 0.384618 -0.022873 -0.056188 0.096596 -0.500704 0.352190 -0.086974 0.225919 0.043409 0.509421 0.066663 0.326388 -0.075966 0.148790 0.003781 -0.162566 0.274148 0.071945 0.130652 0.015208 -0.391783 -0.132415 -0.112589 -0.490830 0.455463 -0.626424 0.167726 -0.223721
17 -0.118861 -0.181023 0.177281 -0.324049 -0.206476 -0.037736 0.045215 -0.165650 0.482790 0.530017 -0.183338 0.720023 0.084310 0.241395 0.194071 -0.217655 -0.635527 -0.489223 -0.478151 -0.007329 0.644782 -0.089192 0.576288 0.190259 0.214765 0.457360 0.182292 -0.059718 -0.034369 -0.105508 -0.150661 0.348200 0.170537 -0.139412 0.130795 -0.321375 0.285938 0.127414 0.031540 0.132305 -0.530367 0.358900 -0.109015 0.118264 0.047036 0.514779 0.201142 0.286573 -0.091127 0.200853 -0.006266 -0.115148 0.262931 -0.024362 0.128702 0.014479 -0.465149 -0.140213 -0.119162 -0.402428 0.435289 -0.607683 0.199300 -0.230655
21 -0.127295 -0.098482 0.625452 -0.693922 -0.387858 0.075171 -0.203830 -0.610746 0.012196 0.295103 -0.491543 0.080532 -0.059144 -0.353204 -0.135356 0.271238 -0.358619 -0.222016 0.532519 -0.030498 0.575886 -0.133246 -0.161090 0.485997 -0.212464 0.266621 0.245584 0.279811 -0.274120 -0.114828 0.254645 0.089525 0.059810 -0.249900 -0.148312 -0.161714 -0.394379 0.621995 0.356964 0.213914 -0.396329 0.101598 -0.144393 -0.152136 0.144661 0.525415 0.508147 -0.073756 0.094121 0.131437 -0.151860 0.287723 -0.174632 -0.383120 0.091831 0.070337 -0.504500 -0.207630 -0.072229 0.235053 -0.063977 -0.016901 0.492753 0.460089
23 0.345755 -0.036432 -0.025083 0.110097 -0.343270 0.291839 -0.073124 0.145344 0.259505 0.030571 -0.175851 0.172899 0.089569 -0.866799 0.154932 0.030933 -0.158409 0.080088 0.683725 0.410678 0.117500 -0.075963 -0.084122 0.315711 0.045442 0.375164 -0.502674 -0.505944 -0.449715 0.582380 0.020971 0.098593 -0.479120 -0.167647 -0.424824 -0.514793 0.236438 -0.274165 -0.230656 -0.013545 -0.220117 -0.023975 -0.000092 0.653149 0.195127 0.584694 -0.277816 0.271550 0.178436 -0.172542 -0.157349 0.067732 -0.188402 0.079360 0.140185 -0.019972 -0.167460 -0.115298 0.076898 -0.368392 0.048628 -0.056714 0.478607 0.653873
20 -0.141647 -0.097367 0.641105 -0.734942 -0.399115 0.032920 -0.180164 -0.651703 0.036305 0.362250 -0.522896 0.138721 -0.022712 -0.245140 -0.142026 0.246156 -0.441409 -0.295533 0.407190 -0.041975 0.652214 -0.159380 -0.086565 0.508915 -0.168599 0.317459 0.314352 0.300187 -0.238405 -0.187151 0.206567 0.129387 0.121229 -0.264618 -0.100617 -0.164270 -0.389786 0.625727 0.374341 0.195383 -0.437631 0.154179 -0.202042 -0.206507 0.170621 0.522919 0.537151 -0.028438 0.070320 0.164299 -0.135565 0.251856 -0.115374 -0.416254 0.120781 0.098796 -0.540401 -0.218858 -0.075300 0.198260 -0.007630 -0.095127 0.501586 0.362877
24 0.378298 0.005196 0.007970 0.126785 -0.387236 0.336323 -0.097611 0.117380 0.276363 0.081158 -0.230370 0.163747 0.088014 -0.902176 0.151171 0.112218 -0.197078 0.110166 0.731742 0.428052 0.138097 -0.089369 -0.069400 0.293395 0.044337 0.444704 -0.511801 -0.515635 -0.495984 0.634830 0.046250 0.113915 -0.454386 -0.223440 -0.437564 -0.505649 0.231709 -0.263640 -0.272884 0.029863 -0.267182 0.014033 -0.010977 0.655042 0.245860 0.654589 -0.246707 0.306243 0.205726 -0.187295 -0.163300 0.084036 -0.217910 0.089290 0.201527 0.015585 -0.209642 -0.201177 0.111008 -0.398862 0.065118 -0.010867 0.508878 0.672293
