22 64
14 -0.334718 -0.335688 0.558782 -0.450756 0.064297 0.238656 -0.084893 -0.324851 -0.190572 0.277149 -0.384859 0.309443 -0.160653 0.230131 0.267497 0.043453 -0.224282 -0.270954 -0.171598 -0.624545 0.435238 0.436967 0.201680 0.079806 -0.253616 0.225891 0.294254 0.360227 -0.381237 -0.031766 0.021918 0.352257 -0.050155 -0.012194 0.350887 0.047682 -0.001013 -0.062010 -0.077226 -0.106247 -0.571084 0.211876 0.320283 0.231843 0.184472 0.334568 0.132800 0.312087 -0.217687 0.487764 -0.118644 0.058821 -0.105616 0.309245 -0.096752 -0.338980 -0.530062 0.221343 -0.151896 -0.238377 0.371960 -0.304679 0.162620 -0.613501
8 -0.011611 -0.348952 0.059735 -0.036097 -0.020227 0.112708 0.119918 0.037164 0.227586 0.163737 -0.075525 0.262730 -0.153736 -0.066190 0.347549 -0.135039 -0.109564 -0.216300 -0.041699 -0.195107 0.168772 0.144378 0.050517 -0.121824 0.120702 0.064870 0.031910 0.003959 -0.200899 0.154018 -0.026170 0.191107 -0.073947 -0.028651 0.157543 -0.153420 0.209587 0.025614 -0.139388 0.023218 -0.301068 0.061291 0.204123 0.281598 -0.120154 0.297953 0.078302 -0.022271 -0.024409 0.262738 -0.275892 0.157555 0.071244 0.269035 -0.094047 -0.232125 -0.278098 -0.088266 0.095022 -0.344060 0.277589 -0.244078 0.050958 -0.082517
12 -0.220615 -0.258923 0.232658 -0.223129 0.047066 0.189184 -0.080931 -0.144983 0.023252 0.257140 -0.159243 0.363679 -0.157963 0.183596 0.267583 0.026435 -0.184872 -0.123093 -0.233202 -0.387074 0.312341 0.343696 0.252835 -0.048163 -0.132765 0.155197 0.129592 0.196389 -0.254934 0.094766 0.054462 0.296582 -0.057512 0.018827 0.266949 0.004596 0.157933 -0.029985 -0.154560 0.131637 -0.377666 0.163708 0.259386 0.268765 0.058806 0.361187 0.104835 0.237400 -0.214491 0.278003 -0.116806 0.007129 0.025159 0.274791 -0.112921 -0.295090 -0.380765 0.055211 -0.087103 -0.253607 0.304910 -0.232118 0.040662 -0.397838
19 -0.027627 -0.348018 0.181302 -0.480057 -0.559926 -0.343204 0.012680 0.040710 0.233486 0.317347 -0.158561 0.345846 0.385245 -0.318970 -0.096907 -0.314697 -0.299904 -0.278445 0.063370 0.217739 0.457586 -0.530706 0.385349 0.372057 0.308857 0.452266 0.288085 -0.070483 0.133690 -0.275641 0.016946 0.138403 0.068046 -0.068061 -0.021478 -0.398168 0.040793 0.283923 0.400853 -0.050465 -0.585159 -0.138384 -0.432310 0.041628 -0.136648 0.381979 0.316812 -0.304219 0.167557 -0.064415 -0.408446 -0.078753 0.109325 -0.453457 -0.115323 0.327464 -0.304939 -0.079678 -0.426546 0.291656 0.183607 -0.458525 0.330785 0.651627
3 0.027871 -0.172752 -0.187409 -0.007066 0.044591 -0.131577 -0.019757 0.333283 0.379641 0.129010 0.113438 0.448947 0.125640 -0.134628 0.090563 -0.380712 -0.039928 -0.172239 -0.368725 0.221406 0.223671 -0.064917 0.375642 0.117233 0.390025 0.214318 -0.099183 -0.078868 0.177897 0.163023 -0.035533 0.117468 -0.062953 0.162551 0.084547 -0.386347 0.279387 0.034104 0.001399 0.259842 -0.204642 -0.097717 -0.040612 0.354486 -0.234152 0.170236 0.001233 -0.113076 -0.043180 -0.055490 -0.128358 -0.258517 0.168305 0.182661 -0.113282 0.045892 -0.124185 0.005143 -0.150986 -0.132476 0.161075 -0.409624 0.092755 0.118475
5 0.159491 -0.421271 -0.071217 -0.009395 -0.082971 -0.114779 0.275389 0.240549 0.400843 0.038046 0.012740 0.223711 0.033092 -0.382242 0.272649 -0.444992 -0.054198 -0.415639 0.056411 0.088945 0.149015 -0.155115 -0.052796 0.067118 0.465576 0.050563 -0.027506 -0.181381 0.013790 0.087161 -0.140912 0.060241 -0.112168 -0.006394 0.034398 -0.439260 0.152159 0.110316 0.041749 -0.163117 -0.281482 -0.126870 0.020047 0.266758 -0.328401 0.146472 0.046489 -0.356971 0.200833 0.167321 -0.392484 0.178889 0.081159 0.153850 -0.086146 -0.032750 -0.141086 -0.099065 0.132151 -0.255305 0.234035 -0.371841 0.172107 0.315449
4 0.083537 -0.270757 -0.130434 0.040480 0.065548 -0.085995 0.090332 0.312368 0.374267 0.060609 0.070210 0.350689 0.048123 -0.192269 0.194427 -0.374896 -0.021408 -0.266664 -0.181478 0.126891 0.164596 -0.034678 0.161177 0.029975 0.381277 0.119996 -0.098283 -0.098374 0.070583 0.163157 -0.080099 0.087977 -0.086549 0.089689 0.080878 -0.364756 0.232920 0.031902 -0.034879 0.076377 -0.202476 -0.098700 0.074785 0.341158 -0.254358 0.117103 -0.014401 -0.181774 0.040902 0.070081 -0.218286 -0.068387 0.114795 0.247731 -0.087260 -0.036881 -0.119859 0.005072 0.019170 -0.260804 0.211405 -0.382262 0.111090 0.095256
9 -0.004646 -0.232575 -0.096147 0.024497 0.066178 0.024349 0.026300 0.205740 0.308519 0.127449 0.034509 0.363609 -0.041796 -0.056677 0.236507 -0.214001 -0.063628 -0.141602 -0.243761 -0.023668 0.165437 0.109888 0.223567 -0.069707 0.197304 0.113534 -0.063189 -0.036741 -0.043525 0.196357 -0.007748 0.166104 -0.071212 0.058962 0.151580 -0.224226 0.287652 -0.001202 -0.145886 0.177914 -0.219205 -0.006090 0.150029 0.346128 -0.173554 0.211815 0.022523 -0.010240 -0.066976 0.097755 -0.180753 -0.049814 0.118319 0.279544 -0.088163 -0.147555 -0.189491 -0.022917 -0.009332 -0.289585 0.227893 -0.294287 0.032408 -0.070876
10 -0.082986 -0.135821 -0.104436 -0.026719 0.108577 0.024595 -0.123894 0.199868 0.275816 0.189614 0.054857 0.491750 0.001349 0.097013 0.135603 -0.160810 -0.073239 -0.036529 -0.430609 0.030596 0.244717 0.146849 0.436188 -0.003860 0.135161 0.217118 -0.057999 0.035210 0.013222 0.190660 0.039292 0.196896 -0.035550 0.147874 0.169894 -0.190518 0.314827 -0.040765 -0.135522 0.352457 -0.218245 0.019072 0.107121 0.371539 -0.089043 0.253448 0.022610 0.117369 -0.174978 0.002071 -0.057894 -0.260114 0.163723 0.253662 -0.104206 -0.088429 -0.200871 0.040899 -0.176751 -0.207903 0.198086 -0.337916 0.014765 -0.169190
0 0.031728 -0.279286 0.013965 -0.221572 -0.246914 -0.222405 0.069110 0.161838 0.258359 0.156903 -0.026749 0.279969 0.233211 -0.273121 0.034932 -0.362822 -0.132747 -0.262833 -0.058112 0.169928 0.279293 -0.295175 0.231198 0.229810 0.334098 0.245531 0.095552 -0.096067 0.126213 -0.082022 -0.041093 0.089520 -0.013120 0.020570 0.016650 -0.374563 0.112365 0.149946 0.213063 -0.029550 -0.353709 -0.121323 -0.217368 0.153146 -0.200213 0.212194 0.119258 -0.251340 0.115271 -0.010530 -0.285612 -0.069620 0.104621 -0.122462 -0.110928 0.154914 -0.174073 -0.034454 -0.211063 0.067959 0.158641 -0.380984 0.211079 0.383603
7 0.092329 -0.425973 -0.044238 0.071145 0.000551 0.123270 0.257857 0.118139 0.353507 0.093260 -0.029550 0.213675 -0.193539 -0.210179 0.474040 -0.224924 -0.078415 -0.309226 0.009318 -0.203866 0.116845 0.126316 -0.098672 -0.165332 0.254121 -0.059903 -0.040367 -0.103533 -0.218075 0.211960 -0.073911 0.169803 -0.125872 -0.069789 0.139920 -0.233705 0.239196 0.030759 -0.204302 -0.077680 -0.280634 0.040591 0.269642 0.329709 -0.240376 0.282231 0.057810 -0.131734 0.078897 0.316546 -0.376565 0.315581 0.080388 0.369131 -0.106192 -0.290552 -0.233968 -0.181080 0.271077 -0.450222 0.331180 -0.230457 0.046711 -0.007641
6 0.134640 -0.465693 0.043891 -0.002928 -0.047002 0.019639 0.329121 0.123185 0.306192 0.035813 -0.072733 0.127723 -0.095139 -0.335440 0.391925 -0.343562 -0.067642 -0.449772 0.137400 -0.132979 0.122434 -0.026050 -0.187904 -0.027033 0.361830 -0.034608 0.013959 -0.132030 -0.138333 0.105190 -0.148573 0.093195 -0.117161 -0.074676 0.085400 -0.327202 0.103897 0.076049 -0.049454 -0.283772 -0.320261 -0.035286 0.168883 0.241259 -0.268552 0.175217 0.054485 -0.292051 0.200657 0.333869 -0.410145 0.337786 0.008372 0.264376 -0.073441 -0.172987 -0.203234 -0.123775 0.260012 -0.360389 0.305690 -0.283166 0.146040 0.138921
11 -0.205346 -0.180811 0.133862 -0.154002 0.103381 0.146817 -0.136792 -0.030825 0.079899 0.226688 -0.100735 0.395287 -0.108518 0.202710 0.216118 -0.014912 -0.139077 -0.061822 -0.340623 -0.275357 0.296531 0.306048 0.341671 -0.031717 -0.085195 0.175908 0.062815 0.171696 -0.176263 0.124062 0.067480 0.268113 -0.028091 0.060563 0.255586 -0.020253 0.219512 -0.047290 -0.163194 0.239500 -0.302321 0.140626 0.222766 0.298107 0.036575 0.316337 0.070668 0.261050 -0.233692 0.187456 -0.049573 -0.115017 0.067018 0.285831 -0.102957 -0.240462 -0.320087 0.077367 -0.149724 -0.227226 0.256682 -0.254532 0.033750 -0.383879
13 -0.087128 -0.311293 0.114408 -0.107524 -0.023202 0.151991 0.062164 -0.052457 0.150157 0.198211 -0.109780 0.256827 -0.157349 0.002299 0.348160 -0.047634 -0.160868 -0.158663 -0.103983 -0.328717 0.227819 0.225430 0.088944 -0.117746 -0.023046 0.057461 0.089421 0.064882 -0.246679 0.121130 0.012266 0.239743 -0.071452 -0.052739 0.207230 -0.069394 0.226176 0.023322 -0.176075 0.043608 -0.324743 0.116315 0.243494 0.272190 -0.061253 0.354365 0.113697 0.090114 -0.092059 0.274267 -0.242564 0.167206 0.066056 0.268376 -0.120469 -0.297153 -0.320189 -0.084943 0.043947 -0.308687 0.312980 -0.187782 0.021549 -0.202566
18 -0.009628 -0.109409 -0.246500 0.006827 0.134629 -0.104010 -0.132210 0.359341 0.399735 0.178835 0.136356 0.571174 0.127140 -0.007889 0.078277 -0.351985 -0.042271 -0.091439 -0.538484 0.252561 0.266187 0.029054 0.525235 0.098484 0.358729 0.267906 -0.142686 -0.034698 0.190110 0.221756 0.008830 0.171309 -0.053315 0.227771 0.132968 -0.357141 0.319082 -0.022840 -0.052480 0.424344 -0.177948 -0.045393 -0.024069 0.400104 -0.199932 0.188960 -0.048605 0.013161 -0.133920 -0.104580 -0.044507 -0.400413 0.217404 0.260820 -0.111854 0.041427 -0.124911 0.046547 -0.205681 -0.169994 0.160589 -0.451616 0.065900 -0.030144
17 -0.058843 -0.156416 -0.154626 0.041972 0.206762 0.030718 -0.098228 0.270568 0.340424 0.173723 0.081686 0.538433 -0.023170 0.089175 0.196711 -0.236806 -0.045639 -0.104568 -0.509055 0.038518 0.233732 0.208589 0.433140 -0.029671 0.225406 0.193799 -0.131135 0.027299 0.030052 0.277651 0.014477 0.215328 -0.068382 0.177427 0.203289 -0.247537 0.340681 -0.067153 -0.184895 0.380371 -0.188470 0.019388 0.159586 0.439789 -0.147502 0.207695 -0.041887 0.125045 -0.191893 0.048295 -0.051766 -0.279586 0.167090 0.388095 -0.094875 -0.142771 -0.199053 0.072929 -0.090708 -0.324372 0.224400 -0.387487 0.025203 -0.254472
1 0.123159 -0.386890 -0.003587 -0.101356 -0.186593 -0.193440 0.211820 0.227299 0.349803 0.081694 -0.035144 0.212765 0.143938 -0.373495 0.154217 -0.420439 -0.086619 -0.381553 0.081080 0.135917 0.195346 -0.279258 0.043156 0.137327 0.443727 0.147725 0.047335 -0.154019 0.067572 -0.013293 -0.120657 0.058992 -0.052320 -0.025322 0.002814 -0.425672 0.100188 0.136315 0.143170 -0.174406 -0.337319 -0.147604 -0.091507 0.194870 -0.278567 0.149761 0.091148 -0.354867 0.219237 0.112441 -0.388296 0.109461 0.067523 0.010393 -0.083468 0.083393 -0.153642 -0.069896 -0.003449 -0.107212 0.213492 -0.386977 0.204152 0.398754
2 0.047167 -0.225782 -0.083555 -0.162169 -0.168192 -0.257989 0.009127 0.279727 0.331644 0.160500 0.023500 0.392160 0.273662 -0.242812 -0.011392 -0.407379 -0.118516 -0.221058 -0.199640 0.275523 0.297015 -0.280106 0.366613 0.232776 0.398503 0.295805 0.021570 -0.097411 0.213481 -0.009175 -0.029797 0.089066 -0.020774 0.093069 0.015433 -0.414547 0.174973 0.114374 0.178732 0.108019 -0.306066 -0.137894 -0.212125 0.222841 -0.228735 0.180724 0.083280 -0.221401 0.076183 -0.091922 -0.229624 -0.214299 0.154368 -0.054817 -0.112134 0.190833 -0.136635 0.002751 -0.250814 0.046358 0.145535 -0.434273 0.196295 0.342346
15 -0.364758 -0.373312 0.586672 -0.477946 0.022661 0.284672 -0.061905 -0.391742 -0.197516 0.296403 -0.392710 0.297694 -0.197998 0.241929 0.324145 0.083933 -0.276711 -0.264864 -0.150058 -0.715973 0.461005 0.468878 0.180283 0.044737 -0.320822 0.197042 0.313434 0.360409 -0.436493 -0.051810 0.032759 0.383944 -0.044188 -0.056582 0.366215 0.092024 0.015819 -0.044180 -0.093486 -0.106329 -0.604414 0.248277 0.347872 0.223823 0.201483 0.416624 0.160604 0.331068 -0.229762 0.508835 -0.153769 0.134112 -0.099309 0.303619 -0.126096 -0.406429 -0.573193 0.156488 -0.129959 -0.237300 0.415741 -0.253517 0.146404 -0.626055
16 -0.329583 -0.364216 0.548733 -0.433004 0.036306 0.271939 -0.039710 -0.353981 -0.168597 0.288372 -0.384778 0.303053 -0.207455 0.228147 0.338431 0.056979 -0.261373 -0.282722 -0.157071 -0.683970 0.429227 0.463978 0.169636 0.024960 -0.267429 0.189988 0.294517 0.339980 -0.426918 -0.027755 0.016430 0.373762 -0.061412 -0.055479 0.362852 0.071514 0.039140 -0.058629 -0.118779 -0.115663 -0.584448 0.244399 0.356018 0.238838 0.179619 0.382941 0.154635 0.318187 -0.224698 0.519173 -0.149171 0.133045 -0.087636 0.329475 -0.107882 -0.393203 -0.549055 0.157274 -0.097505 -0.284442 0.409274 -0.279074 0.139245 -0.619325
20 -0.071778 -0.347429 0.227393 -0.500843 -0.583730 -0.321884 0.044326 -0.022421 0.144536 0.304142 -0.194036 0.256549 0.376945 -0.306042 -0.068363 -0.265319 -0.321884 -0.250083 0.087455 0.077214 0.473063 -0.485421 0.334343 0.355952 0.221527 0.401008 0.346056 -0.045346 0.086907 -0.319499 0.014360 0.135421 0.070657 -0.096143 0.000922 -0.319029 0.047399 0.262152 0.369797 -0.127636 -0.602768 -0.098666 -0.406823 0.007646 -0.106056 0.397382 0.336505 -0.246705 0.174360 -0.036252 -0.414868 0.000817 0.115091 -0.461440 -0.149393 0.264448 -0.306455 -0.117635 -0.437569 0.325830 0.216023 -0.373513 0.314457 0.588709
21 -0.070156 -0.322068 0.206517 -0.526359 -0.620313 -0.359484 0.008992 -0.000954 0.175850 0.330712 -0.172797 0.298789 0.419755 -0.325534 -0.116528 -0.282055 -0.321897 -0.239156 0.076726 0.161526 0.487264 -0.544941 0.386755 0.391803 0.250043 0.439925 0.340900 -0.057835 0.132227 -0.327834 0.037566 0.129132 0.082019 -0.078461 -0.029607 -0.359648 0.046115 0.295072 0.418591 -0.078277 -0.609999 -0.115347 -0.466386 0.000277 -0.124950 0.404314 0.345602 -0.271264 0.180576 -0.086792 -0.400411 -0.054039 0.129886 -0.517335 -0.147088 0.327777 -0.300316 -0.110908 -0.493060 0.374878 0.183562 -0.406828 0.327636 0.663405
