20 64
17 0.199549 -0.250641 0.168491 -0.175983 -0.291435 -0.253448 -0.142608 -0.093041 0.486242 0.671807 -0.169196 0.622408 0.353518 0.290946 -0.229938 0.218041 -0.326950 -0.384162 -0.199313 0.510345 0.483632 -0.416395 0.405046 0.033922 0.242461 0.602503 0.031929 0.184124 0.179300 0.238064 0.102549 0.346470 0.297386 -0.081056 -0.058911 -0.392067 -0.230144 0.340668 0.248516 0.451798 -0.070008 -0.079095 -0.498216 -0.003743 0.019338 0.218439 -0.000312 0.221971 -0.053899 0.145542 -0.381745 -0.360553 0.096262 -0.267350 0.257624 0.125284 -0.527188 0.251728 0.358955 -0.423305 0.178902 -0.410771 0.357704 -0.213109
15 -0.183104 -0.309242 0.172696 -0.277714 -0.034366 -0.065516 -0.088642 -0.047056 0.207803 0.119778 0.015626 0.424654 0.057934 0.147732 0.078269 -0.113008 -0.320717 -0.168820 -0.173232 -0.173180 0.377543 0.058822 0.304919 0.062241 -0.241060 0.116649 0.023796 0.098271 -0.005537 -0.119771 0.033247 0.212369 -0.004298 -0.073002 0.083659 -0.049468 0.162753 0.153748 0.129334 0.189921 -0.106242 -0.008168 0.142234 0.176837 -0.044459 0.284086 0.081843 0.085680 -0.185345 0.041489 -0.148866 -0.041957 0.048068 0.003644 -0.156927 -0.233032 -0.250267 0.215097 -0.127519 -0.027951 0.219466 -0.220726 0.056938 -0.120971
13 0.067831 -0.243117 0.198520 -0.192275 -0.237923 -0.139271 -0.181588 -0.135148 0.371963 0.584728 -0.175636 0.562125 0.187551 0.280617 -0.095878 0.231900 -0.430391 -0.233432 -0.181084 0.190586 0.489068 -0.224812 0.426995 -0.039818 0.024824 0.464996 0.099844 0.189668 0.061414 0.180993 0.128601 0.336873 0.220035 -0.139416 0.040763 -0.173440 -0.055046 0.337044 0.093171 0.461517 -0.100923 0.052742 -0.216376 0.013581 0.041605 0.386508 0.155452 0.241813 -0.143928 0.142475 -0.306944 -0.213102 0.074296 -0.167342 0.147566 -0.036756 -0.491525 0.110622 0.216707 -0.342811 0.253039 -0.270708 0.213019 -0.207349
2 -0.227044 -0.402103 0.123230 -0.316255 0.100552 -0.129751 0.024142 0.149548 0.217129 -0.191742 0.187381 0.401096 0.088193 -0.047352 0.179301 -0.509638 -0.147885 -0.323020 -0.143317 -0.198454 0.305634 0.105671 0.148943 0.191383 -0.202161 -0.063731 -0.101698 0.018246 0.054129 -0.299102 -0.088661 0.096323 -0.176831 0.024417 0.026481 -0.189052 0.274959 0.055245 0.291883 -0.068429 -0.097663 -0.168941 0.287969 0.366097 -0.196159 0.075742 -0.083799 -0.150934 -0.140650 0.012199 -0.100140 -0.013460 0.060666 0.144301 -0.361267 -0.257936 -0.074824 0.424946 -0.272356 0.090987 0.187773 -0.388288 0.067615 -0.003257
6 -0.006436 -0.261504 0.056185 0.206005 0.116796 -0.074879 0.071917 0.548562 0.330095 -0.068306 0.304326 0.307425 -0.078772 -0.435378 0.356738 -0.511762 -0.011206 -0.491779 0.243310 0.014363 0.058397 -0.071580 -0.106399 -0.301652 0.480420 0.024232 -0.184587 -0.080463 0.161635 0.186670 -0.190035 -0.166300 -0.128382 0.032634 -0.033869 -0.365713 0.464340 0.316902 0.018931 0.053899 -0.275592 -0.188031 0.533798 0.489216 -0.333629 0.112664 0.052462 -0.646448 -0.014048 0.135071 -0.105636 0.014168 -0.011217 0.409225 -0.248604 -0.154063 -0.101258 -0.108942 0.118027 -0.399521 0.482461 -0.367736 0.082627 0.323463
4 -0.053094 -0.262386 0.055427 0.059937 0.111696 -0.107214 0.051317 0.427906 0.287318 -0.119623 0.269124 0.307932 -0.008397 -0.317251 0.263744 -0.492478 -0.013524 -0.424417 0.126738 0.000857 0.107831 -0.033142 -0.050926 -0.132536 0.289854 0.002143 -0.174598 -0.043544 0.143625 0.034784 -0.161513 -0.099233 -0.144586 0.038447 -0.039046 -0.320528 0.379354 0.218139 0.114554 0.018519 -0.190446 -0.208425 0.415742 0.445184 -0.272905 0.050062 -0.008675 -0.486215 -0.049867 0.074263 -0.087310 -0.016265 0.017539 0.307136 -0.268649 -0.144774 -0.066850 0.065924 0.010034 -0.233131 0.351445 -0.369045 0.085670 0.232863
10 -0.204267 -0.277735 0.191522 -0.193715 -0.041394 -0.003376 -0.157178 -0.020449 0.197556 0.182709 -0.001441 0.452565 -0.055577 0.144576 0.127450 -0.003520 -0.392659 -0.087682 -0.111290 -0.259343 0.381862 0.094073 0.360923 -0.072181 -0.234667 0.130069 0.067474 0.115366 -0.050557 -0.019736 0.077163 0.188098 0.000719 -0.109134 0.118946 0.053331 0.264877 0.226952 -0.027968 0.310881 -0.158422 0.074843 0.307061 0.188752 -0.024300 0.437781 0.253171 0.069229 -0.226258 0.058603 -0.127434 -0.005648 0.027414 0.044667 -0.150093 -0.272024 -0.280898 0.050643 -0.127190 -0.091868 0.312943 -0.149658 -0.002591 -0.068104
3 -0.178787 -0.302669 0.117238 -0.146603 0.081404 -0.086210 -0.005841 0.212558 0.206741 -0.099205 0.182231 0.351125 0.007554 -0.112592 0.178886 -0.386379 -0.133207 -0.281395 -0.039201 -0.152237 0.221495 0.068275 0.126727 0.020777 -0.039095 -0.007786 -0.089502 0.022025 0.075463 -0.107267 -0.079328 0.031889 -0.135990 0.017068 0.019884 -0.171974 0.310723 0.143425 0.151163 0.053155 -0.139004 -0.140028 0.344640 0.355878 -0.184274 0.134630 0.022965 -0.227568 -0.136424 0.033632 -0.077809 -0.018762 0.020215 0.182486 -0.288124 -0.222583 -0.108365 0.207899 -0.162864 -0.031763 0.249959 -0.296536 0.035299 0.078597
14 -0.068896 -0.266711 0.183476 -0.232831 -0.119170 -0.090549 -0.132886 -0.091267 0.256642 0.327687 -0.091280 0.468260 0.101289 0.205925 -0.003326 0.054316 -0.337080 -0.183032 -0.168744 -0.007197 0.404399 -0.052559 0.348464 0.023020 -0.109248 0.272251 0.066144 0.145872 0.002255 0.031462 0.088498 0.263327 0.087424 -0.088540 0.074050 -0.100676 0.048859 0.214688 0.094866 0.299303 -0.109947 0.024868 -0.027513 0.098221 -0.003799 0.307707 0.116411 0.172538 -0.159631 0.101068 -0.210492 -0.118717 0.052841 -0.071566 -0.001420 -0.132647 -0.350743 0.179688 0.017224 -0.172636 0.205470 -0.246394 0.135759 -0.164560
0 -0.215865 -0.423823 0.117790 -0.309750 0.114560 -0.138250 0.050439 0.191126 0.238757 -0.224971 0.224823 0.388785 0.090832 -0.101586 0.216227 -0.585475 -0.085003 -0.391494 -0.123649 -0.172278 0.276579 0.084324 0.085460 0.207115 -0.137511 -0.078304 -0.118166 -0.004776 0.056876 -0.311076 -0.124905 0.079708 -0.194888 0.036174 0.025910 -0.262715 0.294766 0.061768 0.324272 -0.125758 -0.122666 -0.218666 0.288868 0.417146 -0.227558 0.040967 -0.116970 -0.221635 -0.128818 0.040970 -0.112460 -0.006618 0.052968 0.165339 -0.377571 -0.247291 -0.071613 0.448268 -0.265445 0.064015 0.198457 -0.454259 0.089605 0.040846
1 -0.216262 -0.435836 0.099970 -0.219401 0.176684 -0.146805 0.086786 0.329340 0.271412 -0.302218 0.296301 0.367517 0.052736 -0.232036 0.290447 -0.700730 -0.041171 -0.455514 -0.024743 -0.185104 0.230555 0.093503 0.000849 0.130090 -0.019931 -0.127287 -0.163718 -0.037695 0.093370 -0.277037 -0.191087 -0.005362 -0.239235 0.058414 0.002658 -0.310196 0.378054 0.088178 0.301081 -0.166818 -0.157718 -0.253084 0.432757 0.498246 -0.299817 0.008576 -0.123002 -0.382867 -0.089974 0.048712 -0.099001 0.039765 0.046362 0.283024 -0.436439 -0.263334 -0.018485 0.377111 -0.240358 0.007068 0.277781 -0.478729 0.070869 0.133272
16 -0.211298 -0.336593 0.144633 -0.270649 0.038156 -0.075180 -0.044816 0.054829 0.198709 -0.035789 0.089278 0.399030 0.026873 0.047451 0.161854 -0.294209 -0.245444 -0.221821 -0.141071 -0.227430 0.324221 0.104080 0.226969 0.092430 -0.217515 0.011466 -0.019800 0.053164 -0.007633 -0.201921 -0.023852 0.147279 -0.100644 -0.045599 0.078017 -0.078202 0.253543 0.105522 0.153650 0.062559 -0.118699 -0.051588 0.270926 0.268829 -0.110730 0.209606 0.049562 -0.032961 -0.174264 0.043550 -0.104597 0.002474 0.047232 0.093650 -0.252088 -0.250901 -0.151896 0.269771 -0.206745 0.012762 0.223858 -0.292400 0.037646 -0.044419
5 -0.151686 -0.403339 0.062224 -0.096990 0.181604 -0.134136 0.107582 0.401008 0.292443 -0.290695 0.337465 0.350696 0.002669 -0.309417 0.334863 -0.708021 -0.002288 -0.498275 0.055763 -0.110923 0.168131 0.057462 -0.076629 0.041574 0.141857 -0.121155 -0.197124 -0.073505 0.109854 -0.173384 -0.208226 -0.077583 -0.239843 0.069154 -0.009423 -0.352188 0.418804 0.146004 0.243476 -0.132535 -0.170316 -0.260371 0.459351 0.517531 -0.330255 0.009749 -0.093464 -0.496029 -0.071053 0.062407 -0.089812 0.038529 0.044378 0.312277 -0.398733 -0.235084 -0.006569 0.263111 -0.142835 -0.103494 0.312817 -0.480140 0.097791 0.226650
12 -0.076623 -0.273913 0.208025 -0.226313 -0.172760 -0.087020 -0.205477 -0.138985 0.287684 0.453404 -0.113253 0.544929 0.088692 0.278411 -0.025331 0.185282 -0.449819 -0.139952 -0.158260 -0.009627 0.472350 -0.073259 0.441951 -0.051508 -0.132038 0.342544 0.104454 0.180257 0.002536 0.091693 0.136462 0.309072 0.136921 -0.128986 0.090350 -0.044072 0.039684 0.297100 0.046827 0.443466 -0.118308 0.076622 -0.025138 0.053150 0.033810 0.439001 0.203710 0.219286 -0.200228 0.092836 -0.245311 -0.130547 0.052316 -0.123834 0.031440 -0.148200 -0.420284 0.097063 0.064107 -0.217803 0.272010 -0.202351 0.121720 -0.165727
11 -0.179596 -0.272094 0.196157 -0.205933 -0.079760 -0.035143 -0.176114 -0.057826 0.214250 0.245450 -0.044350 0.459352 -0.012194 0.193275 0.088429 0.048633 -0.413234 -0.088463 -0.128572 -0.209398 0.401409 0.051278 0.386817 -0.066732 -0.233780 0.174433 0.076076 0.134130 -0.049206 -0.006656 0.107936 0.229292 0.043301 -0.136262 0.122178 0.051743 0.204038 0.241742 -0.007735 0.346895 -0.126643 0.087649 0.209319 0.132800 -0.009925 0.424858 0.237383 0.141527 -0.226355 0.070475 -0.153943 -0.030518 0.031812 -0.011346 -0.092675 -0.249593 -0.310310 0.082560 -0.085617 -0.112093 0.283753 -0.153464 0.036687 -0.104076
9 -0.143830 -0.239011 0.105682 -0.088061 0.033198 -0.055560 -0.054754 0.178511 0.208762 0.012933 0.121609 0.347741 -0.011963 -0.068606 0.150163 -0.226638 -0.188603 -0.195488 -0.019614 -0.128330 0.211591 0.051776 0.175979 -0.084557 -0.027340 0.061300 -0.052028 0.030837 0.045957 -0.013111 -0.027006 0.058198 -0.073876 -0.028768 0.043170 -0.107221 0.290868 0.175189 0.047101 0.153942 -0.154188 -0.073810 0.319940 0.287506 -0.135671 0.198062 0.092766 -0.165702 -0.137573 0.028935 -0.093005 -0.019436 0.014671 0.151777 -0.194925 -0.196872 -0.151507 0.086515 -0.094853 -0.105562 0.275659 -0.220073 0.014521 0.056406
19 0.150222 -0.266193 0.198309 -0.190716 -0.278555 -0.200084 -0.192864 -0.117422 0.470354 0.682367 -0.188407 0.653701 0.276155 0.306154 -0.171632 0.248409 -0.420799 -0.327603 -0.187221 0.389799 0.527201 -0.347338 0.458833 -0.015522 0.160096 0.589085 0.066824 0.198980 0.125801 0.234237 0.126102 0.366004 0.281915 -0.122817 -0.007763 -0.295914 -0.160834 0.374551 0.175354 0.513821 -0.104184 -0.004152 -0.365404 0.001463 0.043453 0.348453 0.099544 0.226587 -0.106294 0.148332 -0.368700 -0.312587 0.082673 -0.225711 0.225901 0.061930 -0.549711 0.167871 0.317163 -0.421667 0.246894 -0.370856 0.307673 -0.202982
18 0.188913 -0.265704 0.200727 -0.201919 -0.317905 -0.224194 -0.219495 -0.145684 0.514027 0.793850 -0.223856 0.705720 0.326983 0.351083 -0.212080 0.306321 -0.459098 -0.340676 -0.222887 0.463679 0.583596 -0.400882 0.511958 -0.016263 0.198513 0.671671 0.089620 0.223126 0.152152 0.283161 0.143201 0.412479 0.334057 -0.122435 -0.010040 -0.332309 -0.212211 0.406967 0.188366 0.576894 -0.107021 0.014337 -0.460771 -0.033075 0.058924 0.383190 0.092790 0.278474 -0.099187 0.158251 -0.408001 -0.362402 0.105060 -0.261097 0.273264 0.099182 -0.606829 0.156936 0.368479 -0.474536 0.262341 -0.395029 0.337494 -0.245772
7 0.007097 -0.266026 0.035062 0.217634 0.120183 -0.072820 0.083093 0.593405 0.344341 -0.106772 0.319907 0.312540 -0.093545 -0.488774 0.393401 -0.565834 0.033026 -0.515076 0.262105 0.029943 0.034897 -0.062700 -0.138282 -0.298142 0.527492 0.006858 -0.225059 -0.084467 0.150927 0.179629 -0.196711 -0.176999 -0.176005 0.038981 -0.051823 -0.392379 0.495371 0.294347 0.028121 0.042906 -0.293543 -0.214180 0.565498 0.549967 -0.348399 0.090831 0.043490 -0.693458 -0.019440 0.138383 -0.103872 0.016576 0.001423 0.453421 -0.288544 -0.140682 -0.080839 -0.102242 0.114511 -0.397277 0.476339 -0.410765 0.097175 0.371768
8 -0.062580 -0.290953 0.067421 0.147823 0.129083 -0.067270 0.065220 0.526711 0.304333 -0.123763 0.307183 0.316851 -0.098768 -0.415008 0.375196 -0.548341 -0.009184 -0.459996 0.223438 -0.050102 0.072457 -0.008864 -0.089716 -0.258931 0.384191 -0.010916 -0.188647 -0.059603 0.126353 0.114262 -0.183963 -0.148859 -0.173067 0.038704 -0.024455 -0.328287 0.499406 0.272998 0.045042 0.046515 -0.267967 -0.194405 0.569944 0.525988 -0.321483 0.119420 0.048791 -0.614852 -0.056475 0.118010 -0.091529 0.026831 0.006874 0.416384 -0.314174 -0.190956 -0.084384 -0.051211 0.028928 -0.324677 0.449743 -0.381900 0.065396 0.319044
