16 64
13 0.124528 -0.181715 0.277167 -0.394423 0.030331 0.140767 0.138241 -0.360386 0.064164 0.232760 -0.241699 -0.136294 0.090533 -0.302327 0.261114 -0.068260 -0.272944 -0.311143 -0.159164 -0.439926 0.521370 0.163968 -0.388232 0.207797 -0.295873 -0.015807 0.281125 0.231144 -0.089849 0.065725 -0.166543 0.266320 -0.042193 -0.132789 0.167195 -0.294966 0.113546 0.339719 0.056214 -0.142236 -0.095766 0.085945 0.065445 0.195367 -0.016217 0.418133 0.010061 0.054602 -0.068742 0.349849 -0.332543 0.321493 0.076755 0.365203 -0.224701 -0.404943 -0.481162 -0.239672 0.300021 -0.308242 0.379039 0.022424 0.035322 -0.450182
7 0.050811 -0.189231 0.136718 -0.206085 0.049999 0.053509 0.122592 -0.093636 0.135008 0.058361 -0.059760 -0.011410 0.013872 -0.291476 0.207985 -0.159984 -0.154061 -0.259493 -0.067828 -0.298061 0.304416 0.091200 -0.225364 0.138189 -0.100456 -0.086706 0.128513 0.075658 -0.021081 0.044612 -0.124896 0.115737 -0.105137 -0.069561 0.077531 -0.244464 0.157822 0.239570 0.010074 -0.123005 -0.093443 -0.010766 0.192298 0.223305 -0.130696 0.264417 0.073044 -0.099216 -0.009696 0.219135 -0.224372 0.257150 0.017227 0.269556 -0.200484 -0.286225 -0.250273 -0.124123 0.151722 -0.175161 0.279328 -0.039895 -0.007291 -0.132741
4 -0.122622 -0.295046 0.074727 -0.145375 0.112891 -0.080977 0.099468 0.142198 0.184342 -0.138448 0.143241 0.124888 -0.028221 -0.255209 0.123101 -0.352870 -0.013591 -0.222022 0.023459 -0.193851 0.127126 0.061627 -0.052563 0.147670 -0.033933 -0.137314 0.039468 -0.024649 0.072633 -0.059440 -0.145536 -0.003785 -0.181969 0.063271 0.011594 -0.251271 0.207182 0.138952 0.096099 -0.147459 -0.079954 -0.182000 0.294832 0.293590 -0.261238 0.096215 0.053468 -0.250457 0.013008 0.092553 -0.145291 0.177786 -0.039461 0.162639 -0.256146 -0.212507 -0.050106 0.132704 -0.139717 0.019195 0.148467 -0.183130 -0.089534 0.155774
9 -0.158598 -0.248177 0.056548 -0.104331 0.054818 0.069719 0.045736 0.054456 0.178123 -0.073765 0.095500 0.213509 -0.180891 -0.143115 0.131372 -0.120306 -0.174874 0.004908 -0.038281 -0.299827 0.173591 0.167421 0.120808 0.036750 -0.208054 -0.101268 0.056103 -0.018266 -0.037425 0.022424 -0.030063 0.019524 -0.151579 0.008852 0.045549 -0.049361 0.360562 0.150121 -0.114717 0.107220 -0.110529 -0.065388 0.415254 0.305290 -0.154033 0.351251 0.282288 -0.132963 -0.089860 -0.001328 -0.120935 0.185879 0.007939 0.129499 -0.239702 -0.296567 -0.126342 -0.076221 -0.195193 0.037125 0.168196 -0.005407 -0.176164 0.143929
3 -0.215785 -0.325098 0.066372 -0.124635 0.101980 -0.048263 0.073874 0.167572 0.178393 -0.175585 0.181471 0.201962 -0.125487 -0.178364 0.090576 -0.317150 -0.020607 -0.092912 0.019774 -0.219098 0.084927 0.102270 0.098710 0.128201 -0.111581 -0.137717 0.030574 -0.039461 0.051160 -0.065380 -0.102262 -0.030899 -0.194087 0.105395 -0.003082 -0.159106 0.291430 0.094016 0.050996 -0.042126 -0.089756 -0.189881 0.371311 0.327930 -0.248052 0.170196 0.151183 -0.233029 -0.032358 0.017911 -0.103487 0.144804 -0.036949 0.105774 -0.289117 -0.227451 -0.028008 0.144785 -0.307135 0.131751 0.082407 -0.151809 -0.168362 0.250007
10 -0.293202 -0.319274 0.024677 -0.033667 0.055431 0.147949 0.010506 0.117181 0.221806 -0.156193 0.188002 0.383304 -0.376759 -0.015909 0.130348 -0.045780 -0.237438 0.197492 -0.040684 -0.383069 0.168240 0.227339 0.355195 -0.003535 -0.332042 -0.147585 0.037649 -0.073178 -0.091706 0.010481 0.039539 -0.064151 -0.164606 0.054570 0.014124 0.122379 0.562937 0.117267 -0.251095 0.280714 -0.131162 -0.044370 0.639896 0.384003 -0.141421 0.555795 0.523047 -0.130572 -0.139484 -0.126377 -0.056554 0.180941 0.039859 0.045779 -0.311160 -0.355660 -0.074884 -0.125752 -0.440439 0.185370 0.140156 0.057288 -0.299794 0.320580
8 -0.056636 -0.220959 0.121148 -0.154933 0.032698 0.104122 0.079236 -0.072846 0.123240 0.027712 -0.011799 0.093100 -0.120544 -0.161390 0.187125 -0.091515 -0.186214 -0.089791 -0.058757 -0.317851 0.259251 0.143134 -0.041739 0.072858 -0.200667 -0.073723 0.112657 0.053920 -0.068568 0.047880 -0.056666 0.073008 -0.092608 -0.030086 0.075498 -0.099519 0.277631 0.200663 -0.063879 0.045328 -0.092636 0.009381 0.276943 0.241114 -0.096647 0.376603 0.199189 -0.063938 -0.079112 0.117679 -0.165269 0.205870 0.040684 0.179619 -0.215008 -0.311124 -0.225801 -0.138863 -0.034574 -0.075641 0.207151 0.006067 -0.080203 -0.024674
5 -0.148676 -0.366847 0.105517 -0.235610 0.135079 -0.140311 0.131945 0.133188 0.173150 -0.162924 0.150352 0.092932 0.033414 -0.282245 0.107547 -0.482353 0.067530 -0.294676 0.028190 -0.162799 0.109584 0.051797 -0.100949 0.242227 -0.032692 -0.136098 0.062213 -0.011896 0.100598 -0.122732 -0.201835 0.027251 -0.205357 0.119182 0.019261 -0.356033 0.134225 0.107365 0.235595 -0.261396 -0.074069 -0.254242 0.197320 0.301313 -0.306765 0.000001 -0.077958 -0.272516 0.035940 0.132525 -0.182042 0.170170 -0.055372 0.159931 -0.286429 -0.195780 -0.048941 0.277300 -0.194245 0.055488 0.087786 -0.285464 -0.075136 0.149216
6 -0.064691 -0.250650 0.094692 -0.136392 0.078397 0.000738 0.104531 0.040028 0.154416 -0.053315 0.068809 0.084889 -0.056481 -0.233833 0.168112 -0.238305 -0.094675 -0.201570 -0.011734 -0.249136 0.186196 0.080598 -0.088945 0.108628 -0.074357 -0.119046 0.074797 -0.002699 0.012717 0.004984 -0.109519 0.027127 -0.130568 0.003538 0.052410 -0.200067 0.218746 0.190975 0.016471 -0.090929 -0.083038 -0.082449 0.270905 0.244983 -0.200799 0.208550 0.108705 -0.177454 -0.010623 0.130946 -0.159535 0.205628 -0.017479 0.175830 -0.208932 -0.260318 -0.134078 -0.005832 -0.035100 -0.063421 0.195795 -0.090504 -0.060331 0.056928
1 -0.209535 -0.392904 0.112775 -0.254499 0.153347 -0.203747 0.110739 0.216132 0.191482 -0.208898 0.183612 0.111097 0.071798 -0.301909 0.056931 -0.551174 0.124875 -0.292468 0.061648 -0.137939 0.061588 0.037419 -0.050747 0.249882 -0.019856 -0.128232 0.045944 -0.008572 0.149549 -0.168954 -0.227064 0.027740 -0.232701 0.150907 -0.011443 -0.385744 0.111152 0.061565 0.299516 -0.299574 -0.092874 -0.331183 0.223498 0.337927 -0.342405 -0.089786 -0.128474 -0.313723 0.054077 0.109947 -0.181460 0.150051 -0.090320 0.170449 -0.326821 -0.158055 -0.005174 0.383621 -0.282555 0.128369 0.064985 -0.343339 -0.118377 0.202266
0 -0.282929 -0.458781 0.104168 -0.271379 0.161041 -0.222917 0.110341 0.265412 0.195897 -0.271373 0.257010 0.164469 0.039482 -0.284764 0.046451 -0.629729 0.174794 -0.269566 0.069358 -0.124657 0.004837 0.042872 0.016051 0.275668 -0.044774 -0.145378 0.031388 -0.044690 0.157225 -0.212949 -0.225473 0.006576 -0.264975 0.205184 -0.013190 -0.395830 0.157127 0.032060 0.343310 -0.301443 -0.100464 -0.395449 0.244121 0.382548 -0.386526 -0.102224 -0.130193 -0.361788 0.033582 0.074045 -0.169439 0.119649 -0.107888 0.121344 -0.365785 -0.160154 0.028441 0.484256 -0.423875 0.213297 0.002887 -0.399777 -0.153450 0.303576
2 -0.236790 -0.384184 0.081236 -0.207731 0.130844 -0.140466 0.088863 0.217569 0.183367 -0.219256 0.201570 0.183266 -0.019311 -0.230457 0.054965 -0.469030 0.071642 -0.170108 0.042678 -0.163646 0.053268 0.073398 0.063833 0.201737 -0.088915 -0.132926 0.028846 -0.034825 0.109130 -0.144864 -0.160114 -0.004717 -0.229306 0.157500 -0.018700 -0.270749 0.202179 0.041730 0.205202 -0.183707 -0.092714 -0.283880 0.299866 0.343852 -0.310895 0.015696 -0.011432 -0.284959 0.016409 0.036444 -0.139770 0.125800 -0.064225 0.126635 -0.329261 -0.179028 0.009831 0.324206 -0.362260 0.178866 0.040293 -0.273033 -0.162085 0.249673
15 0.120939 -0.185342 0.310875 -0.439975 0.025961 0.176689 0.136855 -0.426133 0.054080 0.268144 -0.277361 -0.152689 0.097994 -0.296066 0.278204 -0.038957 -0.312116 -0.314337 -0.187244 -0.484074 0.572719 0.193997 -0.405409 0.213687 -0.348347 0.003780 0.301429 0.260509 -0.114631 0.068549 -0.168606 0.311317 -0.020802 -0.155562 0.195233 -0.294300 0.102468 0.359429 0.060231 -0.122903 -0.115141 0.108851 0.046573 0.193397 0.017818 0.469216 -0.001243 0.090272 -0.090161 0.366443 -0.357947 0.337924 0.081945 0.388517 -0.230706 -0.444349 -0.545508 -0.282200 0.331146 -0.328142 0.412105 0.050273 0.044556 -0.520077
14 0.129748 -0.181586 0.311078 -0.438339 0.032376 0.157713 0.131310 -0.415686 0.042079 0.268135 -0.283731 -0.160437 0.109717 -0.297492 0.266717 -0.048016 -0.280805 -0.323860 -0.174283 -0.461101 0.558794 0.183699 -0.419337 0.226267 -0.326894 0.006571 0.309007 0.266190 -0.112162 0.069909 -0.167943 0.302402 -0.026304 -0.139610 0.193820 -0.308162 0.080423 0.350016 0.071213 -0.149936 -0.107618 0.101223 0.027963 0.185062 0.009219 0.431378 -0.017252 0.091929 -0.077093 0.380230 -0.353531 0.326749 0.077493 0.381089 -0.217634 -0.421142 -0.528930 -0.243754 0.325661 -0.334454 0.391520 0.023692 0.058698 -0.520046
12 -0.289848 -0.308236 0.020565 -0.018420 0.051144 0.127973 0.000980 0.128685 0.213995 -0.149228 0.197147 0.379342 -0.367840 -0.032056 0.134395 -0.049058 -0.241710 0.178850 -0.023592 -0.379183 0.154861 0.221910 0.344060 -0.027259 -0.302108 -0.153368 0.027261 -0.074065 -0.078095 0.024769 0.048633 -0.066280 -0.175456 0.042627 0.019751 0.123980 0.550074 0.137109 -0.254116 0.285996 -0.123073 -0.043538 0.640927 0.369262 -0.158634 0.533366 0.518533 -0.144765 -0.146302 -0.119900 -0.052501 0.181573 0.023258 0.045331 -0.299999 -0.357511 -0.065314 -0.123229 -0.407200 0.168769 0.150539 0.061765 -0.286706 0.330678
11 -0.290786 -0.316890 0.014966 -0.018454 0.070290 0.080532 0.009441 0.174895 0.222308 -0.185572 0.210132 0.357533 -0.329585 -0.050487 0.122574 -0.125861 -0.179100 0.133742 -0.008476 -0.326965 0.114936 0.186756 0.322178 0.001043 -0.247822 -0.155440 0.004687 -0.087116 -0.052992 -0.006751 0.025350 -0.075208 -0.175218 0.057125 0.010997 0.076199 0.510363 0.112638 -0.191815 0.228561 -0.111564 -0.082678 0.596831 0.364173 -0.188788 0.438635 0.447904 -0.170129 -0.118710 -0.108050 -0.046041 0.161371 0.006421 0.044174 -0.289195 -0.316798 -0.030500 -0.042935 -0.422709 0.181282 0.113252 -0.000229 -0.258913 0.353689
