21 64
12 -0.163506 -0.501174 0.166962 -0.404256 -0.007696 0.140314 -0.238537 -0.247709 0.147333 0.237032 -0.140374 0.441859 -0.185284 -0.010749 0.251203 0.338985 -0.257870 0.056597 0.007257 -0.643502 0.648131 0.291384 0.092045 0.247809 -0.393380 -0.145169 0.442629 0.150174 -0.442333 0.049844 0.254462 0.232947 -0.243921 -0.010755 0.274263 0.036925 0.122346 0.239521 -0.391911 -0.066570 -0.376724 0.128554 0.563844 0.286494 -0.121455 0.773553 0.625700 0.171046 0.044318 0.265676 -0.459376 0.479740 -0.000784 -0.004916 -0.253127 -0.398703 -0.264249 -0.012726 -0.171909 -0.092002 0.471558 -0.126650 -0.012580 -0.024627
18 0.297939 -0.382046 0.027092 -0.207988 0.022038 -0.306611 -0.255055 0.579205 0.108867 0.038661 -0.164888 0.373211 0.463928 -0.359898 0.138813 -0.803194 -0.256279 -0.246989 -0.131596 0.265806 0.627356 -0.495398 0.473734 0.401022 0.509159 0.430760 0.060871 -0.005772 0.293871 -0.156651 -0.034930 -0.016593 0.029826 0.113582 0.145122 -0.236376 0.130535 0.142240 0.350462 0.022259 -0.277913 0.075984 -0.071843 0.111264 -0.127536 0.416077 0.072334 -0.509004 0.134086 -0.096019 -0.250486 -0.505884 0.128371 0.217681 -0.306538 0.389375 -0.014134 0.011211 -0.435937 0.179132 0.377136 -0.624818 0.491697 0.441717
10 -0.158841 -0.386399 0.108285 -0.198093 -0.028557 0.207354 -0.055477 -0.138460 0.235165 0.099624 -0.051329 0.316030 -0.244974 0.010352 0.294137 0.246532 -0.114020 -0.043158 -0.007282 -0.498738 0.365896 0.199832 0.028797 0.104931 -0.208759 -0.173220 0.201888 0.013927 -0.415987 0.021993 0.162320 0.174683 -0.120242 -0.093194 0.158878 -0.001031 0.157522 0.116203 -0.334228 -0.081086 -0.371613 0.068631 0.480045 0.300971 -0.089966 0.548069 0.455844 0.119615 0.065478 0.260822 -0.328010 0.439514 -0.020140 0.037890 -0.156253 -0.341811 -0.239581 -0.055568 -0.056108 -0.115944 0.363218 -0.097082 -0.009162 0.000153
5 0.048869 -0.271063 -0.040413 0.097859 0.031980 0.008348 0.046602 0.392302 0.328087 -0.210500 0.120931 0.125628 -0.053613 -0.245753 0.358258 -0.388816 0.118553 -0.324335 0.052289 -0.036777 0.097514 -0.246499 -0.043153 0.108974 0.373323 -0.162587 -0.187408 -0.186477 -0.083072 -0.107793 -0.009571 -0.066316 -0.001525 -0.116997 -0.028237 -0.182082 0.190810 0.079284 0.040756 -0.147631 -0.212639 -0.036884 0.279095 0.262107 -0.210091 0.171996 0.117247 -0.312268 0.170665 0.170512 -0.118913 0.117260 -0.031529 0.177562 -0.172957 -0.002445 0.022030 0.002027 -0.042203 0.004215 0.227137 -0.313704 0.223490 0.384428
2 0.249613 -0.354428 -0.009452 -0.064035 0.052615 -0.257044 -0.160871 0.666196 0.189877 -0.138733 -0.014806 0.261376 0.337386 -0.417017 0.239825 -0.818732 -0.074783 -0.334876 -0.023240 0.209086 0.423803 -0.510184 0.272434 0.326757 0.553357 0.188264 -0.086652 -0.098562 0.239184 -0.182373 -0.042906 -0.107409 0.006543 0.040365 0.040422 -0.248706 0.177300 0.141269 0.327916 -0.089131 -0.221344 0.007148 0.087084 0.180074 -0.219281 0.278428 0.050296 -0.571799 0.183764 -0.011832 -0.176279 -0.339976 0.052795 0.249787 -0.322563 0.305149 0.077573 0.065608 -0.341125 0.180523 0.328322 -0.574105 0.445737 0.533798
6 -0.044846 -0.277175 -0.019742 0.110971 -0.005897 0.155022 0.090173 0.229876 0.355673 -0.157987 0.107409 0.118661 -0.220380 -0.153000 0.407892 -0.115448 0.131993 -0.249205 0.075619 -0.221749 0.042562 -0.094213 -0.104882 0.006451 0.219239 -0.268622 -0.143570 -0.189622 -0.274728 -0.037783 0.061912 -0.001977 -0.006811 -0.177856 -0.007130 -0.104287 0.195240 0.058090 -0.152665 -0.156345 -0.281746 -0.001135 0.398886 0.290856 -0.189181 0.242543 0.222808 -0.147975 0.173890 0.261513 -0.160374 0.331773 -0.065448 0.147635 -0.117852 -0.163242 -0.059695 -0.056964 0.044060 -0.078161 0.244004 -0.177057 0.114783 0.267158
9 -0.204575 -0.307695 0.099549 -0.078841 -0.118048 0.302891 0.123798 -0.050852 0.340549 0.044340 0.022866 0.305978 -0.267264 0.008760 0.383121 0.141443 -0.079870 -0.204380 -0.107406 -0.434118 0.133786 0.172735 0.071976 -0.114540 -0.050385 -0.118399 -0.065042 -0.100251 -0.396139 0.006595 0.093735 0.244943 -0.033675 -0.235479 0.096122 -0.060817 0.239940 -0.001171 -0.277849 -0.034014 -0.515485 -0.003423 0.437039 0.406085 -0.051941 0.377300 0.275662 0.064351 -0.011115 0.272747 -0.256428 0.373357 -0.066912 0.155983 -0.101011 -0.362007 -0.355624 -0.099137 0.094762 -0.181968 0.378214 -0.090957 -0.003874 -0.067718
15 -0.355502 -0.338398 0.240334 -0.213064 -0.218419 0.406728 0.207029 -0.185372 0.358206 0.161136 -0.002413 0.471850 -0.243948 0.128394 0.403379 0.177485 -0.271932 -0.316398 -0.324276 -0.563262 0.198385 0.309698 0.268575 -0.235980 -0.153781 0.066438 -0.117559 -0.053718 -0.404026 -0.022890 0.043435 0.448563 0.010886 -0.322881 0.156635 -0.080384 0.317834 -0.061449 -0.253041 0.080053 -0.761612 -0.042733 0.429017 0.543120 0.078514 0.434435 0.213841 0.150827 -0.203583 0.278255 -0.289890 0.293204 -0.080250 0.227502 -0.118726 -0.506712 -0.646143 -0.120744 0.150841 -0.250048 0.543912 -0.083791 -0.025470 -0.346482
1 0.069995 -0.263229 -0.022395 0.073826 0.042807 -0.067272 -0.004185 0.470963 0.266260 -0.218952 0.104628 0.105806 0.044478 -0.292477 0.306805 -0.477283 0.104500 -0.308198 0.069544 -0.002738 0.118304 -0.307261 0.007718 0.129789 0.384273 -0.114741 -0.164427 -0.162567 0.007954 -0.135435 -0.019149 -0.091416 -0.002326 -0.086782 -0.030851 -0.175036 0.171830 0.085369 0.115957 -0.169907 -0.188383 -0.042467 0.256786 0.224020 -0.224369 0.135609 0.076907 -0.371679 0.181513 0.131870 -0.109140 0.029764 -0.045689 0.195482 -0.210780 0.061342 0.065267 0.052736 -0.118960 0.073087 0.230955 -0.336374 0.234375 0.410320
11 -0.061629 -0.322619 0.026465 -0.072911 0.007476 0.111602 -0.058919 0.039762 0.234368 -0.011288 -0.011525 0.192047 -0.182444 -0.079094 0.295018 0.061391 -0.009022 -0.069906 0.070223 -0.324708 0.254791 0.036202 -0.032876 0.114469 -0.029332 -0.208685 0.098205 -0.047808 -0.311887 -0.008923 0.137424 0.061862 -0.083485 -0.090450 0.095488 -0.017157 0.126903 0.115045 -0.222346 -0.108001 -0.233568 0.068704 0.390575 0.212212 -0.148815 0.402229 0.348805 -0.000562 0.134708 0.221341 -0.245365 0.354088 -0.020556 0.052716 -0.139353 -0.200548 -0.079706 -0.033976 -0.062351 -0.054410 0.256509 -0.136695 0.063762 0.167209
7 -0.053273 -0.292110 -0.019526 0.087941 -0.057645 0.230094 0.121680 0.172969 0.388479 -0.119789 0.071978 0.148959 -0.253949 -0.129047 0.431812 -0.034368 0.115943 -0.224066 0.042972 -0.258898 0.042089 -0.051781 -0.078199 -0.024746 0.184911 -0.248565 -0.151492 -0.196346 -0.349096 -0.026191 0.083874 0.065900 -0.003334 -0.211668 -0.005269 -0.094237 0.196307 0.006380 -0.201951 -0.143417 -0.368593 0.006067 0.405626 0.332523 -0.147703 0.293754 0.242032 -0.097383 0.172011 0.273958 -0.209522 0.374946 -0.056674 0.163005 -0.114269 -0.188417 -0.129951 -0.106447 0.073713 -0.094236 0.266608 -0.152545 0.091048 0.218548
4 0.062986 -0.245339 0.016391 0.014183 0.019072 -0.079633 -0.032252 0.454420 0.240358 -0.161942 0.084306 0.183654 0.114467 -0.268474 0.279221 -0.506307 0.009027 -0.337556 -0.019054 0.021141 0.188355 -0.292426 0.106130 0.115434 0.375198 0.011136 -0.173771 -0.119912 0.062269 -0.145360 -0.034975 -0.038247 0.008350 -0.091974 0.001618 -0.187530 0.201849 0.092541 0.160515 -0.083827 -0.240666 -0.052632 0.210445 0.253945 -0.163827 0.157476 0.048474 -0.374334 0.087256 0.085008 -0.104565 -0.091379 -0.026008 0.215152 -0.222799 0.069845 -0.015527 0.048361 -0.123867 0.056340 0.291195 -0.369011 0.270523 0.333577
0 0.151212 -0.276361 -0.024264 -0.003084 0.042425 -0.160084 -0.097247 0.506444 0.200130 -0.148043 0.043459 0.169160 0.185699 -0.306576 0.248547 -0.591356 0.004289 -0.284999 0.008478 0.107032 0.256225 -0.383473 0.134673 0.216773 0.421349 0.041646 -0.097283 -0.123667 0.112414 -0.150957 -0.019068 -0.085434 0.012009 -0.023272 0.028595 -0.189244 0.158688 0.120737 0.205320 -0.107853 -0.169987 -0.003633 0.125466 0.159371 -0.201509 0.199625 0.058747 -0.419122 0.154336 0.049326 -0.127206 -0.156598 0.007690 0.174192 -0.225982 0.175741 0.069041 0.057564 -0.219431 0.109437 0.250187 -0.426256 0.320555 0.434722
8 -0.082001 -0.289457 0.032527 0.035154 -0.086969 0.251354 0.128511 0.078758 0.344307 -0.020840 0.022366 0.196650 -0.251434 -0.061656 0.382243 0.025745 0.051670 -0.197182 -0.005170 -0.252706 0.074667 0.018591 -0.011080 -0.058095 0.126932 -0.131501 -0.107360 -0.131236 -0.342738 0.019463 0.069357 0.122816 0.010783 -0.174568 0.023755 -0.095403 0.196855 -0.007707 -0.197954 -0.057025 -0.406170 0.006743 0.334752 0.339233 -0.080943 0.324621 0.223500 -0.032019 0.097440 0.257072 -0.223267 0.309786 -0.025019 0.153590 -0.095067 -0.208824 -0.230330 -0.126904 0.071121 -0.139315 0.264358 -0.141165 0.073044 0.107706
3 0.175800 -0.280667 -0.006443 0.005513 0.027593 -0.163405 -0.065105 0.568067 0.214662 -0.141386 0.030623 0.212834 0.216781 -0.344296 0.250146 -0.690480 -0.015482 -0.353689 -0.045306 0.174289 0.274441 -0.423564 0.204049 0.226783 0.538157 0.134984 -0.154175 -0.119454 0.177320 -0.136731 -0.059721 -0.082603 0.025297 -0.006288 0.011506 -0.245910 0.186471 0.102279 0.259388 -0.055951 -0.233385 -0.027412 0.086637 0.212520 -0.180657 0.203299 0.031887 -0.486688 0.128366 0.031931 -0.118391 -0.264204 0.021419 0.232636 -0.247589 0.222443 0.018366 0.028269 -0.221946 0.112889 0.273812 -0.480118 0.376704 0.452487
13 -0.170440 -0.467375 0.189411 -0.411822 -0.016325 0.154307 -0.198776 -0.277521 0.133373 0.239850 -0.145634 0.421847 -0.174538 0.000625 0.217751 0.349003 -0.260277 0.045219 -0.019988 -0.629957 0.619409 0.311832 0.084774 0.227603 -0.416730 -0.109902 0.427975 0.165864 -0.419446 0.050248 0.217149 0.245033 -0.232047 -0.012015 0.256584 0.018270 0.128511 0.216555 -0.369431 -0.059616 -0.380145 0.094787 0.531135 0.305083 -0.084138 0.727279 0.583217 0.182507 0.012363 0.253665 -0.443923 0.454006 0.002016 0.006674 -0.243200 -0.405201 -0.302093 -0.012699 -0.147002 -0.104261 0.456548 -0.104004 -0.034364 -0.087546
14 -0.175424 -0.479620 0.200077 -0.434588 -0.010428 0.140465 -0.232966 -0.271964 0.106015 0.248878 -0.162497 0.438212 -0.155697 0.003848 0.200885 0.350839 -0.273007 0.069601 -0.014391 -0.637430 0.646259 0.314851 0.115682 0.242088 -0.435178 -0.092582 0.453234 0.180509 -0.417473 0.048438 0.236885 0.245055 -0.238044 0.005240 0.273757 0.036271 0.113892 0.217330 -0.369060 -0.059435 -0.386876 0.104302 0.536075 0.290883 -0.085105 0.739888 0.594410 0.184729 0.016420 0.242636 -0.451665 0.434663 -0.004170 -0.001335 -0.248832 -0.395245 -0.294698 0.009512 -0.185820 -0.083833 0.461824 -0.111222 -0.024884 -0.087487
20 0.304706 -0.379055 0.066992 -0.248637 0.003396 -0.349025 -0.247795 0.596203 0.044073 0.023635 -0.190406 0.366129 0.543486 -0.382785 0.077244 -0.844816 -0.307231 -0.243048 -0.141926 0.270406 0.657172 -0.509393 0.518053 0.411463 0.481085 0.501413 0.073791 0.027431 0.364224 -0.197301 -0.071421 -0.023057 0.020986 0.123837 0.136820 -0.226025 0.137941 0.121642 0.405929 0.010205 -0.288645 0.032586 -0.096033 0.117639 -0.087640 0.385801 0.050594 -0.548816 0.106296 -0.152996 -0.261688 -0.576955 0.132563 0.219834 -0.346251 0.413958 -0.024105 0.030299 -0.473195 0.234455 0.399344 -0.612391 0.499024 0.421677
19 0.294065 -0.359065 0.061846 -0.213187 0.002881 -0.316289 -0.219205 0.592447 0.084374 0.009571 -0.159178 0.361125 0.498798 -0.368000 0.102284 -0.839989 -0.270993 -0.284641 -0.143382 0.289788 0.593049 -0.510287 0.488117 0.379285 0.510973 0.474341 0.016359 0.002498 0.346841 -0.188211 -0.075827 -0.018173 0.035599 0.095772 0.113626 -0.244802 0.136416 0.119401 0.409256 0.021362 -0.286217 0.022890 -0.091040 0.131391 -0.090729 0.350824 0.026270 -0.548529 0.094971 -0.123414 -0.229955 -0.561354 0.109784 0.229460 -0.315380 0.401170 -0.037304 0.037326 -0.420143 0.203421 0.374772 -0.614353 0.494048 0.419974
16 -0.340117 -0.304442 0.218126 -0.142078 -0.247832 0.418794 0.284494 -0.124628 0.414744 0.148536 0.006668 0.485685 -0.248547 0.142126 0.444566 0.097647 -0.271300 -0.400627 -0.388055 -0.499632 0.123021 0.264122 0.313894 -0.299184 -0.027911 0.109904 -0.210101 -0.112897 -0.383056 -0.031024 0.001619 0.459248 0.057642 -0.372293 0.140843 -0.112589 0.365695 -0.114698 -0.239903 0.090459 -0.809812 -0.040907 0.386592 0.564627 0.090368 0.367948 0.163131 0.133284 -0.219962 0.292259 -0.244923 0.237637 -0.072092 0.266573 -0.068281 -0.471215 -0.670770 -0.143600 0.198257 -0.300364 0.544330 -0.130497 0.003593 -0.357210
17 -0.324113 -0.307095 0.223043 -0.175763 -0.244675 0.390424 0.243129 -0.161520 0.372380 0.195399 -0.020522 0.490771 -0.222834 0.148304 0.384740 0.149683 -0.283717 -0.341824 -0.372333 -0.486010 0.168860 0.275832 0.321269 -0.264167 -0.074149 0.135745 -0.141722 -0.069143 -0.366385 0.003679 0.023037 0.453422 0.041650 -0.319653 0.150368 -0.106711 0.332210 -0.090304 -0.246133 0.110268 -0.772197 -0.038198 0.352867 0.533242 0.090907 0.393552 0.185739 0.160280 -0.214706 0.270345 -0.269393 0.220583 -0.055767 0.226645 -0.069122 -0.459203 -0.664652 -0.131864 0.170316 -0.289903 0.522337 -0.112843 -0.005449 -0.367865
