19 64
16 -0.285104 -0.129026 0.199842 -0.261246 -0.058557 0.020899 0.161532 -0.191122 0.241344 0.331323 -0.038696 0.476117 0.172163 0.537108 0.231023 -0.229987 -0.580579 -0.483710 -0.740770 -0.335320 0.539824 0.054170 0.577696 0.020658 0.040551 0.262635 0.068059 0.039916 0.141188 -0.348668 -0.320185 0.390342 0.263905 -0.140399 0.130250 -0.044585 0.155783 -0.169441 0.128311 -0.041662 -0.422306 0.329452 -0.037076 0.053022 0.225308 0.284825 -0.141718 0.377209 -0.176947 0.176259 0.102757 -0.164027 0.237120 0.207523 -0.115307 -0.138726 -0.357469 -0.098761 0.009101 -0.177987 0.590959 -0.314488 -0.030030 -0.717960
15 -0.220413 -0.160520 0.125831 -0.188940 -0.040842 0.084008 0.110414 -0.106812 0.243198 0.191526 -0.005474 0.383549 0.079265 0.343883 0.222834 -0.171311 -0.427041 -0.299854 -0.499536 -0.249466 0.404768 0.070125 0.422059 -0.024057 -0.025049 0.187458 -0.020097 -0.004789 0.031551 -0.235076 -0.186000 0.293519 0.201400 -0.124927 0.102611 -0.026060 0.175475 -0.103149 0.076810 0.063259 -0.347369 0.211828 0.033333 0.113259 0.150519 0.296074 -0.087045 0.221096 -0.128166 0.071870 0.009532 -0.086497 0.181106 0.180176 -0.120184 -0.158512 -0.300975 -0.130344 -0.015581 -0.116610 0.442611 -0.204154 -0.000865 -0.447725
4 -0.181177 -0.312860 0.118122 -0.094958 0.112492 -0.153868 -0.003944 0.286693 0.121882 -0.199823 0.284930 0.182506 -0.005592 -0.316076 0.157800 -0.438753 0.018331 -0.290913 0.125806 -0.199602 0.186649 0.019447 -0.057891 0.124465 0.050370 -0.207006 -0.114750 0.082016 0.202586 -0.055526 -0.085456 -0.102712 -0.258737 0.119326 -0.111432 -0.201254 0.227525 0.231056 0.232371 0.013686 -0.002211 -0.217667 0.412666 0.364282 -0.302116 0.119272 0.035951 -0.374219 -0.071430 0.048901 -0.064232 0.059936 -0.033991 0.215505 -0.480258 -0.248329 0.021470 0.193623 -0.145641 0.161513 0.192746 -0.168031 0.011019 0.290975
3 -0.248970 -0.269384 0.184381 -0.124427 0.134159 -0.176764 -0.037454 0.171270 0.051785 -0.149330 0.247384 0.162121 -0.014776 -0.204586 0.109796 -0.363744 -0.055731 -0.287543 0.066347 -0.264236 0.235956 0.072600 -0.029366 0.145695 -0.024569 -0.184581 -0.051162 0.149536 0.211640 -0.055460 -0.087534 -0.081526 -0.220834 0.103604 -0.048948 -0.143997 0.203805 0.279895 0.214397 0.078111 0.058633 -0.173399 0.363710 0.286632 -0.249990 0.124690 0.068594 -0.245246 -0.157129 0.069678 -0.005671 0.040662 -0.046034 0.148393 -0.417643 -0.304735 -0.019685 0.207519 -0.136614 0.141874 0.179710 -0.117258 0.023066 0.181333
12 -0.236703 -0.207510 0.164138 -0.148023 0.074546 -0.088806 -0.021432 0.015324 0.075019 -0.019579 0.141023 0.210502 0.004145 0.020972 0.116906 -0.215203 -0.191288 -0.234463 -0.092458 -0.257546 0.291164 0.098410 0.095209 0.079333 -0.083018 -0.058674 -0.011497 0.120249 0.119189 -0.106661 -0.091032 0.041700 -0.073582 0.019630 0.022447 -0.053875 0.161262 0.166713 0.140426 0.103393 -0.028819 -0.029585 0.223896 0.176326 -0.082574 0.181601 0.036314 -0.039444 -0.165392 0.051330 0.001750 0.011359 0.032173 0.100217 -0.276138 -0.260013 -0.102928 0.086533 -0.078092 0.044965 0.235020 -0.101732 0.019899 -0.043638
10 -0.142259 -0.242626 0.024224 -0.086932 -0.028440 0.160482 0.088387 0.097410 0.313613 0.012246 0.071310 0.346241 -0.039253 0.080908 0.258277 -0.188828 -0.216893 -0.141158 -0.237593 -0.156903 0.248724 0.041928 0.295804 -0.062581 -0.008701 0.084807 -0.130525 -0.094809 -0.068831 -0.128719 -0.074099 0.163841 0.097642 -0.076670 0.017599 -0.057368 0.262431 -0.077399 0.017726 0.102975 -0.352801 0.061897 0.211160 0.275081 0.025487 0.337637 0.004355 -0.036821 -0.018544 -0.016643 -0.102850 0.005111 0.130372 0.217932 -0.204812 -0.140518 -0.213821 -0.159922 -0.104399 -0.024771 0.333319 -0.167074 -0.014764 -0.076930
11 -0.169370 -0.203797 0.074423 -0.066746 0.034116 0.021610 0.032728 0.121537 0.214551 -0.031278 0.113899 0.266700 -0.017596 0.008987 0.192648 -0.225555 -0.187762 -0.197258 -0.140601 -0.181974 0.237360 0.044538 0.187673 -0.020360 0.007439 0.002990 -0.106868 -0.008647 0.039292 -0.094445 -0.074800 0.073204 0.012396 -0.045076 0.008240 -0.059732 0.228855 0.056245 0.060834 0.110457 -0.181317 0.009826 0.246492 0.230967 -0.057500 0.224429 0.028309 -0.074191 -0.074580 0.013918 -0.036993 0.005725 0.065433 0.181701 -0.222615 -0.186285 -0.132415 -0.042674 -0.073027 -0.004161 0.282846 -0.132965 0.017369 -0.021314
6 -0.098971 -0.328735 -0.005366 -0.007709 0.015266 0.110409 0.058164 0.317176 0.309181 -0.162332 0.196722 0.277982 -0.099081 -0.244867 0.285927 -0.314035 -0.030777 -0.125869 0.051434 -0.123187 0.128829 0.007999 0.101801 -0.069941 0.052430 -0.073010 -0.222152 -0.107670 -0.035628 -0.017831 -0.003389 0.000426 -0.078960 -0.004626 -0.072431 -0.130876 0.326529 0.060830 0.050894 0.110366 -0.262662 -0.111174 0.408041 0.413397 -0.184443 0.301323 0.060509 -0.340957 0.031077 -0.036682 -0.170640 0.081582 0.036473 0.277359 -0.352884 -0.186903 -0.101810 -0.084816 -0.139649 0.064177 0.255388 -0.142358 0.002103 0.275892
5 -0.253946 -0.348517 0.227003 -0.236938 0.143653 -0.323697 0.010640 0.167866 -0.027254 -0.165055 0.324063 0.133899 0.076902 -0.296069 0.096449 -0.561860 0.014718 -0.459403 0.080743 -0.291944 0.259119 0.035292 -0.132848 0.315669 0.026274 -0.285305 0.015750 0.204517 0.360973 -0.134297 -0.178088 -0.102575 -0.370040 0.216947 -0.103096 -0.275612 0.124355 0.304653 0.406947 -0.131555 0.138924 -0.248756 0.320769 0.292420 -0.367959 0.022857 -0.031301 -0.335672 -0.150611 0.162658 -0.006032 0.042807 -0.063962 0.150977 -0.569211 -0.301635 0.057387 0.414947 -0.163683 0.230886 0.153122 -0.228565 0.003790 0.210319
1 -0.301514 -0.408877 0.293480 -0.304800 0.155608 -0.410522 0.004859 0.201386 -0.075918 -0.173005 0.366544 0.120069 0.122503 -0.360267 0.074235 -0.666202 0.072785 -0.540137 0.110567 -0.340973 0.278099 0.010468 -0.159499 0.406487 0.038104 -0.336147 0.062320 0.268000 0.453846 -0.162527 -0.215939 -0.117575 -0.448936 0.290353 -0.140908 -0.345341 0.093735 0.339188 0.520785 -0.221483 0.165285 -0.311132 0.345299 0.327331 -0.445625 -0.013251 -0.062393 -0.390019 -0.154133 0.229365 -0.009519 0.037335 -0.103526 0.170286 -0.688086 -0.319321 0.078593 0.556197 -0.230344 0.315891 0.147588 -0.285381 -0.021571 0.243934
14 -0.254779 -0.191008 0.174778 -0.194390 0.025069 0.008198 0.019659 -0.094153 0.139476 0.101598 0.041738 0.297151 0.020151 0.218204 0.163739 -0.152735 -0.316741 -0.245210 -0.301720 -0.280134 0.371793 0.118549 0.258380 0.043167 -0.109893 0.076967 0.014036 0.089609 0.036396 -0.164329 -0.118820 0.182783 0.073066 -0.055257 0.097678 -0.022859 0.173713 0.052217 0.093771 0.118690 -0.178197 0.096922 0.119120 0.142785 0.054717 0.264983 0.000967 0.143515 -0.181144 0.074378 0.002116 -0.033895 0.106054 0.112479 -0.179283 -0.240609 -0.235112 -0.005712 -0.067054 -0.047602 0.320990 -0.149335 0.025485 -0.273096
13 -0.238586 -0.170227 0.164720 -0.163133 0.034013 -0.019405 0.022744 -0.058920 0.137400 0.079233 0.059975 0.270659 0.025173 0.175202 0.153183 -0.170848 -0.310099 -0.253242 -0.270611 -0.269669 0.347910 0.101626 0.229248 0.029356 -0.086656 0.054819 0.003079 0.085956 0.071369 -0.150209 -0.128109 0.149956 0.055110 -0.059402 0.079142 -0.027800 0.186344 0.079228 0.092438 0.115885 -0.140717 0.080178 0.141928 0.140752 0.028470 0.234130 0.008952 0.104980 -0.178612 0.067997 0.015073 -0.027038 0.094228 0.120368 -0.183200 -0.238595 -0.204723 -0.009043 -0.046511 -0.048591 0.316699 -0.131329 0.016332 -0.237493
8 -0.057323 -0.415751 -0.115787 0.045169 -0.061066 0.366370 0.101372 0.380215 0.531159 -0.189811 0.150651 0.407179 -0.224093 -0.234268 0.448280 -0.251524 -0.061042 0.035440 0.028752 -0.071860 0.103438 0.038303 0.230496 -0.237220 0.008993 0.028029 -0.371875 -0.264643 -0.288698 -0.001738 0.082043 0.097299 0.035503 -0.115532 -0.050677 -0.083035 0.488963 -0.073897 -0.085815 0.267525 -0.508827 -0.071243 0.481025 0.566978 -0.096332 0.524488 0.100525 -0.366174 0.088510 -0.146445 -0.310276 0.128064 0.123240 0.370298 -0.330167 -0.183181 -0.229404 -0.333530 -0.182607 0.012000 0.313051 -0.148175 0.004494 0.351339
7 -0.051682 -0.358168 -0.093575 0.026576 -0.037870 0.270373 0.084242 0.356697 0.459296 -0.181063 0.156510 0.359652 -0.161657 -0.241490 0.390627 -0.268370 -0.057334 -0.033236 0.017362 -0.086110 0.122180 0.020969 0.181851 -0.165522 0.047351 -0.015344 -0.330864 -0.209164 -0.192792 -0.024023 0.049078 0.072456 -0.015487 -0.093793 -0.070642 -0.095927 0.410200 -0.045604 -0.042176 0.193961 -0.422781 -0.072282 0.454626 0.506106 -0.114456 0.428267 0.083148 -0.346819 0.076377 -0.108175 -0.250511 0.115252 0.098420 0.351783 -0.338824 -0.161311 -0.166025 -0.255174 -0.137576 0.034329 0.305462 -0.147601 0.008514 0.310179
2 -0.258715 -0.369499 0.216610 -0.203263 0.143241 -0.273330 -0.013914 0.223790 0.007790 -0.191866 0.327532 0.158603 0.039683 -0.327475 0.113815 -0.530932 0.016917 -0.389355 0.124535 -0.292397 0.248900 0.044455 -0.104384 0.255391 -0.008160 -0.276908 -0.028654 0.184467 0.314831 -0.090340 -0.122466 -0.117403 -0.351153 0.202477 -0.107105 -0.244076 0.179277 0.318460 0.361383 -0.050793 0.108890 -0.257263 0.392122 0.337526 -0.377662 0.079902 0.008871 -0.367981 -0.139609 0.120282 -0.035919 0.049503 -0.070816 0.174868 -0.577668 -0.328495 0.037317 0.372816 -0.194403 0.239033 0.159160 -0.190201 0.007254 0.263131
9 -0.070946 -0.333833 -0.097338 0.006695 -0.065743 0.326144 0.109214 0.271145 0.485595 -0.105228 0.098972 0.398447 -0.153306 -0.101937 0.388388 -0.205202 -0.139506 -0.006865 -0.103957 -0.081120 0.136035 0.042781 0.288619 -0.210734 0.007455 0.080676 -0.305011 -0.246264 -0.243976 -0.047757 0.036713 0.156680 0.090643 -0.139808 -0.004095 -0.064706 0.405106 -0.113550 -0.085146 0.214537 -0.497032 -0.003584 0.359251 0.450560 -0.029681 0.453602 0.053386 -0.226112 0.063439 -0.119820 -0.247995 0.085405 0.128369 0.319681 -0.230997 -0.149230 -0.242818 -0.311950 -0.131791 -0.031490 0.330576 -0.149361 -0.003489 0.167983
0 -0.293184 -0.397056 0.266614 -0.273804 0.155210 -0.353110 -0.020355 0.191915 -0.058811 -0.199564 0.367259 0.123893 0.073250 -0.356973 0.095280 -0.604863 0.058694 -0.470020 0.132280 -0.330571 0.262847 0.039420 -0.168868 0.356361 -0.014527 -0.330954 0.022906 0.240650 0.380613 -0.133571 -0.159308 -0.124467 -0.424919 0.248780 -0.110370 -0.298920 0.143175 0.366031 0.458826 -0.126231 0.170386 -0.309050 0.366273 0.339501 -0.422380 0.035387 -0.017657 -0.389105 -0.181498 0.177959 -0.022011 0.049463 -0.100908 0.145378 -0.646920 -0.350873 0.058136 0.495024 -0.219947 0.292340 0.133094 -0.235066 0.006113 0.279969
18 -0.258550 -0.128086 0.157807 -0.220432 -0.062287 0.056076 0.147676 -0.140875 0.293029 0.333917 -0.038512 0.500197 0.165626 0.521951 0.239539 -0.206837 -0.568877 -0.432152 -0.729318 -0.284512 0.531407 0.034780 0.606904 -0.022666 0.063582 0.290676 0.032532 0.004508 0.116183 -0.307863 -0.288044 0.384770 0.300563 -0.141661 0.123294 -0.044516 0.176023 -0.178884 0.092114 0.011980 -0.455021 0.335106 -0.030244 0.070695 0.222867 0.319070 -0.136438 0.357720 -0.138542 0.135047 0.077519 -0.176182 0.253647 0.223914 -0.097291 -0.114627 -0.362996 -0.157802 0.003517 -0.193150 0.597967 -0.305648 -0.022523 -0.683648
17 -0.287164 -0.135063 0.188715 -0.244016 -0.061965 0.036323 0.148528 -0.182412 0.270545 0.341986 -0.035235 0.499908 0.170605 0.551314 0.220311 -0.190506 -0.584891 -0.452343 -0.741006 -0.309892 0.549116 0.051635 0.599709 -0.004705 0.028674 0.287018 0.050498 0.030095 0.124703 -0.315439 -0.290723 0.390752 0.298286 -0.141518 0.135470 -0.043090 0.167188 -0.155025 0.105806 0.017646 -0.429726 0.321685 -0.047721 0.060613 0.226102 0.308369 -0.133323 0.390389 -0.170467 0.147055 0.081515 -0.176101 0.245935 0.188332 -0.091332 -0.149626 -0.381004 -0.118727 0.010632 -0.194156 0.591131 -0.296052 -0.012274 -0.716218
