20 64
9 -0.076006 -0.197307 0.050546 -0.214237 -0.086276 0.151050 0.079549 -0.078768 0.255240 0.101691 -0.058351 0.366540 -0.074403 0.007617 0.141200 -0.008632 -0.228523 -0.117234 -0.226385 -0.190998 0.187902 0.159877 0.240351 0.002420 -0.096021 0.116163 0.020123 -0.039796 -0.153516 -0.058695 -0.034465 0.264289 -0.099192 -0.113966 0.079284 -0.108908 0.191896 -0.070881 -0.118197 0.004538 -0.387395 -0.028662 0.234738 0.316672 0.034817 0.265531 0.162763 0.009177 -0.089670 0.066189 -0.189879 0.113684 0.021945 0.150765 -0.086601 -0.135235 -0.279754 -0.048490 -0.019401 -0.116484 0.268267 -0.180139 -0.095845 -0.116189
17 0.168451 -0.312926 -0.024247 -0.119323 -0.366700 0.168718 0.106323 0.084090 0.747272 0.408904 -0.076533 0.748742 0.051864 0.063376 0.191263 0.053981 -0.313832 -0.358311 -0.369192 0.227498 0.318834 -0.247722 0.502968 -0.102849 0.316613 0.448537 -0.173904 -0.149640 -0.125666 0.074515 0.023081 0.446346 0.135114 -0.272453 -0.057997 -0.379735 0.215815 0.005903 -0.057414 0.265795 -0.631881 -0.080476 0.014068 0.471412 0.066585 0.485062 0.198213 -0.044111 -0.019564 0.117838 -0.436018 -0.083613 0.118908 0.108458 0.030366 0.066357 -0.579683 -0.157263 0.246580 -0.362667 0.454032 -0.457231 0.110756 -0.013298
10 -0.076924 -0.225910 0.015222 -0.143542 0.034452 0.027579 0.068340 0.123377 0.185316 -0.150377 0.173398 0.202268 -0.034007 -0.150205 0.074361 -0.161775 0.014062 -0.090272 -0.062829 -0.184189 0.170670 0.016011 0.032705 0.200772 -0.113812 -0.154476 0.023415 -0.039207 0.031587 -0.132837 -0.089177 -0.029277 -0.174565 0.080253 -0.109966 -0.159384 0.240368 0.014828 0.031321 -0.160055 -0.139431 -0.175711 0.353366 0.360233 -0.120516 0.207441 0.160284 -0.197205 0.042558 -0.001272 -0.114338 0.129094 0.033558 0.100723 -0.341360 -0.119944 -0.010053 0.086845 -0.209582 0.161260 0.172863 -0.128083 -0.152246 0.148042
11 -0.201934 -0.257742 0.126481 -0.260350 0.080852 -0.046290 -0.004311 0.096613 0.071092 -0.177313 0.151345 0.144258 -0.013417 -0.158644 0.047623 -0.219457 0.010356 -0.059335 -0.012193 -0.337010 0.193954 0.102596 0.025604 0.235152 -0.291389 -0.190315 0.117858 0.078704 0.049965 -0.210393 -0.107378 -0.004278 -0.247678 0.098570 -0.068800 -0.110463 0.251591 0.040454 0.108891 -0.202257 -0.084152 -0.196835 0.430650 0.366328 -0.138889 0.171829 0.140960 -0.157607 -0.040526 0.039267 -0.093699 0.157596 -0.010114 0.129919 -0.445646 -0.199610 0.002377 0.234825 -0.350540 0.251326 0.152619 -0.137740 -0.222126 0.105100
15 -0.229470 -0.166545 0.137262 -0.300147 0.024654 0.214367 0.089178 -0.224680 0.085243 0.023558 -0.088053 0.322244 -0.181609 0.061872 0.166422 -0.002568 -0.301319 -0.082884 -0.262506 -0.434522 0.198695 0.419154 0.211286 0.018047 -0.280307 0.053323 0.101325 0.020310 -0.223387 -0.126406 -0.086575 0.266771 -0.190088 -0.096827 0.194343 0.008230 0.230974 -0.122977 -0.201077 -0.056800 -0.413618 0.020756 0.383037 0.317877 0.099250 0.245401 0.200247 0.077046 -0.200799 0.075217 -0.083859 0.193823 -0.014733 0.207074 -0.104734 -0.271559 -0.271867 -0.051310 -0.092738 -0.104335 0.290276 -0.107915 -0.171739 -0.266873
12 -0.254902 -0.277123 0.204822 -0.370722 0.022645 -0.040983 -0.040095 -0.019922 0.006420 -0.057645 0.050697 0.159097 0.008547 -0.107997 0.045153 -0.158470 -0.081788 -0.036265 -0.015008 -0.426362 0.201044 0.186655 0.088060 0.158950 -0.402085 -0.107718 0.197963 0.144097 -0.004145 -0.219059 -0.084528 0.136902 -0.262825 0.042634 0.014863 -0.058395 0.190707 0.019647 0.111214 -0.201785 -0.154957 -0.151158 0.400454 0.319124 -0.093810 0.179670 0.108070 -0.065912 -0.111940 0.094217 -0.147044 0.181244 -0.051753 0.144843 -0.416250 -0.240226 -0.095282 0.268387 -0.337584 0.207317 0.185502 -0.137603 -0.264883 -0.026414
8 0.070733 -0.209451 -0.068609 -0.044293 -0.114247 0.221545 0.175028 0.049694 0.466532 0.080450 0.040953 0.506462 -0.121155 -0.010367 0.197051 -0.022987 -0.198372 -0.229414 -0.286505 0.017713 0.219909 -0.000307 0.254877 0.018414 0.180391 0.137749 -0.140041 -0.171515 -0.121532 0.022507 -0.049886 0.164591 -0.021851 -0.095954 -0.041587 -0.228500 0.273182 -0.054663 -0.165668 0.091157 -0.443782 -0.055262 0.225984 0.419458 0.029150 0.365337 0.236935 -0.120463 0.005369 0.017559 -0.196654 0.041108 0.110493 0.141420 -0.056631 -0.043910 -0.288037 -0.206631 0.105683 -0.197516 0.324577 -0.239319 0.015517 0.027461
2 -0.141602 -0.308769 0.105957 -0.243108 0.040191 -0.135543 -0.022403 0.245302 0.119083 -0.196241 0.245621 0.139257 0.092455 -0.254496 -0.001367 -0.296977 0.108523 -0.077626 0.066496 -0.229559 0.193729 -0.075797 0.004047 0.276768 -0.242446 -0.222416 0.088051 0.076959 0.179104 -0.215003 -0.104670 -0.072046 -0.249741 0.163048 -0.205602 -0.197184 0.245734 0.092995 0.251661 -0.237154 -0.013038 -0.292955 0.410194 0.403897 -0.229309 0.162820 0.089626 -0.283165 0.040467 0.015240 -0.145688 0.100843 0.000062 0.111098 -0.574143 -0.133783 0.061935 0.328530 -0.400475 0.362555 0.133901 -0.172294 -0.233615 0.246417
5 0.084260 -0.225137 -0.149177 0.055852 0.039450 0.065316 0.171323 0.299461 0.420227 -0.226614 0.325595 0.346563 -0.071420 -0.213634 0.113430 -0.214877 0.063953 -0.215061 -0.123814 0.055944 0.195479 -0.155180 0.023044 0.248570 0.198512 -0.177034 -0.169433 -0.200125 0.107696 -0.045232 -0.110857 -0.178633 -0.128167 0.120805 -0.253173 -0.308408 0.337665 0.051284 -0.019964 -0.076339 -0.150914 -0.237777 0.366185 0.479103 -0.173799 0.270822 0.242273 -0.375445 0.154846 -0.088515 -0.102106 0.056535 0.123848 0.084073 -0.319941 -0.024797 0.038594 -0.060774 -0.079349 0.097777 0.215245 -0.182524 -0.035565 0.346925
1 -0.272294 -0.372256 0.264143 -0.448234 0.004195 -0.182400 -0.111620 0.117799 0.008363 -0.095401 0.104176 0.054566 0.150730 -0.224699 -0.010554 -0.276567 0.070939 -0.028568 0.109073 -0.426046 0.217396 0.013379 0.029805 0.265827 -0.473169 -0.181580 0.255254 0.218452 0.108043 -0.301643 -0.094441 0.110155 -0.276089 0.098075 -0.094395 -0.139698 0.159538 0.085703 0.333283 -0.315897 -0.052639 -0.268172 0.392561 0.354123 -0.204596 0.155788 0.025463 -0.139455 -0.035746 0.139649 -0.229163 0.184720 -0.080028 0.141358 -0.620990 -0.210649 -0.037189 0.472909 -0.503112 0.406800 0.140063 -0.196116 -0.318838 0.105015
0 -0.249113 -0.363703 0.241463 -0.427798 -0.017957 -0.180393 -0.118147 0.139427 0.014155 -0.095249 0.139120 0.050744 0.163615 -0.229543 -0.004428 -0.279157 0.098131 -0.029119 0.108865 -0.385299 0.199382 -0.034875 0.021237 0.261797 -0.448513 -0.184688 0.236141 0.195779 0.119178 -0.301062 -0.081532 0.095381 -0.259697 0.098827 -0.109054 -0.151780 0.170631 0.100211 0.350927 -0.306395 -0.043694 -0.281281 0.361995 0.354809 -0.208212 0.166012 0.017057 -0.166636 -0.034125 0.126870 -0.228866 0.156979 -0.075656 0.113957 -0.625827 -0.188689 -0.030569 0.468262 -0.501169 0.418059 0.134474 -0.199668 -0.305101 0.144529
4 -0.042549 -0.194507 -0.061580 0.006702 0.160717 -0.013317 0.107350 0.329128 0.261079 -0.353922 0.395438 0.261306 -0.071046 -0.246873 0.050407 -0.298380 0.111375 -0.183682 -0.052806 -0.072639 0.193895 -0.062666 -0.042299 0.309574 0.054830 -0.269691 -0.107388 -0.093337 0.199600 -0.126498 -0.176112 -0.283528 -0.226559 0.211912 -0.267183 -0.258040 0.388213 0.081898 0.050691 -0.135952 -0.039491 -0.302004 0.513353 0.510982 -0.190083 0.184929 0.235978 -0.422096 0.079356 -0.114981 0.015250 0.048304 0.088523 0.114838 -0.460956 -0.085469 0.145667 0.068115 -0.240152 0.228164 0.188952 -0.153604 -0.121390 0.350951
13 -0.313145 -0.325260 0.286951 -0.486028 0.019968 -0.123411 -0.102805 -0.013799 -0.077551 -0.063173 0.023545 0.045769 0.088121 -0.165360 0.012372 -0.213142 -0.022075 0.013524 0.062483 -0.527194 0.206696 0.172139 0.044190 0.211413 -0.563359 -0.155656 0.301396 0.237865 0.022675 -0.291930 -0.085410 0.169752 -0.303663 0.059345 0.012784 -0.052590 0.163233 0.044840 0.233778 -0.300211 -0.087842 -0.188274 0.406531 0.307975 -0.142246 0.150611 0.047074 -0.043511 -0.115326 0.150155 -0.192994 0.222782 -0.089731 0.161197 -0.540554 -0.272819 -0.077704 0.421522 -0.473795 0.331587 0.143237 -0.144493 -0.340076 -0.030369
3 -0.072749 -0.241600 0.002848 -0.065445 0.119247 -0.073674 0.069115 0.326603 0.207555 -0.310645 0.356673 0.187059 -0.013931 -0.276902 0.025422 -0.322956 0.152508 -0.156661 0.005033 -0.115799 0.179325 -0.103771 -0.046080 0.326397 -0.022519 -0.274634 -0.038112 -0.028717 0.217953 -0.144874 -0.154920 -0.236165 -0.234396 0.215565 -0.267902 -0.260113 0.339533 0.105831 0.146864 -0.178106 -0.001911 -0.317424 0.464531 0.477166 -0.231196 0.173229 0.186825 -0.392131 0.078640 -0.051855 -0.037650 0.060869 0.049532 0.107384 -0.520484 -0.097453 0.126536 0.177664 -0.314413 0.304623 0.140031 -0.160048 -0.156972 0.356725
14 -0.260969 -0.227181 0.201863 -0.379948 0.024130 0.092356 0.009160 -0.168620 0.023382 0.016724 -0.090630 0.232683 -0.096702 -0.007471 0.109109 -0.060895 -0.211243 -0.036413 -0.146304 -0.475220 0.210204 0.355304 0.165238 0.087715 -0.392369 -0.001676 0.193874 0.118614 -0.162807 -0.169786 -0.072045 0.253513 -0.237297 -0.044498 0.151358 -0.005459 0.198808 -0.068970 -0.065493 -0.131678 -0.302262 -0.035558 0.387400 0.308297 0.017184 0.212724 0.160120 0.072166 -0.178321 0.122180 -0.131037 0.210389 -0.040063 0.195295 -0.237273 -0.274305 -0.217836 0.130418 -0.234206 0.027801 0.222861 -0.135990 -0.224980 -0.205086
7 0.124023 -0.209627 -0.124114 0.001251 -0.108930 0.161320 0.166370 0.154525 0.495294 0.015879 0.123834 0.457864 -0.061470 -0.091696 0.165125 -0.065023 -0.099603 -0.232307 -0.240471 0.084901 0.208350 -0.122787 0.191703 0.088902 0.238181 0.050582 -0.171570 -0.202778 -0.040682 0.015756 -0.039829 0.078452 -0.029428 -0.053537 -0.132137 -0.278371 0.254164 -0.017521 -0.107253 0.038880 -0.358473 -0.113764 0.218410 0.421796 -0.048043 0.335680 0.224213 -0.201612 0.092075 -0.010283 -0.203348 0.036423 0.110849 0.109543 -0.122766 0.004474 -0.190630 -0.164404 0.088375 -0.102604 0.292533 -0.227767 0.023248 0.150993
6 0.085944 -0.221912 -0.110721 0.018417 -0.032382 0.132827 0.177683 0.198361 0.415239 -0.093837 0.198996 0.376456 -0.082641 -0.146522 0.150766 -0.124589 -0.032951 -0.210341 -0.171842 0.016301 0.189361 -0.105544 0.102458 0.143853 0.181366 -0.069352 -0.138742 -0.197984 0.008483 -0.004365 -0.068395 -0.041427 -0.076190 0.028558 -0.161246 -0.263976 0.288673 0.012235 -0.087484 -0.046726 -0.270078 -0.147140 0.306257 0.422848 -0.112129 0.305079 0.234343 -0.269335 0.124406 -0.023920 -0.153876 0.072091 0.095355 0.106407 -0.204524 -0.041014 -0.090363 -0.115358 0.000310 -0.015657 0.258779 -0.176102 -0.021165 0.207003
19 0.155584 -0.285307 -0.023200 -0.123054 -0.318237 0.223978 0.121136 0.018551 0.690189 0.367130 -0.110649 0.719131 -0.016557 0.081087 0.213352 0.064790 -0.340444 -0.330127 -0.374917 0.176204 0.306843 -0.153855 0.475871 -0.092661 0.282647 0.424613 -0.168782 -0.154224 -0.179314 0.064464 0.015195 0.435391 0.112064 -0.274351 -0.014564 -0.320392 0.203745 -0.030132 -0.111331 0.255688 -0.632240 -0.029870 0.047826 0.439576 0.107147 0.483201 0.217752 -0.026026 -0.037460 0.107980 -0.386772 -0.050124 0.110909 0.131302 0.065523 0.046133 -0.559181 -0.208145 0.252660 -0.371206 0.432979 -0.416669 0.109040 -0.046494
18 0.179726 -0.308160 -0.067825 -0.090967 -0.315095 0.231918 0.148079 0.087151 0.771755 0.345103 -0.046005 0.781433 -0.015177 0.049658 0.231888 0.027415 -0.323586 -0.363612 -0.407830 0.216892 0.336342 -0.197386 0.491154 -0.067678 0.349502 0.411007 -0.208215 -0.197433 -0.146080 0.074279 -0.003165 0.401146 0.111163 -0.244777 -0.060207 -0.382157 0.263083 -0.023104 -0.116131 0.262648 -0.660644 -0.062944 0.082971 0.513965 0.076125 0.526875 0.241097 -0.089037 -0.002868 0.080891 -0.398437 -0.064877 0.147173 0.146518 0.020992 0.059617 -0.550561 -0.241173 0.246949 -0.368104 0.474097 -0.449710 0.109918 0.010375
16 -0.264745 -0.168872 0.149585 -0.347864 0.025826 0.250427 0.106695 -0.289930 0.054120 0.032940 -0.137598 0.334783 -0.223336 0.079822 0.196185 0.014829 -0.349044 -0.060881 -0.298601 -0.530483 0.197058 0.520334 0.234229 0.005556 -0.348127 0.048391 0.144291 0.024587 -0.288706 -0.144932 -0.086662 0.319075 -0.236995 -0.120329 0.253281 0.048281 0.253468 -0.171944 -0.265354 -0.094264 -0.466938 0.058911 0.431533 0.327455 0.117890 0.254750 0.230404 0.130193 -0.234503 0.100365 -0.084478 0.248603 -0.020797 0.237943 -0.092342 -0.314955 -0.293584 -0.057975 -0.111029 -0.127875 0.304768 -0.104374 -0.215140 -0.336923
