22 64
16 -0.051821 -0.024359 -0.030860 0.004694 0.070851 0.048055 0.105525 0.021585 0.235332 0.270945 -0.068269 0.457880 0.036843 0.414655 0.324866 -0.218292 -0.446303 -0.332116 -0.691684 -0.226541 0.273064 0.160831 0.486434 -0.199829 0.147421 0.248731 0.059454 -0.069396 -0.007168 -0.093946 -0.233505 0.319952 0.110279 -0.156103 0.312495 -0.016679 0.388274 -0.207434 -0.244159 -0.032193 -0.320808 0.317572 0.134089 0.153877 0.124296 0.151217 -0.033471 0.307435 -0.237006 0.206385 0.090223 -0.168160 0.207526 0.332250 0.093983 -0.112767 -0.230512 -0.077365 0.091962 -0.526743 0.523793 -0.393482 -0.068396 -0.665392
15 -0.086564 -0.059370 0.060531 -0.070720 -0.061510 0.042351 0.111000 -0.049600 0.144839 0.217602 -0.084039 0.324826 0.007619 0.193895 0.218249 -0.131891 -0.420498 -0.242443 -0.410012 -0.223196 0.246406 0.108729 0.356760 -0.139021 0.079838 0.223163 0.083851 -0.041535 -0.015349 -0.076412 -0.153058 0.228032 0.065287 -0.157364 0.218318 -0.011642 0.309348 -0.053795 -0.159068 0.028775 -0.339393 0.196520 0.098438 0.121507 0.094247 0.219875 0.101981 0.137030 -0.185408 0.112222 -0.000649 -0.056648 0.127796 0.163382 0.035359 -0.117788 -0.259552 -0.180062 0.036627 -0.305102 0.410842 -0.209116 -0.020585 -0.341182
19 -0.234062 -0.171312 0.286833 -0.479725 -0.544484 -0.163882 0.228232 -0.209477 0.199960 0.251611 -0.361462 0.268395 0.135862 -0.156637 -0.055650 -0.181333 -0.541014 -0.256654 -0.046431 -0.098638 0.243659 -0.138586 0.453449 0.101157 0.104676 0.510757 0.306099 -0.095160 -0.079858 -0.391653 -0.159047 0.301959 0.046148 -0.345769 0.125352 -0.188978 0.181689 0.040795 0.116469 -0.117190 -0.785901 -0.054883 -0.220852 0.063959 0.098320 0.202696 0.402398 -0.083159 -0.028038 -0.012069 -0.260040 0.159125 0.038532 -0.313873 0.117988 0.169501 -0.435769 -0.260585 -0.317744 0.093087 0.228393 -0.319414 0.089554 0.314253
9 -0.142872 -0.204823 0.203295 -0.245750 -0.425606 -0.023619 0.224854 -0.082876 0.149838 0.139511 -0.159156 0.244424 -0.014508 -0.264085 0.081978 -0.124166 -0.463115 -0.219834 0.023590 -0.182071 0.201991 -0.066037 0.286589 -0.031273 0.132796 0.298555 0.133741 -0.105768 -0.053183 -0.146247 -0.077381 0.146102 -0.045103 -0.264234 0.078898 -0.114853 0.295112 0.151647 -0.030290 0.040378 -0.622707 -0.076379 0.043613 0.184931 0.013341 0.345440 0.446268 -0.253030 -0.074444 -0.031326 -0.256893 0.166157 0.004328 -0.152233 -0.033924 -0.038123 -0.380778 -0.378225 -0.119440 0.041442 0.311581 -0.092374 0.085962 0.365408
10 -0.117404 -0.132029 0.088688 -0.144373 -0.143671 -0.011969 0.126923 -0.023150 0.154517 0.135132 -0.071309 0.271910 0.015876 0.028260 0.130540 -0.156469 -0.313424 -0.210094 -0.220740 -0.161389 0.180343 0.033676 0.291472 -0.041461 0.081074 0.204266 0.097202 -0.062567 -0.021913 -0.127041 -0.129915 0.179595 0.002434 -0.135219 0.137086 -0.088439 0.250738 -0.019360 -0.058822 -0.030600 -0.388216 0.034088 0.067996 0.160783 0.030012 0.184331 0.158954 -0.009901 -0.103400 0.060087 -0.094183 0.022779 0.065972 0.038413 -0.013620 -0.055263 -0.236291 -0.127792 -0.079458 -0.127320 0.298691 -0.214409 -0.009936 -0.055621
4 -0.280263 -0.425708 0.209251 -0.222858 0.086172 -0.091888 0.001508 0.063505 0.027353 -0.125001 0.330574 0.215876 -0.068794 -0.165578 0.187662 -0.359280 -0.035753 -0.332648 0.040018 -0.340369 0.170625 0.111328 -0.050196 0.139055 -0.105540 -0.179317 0.033060 0.071158 0.114642 -0.103958 -0.121964 0.019048 -0.267972 0.094869 0.076473 -0.201488 0.227156 0.274211 0.207288 -0.047772 -0.070365 -0.281503 0.358937 0.364750 -0.234904 0.225591 0.071823 -0.337005 -0.232636 0.132301 -0.145652 0.094867 -0.137745 0.066298 -0.423203 -0.380247 -0.132719 0.264838 -0.142570 0.091449 0.259670 -0.187393 -0.046110 0.207031
12 -0.212482 -0.217501 0.140247 -0.176880 0.145876 -0.062886 -0.053287 -0.029919 -0.000745 0.061285 0.163706 0.245900 -0.000659 0.129355 0.162395 -0.223015 -0.141550 -0.243472 -0.218607 -0.302787 0.220589 0.183877 0.104800 0.045580 -0.142139 -0.050100 0.103514 0.113213 0.083331 -0.076762 -0.122542 0.125420 -0.124960 0.075421 0.167262 -0.079637 0.183011 0.101918 0.072399 -0.031305 -0.022958 -0.013309 0.225972 0.189672 -0.086193 0.143185 -0.044073 0.022276 -0.246674 0.165097 0.001345 -0.035758 -0.008583 0.145753 -0.223613 -0.286852 -0.117523 0.239763 -0.080627 -0.116019 0.268687 -0.216319 -0.085894 -0.244167
6 -0.172128 -0.305993 0.194470 -0.132007 -0.072469 -0.005893 0.080956 0.009585 0.028945 -0.010633 0.165950 0.205344 -0.101647 -0.187750 0.182523 -0.197595 -0.212753 -0.271987 0.043512 -0.301532 0.184892 0.063289 0.030098 0.005220 -0.002222 -0.041297 0.036057 0.018227 0.058302 -0.011146 -0.070572 0.011136 -0.169485 -0.025775 0.067027 -0.105228 0.265728 0.271259 0.042165 0.056451 -0.205747 -0.140496 0.296362 0.268805 -0.132077 0.324629 0.236517 -0.305702 -0.185961 0.081779 -0.150746 0.104133 -0.082410 0.031277 -0.269923 -0.304625 -0.219158 -0.055728 -0.025413 0.009461 0.306907 -0.046336 0.016851 0.212761
3 -0.315438 -0.377768 0.227418 -0.224887 0.200709 -0.085910 -0.049722 0.006684 -0.037690 -0.069522 0.303782 0.201342 -0.084069 -0.031032 0.199788 -0.352343 -0.025342 -0.325701 -0.085397 -0.403820 0.187738 0.210816 -0.028821 0.148702 -0.169454 -0.196463 0.079437 0.147441 0.118879 -0.062456 -0.132404 0.063015 -0.253498 0.145183 0.154611 -0.166209 0.205262 0.245228 0.180915 -0.032493 0.030800 -0.185680 0.347930 0.315471 -0.219950 0.188376 -0.010016 -0.167441 -0.304583 0.216784 -0.051066 0.039088 -0.131963 0.144276 -0.389625 -0.437430 -0.130988 0.358559 -0.142030 0.010817 0.232121 -0.206091 -0.083590 -0.025307
11 -0.137446 -0.212112 0.140960 -0.081255 -0.006374 0.010947 0.051862 -0.002373 0.035465 0.044928 0.106155 0.221175 -0.084355 -0.040582 0.206145 -0.166883 -0.244405 -0.244810 -0.110483 -0.293799 0.208906 0.107725 0.096921 -0.032481 -0.002487 -0.009720 0.036527 0.034020 0.039038 0.002625 -0.075300 0.058152 -0.107557 -0.038896 0.122192 -0.047087 0.274746 0.182653 -0.033981 0.077605 -0.154142 -0.010605 0.260633 0.213089 -0.071642 0.283020 0.172147 -0.126676 -0.210279 0.109559 -0.065724 0.035962 -0.014252 0.105194 -0.188615 -0.281805 -0.196328 -0.053458 0.012104 -0.102621 0.315239 -0.077106 0.009821 -0.009498
14 -0.153916 -0.143938 0.102890 -0.108903 0.110604 -0.012288 0.001006 -0.014379 0.054884 0.138745 0.041446 0.281182 -0.002806 0.187617 0.193902 -0.184702 -0.215315 -0.240957 -0.338903 -0.275738 0.223677 0.181170 0.217904 -0.033916 -0.038899 0.062998 0.099066 0.072076 0.032000 -0.034689 -0.131820 0.178057 -0.043860 0.008598 0.210511 -0.057588 0.232644 0.002833 -0.054679 -0.015012 -0.137105 0.092771 0.186690 0.176005 -0.019139 0.143649 -0.014625 0.125533 -0.221284 0.187801 0.016676 -0.069607 0.048310 0.209282 -0.100245 -0.225216 -0.174350 0.117699 -0.031117 -0.242645 0.318131 -0.242026 -0.062148 -0.368990
13 -0.129754 -0.129600 0.107695 -0.064006 0.155769 0.028583 -0.017451 -0.036197 0.012583 0.146093 0.092660 0.273805 -0.041002 0.197964 0.256665 -0.160504 -0.276501 -0.252405 -0.366122 -0.356672 0.281829 0.223131 0.166829 -0.073632 -0.084879 -0.002220 0.081275 0.106622 0.059541 0.024493 -0.122863 0.147202 -0.057171 0.008717 0.222489 -0.002571 0.294145 0.087544 -0.094614 0.062445 -0.044327 0.149372 0.270204 0.177681 -0.015911 0.239794 0.009710 0.120329 -0.292789 0.200496 0.052545 -0.076061 0.062534 0.268768 -0.157249 -0.330898 -0.182094 0.051267 0.057666 -0.289761 0.387768 -0.152915 -0.067263 -0.434580
8 -0.151810 -0.267842 0.204236 -0.214147 -0.371900 -0.017808 0.218536 -0.037698 0.139609 0.077898 -0.066664 0.227939 -0.049569 -0.282714 0.114264 -0.171646 -0.368796 -0.244414 0.076497 -0.182766 0.168694 -0.068089 0.210810 -0.015825 0.134866 0.217195 0.087122 -0.095444 -0.032903 -0.125321 -0.080851 0.100458 -0.078097 -0.204184 0.048215 -0.137753 0.289317 0.177471 0.022039 0.038700 -0.548953 -0.133005 0.090087 0.229608 -0.033579 0.345755 0.398071 -0.320646 -0.081592 -0.010223 -0.260750 0.162523 -0.021654 -0.127851 -0.111850 -0.086367 -0.347066 -0.306446 -0.114990 0.069460 0.288175 -0.095312 0.084009 0.417569
7 -0.146338 -0.321674 0.198835 -0.167677 -0.256205 0.007607 0.165043 0.003979 0.083587 -0.014150 0.078830 0.199188 -0.102083 -0.334179 0.161706 -0.180306 -0.279090 -0.253006 0.130384 -0.258663 0.174545 -0.021860 0.071804 0.012109 0.076386 0.041315 0.027107 -0.053461 0.008051 -0.051576 -0.045069 0.019485 -0.167563 -0.123761 0.020052 -0.124485 0.289222 0.271779 0.033291 0.067172 -0.387492 -0.184187 0.240344 0.288849 -0.110842 0.389821 0.379803 -0.407853 -0.120520 0.010105 -0.249690 0.177816 -0.077528 -0.061607 -0.248323 -0.221022 -0.283926 -0.228489 -0.055572 0.105298 0.300184 -0.012392 0.071655 0.442451
2 -0.377079 -0.488694 0.229061 -0.322098 0.218003 -0.148256 -0.057925 0.059785 0.005132 -0.135278 0.371755 0.235317 -0.028025 -0.052228 0.183030 -0.476724 0.079263 -0.354773 -0.058964 -0.379949 0.158236 0.187394 -0.025795 0.233529 -0.212221 -0.227042 0.083945 0.127430 0.131708 -0.169799 -0.161248 0.092465 -0.300228 0.199519 0.136702 -0.256886 0.169391 0.195962 0.314388 -0.153932 0.011362 -0.300898 0.337349 0.379037 -0.289763 0.114288 -0.110795 -0.223720 -0.267116 0.218467 -0.108614 0.049100 -0.159041 0.122635 -0.469999 -0.416301 -0.092182 0.554350 -0.273120 0.105699 0.189877 -0.337076 -0.119792 0.042876
0 -0.438186 -0.547899 0.272981 -0.398735 0.206436 -0.185931 -0.069541 0.041072 0.008428 -0.167151 0.402556 0.226075 -0.023614 -0.096860 0.175091 -0.526778 0.105190 -0.390289 -0.014071 -0.405139 0.162145 0.176712 -0.056660 0.301332 -0.243427 -0.246103 0.115408 0.132579 0.129283 -0.230969 -0.176479 0.102963 -0.331747 0.195819 0.150586 -0.307286 0.163885 0.247482 0.384453 -0.187537 -0.008100 -0.377141 0.333017 0.409668 -0.321445 0.119818 -0.094496 -0.275961 -0.285429 0.229876 -0.144530 0.089947 -0.201119 0.064934 -0.507520 -0.435977 -0.109989 0.614571 -0.337166 0.167396 0.177115 -0.379996 -0.115831 0.140056
5 -0.347723 -0.489162 0.229012 -0.298281 0.138809 -0.138160 -0.006728 0.032390 0.028411 -0.161187 0.364543 0.211960 -0.069421 -0.153893 0.187036 -0.442623 0.011982 -0.370289 0.033288 -0.363945 0.168296 0.147995 -0.080341 0.227602 -0.152872 -0.222119 0.066319 0.082474 0.113721 -0.160953 -0.153011 0.042956 -0.305859 0.132195 0.115388 -0.256171 0.198767 0.283160 0.279724 -0.102492 -0.032063 -0.329175 0.335397 0.374100 -0.283430 0.183213 0.020225 -0.327005 -0.253371 0.164754 -0.151010 0.122146 -0.162188 0.039907 -0.443640 -0.414457 -0.117644 0.389603 -0.210423 0.120875 0.208731 -0.261967 -0.058837 0.218995
1 -0.481035 -0.608760 0.301885 -0.427334 0.232826 -0.216412 -0.072690 0.068705 0.025342 -0.188093 0.437061 0.247474 -0.017006 -0.117649 0.178964 -0.577709 0.122032 -0.428543 0.009389 -0.437560 0.177633 0.187455 -0.062182 0.320544 -0.252379 -0.266526 0.121927 0.151587 0.154335 -0.249033 -0.205204 0.107259 -0.363363 0.220402 0.144639 -0.342935 0.163960 0.260994 0.425158 -0.215643 -0.013692 -0.425059 0.381944 0.455198 -0.358322 0.114125 -0.112089 -0.312530 -0.287087 0.249787 -0.170351 0.109047 -0.221360 0.088628 -0.565062 -0.468641 -0.110627 0.674190 -0.363433 0.184982 0.203408 -0.416929 -0.136778 0.157965
18 -0.065390 -0.040435 -0.037986 -0.015774 0.077233 0.032412 0.101435 0.041722 0.269566 0.288798 -0.084403 0.487302 0.066064 0.437188 0.319526 -0.245879 -0.435353 -0.335721 -0.729013 -0.206768 0.283051 0.155935 0.533858 -0.188877 0.161263 0.286242 0.072072 -0.074501 -0.010038 -0.111258 -0.248238 0.353691 0.128221 -0.145525 0.328936 -0.047500 0.384452 -0.246946 -0.232784 -0.052101 -0.358974 0.313656 0.107355 0.168415 0.121688 0.132915 -0.066703 0.335611 -0.219673 0.212255 0.074341 -0.186313 0.221891 0.344905 0.103603 -0.086549 -0.240536 -0.045857 0.052497 -0.537885 0.529850 -0.454029 -0.073837 -0.694583
17 -0.077291 -0.029884 -0.026731 -0.004915 0.099222 0.025189 0.089383 0.033235 0.239745 0.286839 -0.070704 0.463848 0.059324 0.455443 0.305714 -0.224030 -0.404262 -0.328763 -0.727226 -0.222339 0.268544 0.171144 0.507941 -0.186516 0.133578 0.258030 0.078007 -0.048265 -0.001962 -0.088656 -0.238002 0.340550 0.122105 -0.125082 0.327616 -0.039724 0.376786 -0.234169 -0.233289 -0.047934 -0.307599 0.306451 0.110590 0.162614 0.111129 0.109039 -0.078851 0.365585 -0.236660 0.231941 0.093201 -0.192050 0.210137 0.340238 0.101283 -0.114940 -0.231876 0.000788 0.057350 -0.539886 0.503211 -0.433388 -0.081647 -0.727797
20 -0.234876 -0.175849 0.278634 -0.469570 -0.615764 -0.160281 0.281615 -0.186782 0.225691 0.278248 -0.396783 0.297948 0.146815 -0.187111 -0.029718 -0.187719 -0.609517 -0.264524 -0.080400 -0.127344 0.268325 -0.152687 0.521123 0.062753 0.158273 0.563962 0.321113 -0.131599 -0.091848 -0.395917 -0.169056 0.317454 0.057925 -0.386505 0.144040 -0.188785 0.260345 0.018989 0.058272 -0.119096 -0.900092 -0.041194 -0.219190 0.095472 0.106763 0.248338 0.469982 -0.091853 -0.017140 -0.028176 -0.296813 0.172951 0.074044 -0.315711 0.122615 0.176672 -0.478720 -0.361190 -0.332072 0.078343 0.297760 -0.318974 0.100683 0.335494
21 -0.235882 -0.145833 0.268267 -0.464209 -0.567091 -0.153092 0.245500 -0.204155 0.211453 0.288144 -0.371155 0.294575 0.141243 -0.150697 -0.026268 -0.175704 -0.587760 -0.258226 -0.097203 -0.124172 0.271389 -0.124352 0.493093 0.063632 0.129154 0.530491 0.312580 -0.106592 -0.080756 -0.377923 -0.160122 0.314005 0.056452 -0.358031 0.140731 -0.180040 0.236267 0.029232 0.068560 -0.100516 -0.834078 -0.010667 -0.213278 0.074143 0.103031 0.233204 0.422909 -0.056193 -0.033261 -0.016720 -0.250238 0.155056 0.079632 -0.289580 0.118231 0.161675 -0.453063 -0.329108 -0.311851 0.058193 0.279879 -0.314115 0.085365 0.273311
