16 64
13 0.091118 -0.343494 0.263828 -0.390675 0.006109 0.400988 0.143782 -0.288567 0.230845 0.162636 -0.210964 0.035338 -0.042100 -0.253230 0.432138 0.033364 -0.251624 -0.268022 -0.195828 -0.581064 0.640595 0.128800 -0.267406 0.243276 -0.300571 -0.089298 0.219362 0.101281 -0.302162 -0.005826 -0.086342 0.277084 0.037521 -0.167620 0.118900 -0.231722 0.168831 0.222861 -0.079383 -0.215447 -0.410212 0.152212 0.333630 0.353827 0.043976 0.737481 0.180889 0.002504 0.108262 0.362005 -0.427702 0.436832 0.074984 0.435965 -0.339578 -0.417448 -0.536671 -0.387442 0.195882 -0.204143 0.581366 0.008496 0.036028 -0.369365
7 0.021567 -0.297978 0.055073 -0.134663 0.039558 0.252595 0.146645 -0.077032 0.284522 -0.028897 0.007877 0.127792 -0.166502 -0.160710 0.345674 -0.080474 -0.109565 -0.201788 -0.106703 -0.299114 0.327551 0.070346 -0.141476 0.168306 -0.057267 -0.134205 0.046171 -0.080424 -0.225902 -0.017878 -0.068252 0.087971 -0.012352 -0.087260 0.076618 -0.184083 0.233448 0.142205 -0.115684 -0.092171 -0.266219 0.032143 0.288448 0.307837 -0.056492 0.491394 0.216602 -0.111085 0.077528 0.174994 -0.248686 0.313816 0.064095 0.198717 -0.190322 -0.266869 -0.255635 -0.266481 0.065366 -0.132304 0.327762 -0.080214 0.038561 0.018195
3 -0.309702 -0.339775 0.057461 -0.078931 0.074237 -0.084863 -0.048181 0.192205 0.131711 -0.237315 0.292524 0.226951 -0.196784 -0.034873 0.148844 -0.329767 0.105566 -0.101043 0.063077 -0.165321 0.013469 0.031565 0.115258 0.161258 -0.048904 -0.187144 -0.031346 -0.044046 -0.017339 -0.174071 -0.022126 -0.070830 -0.177153 0.090941 0.024528 -0.079042 0.301363 0.110483 0.117771 0.042389 -0.037786 -0.209719 0.313463 0.308484 -0.210779 0.173797 0.184841 -0.210755 -0.141859 0.026436 -0.008165 0.058825 -0.054879 -0.077069 -0.292008 -0.179861 0.046525 0.272814 -0.418564 0.227968 -0.008490 -0.262491 -0.048970 0.445020
11 -0.316815 -0.345059 0.055724 -0.082612 0.062856 -0.101567 -0.079713 0.213672 0.134247 -0.231381 0.280828 0.236508 -0.180576 -0.013264 0.147952 -0.328017 0.104304 -0.072505 0.078945 -0.159028 0.006782 0.018216 0.145442 0.135521 -0.075322 -0.173711 -0.028255 -0.041540 -0.032428 -0.193513 0.001123 -0.057750 -0.164774 0.074777 0.031339 -0.051389 0.305638 0.099453 0.125539 0.048086 -0.033445 -0.198653 0.312700 0.294818 -0.210221 0.164884 0.175627 -0.190075 -0.142607 0.021611 -0.013754 0.048136 -0.051946 -0.087207 -0.288083 -0.166300 0.058141 0.307357 -0.452281 0.235326 -0.016359 -0.282315 -0.050144 0.447126
5 -0.045331 -0.295282 -0.051695 0.019326 0.116214 0.142955 0.154891 0.041961 0.312007 -0.186645 0.185541 0.201709 -0.270347 -0.095538 0.311626 -0.199486 -0.044905 -0.211597 -0.058950 -0.154819 0.189129 0.061801 -0.104366 0.168874 0.073641 -0.198333 -0.052793 -0.178561 -0.159156 -0.036444 -0.086476 -0.077896 -0.056839 -0.010987 0.066312 -0.169659 0.325555 0.155620 -0.126405 -0.001148 -0.123246 -0.048888 0.297453 0.297385 -0.138463 0.362690 0.265665 -0.200076 0.023367 0.061692 -0.106343 0.238857 0.076122 0.039330 -0.119411 -0.230806 -0.073014 -0.175714 -0.025001 -0.107174 0.182466 -0.150569 0.069881 0.262437
10 -0.176388 -0.318308 -0.024102 -0.018700 0.072339 0.024944 0.042006 0.139767 0.238246 -0.202346 0.239000 0.235225 -0.231304 -0.047582 0.216211 -0.250658 0.042589 -0.108782 0.020478 -0.120196 0.062226 0.039127 0.043660 0.123004 0.005631 -0.162956 -0.044801 -0.128878 -0.102875 -0.108634 -0.041938 -0.062915 -0.112104 0.040688 0.041532 -0.111916 0.323139 0.097852 -0.011790 0.032411 -0.095792 -0.139772 0.292397 0.305090 -0.168857 0.253955 0.215513 -0.203479 -0.053237 0.015685 -0.071362 0.135603 0.022049 -0.036985 -0.191861 -0.171458 -0.000573 0.056689 -0.253787 0.060945 0.066889 -0.225120 -0.016265 0.378450
1 -0.507516 -0.398791 0.204619 -0.239763 0.021144 -0.248690 -0.239347 0.270383 -0.016359 -0.209549 0.294304 0.223158 -0.071377 0.010112 0.030894 -0.387786 0.189264 -0.008156 0.161717 -0.248679 -0.039955 0.002883 0.279781 0.155806 -0.231705 -0.152070 0.050791 0.118471 0.062901 -0.307274 0.035114 0.009783 -0.241209 0.134513 0.001521 0.000125 0.229656 0.071597 0.333827 0.013472 -0.019483 -0.294020 0.335053 0.304384 -0.237823 0.070302 0.088353 -0.161900 -0.233907 0.055116 -0.001136 -0.040980 -0.159757 -0.109061 -0.465274 -0.153912 0.080189 0.630450 -0.716298 0.483269 -0.082871 -0.347692 -0.156340 0.471472
8 0.009346 -0.314873 -0.012323 -0.064108 0.039361 0.225058 0.158559 -0.020983 0.328118 -0.063879 0.066799 0.180518 -0.220068 -0.132092 0.348876 -0.124278 -0.081318 -0.170979 -0.067780 -0.197720 0.241737 0.073297 -0.108014 0.109006 -0.006344 -0.111560 0.000428 -0.135600 -0.234352 -0.006910 -0.070205 0.049254 -0.020915 -0.061485 0.082090 -0.186856 0.302761 0.124131 -0.129339 -0.021023 -0.239758 -0.006687 0.265105 0.325581 -0.081857 0.453683 0.218432 -0.150427 0.050885 0.112708 -0.231003 0.278948 0.099625 0.138035 -0.147899 -0.237237 -0.207394 -0.258031 0.020882 -0.163025 0.258311 -0.135733 0.037141 0.133310
12 -0.420080 -0.379563 0.166866 -0.234681 0.008917 -0.170099 -0.192276 0.193378 0.011888 -0.159604 0.262020 0.233608 -0.081955 -0.007937 0.076767 -0.318666 0.113231 -0.014694 0.121507 -0.253074 0.018358 0.037474 0.222125 0.128076 -0.238159 -0.138915 0.057297 0.085861 0.015701 -0.251312 0.038343 0.030790 -0.224053 0.104278 0.027859 -0.011678 0.240780 0.092644 0.252329 0.021030 -0.050577 -0.238505 0.322085 0.295990 -0.208872 0.147191 0.107954 -0.155904 -0.211266 0.047225 -0.046800 0.004606 -0.114777 -0.080456 -0.419566 -0.183004 0.027275 0.486292 -0.586577 0.371609 -0.014027 -0.293112 -0.136072 0.391388
6 -0.033295 -0.293708 -0.005423 -0.027635 0.077183 0.168617 0.140980 0.020008 0.278426 -0.120980 0.126311 0.171869 -0.226748 -0.115963 0.308488 -0.160173 -0.056579 -0.191362 -0.055403 -0.197658 0.203125 0.055319 -0.095197 0.136912 0.023637 -0.161874 -0.011948 -0.142531 -0.170676 -0.020071 -0.068893 -0.022941 -0.038917 -0.029403 0.070560 -0.163041 0.292494 0.147472 -0.113599 -0.032106 -0.173831 -0.025940 0.289106 0.288216 -0.120147 0.386159 0.236235 -0.175975 0.037154 0.101269 -0.151069 0.243602 0.054339 0.086636 -0.138913 -0.235200 -0.133116 -0.178734 -0.018249 -0.107306 0.218118 -0.124976 0.044476 0.183573
4 -0.239340 -0.304102 0.025520 -0.033048 0.102255 -0.043291 -0.012977 0.173889 0.165824 -0.244650 0.280836 0.219777 -0.206439 -0.041113 0.183656 -0.302553 0.066368 -0.137825 0.033027 -0.151580 0.059671 0.028985 0.053843 0.161429 -0.007965 -0.199668 -0.052549 -0.078440 -0.036617 -0.146153 -0.033753 -0.101089 -0.141352 0.062551 0.031227 -0.087094 0.312936 0.134314 0.055970 0.037763 -0.030780 -0.164363 0.319421 0.292331 -0.192016 0.197105 0.206569 -0.212219 -0.106670 0.023209 0.000105 0.082660 -0.022481 -0.056439 -0.238564 -0.186215 0.043817 0.174200 -0.313542 0.141528 0.040461 -0.232629 0.002523 0.398372
9 -0.028308 -0.298805 -0.031921 -0.059251 0.040929 0.176987 0.121238 0.011937 0.310950 -0.087467 0.102439 0.200137 -0.208293 -0.116899 0.304624 -0.136318 -0.065384 -0.137315 -0.055764 -0.170835 0.189740 0.075466 -0.060160 0.094661 -0.015221 -0.111320 -0.011465 -0.143893 -0.206262 -0.025480 -0.052217 0.040316 -0.047462 -0.050487 0.084296 -0.165760 0.301049 0.112476 -0.118127 -0.001940 -0.213181 -0.041067 0.265555 0.315017 -0.101394 0.393087 0.213148 -0.158312 0.022887 0.071165 -0.201541 0.246111 0.074766 0.093947 -0.138537 -0.216259 -0.159328 -0.188743 -0.032479 -0.119834 0.216687 -0.147156 0.013867 0.180176
0 -0.516990 -0.414941 0.181121 -0.241001 0.015072 -0.244658 -0.247831 0.281044 -0.015052 -0.231873 0.344617 0.262797 -0.091292 0.008637 0.056460 -0.416689 0.183971 -0.005138 0.151762 -0.243486 -0.053196 0.013292 0.291121 0.148511 -0.250036 -0.166738 0.031167 0.089260 0.053359 -0.316184 0.056615 -0.000342 -0.266119 0.136770 0.020740 0.002344 0.288562 0.093020 0.331449 0.043011 -0.012514 -0.310643 0.350087 0.330563 -0.258783 0.092617 0.106113 -0.195613 -0.275849 0.028531 0.005788 -0.058518 -0.155909 -0.138490 -0.476476 -0.175767 0.087109 0.649115 -0.746204 0.487464 -0.090376 -0.365604 -0.149795 0.519130
2 -0.457051 -0.395127 0.149900 -0.194606 0.034524 -0.208307 -0.187351 0.263463 0.015513 -0.236376 0.323637 0.252848 -0.114355 -0.006069 0.073935 -0.400962 0.156862 -0.030428 0.132056 -0.223329 -0.030392 0.020301 0.249092 0.153856 -0.193683 -0.176369 0.008675 0.060753 0.048474 -0.273718 0.035858 -0.027754 -0.247851 0.135487 0.007342 -0.011345 0.280292 0.088313 0.280909 0.039443 -0.007914 -0.273703 0.344182 0.314448 -0.251337 0.103849 0.119005 -0.198051 -0.229241 0.024937 0.008997 -0.032141 -0.124228 -0.109662 -0.435469 -0.175140 0.088674 0.554374 -0.657000 0.428718 -0.075585 -0.328456 -0.122364 0.489419
15 0.034129 -0.338631 0.325456 -0.443911 -0.004913 0.367125 0.099503 -0.290586 0.156965 0.173181 -0.224782 0.003417 0.010846 -0.235708 0.381506 0.027834 -0.230518 -0.251529 -0.184527 -0.613711 0.631486 0.121360 -0.227689 0.256079 -0.348980 -0.077750 0.233567 0.161930 -0.259307 -0.042648 -0.076562 0.302288 0.036233 -0.150988 0.101051 -0.201773 0.098967 0.199744 0.001762 -0.232499 -0.404357 0.140477 0.314337 0.324476 0.057540 0.692221 0.122975 0.029101 0.090741 0.371932 -0.408438 0.395196 0.031025 0.440837 -0.387615 -0.407997 -0.535612 -0.296623 0.137180 -0.108844 0.559314 0.022516 0.015875 -0.405901
14 0.074323 -0.321000 0.277873 -0.401087 -0.005410 0.379307 0.113374 -0.285816 0.185161 0.179702 -0.229674 0.020835 -0.012442 -0.234424 0.387748 0.053889 -0.230926 -0.236744 -0.181000 -0.566907 0.608696 0.125520 -0.236566 0.228700 -0.310335 -0.066400 0.225762 0.125436 -0.286487 -0.006926 -0.066117 0.288671 0.038597 -0.154766 0.112893 -0.206635 0.114763 0.192583 -0.056743 -0.219718 -0.407021 0.150446 0.303842 0.319165 0.054181 0.685212 0.146238 0.027176 0.107946 0.356396 -0.413530 0.403021 0.050628 0.424626 -0.329629 -0.386767 -0.522371 -0.336587 0.171829 -0.169590 0.549527 0.016500 0.026935 -0.389951
