16 64
13 0.016499 -0.214897 0.309811 -0.345457 -0.043004 0.257891 0.100514 -0.285926 0.112283 0.281143 -0.345802 -0.044385 -0.044899 -0.171807 0.230048 -0.007474 -0.200320 -0.044631 -0.092677 -0.306922 0.417475 0.247538 -0.141708 0.017319 -0.365481 0.242980 0.193417 0.332413 -0.207323 0.120228 -0.140411 0.331159 0.044313 -0.064695 0.105464 -0.202335 0.258396 0.138863 0.076953 0.197179 -0.224187 0.055544 0.034693 0.357801 0.157942 0.506339 -0.022323 0.147690 -0.168916 0.229931 -0.342625 0.156677 0.212221 0.439708 -0.287602 -0.325913 -0.601923 -0.319480 0.044315 -0.247048 0.225544 -0.032779 -0.038183 -0.391781
8 -0.010455 -0.202624 0.195043 -0.212925 -0.046395 0.188104 0.073998 -0.102758 0.144770 0.141453 -0.158855 0.024789 -0.074468 -0.179816 0.233438 -0.084218 -0.118188 -0.064913 -0.048996 -0.231276 0.269522 0.143062 -0.079147 -0.007868 -0.214486 0.127753 0.081452 0.184694 -0.149024 0.066257 -0.092898 0.210928 -0.007200 -0.064281 0.057101 -0.167160 0.297149 0.127191 0.052906 0.159327 -0.199020 -0.007908 0.126403 0.354867 0.057347 0.411689 0.039504 0.002078 -0.142653 0.159582 -0.251507 0.122048 0.139667 0.328951 -0.275682 -0.254341 -0.417428 -0.224099 -0.016899 -0.146471 0.197447 -0.072297 -0.036795 -0.140199
4 -0.123519 -0.214069 0.082269 -0.091591 0.025281 -0.017478 0.006121 0.165575 0.100415 -0.153242 0.243177 0.119710 -0.093962 -0.244779 0.225434 -0.338692 0.071226 -0.242184 0.001905 -0.174132 0.075668 -0.000262 -0.081494 0.123473 0.020747 -0.156330 -0.064094 0.007364 0.036280 -0.074928 -0.056147 -0.034556 -0.199002 0.013194 0.002463 -0.198877 0.345484 0.214285 0.129970 0.020007 -0.072072 -0.200750 0.290089 0.386419 -0.182169 0.197590 0.124790 -0.298229 -0.183709 0.102201 -0.045090 0.042654 -0.040057 0.111353 -0.341761 -0.208949 -0.088100 0.115488 -0.157809 0.080023 0.134103 -0.200447 0.015672 0.291591
6 -0.045709 -0.188324 0.109302 -0.109487 -0.007109 0.091420 0.050066 0.054158 0.146085 -0.019224 0.049509 0.075062 -0.095999 -0.219600 0.234083 -0.194270 -0.038432 -0.152249 -0.026885 -0.199490 0.162281 0.055010 -0.075671 0.041431 -0.064210 -0.034885 -0.005884 0.059464 -0.055667 0.010069 -0.066557 0.066382 -0.095057 -0.046798 0.024822 -0.168771 0.329661 0.175194 0.043308 0.084392 -0.134370 -0.087191 0.236694 0.355786 -0.074143 0.304925 0.117458 -0.159038 -0.136729 0.122398 -0.137782 0.101305 0.042263 0.217026 -0.278187 -0.224928 -0.229045 -0.090742 -0.056898 -0.048428 0.182189 -0.111965 -0.011987 0.093594
11 -0.081020 -0.208457 0.095933 -0.104495 0.000950 0.062701 0.027845 0.100080 0.156649 -0.069512 0.102482 0.101873 -0.106188 -0.220570 0.244091 -0.242129 -0.011310 -0.165596 -0.021804 -0.199762 0.141187 0.039458 -0.053905 0.064011 -0.048827 -0.072587 -0.034107 0.038304 -0.047257 -0.027874 -0.052786 0.047372 -0.121738 -0.045792 0.022559 -0.165596 0.351967 0.180748 0.062599 0.084387 -0.123039 -0.116474 0.268822 0.376948 -0.106505 0.290013 0.133939 -0.189925 -0.154118 0.111912 -0.115717 0.092072 0.021740 0.188721 -0.302185 -0.224688 -0.188468 -0.029852 -0.108569 0.001338 0.166564 -0.147662 -0.003649 0.170398
3 -0.178117 -0.245929 0.095548 -0.109760 0.033948 -0.058194 0.002299 0.178378 0.040017 -0.195418 0.325145 0.128471 -0.111445 -0.260622 0.217739 -0.414337 0.127674 -0.284076 0.008951 -0.180902 0.021115 0.000625 -0.085160 0.175630 0.039894 -0.206785 -0.066125 -0.003705 0.077134 -0.088988 -0.048459 -0.069732 -0.260662 0.068290 0.014308 -0.225518 0.346506 0.242592 0.182900 -0.004678 -0.043981 -0.258394 0.284432 0.395100 -0.244961 0.158299 0.122076 -0.357393 -0.229225 0.113591 -0.008131 0.009873 -0.094910 0.052437 -0.369901 -0.229780 -0.055339 0.229006 -0.223070 0.145355 0.078792 -0.231648 0.022468 0.373459
9 -0.023723 -0.193286 0.137215 -0.167866 -0.031884 0.166167 0.063243 -0.024459 0.190624 0.071035 -0.077314 0.068459 -0.087992 -0.212315 0.239142 -0.116682 -0.110190 -0.078382 -0.055570 -0.222587 0.227668 0.120636 -0.051384 -0.011260 -0.164092 0.071826 0.031831 0.110200 -0.127663 0.048323 -0.077135 0.172491 -0.042608 -0.085372 0.052760 -0.168653 0.339368 0.141308 0.011677 0.151042 -0.203537 -0.045803 0.204002 0.383171 0.003504 0.386822 0.092510 -0.069296 -0.137754 0.120295 -0.225104 0.134392 0.100473 0.302972 -0.268064 -0.249019 -0.353819 -0.207283 -0.028933 -0.119450 0.216525 -0.080405 -0.047701 -0.038154
5 -0.198645 -0.276468 0.087345 -0.131643 0.053888 -0.083855 0.001878 0.163206 0.034814 -0.225952 0.366209 0.140154 -0.114048 -0.246032 0.228107 -0.460739 0.143371 -0.316801 0.001823 -0.175144 0.020734 0.004977 -0.107044 0.222770 0.036126 -0.237454 -0.063579 -0.022810 0.076191 -0.123627 -0.052827 -0.079669 -0.277917 0.084307 0.040092 -0.246241 0.341707 0.260146 0.213231 -0.028633 -0.015241 -0.279354 0.259688 0.386416 -0.272252 0.140394 0.108600 -0.369685 -0.244078 0.113863 -0.000781 0.010607 -0.101190 0.003488 -0.364695 -0.243265 -0.031953 0.286881 -0.244522 0.154421 0.054840 -0.270365 0.048107 0.403883
10 -0.009608 -0.183837 0.103698 -0.118684 -0.030343 0.158425 0.070751 0.027436 0.216538 0.026580 -0.031070 0.076501 -0.102070 -0.212128 0.245739 -0.127099 -0.082636 -0.090766 -0.048404 -0.203211 0.208326 0.071868 -0.053024 0.002706 -0.111890 0.028487 0.006929 0.071501 -0.111581 0.023927 -0.083745 0.123045 -0.045123 -0.086173 0.014114 -0.163068 0.360162 0.133155 -0.001632 0.121561 -0.193108 -0.054968 0.241557 0.392287 -0.006676 0.382323 0.128766 -0.106493 -0.108902 0.109445 -0.197212 0.137539 0.102411 0.281585 -0.279224 -0.216865 -0.297391 -0.210644 -0.036328 -0.091205 0.222276 -0.089649 -0.051621 0.029824
1 -0.232242 -0.302359 0.092504 -0.134346 0.047060 -0.113697 -0.019712 0.225647 0.041575 -0.259220 0.416380 0.155985 -0.104361 -0.264931 0.233343 -0.508263 0.188366 -0.336063 0.027090 -0.179177 -0.007324 -0.030263 -0.089524 0.230064 0.056908 -0.262881 -0.078151 -0.031873 0.097573 -0.162066 -0.052538 -0.091419 -0.301971 0.090951 0.019093 -0.258347 0.354581 0.258003 0.252099 -0.059329 -0.031396 -0.322663 0.299393 0.421689 -0.302785 0.122458 0.107113 -0.419421 -0.244968 0.120189 0.003007 0.001836 -0.130366 -0.003110 -0.414371 -0.229864 -0.003449 0.352309 -0.299772 0.209494 0.061445 -0.313108 0.034342 0.474368
7 -0.013779 -0.185316 0.130144 -0.157903 -0.025083 0.140736 0.067787 -0.017690 0.175784 0.045208 -0.052767 0.050648 -0.080846 -0.215246 0.237463 -0.138371 -0.080656 -0.115641 -0.054807 -0.214626 0.224574 0.090809 -0.083098 0.036388 -0.123197 0.029191 0.024129 0.107316 -0.102880 0.025064 -0.084646 0.142994 -0.059153 -0.074493 0.030854 -0.176602 0.312293 0.144683 0.035056 0.110581 -0.169966 -0.051123 0.194248 0.366941 -0.008598 0.358765 0.092382 -0.081537 -0.126209 0.134983 -0.198151 0.132295 0.093653 0.281344 -0.279541 -0.230515 -0.311327 -0.175840 -0.018090 -0.090419 0.201739 -0.090936 -0.026563 -0.010823
2 -0.227803 -0.293860 0.075346 -0.119524 0.045110 -0.115960 -0.017958 0.247400 0.022701 -0.280990 0.452716 0.174220 -0.113301 -0.286574 0.237034 -0.527624 0.186850 -0.341621 0.019939 -0.179888 -0.025558 -0.029025 -0.081872 0.229239 0.068812 -0.289482 -0.101072 -0.051314 0.118203 -0.150529 -0.032684 -0.118402 -0.334278 0.102279 0.012654 -0.251364 0.378834 0.270693 0.243091 -0.051917 -0.018273 -0.328947 0.325338 0.429170 -0.329982 0.117977 0.126067 -0.455672 -0.261297 0.103798 0.027119 -0.016589 -0.143359 -0.010250 -0.425393 -0.239372 0.019930 0.367615 -0.304602 0.228274 0.053849 -0.300240 0.037159 0.505277
0 -0.231540 -0.298850 0.088729 -0.131933 0.039366 -0.100131 -0.020082 0.226615 0.027549 -0.266738 0.443194 0.162971 -0.118373 -0.276437 0.248239 -0.516518 0.191582 -0.341613 0.014202 -0.185795 -0.018855 -0.030410 -0.092806 0.230695 0.053718 -0.275167 -0.085181 -0.045124 0.096989 -0.155539 -0.039897 -0.101651 -0.314881 0.091611 0.027959 -0.260736 0.388498 0.278863 0.246147 -0.047925 -0.032193 -0.330954 0.308877 0.438057 -0.311467 0.141709 0.125994 -0.443175 -0.272025 0.118087 0.013587 -0.011142 -0.139666 -0.014644 -0.421665 -0.245245 -0.010763 0.353569 -0.307378 0.213774 0.060963 -0.308833 0.038405 0.495334
12 -0.138094 -0.237743 0.086811 -0.107489 0.012392 -0.003797 0.005559 0.151123 0.103858 -0.139963 0.241170 0.134315 -0.109314 -0.242383 0.238006 -0.332551 0.057813 -0.227579 0.001326 -0.194633 0.078074 0.015559 -0.064081 0.113766 -0.004265 -0.152708 -0.053925 0.004913 0.017296 -0.069947 -0.044917 -0.014832 -0.204241 0.010180 0.017627 -0.193122 0.358524 0.218195 0.122290 0.034733 -0.089662 -0.197760 0.296722 0.394884 -0.186766 0.230945 0.137020 -0.294568 -0.195131 0.104634 -0.065095 0.055257 -0.042474 0.108185 -0.349278 -0.229766 -0.109523 0.108659 -0.173331 0.082121 0.137493 -0.197451 0.002512 0.298002
15 0.006607 -0.234603 0.357034 -0.393356 -0.046092 0.296485 0.104552 -0.344757 0.100590 0.327459 -0.406670 -0.056712 -0.041519 -0.153383 0.236717 0.018259 -0.225972 -0.028506 -0.102635 -0.334994 0.464116 0.286866 -0.142384 0.011614 -0.423744 0.292966 0.219289 0.380443 -0.239534 0.132841 -0.148502 0.379612 0.075991 -0.063001 0.124131 -0.202343 0.241346 0.129741 0.094388 0.224189 -0.254177 0.079287 0.003987 0.361268 0.201034 0.549986 -0.055486 0.197100 -0.178503 0.247275 -0.376821 0.159121 0.233815 0.478815 -0.297540 -0.352941 -0.675093 -0.351616 0.047521 -0.268640 0.237071 -0.020582 -0.034477 -0.475412
14 0.005009 -0.243958 0.374414 -0.410924 -0.041576 0.297440 0.099833 -0.356020 0.089539 0.342256 -0.425735 -0.055468 -0.046318 -0.159863 0.236727 0.018562 -0.218767 -0.028470 -0.099540 -0.343225 0.475068 0.303893 -0.149861 0.022030 -0.436544 0.304155 0.239571 0.403155 -0.250595 0.147709 -0.146099 0.386772 0.065410 -0.049120 0.134896 -0.214480 0.246103 0.135747 0.094649 0.225928 -0.258106 0.077615 0.003275 0.374740 0.198596 0.556316 -0.051838 0.208201 -0.187534 0.265897 -0.386203 0.158033 0.236688 0.488591 -0.301553 -0.362193 -0.693605 -0.335938 0.035443 -0.282227 0.229160 -0.035333 -0.030367 -0.490901
