23 64
9 -0.343380 -0.358044 -0.192739 -0.088080 0.001341 0.079676 -0.271934 0.400482 0.605951 -0.034574 0.300070 0.659004 -0.187145 -0.336824 0.306671 -0.175095 -0.290406 0.087943 0.006398 -0.234967 -0.037037 0.209362 0.481124 -0.408208 -0.085503 -0.023978 -0.168975 -0.398159 -0.270907 0.131615 0.344328 0.297349 -0.170587 -0.303557 0.398166 -0.083563 0.494181 0.342336 -0.377172 0.415904 -0.547188 -0.126845 0.699847 0.409899 -0.518177 0.374443 0.388640 -0.409330 -0.135006 -0.151246 -0.330875 0.298416 -0.290086 0.114211 0.027518 -0.374308 -0.217713 -0.064955 -0.241548 -0.162522 0.406089 -0.203214 -0.151663 0.516296
7 -0.289354 -0.359737 -0.134311 -0.089081 0.049240 0.133779 -0.177896 0.411603 0.538595 -0.096570 0.327519 0.522608 -0.207756 -0.407121 0.316510 -0.258214 -0.078276 -0.023020 0.011731 -0.236541 -0.133193 0.196173 0.267046 -0.313911 -0.008169 -0.121819 -0.211024 -0.313382 -0.243416 0.130477 0.268814 0.273475 -0.219290 -0.217423 0.311401 -0.173993 0.422476 0.294081 -0.235779 0.284593 -0.507993 -0.191762 0.693551 0.470398 -0.530049 0.246106 0.267550 -0.493241 -0.137094 -0.022042 -0.300296 0.287905 -0.307840 0.238887 -0.094139 -0.372507 -0.230312 0.037549 -0.183638 -0.115579 0.317701 -0.240210 -0.149740 0.448411
20 -0.052666 -0.002493 0.220229 -0.367102 -0.364301 -0.450865 -0.052347 -0.110270 -0.123317 0.487718 -0.488919 0.276424 0.478516 -0.299067 -0.019191 -0.304009 -0.598785 -0.293728 -0.083469 0.155883 0.865771 -0.226062 0.617783 0.382118 0.386824 0.740713 0.406389 0.036138 0.329929 0.060451 -0.084087 -0.067837 0.060501 0.116909 0.062072 -0.396307 0.067890 0.165918 0.035678 0.027100 -0.505638 0.157205 -0.597010 0.008311 0.092154 0.515409 0.202658 0.212286 0.253218 -0.111804 -0.101832 -0.315813 0.235544 -0.211790 0.117625 0.340410 -0.197900 -0.392094 -0.347156 -0.039076 0.376969 -0.241159 0.504360 0.226997
2 -0.101177 -0.181390 0.326246 -0.336251 0.084416 -0.077461 0.091835 0.020253 -0.079877 0.028896 -0.000702 0.149717 0.068563 -0.330301 0.045718 -0.462293 0.012678 -0.485604 -0.144200 -0.161024 0.241629 0.092856 -0.041288 0.354188 0.137379 0.071946 0.078320 0.223678 0.219972 0.020910 -0.189652 0.039623 -0.266354 0.204437 0.000171 -0.423984 0.091457 0.163369 0.296696 -0.136043 -0.213964 -0.190993 0.131155 0.365765 -0.156245 0.030351 -0.021795 -0.260393 -0.162453 0.254160 -0.006738 -0.127422 -0.094266 0.291760 -0.311428 -0.135672 -0.263902 0.273675 -0.119306 0.022720 0.127719 -0.317258 0.104702 -0.072147
18 -0.024225 -0.020299 0.300472 -0.382653 -0.239511 -0.354890 0.022599 -0.107565 -0.153130 0.420922 -0.421570 0.209837 0.397504 -0.322610 -0.014748 -0.389539 -0.403333 -0.426357 -0.136287 0.114320 0.738648 -0.158725 0.406278 0.447050 0.404330 0.611901 0.335694 0.154283 0.347407 0.082824 -0.158491 -0.041871 -0.016767 0.198574 0.011495 -0.476403 0.018692 0.151304 0.174231 -0.041189 -0.431557 0.089855 -0.492886 0.098265 0.052268 0.358695 0.084212 0.111212 0.153128 0.052103 -0.042248 -0.330298 0.177221 -0.020386 -0.004972 0.259973 -0.255605 -0.208333 -0.255821 -0.045973 0.281766 -0.305355 0.450678 0.066496
15 -0.061068 -0.100578 0.441832 -0.368727 -0.010007 -0.118742 0.146074 -0.108308 -0.183765 0.200630 -0.201572 0.132036 0.144220 -0.281766 0.028251 -0.444769 -0.131359 -0.598530 -0.213703 -0.118614 0.431129 0.028899 0.054914 0.434986 0.261723 0.271436 0.172632 0.295121 0.289591 0.065474 -0.241412 0.015594 -0.164867 0.220470 -0.018803 -0.462630 0.037189 0.160476 0.308189 -0.130048 -0.283514 -0.059691 -0.098410 0.274452 -0.021963 0.117583 -0.004224 -0.095651 -0.120310 0.310975 0.052873 -0.248266 -0.014387 0.255930 -0.212073 -0.039025 -0.358828 0.141646 -0.081508 -0.045395 0.170060 -0.314367 0.264272 -0.194048
5 -0.187321 -0.275925 0.125972 -0.247277 0.148323 0.000052 0.031370 0.195232 0.137467 -0.123623 0.227125 0.173198 -0.042234 -0.419365 0.139295 -0.476954 0.176125 -0.326271 -0.036497 -0.158778 -0.013977 0.144585 -0.116308 0.165812 0.099552 -0.105235 -0.046649 0.024242 0.052590 0.019762 -0.083194 0.094989 -0.283793 0.131823 0.105453 -0.414575 0.177680 0.194522 0.204707 -0.075828 -0.270015 -0.300768 0.313386 0.437714 -0.356925 -0.019705 -0.035814 -0.451859 -0.138320 0.159775 -0.123109 0.067522 -0.179856 0.286019 -0.305047 -0.228909 -0.196444 0.259409 -0.170921 0.024021 0.108293 -0.328869 -0.024406 0.171457
14 -0.033453 -0.095062 0.388451 -0.350327 -0.032007 -0.162193 0.087416 -0.098547 -0.187762 0.227146 -0.243182 0.143051 0.163123 -0.304428 0.005613 -0.390842 -0.173014 -0.496386 -0.149274 -0.075187 0.480267 0.014724 0.103925 0.429036 0.257804 0.310821 0.217859 0.274493 0.278176 0.102620 -0.192424 -0.016773 -0.168336 0.231035 -0.004593 -0.428505 0.033457 0.174150 0.235996 -0.085915 -0.268129 -0.034766 -0.129168 0.235171 -0.021743 0.183773 0.058732 -0.069729 -0.063799 0.238179 0.013865 -0.238461 0.016773 0.192355 -0.174106 0.010662 -0.303603 0.067776 -0.120663 -0.041143 0.170181 -0.282246 0.280770 -0.098571
3 -0.111322 -0.184233 0.333474 -0.308736 0.088214 -0.058598 0.102729 0.014592 -0.102182 0.023996 0.012411 0.105709 0.022623 -0.375115 0.064571 -0.458643 0.050732 -0.484959 -0.097824 -0.164608 0.205704 0.103331 -0.094941 0.343555 0.173009 0.059784 0.086980 0.216458 0.202066 0.069731 -0.187059 0.011312 -0.269550 0.219512 0.021574 -0.443013 0.103420 0.204681 0.274513 -0.116153 -0.223972 -0.208105 0.125382 0.372404 -0.175956 0.048780 0.002763 -0.299127 -0.165762 0.268749 -0.012301 -0.103642 -0.116179 0.279316 -0.297199 -0.156358 -0.280328 0.224475 -0.111780 0.005663 0.112272 -0.292731 0.119161 -0.011536
16 -0.028321 -0.058246 0.461654 -0.415833 -0.096842 -0.228383 0.134591 -0.142837 -0.214357 0.305404 -0.329823 0.171901 0.259173 -0.278540 -0.006101 -0.457868 -0.258304 -0.629382 -0.236505 -0.054529 0.599037 -0.044538 0.185530 0.507919 0.330625 0.421959 0.259013 0.312241 0.360690 0.046698 -0.264882 -0.004475 -0.137906 0.227575 -0.043083 -0.494608 0.022213 0.142453 0.307769 -0.150066 -0.329339 0.002705 -0.247222 0.228885 0.044903 0.182984 0.029917 0.008925 -0.053483 0.280466 0.057452 -0.323742 0.067745 0.190350 -0.165532 0.082640 -0.348723 0.075350 -0.126236 -0.052359 0.220258 -0.355861 0.350891 -0.187434
17 -0.011925 -0.028883 0.427414 -0.412716 -0.212266 -0.312775 0.081980 -0.151062 -0.194150 0.432429 -0.443417 0.238137 0.355781 -0.279732 -0.024835 -0.399099 -0.409664 -0.571019 -0.221248 0.036168 0.750503 -0.127417 0.372773 0.492186 0.395377 0.595847 0.321045 0.260249 0.380377 0.094853 -0.205475 -0.019089 -0.055485 0.201017 -0.024908 -0.494348 0.024448 0.162540 0.224450 -0.066422 -0.410568 0.077733 -0.407551 0.159856 0.083726 0.319316 0.101535 0.117820 0.046604 0.187007 0.010179 -0.376378 0.135214 0.070329 -0.051281 0.186088 -0.353530 -0.079867 -0.173492 -0.081808 0.286407 -0.335663 0.454080 -0.102501
19 -0.014472 -0.070930 0.337703 -0.341189 -0.105825 -0.227241 0.045565 -0.109435 -0.154688 0.266873 -0.295155 0.176570 0.222930 -0.273290 -0.002820 -0.351020 -0.286543 -0.446388 -0.116555 -0.006856 0.553857 -0.058864 0.213856 0.410562 0.271520 0.394208 0.247632 0.204966 0.279043 0.061502 -0.170150 -0.028707 -0.112422 0.168039 -0.000370 -0.389680 0.024454 0.170063 0.188223 -0.067756 -0.286222 0.013131 -0.219462 0.158955 0.027203 0.253983 0.104197 -0.010235 0.005448 0.151726 -0.007628 -0.241417 0.055221 0.078943 -0.086440 0.102308 -0.253614 -0.028697 -0.141201 -0.043957 0.213338 -0.271697 0.321435 -0.006246
6 -0.238863 -0.298659 0.000137 -0.111064 0.079079 0.101817 -0.088743 0.281504 0.326995 -0.083790 0.261025 0.365489 -0.178772 -0.354166 0.240310 -0.272674 -0.025275 -0.132201 0.002107 -0.234430 -0.089197 0.182004 0.121368 -0.166424 0.008925 -0.109849 -0.129507 -0.165169 -0.132270 0.118215 0.140212 0.177701 -0.217666 -0.099989 0.233231 -0.200799 0.326349 0.271115 -0.108853 0.165942 -0.375535 -0.189627 0.551014 0.405695 -0.418753 0.163987 0.190531 -0.432642 -0.161152 0.067935 -0.196816 0.192698 -0.269704 0.230688 -0.130654 -0.339087 -0.227473 0.098672 -0.132285 -0.094037 0.236817 -0.208755 -0.096992 0.292727
0 -0.150061 -0.235213 0.247713 -0.330534 0.115007 -0.069245 0.074084 0.093511 -0.022415 -0.069673 0.135199 0.091521 0.050527 -0.410331 0.085531 -0.534371 0.178402 -0.446860 -0.065146 -0.126652 0.101864 0.081393 -0.152862 0.338919 0.145559 -0.017039 0.046851 0.133107 0.163624 -0.024903 -0.184383 0.040944 -0.280240 0.216124 0.044178 -0.489927 0.103614 0.178321 0.339675 -0.185895 -0.239292 -0.303303 0.133330 0.409835 -0.251454 -0.028405 -0.090710 -0.393641 -0.136125 0.220904 -0.064772 -0.050170 -0.138514 0.253567 -0.340399 -0.141676 -0.217176 0.303250 -0.188551 0.066968 0.086011 -0.367006 0.065961 0.095445
1 -0.192331 -0.282035 0.210613 -0.318908 0.164113 -0.042883 0.040379 0.175516 0.084950 -0.127957 0.202417 0.154452 0.013487 -0.416938 0.095331 -0.530704 0.197937 -0.409070 -0.056132 -0.172952 0.035723 0.124649 -0.135467 0.265001 0.093342 -0.086428 -0.012716 0.105245 0.121936 -0.040661 -0.155131 0.094188 -0.310948 0.170511 0.057723 -0.462467 0.130082 0.172921 0.309647 -0.162620 -0.256646 -0.342354 0.299197 0.466289 -0.317845 -0.065456 -0.080762 -0.450008 -0.152976 0.209889 -0.101030 0.021347 -0.188880 0.317193 -0.372970 -0.201364 -0.206613 0.361833 -0.191138 0.071568 0.112303 -0.383410 -0.021348 0.108637
4 -0.141531 -0.221643 0.212233 -0.257981 0.127989 -0.020205 0.031631 0.127551 0.048778 -0.063275 0.135806 0.170658 -0.017699 -0.355806 0.101248 -0.428591 0.096015 -0.381230 -0.072626 -0.172838 0.080192 0.122895 -0.085113 0.211107 0.099164 -0.043058 -0.004783 0.116155 0.109156 0.024311 -0.113108 0.071412 -0.275553 0.130943 0.061699 -0.376787 0.151182 0.193721 0.213993 -0.078274 -0.223800 -0.246148 0.286227 0.404474 -0.254591 0.006292 0.002410 -0.367735 -0.174811 0.206899 -0.062603 -0.010524 -0.161036 0.290595 -0.297467 -0.199738 -0.220885 0.269525 -0.119280 0.005739 0.130232 -0.308754 0.018259 0.061319
13 -0.052354 -0.130772 0.344378 -0.318984 0.024423 -0.103618 0.085937 -0.044990 -0.125071 0.126481 -0.116103 0.140044 0.092556 -0.304268 0.035381 -0.393566 -0.093379 -0.470765 -0.140563 -0.129613 0.345626 0.056631 0.018913 0.361027 0.176728 0.170906 0.140893 0.243363 0.231990 0.071244 -0.177918 0.013182 -0.214464 0.191133 0.001129 -0.394321 0.077967 0.182488 0.238290 -0.089268 -0.213640 -0.099480 0.025786 0.290028 -0.084531 0.121584 0.041753 -0.160435 -0.128520 0.246650 0.002519 -0.163522 -0.040611 0.238999 -0.233496 -0.080963 -0.281421 0.151433 -0.090004 -0.025467 0.150155 -0.271954 0.176692 -0.085827
21 -0.065174 0.007717 0.206935 -0.374435 -0.388737 -0.467605 -0.062981 -0.109819 -0.116781 0.509562 -0.493418 0.269620 0.495643 -0.332966 -0.016257 -0.311650 -0.592510 -0.283463 -0.051159 0.190254 0.873725 -0.243757 0.623316 0.382385 0.414323 0.763370 0.417319 0.013473 0.329712 0.072986 -0.069152 -0.079144 0.076025 0.127402 0.061983 -0.425710 0.057359 0.182538 0.040382 0.034831 -0.535992 0.163003 -0.648634 -0.007424 0.074078 0.529268 0.193326 0.210302 0.293085 -0.132593 -0.108078 -0.311062 0.244946 -0.241649 0.138616 0.369187 -0.192092 -0.431354 -0.373732 -0.035457 0.370152 -0.244537 0.526314 0.280049
11 -0.386240 -0.403306 -0.242835 -0.075722 -0.038836 0.065872 -0.346562 0.450105 0.700850 -0.027112 0.318645 0.771169 -0.204022 -0.321877 0.354380 -0.143488 -0.390133 0.147293 0.025823 -0.258292 0.008150 0.190335 0.614830 -0.473730 -0.114784 -0.012264 -0.177097 -0.480582 -0.327564 0.116893 0.426035 0.319311 -0.152893 -0.386883 0.446886 -0.025770 0.568262 0.386015 -0.471012 0.494999 -0.604970 -0.096182 0.776087 0.415737 -0.550343 0.492613 0.499977 -0.402499 -0.122480 -0.208880 -0.376724 0.342354 -0.301832 0.050713 0.064479 -0.391544 -0.206662 -0.113813 -0.296841 -0.166333 0.482360 -0.209558 -0.148588 0.635785
12 -0.364068 -0.387774 -0.196564 -0.101620 -0.026864 0.051498 -0.313145 0.387893 0.605862 -0.022758 0.308576 0.713262 -0.188750 -0.322574 0.318429 -0.150463 -0.361009 0.107848 0.029173 -0.257217 0.025881 0.200032 0.543990 -0.403000 -0.116315 -0.013938 -0.139534 -0.418356 -0.273006 0.117542 0.370892 0.283620 -0.184726 -0.319840 0.411933 -0.052497 0.521069 0.377362 -0.414539 0.440161 -0.551928 -0.119265 0.721862 0.407684 -0.511878 0.465422 0.462404 -0.400122 -0.136813 -0.183987 -0.350121 0.308655 -0.291328 0.048844 0.026944 -0.381731 -0.200905 -0.086158 -0.273795 -0.147125 0.452858 -0.193041 -0.143291 0.587826
8 -0.288422 -0.364368 -0.099893 -0.092195 0.059780 0.125105 -0.161916 0.376344 0.473601 -0.103239 0.331871 0.485678 -0.219069 -0.393018 0.302636 -0.260410 -0.069237 -0.030159 0.037807 -0.246213 -0.129209 0.207391 0.222032 -0.294053 -0.035171 -0.126497 -0.181155 -0.276835 -0.221150 0.129582 0.237743 0.236771 -0.230848 -0.179083 0.301003 -0.167242 0.423480 0.305608 -0.208092 0.269774 -0.458454 -0.204662 0.675569 0.461104 -0.507264 0.245246 0.260278 -0.496715 -0.160771 -0.013819 -0.283522 0.271760 -0.297341 0.219930 -0.116395 -0.385729 -0.224377 0.051589 -0.187136 -0.109782 0.295916 -0.222857 -0.151026 0.437055
10 -0.346520 -0.374003 -0.227486 -0.084445 -0.036374 0.060015 -0.299285 0.418246 0.631436 -0.028398 0.301207 0.687629 -0.171232 -0.346763 0.321460 -0.160153 -0.321296 0.127520 0.036057 -0.217670 0.007020 0.171071 0.534387 -0.405465 -0.079291 -0.005063 -0.150227 -0.445834 -0.283216 0.116530 0.369172 0.277473 -0.156143 -0.314063 0.397665 -0.074829 0.514757 0.347360 -0.412014 0.420056 -0.581390 -0.118043 0.686708 0.406670 -0.516541 0.449927 0.434870 -0.407305 -0.083745 -0.199412 -0.360976 0.312614 -0.269957 0.056812 0.034811 -0.339885 -0.188346 -0.121882 -0.289234 -0.139116 0.440970 -0.200922 -0.137815 0.608830
22 -0.051223 -0.010206 0.216483 -0.357947 -0.339597 -0.431920 -0.040401 -0.101228 -0.117798 0.456782 -0.454890 0.257691 0.459609 -0.307256 -0.007956 -0.322198 -0.539723 -0.311027 -0.072957 0.165275 0.813966 -0.216157 0.569874 0.379077 0.381652 0.705324 0.374050 0.031318 0.324893 0.064861 -0.092561 -0.068310 0.045691 0.127919 0.048188 -0.419482 0.055967 0.155745 0.059882 0.006040 -0.481506 0.124129 -0.583493 0.032727 0.077086 0.476137 0.156228 0.189316 0.246745 -0.091105 -0.096719 -0.309462 0.211295 -0.186525 0.106321 0.324891 -0.192252 -0.344690 -0.327224 -0.043528 0.348692 -0.249546 0.487606 0.221570
