11 64
8 0.079824 -0.248519 -0.094067 -0.046318 -0.140183 0.288691 0.178032 0.136710 0.213008 -0.012043 0.076880 0.243001 -0.155269 -0.039669 0.138408 -0.112273 0.161929 0.195475 -0.003874 0.172125 -0.083201 0.000782 0.129928 -0.088966 -0.139906 0.188573 -0.013689 -0.140826 -0.192739 -0.011089 -0.070460 0.017982 0.002315 0.185693 -0.114864 -0.175081 0.435752 -0.239884 0.025954 0.007415 -0.326205 -0.166541 0.067675 0.451256 0.065721 0.311896 -0.006009 -0.215806 0.044942 -0.124692 -0.218873 -0.085102 0.256097 0.099758 -0.238598 0.079100 -0.170256 -0.104413 -0.377784 0.000514 -0.033170 -0.244989 -0.206577 0.174950
2 0.037319 -0.226977 -0.065151 -0.054370 -0.073052 0.182169 0.152044 0.154149 0.182968 -0.070469 0.138911 0.197423 -0.112557 -0.127586 0.137837 -0.194565 0.162048 0.035895 -0.005258 0.101216 -0.063832 -0.006406 0.043395 -0.003412 -0.040348 0.074746 -0.035045 -0.128011 -0.099606 -0.023691 -0.083880 -0.009313 -0.071239 0.154092 -0.085929 -0.222707 0.352931 -0.125927 0.056326 -0.053112 -0.260507 -0.201618 0.113414 0.415980 -0.033496 0.210222 0.001147 -0.269947 0.022967 -0.061089 -0.168308 -0.038615 0.142357 0.100304 -0.236412 0.021897 -0.116601 -0.020305 -0.278969 0.016405 0.011285 -0.236937 -0.138689 0.207501
4 -0.036222 -0.191491 -0.021634 -0.040449 0.050913 0.003677 0.106099 0.184415 0.163893 -0.170808 0.269880 0.123148 -0.061120 -0.263191 0.161850 -0.331363 0.173707 -0.262043 0.009753 0.006713 -0.030136 -0.026472 -0.141300 0.123123 0.163395 -0.106637 -0.075787 -0.113900 0.042315 -0.046624 -0.132950 -0.067275 -0.173847 0.088778 -0.023021 -0.326540 0.242107 0.095988 0.099581 -0.133189 -0.154209 -0.279006 0.185190 0.377431 -0.185195 0.050957 0.021333 -0.379014 -0.029945 0.049522 -0.085054 0.047048 -0.033149 0.083260 -0.215068 -0.074338 -0.037408 0.083810 -0.083762 -0.011794 0.112309 -0.253481 -0.002799 0.290445
3 -0.033399 -0.191197 -0.019249 -0.039284 0.025306 0.041368 0.118708 0.160656 0.149705 -0.145550 0.241034 0.118429 -0.086311 -0.234475 0.152613 -0.295598 0.174626 -0.206651 0.000890 0.012451 -0.050849 -0.019453 -0.106610 0.105767 0.130558 -0.077461 -0.059506 -0.114338 0.015922 -0.028236 -0.120144 -0.055814 -0.151732 0.099889 -0.023225 -0.303084 0.254505 0.065512 0.083825 -0.109537 -0.168909 -0.261201 0.158448 0.370074 -0.157995 0.083729 0.030622 -0.348389 -0.031786 0.042625 -0.090924 0.033268 -0.019119 0.073065 -0.203430 -0.066522 -0.063152 0.059737 -0.117686 -0.001255 0.077788 -0.231722 -0.028497 0.278257
0 -0.021539 -0.214941 -0.028974 -0.067767 -0.005038 0.066504 0.112781 0.153873 0.168916 -0.122434 0.209051 0.139693 -0.073185 -0.199208 0.153686 -0.274520 0.174775 -0.146385 0.001906 0.032021 -0.043040 -0.022951 -0.068842 0.086557 0.071051 -0.036831 -0.045713 -0.114054 -0.025691 -0.055560 -0.109643 -0.020239 -0.127741 0.101055 -0.032255 -0.285681 0.262736 0.009812 0.096889 -0.112879 -0.198410 -0.248660 0.135131 0.379067 -0.123409 0.113065 0.004572 -0.315931 -0.012789 0.022339 -0.129450 0.025173 0.022985 0.075228 -0.219141 -0.038061 -0.077375 0.061026 -0.167290 0.010108 0.067497 -0.255469 -0.054347 0.255903
5 -0.038076 -0.214234 -0.029182 -0.051691 0.054492 -0.000469 0.116438 0.168558 0.177802 -0.172451 0.269239 0.129779 -0.066295 -0.254918 0.169994 -0.341281 0.169225 -0.267433 0.008846 0.007336 -0.021359 -0.019344 -0.147455 0.138502 0.158751 -0.113317 -0.068724 -0.122339 0.030410 -0.056658 -0.138376 -0.059178 -0.176232 0.091375 -0.013357 -0.334628 0.234186 0.093235 0.103495 -0.143203 -0.149604 -0.277043 0.171239 0.370896 -0.192948 0.055877 0.016609 -0.371638 -0.022010 0.051826 -0.099393 0.064869 -0.023867 0.071184 -0.209788 -0.080038 -0.034756 0.087535 -0.084112 -0.017652 0.105336 -0.266733 0.000534 0.295184
1 -0.044239 -0.213446 -0.014015 -0.064311 0.029993 0.019972 0.106847 0.168282 0.175762 -0.143481 0.225025 0.124891 -0.061068 -0.230413 0.146522 -0.303754 0.176691 -0.206310 0.015240 0.010468 -0.030629 -0.021665 -0.100814 0.113655 0.118422 -0.069528 -0.049677 -0.100861 0.011486 -0.057502 -0.132243 -0.031847 -0.150355 0.094646 -0.028981 -0.311227 0.228840 0.046078 0.105956 -0.133530 -0.179533 -0.268158 0.161156 0.374425 -0.157136 0.070295 0.006802 -0.334280 -0.009090 0.046488 -0.117166 0.052709 -0.011617 0.086262 -0.219092 -0.054385 -0.057179 0.082164 -0.129739 0.005728 0.090408 -0.260641 -0.037635 0.269024
10 0.069908 -0.239367 -0.098154 -0.044907 -0.121369 0.286043 0.176952 0.145466 0.219980 -0.037805 0.108173 0.246594 -0.157154 -0.052978 0.130966 -0.118221 0.171183 0.176670 -0.017935 0.163849 -0.083393 -0.001010 0.119509 -0.064348 -0.129467 0.167322 -0.015186 -0.155224 -0.177683 -0.020462 -0.083290 0.001064 -0.008979 0.187997 -0.114374 -0.193447 0.445397 -0.224835 0.016584 -0.010257 -0.330316 -0.192309 0.094540 0.470484 0.056863 0.305827 0.013967 -0.241708 0.043117 -0.130403 -0.205731 -0.078442 0.236958 0.091451 -0.240752 0.074557 -0.160127 -0.100075 -0.378544 0.008992 -0.016646 -0.245261 -0.212965 0.192860
9 0.056220 -0.220393 -0.092358 -0.045159 -0.106779 0.248228 0.157844 0.139620 0.204214 -0.039791 0.111087 0.227525 -0.139042 -0.070088 0.125684 -0.128966 0.154499 0.143332 -0.017329 0.147303 -0.086040 0.005685 0.103123 -0.062768 -0.108255 0.147941 -0.022032 -0.148715 -0.156259 -0.013640 -0.073121 0.008003 -0.022946 0.162436 -0.087467 -0.191639 0.411038 -0.186200 0.017104 -0.004457 -0.301545 -0.189868 0.088544 0.435977 0.030129 0.264458 0.008450 -0.237196 0.024138 -0.116399 -0.190927 -0.067976 0.198732 0.084824 -0.213436 0.054437 -0.149741 -0.078879 -0.335871 -0.001588 -0.011732 -0.231074 -0.187077 0.188471
6 -0.033713 -0.199933 -0.022922 -0.035705 0.046265 0.017642 0.116502 0.176053 0.163407 -0.164121 0.267093 0.122747 -0.072981 -0.253419 0.166586 -0.321514 0.169427 -0.252952 0.008719 0.002517 -0.036372 -0.028430 -0.135939 0.116398 0.156268 -0.106334 -0.064372 -0.128578 0.030155 -0.039086 -0.129334 -0.068949 -0.161319 0.089948 -0.014751 -0.321290 0.246168 0.095092 0.085726 -0.140327 -0.161293 -0.268637 0.181046 0.366300 -0.186993 0.066304 0.029997 -0.375983 -0.019800 0.053499 -0.091244 0.054167 -0.034924 0.072264 -0.200274 -0.078732 -0.044022 0.073328 -0.088368 -0.019407 0.110297 -0.245559 -0.009161 0.288773
7 -0.002315 -0.208204 -0.041092 -0.050247 -0.010760 0.082203 0.127925 0.165073 0.174455 -0.125193 0.205315 0.144668 -0.083700 -0.215143 0.160646 -0.270967 0.171784 -0.144172 -0.002175 0.035139 -0.045545 -0.024168 -0.065859 0.081232 0.090575 -0.042422 -0.061474 -0.122856 -0.025000 -0.037384 -0.103353 -0.029765 -0.134624 0.102872 -0.047659 -0.282740 0.270609 0.000875 0.078971 -0.108059 -0.205750 -0.238800 0.149786 0.386956 -0.126098 0.122524 0.017804 -0.326151 -0.001282 0.018830 -0.126814 0.025757 0.028901 0.093328 -0.223136 -0.034532 -0.074293 0.036618 -0.153245 0.010090 0.069145 -0.241015 -0.053857 0.260941
