15 64
12 -0.116565 -0.229304 0.055234 -0.320247 -0.002709 0.145459 -0.089351 -0.233011 0.188556 0.256194 -0.072804 0.335977 -0.179524 -0.151105 0.053035 0.240074 -0.235147 0.193417 -0.028375 -0.301794 0.256911 0.433246 0.066586 -0.064206 -0.440433 0.149987 0.360798 0.106581 -0.259965 0.205692 0.013469 0.265949 -0.263090 0.029460 0.265500 -0.168754 0.377107 0.198084 -0.351647 0.177178 -0.311619 -0.140056 0.364056 0.441148 -0.053245 0.479553 0.378988 0.006440 -0.201176 0.013829 -0.385240 0.298274 0.057365 0.094004 -0.107824 -0.326848 -0.375490 -0.179250 -0.125877 -0.310842 0.275041 -0.082628 -0.313328 -0.059963
9 -0.106472 -0.192375 -0.024145 -0.150065 -0.023482 0.199516 -0.016765 -0.021196 0.241673 0.090768 0.013592 0.312716 -0.215831 -0.173962 0.071459 0.150108 -0.117692 0.182873 -0.047931 -0.223079 0.089941 0.272641 0.170422 -0.074318 -0.235821 0.069743 0.164876 -0.055724 -0.213969 0.163885 0.038172 0.159425 -0.195247 0.008708 0.139550 -0.124896 0.367313 0.068536 -0.345056 0.127209 -0.368833 -0.146670 0.413086 0.435990 -0.081087 0.406076 0.375646 -0.108683 -0.078489 -0.033909 -0.280134 0.235742 -0.015028 0.112111 -0.105005 -0.213269 -0.259334 -0.190417 -0.179446 -0.130768 0.218984 -0.042630 -0.294055 0.115482
6 -0.124463 -0.141977 0.008617 -0.037041 0.022807 0.111859 0.049369 0.193006 0.131084 -0.119360 0.151627 0.197483 -0.160605 -0.245446 0.040480 -0.110205 0.092616 -0.000096 -0.029851 -0.133207 -0.048045 0.093333 0.131445 0.053507 0.024374 -0.058953 -0.032312 -0.071754 0.002760 0.079157 -0.015753 -0.028471 -0.206251 0.105029 -0.046524 -0.161314 0.268389 0.000891 -0.110607 0.003913 -0.273084 -0.221467 0.387334 0.413594 -0.146841 0.168080 0.228619 -0.273584 -0.022976 -0.013349 -0.072081 0.063766 -0.103933 0.151016 -0.220373 -0.103526 -0.085067 0.005307 -0.230819 0.122599 0.094969 -0.064150 -0.184380 0.251726
3 -0.157095 -0.123682 0.087702 -0.091363 0.086988 -0.012996 0.054471 0.201441 0.003169 -0.182262 0.201106 0.125416 -0.088407 -0.297724 -0.018634 -0.280371 0.182741 -0.134935 -0.019369 -0.102536 -0.041179 0.094317 0.027048 0.191817 0.072178 -0.095299 -0.056411 0.049176 0.158445 0.037421 -0.090676 -0.094323 -0.292889 0.215835 -0.104899 -0.244212 0.205053 0.032645 0.093401 -0.035157 -0.134947 -0.305763 0.312923 0.423453 -0.180887 0.006914 0.098975 -0.319032 -0.097411 0.017722 0.026271 -0.044005 -0.111939 0.172909 -0.326991 -0.100268 -0.029542 0.191793 -0.252578 0.210917 -0.000017 -0.122718 -0.116872 0.238005
10 -0.093097 -0.179799 -0.034689 -0.095579 -0.029346 0.222142 0.004051 0.016782 0.249113 0.057963 0.022891 0.290587 -0.229503 -0.145674 0.078117 0.152230 -0.082263 0.181489 -0.044894 -0.199553 0.064625 0.213427 0.181231 -0.069125 -0.181756 0.050156 0.129301 -0.085896 -0.211392 0.142915 0.034588 0.119536 -0.148219 0.006868 0.094409 -0.098932 0.350458 0.028435 -0.340120 0.102365 -0.373477 -0.126019 0.410112 0.413340 -0.059214 0.402577 0.376265 -0.114504 -0.029355 -0.034090 -0.246507 0.220323 -0.013349 0.104906 -0.101528 -0.169260 -0.225742 -0.210818 -0.186105 -0.089209 0.207323 -0.029860 -0.280012 0.143744
8 -0.101779 -0.183678 -0.024990 -0.076859 -0.033988 0.203731 0.023052 0.076021 0.219903 0.012682 0.058225 0.268232 -0.221089 -0.184435 0.087508 0.066278 -0.025804 0.133408 -0.037594 -0.180617 0.014823 0.174485 0.178989 -0.049405 -0.116148 0.022479 0.072149 -0.092184 -0.165113 0.132631 0.034501 0.089361 -0.166207 0.028219 0.058061 -0.116793 0.339452 0.015811 -0.273017 0.084799 -0.362799 -0.151269 0.399895 0.423080 -0.092872 0.350798 0.333468 -0.168360 -0.032207 -0.020527 -0.209080 0.174426 -0.043357 0.124067 -0.140721 -0.154413 -0.199924 -0.151852 -0.207832 -0.024585 0.167809 -0.044672 -0.250811 0.193812
7 -0.097904 -0.158282 -0.030724 -0.066852 -0.019790 0.180260 0.024274 0.103474 0.203413 -0.025281 0.074284 0.250022 -0.194898 -0.199087 0.069843 0.034461 -0.005172 0.106479 -0.048218 -0.168550 0.004150 0.152099 0.172720 -0.017065 -0.080265 -0.005566 0.037238 -0.094590 -0.124456 0.112074 0.031797 0.065809 -0.176887 0.033217 0.029742 -0.117146 0.304622 0.002444 -0.243167 0.059327 -0.337512 -0.158949 0.397212 0.408032 -0.102781 0.296332 0.309365 -0.183218 -0.019647 -0.027842 -0.171674 0.152746 -0.061347 0.131202 -0.151063 -0.132958 -0.158508 -0.116835 -0.199623 0.020344 0.152223 -0.037909 -0.231034 0.200242
11 -0.114353 -0.161761 -0.043484 -0.022709 -0.018173 0.202264 0.029023 0.151937 0.236156 -0.060276 0.095194 0.262484 -0.228176 -0.189701 0.082508 0.034178 0.006592 0.119440 -0.047565 -0.170430 -0.019969 0.126840 0.211222 -0.031945 -0.051736 -0.020485 0.006113 -0.131708 -0.134354 0.105583 0.038354 0.042183 -0.152506 0.019084 0.014317 -0.096029 0.333705 -0.012340 -0.270617 0.071446 -0.362592 -0.157781 0.442087 0.422858 -0.103870 0.316141 0.346733 -0.201800 0.000221 -0.039407 -0.154725 0.156119 -0.074264 0.129665 -0.147899 -0.124321 -0.144546 -0.140329 -0.227760 0.047423 0.158660 -0.029911 -0.239049 0.251593
2 -0.173301 -0.141381 0.118368 -0.138180 0.114223 -0.059177 0.056755 0.232210 -0.039273 -0.217292 0.239172 0.132645 -0.051861 -0.357193 -0.037425 -0.375533 0.219289 -0.189507 -0.016648 -0.105770 -0.031024 0.109016 -0.001231 0.249251 0.069795 -0.114007 -0.064774 0.090959 0.226763 0.022388 -0.116742 -0.118520 -0.363532 0.278275 -0.133175 -0.299887 0.211241 0.044057 0.176368 -0.069830 -0.109371 -0.364625 0.331754 0.475955 -0.222802 -0.046674 0.052066 -0.377384 -0.125212 0.022166 0.045092 -0.085797 -0.120430 0.208931 -0.408448 -0.112747 -0.011736 0.292479 -0.292502 0.256369 -0.017432 -0.164559 -0.112418 0.241172
0 -0.227263 -0.158640 0.179912 -0.183054 0.162779 -0.133733 0.067575 0.292589 -0.108376 -0.308202 0.336693 0.104937 -0.021625 -0.447480 -0.056769 -0.551308 0.336779 -0.321613 -0.015756 -0.100974 -0.052424 0.094883 -0.071417 0.377174 0.135595 -0.169143 -0.104182 0.150180 0.346974 -0.021382 -0.180934 -0.179938 -0.459688 0.372315 -0.186877 -0.409256 0.215132 0.074951 0.335410 -0.122916 -0.065520 -0.489612 0.340742 0.570163 -0.280768 -0.144221 -0.014655 -0.490419 -0.187319 0.054476 0.112286 -0.162188 -0.163645 0.239518 -0.538841 -0.120764 0.018924 0.453784 -0.358344 0.362665 -0.065358 -0.242913 -0.079995 0.309729
4 -0.204986 -0.126657 0.170729 -0.175758 0.162589 -0.128860 0.032618 0.224427 -0.079091 -0.230991 0.264742 0.109264 -0.021149 -0.390051 -0.067758 -0.434822 0.255459 -0.264296 -0.001349 -0.100109 0.000004 0.135852 -0.075772 0.307786 0.085228 -0.110536 -0.053133 0.178960 0.294056 0.010723 -0.174196 -0.137488 -0.414644 0.322664 -0.140875 -0.365287 0.206139 0.095600 0.256279 -0.061086 -0.055206 -0.432662 0.321988 0.522097 -0.225282 -0.110068 0.012645 -0.399129 -0.192069 0.042119 0.077313 -0.119944 -0.118335 0.227074 -0.462002 -0.127230 -0.012326 0.360968 -0.286571 0.250920 -0.023340 -0.213989 -0.086469 0.229704
1 -0.219162 -0.153460 0.202888 -0.220435 0.174183 -0.172110 0.041160 0.228231 -0.120269 -0.249131 0.282770 0.088968 0.015627 -0.415499 -0.078000 -0.512093 0.293290 -0.316059 0.006048 -0.103094 0.003178 0.127158 -0.107990 0.365372 0.085878 -0.130897 -0.046850 0.210023 0.340267 -0.019612 -0.197814 -0.144832 -0.448897 0.364910 -0.157879 -0.405204 0.173861 0.097585 0.345299 -0.115336 -0.025742 -0.464815 0.294419 0.525901 -0.255099 -0.158751 -0.047285 -0.423471 -0.198235 0.067544 0.084800 -0.142973 -0.129481 0.234871 -0.514192 -0.129211 0.002788 0.452571 -0.314408 0.295362 -0.051593 -0.250825 -0.073583 0.226357
5 -0.215101 -0.154057 0.197425 -0.236331 0.194466 -0.191138 0.050255 0.178306 -0.138282 -0.247062 0.288633 0.094616 0.003804 -0.408437 -0.079803 -0.526758 0.269616 -0.331874 -0.006319 -0.095237 0.028307 0.170243 -0.143447 0.394402 0.069518 -0.136182 -0.037406 0.229840 0.347964 -0.008933 -0.208608 -0.152008 -0.478200 0.386711 -0.136405 -0.417805 0.182940 0.127936 0.351923 -0.083352 0.029666 -0.465009 0.261806 0.517434 -0.260202 -0.162293 -0.049325 -0.409216 -0.240115 0.057497 0.096487 -0.147160 -0.100793 0.213166 -0.505994 -0.157673 0.005080 0.456154 -0.292654 0.265757 -0.079574 -0.254141 -0.051490 0.213431
13 -0.100836 -0.224760 0.037675 -0.291853 -0.011144 0.166809 -0.068863 -0.203191 0.215622 0.237927 -0.075011 0.329758 -0.189800 -0.156220 0.063985 0.234723 -0.224924 0.201212 -0.037640 -0.290391 0.237811 0.405160 0.082500 -0.070410 -0.416977 0.144493 0.337772 0.075648 -0.267586 0.202553 0.013774 0.257158 -0.241341 0.014780 0.247510 -0.164465 0.391751 0.175216 -0.364934 0.169372 -0.327695 -0.132420 0.372468 0.446610 -0.051075 0.487056 0.388376 -0.002449 -0.173705 0.009857 -0.382505 0.301144 0.058932 0.105257 -0.101889 -0.309003 -0.369827 -0.204458 -0.131184 -0.297795 0.271840 -0.075818 -0.318040 -0.039718
14 -0.107980 -0.225879 0.060125 -0.330021 0.002461 0.152545 -0.099163 -0.246894 0.193186 0.275188 -0.103206 0.336560 -0.176292 -0.146389 0.053209 0.260229 -0.246355 0.205820 -0.031957 -0.305225 0.272047 0.447176 0.064878 -0.071368 -0.460533 0.169374 0.378995 0.115430 -0.283518 0.218339 0.021398 0.281594 -0.252484 0.019987 0.286516 -0.168448 0.378609 0.201587 -0.371359 0.182265 -0.318752 -0.126886 0.360034 0.438202 -0.045733 0.485695 0.382907 0.032026 -0.199485 0.022037 -0.399450 0.305566 0.063074 0.101419 -0.085003 -0.331245 -0.394235 -0.184761 -0.120675 -0.343278 0.280146 -0.087272 -0.307393 -0.092030
