15 64
12 -0.230337 -0.386341 0.270193 -0.268546 -0.048078 0.008106 -0.193829 -0.270632 -0.079085 0.269227 0.038209 0.247443 -0.216556 0.067866 0.244600 0.163832 -0.322233 0.003251 0.164055 -0.564989 0.426197 0.249220 -0.020979 -0.039770 -0.462881 -0.116814 0.409001 0.247830 -0.185478 0.057035 0.106124 0.102571 -0.189663 0.010122 0.222353 0.129224 0.292964 0.433743 -0.129384 0.145010 -0.020531 0.126496 0.407797 0.127691 -0.102502 0.653281 0.423020 0.066931 -0.261528 0.233504 -0.229592 0.285073 0.040237 -0.073135 -0.304197 -0.482865 -0.238047 -0.013878 -0.131414 -0.141579 0.332038 -0.020778 -0.112900 0.004004
11 -0.149359 -0.298852 0.130786 -0.141955 -0.002485 0.028955 -0.066749 -0.034633 0.061107 0.060497 0.079797 0.188387 -0.161830 -0.060122 0.210404 -0.034390 -0.122723 -0.062790 0.077849 -0.335949 0.211091 0.113580 0.002893 0.015895 -0.195112 -0.114974 0.178167 0.052979 -0.128902 0.016900 0.048660 0.044431 -0.135885 -0.002884 0.128241 -0.015721 0.257457 0.245615 -0.082631 0.027771 -0.101047 0.004078 0.335265 0.197739 -0.148511 0.391261 0.276993 -0.074822 -0.108175 0.157919 -0.165362 0.202470 -0.018859 0.013079 -0.210369 -0.296042 -0.143525 0.024422 -0.141339 -0.060636 0.214979 -0.094585 -0.061714 0.120927
8 -0.089526 -0.291318 0.024159 -0.128071 -0.025363 0.074529 0.015705 0.091003 0.192504 -0.011779 0.077784 0.196923 -0.105547 -0.153474 0.185427 -0.120752 -0.005637 -0.039105 0.030935 -0.187038 0.073851 0.053914 0.057005 0.010361 -0.095619 -0.057014 0.076033 -0.081128 -0.141545 -0.011354 0.015907 0.089829 -0.117947 -0.008440 0.077222 -0.133754 0.237415 0.072928 -0.062643 -0.072883 -0.243144 -0.097671 0.282912 0.289003 -0.166184 0.269446 0.161394 -0.163881 0.013523 0.091880 -0.227052 0.185308 -0.034823 0.085748 -0.175257 -0.163112 -0.133111 0.031274 -0.179635 -0.023815 0.169693 -0.168844 -0.107257 0.176068
7 -0.083712 -0.267299 0.009721 -0.078160 0.011234 0.065993 0.046026 0.145085 0.180032 -0.098090 0.138947 0.178962 -0.126317 -0.203574 0.203952 -0.199526 0.035858 -0.120667 0.002065 -0.182185 0.046238 0.023678 0.023376 0.074374 0.003739 -0.133408 0.005093 -0.118515 -0.093050 -0.010108 0.013320 0.017789 -0.145434 0.002136 0.053656 -0.158772 0.246006 0.097621 -0.052785 -0.092158 -0.209944 -0.116629 0.312083 0.300618 -0.213188 0.225908 0.180900 -0.230190 0.013079 0.101249 -0.154232 0.162470 -0.075327 0.091012 -0.180834 -0.168780 -0.084487 0.057349 -0.159363 0.018945 0.147545 -0.161589 -0.049653 0.240175
6 -0.114854 -0.271920 0.075454 -0.064316 0.031356 0.045637 0.010888 0.072607 0.102238 -0.047224 0.142486 0.171497 -0.167874 -0.132035 0.210316 -0.134502 -0.031904 -0.130117 0.046808 -0.254791 0.118860 0.054296 -0.013638 0.054884 -0.046332 -0.152753 0.077951 -0.046322 -0.082396 0.020983 0.015582 -0.028627 -0.132673 0.021115 0.079671 -0.089966 0.259101 0.196720 -0.075414 -0.040083 -0.130302 -0.054129 0.339340 0.235646 -0.194923 0.295979 0.245883 -0.184128 -0.040013 0.136723 -0.116722 0.170111 -0.057884 0.040833 -0.182469 -0.239145 -0.090418 0.032794 -0.131550 -0.029085 0.180460 -0.112948 -0.032117 0.198832
2 -0.069001 -0.260697 -0.045147 -0.084933 0.022281 0.075305 0.101003 0.253281 0.260142 -0.170448 0.175937 0.182749 -0.079917 -0.323036 0.175458 -0.304091 0.130274 -0.145162 -0.039420 -0.101720 -0.064337 -0.004479 0.043925 0.088586 0.077655 -0.108488 -0.057220 -0.213962 -0.064810 -0.017459 -0.026635 0.037654 -0.168567 0.009445 0.039040 -0.289400 0.259340 0.024328 -0.032559 -0.179424 -0.313329 -0.240250 0.311196 0.402546 -0.270014 0.113875 0.109162 -0.344768 0.068635 0.066692 -0.188802 0.149624 -0.134222 0.150843 -0.165081 -0.108967 -0.088433 0.102574 -0.197394 0.041547 0.130488 -0.223252 -0.093221 0.295187
4 -0.104816 -0.235539 0.001878 0.013468 0.106443 0.026707 0.106935 0.285688 0.185880 -0.264933 0.281300 0.149274 -0.155096 -0.328663 0.216472 -0.384518 0.147271 -0.295595 -0.022703 -0.145841 -0.036859 -0.026012 -0.052277 0.165505 0.205760 -0.233898 -0.111947 -0.186552 0.023022 0.001582 -0.047693 -0.119729 -0.194814 0.044156 0.019579 -0.275543 0.293737 0.158212 -0.015804 -0.138701 -0.183449 -0.228738 0.380811 0.380748 -0.317051 0.103101 0.188349 -0.408757 0.005311 0.115882 -0.038208 0.115276 -0.167006 0.118114 -0.189448 -0.177233 -0.018496 0.122384 -0.144537 0.056487 0.127658 -0.196416 0.024227 0.376677
10 -0.116557 -0.300825 0.077186 -0.150097 -0.020246 0.068089 -0.033353 -0.002886 0.129473 0.050102 0.068622 0.207897 -0.134851 -0.074696 0.187023 -0.026538 -0.086766 -0.015526 0.055683 -0.273273 0.167493 0.095024 0.039083 0.003941 -0.192763 -0.072769 0.165322 -0.010874 -0.154425 -0.002178 0.030684 0.076056 -0.114529 -0.000939 0.106464 -0.057694 0.248882 0.151920 -0.096176 -0.031293 -0.184082 -0.033811 0.316332 0.236287 -0.132487 0.366290 0.236451 -0.096872 -0.035378 0.113551 -0.215953 0.210041 -0.007604 0.032563 -0.190359 -0.228684 -0.146015 0.004553 -0.168347 -0.055066 0.214222 -0.121160 -0.114617 0.121100
5 -0.106148 -0.248789 0.029510 -0.012209 0.079526 0.030338 0.081547 0.178182 0.135262 -0.181182 0.220021 0.147202 -0.173976 -0.236256 0.214224 -0.291771 0.072986 -0.234013 -0.001175 -0.183430 0.025462 0.013886 -0.045031 0.140410 0.112791 -0.211351 -0.042092 -0.124258 -0.016277 0.014209 -0.020436 -0.092163 -0.172857 0.045438 0.043752 -0.192155 0.266911 0.173428 -0.031540 -0.084350 -0.129826 -0.143620 0.334633 0.298745 -0.267470 0.175551 0.208046 -0.300992 -0.021998 0.125985 -0.052313 0.130181 -0.113267 0.073222 -0.178177 -0.206659 -0.038423 0.087542 -0.131422 0.029004 0.115091 -0.153100 0.020644 0.305450
3 -0.097353 -0.246332 -0.005791 -0.026792 0.069573 0.049664 0.119305 0.262782 0.199154 -0.228254 0.234563 0.144921 -0.141986 -0.339275 0.200059 -0.364880 0.153984 -0.244524 -0.037564 -0.136574 -0.062415 -0.013085 -0.017185 0.154503 0.168138 -0.191856 -0.090902 -0.189955 -0.006077 0.008587 -0.039912 -0.057656 -0.195327 0.039606 0.027554 -0.289888 0.277550 0.108876 -0.015635 -0.147540 -0.229304 -0.237328 0.339812 0.391730 -0.306480 0.108133 0.163016 -0.382237 0.017470 0.113451 -0.089429 0.126082 -0.166359 0.133036 -0.183449 -0.159668 -0.057647 0.118496 -0.170285 0.066918 0.101947 -0.198179 -0.020136 0.355328
9 -0.069469 -0.283915 -0.070120 -0.153778 -0.033447 0.098318 0.064818 0.202545 0.333267 -0.079847 0.097021 0.216703 -0.043276 -0.283969 0.155359 -0.206710 0.085103 -0.028540 -0.032749 -0.089500 -0.055060 0.028829 0.109766 0.008988 -0.033914 -0.008887 0.004440 -0.213673 -0.150823 -0.035392 -0.014169 0.166866 -0.135850 -0.043618 0.081304 -0.278105 0.245923 -0.036125 -0.068297 -0.163091 -0.397078 -0.238155 0.272307 0.410800 -0.217014 0.154840 0.083371 -0.267362 0.085932 0.033728 -0.307299 0.202639 -0.099560 0.150511 -0.133267 -0.082115 -0.152289 0.056162 -0.218476 -0.006262 0.162323 -0.244059 -0.177647 0.239936
1 -0.059293 -0.250244 -0.082006 -0.139771 -0.016427 0.081959 0.095168 0.265798 0.342350 -0.135127 0.114936 0.175873 -0.005919 -0.347933 0.126566 -0.277847 0.162070 -0.075973 -0.054009 -0.039138 -0.119763 -0.011007 0.094885 0.048125 0.050849 -0.015022 -0.047959 -0.240494 -0.100504 -0.046329 -0.045150 0.152236 -0.143625 -0.033560 0.048227 -0.344225 0.210938 -0.074409 -0.023768 -0.220275 -0.415682 -0.299040 0.248261 0.437631 -0.239993 0.052326 0.025526 -0.321917 0.116629 0.034150 -0.282610 0.172851 -0.143667 0.185496 -0.129568 -0.032518 -0.130710 0.099885 -0.217088 0.035381 0.130883 -0.265472 -0.168682 0.265107
0 -0.055402 -0.274125 -0.104491 -0.107543 -0.001029 0.105930 0.132344 0.331667 0.369753 -0.210210 0.174537 0.191533 -0.041908 -0.397583 0.175269 -0.362109 0.209268 -0.130748 -0.078130 -0.033843 -0.153380 -0.041087 0.086834 0.087528 0.117444 -0.068163 -0.105486 -0.305479 -0.100118 -0.051318 -0.041253 0.107408 -0.159763 -0.026749 0.040254 -0.383810 0.265238 -0.067330 -0.023692 -0.246355 -0.437790 -0.327558 0.289944 0.490297 -0.290911 0.057315 0.049830 -0.400854 0.127694 0.043369 -0.260178 0.165307 -0.170123 0.194921 -0.144510 -0.042115 -0.114957 0.119627 -0.243063 0.063007 0.121519 -0.294588 -0.135367 0.347391
14 -0.208402 -0.360474 0.245632 -0.259618 -0.041231 0.016464 -0.174022 -0.231324 -0.044246 0.246950 0.021681 0.229665 -0.189005 0.037814 0.222608 0.141188 -0.277196 0.005576 0.143894 -0.509564 0.380139 0.229214 -0.014681 -0.037432 -0.424311 -0.086664 0.380058 0.216346 -0.185082 0.055005 0.089590 0.114691 -0.170916 0.003531 0.213413 0.085092 0.277271 0.383763 -0.124748 0.113738 -0.057671 0.092603 0.378575 0.149258 -0.099825 0.589597 0.378888 0.052048 -0.224962 0.219586 -0.237068 0.270618 0.027818 -0.044894 -0.270589 -0.433710 -0.239590 -0.007312 -0.134050 -0.144490 0.311583 -0.043920 -0.115957 -0.000184
13 -0.212440 -0.374977 0.266469 -0.275349 -0.049893 0.012664 -0.187490 -0.273210 -0.062148 0.282045 0.020397 0.235746 -0.198619 0.059873 0.235165 0.173412 -0.324873 0.012698 0.156886 -0.553653 0.425928 0.244129 -0.027965 -0.049534 -0.476950 -0.094517 0.425210 0.244146 -0.189459 0.058038 0.090665 0.116734 -0.174523 -0.000587 0.226365 0.111373 0.300339 0.428252 -0.135732 0.129617 -0.031691 0.119914 0.396189 0.134158 -0.092437 0.647525 0.411904 0.072124 -0.250196 0.232082 -0.248079 0.292021 0.047930 -0.061845 -0.290019 -0.472010 -0.253807 -0.028947 -0.124352 -0.166564 0.342115 -0.024801 -0.130637 -0.020909
