11 64
8 0.089583 -0.287611 -0.092504 -0.060314 -0.159962 0.283493 0.214066 0.154666 0.225170 -0.023703 0.069584 0.214865 -0.154628 -0.143010 0.191315 -0.166504 0.174067 0.109617 -0.015251 0.097536 -0.094078 -0.026356 0.107058 -0.034823 -0.053768 0.099679 -0.033093 -0.176529 -0.188656 0.007688 -0.039277 0.047273 -0.052002 0.147209 -0.108356 -0.210728 0.371032 -0.217679 0.019686 -0.075407 -0.362833 -0.152659 0.100048 0.441054 -0.027409 0.311588 0.016778 -0.254280 0.093274 -0.037011 -0.252865 -0.005951 0.170359 0.143341 -0.254144 0.044245 -0.172497 -0.084463 -0.319094 0.039423 -0.012309 -0.228522 -0.181086 0.219556
7 0.092719 -0.210757 -0.081213 -0.025873 -0.089518 0.190151 0.185918 0.193393 0.143051 -0.091013 0.147349 0.182231 -0.103391 -0.229326 0.179734 -0.234826 0.141167 -0.030666 -0.026663 0.045945 -0.071537 -0.033109 0.025360 0.014042 0.036627 -0.017071 -0.085464 -0.166730 -0.060758 0.027308 -0.024278 -0.038517 -0.129045 0.134008 -0.105722 -0.211181 0.322449 -0.095855 0.027575 -0.105737 -0.253821 -0.151749 0.169272 0.382993 -0.118330 0.201687 0.031113 -0.327065 0.058590 -0.017550 -0.146031 -0.021113 0.078843 0.153154 -0.250179 -0.009455 -0.085241 -0.015359 -0.198994 0.047934 0.031469 -0.169462 -0.095637 0.217452
2 0.093886 -0.185645 -0.057678 -0.008002 -0.048976 0.129326 0.178848 0.237611 0.077241 -0.127557 0.195849 0.170628 -0.070599 -0.293295 0.175857 -0.307665 0.126043 -0.116723 -0.013795 0.017667 -0.061878 -0.034730 -0.018690 0.026839 0.081289 -0.075458 -0.114793 -0.147589 0.030538 0.051365 -0.019446 -0.102331 -0.183095 0.154215 -0.116012 -0.217512 0.313988 -0.024120 0.056945 -0.124442 -0.186506 -0.154961 0.218736 0.361272 -0.187994 0.133912 0.020042 -0.391033 0.035576 -0.002237 -0.084713 -0.051788 0.033987 0.179550 -0.274480 -0.048836 -0.037515 0.049452 -0.153035 0.053234 0.049358 -0.146251 -0.049805 0.211946
5 0.093749 -0.144226 -0.069137 0.030740 0.002103 0.090305 0.178158 0.227466 0.056278 -0.160288 0.238922 0.165222 -0.079781 -0.296504 0.164361 -0.321304 0.099954 -0.170228 -0.019044 0.025718 -0.047699 -0.013491 -0.069073 0.044868 0.126823 -0.112384 -0.136878 -0.145756 0.078737 0.070099 -0.035645 -0.158410 -0.204484 0.161115 -0.104447 -0.219094 0.311815 0.037031 0.039591 -0.095086 -0.112504 -0.156984 0.227388 0.332342 -0.206382 0.090902 0.038688 -0.409544 0.003180 -0.019523 -0.024168 -0.059775 0.027861 0.154423 -0.240964 -0.074328 0.004263 0.040110 -0.085349 0.017401 0.052995 -0.121229 -0.005911 0.217328
4 0.096477 -0.068968 -0.047179 0.074120 0.059941 0.012006 0.142340 0.273962 -0.017295 -0.201634 0.293677 0.140286 -0.033607 -0.349056 0.143683 -0.365111 0.073908 -0.265498 -0.005514 0.005567 -0.028992 -0.019561 -0.129462 0.046492 0.191883 -0.171308 -0.179187 -0.112199 0.189036 0.093975 -0.032970 -0.238549 -0.247695 0.160321 -0.115654 -0.207697 0.290745 0.130836 0.054358 -0.090003 -0.019836 -0.156034 0.283972 0.292455 -0.254391 -0.003159 0.036053 -0.463714 -0.035220 -0.016634 0.071039 -0.101350 -0.022629 0.174068 -0.243658 -0.104375 0.069908 0.087124 0.002570 0.006192 0.091520 -0.078830 0.059357 0.198864
3 0.072912 -0.099831 -0.029385 0.044669 0.037717 0.029319 0.152372 0.255711 -0.012501 -0.184393 0.269761 0.125678 -0.047117 -0.348871 0.143710 -0.359570 0.095641 -0.246869 -0.010973 -0.018078 -0.049213 -0.021678 -0.104964 0.062872 0.174202 -0.164715 -0.151612 -0.114264 0.162883 0.090120 -0.030367 -0.200706 -0.241794 0.158461 -0.103957 -0.218242 0.275348 0.109878 0.060603 -0.109894 -0.057578 -0.163898 0.265921 0.298776 -0.257129 0.019559 0.039898 -0.444980 -0.025393 0.012680 0.039065 -0.077898 -0.045585 0.169978 -0.247244 -0.107144 0.036383 0.097884 -0.037383 0.036181 0.071300 -0.083917 0.030044 0.209501
6 0.090427 -0.160811 -0.065674 0.017295 -0.029236 0.123110 0.174623 0.216798 0.079124 -0.129717 0.203160 0.161333 -0.083917 -0.269904 0.166825 -0.279945 0.109606 -0.122716 -0.016964 0.023127 -0.059669 -0.027592 -0.034922 0.023106 0.096594 -0.080306 -0.111290 -0.154830 0.031815 0.060239 -0.027222 -0.117887 -0.166571 0.142393 -0.097932 -0.207550 0.306112 -0.000204 0.027217 -0.105737 -0.163053 -0.146830 0.210665 0.332998 -0.177875 0.125780 0.039746 -0.377023 0.028187 -0.010008 -0.063963 -0.042270 0.030478 0.150484 -0.230173 -0.054164 -0.028209 0.019926 -0.117299 0.022274 0.054978 -0.126753 -0.037258 0.208901
0 0.075474 -0.191748 -0.043741 -0.031319 -0.061110 0.128326 0.159730 0.222123 0.073591 -0.118852 0.195536 0.150772 -0.059210 -0.286915 0.183012 -0.298356 0.139133 -0.124931 -0.020279 -0.006062 -0.069465 -0.053176 -0.020992 0.039481 0.070490 -0.084175 -0.095315 -0.153970 0.013303 0.027922 -0.010081 -0.074374 -0.169802 0.126618 -0.090827 -0.220173 0.291663 -0.012349 0.065780 -0.151504 -0.204244 -0.159810 0.203512 0.348239 -0.188427 0.139127 0.019734 -0.379237 0.032784 0.025145 -0.098623 -0.034155 -0.000553 0.156993 -0.264464 -0.052249 -0.053624 0.070174 -0.159995 0.066559 0.059468 -0.153256 -0.049371 0.216052
10 0.085148 -0.299324 -0.102949 -0.071978 -0.166560 0.312139 0.223229 0.141246 0.247340 -0.026820 0.070472 0.224373 -0.169983 -0.124599 0.187033 -0.144552 0.185661 0.137912 -0.033053 0.097938 -0.097691 -0.027510 0.124338 -0.017953 -0.077175 0.104716 -0.016669 -0.197441 -0.214698 -0.008527 -0.046004 0.057449 -0.039407 0.150913 -0.107813 -0.216517 0.382657 -0.242985 0.004273 -0.091108 -0.392550 -0.163276 0.099475 0.459222 -0.009631 0.341309 0.034454 -0.247005 0.108190 -0.046910 -0.269284 0.007764 0.176767 0.126284 -0.252263 0.055099 -0.183109 -0.099274 -0.351887 0.053840 -0.014937 -0.233949 -0.209933 0.229147
9 0.077885 -0.233919 -0.087649 -0.043412 -0.111410 0.223571 0.189332 0.167469 0.180030 -0.061551 0.112632 0.194373 -0.124022 -0.183305 0.168116 -0.192681 0.147181 0.040730 -0.027732 0.066923 -0.087498 -0.019509 0.069809 -0.010149 -0.013501 0.039383 -0.054966 -0.173993 -0.115327 0.019304 -0.031848 0.005116 -0.091404 0.132923 -0.091228 -0.207917 0.337491 -0.143907 0.012284 -0.084723 -0.297775 -0.158070 0.135445 0.398286 -0.077690 0.237268 0.029012 -0.284562 0.066717 -0.035260 -0.189237 -0.010060 0.106740 0.135608 -0.229546 0.010520 -0.123639 -0.044283 -0.252060 0.039498 0.009914 -0.187053 -0.141642 0.213207
1 0.066005 -0.205033 -0.035691 -0.035108 -0.056666 0.119741 0.164971 0.231640 0.089887 -0.115274 0.178314 0.149823 -0.057661 -0.295046 0.174537 -0.301562 0.141964 -0.123555 -0.007705 -0.011575 -0.066466 -0.049417 -0.011791 0.039930 0.077942 -0.077935 -0.089269 -0.143827 0.016040 0.030770 -0.021605 -0.064735 -0.171559 0.130191 -0.099547 -0.228020 0.276403 -0.025887 0.067823 -0.159727 -0.216546 -0.164068 0.213678 0.354418 -0.194013 0.131646 0.015859 -0.373809 0.051900 0.033731 -0.113055 -0.017439 -0.002500 0.176704 -0.271114 -0.048548 -0.055668 0.070770 -0.164933 0.070174 0.061760 -0.158932 -0.063487 0.214923
