19 64
13 -0.095380 -0.184604 0.148673 -0.258820 -0.068851 -0.006394 0.009579 -0.069098 0.204911 0.326281 -0.181344 0.302231 0.071585 0.104446 0.285705 -0.200863 -0.375536 -0.253115 -0.366684 -0.330543 0.410595 0.083800 0.305933 -0.006711 -0.059704 0.162043 0.191118 0.109272 -0.052062 -0.093566 -0.098538 0.353245 0.021206 -0.144855 0.194303 -0.090500 0.259658 0.032904 -0.009246 -0.007609 -0.292183 0.259970 0.117929 0.157946 -0.009005 0.346777 0.053250 0.233065 -0.144062 0.283456 -0.116154 0.038658 0.155450 0.288508 -0.148970 -0.175517 -0.322400 -0.041276 -0.061593 -0.242970 0.395161 -0.318220 -0.046083 -0.381838
16 -0.095437 -0.176925 0.170043 -0.322714 -0.097563 -0.051937 -0.000575 -0.122780 0.265350 0.503190 -0.289415 0.414114 0.105589 0.201581 0.385388 -0.264374 -0.541937 -0.359991 -0.542082 -0.402828 0.554306 0.116499 0.432727 -0.024506 -0.012402 0.260401 0.286819 0.165316 -0.061102 -0.125136 -0.152731 0.496361 0.029659 -0.212503 0.293565 -0.106135 0.344833 0.024269 -0.043403 0.003212 -0.362586 0.418168 0.092602 0.155128 0.021858 0.424491 0.071641 0.390054 -0.230821 0.405446 -0.101399 0.016710 0.254970 0.378268 -0.131395 -0.179367 -0.409315 -0.074999 -0.040235 -0.408310 0.522667 -0.480140 -0.048336 -0.568379
7 -0.148825 -0.407834 0.072778 -0.124028 0.005899 0.142814 0.134883 0.191188 0.203710 -0.204308 0.176928 0.182206 -0.118602 -0.273079 0.190900 -0.254877 0.081882 -0.106700 0.095548 -0.200412 0.038926 0.051315 0.019616 0.057623 -0.073208 -0.139233 -0.122242 -0.114190 -0.079428 -0.032220 -0.003923 0.012289 -0.133007 0.062210 -0.065673 -0.179721 0.183714 0.015186 0.083945 -0.091813 -0.288626 -0.225092 0.362268 0.394156 -0.217329 0.228486 0.047421 -0.341850 0.094936 0.023685 -0.246513 0.179247 -0.093128 0.181237 -0.332547 -0.230990 -0.131662 0.072955 -0.196526 0.172210 0.140599 -0.080813 -0.060619 0.262673
6 -0.132348 -0.368247 0.045406 -0.000106 0.145768 0.108043 0.153266 0.060402 0.201732 -0.248247 0.300076 0.228443 -0.244170 -0.127495 0.303812 -0.227942 -0.099333 -0.294507 0.064962 -0.272368 0.227574 0.104149 -0.155291 0.113721 0.018687 -0.284877 -0.094490 -0.135483 -0.059296 -0.053547 -0.088366 -0.157170 -0.118020 0.038013 0.008375 -0.112240 0.261302 0.222524 -0.044389 -0.045366 -0.101278 -0.087422 0.444104 0.279212 -0.190486 0.331783 0.219176 -0.328814 0.021132 0.038640 -0.090067 0.252502 0.001529 0.057230 -0.242924 -0.345221 -0.030376 -0.100248 0.024569 -0.036343 0.285036 -0.052947 0.077831 0.247837
2 -0.118879 -0.355378 -0.006161 -0.177276 0.011739 0.031400 0.174685 0.281188 0.179814 -0.259311 0.301643 0.215530 -0.042383 -0.494226 0.166153 -0.481036 0.146289 -0.246376 -0.009858 -0.152892 -0.076693 0.060088 -0.001121 0.150261 0.057330 -0.197816 -0.158006 -0.178413 0.077284 -0.015160 -0.037762 0.013457 -0.353572 0.113368 -0.048834 -0.368637 0.242830 0.049684 0.135008 -0.194750 -0.283770 -0.374199 0.365823 0.505776 -0.391258 0.057339 0.010418 -0.524630 0.009421 0.025812 -0.205452 0.121083 -0.183379 0.221877 -0.375271 -0.215772 -0.076814 0.233783 -0.201870 0.199113 0.101552 -0.181861 -0.102243 0.360637
10 -0.135159 -0.328689 0.127842 -0.113853 0.027938 0.136193 0.089805 0.020443 0.204995 -0.002862 0.026676 0.231179 -0.120234 0.011929 0.240155 -0.118199 -0.152368 -0.139333 -0.046370 -0.278797 0.275153 0.080269 0.093923 0.024385 -0.102786 -0.035698 0.030514 -0.011135 -0.119713 -0.063348 -0.064353 0.069477 0.023669 -0.009114 0.027040 -0.053639 0.206934 0.040402 -0.017246 -0.025555 -0.248388 0.046976 0.301095 0.234863 -0.047406 0.365722 0.117700 -0.050882 0.041665 0.110485 -0.160394 0.160540 0.069785 0.168158 -0.220309 -0.231983 -0.188464 -0.084282 -0.104075 -0.043183 0.283973 -0.114254 -0.020876 -0.036349
8 -0.170402 -0.432638 0.132790 -0.157992 -0.055751 0.172470 0.108612 0.185256 0.205300 -0.094232 0.045718 0.173850 -0.085841 -0.196362 0.156591 -0.181304 0.076476 0.005911 0.112242 -0.196018 0.042449 0.037276 0.137054 -0.025150 -0.156529 -0.010599 -0.070990 -0.049701 -0.130134 -0.014852 0.021914 0.102268 -0.034799 0.056805 -0.072511 -0.130402 0.151519 -0.071211 0.107715 -0.051375 -0.358367 -0.172682 0.297779 0.368772 -0.150447 0.262988 -0.009617 -0.219070 0.128123 0.046577 -0.308716 0.144155 -0.061365 0.221542 -0.327773 -0.192754 -0.218056 0.074850 -0.281053 0.181439 0.117420 -0.084369 -0.107436 0.157739
11 -0.161548 -0.380814 0.105021 -0.022292 0.127015 0.138629 0.097332 -0.008211 0.219137 -0.154914 0.173623 0.240340 -0.242373 0.033470 0.337487 -0.136923 -0.201033 -0.234495 0.027652 -0.331134 0.344736 0.108099 -0.064650 0.070126 -0.081081 -0.209466 -0.049035 -0.067464 -0.146538 -0.085272 -0.053498 -0.080256 0.014805 -0.033762 0.053544 0.002111 0.255637 0.205885 -0.061412 0.042653 -0.105796 0.057001 0.404496 0.200503 -0.089817 0.437909 0.227820 -0.134057 0.009902 0.074959 -0.098932 0.246740 0.071166 0.061219 -0.207368 -0.364480 -0.102171 -0.149456 0.002266 -0.075314 0.319586 -0.048329 0.115783 0.103815
4 -0.108191 -0.338540 -0.063197 -0.066045 0.158388 -0.005246 0.206947 0.220208 0.189942 -0.403848 0.503212 0.243218 -0.168585 -0.478013 0.265775 -0.529021 0.079179 -0.444726 0.007789 -0.183843 0.020578 0.106934 -0.233192 0.247507 0.180009 -0.391176 -0.196655 -0.239285 0.115400 -0.044636 -0.121595 -0.180680 -0.421455 0.118939 -0.010917 -0.381122 0.322317 0.249375 0.055513 -0.185211 -0.117656 -0.372764 0.479505 0.488365 -0.424836 0.096126 0.154644 -0.648758 -0.058108 0.004707 -0.076088 0.204367 -0.150129 0.108881 -0.343743 -0.319312 0.053329 0.123655 -0.015041 0.072660 0.197327 -0.171589 0.023837 0.484670
5 -0.101883 -0.320162 -0.016742 -0.041147 0.148828 0.040751 0.171781 0.081382 0.190480 -0.269190 0.344438 0.235947 -0.198973 -0.234853 0.286766 -0.353561 -0.058991 -0.361782 -0.011974 -0.218232 0.161233 0.120586 -0.173819 0.184274 0.095973 -0.301198 -0.110884 -0.163092 0.012897 -0.056143 -0.113399 -0.134437 -0.243469 0.061640 0.030562 -0.221153 0.278135 0.220579 -0.010636 -0.092553 -0.083521 -0.160669 0.396492 0.328372 -0.264729 0.220762 0.181300 -0.396789 -0.039705 0.035731 -0.062262 0.214455 -0.026375 0.073055 -0.246536 -0.311881 0.004416 -0.016782 0.027572 -0.031484 0.232465 -0.129262 0.063416 0.292346
3 -0.123971 -0.359153 -0.043065 -0.136920 0.079271 0.006834 0.206458 0.285794 0.179662 -0.366268 0.441463 0.220840 -0.104814 -0.563914 0.203690 -0.556680 0.171980 -0.359301 0.003065 -0.158328 -0.087642 0.080030 -0.126089 0.226941 0.144175 -0.316616 -0.197144 -0.230214 0.121341 -0.018778 -0.079014 -0.086450 -0.441792 0.140737 -0.040372 -0.430162 0.286799 0.148746 0.120136 -0.216335 -0.221696 -0.445088 0.431577 0.548242 -0.457993 0.042632 0.073299 -0.657615 -0.029823 0.014134 -0.152384 0.160156 -0.214950 0.173737 -0.388853 -0.267442 -0.010005 0.225376 -0.138736 0.184432 0.117266 -0.187270 -0.060562 0.490847
14 -0.133885 -0.256284 0.165234 -0.198792 0.003206 0.085850 0.027358 -0.056269 0.179350 0.158916 -0.100671 0.257786 -0.033093 0.096485 0.246806 -0.118838 -0.257969 -0.174404 -0.209742 -0.318205 0.369472 0.100604 0.198896 0.034057 -0.118158 0.068814 0.120452 0.071169 -0.113136 -0.074199 -0.060104 0.205793 0.052696 -0.065832 0.125810 -0.048151 0.201990 0.037983 -0.019064 0.000679 -0.263980 0.168519 0.198968 0.174916 -0.002528 0.367232 0.089505 0.134150 -0.046859 0.197043 -0.128535 0.091117 0.105775 0.210603 -0.163613 -0.215901 -0.268568 -0.050724 -0.097819 -0.133201 0.323651 -0.195970 -0.002606 -0.245912
15 -0.142474 -0.292706 0.162005 -0.162451 0.035895 0.138730 0.073978 -0.047047 0.181917 0.047455 -0.030049 0.223557 -0.088420 0.059572 0.272889 -0.130020 -0.246379 -0.179118 -0.140726 -0.345401 0.353034 0.106313 0.120713 0.038250 -0.136251 -0.013448 0.058881 0.023510 -0.119363 -0.097759 -0.078282 0.130876 0.053371 -0.063653 0.083153 -0.023945 0.203368 0.054483 -0.012529 -0.016482 -0.246549 0.134894 0.274318 0.186730 -0.005082 0.394172 0.101562 0.033694 -0.009407 0.149069 -0.126401 0.148513 0.083758 0.207026 -0.204003 -0.259963 -0.232133 -0.110293 -0.070705 -0.078586 0.335772 -0.114951 0.000796 -0.164238
1 -0.172542 -0.414776 0.091490 -0.281814 -0.140377 0.084047 0.116615 0.354948 0.188420 -0.114668 0.090058 0.162298 0.071922 -0.480124 0.033422 -0.363729 0.276317 0.008915 0.062442 -0.109152 -0.192059 -0.009729 0.225567 0.024138 -0.100213 0.024932 -0.103230 -0.092901 0.000632 0.012810 0.047251 0.205519 -0.226872 0.119712 -0.112001 -0.347276 0.125422 -0.164379 0.232879 -0.193800 -0.481718 -0.421853 0.253168 0.536816 -0.325430 0.032537 -0.143214 -0.391518 0.121707 0.043668 -0.385947 0.060742 -0.230416 0.306900 -0.414619 -0.099309 -0.230901 0.347076 -0.432217 0.352948 -0.002150 -0.182832 -0.245558 0.269640
12 -0.135668 -0.293654 0.111618 -0.113055 0.049598 0.053635 0.051415 -0.066695 0.212384 0.080693 0.046876 0.302792 -0.121172 0.102965 0.327079 -0.146505 -0.311243 -0.273986 -0.151072 -0.334829 0.407767 0.110915 0.085095 0.039102 -0.043141 -0.059432 0.078997 0.012726 -0.095592 -0.086418 -0.085743 0.095000 0.003402 -0.072085 0.131223 -0.033620 0.261122 0.161685 -0.064076 0.030496 -0.167345 0.166942 0.281698 0.162374 -0.053153 0.419008 0.183409 0.035552 -0.077251 0.170750 -0.088904 0.163396 0.131167 0.123387 -0.169220 -0.290559 -0.180102 -0.124554 0.011712 -0.194038 0.385722 -0.180861 0.055309 -0.108621
9 -0.166562 -0.405051 0.098756 -0.242893 -0.130422 0.116963 0.107389 0.306917 0.195491 -0.085387 0.050674 0.165284 0.034782 -0.383252 0.053014 -0.285106 0.211143 0.045830 0.074268 -0.119559 -0.140050 0.003909 0.230743 -0.023225 -0.133527 0.048728 -0.085848 -0.080799 -0.047773 0.015194 0.049058 0.193983 -0.151541 0.092913 -0.095831 -0.269860 0.133362 -0.159246 0.182726 -0.138790 -0.459469 -0.339566 0.249868 0.477596 -0.258835 0.093982 -0.112537 -0.317785 0.127296 0.033670 -0.371399 0.073622 -0.176558 0.284696 -0.367030 -0.109308 -0.238775 0.258681 -0.399038 0.293329 0.024248 -0.147602 -0.224112 0.215175
0 -0.162253 -0.397777 0.061156 -0.256641 -0.104412 0.064820 0.115611 0.320924 0.189020 -0.141252 0.163672 0.192155 0.040181 -0.463139 0.095564 -0.398511 0.222966 -0.082398 0.017346 -0.129976 -0.142687 0.002662 0.164951 0.061298 -0.055467 -0.041345 -0.114405 -0.123498 0.011783 -0.004442 0.036224 0.162417 -0.254074 0.097473 -0.065311 -0.350601 0.178525 -0.074293 0.201024 -0.177277 -0.421046 -0.394127 0.272392 0.521273 -0.345262 0.062968 -0.086801 -0.415193 0.060924 0.050156 -0.329223 0.070554 -0.214841 0.258329 -0.392122 -0.146538 -0.198906 0.318156 -0.360742 0.289896 0.043555 -0.199289 -0.181797 0.294175
18 -0.129159 -0.236521 0.203304 -0.372377 -0.144224 -0.031377 -0.034179 -0.087701 0.295348 0.553793 -0.338243 0.438563 0.146764 0.201789 0.367785 -0.241452 -0.517889 -0.289913 -0.532972 -0.405775 0.561227 0.095084 0.526215 -0.056645 -0.073830 0.325159 0.290329 0.188274 -0.092251 -0.108902 -0.099632 0.569089 0.075195 -0.209270 0.285879 -0.109290 0.323253 -0.014260 -0.006040 0.036469 -0.439263 0.405477 0.072422 0.185041 0.016012 0.463728 0.028742 0.428226 -0.196897 0.408340 -0.183082 -0.003276 0.243382 0.408383 -0.166881 -0.177492 -0.480184 -0.032071 -0.125301 -0.355043 0.515857 -0.489391 -0.068387 -0.589916
17 -0.134958 -0.250015 0.207869 -0.330087 -0.139457 -0.024286 -0.024313 -0.096189 0.300720 0.527516 -0.308807 0.435237 0.115904 0.232881 0.362072 -0.191300 -0.512843 -0.290169 -0.491616 -0.401204 0.564529 0.083866 0.490499 -0.066890 -0.078948 0.298384 0.273461 0.180429 -0.105374 -0.098677 -0.089128 0.521433 0.101599 -0.210201 0.267505 -0.086193 0.323701 0.015696 -0.024470 0.059508 -0.405727 0.391721 0.083794 0.173100 0.022932 0.475375 0.061129 0.426999 -0.185322 0.394441 -0.182478 0.014996 0.246901 0.353038 -0.149213 -0.202706 -0.469636 -0.045334 -0.094961 -0.362407 0.512326 -0.450235 -0.038915 -0.562902
