20 64
17 0.248442 -0.107940 0.069876 0.183008 -0.182267 -0.254004 0.016780 0.299540 0.495778 0.350062 0.097090 0.584095 0.231807 0.072751 -0.208312 -0.025594 -0.146130 -0.534952 -0.158072 0.639715 0.196304 -0.531988 0.332417 -0.050562 0.591073 0.456998 -0.229734 -0.016488 0.368029 0.341707 0.029422 -0.017782 0.243807 -0.015940 -0.204437 -0.470748 0.046514 0.373759 0.163802 0.423269 -0.026118 -0.238506 -0.255144 0.160181 -0.137605 -0.001800 0.089747 -0.152185 -0.033118 0.069089 -0.129974 -0.486012 0.005957 -0.193942 0.273189 0.159249 -0.341685 0.242360 0.361456 -0.412903 0.133516 -0.375741 0.392104 0.070319
3 0.174585 -0.123142 0.050970 0.096300 -0.124618 -0.150749 0.071920 0.250427 0.369798 0.218429 0.116762 0.431775 0.178279 -0.068195 -0.105173 -0.125124 -0.103479 -0.442873 -0.144545 0.423609 0.136078 -0.355049 0.220923 -0.026855 0.438225 0.303440 -0.209116 -0.047529 0.298992 0.271812 0.004040 -0.001146 0.125738 0.011083 -0.146214 -0.418416 0.073036 0.284785 0.150168 0.278408 -0.078500 -0.218252 -0.143020 0.194781 -0.170376 0.013275 0.020635 -0.215986 -0.022466 0.047925 -0.129197 -0.339390 -0.025032 -0.052468 0.127317 0.053079 -0.288824 0.164726 0.265312 -0.279703 0.133378 -0.261427 0.271164 0.061209
7 0.050882 -0.243457 0.048976 -0.099321 -0.108195 0.080298 0.198627 0.117596 0.237637 0.080002 0.098772 0.226980 0.090847 -0.242262 0.175467 -0.235877 -0.117151 -0.320410 -0.154344 -0.058941 0.125934 -0.081403 0.067234 -0.032723 0.116673 0.045459 -0.114136 -0.124048 0.079181 0.098494 -0.031037 0.125816 -0.015381 -0.037889 -0.019557 -0.305144 0.150464 0.117005 0.086329 -0.047449 -0.283669 -0.105728 0.085477 0.264150 -0.201089 0.177404 -0.058655 -0.248435 0.040829 0.101978 -0.237312 0.012584 -0.042235 0.200942 -0.141053 -0.179564 -0.289682 -0.015354 0.132896 -0.116748 0.271538 -0.098205 0.048024 -0.042757
12 -0.258825 -0.413323 0.136064 -0.196479 -0.182954 0.035722 0.067642 -0.142567 0.319947 0.209743 0.012190 0.527308 -0.210533 0.234723 0.320325 0.019882 -0.471355 -0.208210 -0.177010 -0.479680 0.335976 0.165466 0.357480 -0.114358 -0.199414 -0.002496 0.160016 -0.011236 -0.215788 -0.149621 -0.016421 0.297832 -0.103069 -0.232916 0.162829 0.065177 0.389999 0.094185 -0.194893 0.062707 -0.326297 0.116257 0.404238 0.261663 -0.040958 0.515326 0.404672 0.155003 -0.215754 0.220178 -0.225935 0.284194 0.087611 -0.011945 -0.159692 -0.367832 -0.298252 -0.021499 -0.057322 -0.195495 0.431872 -0.231071 -0.139923 -0.060669
8 -0.074562 -0.317795 0.078302 -0.179432 -0.176248 0.044291 0.099610 0.076202 0.242636 0.122332 0.043855 0.339172 0.023193 -0.044517 0.189406 -0.154871 -0.182909 -0.170630 -0.129143 -0.180154 0.143973 -0.019348 0.244549 -0.083158 -0.097700 0.066985 0.011722 -0.068475 -0.052375 -0.055821 0.006584 0.215037 -0.052947 -0.090867 0.023143 -0.135057 0.257730 0.022482 0.039950 -0.043984 -0.308257 -0.051403 0.188474 0.281105 -0.127964 0.262869 0.064533 -0.079442 -0.048068 0.117721 -0.251054 0.063482 0.017536 0.110514 -0.193398 -0.180819 -0.261279 0.101397 -0.094463 -0.058959 0.258898 -0.204790 -0.084219 -0.029900
6 0.081164 -0.237285 0.079136 -0.009372 0.001808 0.151169 0.325744 0.066165 0.242717 0.059588 0.133493 0.149011 0.021870 -0.333821 0.263614 -0.273042 -0.205584 -0.486704 -0.161266 -0.141571 0.193437 -0.032021 -0.100953 -0.044686 0.248342 -0.024072 -0.130179 -0.172790 0.126349 0.221218 -0.126846 0.038273 0.034300 -0.037445 0.027854 -0.370257 0.142001 0.257127 0.003906 -0.062705 -0.285956 -0.045106 0.140283 0.219221 -0.248093 0.234247 -0.040543 -0.350355 0.093712 0.155015 -0.212781 0.109937 -0.074619 0.292654 -0.075843 -0.309949 -0.342483 -0.251153 0.364669 -0.280102 0.409805 0.031252 0.115724 -0.108606
9 -0.163405 -0.416336 0.061532 -0.343598 -0.300047 0.014184 0.000775 0.171588 0.269754 0.110514 0.039635 0.476941 0.096020 -0.008316 0.163572 -0.189838 -0.142330 0.008630 -0.142340 -0.224149 0.074154 -0.021380 0.478624 -0.119806 -0.350014 0.109797 0.047643 -0.081671 -0.136234 -0.227354 0.106353 0.354607 -0.140470 -0.118116 0.014897 -0.072955 0.365775 -0.141993 0.106114 -0.115730 -0.420949 -0.132301 0.268196 0.408875 -0.145090 0.259008 0.049228 -0.039930 -0.090791 0.065402 -0.345629 0.032273 0.013629 0.085218 -0.332107 -0.135421 -0.246977 0.374711 -0.423476 0.131147 0.206376 -0.349149 -0.244712 0.021553
2 0.099277 -0.245847 0.038865 -0.124523 -0.202189 -0.033158 0.088324 0.292396 0.264207 0.120151 0.093518 0.341701 0.239564 -0.197321 0.010688 -0.253829 -0.010585 -0.221232 -0.120148 0.177000 0.045787 -0.255012 0.257130 -0.055158 0.082376 0.197554 -0.140645 -0.097036 0.155921 0.068896 0.052283 0.131989 0.008747 0.019221 -0.132625 -0.333278 0.150603 0.040586 0.232793 -0.015491 -0.256099 -0.217794 -0.008248 0.301208 -0.210690 0.055431 -0.133958 -0.255314 0.051784 0.029577 -0.260536 -0.213045 -0.033388 0.117991 -0.155691 0.007076 -0.254048 0.278054 -0.066034 -0.009803 0.132059 -0.253183 0.032148 0.022896
13 -0.123181 -0.325543 0.114115 -0.139915 -0.119877 0.082945 0.157543 -0.087741 0.261787 0.155764 0.029857 0.340140 -0.118539 0.033356 0.298975 -0.076515 -0.356022 -0.278120 -0.168913 -0.366427 0.274072 0.095699 0.165751 -0.079179 -0.068006 -0.016630 0.079244 -0.055138 -0.107165 -0.037120 -0.062228 0.209843 -0.050715 -0.165452 0.114739 -0.074384 0.292603 0.128954 -0.115788 -0.012239 -0.294323 0.074798 0.285184 0.227721 -0.091737 0.403851 0.226567 0.000688 -0.100844 0.203753 -0.213995 0.229080 0.042920 0.103213 -0.136669 -0.329436 -0.300932 -0.109252 0.079553 -0.210507 0.401228 -0.127601 -0.063963 -0.098951
11 -0.309048 -0.484039 0.140082 -0.280954 -0.252606 0.006490 0.010563 -0.056942 0.352988 0.199278 -0.006324 0.621598 -0.173020 0.278134 0.304641 -0.021268 -0.447048 -0.105959 -0.177946 -0.491752 0.299548 0.140740 0.520806 -0.137635 -0.345387 0.039375 0.184156 -0.012040 -0.264797 -0.262295 0.033076 0.367888 -0.134652 -0.248569 0.144359 0.107113 0.478472 -0.011475 -0.144456 0.021285 -0.384241 0.077490 0.461010 0.341430 -0.046989 0.512588 0.404135 0.188368 -0.234825 0.201560 -0.272399 0.247993 0.100758 -0.022650 -0.240449 -0.325325 -0.286560 0.164688 -0.284328 -0.087488 0.389085 -0.350051 -0.231553 -0.027051
4 0.219016 -0.119189 0.038703 0.121720 -0.043876 -0.043782 0.203052 0.243027 0.342483 0.133228 0.172532 0.300496 0.174771 -0.252126 0.007266 -0.224708 -0.102883 -0.545928 -0.155255 0.326937 0.148286 -0.300868 0.021998 -0.025868 0.492666 0.194032 -0.263152 -0.125935 0.322300 0.328706 -0.064377 -0.055812 0.127258 0.021826 -0.123933 -0.497260 0.068568 0.333242 0.131573 0.168207 -0.127142 -0.203668 -0.091126 0.208747 -0.234133 0.029754 -0.067696 -0.367351 0.062537 0.059184 -0.144368 -0.238582 -0.058267 0.102160 0.088100 -0.057060 -0.311656 -0.021157 0.416688 -0.328940 0.245722 -0.128602 0.298400 0.003137
10 -0.235313 -0.433617 0.110210 -0.277389 -0.285020 -0.025572 -0.035219 0.034854 0.327490 0.199207 -0.007320 0.591593 -0.064778 0.250202 0.188143 -0.018469 -0.309156 -0.029890 -0.143509 -0.313093 0.216196 0.025549 0.541896 -0.120858 -0.327809 0.109914 0.157149 -0.008444 -0.206359 -0.254485 0.066878 0.340068 -0.104458 -0.180129 0.057685 0.060327 0.408425 -0.076115 -0.045697 -0.005710 -0.360629 -0.001561 0.348504 0.337378 -0.038506 0.401923 0.299226 0.150055 -0.171989 0.141810 -0.278083 0.115828 0.094293 -0.050883 -0.241016 -0.175787 -0.243181 0.280819 -0.360519 -0.003335 0.280502 -0.385661 -0.232174 0.007220
1 -0.078748 -0.403181 0.076072 -0.331840 -0.295778 0.000918 0.016172 0.281379 0.244376 0.103959 0.044382 0.403487 0.218836 -0.121499 0.089262 -0.257956 -0.013988 -0.012953 -0.095104 -0.086437 0.029707 -0.143902 0.430658 -0.095803 -0.270486 0.154030 -0.001221 -0.078383 -0.031129 -0.168114 0.101753 0.304267 -0.089435 -0.031141 -0.080575 -0.180332 0.263249 -0.155434 0.239050 -0.179185 -0.418472 -0.201029 0.173448 0.403964 -0.188400 0.160580 -0.106979 -0.147119 0.025208 0.053302 -0.372005 -0.072772 -0.020395 0.146866 -0.361275 -0.043500 -0.244203 0.439811 -0.421506 0.186266 0.159338 -0.346013 -0.205893 0.018164
0 0.003654 -0.352790 0.040610 -0.306619 -0.288180 0.037952 0.070420 0.304568 0.221145 0.068792 0.097000 0.331925 0.273030 -0.242754 0.097948 -0.320283 0.040743 -0.077008 -0.129584 -0.011008 -0.017745 -0.187219 0.327382 -0.079898 -0.194266 0.139657 -0.081295 -0.137156 0.024458 -0.106277 0.102965 0.268551 -0.075624 -0.016441 -0.089598 -0.275327 0.241940 -0.111334 0.281685 -0.195237 -0.409550 -0.248812 0.090402 0.409010 -0.229779 0.108373 -0.199709 -0.257060 0.046290 0.028386 -0.369770 -0.122838 -0.055843 0.179123 -0.340287 -0.043372 -0.266597 0.402643 -0.323240 0.170936 0.147462 -0.292450 -0.137484 0.017443
5 0.179917 -0.158214 0.051446 0.106667 0.029537 0.054310 0.304426 0.120789 0.316196 0.095673 0.164199 0.206728 0.075739 -0.313787 0.134788 -0.252613 -0.174665 -0.599108 -0.171025 0.137719 0.200234 -0.161500 -0.109339 -0.003545 0.481082 0.080189 -0.232398 -0.158874 0.260610 0.346127 -0.127628 -0.046493 0.105373 0.003262 -0.037462 -0.487342 0.055606 0.363381 0.050134 0.104255 -0.168161 -0.119315 -0.022844 0.179747 -0.253114 0.123615 -0.053161 -0.382240 0.089101 0.111219 -0.158033 -0.059439 -0.071837 0.194804 0.075140 -0.203019 -0.342593 -0.220389 0.521160 -0.379945 0.335389 -0.013715 0.284604 -0.053721
15 0.060973 -0.248673 0.090148 -0.029242 0.021925 0.191370 0.355302 0.007666 0.227531 0.051340 0.135853 0.115890 0.000107 -0.350080 0.306532 -0.272943 -0.231688 -0.508468 -0.177232 -0.210333 0.225824 0.021121 -0.152073 -0.031816 0.232402 -0.059202 -0.128291 -0.172691 0.106765 0.221328 -0.145931 0.052845 0.031017 -0.044825 0.055978 -0.369012 0.126957 0.269866 -0.008567 -0.071887 -0.303863 -0.022541 0.149383 0.214543 -0.241066 0.272907 -0.051756 -0.348474 0.091479 0.165746 -0.221463 0.163741 -0.075901 0.323740 -0.093667 -0.368523 -0.367488 -0.323026 0.410769 -0.288383 0.449019 0.080264 0.121148 -0.144694
14 -0.069728 -0.319905 0.117308 -0.127897 -0.053228 0.165218 0.263449 -0.066931 0.210443 0.096769 0.070445 0.210581 -0.084257 -0.169923 0.348219 -0.183488 -0.292475 -0.367035 -0.167098 -0.384731 0.252452 0.115522 -0.002205 -0.056132 0.017086 -0.076110 0.012966 -0.105142 -0.047912 0.063801 -0.100449 0.159119 -0.047940 -0.103702 0.112368 -0.193272 0.229651 0.168399 -0.077133 -0.094206 -0.337817 0.047526 0.266260 0.240199 -0.172499 0.371739 0.092165 -0.158127 -0.008662 0.212032 -0.236594 0.253511 -0.017524 0.246799 -0.168289 -0.392326 -0.337880 -0.216083 0.196713 -0.221819 0.442006 -0.016454 -0.013818 -0.141167
19 0.274679 -0.116107 0.064594 0.142943 -0.186746 -0.240911 0.012309 0.347931 0.480179 0.324366 0.095309 0.569210 0.282056 -0.002955 -0.230738 -0.089922 -0.101392 -0.506701 -0.149488 0.684623 0.155476 -0.551850 0.344531 -0.040726 0.567470 0.479380 -0.261660 -0.031593 0.390810 0.340996 0.045904 -0.005445 0.229943 0.010311 -0.225648 -0.506286 0.023699 0.342764 0.231296 0.398340 -0.046995 -0.278305 -0.275393 0.181899 -0.162530 -0.037381 0.012280 -0.220108 -0.008362 0.036818 -0.153695 -0.531243 -0.024140 -0.146261 0.239487 0.192633 -0.344114 0.293565 0.310520 -0.351015 0.093790 -0.383482 0.379879 0.087358
18 0.259692 -0.105908 0.054296 0.157174 -0.149584 -0.217461 0.032842 0.316678 0.468458 0.312984 0.099281 0.530086 0.250536 -0.013087 -0.190712 -0.093293 -0.117693 -0.511644 -0.157095 0.630381 0.172734 -0.504195 0.297841 -0.040129 0.576595 0.441227 -0.246113 -0.039907 0.376261 0.349502 0.019640 -0.015559 0.229579 0.012063 -0.192973 -0.496359 0.028536 0.351926 0.190717 0.386283 -0.048984 -0.240881 -0.255504 0.165445 -0.163743 -0.013354 0.017453 -0.214052 0.000182 0.044551 -0.139135 -0.479164 -0.013189 -0.117490 0.240430 0.155858 -0.334825 0.210421 0.340245 -0.377216 0.126055 -0.346261 0.372555 0.067230
16 -0.287756 -0.455530 0.141986 -0.250634 -0.210610 0.056272 0.085476 -0.119778 0.323429 0.188064 -0.000962 0.545157 -0.210077 0.230294 0.359849 -0.030696 -0.476241 -0.174488 -0.196381 -0.551400 0.316841 0.188334 0.408605 -0.130942 -0.290793 -0.012681 0.184446 -0.030124 -0.258298 -0.221061 -0.020374 0.340827 -0.132270 -0.252188 0.171889 0.086825 0.462287 0.024695 -0.187526 -0.013751 -0.385613 0.118999 0.464853 0.312865 -0.047445 0.530455 0.397697 0.159651 -0.219595 0.232543 -0.251264 0.312163 0.096161 0.029462 -0.221130 -0.383053 -0.302623 0.029317 -0.161580 -0.152225 0.442714 -0.271477 -0.212074 -0.077608
