20 64
17 0.171117 -0.209878 0.213848 -0.160817 -0.177860 -0.364612 -0.125140 0.034783 0.381249 0.476066 -0.139009 0.507535 0.349772 0.194682 -0.182225 -0.048356 -0.294116 -0.477419 -0.134144 0.418658 0.402331 -0.396155 0.305613 0.063616 0.221478 0.478029 0.024901 0.202446 0.253548 0.100471 0.006245 0.231713 0.186679 -0.098542 -0.061345 -0.356692 -0.113245 0.341904 0.329820 0.283814 0.063415 -0.087383 -0.339476 0.005997 -0.050956 0.030254 -0.031793 0.119615 -0.112425 0.196987 -0.227935 -0.352540 0.057455 -0.165120 0.181278 0.109256 -0.366713 0.421030 0.255290 -0.375245 0.131325 -0.489539 0.332424 -0.172427
10 -0.096740 -0.306491 0.115015 -0.122095 -0.109777 0.167277 0.078236 -0.014589 0.255181 0.156398 0.003057 0.401519 -0.128164 0.060211 0.280880 -0.061578 -0.248772 -0.198818 -0.127837 -0.206960 0.247086 0.082595 0.223950 -0.111037 -0.017873 0.118959 -0.004566 -0.023915 -0.156579 -0.008457 -0.019743 0.196848 0.001492 -0.091976 0.072197 -0.075911 0.268383 0.036604 -0.067621 0.095538 -0.386089 0.054010 0.253863 0.296385 0.007333 0.412379 0.156575 -0.041996 -0.091647 0.133966 -0.194794 0.071861 0.074743 0.155406 -0.147096 -0.201351 -0.324551 -0.112401 -0.004963 -0.189244 0.353673 -0.207650 0.003087 -0.068816
14 -0.025253 -0.206858 0.255715 -0.262327 -0.156890 0.060667 -0.035631 -0.172458 0.230579 0.412628 -0.177764 0.454559 0.087830 0.252174 0.084588 0.061402 -0.377650 -0.274275 -0.271426 -0.043184 0.386093 -0.016967 0.332987 -0.070848 -0.087434 0.408492 0.107986 0.135210 -0.070609 0.000990 -0.027806 0.345334 0.163664 -0.147709 0.123481 -0.140048 0.112380 0.114619 0.064398 0.185282 -0.321466 0.077242 -0.043475 0.158357 0.153837 0.331553 0.054836 0.176227 -0.194675 0.190487 -0.199775 -0.148329 0.074399 0.054037 0.048438 -0.099942 -0.508993 0.053914 0.091717 -0.341476 0.340711 -0.309677 0.106170 -0.383287
11 -0.152012 -0.291985 0.159265 -0.058470 -0.013684 -0.054461 -0.007498 0.076048 0.219699 0.079322 0.079968 0.329979 -0.086806 0.009388 0.198591 -0.149450 -0.195288 -0.304216 -0.013878 -0.179922 0.263729 0.012490 0.131974 -0.020192 0.084562 0.013105 -0.027131 0.067442 0.004173 0.010212 -0.022573 0.072247 -0.045388 -0.060058 0.035988 -0.097968 0.197984 0.215153 0.029270 0.154040 -0.142919 -0.012921 0.261347 0.224673 -0.118214 0.269336 0.175016 -0.071138 -0.124404 0.164518 -0.107081 0.053269 0.008885 0.080131 -0.159908 -0.229833 -0.196710 0.051258 0.022542 -0.134248 0.278229 -0.210769 0.100653 0.065849
13 0.026591 -0.182861 0.232304 -0.182078 -0.102451 -0.189727 -0.090203 -0.054881 0.241000 0.357333 -0.103450 0.396362 0.187640 0.184285 -0.048485 -0.033204 -0.303516 -0.367558 -0.155751 0.122228 0.372796 -0.174179 0.243169 0.033588 0.059205 0.335350 0.072364 0.181839 0.130942 0.030430 -0.032642 0.211394 0.126427 -0.095680 0.028389 -0.212261 0.005086 0.263965 0.196723 0.210466 -0.039791 -0.011305 -0.131042 0.057188 0.013657 0.145476 0.030816 0.116561 -0.163480 0.183130 -0.146789 -0.206174 0.043466 -0.058356 0.068757 -0.034103 -0.345667 0.236139 0.148424 -0.292513 0.210863 -0.340559 0.198153 -0.216638
3 -0.233118 -0.353793 0.176026 -0.150614 0.118999 -0.241994 -0.002654 0.134765 0.178143 -0.074402 0.143157 0.256127 -0.011294 -0.086021 0.113084 -0.370814 -0.057497 -0.371470 0.036295 -0.183955 0.270924 0.045884 0.026487 0.200158 0.071722 -0.109404 -0.002486 0.140796 0.133193 -0.092290 -0.115574 0.003789 -0.185517 0.081273 -0.011704 -0.210220 0.121799 0.201707 0.209473 0.007273 0.014657 -0.146613 0.253995 0.254869 -0.248526 0.066186 0.059109 -0.113257 -0.093651 0.166019 -0.072531 0.075483 0.000756 0.090259 -0.290861 -0.231356 -0.039764 0.307101 -0.115192 0.021035 0.145902 -0.309236 0.086307 0.136270
4 -0.225535 -0.357135 0.149041 -0.125291 0.118792 -0.215342 -0.007138 0.148898 0.189076 -0.091818 0.166766 0.266625 -0.030173 -0.086792 0.151613 -0.362275 -0.065160 -0.355282 0.057534 -0.188571 0.268274 0.052514 0.012685 0.161256 0.071462 -0.125915 -0.023901 0.112222 0.104583 -0.097406 -0.102834 -0.009839 -0.180937 0.067541 -0.006899 -0.183999 0.147063 0.200125 0.182148 0.015135 -0.000072 -0.130403 0.286903 0.259505 -0.243761 0.093570 0.066877 -0.138235 -0.084839 0.143232 -0.076021 0.092644 0.015043 0.094819 -0.296605 -0.237354 -0.022717 0.260878 -0.103236 0.006474 0.175908 -0.298170 0.091006 0.159305
12 -0.204483 -0.253467 0.250971 -0.141598 0.053612 -0.241265 -0.087799 -0.020787 0.121597 0.121010 0.102987 0.324053 0.044139 0.130513 0.025101 -0.140738 -0.242316 -0.388421 -0.037321 -0.137796 0.360474 -0.009384 0.112387 0.100906 0.019970 0.040381 0.061299 0.191372 0.166032 -0.042021 -0.072438 0.043079 -0.031883 0.001565 0.042419 -0.120977 0.061586 0.322709 0.169657 0.151213 0.054299 -0.056538 0.128889 0.092606 -0.109410 0.130581 0.108172 0.018748 -0.195985 0.161490 -0.029861 -0.046835 -0.011215 -0.066934 -0.113889 -0.227612 -0.156617 0.260127 0.040081 -0.124001 0.232255 -0.235006 0.149298 -0.051396
6 -0.102071 -0.396400 0.037988 -0.013911 -0.040833 0.018794 0.097217 0.195274 0.299737 -0.019554 0.136964 0.342630 -0.158759 -0.148012 0.309782 -0.263304 -0.088547 -0.258504 0.068933 -0.158349 0.156792 0.023731 0.090200 -0.051209 0.155701 -0.073958 -0.103237 -0.060447 -0.065846 0.024716 -0.012268 0.044816 -0.138182 -0.011130 -0.016217 -0.147624 0.261811 0.106134 -0.000599 0.059169 -0.240188 -0.052390 0.345584 0.334618 -0.221957 0.295839 0.153909 -0.230472 -0.002583 0.131813 -0.198814 0.151737 0.039533 0.170096 -0.256887 -0.212107 -0.127174 -0.011935 -0.032359 -0.084169 0.250855 -0.238925 0.043065 0.247092
15 -0.043676 -0.265913 0.164148 -0.154674 -0.162143 0.148181 0.040095 -0.077965 0.263332 0.292317 -0.074370 0.441094 -0.048658 0.140418 0.217194 0.011833 -0.328312 -0.229908 -0.184878 -0.119086 0.294997 0.022005 0.287767 -0.143011 -0.022431 0.262495 0.020031 0.021461 -0.129635 0.027259 -0.004163 0.269075 0.091670 -0.138862 0.092437 -0.094203 0.211883 0.081400 -0.030622 0.172644 -0.380432 0.080552 0.119719 0.231291 0.073928 0.412296 0.123915 0.035392 -0.136085 0.153647 -0.212994 -0.028151 0.074081 0.112487 -0.044487 -0.159242 -0.430242 -0.091092 0.075285 -0.280934 0.365659 -0.231287 0.056495 -0.190065
2 -0.317951 -0.471937 0.181771 -0.199123 0.216326 -0.349188 0.008385 0.182662 0.168980 -0.202334 0.239982 0.270591 -0.016550 -0.144624 0.138699 -0.545820 -0.018878 -0.438463 0.106801 -0.251229 0.319065 0.105714 -0.049262 0.311249 0.046214 -0.245207 -0.005767 0.164504 0.187807 -0.166688 -0.159923 -0.065774 -0.304281 0.174235 -0.027251 -0.247997 0.128430 0.230525 0.303941 -0.067648 0.110628 -0.205956 0.340586 0.293436 -0.372412 0.012477 0.023038 -0.183979 -0.081537 0.161093 -0.064819 0.137275 0.015479 0.099473 -0.424883 -0.308350 0.077813 0.446120 -0.204056 0.106846 0.117619 -0.372531 0.093113 0.227641
0 -0.355155 -0.532063 0.166444 -0.253484 0.243738 -0.326034 0.031762 0.201755 0.186598 -0.274770 0.263161 0.256111 -0.032512 -0.195925 0.191643 -0.636370 0.048480 -0.434106 0.105271 -0.295603 0.306185 0.146654 -0.082058 0.369304 0.012981 -0.294988 -0.006756 0.140038 0.141878 -0.231030 -0.185032 -0.048511 -0.351120 0.199614 -0.013036 -0.288748 0.157472 0.175542 0.335372 -0.147924 0.061784 -0.244924 0.375833 0.367956 -0.401675 0.014838 -0.014041 -0.220445 -0.059813 0.165566 -0.095488 0.189395 0.022089 0.144964 -0.500675 -0.324656 0.094907 0.477582 -0.293841 0.163707 0.106207 -0.427427 0.065338 0.269240
8 0.080702 -0.441666 -0.078984 -0.001696 -0.266381 0.332613 0.213888 0.199096 0.471923 0.136878 -0.000632 0.479213 -0.234825 -0.179308 0.483539 -0.152978 -0.134553 -0.119387 -0.013796 -0.072796 0.076310 0.005908 0.246295 -0.278838 0.172826 0.122379 -0.170102 -0.226710 -0.316142 0.107389 0.068201 0.236698 -0.058297 -0.122130 -0.013397 -0.154387 0.397486 -0.105722 -0.156840 0.094174 -0.611520 0.040163 0.325665 0.480095 -0.102482 0.541276 0.166706 -0.261396 0.075104 0.115043 -0.400752 0.163533 0.133867 0.319090 -0.217068 -0.117410 -0.344122 -0.303091 0.004711 -0.219023 0.342107 -0.273928 -0.030650 0.213003
1 -0.364369 -0.525643 0.213681 -0.279297 0.284023 -0.436834 -0.007791 0.230876 0.203548 -0.265737 0.231851 0.244283 0.042896 -0.196757 0.118661 -0.678972 0.057224 -0.490430 0.118698 -0.254558 0.352980 0.107383 -0.086361 0.428211 0.035935 -0.265370 0.010767 0.215794 0.219442 -0.246330 -0.220279 -0.048580 -0.344904 0.209597 -0.036092 -0.337517 0.100010 0.213316 0.415759 -0.147280 0.136536 -0.279797 0.340171 0.351191 -0.420004 -0.073509 -0.052905 -0.187630 -0.060313 0.192849 -0.084816 0.155419 0.015282 0.148180 -0.497642 -0.297096 0.108609 0.584328 -0.292665 0.163547 0.083361 -0.486089 0.097063 0.242006
9 0.077162 -0.395152 -0.041457 -0.070205 -0.251503 0.305117 0.179042 0.152388 0.453765 0.171897 -0.060727 0.463315 -0.165127 -0.142861 0.416099 -0.136734 -0.152152 -0.119179 -0.078772 -0.059312 0.107014 0.008925 0.273441 -0.232929 0.117418 0.185195 -0.128480 -0.180481 -0.296736 0.076929 0.050501 0.289285 -0.030466 -0.137632 0.012855 -0.174113 0.352172 -0.115501 -0.120726 0.081485 -0.600781 0.033587 0.259867 0.456156 -0.057921 0.488646 0.125480 -0.187830 0.048149 0.122352 -0.389229 0.120324 0.121167 0.315495 -0.175729 -0.090016 -0.380257 -0.240308 -0.008356 -0.224213 0.327142 -0.298389 -0.031355 0.106712
5 -0.304190 -0.487838 0.166608 -0.212128 0.219989 -0.350824 0.015967 0.163067 0.195773 -0.199162 0.240232 0.283048 -0.014664 -0.133530 0.145425 -0.557832 -0.017444 -0.452754 0.095422 -0.219355 0.325478 0.102803 -0.062661 0.330759 0.051147 -0.232738 -0.002508 0.147581 0.170551 -0.176665 -0.168696 -0.052413 -0.295709 0.171798 -0.008711 -0.276588 0.123536 0.233700 0.312489 -0.071552 0.112737 -0.214619 0.301322 0.291958 -0.371858 0.012459 0.009935 -0.181392 -0.079841 0.159396 -0.083165 0.140387 0.028400 0.076781 -0.398334 -0.300034 0.069200 0.450550 -0.194735 0.078599 0.107215 -0.406420 0.111456 0.232691
7 -0.009776 -0.460902 -0.050319 0.027681 -0.188490 0.248267 0.188430 0.243335 0.451475 0.043680 0.083199 0.460962 -0.266022 -0.213486 0.489208 -0.208066 -0.119228 -0.192292 0.030513 -0.167949 0.112749 0.028544 0.192896 -0.210684 0.213410 -0.008892 -0.187403 -0.190270 -0.250838 0.087696 0.053460 0.154543 -0.126116 -0.100788 -0.027882 -0.141366 0.399065 -0.022606 -0.149712 0.094247 -0.526657 0.010127 0.441762 0.490802 -0.179370 0.511917 0.229111 -0.293282 0.054669 0.136649 -0.337052 0.216885 0.091995 0.308910 -0.286645 -0.195470 -0.259921 -0.249385 -0.000473 -0.153537 0.361401 -0.250204 -0.005343 0.295748
18 0.194002 -0.196567 0.235719 -0.199521 -0.208989 -0.304865 -0.145057 -0.006694 0.400151 0.560111 -0.208162 0.548005 0.361375 0.234537 -0.165093 -0.004408 -0.354990 -0.458430 -0.191342 0.420021 0.443688 -0.388961 0.371100 0.024903 0.191755 0.572248 0.049655 0.214633 0.211257 0.108920 0.012089 0.307690 0.236972 -0.136265 -0.027212 -0.348892 -0.103241 0.321868 0.309693 0.319632 -0.018216 -0.035306 -0.361482 0.011077 0.017568 0.101648 -0.033850 0.163278 -0.132816 0.209720 -0.252983 -0.383756 0.073931 -0.124843 0.210480 0.128949 -0.455493 0.362384 0.264551 -0.431438 0.183774 -0.510816 0.325309 -0.260697
19 0.218043 -0.203257 0.224766 -0.178623 -0.234683 -0.268536 -0.124701 -0.008405 0.410212 0.556714 -0.207780 0.551722 0.331209 0.224797 -0.146989 0.018152 -0.356069 -0.449196 -0.174295 0.428183 0.416985 -0.398182 0.365175 -0.001437 0.198817 0.570212 0.032493 0.186778 0.183024 0.123815 0.027191 0.303727 0.239258 -0.154787 -0.035058 -0.338370 -0.089915 0.318455 0.285003 0.324803 -0.037963 -0.034849 -0.350177 0.018179 0.024549 0.127001 -0.008766 0.138717 -0.126224 0.207738 -0.268751 -0.369694 0.066882 -0.131766 0.223653 0.129436 -0.467791 0.329655 0.286593 -0.440919 0.182426 -0.492517 0.325079 -0.230914
16 -0.004401 -0.201194 0.228620 -0.197756 -0.166063 0.020205 -0.025692 -0.138651 0.243297 0.404595 -0.131562 0.469382 0.079508 0.258298 0.083156 0.057194 -0.397499 -0.304351 -0.241136 -0.012743 0.370636 -0.062899 0.328565 -0.096953 -0.024883 0.376875 0.084977 0.107924 -0.026299 0.015479 -0.025783 0.294128 0.161116 -0.152879 0.095350 -0.124186 0.117999 0.152755 0.053862 0.198404 -0.267927 0.084777 -0.033202 0.121189 0.122079 0.318902 0.085303 0.142109 -0.186170 0.180898 -0.175264 -0.151489 0.075280 0.011718 0.065408 -0.092140 -0.458678 0.045243 0.137837 -0.354526 0.344999 -0.295193 0.118737 -0.324512
