22 64
16 -0.246348 -0.172960 0.102219 -0.275195 0.009438 0.022165 0.030342 -0.145847 0.242912 0.460975 -0.084974 0.642020 0.053213 0.455177 0.215281 -0.071029 -0.353645 -0.324848 -0.641735 -0.307035 0.479837 0.275921 0.536564 0.002576 0.070943 0.299767 0.261690 0.131384 -0.032494 -0.115191 -0.237642 0.423174 -0.012780 0.074328 0.223180 -0.163407 0.223131 -0.253669 -0.144304 -0.094972 -0.545108 0.231024 0.140629 0.299100 0.131909 0.275713 0.002416 0.406229 -0.169807 0.269238 -0.029137 -0.095038 0.270199 0.278886 -0.118727 -0.094341 -0.325268 0.032118 -0.097292 -0.397287 0.564511 -0.535293 -0.157583 -0.694239
19 0.069242 -0.393952 0.389877 -0.323177 -0.660532 0.049280 0.346013 -0.154467 0.224170 0.161389 -0.495388 0.168256 -0.046482 -0.342979 -0.013183 -0.139446 -0.447115 -0.183802 0.401219 0.241156 0.244184 -0.356077 0.219148 0.063185 0.223268 0.715307 0.147411 -0.075028 -0.230088 -0.212700 -0.122890 0.087736 0.206053 -0.308725 -0.052811 -0.209137 0.201823 0.160923 0.243372 0.157451 -0.776556 -0.175915 -0.343518 0.143637 0.261492 0.496825 0.508225 -0.436610 0.080822 -0.112816 -0.503417 0.079501 0.123894 -0.367976 0.098576 0.275374 -0.607822 -0.569541 -0.221450 0.086584 0.073531 -0.240432 0.402585 0.754518
6 -0.105052 -0.332843 0.210494 -0.158797 -0.079018 0.052201 0.113689 -0.124874 0.062138 -0.036727 0.106514 0.137520 -0.154270 -0.192466 0.101028 -0.042389 -0.219159 -0.190040 0.184251 -0.230865 0.221766 0.050589 -0.106986 0.070850 -0.089506 -0.011571 0.104447 0.013624 -0.024026 -0.025933 -0.108682 -0.035630 -0.118944 -0.033452 0.028936 -0.112288 0.189653 0.309152 0.023175 0.045655 -0.184804 -0.197304 0.245518 0.232315 -0.033401 0.397278 0.320964 -0.339868 -0.100971 0.012858 -0.245819 0.216826 -0.057454 -0.092907 -0.202875 -0.261514 -0.240840 -0.192669 0.024829 0.003059 0.263305 0.029512 0.019367 0.306808
14 -0.232790 -0.209070 0.102604 -0.253843 0.056394 0.018652 0.005976 -0.119305 0.166151 0.270061 0.000932 0.461922 0.007760 0.281244 0.153498 -0.075973 -0.222621 -0.223745 -0.413163 -0.281432 0.370371 0.244999 0.331568 0.066255 -0.038213 0.151581 0.210833 0.107784 -0.028941 -0.093005 -0.174894 0.283228 -0.061652 0.101202 0.172608 -0.146842 0.171413 -0.125279 -0.074523 -0.077444 -0.367782 0.090056 0.169363 0.271508 0.047791 0.245158 0.021708 0.229594 -0.133507 0.182092 -0.064373 -0.015378 0.158611 0.184960 -0.160291 -0.147581 -0.235447 0.071761 -0.127511 -0.228504 0.402643 -0.371858 -0.138209 -0.433100
8 0.016703 -0.319141 0.265344 -0.210149 -0.420706 0.093330 0.252351 -0.136093 0.156889 0.091075 -0.255316 0.146864 -0.090358 -0.230471 0.035976 -0.048634 -0.341530 -0.116324 0.254308 0.061318 0.211075 -0.172435 0.119127 0.020882 0.075318 0.420181 0.098896 -0.053242 -0.163329 -0.108532 -0.089903 0.046706 0.108432 -0.191642 -0.023505 -0.125666 0.210278 0.159011 0.105873 0.146357 -0.520422 -0.142413 -0.123969 0.167353 0.169404 0.451237 0.397207 -0.327079 0.013242 -0.091189 -0.373299 0.105067 0.086865 -0.230356 -0.007408 0.062129 -0.444942 -0.449192 -0.113691 0.044676 0.133482 -0.083713 0.223656 0.496015
4 -0.213070 -0.373738 0.198899 -0.251075 0.040397 -0.103734 0.028635 -0.017124 0.074490 -0.109297 0.196082 0.122592 -0.046230 -0.194095 0.088395 -0.268588 -0.031681 -0.250556 0.152829 -0.206308 0.208595 0.047427 -0.126534 0.214652 -0.080995 -0.078915 0.120479 0.069497 0.058763 -0.156454 -0.176277 -0.012496 -0.185533 0.079166 0.031744 -0.233505 0.143961 0.251371 0.213501 -0.082637 -0.110538 -0.284192 0.211327 0.288893 -0.135008 0.221172 0.122176 -0.320449 -0.099347 0.057905 -0.197395 0.167538 -0.053335 -0.041644 -0.327122 -0.216529 -0.120698 0.095269 -0.161140 0.101017 0.192563 -0.187897 -0.014339 0.307073
12 -0.210866 -0.312956 0.164842 -0.226826 0.060867 0.021578 0.016526 -0.142845 0.058415 0.027950 0.173702 0.256386 -0.111355 -0.011498 0.121179 -0.058530 -0.176560 -0.191355 -0.036475 -0.335716 0.287959 0.202711 -0.008344 0.115956 -0.173148 -0.076378 0.155985 0.086824 0.006637 -0.055871 -0.129499 0.067858 -0.185923 0.079172 0.090704 -0.117854 0.168857 0.189866 0.002089 -0.016971 -0.146809 -0.130002 0.311895 0.274696 -0.057361 0.337953 0.184065 -0.135551 -0.160489 0.080585 -0.154970 0.165235 -0.013829 0.025896 -0.279177 -0.313747 -0.177634 0.005944 -0.044474 -0.039045 0.317584 -0.090047 -0.108243 0.011560
11 -0.171612 -0.272461 0.135747 -0.160594 0.045684 0.093215 0.045601 -0.149066 0.087694 0.049521 0.142742 0.272774 -0.139896 0.033161 0.143277 0.024229 -0.235436 -0.158150 -0.093880 -0.347113 0.296324 0.209033 0.034452 0.047057 -0.167787 -0.055612 0.124040 0.052479 -0.028926 -0.010193 -0.107559 0.073261 -0.128751 0.031638 0.095557 -0.063266 0.206903 0.163243 -0.098052 0.032438 -0.175038 -0.069240 0.333698 0.265069 -0.010525 0.387362 0.225969 -0.087031 -0.150494 0.064160 -0.148614 0.164255 0.009851 0.050141 -0.224755 -0.328015 -0.209612 -0.100244 0.022896 -0.095883 0.361038 -0.019998 -0.106138 -0.058858
10 -0.127039 -0.264142 0.136693 -0.188250 -0.058793 0.110102 0.106712 -0.135126 0.137478 0.066660 0.016148 0.259603 -0.101426 0.020911 0.097782 -0.003165 -0.228956 -0.112581 -0.082939 -0.207468 0.271875 0.113892 0.116889 0.067749 -0.109479 0.101317 0.124491 0.008481 -0.077140 -0.068578 -0.122913 0.095676 -0.032123 0.002335 0.062050 -0.096919 0.201912 0.063451 -0.045072 0.023456 -0.303218 -0.071690 0.173942 0.250038 0.064493 0.373540 0.217462 -0.083783 -0.070288 0.010011 -0.190319 0.115584 0.070663 -0.000025 -0.154179 -0.171101 -0.259902 -0.169574 -0.077430 -0.049176 0.280429 -0.087139 -0.051728 0.014904
3 -0.304384 -0.388753 0.178968 -0.284913 0.184074 -0.090145 -0.015747 -0.056795 0.065580 -0.076377 0.290605 0.211674 -0.071779 -0.076414 0.129548 -0.260009 -0.019730 -0.279386 -0.024203 -0.365096 0.265682 0.206670 -0.092839 0.249545 -0.165585 -0.188253 0.173853 0.113628 0.084688 -0.129600 -0.206426 0.046170 -0.265284 0.172228 0.101957 -0.244316 0.158980 0.216467 0.139493 -0.135395 -0.067483 -0.247965 0.344158 0.349351 -0.182880 0.230410 0.073092 -0.199876 -0.164616 0.139080 -0.139527 0.181437 -0.061407 0.064650 -0.395506 -0.348039 -0.097247 0.216766 -0.161961 0.035456 0.279351 -0.220584 -0.143431 0.073769
7 -0.050847 -0.350322 0.243777 -0.202317 -0.228996 0.063750 0.175246 -0.126062 0.107539 -0.035144 -0.043098 0.108021 -0.132290 -0.271053 0.058911 -0.061548 -0.247867 -0.154144 0.272268 -0.101016 0.210908 -0.064522 -0.055689 0.096427 -0.033807 0.143314 0.090294 -0.020843 -0.088562 -0.084401 -0.094866 -0.022098 -0.042312 -0.110142 -0.017244 -0.131713 0.179423 0.272363 0.092054 0.076935 -0.314935 -0.218913 0.097397 0.214507 0.037390 0.422186 0.375410 -0.389337 -0.032367 -0.049267 -0.324988 0.205914 -0.022220 -0.174944 -0.142083 -0.121344 -0.315789 -0.296447 -0.050187 0.082395 0.176109 -0.001838 0.121190 0.478697
13 -0.229779 -0.251859 0.116567 -0.215745 0.112980 0.029420 0.006710 -0.137761 0.106719 0.122202 0.164994 0.341378 -0.067539 0.131057 0.155592 -0.043580 -0.193340 -0.217425 -0.250689 -0.378655 0.344835 0.262027 0.099016 0.092446 -0.150064 -0.055725 0.178465 0.107468 0.021914 -0.050750 -0.166763 0.152906 -0.159051 0.105402 0.126387 -0.128779 0.197889 0.075897 -0.068369 -0.051194 -0.184038 -0.034470 0.320433 0.302048 -0.031206 0.311523 0.106883 0.042607 -0.173786 0.140177 -0.093457 0.111710 0.062907 0.137348 -0.273519 -0.313315 -0.181974 0.035911 -0.030019 -0.145612 0.405963 -0.169113 -0.174528 -0.253040
5 -0.283358 -0.487209 0.225110 -0.334491 0.108631 -0.197031 0.014830 0.023466 0.073417 -0.212674 0.267329 0.079594 -0.034432 -0.287648 0.086542 -0.445902 0.078985 -0.303229 0.236744 -0.210730 0.180194 0.045604 -0.212169 0.342100 -0.103090 -0.157579 0.145108 0.075260 0.089117 -0.228520 -0.218592 -0.033974 -0.265051 0.144119 0.049131 -0.334599 0.117865 0.299817 0.352008 -0.170946 -0.049892 -0.402796 0.209681 0.328601 -0.249518 0.155383 0.060929 -0.420756 -0.093491 0.082566 -0.232589 0.212326 -0.108529 -0.066308 -0.406323 -0.242351 -0.066275 0.263852 -0.281386 0.193097 0.112786 -0.289359 -0.015922 0.453481
0 -0.416243 -0.547255 0.209048 -0.428848 0.270427 -0.228939 -0.061413 0.042755 0.087612 -0.218273 0.393477 0.172059 -0.004777 -0.183521 0.132909 -0.546154 0.168066 -0.344406 0.062715 -0.346047 0.236167 0.174838 -0.169592 0.432282 -0.203486 -0.267089 0.198355 0.126464 0.128697 -0.287797 -0.274053 0.044512 -0.351581 0.268707 0.111281 -0.400343 0.134036 0.230693 0.385421 -0.280318 -0.020742 -0.418748 0.321850 0.435163 -0.323199 0.124096 -0.072680 -0.323231 -0.146411 0.163461 -0.187279 0.200197 -0.107504 0.054738 -0.547030 -0.337781 -0.016699 0.493187 -0.397972 0.195930 0.179030 -0.429634 -0.152905 0.256611
15 -0.173509 -0.227502 0.112524 -0.215481 -0.010926 0.071865 0.061911 -0.126662 0.153426 0.161394 0.002826 0.340439 -0.038411 0.148045 0.125392 -0.042098 -0.229707 -0.155174 -0.248053 -0.232184 0.305393 0.169110 0.226071 0.052508 -0.079457 0.132886 0.148590 0.046397 -0.054609 -0.086009 -0.144254 0.196539 -0.027851 0.033643 0.116250 -0.111925 0.179752 -0.037195 -0.049280 -0.014470 -0.330500 0.012407 0.147938 0.244937 0.064053 0.302461 0.099201 0.072865 -0.099917 0.080625 -0.129259 0.045805 0.112442 0.092250 -0.147312 -0.154590 -0.250905 -0.065036 -0.094853 -0.127984 0.329639 -0.209573 -0.090686 -0.206579
2 -0.378097 -0.484231 0.184503 -0.377665 0.257338 -0.183601 -0.058674 0.014593 0.075068 -0.154646 0.351372 0.217907 -0.016072 -0.109348 0.131212 -0.443659 0.089858 -0.310459 -0.000524 -0.358107 0.257561 0.211499 -0.106305 0.354416 -0.201216 -0.236992 0.183694 0.131717 0.118448 -0.228554 -0.240594 0.059469 -0.328672 0.250301 0.110910 -0.324268 0.132803 0.189123 0.287831 -0.229771 -0.028641 -0.328522 0.341623 0.396369 -0.273010 0.143167 -0.048868 -0.241045 -0.153967 0.153379 -0.153040 0.171167 -0.076294 0.086900 -0.495649 -0.340396 -0.026371 0.426326 -0.317042 0.127814 0.219607 -0.366894 -0.161187 0.129819
1 -0.369212 -0.520760 0.227913 -0.410535 0.189250 -0.243222 -0.035268 0.060202 0.097585 -0.202596 0.293026 0.134922 0.016363 -0.220029 0.092106 -0.535916 0.149864 -0.325034 0.138792 -0.251797 0.212643 0.094290 -0.146115 0.409243 -0.133729 -0.171406 0.184107 0.119431 0.113036 -0.294561 -0.263113 0.031990 -0.293405 0.220109 0.072002 -0.388850 0.101761 0.212028 0.411523 -0.254476 -0.068440 -0.407714 0.232848 0.384840 -0.279923 0.097897 -0.049216 -0.339256 -0.095024 0.134890 -0.206883 0.181252 -0.091548 0.014314 -0.481816 -0.236926 -0.035977 0.426201 -0.401796 0.215366 0.126800 -0.429055 -0.085557 0.337350
9 -0.062711 -0.300298 0.189200 -0.210873 -0.206723 0.105430 0.165811 -0.135938 0.140781 0.038012 -0.105653 0.185942 -0.108578 -0.128183 0.054584 -0.032507 -0.261597 -0.087462 0.101893 -0.081549 0.209332 -0.002962 0.097396 0.060652 -0.059986 0.224162 0.103965 -0.036252 -0.131476 -0.085155 -0.089221 0.069372 0.011665 -0.090472 0.033670 -0.108979 0.186907 0.116639 0.026701 0.074622 -0.379204 -0.131020 0.047878 0.205863 0.088474 0.387677 0.299235 -0.221632 -0.027228 -0.051736 -0.286266 0.134087 0.039144 -0.115815 -0.072343 -0.075119 -0.330143 -0.268041 -0.107853 0.019647 0.170249 -0.066878 0.067353 0.275396
21 0.077863 -0.342035 0.373043 -0.302633 -0.712120 0.049166 0.363593 -0.148245 0.238250 0.211533 -0.533095 0.163627 -0.017438 -0.330286 -0.015269 -0.118461 -0.461980 -0.172308 0.365374 0.271184 0.249576 -0.385050 0.260382 0.031410 0.272288 0.765388 0.146164 -0.082233 -0.230051 -0.204369 -0.115794 0.100425 0.254528 -0.325590 -0.063165 -0.208542 0.218693 0.132141 0.227483 0.179817 -0.825257 -0.134026 -0.408143 0.124912 0.283734 0.492561 0.503144 -0.386347 0.101130 -0.123014 -0.489040 0.053798 0.172711 -0.372139 0.126603 0.318515 -0.626624 -0.635047 -0.223939 0.072717 0.078448 -0.238645 0.421012 0.725549
18 -0.278928 -0.167553 0.078402 -0.312325 0.006718 -0.017900 0.014202 -0.102156 0.305173 0.519362 -0.116763 0.691215 0.130742 0.509332 0.217441 -0.141676 -0.325789 -0.335959 -0.741695 -0.253911 0.516409 0.252579 0.638647 0.026969 0.128633 0.382493 0.278620 0.137148 -0.020906 -0.161123 -0.269076 0.491099 0.038868 0.103194 0.240752 -0.225386 0.225110 -0.340863 -0.097527 -0.112260 -0.622894 0.256517 0.048626 0.319126 0.138929 0.241147 -0.088474 0.490257 -0.141629 0.277387 -0.024690 -0.161083 0.340724 0.314948 -0.121738 -0.017540 -0.337561 0.066012 -0.189642 -0.405917 0.574508 -0.667129 -0.154778 -0.765481
17 -0.234416 -0.153992 0.096925 -0.281879 -0.080366 0.037708 0.064939 -0.145239 0.312841 0.563028 -0.177436 0.713218 0.098505 0.521105 0.213384 -0.046884 -0.413709 -0.321435 -0.731067 -0.244117 0.524508 0.233339 0.672907 -0.039209 0.135647 0.449421 0.269229 0.117871 -0.061358 -0.123729 -0.243637 0.493011 0.081329 0.040226 0.227670 -0.181177 0.256775 -0.332810 -0.162163 -0.053805 -0.683168 0.283103 0.034994 0.306467 0.199856 0.306663 -0.000056 0.494899 -0.145882 0.257626 -0.055583 -0.156430 0.355882 0.275065 -0.062016 -0.015931 -0.410812 -0.047182 -0.124123 -0.446358 0.598834 -0.600496 -0.122613 -0.763096
20 0.047637 -0.349628 0.342986 -0.287945 -0.615579 0.003002 0.321709 -0.106157 0.201389 0.151942 -0.446255 0.132483 0.000512 -0.319871 -0.012404 -0.164644 -0.384295 -0.173384 0.345067 0.226493 0.222232 -0.346786 0.211641 0.060080 0.238478 0.662541 0.141670 -0.064503 -0.183513 -0.209993 -0.127510 0.081040 0.197287 -0.270593 -0.044863 -0.210279 0.203994 0.128602 0.241561 0.129277 -0.716338 -0.170069 -0.356545 0.137757 0.224725 0.422053 0.433101 -0.380238 0.078840 -0.105428 -0.458269 0.052554 0.141788 -0.337587 0.069813 0.267614 -0.541886 -0.512833 -0.235107 0.093833 0.069745 -0.242471 0.375021 0.687536
