23 64
20 -0.141391 -0.102570 0.187001 -0.260803 -0.375415 -0.537170 0.140001 -0.044532 -0.051219 0.173907 -0.272249 0.146605 0.519124 -0.244318 -0.158495 -0.105068 -0.506946 -0.210235 -0.077729 -0.057898 0.654675 -0.154652 0.439377 0.231176 -0.016211 0.538163 0.359448 -0.015052 0.308031 -0.061101 -0.180210 -0.092404 -0.017959 -0.043702 0.038592 -0.351171 0.349866 0.112129 -0.104281 -0.133920 -0.307373 -0.323116 -0.390934 0.290035 0.075572 0.252853 0.254590 0.253061 0.117445 -0.207013 -0.325763 -0.094839 0.182262 -0.390274 0.043945 0.007966 -0.191258 -0.112455 -0.252556 -0.030816 0.410735 -0.020709 0.284903 0.137413
17 0.039660 -0.209266 0.267004 -0.082741 -0.293562 -0.072337 0.060158 -0.072258 0.513700 0.562059 -0.143722 0.643426 0.255721 0.385397 -0.080118 0.149567 -0.395222 -0.558524 -0.394107 0.347193 0.419731 -0.330025 0.530056 -0.109492 0.275624 0.628586 -0.168378 0.080958 0.142528 0.201658 0.016743 0.355417 0.426083 -0.202040 -0.062694 -0.369834 -0.062996 0.198905 0.177099 0.446738 -0.285196 -0.067894 -0.394127 0.141699 0.126047 0.198436 -0.065843 0.290660 -0.114088 0.191383 -0.247521 -0.396791 0.043249 -0.118014 0.304119 -0.026849 -0.681675 0.171868 0.415121 -0.480313 0.310230 -0.328550 0.391509 -0.427195
11 -0.206737 -0.135366 0.128669 -0.069615 0.055618 -0.029391 0.026376 0.142561 0.278484 -0.100760 0.229593 0.453993 -0.068422 0.018991 -0.029554 -0.161325 -0.172483 -0.307748 -0.273236 -0.072149 0.113685 0.064237 0.286756 0.046985 0.007102 0.076540 -0.183464 0.001342 0.147036 -0.029590 -0.086728 0.056125 -0.107121 -0.064070 -0.011038 -0.194434 0.347295 0.160786 0.017800 0.248829 -0.144135 -0.299826 0.345816 0.444880 -0.063923 0.068363 0.214177 -0.166029 -0.319741 -0.023088 0.029978 -0.137475 -0.105335 0.045269 -0.103572 -0.225101 -0.239744 0.228633 -0.041684 -0.041706 0.197033 -0.195638 -0.011320 0.033506
15 -0.046324 -0.181768 0.272918 -0.160122 -0.252899 -0.122557 0.045047 -0.124051 0.352758 0.429472 -0.127089 0.515626 0.249098 0.264547 -0.083096 0.090523 -0.425092 -0.470188 -0.317882 0.190872 0.431026 -0.221342 0.465126 -0.028903 0.119765 0.535688 -0.062298 0.065113 0.153315 0.108814 -0.021616 0.271927 0.298444 -0.182273 -0.007673 -0.316373 0.002909 0.212685 0.134835 0.327535 -0.249904 -0.109937 -0.317328 0.146186 0.116192 0.211765 0.000172 0.246930 -0.127052 0.109596 -0.214119 -0.293597 0.008081 -0.161528 0.234227 -0.077795 -0.566281 0.135388 0.268851 -0.349232 0.310548 -0.226780 0.317918 -0.312463
9 -0.175688 -0.113870 0.076001 -0.011402 0.077969 0.061570 0.070605 0.198214 0.329905 -0.145044 0.304389 0.493660 -0.176804 -0.041935 0.005626 -0.178610 -0.148322 -0.290837 -0.296430 -0.083221 0.020546 0.102822 0.269713 -0.003284 0.035207 0.018883 -0.229475 -0.047585 0.137811 0.014075 -0.103580 0.033458 -0.171517 -0.055125 -0.035523 -0.202496 0.463603 0.159939 -0.050659 0.274226 -0.175577 -0.316900 0.497854 0.537292 -0.096903 0.097092 0.289756 -0.290560 -0.360596 -0.032398 0.063414 -0.112513 -0.115149 0.127690 -0.145366 -0.246403 -0.239179 0.160299 -0.033148 -0.059700 0.201741 -0.188013 -0.115934 0.090859
12 -0.194540 -0.131397 0.135121 -0.136364 -0.023522 -0.133379 0.040008 0.084407 0.148393 -0.065275 0.139976 0.339494 0.042139 -0.092039 -0.033810 -0.170881 -0.216555 -0.265231 -0.173721 -0.112358 0.202126 0.054138 0.250917 0.093244 -0.028352 0.119918 -0.035960 0.001344 0.171929 -0.052255 -0.111528 0.011870 -0.151802 -0.037520 0.008255 -0.214873 0.330195 0.150987 -0.000797 0.104440 -0.168081 -0.303025 0.223783 0.402290 -0.053613 0.105434 0.210796 -0.125431 -0.221704 -0.056500 -0.046247 -0.080344 -0.062890 -0.028241 -0.118496 -0.182392 -0.184386 0.150781 -0.101780 -0.010117 0.238625 -0.141980 0.011686 0.092001
13 -0.193245 -0.085163 0.199820 -0.265234 -0.207646 -0.348511 0.080665 -0.073439 0.062604 0.095535 -0.072315 0.314546 0.293607 -0.111545 -0.151229 -0.096642 -0.485129 -0.271667 -0.214536 -0.100771 0.481769 -0.017424 0.412091 0.181747 -0.111478 0.383879 0.194116 0.001591 0.271661 -0.074650 -0.165330 0.002219 -0.084757 -0.087372 0.055106 -0.294967 0.371120 0.189194 -0.065667 0.033911 -0.224957 -0.330180 -0.090624 0.347810 0.050516 0.201051 0.283369 0.109335 -0.142209 -0.151450 -0.163075 -0.112107 0.036666 -0.265736 0.023809 -0.125833 -0.255228 0.043487 -0.151414 -0.062734 0.352036 -0.073556 0.123843 0.041763
2 -0.130183 -0.183056 0.077686 -0.045323 0.066756 -0.002367 0.063265 0.234203 0.269124 -0.145248 0.254284 0.387249 -0.082602 -0.126264 0.063362 -0.274953 -0.044993 -0.315996 -0.175218 -0.061626 0.057338 0.045205 0.157413 0.050776 0.095786 -0.009924 -0.207130 -0.013585 0.131669 -0.015699 -0.098236 0.021854 -0.183812 0.000384 -0.060775 -0.239494 0.336091 0.115563 0.063646 0.136242 -0.161523 -0.292796 0.393596 0.486403 -0.139393 0.058091 0.143811 -0.298410 -0.231279 0.020349 -0.010274 -0.085963 -0.079977 0.170085 -0.225356 -0.187135 -0.167819 0.204971 -0.046635 -0.013617 0.184530 -0.240231 -0.028120 0.122555
5 0.077627 -0.409965 0.023620 0.074932 -0.109395 0.059186 0.240643 0.475521 0.289004 -0.101737 0.156698 0.141439 -0.102217 -0.568910 0.476616 -0.539310 0.244364 -0.408088 0.213368 -0.061521 0.038171 -0.153001 -0.169456 -0.026598 0.470633 -0.114779 -0.202203 -0.076541 -0.015379 0.109016 -0.085373 -0.070344 -0.220165 0.082251 -0.183865 -0.408085 0.367993 0.058142 0.133310 -0.150434 -0.383202 -0.182222 0.347526 0.589790 -0.331230 0.251360 0.018089 -0.531638 0.154065 0.260071 -0.279072 0.129925 0.071456 0.442278 -0.496658 -0.097331 -0.129169 -0.077839 -0.035437 -0.050052 0.262349 -0.349232 0.119697 0.447112
3 -0.124160 -0.176914 0.047864 0.005895 0.037774 -0.014173 0.114177 0.306506 0.237934 -0.193034 0.249291 0.306599 -0.105437 -0.257162 0.107890 -0.322110 0.009684 -0.278951 -0.105392 -0.096539 0.038097 0.035988 0.113928 0.053408 0.158430 -0.040246 -0.174902 -0.039640 0.130590 0.005675 -0.123867 -0.059297 -0.232271 0.033734 -0.085071 -0.260758 0.437805 0.094925 0.004803 0.078509 -0.209165 -0.316886 0.429390 0.556082 -0.170837 0.094468 0.207034 -0.354689 -0.171435 0.007888 -0.028011 -0.032384 -0.040018 0.195395 -0.292519 -0.170547 -0.119189 0.096551 -0.120685 0.026230 0.195975 -0.211953 -0.045002 0.253213
6 0.138486 -0.450704 0.020955 0.143626 -0.196826 0.086637 0.312743 0.561086 0.299060 -0.061197 0.109769 0.086620 -0.115673 -0.700719 0.584434 -0.573222 0.272906 -0.418808 0.315597 -0.080538 0.037404 -0.223453 -0.204207 -0.103286 0.577595 -0.103613 -0.181762 -0.110719 -0.042781 0.181516 -0.085509 -0.114258 -0.209368 0.082536 -0.227618 -0.442045 0.445591 0.051566 0.087682 -0.211877 -0.486684 -0.145763 0.366554 0.639955 -0.369815 0.348836 0.048631 -0.591991 0.264855 0.318712 -0.356614 0.185709 0.114662 0.516266 -0.551110 -0.078769 -0.150003 -0.219817 -0.033747 -0.087507 0.329185 -0.337849 0.134465 0.536141
16 -0.115404 -0.112564 0.194429 -0.109140 -0.042536 0.001207 0.021688 -0.041464 0.357719 0.180233 0.091128 0.574219 0.009684 0.259190 -0.087684 0.016716 -0.336661 -0.404307 -0.406462 0.067033 0.202739 -0.019432 0.408589 -0.025957 0.030510 0.291108 -0.165733 0.040636 0.138990 0.041566 -0.058616 0.227722 0.088320 -0.154573 0.012736 -0.211350 0.166590 0.185436 0.055512 0.357930 -0.161181 -0.174220 0.095569 0.277594 0.058975 0.099625 0.128278 0.037318 -0.341827 0.064115 -0.011711 -0.250586 -0.091850 -0.025838 0.121291 -0.173810 -0.439561 0.233581 0.191205 -0.255540 0.229443 -0.233095 0.074922 -0.253040
1 -0.036395 -0.377681 0.068978 -0.013209 0.004823 -0.000599 0.134008 0.434060 0.295371 -0.158904 0.218570 0.202562 -0.057511 -0.443441 0.335737 -0.520465 0.235696 -0.415139 0.126138 -0.061103 0.043238 -0.090376 -0.110761 0.049637 0.350791 -0.111949 -0.220647 -0.013163 0.046972 0.011783 -0.112514 -0.017700 -0.227282 0.080637 -0.153320 -0.396032 0.280916 0.068855 0.212008 -0.102978 -0.300535 -0.272368 0.377892 0.580322 -0.294350 0.120088 -0.030786 -0.485372 0.040298 0.208389 -0.203248 0.067729 -0.012048 0.394526 -0.472090 -0.117845 -0.116007 0.121825 -0.070287 0.011829 0.230428 -0.384777 0.076928 0.352369
0 -0.101385 -0.280396 0.061424 -0.046229 0.046462 -0.005403 0.094931 0.341228 0.242739 -0.208633 0.273939 0.264869 -0.081196 -0.331846 0.219863 -0.437255 0.121095 -0.353299 -0.008114 -0.099858 0.032624 -0.001971 -0.015662 0.079367 0.195581 -0.109474 -0.200069 -0.030406 0.083051 -0.038622 -0.110831 -0.026606 -0.255611 0.050220 -0.091042 -0.315630 0.350577 0.098781 0.136058 -0.026339 -0.227914 -0.310980 0.420654 0.560673 -0.234171 0.090707 0.075987 -0.438292 -0.111558 0.097332 -0.095892 0.014653 -0.056421 0.270915 -0.390051 -0.166657 -0.104411 0.170186 -0.109657 0.043452 0.204266 -0.309612 0.009224 0.297325
14 -0.123786 -0.130092 0.262187 -0.237655 -0.237586 -0.263883 0.043074 -0.140475 0.188538 0.308512 -0.152611 0.438543 0.307974 0.137971 -0.153113 0.037775 -0.490646 -0.377016 -0.293482 0.058178 0.497250 -0.116939 0.486013 0.089449 -0.010813 0.519314 0.098186 0.057210 0.210541 0.019468 -0.085232 0.162925 0.132865 -0.139553 0.049716 -0.299434 0.141869 0.187084 0.026693 0.181559 -0.238339 -0.208257 -0.263554 0.212882 0.118029 0.191480 0.133343 0.257755 -0.137303 -0.011629 -0.196927 -0.235540 0.020841 -0.252271 0.187284 -0.087438 -0.433105 0.131541 0.068019 -0.237827 0.334004 -0.164982 0.256142 -0.204912
4 -0.025355 -0.250632 0.016741 0.066150 -0.011034 0.019463 0.144570 0.410333 0.279590 -0.158679 0.216480 0.229206 -0.083765 -0.352974 0.241757 -0.388663 0.150811 -0.309412 0.024977 -0.035701 0.022838 -0.071151 -0.010130 0.005606 0.312685 -0.067783 -0.218872 -0.044416 0.068315 0.043872 -0.096119 -0.064779 -0.186585 0.058428 -0.148168 -0.307270 0.377122 0.053559 0.076045 0.004022 -0.265962 -0.254074 0.375405 0.552452 -0.221924 0.120398 0.090478 -0.412596 -0.017041 0.098274 -0.120795 0.006895 0.026599 0.304758 -0.374539 -0.103593 -0.104020 0.031920 -0.076144 0.002589 0.206821 -0.276938 0.037636 0.312434
21 -0.177714 -0.102927 0.223915 -0.341545 -0.422468 -0.603693 0.144509 -0.102371 -0.103570 0.188669 -0.298293 0.142504 0.566084 -0.326655 -0.163004 -0.129058 -0.595264 -0.230233 -0.043984 -0.108085 0.738141 -0.133820 0.459598 0.274389 -0.087321 0.572697 0.442417 -0.026726 0.344759 -0.076312 -0.199893 -0.118625 -0.073434 -0.049005 0.051640 -0.398056 0.400040 0.165806 -0.120704 -0.186409 -0.331972 -0.359364 -0.412505 0.319006 0.068520 0.312147 0.300820 0.263107 0.124750 -0.234201 -0.350229 -0.061542 0.173344 -0.448803 0.042074 -0.015998 -0.196955 -0.131933 -0.302591 -0.023292 0.458925 0.006196 0.284840 0.188268
19 0.010421 -0.178843 0.263553 -0.123989 -0.237503 -0.060287 0.040433 -0.108314 0.453644 0.482007 -0.101615 0.626449 0.206108 0.349732 -0.097885 0.125924 -0.423593 -0.522667 -0.393146 0.275209 0.384593 -0.246693 0.500640 -0.075273 0.182192 0.562726 -0.140679 0.072588 0.149737 0.152359 -0.007453 0.333094 0.332442 -0.203075 -0.029967 -0.328821 -0.025115 0.217855 0.151813 0.416684 -0.246773 -0.092098 -0.286780 0.151727 0.125585 0.188221 -0.008107 0.222654 -0.183290 0.151377 -0.193384 -0.357774 -0.007687 -0.116093 0.278338 -0.060448 -0.630502 0.182217 0.372197 -0.429753 0.297854 -0.293456 0.308204 -0.387341
22 -0.165137 -0.123121 0.250458 -0.354050 -0.476313 -0.654333 0.160543 -0.122175 -0.099099 0.241590 -0.351768 0.169372 0.627680 -0.322631 -0.174103 -0.114209 -0.670879 -0.265086 -0.051276 -0.086202 0.814389 -0.171081 0.527305 0.272749 -0.084063 0.664912 0.472164 -0.034698 0.374765 -0.053787 -0.212108 -0.113708 -0.044980 -0.070830 0.054531 -0.436106 0.410729 0.176563 -0.138704 -0.187155 -0.353897 -0.381620 -0.489184 0.331708 0.097439 0.356473 0.307701 0.319868 0.146476 -0.239772 -0.403866 -0.089892 0.182611 -0.494423 0.088714 -0.010602 -0.241206 -0.141992 -0.280401 -0.071445 0.511098 0.010068 0.332744 0.173648
18 0.006571 -0.184120 0.285973 -0.138300 -0.258745 -0.063407 0.037058 -0.137014 0.503695 0.557014 -0.123797 0.699229 0.230973 0.416421 -0.112866 0.156185 -0.486219 -0.564144 -0.462357 0.303620 0.437365 -0.262694 0.575243 -0.089169 0.193992 0.636788 -0.143476 0.083928 0.163332 0.174051 -0.007135 0.383035 0.385682 -0.224559 -0.017749 -0.353743 -0.030799 0.235748 0.154756 0.478272 -0.272161 -0.076978 -0.335219 0.148995 0.150135 0.216049 -0.012729 0.281173 -0.207992 0.164541 -0.205030 -0.404020 0.004279 -0.130370 0.325801 -0.065863 -0.704506 0.186071 0.411473 -0.489790 0.332237 -0.321011 0.334550 -0.462658
10 -0.262034 -0.101916 0.098699 -0.040773 0.169588 0.086498 0.046135 0.197200 0.380925 -0.234253 0.416792 0.626509 -0.243186 0.050806 -0.052813 -0.188743 -0.183336 -0.333819 -0.437559 -0.128717 0.011537 0.181456 0.339406 0.049136 -0.037947 -0.018281 -0.285359 -0.033134 0.170964 -0.052167 -0.138563 0.046374 -0.220282 -0.063395 -0.019082 -0.191960 0.552479 0.183974 -0.053766 0.353777 -0.151946 -0.398963 0.654960 0.636899 -0.078035 0.064179 0.371231 -0.327522 -0.522926 -0.069958 0.158389 -0.163039 -0.163293 0.121108 -0.168625 -0.319133 -0.262873 0.276232 -0.068920 -0.028615 0.209166 -0.230688 -0.178324 0.050369
8 0.195698 -0.476711 0.004719 0.181630 -0.259209 0.111379 0.348674 0.595010 0.343484 0.000314 0.064625 0.088227 -0.112352 -0.716999 0.634749 -0.572675 0.301520 -0.427079 0.332887 -0.030812 0.045682 -0.279284 -0.203719 -0.140306 0.667058 -0.064110 -0.202931 -0.108265 -0.071963 0.226022 -0.069773 -0.095800 -0.169727 0.084918 -0.263205 -0.466151 0.447851 0.020523 0.095617 -0.192357 -0.537311 -0.106102 0.309692 0.652573 -0.368011 0.392221 0.026701 -0.579865 0.317424 0.355225 -0.407493 0.176368 0.176909 0.555658 -0.568037 -0.039448 -0.186893 -0.285075 -0.004618 -0.121085 0.333081 -0.367985 0.176112 0.544440
7 0.162514 -0.458259 -0.009344 0.141607 -0.229667 0.046299 0.325252 0.597195 0.297593 -0.066794 0.073416 0.046026 -0.060597 -0.759529 0.595316 -0.604756 0.312896 -0.403729 0.339379 -0.057251 0.069940 -0.257034 -0.217313 -0.064005 0.629462 -0.095704 -0.177763 -0.106507 -0.038942 0.169415 -0.085006 -0.124521 -0.220646 0.102704 -0.254835 -0.469694 0.431265 0.005734 0.103865 -0.251655 -0.506916 -0.152949 0.305851 0.655924 -0.377217 0.343953 0.021711 -0.574972 0.332123 0.304523 -0.397800 0.194022 0.166620 0.525118 -0.594031 -0.029974 -0.114730 -0.247145 -0.063545 -0.044314 0.323801 -0.351494 0.174323 0.581017
