24 64
15 -0.295694 -0.272815 0.204678 -0.057103 -0.147635 0.177319 0.350216 -0.145137 0.495223 0.127460 0.051114 0.550457 -0.138394 0.485322 0.163771 0.131887 -0.507935 -0.382739 -0.611915 -0.402014 0.195836 0.170148 0.488568 -0.282908 -0.163034 0.237150 -0.053855 -0.094995 -0.146735 -0.167574 -0.213092 0.385548 0.213250 -0.401930 0.205048 -0.035186 0.518861 -0.055386 -0.256231 0.141884 -0.491421 -0.128616 0.283440 0.427523 0.174198 0.234089 0.282549 0.238075 -0.342431 0.138975 -0.196690 0.104129 0.040755 0.022068 0.110200 -0.432967 -0.602156 -0.040512 0.189184 -0.387327 0.526886 -0.138629 -0.127165 -0.523380
18 -0.029152 -0.025749 -0.004492 -0.319788 -0.145854 -0.399106 -0.165149 0.325815 0.195138 0.289164 -0.040605 0.546834 0.560596 -0.317250 -0.078543 -0.599303 -0.496147 -0.303786 -0.332014 0.282217 0.577097 -0.201703 0.611846 0.183890 0.356042 0.560241 -0.016799 0.030644 0.507454 -0.032235 -0.144783 0.159144 -0.083227 0.103274 -0.006548 -0.440090 0.248581 0.142158 0.300036 0.273564 -0.346608 -0.039555 -0.193617 0.254617 -0.092506 0.192187 -0.116144 -0.176730 -0.138421 -0.245784 -0.044914 -0.527931 0.231464 0.136861 -0.242289 0.181403 -0.192163 -0.053373 -0.278080 -0.012075 0.423458 -0.472987 0.232035 0.103376
9 -0.289566 -0.313085 0.164994 -0.096139 -0.127348 0.195653 0.262270 -0.219052 0.376048 0.092236 0.119401 0.445866 -0.261274 0.348409 0.214761 0.188447 -0.335140 -0.260972 -0.344920 -0.438186 0.172632 0.203432 0.251098 -0.158245 -0.269781 0.011971 0.061847 -0.098266 -0.239797 -0.108532 -0.100591 0.243260 0.064834 -0.256063 0.151675 -0.036692 0.458090 0.052437 -0.271158 0.038092 -0.362887 -0.100921 0.342442 0.381712 0.051409 0.349023 0.357292 0.182856 -0.231691 0.178240 -0.194203 0.267406 0.022517 -0.083496 0.021075 -0.454475 -0.441595 -0.013043 0.077058 -0.291353 0.385513 -0.087016 -0.164597 -0.274600
10 -0.212258 -0.403899 0.178486 -0.130542 -0.025982 0.138514 0.118769 -0.254031 0.286327 0.079747 0.125246 0.368865 -0.286138 0.301908 0.218742 0.224897 -0.275672 -0.168056 -0.127324 -0.460708 0.318541 0.185433 0.076057 -0.027293 -0.324851 -0.080036 0.231980 0.010696 -0.243779 -0.124201 -0.097010 0.124330 -0.001458 -0.135724 0.154530 0.017570 0.358391 0.174589 -0.240517 -0.015682 -0.211707 -0.069852 0.409550 0.306494 0.040226 0.504812 0.454441 0.081363 -0.136871 0.175681 -0.260055 0.356296 0.054842 -0.113737 -0.100949 -0.392565 -0.291429 -0.060948 0.025149 -0.221585 0.395947 -0.086753 -0.170112 -0.106015
2 -0.139046 -0.065271 -0.069795 -0.389727 -0.183130 -0.220828 -0.186591 0.197672 0.080479 0.131485 0.169713 0.437105 0.298528 -0.517084 0.100518 -0.524782 -0.191952 -0.200264 0.036247 0.182447 0.424525 -0.112540 0.219100 0.334021 0.056470 0.111585 -0.017938 -0.133345 0.255210 0.023356 0.047564 -0.044959 -0.304793 0.257488 -0.195711 -0.519873 0.293688 0.229775 0.271482 0.041695 -0.228426 -0.049219 -0.034219 0.337701 -0.277803 0.336217 -0.114704 -0.174270 -0.010991 -0.147581 0.044726 -0.244720 0.173666 -0.058554 -0.376206 -0.027891 -0.030730 0.109636 -0.464005 0.098047 0.189305 -0.383072 0.171109 0.422280
12 -0.300087 -0.500481 0.312116 -0.298467 -0.056308 0.126852 0.008225 -0.431803 0.155865 0.236999 0.117114 0.421733 -0.328430 0.326013 0.183358 0.405994 -0.341592 -0.078781 -0.032364 -0.678545 0.463162 0.327066 0.041584 -0.014345 -0.582789 -0.112164 0.467051 0.205476 -0.269340 -0.078935 -0.049905 0.173506 -0.135778 -0.046997 0.189293 0.077889 0.360288 0.303903 -0.263338 0.005330 -0.196756 -0.067437 0.541650 0.338374 0.034099 0.697895 0.596098 0.130973 -0.229603 0.243508 -0.355408 0.457089 0.054198 -0.150009 -0.263715 -0.531067 -0.363356 -0.017850 -0.039969 -0.198802 0.469258 -0.030906 -0.309370 -0.169476
3 -0.046492 -0.112988 0.018444 -0.298517 -0.074813 -0.310385 -0.166204 0.195482 0.107614 0.189787 0.037670 0.383586 0.337581 -0.313745 -0.011257 -0.460432 -0.286501 -0.217402 -0.110087 0.142569 0.475281 -0.129929 0.329950 0.247536 0.214455 0.291623 0.096485 0.045499 0.348219 -0.032699 -0.088067 0.039602 -0.156965 0.167476 -0.006998 -0.358784 0.173703 0.212709 0.244195 0.129032 -0.217505 -0.052165 -0.068954 0.206970 -0.154862 0.260142 0.007813 -0.224547 -0.047973 -0.141824 -0.068542 -0.274487 0.151773 0.053241 -0.276050 0.114022 -0.072897 -0.023906 -0.293025 0.061759 0.290199 -0.369143 0.138313 0.250556
5 -0.074161 -0.298329 -0.019790 -0.151500 0.062473 -0.127548 -0.047652 0.077850 0.270302 -0.070652 0.200976 0.299939 0.001726 -0.098902 0.198823 -0.304590 -0.110961 -0.244912 0.014211 -0.017555 0.318723 -0.056654 0.032516 0.206816 0.049842 -0.032363 0.065149 -0.112151 0.022991 -0.170666 -0.102176 -0.042346 -0.089786 0.025572 0.065277 -0.242830 0.215600 0.216495 0.079689 -0.054621 -0.103753 -0.116845 0.148028 0.234264 -0.149939 0.303366 0.144589 -0.231094 0.034875 -0.022177 -0.139378 0.097612 0.070371 -0.065793 -0.155412 -0.045644 0.017227 0.010957 -0.152902 -0.043896 0.251302 -0.328639 0.076684 0.334432
21 -0.265672 0.069439 -0.088244 -0.572505 -0.398062 -0.163698 -0.246861 0.103517 -0.090411 0.269143 0.188684 0.492698 0.321149 -0.776075 0.093720 -0.494988 -0.206624 -0.113049 0.151023 0.186145 0.474817 -0.065632 0.203717 0.465555 -0.104931 0.038288 -0.010791 -0.186434 0.251229 0.201303 0.218352 -0.090468 -0.497653 0.433622 -0.408159 -0.682890 0.380505 0.293282 0.292445 0.063853 -0.289933 0.030596 -0.092634 0.415505 -0.374804 0.498668 -0.175065 -0.026203 -0.036875 -0.156715 0.184557 -0.296775 0.237376 -0.200779 -0.527492 -0.177145 -0.086628 0.151178 -0.691619 0.187032 0.086991 -0.309686 0.191576 0.532853
6 -0.127598 -0.401390 -0.020458 -0.030356 0.028851 0.096201 0.129372 -0.027437 0.411329 -0.143396 0.262253 0.322401 -0.281397 0.063068 0.378830 -0.120604 -0.089812 -0.280629 0.002720 -0.200309 0.223657 -0.002759 -0.047037 0.112472 -0.041557 -0.217002 0.028647 -0.261497 -0.236861 -0.175636 -0.071291 -0.055471 -0.007834 -0.106200 0.075860 -0.160845 0.350882 0.192361 -0.135599 -0.129312 -0.173842 -0.075390 0.322174 0.295286 -0.137671 0.440317 0.324185 -0.139665 0.075044 0.113524 -0.170172 0.348883 0.045943 -0.141141 -0.056869 -0.235063 -0.060514 -0.062687 -0.051968 -0.160951 0.276381 -0.243013 0.023517 0.309531
8 -0.150841 -0.326463 0.019545 0.038518 -0.045138 0.160529 0.258239 -0.024144 0.479798 -0.081741 0.167907 0.373986 -0.253728 0.227541 0.333450 -0.050637 -0.205417 -0.322674 -0.235213 -0.216279 0.136417 0.025191 0.149978 -0.074603 -0.009958 -0.050004 -0.083809 -0.255122 -0.236119 -0.166100 -0.114548 0.098203 0.122731 -0.255166 0.108652 -0.100987 0.415648 0.043601 -0.194517 -0.020782 -0.293386 -0.071553 0.270818 0.326974 -0.013724 0.313026 0.274399 0.006156 -0.049182 0.124530 -0.155800 0.245287 0.050642 -0.059103 0.062766 -0.271644 -0.245703 -0.082590 0.073168 -0.262445 0.320284 -0.203675 0.006450 0.015147
0 -0.155290 -0.167695 0.010181 -0.411364 -0.066193 -0.233306 -0.258552 0.147587 0.051220 0.082903 0.223486 0.361458 0.234884 -0.438745 0.091885 -0.451376 -0.087191 -0.170080 0.139765 0.078044 0.409356 -0.066552 0.076842 0.328951 -0.061980 0.036734 0.105544 -0.021702 0.211001 -0.053647 0.005622 -0.054431 -0.315315 0.265404 -0.114742 -0.449466 0.232815 0.298879 0.297941 -0.026181 -0.144820 -0.134656 0.083176 0.333642 -0.264596 0.337090 -0.054775 -0.261190 -0.025184 -0.091911 -0.038430 -0.128627 0.100637 -0.050023 -0.425747 -0.039192 0.009526 0.182253 -0.452776 0.116056 0.207911 -0.392648 0.070543 0.427030
1 -0.129474 -0.268379 0.024692 -0.284300 0.028722 -0.194468 -0.168003 0.116353 0.167641 -0.007183 0.221285 0.307263 0.096470 -0.266098 0.148925 -0.373588 -0.057475 -0.211980 0.131077 0.001327 0.360232 -0.059615 0.013388 0.269929 -0.017330 -0.028009 0.118623 -0.035914 0.107626 -0.129953 -0.059264 -0.061115 -0.205146 0.152944 -0.021486 -0.339375 0.199008 0.279424 0.205177 -0.071948 -0.110554 -0.142253 0.157899 0.282403 -0.225780 0.314903 0.061686 -0.273259 0.030653 -0.025710 -0.108773 0.033754 0.063749 -0.044551 -0.309745 -0.038277 0.033762 0.120110 -0.311251 0.048189 0.228566 -0.373798 0.047471 0.402603
7 -0.150900 -0.334386 -0.060939 0.012553 -0.047963 0.191920 0.230125 -0.010240 0.483777 -0.175707 0.246238 0.356166 -0.297103 0.099329 0.410584 -0.106829 -0.106693 -0.308960 -0.130308 -0.186316 0.122908 0.002461 0.038755 0.045830 -0.032109 -0.200357 -0.127399 -0.363408 -0.296883 -0.176047 -0.047214 0.015135 0.038445 -0.208993 0.036944 -0.169114 0.419528 0.068613 -0.185677 -0.106663 -0.261825 -0.074428 0.297556 0.360167 -0.094612 0.371780 0.264796 -0.036387 0.035022 0.114080 -0.122969 0.315743 0.041147 -0.122886 0.014203 -0.283355 -0.143392 -0.049804 -0.006308 -0.190887 0.252887 -0.217552 0.044878 0.212510
11 -0.180040 -0.332783 0.061557 -0.099024 -0.044227 0.129446 0.076167 -0.131355 0.286937 -0.027282 0.164565 0.317057 -0.257203 0.124429 0.283940 0.072683 -0.164365 -0.161159 -0.018910 -0.306151 0.253969 0.089608 0.001792 0.060415 -0.244255 -0.169160 0.086211 -0.125383 -0.258809 -0.105765 -0.012948 0.028188 -0.040354 -0.106574 0.049038 -0.070606 0.359581 0.167349 -0.179148 -0.044270 -0.154191 -0.042803 0.341455 0.302600 -0.046204 0.462874 0.334114 0.053665 -0.052507 0.135361 -0.161889 0.309873 0.063322 -0.149846 -0.105962 -0.345368 -0.169396 -0.011905 -0.062318 -0.159066 0.271371 -0.129856 -0.038667 0.108055
4 -0.029479 -0.184780 0.009452 -0.251516 0.014209 -0.256405 -0.218969 0.183385 0.150611 0.076820 0.103097 0.343686 0.245687 -0.239938 0.054935 -0.367816 -0.210858 -0.174481 0.027782 0.095426 0.464817 -0.115476 0.165294 0.222712 0.084281 0.166179 0.097418 0.035052 0.220943 -0.102656 -0.085803 -0.012894 -0.140562 0.122211 -0.003828 -0.280961 0.174486 0.239791 0.203535 0.066514 -0.118458 -0.083982 0.074734 0.224225 -0.117322 0.300223 0.042092 -0.247850 -0.015689 -0.123325 -0.113384 -0.142391 0.135609 0.023801 -0.288798 0.066012 0.001675 0.008495 -0.247232 0.021051 0.317031 -0.362252 0.114421 0.294510
16 -0.315810 -0.325163 0.217460 -0.017528 -0.165988 0.199962 0.444317 -0.185636 0.577991 0.150625 0.049572 0.607715 -0.221406 0.574456 0.217061 0.153404 -0.565154 -0.457000 -0.698024 -0.467891 0.197430 0.185956 0.539469 -0.317661 -0.109939 0.236780 -0.028725 -0.130688 -0.191960 -0.180292 -0.241032 0.412376 0.253741 -0.463339 0.266441 -0.021155 0.583230 -0.050408 -0.337871 0.140052 -0.554743 -0.105867 0.308193 0.435030 0.165706 0.272621 0.394509 0.263168 -0.352021 0.197256 -0.220307 0.172239 0.046750 0.000810 0.182439 -0.468062 -0.657262 -0.092776 0.240037 -0.460233 0.567762 -0.159246 -0.138744 -0.554351
17 -0.271129 -0.297855 0.190612 -0.005333 -0.148515 0.149525 0.388891 -0.120991 0.550129 0.136467 0.044440 0.566119 -0.159791 0.509377 0.181752 0.109861 -0.515323 -0.427556 -0.639832 -0.381533 0.195033 0.131626 0.514449 -0.289163 -0.059892 0.250070 -0.045743 -0.116187 -0.142626 -0.163934 -0.224664 0.374220 0.248095 -0.423510 0.237440 -0.039356 0.529893 -0.039432 -0.283390 0.150749 -0.503593 -0.115268 0.259756 0.403467 0.146213 0.232107 0.341825 0.219447 -0.314413 0.159682 -0.212876 0.118020 0.049842 0.008136 0.164921 -0.397195 -0.596688 -0.077253 0.217907 -0.418562 0.528742 -0.171081 -0.098245 -0.487676
20 0.041550 -0.126053 0.019106 -0.249144 -0.077690 -0.457387 -0.121259 0.341053 0.264483 0.271552 -0.086478 0.526556 0.534153 -0.223896 -0.072221 -0.613611 -0.527883 -0.353847 -0.378055 0.253522 0.628160 -0.248489 0.641571 0.185413 0.498748 0.604069 0.062264 0.071608 0.521926 -0.102326 -0.222420 0.156870 -0.003413 0.046299 0.112903 -0.365984 0.202485 0.159034 0.267638 0.263178 -0.350961 -0.039683 -0.191638 0.184686 -0.071865 0.206471 0.025205 -0.264989 -0.085883 -0.226926 -0.142342 -0.469955 0.225625 0.163954 -0.180390 0.281343 -0.166205 -0.156702 -0.200313 -0.021106 0.484925 -0.506299 0.246277 0.131471
19 0.019239 -0.045053 -0.005299 -0.262188 -0.136082 -0.399624 -0.121675 0.330908 0.224976 0.270183 -0.078497 0.516226 0.523925 -0.286586 -0.072803 -0.595065 -0.492172 -0.325955 -0.342419 0.294409 0.560201 -0.244036 0.617279 0.190452 0.449899 0.563949 -0.012717 0.018182 0.494143 -0.045567 -0.155584 0.141982 -0.035790 0.065270 0.020950 -0.402655 0.209292 0.134941 0.273933 0.264264 -0.347872 -0.017669 -0.214029 0.198423 -0.085324 0.183517 -0.047817 -0.204745 -0.090766 -0.226492 -0.062121 -0.498800 0.215790 0.133159 -0.176894 0.240526 -0.174636 -0.108201 -0.230132 -0.007319 0.404117 -0.466703 0.261828 0.139447
13 -0.287487 -0.503586 0.314551 -0.310982 -0.041975 0.145811 -0.033355 -0.424784 0.144028 0.207042 0.117772 0.386076 -0.334057 0.293490 0.199278 0.426392 -0.302456 -0.043128 0.031940 -0.691976 0.470944 0.324149 -0.028838 0.005486 -0.658140 -0.158229 0.466760 0.218658 -0.306828 -0.081105 -0.030289 0.157891 -0.155763 -0.047554 0.159648 0.080899 0.369937 0.319459 -0.256934 -0.015310 -0.150704 -0.076086 0.586541 0.365446 0.040484 0.723664 0.584829 0.140448 -0.224985 0.257323 -0.364550 0.484318 0.053315 -0.143290 -0.307407 -0.558974 -0.347820 0.014731 -0.057001 -0.191024 0.460545 -0.023451 -0.312393 -0.149966
14 -0.270872 -0.425143 0.302563 -0.326537 -0.052086 0.117482 -0.065278 -0.408151 0.051085 0.238471 0.082849 0.344547 -0.271025 0.229995 0.133363 0.399506 -0.271939 -0.000284 0.047316 -0.620445 0.439154 0.321529 -0.013525 0.022173 -0.613495 -0.116325 0.458127 0.245671 -0.242305 -0.030416 -0.004423 0.143980 -0.181503 0.021877 0.130914 0.067165 0.293234 0.289847 -0.209975 0.000446 -0.140067 -0.055509 0.500747 0.311300 0.031511 0.650179 0.504253 0.137777 -0.212266 0.219928 -0.312724 0.396439 0.049013 -0.124593 -0.308087 -0.493077 -0.315799 0.026350 -0.090017 -0.139727 0.391469 -0.000816 -0.293516 -0.155152
22 -0.257630 0.097271 -0.124597 -0.580329 -0.394619 -0.178343 -0.296758 0.209268 -0.056301 0.205644 0.213795 0.541200 0.414957 -0.826939 0.100524 -0.579903 -0.218026 -0.132005 0.151752 0.276309 0.479126 -0.105607 0.241739 0.455649 -0.133044 0.088192 -0.129936 -0.241517 0.279409 0.177101 0.205867 -0.080231 -0.508166 0.404995 -0.463432 -0.746366 0.433863 0.247449 0.338597 0.070187 -0.285276 -0.035201 -0.082814 0.513873 -0.338723 0.458851 -0.305929 -0.027363 -0.071921 -0.216254 0.201637 -0.400774 0.236810 -0.171260 -0.554458 -0.182904 -0.085737 0.239807 -0.710883 0.160957 0.132341 -0.370741 0.240797 0.538287
23 -0.280853 0.116500 -0.125367 -0.627353 -0.413830 -0.190751 -0.324849 0.217168 -0.082086 0.232194 0.225530 0.559008 0.444049 -0.884813 0.076770 -0.603254 -0.218813 -0.120319 0.164565 0.287163 0.500015 -0.102545 0.236849 0.492524 -0.143041 0.088671 -0.116752 -0.228089 0.304341 0.196344 0.216076 -0.079708 -0.548237 0.452849 -0.490795 -0.789065 0.448049 0.270233 0.370571 0.081971 -0.299901 -0.033956 -0.087222 0.531319 -0.364429 0.469694 -0.323340 -0.034764 -0.092618 -0.227573 0.221281 -0.428866 0.257590 -0.182790 -0.607671 -0.197079 -0.096731 0.253924 -0.768030 0.184425 0.127138 -0.389740 0.240979 0.559540
