12 64
9 -0.154369 -0.060426 -0.280488 0.027173 0.205001 0.071465 -0.042227 0.203213 0.474190 -0.358102 0.317453 0.349215 -0.171505 -0.047440 0.066312 -0.146194 -0.051579 0.078742 -0.222934 0.062426 -0.040239 0.141919 0.171477 0.041913 -0.115346 -0.040374 -0.145278 -0.379490 -0.159245 -0.142263 -0.039627 -0.021920 -0.048280 -0.128950 0.211334 -0.163474 0.524447 0.076341 -0.289653 0.169178 -0.155618 -0.298724 0.340809 0.413023 -0.109682 0.099119 0.287044 -0.218185 -0.124466 -0.320604 -0.026381 0.106559 -0.011567 -0.118318 0.131397 -0.110017 0.022518 -0.055173 -0.255348 -0.096135 0.105498 -0.205105 -0.103165 0.358313
5 -0.020469 -0.193035 -0.058800 -0.019134 0.048164 0.026111 0.109814 0.183220 0.192160 -0.183553 0.239327 0.123323 -0.073810 -0.263217 0.191942 -0.298677 0.110468 -0.247082 -0.028774 -0.057407 -0.026380 -0.040756 -0.096450 0.123010 0.160603 -0.170243 -0.082169 -0.194008 -0.002910 -0.037561 -0.062230 -0.050653 -0.150945 0.011830 0.022898 -0.265425 0.209819 0.105524 0.007004 -0.166649 -0.162021 -0.197345 0.222973 0.295006 -0.234152 0.076976 0.086772 -0.341538 0.029518 0.067464 -0.093665 0.119041 -0.089743 0.066728 -0.135005 -0.104777 -0.015768 0.060848 -0.048231 -0.007181 0.130850 -0.189121 0.012981 0.286345
0 -0.061749 -0.200492 -0.009305 -0.058876 0.067704 -0.007088 0.093766 0.196335 0.147675 -0.194902 0.280525 0.109501 -0.040569 -0.280337 0.155527 -0.335053 0.151510 -0.277867 -0.015743 -0.073874 -0.033186 -0.047612 -0.114395 0.153057 0.137776 -0.171354 -0.047957 -0.161813 0.051251 -0.062082 -0.099093 -0.067970 -0.171053 0.056125 0.013155 -0.306138 0.206581 0.125664 0.068788 -0.217558 -0.163240 -0.259486 0.236683 0.324301 -0.246560 0.040907 0.056914 -0.384169 0.010667 0.080610 -0.081221 0.091706 -0.123889 0.062897 -0.182853 -0.108814 -0.017450 0.138756 -0.098645 0.028009 0.140870 -0.214846 -0.015885 0.282388
4 -0.143113 -0.096389 -0.140357 -0.019298 0.181161 0.005240 -0.003993 0.199783 0.308896 -0.303780 0.325524 0.239650 -0.095758 -0.132236 0.054595 -0.225954 0.048093 -0.080306 -0.128596 0.009907 -0.026152 0.070834 0.036717 0.111885 -0.022480 -0.089470 -0.085936 -0.250569 -0.022201 -0.125871 -0.102298 -0.069517 -0.107110 -0.016390 0.111206 -0.235441 0.381154 0.107098 -0.109617 -0.001569 -0.131373 -0.319046 0.305774 0.383934 -0.150959 0.035132 0.176938 -0.295097 -0.084809 -0.168014 -0.016530 0.074547 -0.061356 -0.051742 -0.019695 -0.101340 0.024469 0.059155 -0.207762 -0.028302 0.123238 -0.213293 -0.083190 0.309513
7 0.301898 -0.252340 -0.143824 0.097813 -0.264042 0.214773 0.238130 0.195295 0.252068 0.013853 -0.015796 0.027460 -0.105359 -0.431715 0.542354 -0.240316 0.099789 -0.337184 0.030032 -0.089832 -0.027555 -0.233283 -0.172414 -0.007924 0.485882 -0.248465 -0.250463 -0.253462 -0.218517 0.109421 0.171919 0.112599 -0.127538 -0.210935 -0.069518 -0.169257 0.034301 0.005011 -0.056124 -0.210097 -0.319433 0.141476 0.116510 0.174270 -0.260049 0.287565 0.077419 -0.284293 0.231709 0.333505 -0.279654 0.262009 -0.046697 0.289257 -0.169468 -0.042355 -0.105888 -0.215039 0.319794 -0.058673 0.185229 -0.107833 0.234202 0.307739
6 0.141538 -0.210946 -0.101101 0.053738 -0.108451 0.124876 0.166367 0.192617 0.222621 -0.076339 0.104767 0.072646 -0.090659 -0.336740 0.364049 -0.249857 0.095008 -0.279467 0.005328 -0.072296 -0.032484 -0.139978 -0.125800 0.032048 0.320214 -0.198354 -0.163317 -0.228125 -0.116388 0.045379 0.060818 0.029696 -0.120651 -0.111343 -0.015499 -0.202677 0.125555 0.059498 -0.042518 -0.177733 -0.243643 -0.017086 0.172812 0.221588 -0.240110 0.183180 0.088363 -0.304953 0.132731 0.197138 -0.183944 0.189243 -0.071975 0.174596 -0.130974 -0.072209 -0.064471 -0.091723 0.142185 -0.049177 0.166191 -0.136790 0.121757 0.287636
2 -0.091015 -0.177205 -0.032569 -0.050632 0.112189 -0.014137 0.077197 0.199893 0.169903 -0.228132 0.298345 0.146201 -0.053941 -0.241960 0.108612 -0.318080 0.120294 -0.224017 -0.040045 -0.055051 -0.031505 -0.004810 -0.070324 0.145865 0.082524 -0.149868 -0.046238 -0.177137 0.056276 -0.069374 -0.110803 -0.088303 -0.162562 0.066790 0.031935 -0.289117 0.254212 0.122035 0.029154 -0.168881 -0.140007 -0.280483 0.263202 0.335239 -0.232914 0.025601 0.083067 -0.369503 -0.012061 0.008350 -0.052859 0.075872 -0.108154 0.034224 -0.146025 -0.114325 0.002710 0.136417 -0.144175 0.018908 0.126122 -0.206596 -0.047428 0.277508
3 -0.083145 -0.168809 -0.058383 -0.032776 0.098238 0.007862 0.074288 0.199736 0.210793 -0.229868 0.285131 0.150390 -0.078093 -0.243859 0.135900 -0.300426 0.116247 -0.214430 -0.055558 -0.049437 -0.038051 -0.006170 -0.060809 0.137136 0.106527 -0.149347 -0.072904 -0.196895 0.017349 -0.065480 -0.092374 -0.064900 -0.153930 0.024487 0.045251 -0.281995 0.268328 0.118227 -0.005007 -0.130632 -0.158799 -0.269670 0.261930 0.347764 -0.221803 0.050867 0.111326 -0.353294 -0.019526 0.007632 -0.062635 0.095943 -0.104827 0.036074 -0.124421 -0.111890 -0.011099 0.091668 -0.123124 0.007337 0.127105 -0.206044 -0.031791 0.305677
8 0.344320 -0.279598 -0.156762 0.130037 -0.305421 0.247279 0.266544 0.203759 0.270266 0.044612 -0.046937 0.024713 -0.131380 -0.449737 0.610001 -0.245389 0.089539 -0.348880 0.050321 -0.087955 -0.036848 -0.254422 -0.180247 -0.053884 0.530873 -0.248997 -0.273292 -0.275388 -0.262543 0.146876 0.204975 0.128079 -0.111841 -0.240547 -0.064963 -0.156755 0.041927 0.004918 -0.075750 -0.196064 -0.341769 0.194198 0.101939 0.158886 -0.275563 0.331372 0.080760 -0.284752 0.253638 0.371619 -0.312155 0.281784 -0.032289 0.315070 -0.157546 -0.049755 -0.130200 -0.264236 0.364597 -0.098019 0.189441 -0.105440 0.270490 0.321633
10 -0.181007 -0.060648 -0.250906 0.014378 0.236254 0.051370 -0.042144 0.196639 0.443150 -0.374692 0.345542 0.342261 -0.166487 -0.030671 0.028482 -0.155640 -0.032588 0.066775 -0.217201 0.057319 -0.029178 0.146463 0.156002 0.078372 -0.134302 -0.046249 -0.115537 -0.354230 -0.118517 -0.158967 -0.078761 -0.058624 -0.053196 -0.080199 0.194345 -0.179007 0.522372 0.084509 -0.259779 0.141662 -0.132469 -0.329662 0.349886 0.420080 -0.103054 0.080767 0.281740 -0.231403 -0.129278 -0.325417 0.000646 0.088052 -0.012450 -0.135709 0.107108 -0.110201 0.038065 -0.019831 -0.289949 -0.074145 0.101338 -0.210744 -0.124035 0.348613
11 -0.184290 -0.067740 -0.229157 0.009539 0.230113 0.034579 -0.048000 0.196994 0.420749 -0.361816 0.330227 0.324558 -0.155342 -0.035081 0.035064 -0.168767 -0.032693 0.050774 -0.200618 0.043870 -0.025705 0.138578 0.149085 0.074923 -0.127844 -0.050280 -0.112642 -0.332139 -0.110176 -0.155470 -0.070797 -0.053395 -0.053719 -0.083000 0.193901 -0.170376 0.499234 0.093921 -0.236213 0.137554 -0.118593 -0.313754 0.338985 0.397955 -0.113146 0.070480 0.264550 -0.221500 -0.130962 -0.298974 0.001583 0.085195 -0.021519 -0.125763 0.098380 -0.116951 0.036470 0.001826 -0.282125 -0.068820 0.096179 -0.209925 -0.107631 0.337526
1 -0.077885 -0.174277 -0.043514 -0.041233 0.094784 -0.003634 0.072617 0.198436 0.199279 -0.213731 0.271157 0.140331 -0.056194 -0.239467 0.126814 -0.295212 0.119049 -0.218960 -0.036108 -0.050788 -0.026931 -0.016259 -0.069182 0.133557 0.105143 -0.143089 -0.057908 -0.178107 0.027979 -0.070754 -0.100949 -0.062501 -0.148079 0.033830 0.030446 -0.280483 0.237354 0.108107 0.015004 -0.158130 -0.158765 -0.262026 0.254681 0.331780 -0.216691 0.039067 0.087474 -0.346769 0.002169 0.019857 -0.071717 0.097346 -0.100539 0.046162 -0.136422 -0.099756 -0.006285 0.102540 -0.116384 0.008503 0.136925 -0.208610 -0.035969 0.281387
