19 64
13 0.089857 -0.176213 0.275237 -0.413197 0.073789 0.310331 0.144848 -0.518112 -0.045968 0.082713 -0.225479 -0.342939 0.104572 -0.212807 0.187272 0.047579 -0.346277 -0.056901 -0.065909 -0.438338 0.535229 0.195228 -0.442421 0.186828 -0.577807 -0.065128 0.138541 0.197844 -0.097416 -0.026679 -0.132785 0.227371 0.157582 -0.139416 0.092021 -0.061783 -0.121675 0.282410 0.201157 -0.004199 0.045604 0.155366 -0.068309 -0.046354 0.150622 0.501210 -0.195898 0.054962 0.024368 0.074355 -0.321940 0.334142 0.076943 0.318537 -0.263694 -0.447156 -0.434093 -0.468483 0.325865 -0.025676 0.282168 0.416022 0.032398 -0.475168
4 -0.012696 0.032189 0.168233 -0.115673 0.024012 -0.022977 0.192980 -0.085679 0.065167 0.098099 0.099605 0.028341 0.067441 -0.231286 0.214016 -0.308337 -0.174615 -0.602659 -0.359447 -0.221547 0.216087 0.046442 -0.173986 0.121636 0.231471 -0.008052 -0.012608 0.073093 0.208762 0.047184 -0.251619 0.109830 -0.101156 -0.107449 0.109623 -0.377124 0.248420 0.299796 0.080489 -0.028758 -0.124968 -0.080499 0.043933 0.277791 -0.081892 0.076670 0.002123 -0.132436 -0.284334 0.271809 0.036382 -0.008359 -0.033859 0.251712 -0.121796 -0.273740 -0.334884 -0.099004 0.326529 -0.281566 0.351735 -0.122081 0.111534 -0.238218
16 -0.005270 0.161276 0.213078 -0.046566 0.015843 -0.121331 0.288258 -0.095757 0.104879 0.220466 0.103859 0.111777 0.089991 -0.169596 0.296755 -0.411414 -0.325171 -0.945107 -0.603409 -0.273540 0.264270 0.032234 -0.140715 0.079521 0.483151 0.052210 0.016386 0.080878 0.322983 0.065166 -0.392894 0.143756 -0.105238 -0.215966 0.199062 -0.487718 0.409767 0.386383 -0.001901 -0.065057 -0.171640 -0.018270 0.039887 0.314242 -0.085178 -0.012314 0.070275 -0.063798 -0.451414 0.455391 0.178927 -0.076671 -0.016024 0.299778 0.002429 -0.313677 -0.430295 -0.108528 0.528306 -0.574880 0.531610 -0.273078 0.176834 -0.441435
7 -0.085265 -0.253406 0.072081 -0.182735 0.009445 0.148592 0.106135 -0.055841 0.154980 -0.075637 0.095122 0.071784 -0.102348 -0.177625 0.212973 -0.188009 -0.027024 -0.141426 -0.088541 -0.210262 0.187277 0.080610 -0.074285 0.180390 -0.089628 -0.102198 -0.032538 -0.006780 -0.064781 -0.060038 -0.079221 0.093752 -0.085749 0.000876 0.013909 -0.180769 0.175333 0.104176 0.094811 0.024781 -0.156547 -0.099995 0.152166 0.299774 -0.060214 0.337806 0.058629 -0.156585 -0.060995 0.061290 -0.164560 0.152063 0.022155 0.152399 -0.293475 -0.228656 -0.205921 -0.117956 -0.059274 0.089378 0.145833 -0.048068 -0.017119 0.112400
6 -0.006774 -0.156307 0.158893 -0.224413 0.041267 0.169131 0.128973 -0.213464 0.037520 0.014735 -0.011702 -0.095813 0.007003 -0.193741 0.186893 -0.115277 -0.155335 -0.190510 -0.111916 -0.272303 0.284445 0.104393 -0.221915 0.148432 -0.179206 -0.069197 0.026485 0.067022 -0.014305 -0.002593 -0.112530 0.121038 0.013376 -0.056413 0.065206 -0.160919 0.051568 0.206377 0.121497 0.001175 -0.070223 0.002867 0.037137 0.131034 -0.001112 0.313761 -0.056199 -0.085673 -0.055263 0.099623 -0.165053 0.167017 0.006352 0.211251 -0.212703 -0.301813 -0.292428 -0.228383 0.159461 -0.026730 0.217602 0.123047 0.038796 -0.161680
8 -0.149594 -0.428641 0.054945 -0.197940 -0.006869 0.237631 0.093677 -0.023533 0.251306 -0.127838 0.108124 0.179361 -0.234830 -0.084914 0.272809 -0.165252 0.002080 0.021926 -0.004998 -0.233873 0.222425 0.099533 0.026876 0.183924 -0.225840 -0.111475 -0.015857 -0.033817 -0.208427 -0.130806 -0.049386 0.083169 -0.061714 0.053209 -0.025552 -0.102569 0.281870 0.016717 0.080344 0.074781 -0.217053 -0.092159 0.259354 0.390523 -0.027359 0.539908 0.147377 -0.149475 -0.007070 0.003537 -0.243866 0.208687 0.117340 0.118064 -0.405925 -0.232666 -0.192259 -0.143315 -0.287723 0.194257 0.109868 -0.104945 -0.091550 0.261722
2 -0.045310 -0.124851 0.111373 -0.207648 -0.042405 0.081185 0.165133 0.002083 0.081842 -0.017756 0.118329 0.042959 0.018513 -0.320565 0.162090 -0.292748 0.024701 -0.319831 -0.211349 -0.186464 0.074134 0.042018 -0.087648 0.166671 0.048492 -0.044501 -0.031252 0.006974 0.088314 -0.008517 -0.143732 0.129474 -0.177585 -0.003663 0.011423 -0.348094 0.214238 0.116131 0.139206 -0.094586 -0.230766 -0.212312 0.110630 0.391899 -0.115605 0.143020 -0.012190 -0.241924 -0.152514 0.154182 -0.113303 0.041019 -0.075703 0.234853 -0.281705 -0.196948 -0.277594 0.007067 0.017609 0.023040 0.182055 -0.113538 -0.044464 0.008409
10 -0.231510 -0.650016 0.008366 -0.206444 0.007304 0.350319 0.086785 -0.009011 0.410679 -0.233395 0.152731 0.332945 -0.431754 0.044185 0.368443 -0.130916 0.003146 0.197585 0.072226 -0.288836 0.320677 0.140523 0.125197 0.241250 -0.387257 -0.177322 -0.007582 -0.085067 -0.394482 -0.243592 -0.026914 0.047053 -0.044311 0.101888 -0.071261 0.000359 0.429583 -0.063373 0.027757 0.147703 -0.261147 -0.071487 0.431183 0.508147 0.015433 0.828494 0.314533 -0.136094 0.057912 -0.082977 -0.325520 0.324245 0.255537 0.054808 -0.546320 -0.265584 -0.147954 -0.218276 -0.536485 0.320424 0.091498 -0.164048 -0.164709 0.471551
5 -0.012790 -0.019278 0.150651 -0.113620 0.049398 0.017098 0.182850 -0.149694 0.076653 0.086101 0.059318 0.015375 0.022775 -0.157703 0.226470 -0.244919 -0.220573 -0.506805 -0.305485 -0.233410 0.266908 0.077205 -0.180547 0.121710 0.142616 -0.027313 0.002381 0.062583 0.132993 0.033597 -0.221210 0.102505 -0.043546 -0.107225 0.124557 -0.287789 0.195504 0.286129 0.056409 0.008944 -0.076333 -0.002767 0.026912 0.187539 -0.050233 0.153120 0.008751 -0.071461 -0.225135 0.227081 0.005918 0.051999 0.010636 0.211615 -0.094203 -0.291929 -0.306028 -0.169669 0.316646 -0.266895 0.321128 -0.060323 0.123345 -0.236662
3 -0.058341 -0.070232 0.133253 -0.149105 0.006126 0.029398 0.166621 -0.045156 0.078717 0.020383 0.115731 0.038643 0.006339 -0.253411 0.186832 -0.292506 -0.060118 -0.435650 -0.259709 -0.201876 0.136760 0.054797 -0.119494 0.158000 0.145459 -0.043084 -0.028153 0.034276 0.128165 0.019369 -0.183233 0.107952 -0.135368 -0.042307 0.066984 -0.340502 0.209419 0.204639 0.102511 -0.034201 -0.165201 -0.142620 0.077913 0.316975 -0.104400 0.122540 0.012674 -0.177952 -0.208993 0.202083 -0.034408 0.031321 -0.061354 0.214089 -0.192225 -0.237515 -0.285179 -0.047650 0.145743 -0.102075 0.235231 -0.112151 0.041574 -0.065483
9 -0.120963 -0.377986 0.056911 -0.291297 -0.059694 0.229217 0.111208 0.015528 0.211332 -0.130910 0.113724 0.111505 -0.117074 -0.271904 0.202192 -0.218639 0.098364 0.006056 -0.039015 -0.215764 0.097789 0.080359 0.003082 0.200185 -0.231870 -0.089614 -0.023465 -0.053274 -0.145054 -0.117605 -0.050102 0.160188 -0.150329 0.046284 -0.037108 -0.230607 0.234911 -0.016926 0.145499 -0.047681 -0.305399 -0.237236 0.224474 0.473131 -0.084394 0.405192 0.048465 -0.254928 -0.009940 0.012390 -0.304338 0.190137 -0.005793 0.185943 -0.437830 -0.198361 -0.242026 -0.038081 -0.289832 0.261228 0.090298 -0.101301 -0.167475 0.251855
1 -0.147335 -0.310319 0.055658 -0.238390 -0.089275 0.118852 0.123700 0.143507 0.217281 -0.110997 0.174238 0.175619 -0.086171 -0.301703 0.176404 -0.319371 0.179298 -0.144662 -0.109840 -0.163834 -0.011396 0.017816 0.075371 0.194010 -0.015453 -0.062780 -0.037318 -0.060721 -0.037971 -0.109209 -0.096984 0.147994 -0.230373 0.060485 -0.054280 -0.335427 0.296836 -0.039810 0.147130 -0.116562 -0.368192 -0.322262 0.243256 0.562600 -0.147390 0.244498 0.070759 -0.302330 -0.074632 0.096754 -0.218020 0.094419 -0.062247 0.191357 -0.419230 -0.122434 -0.219272 0.109911 -0.306764 0.222317 0.101208 -0.256426 -0.178254 0.290775
0 -0.094905 -0.243093 0.085289 -0.246085 -0.068973 0.138707 0.135296 0.036315 0.151453 -0.068107 0.131231 0.093850 -0.043169 -0.289349 0.179052 -0.271648 0.092120 -0.179636 -0.143069 -0.188785 0.053919 0.037640 -0.016857 0.182555 -0.057094 -0.055430 -0.022962 -0.030187 -0.019730 -0.077642 -0.104862 0.151380 -0.173003 0.020130 -0.014429 -0.311222 0.244996 0.033563 0.147348 -0.095782 -0.296893 -0.249997 0.166494 0.460008 -0.103772 0.247722 0.023885 -0.254208 -0.096459 0.104300 -0.196997 0.092682 -0.053752 0.199072 -0.358620 -0.172323 -0.261174 0.027093 -0.162668 0.143195 0.136775 -0.155097 -0.116660 0.145396
15 0.082101 -0.217654 0.326805 -0.473631 0.120700 0.394373 0.156023 -0.634801 -0.085642 0.075406 -0.257725 -0.425292 0.109675 -0.225178 0.215384 0.073825 -0.406313 -0.041516 -0.050803 -0.505296 0.628978 0.249040 -0.529527 0.216320 -0.682802 -0.083822 0.129498 0.219471 -0.127656 -0.013306 -0.127481 0.249263 0.229527 -0.144896 0.127170 -0.035923 -0.221745 0.337088 0.247048 0.034950 0.066978 0.207789 -0.114713 -0.121995 0.184311 0.591961 -0.271380 0.063434 0.055449 0.051486 -0.366814 0.385219 0.065672 0.354597 -0.275721 -0.539769 -0.500713 -0.579897 0.399070 -0.006113 0.310339 0.548410 0.085292 -0.558474
17 -0.020955 0.129083 0.207806 -0.030704 0.010579 -0.121361 0.279026 -0.069989 0.135956 0.222231 0.118939 0.150215 0.075457 -0.142218 0.299824 -0.401226 -0.318211 -0.927063 -0.590034 -0.260228 0.277064 0.018617 -0.107675 0.069967 0.484421 0.059061 0.009899 0.076573 0.312300 0.068499 -0.379982 0.133190 -0.087671 -0.200775 0.185781 -0.481224 0.430518 0.383495 -0.006050 -0.035193 -0.180033 -0.021730 0.053046 0.331117 -0.090026 0.019238 0.088354 -0.058485 -0.438526 0.443366 0.166381 -0.083902 0.004594 0.281216 -0.009860 -0.312702 -0.428620 -0.104765 0.494196 -0.567168 0.532614 -0.289837 0.179371 -0.411811
14 0.052212 -0.236254 0.277040 -0.416575 0.104596 0.351625 0.126489 -0.530619 -0.043326 0.049144 -0.214580 -0.328514 0.055395 -0.189362 0.205846 0.057682 -0.332694 -0.010870 -0.024772 -0.446685 0.554514 0.225484 -0.436958 0.203675 -0.607147 -0.083422 0.118150 0.188282 -0.146187 -0.022894 -0.100307 0.212147 0.178801 -0.107889 0.103734 -0.029119 -0.153632 0.279284 0.203225 0.041036 0.039616 0.168542 -0.055835 -0.059444 0.150672 0.558929 -0.194042 0.049179 0.052022 0.043487 -0.337691 0.351829 0.075386 0.301937 -0.273671 -0.471356 -0.427751 -0.489648 0.283868 0.016142 0.259211 0.438185 0.060211 -0.428018
18 -0.026758 0.150551 0.211058 -0.032383 0.017922 -0.147414 0.289086 -0.047289 0.143949 0.237281 0.146013 0.171172 0.088081 -0.181000 0.326335 -0.473164 -0.322463 -1.017240 -0.647402 -0.264068 0.277850 0.017666 -0.105072 0.083114 0.567915 0.065231 0.001028 0.076406 0.358652 0.078946 -0.412931 0.145284 -0.120608 -0.203544 0.207313 -0.543777 0.466130 0.412616 0.002498 -0.039585 -0.206522 -0.036173 0.057555 0.371928 -0.118646 -0.001287 0.085586 -0.092037 -0.484998 0.480593 0.195488 -0.111864 -0.010109 0.318658 -0.017011 -0.318390 -0.449681 -0.097179 0.520211 -0.605952 0.571524 -0.342895 0.192536 -0.416597
11 -0.266318 -0.670298 0.016603 -0.214966 0.029575 0.333777 0.053853 -0.003697 0.402867 -0.254165 0.162001 0.320728 -0.433116 0.025613 0.378242 -0.156146 0.005505 0.194393 0.095284 -0.303308 0.323221 0.153513 0.120863 0.250234 -0.385176 -0.198990 -0.033537 -0.079592 -0.396486 -0.237842 0.003298 0.053958 -0.047629 0.093623 -0.044492 0.010893 0.392706 -0.028903 0.048901 0.188110 -0.240209 -0.071388 0.428331 0.484689 -0.015903 0.823594 0.298838 -0.142822 0.047615 -0.086304 -0.326621 0.332598 0.219889 0.052304 -0.545088 -0.295283 -0.142407 -0.199747 -0.537596 0.347414 0.076661 -0.149698 -0.127291 0.505744
12 -0.294129 -0.691815 -0.000921 -0.212368 0.000336 0.311753 0.072500 0.055293 0.436785 -0.260504 0.230333 0.397435 -0.455093 -0.005791 0.393906 -0.215881 0.048860 0.138592 0.062062 -0.293415 0.277744 0.143300 0.166489 0.261271 -0.308899 -0.203724 -0.045298 -0.105250 -0.370156 -0.242787 -0.015026 0.055481 -0.120061 0.118501 -0.057872 -0.056028 0.469787 -0.041544 0.046066 0.168348 -0.303739 -0.142721 0.473820 0.589727 -0.059337 0.814760 0.340258 -0.205593 0.006682 -0.066377 -0.321097 0.309921 0.206771 0.048494 -0.588666 -0.283653 -0.145211 -0.144058 -0.585858 0.356394 0.089772 -0.237270 -0.160434 0.585282
