19 64
14 -0.456063 -0.422466 0.485370 -0.392474 0.114026 0.155999 0.027805 -0.240674 -0.014817 0.143144 -0.265766 0.388495 -0.307448 0.238449 0.390527 -0.210915 -0.189094 -0.414882 -0.224122 -0.630601 0.354014 0.471593 0.228585 0.137885 -0.113362 0.116486 0.222151 0.260130 -0.389804 -0.128710 -0.082842 0.329998 -0.129288 -0.028502 0.373255 -0.044277 0.184768 -0.075417 -0.068818 -0.104740 -0.545902 0.162888 0.379850 0.343837 0.059005 0.281293 0.184627 0.283524 -0.283424 0.533126 -0.042591 0.140142 -0.057634 0.291522 -0.108237 -0.389526 -0.456954 0.280614 -0.248686 -0.257300 0.296166 -0.495088 0.141027 -0.416213
12 -0.279284 -0.330779 0.235280 -0.239627 -0.044175 0.119982 0.026894 -0.124243 0.119260 0.178466 -0.116278 0.380549 -0.210240 0.143382 0.282353 -0.076364 -0.197512 -0.194934 -0.161934 -0.388514 0.251990 0.280951 0.257584 -0.014031 -0.097165 0.111828 0.130090 0.125090 -0.255781 -0.040247 -0.017735 0.273740 -0.102622 -0.042326 0.204342 -0.036832 0.246694 -0.031671 -0.097648 0.054391 -0.413839 0.083708 0.278782 0.315481 0.014747 0.340086 0.193777 0.159360 -0.205823 0.278139 -0.134646 0.111799 0.039639 0.170336 -0.144088 -0.275679 -0.349730 0.071284 -0.165968 -0.176810 0.261516 -0.308238 -0.002281 -0.182434
4 -0.051815 -0.172659 -0.092706 0.080432 0.069924 -0.101266 0.226380 0.212154 0.275621 -0.182485 0.381111 0.198139 -0.127696 -0.373689 0.115143 -0.376845 0.131149 -0.426407 -0.098974 0.052314 -0.050564 -0.000810 -0.138996 0.182528 0.397675 -0.174331 -0.170789 -0.161750 0.189999 0.151669 -0.143146 -0.129263 -0.275287 0.114292 -0.025108 -0.482228 0.316437 0.258468 -0.003661 0.040305 -0.059474 -0.387804 0.168399 0.447453 -0.366138 -0.003501 0.160184 -0.419697 -0.107572 0.049074 -0.053743 0.061134 -0.066826 0.020180 -0.130610 -0.197516 -0.062272 0.051192 0.087909 -0.095542 0.065894 -0.193390 0.060074 0.407390
10 -0.200323 -0.238454 -0.009541 -0.095352 -0.105420 -0.009720 0.055257 0.083025 0.298739 0.178456 0.120906 0.538893 -0.055903 0.169526 -0.018555 -0.028221 -0.121666 -0.005012 -0.294018 0.003739 0.174591 0.084983 0.476809 -0.011219 -0.049011 0.210345 0.036299 -0.002549 0.031191 0.070146 -0.014917 0.132860 -0.038900 0.156047 -0.004936 -0.183285 0.386319 -0.046528 -0.068428 0.258889 -0.263259 -0.141366 0.094800 0.395601 -0.073400 0.267064 0.170411 0.092051 -0.143086 -0.062763 -0.125280 -0.145077 0.189353 -0.041603 -0.145228 -0.116524 -0.238975 0.099140 -0.304513 -0.051625 0.108896 -0.258728 -0.141476 -0.019576
9 -0.086626 -0.191543 -0.010717 -0.041245 -0.069860 0.017010 0.104731 0.072766 0.245169 0.066399 0.121426 0.287931 -0.116874 -0.131868 0.150877 -0.135889 -0.077805 -0.169969 -0.130031 -0.090077 0.085389 0.083782 0.121004 -0.013392 0.102604 0.023641 -0.029542 -0.035320 -0.001961 0.101356 -0.043084 0.096993 -0.155495 0.008797 0.034033 -0.222961 0.324549 0.105572 -0.080469 0.145636 -0.207573 -0.137502 0.180620 0.367738 -0.150597 0.224023 0.180444 -0.118104 -0.142066 0.065465 -0.140170 0.059631 0.051097 0.090897 -0.151026 -0.184297 -0.204844 -0.052444 -0.025192 -0.121034 0.161118 -0.167567 -0.055402 0.131989
3 -0.148575 -0.180528 -0.031827 0.010685 0.052213 -0.088696 0.169192 0.154119 0.223212 -0.082849 0.294382 0.305257 -0.096922 -0.129031 0.003387 -0.269919 0.085930 -0.283938 -0.189777 0.058631 0.000814 0.043279 0.098171 0.165746 0.240716 -0.026147 -0.088994 -0.091481 0.165788 0.113381 -0.113730 -0.071138 -0.174883 0.191387 -0.014110 -0.381463 0.289904 0.118548 0.008229 0.092603 -0.108250 -0.322703 0.095067 0.394951 -0.254744 0.010424 0.124777 -0.212946 -0.120221 0.003163 -0.019058 -0.071207 -0.003333 -0.041583 -0.098092 -0.150006 -0.103133 0.156558 -0.105717 -0.043423 0.013605 -0.225392 0.005441 0.219630
8 0.058297 -0.223984 -0.016659 -0.027689 -0.221658 0.138930 0.140610 0.034015 0.282594 0.160955 0.016972 0.175289 -0.181554 -0.329921 0.388262 -0.088440 -0.168478 -0.182145 0.003953 -0.241691 0.096312 0.061350 -0.033458 -0.173883 0.123684 -0.043194 -0.030565 -0.035527 -0.137726 0.147466 -0.000429 0.209504 -0.212876 -0.193655 0.033465 -0.160526 0.368161 0.173464 -0.155479 0.129351 -0.296424 -0.007480 0.293985 0.388034 -0.140213 0.444455 0.257226 -0.198985 -0.131589 0.198938 -0.297560 0.278826 0.052636 0.271003 -0.256546 -0.248873 -0.298728 -0.341079 0.196161 -0.207878 0.321802 -0.072652 -0.086747 0.201183
2 -0.163734 -0.187263 -0.091710 0.021095 0.066744 -0.150664 0.183435 0.225536 0.273513 -0.112715 0.385918 0.395422 -0.038679 -0.104079 -0.091719 -0.313812 0.124173 -0.276589 -0.262736 0.170191 -0.011158 0.003225 0.186650 0.218811 0.264572 -0.006267 -0.124864 -0.138125 0.261012 0.119021 -0.117216 -0.115200 -0.173129 0.282908 -0.058880 -0.455541 0.313454 0.096365 0.045841 0.113354 -0.077928 -0.411326 0.040452 0.430741 -0.312357 -0.056764 0.091547 -0.233367 -0.099328 -0.088845 -0.001097 -0.168993 0.023024 -0.114847 -0.094803 -0.112875 -0.059281 0.259017 -0.186683 0.008337 -0.043225 -0.265502 -0.005727 0.250225
5 -0.137626 -0.208929 -0.143649 0.104483 0.162243 -0.202836 0.280055 0.282784 0.315205 -0.291539 0.561356 0.311506 -0.109372 -0.315067 -0.031300 -0.483224 0.243199 -0.490064 -0.193892 0.206163 -0.100627 -0.019371 -0.071264 0.333249 0.476996 -0.184747 -0.214281 -0.237521 0.327897 0.154896 -0.193461 -0.250393 -0.287171 0.297530 -0.054469 -0.632393 0.330251 0.252028 0.059063 0.036770 0.004653 -0.569715 0.082884 0.501551 -0.469820 -0.155030 0.125249 -0.475022 -0.097252 -0.053913 0.020352 -0.069786 -0.074874 -0.144579 -0.080823 -0.176923 0.013843 0.257041 -0.042224 -0.031383 -0.062961 -0.280873 0.085077 0.489107
13 -0.075905 -0.271077 0.079051 -0.143913 -0.199469 0.136985 0.064720 -0.046863 0.248665 0.250185 -0.076665 0.319147 -0.163756 -0.073036 0.320839 -0.015866 -0.244224 -0.102044 -0.107860 -0.301990 0.217235 0.148617 0.186677 -0.147955 -0.056568 0.086406 0.076851 0.057877 -0.195699 0.072981 0.016197 0.288801 -0.134911 -0.137257 0.095170 -0.075105 0.367777 0.068035 -0.149775 0.162489 -0.358354 0.065765 0.273154 0.367380 -0.039300 0.479929 0.250759 0.029991 -0.176055 0.199606 -0.267190 0.182850 0.114996 0.223415 -0.232993 -0.253229 -0.359933 -0.195542 -0.003553 -0.196534 0.316998 -0.166674 -0.107292 -0.016732
1 -0.197654 -0.205917 -0.047429 0.048213 0.225729 -0.211865 0.248696 0.255524 0.243427 -0.301500 0.470596 0.270797 -0.097805 -0.263530 -0.040711 -0.508532 0.262642 -0.527097 -0.194245 0.137020 -0.077577 0.023787 -0.066092 0.381808 0.458272 -0.166534 -0.170414 -0.168888 0.297954 0.100045 -0.216691 -0.226191 -0.267537 0.299465 -0.014847 -0.602278 0.238942 0.196118 0.092688 -0.050464 -0.027226 -0.525079 0.096683 0.458193 -0.428526 -0.230262 0.078932 -0.399649 -0.085490 0.026044 0.067288 -0.073252 -0.122019 -0.092576 -0.056396 -0.164624 0.010578 0.353002 -0.087528 -0.022273 -0.067722 -0.331067 0.118541 0.374252
11 -0.221900 -0.272257 0.056713 -0.133962 -0.126873 0.034289 0.027933 0.025939 0.277770 0.226224 0.029969 0.531640 -0.100546 0.197949 0.082737 -0.009980 -0.191726 -0.017989 -0.275511 -0.114449 0.228267 0.134479 0.475580 -0.058672 -0.102765 0.218029 0.067477 0.047417 -0.070784 0.048788 0.012899 0.205199 -0.030526 0.071628 0.058487 -0.107855 0.401970 -0.035708 -0.095395 0.273350 -0.309924 -0.042554 0.146878 0.381448 -0.031487 0.352036 0.203391 0.160925 -0.187804 0.025680 -0.147641 -0.086315 0.188921 0.018670 -0.154779 -0.175346 -0.305021 0.063133 -0.283761 -0.102585 0.167236 -0.271401 -0.111930 -0.083577
17 -0.203936 -0.216832 -0.067481 -0.034917 -0.083212 -0.085251 0.103016 0.169485 0.328192 0.115546 0.243374 0.578054 -0.006743 0.164115 -0.126217 -0.087749 -0.038096 -0.049519 -0.353427 0.144419 0.106871 0.013923 0.508769 0.051369 0.046671 0.202155 -0.031641 -0.067606 0.159336 0.104512 -0.028762 0.041497 -0.033465 0.249559 -0.062441 -0.286555 0.393170 -0.038519 -0.023603 0.268003 -0.199224 -0.265390 0.011227 0.417573 -0.154494 0.139036 0.132396 0.034561 -0.121995 -0.138440 -0.076389 -0.252695 0.177217 -0.140790 -0.105618 -0.080379 -0.183370 0.212483 -0.334537 -0.006173 0.019172 -0.273729 -0.115737 0.045121
0 -0.190550 -0.208456 -0.098802 0.032774 0.128242 -0.184713 0.197926 0.238755 0.281042 -0.202310 0.476007 0.366198 -0.058034 -0.145103 -0.084078 -0.386778 0.206017 -0.370208 -0.241957 0.194764 -0.051795 -0.009933 0.084805 0.298412 0.333983 -0.074638 -0.145842 -0.183059 0.275482 0.096822 -0.150519 -0.171306 -0.197537 0.302275 -0.031137 -0.537453 0.297497 0.155858 0.074881 0.057828 -0.047175 -0.500234 0.030816 0.450130 -0.369488 -0.123744 0.085994 -0.316090 -0.101158 -0.073647 0.017508 -0.144943 -0.035322 -0.176021 -0.065415 -0.130288 -0.024023 0.321473 -0.171347 0.003799 -0.066610 -0.309700 0.049512 0.345066
18 -0.161226 -0.185709 -0.113291 0.001902 -0.031730 -0.114690 0.120135 0.207404 0.328344 0.036553 0.312939 0.495269 -0.007386 0.023775 -0.115232 -0.171200 0.024006 -0.110762 -0.307034 0.183917 0.055985 -0.007077 0.373635 0.101219 0.147902 0.122317 -0.073826 -0.105974 0.217091 0.127631 -0.063404 -0.018998 -0.092143 0.258944 -0.070525 -0.362322 0.368125 0.031900 -0.002246 0.235974 -0.139459 -0.325972 0.015173 0.423300 -0.222925 0.081794 0.116213 -0.098129 -0.106604 -0.148161 -0.059980 -0.215666 0.128420 -0.121701 -0.112242 -0.073873 -0.122512 0.176013 -0.259747 0.000168 0.003246 -0.253224 -0.094323 0.164669
7 0.131912 -0.196908 -0.102017 0.040716 -0.193603 0.102009 0.207193 0.110100 0.325328 0.052108 0.135311 0.102410 -0.173088 -0.516660 0.391819 -0.180362 -0.078783 -0.283719 0.030308 -0.178827 0.012500 -0.008843 -0.181990 -0.102055 0.281745 -0.167112 -0.106182 -0.133912 -0.052686 0.185331 -0.029803 0.123675 -0.289479 -0.189599 -0.009087 -0.284825 0.352977 0.251762 -0.150846 0.053624 -0.241571 -0.116087 0.303082 0.420199 -0.260418 0.363107 0.265310 -0.379513 -0.079193 0.187748 -0.298273 0.333776 -0.018514 0.262724 -0.255484 -0.240797 -0.222320 -0.362646 0.306988 -0.188987 0.305176 -0.040447 -0.063880 0.371506
6 0.009776 -0.185709 -0.070029 0.067229 -0.019022 -0.014496 0.226292 0.160593 0.269483 -0.091556 0.268308 0.144035 -0.160801 -0.417715 0.230359 -0.302026 0.049011 -0.384898 -0.038669 -0.061217 -0.032241 0.006110 -0.166110 0.068750 0.352094 -0.173856 -0.128479 -0.146469 0.083213 0.167790 -0.104623 -0.038609 -0.270507 -0.003767 -0.001864 -0.394156 0.319523 0.256473 -0.068353 0.020570 -0.135833 -0.264261 0.228341 0.416360 -0.322585 0.130266 0.203019 -0.396204 -0.092018 0.131508 -0.136831 0.175050 -0.065736 0.118323 -0.158288 -0.224593 -0.130186 -0.100776 0.173661 -0.148078 0.159028 -0.132576 0.020163 0.370405
16 -0.486692 -0.444080 0.524581 -0.416681 0.088792 0.179352 0.037561 -0.268723 -0.010514 0.192092 -0.313011 0.444080 -0.333915 0.294714 0.431164 -0.204160 -0.258553 -0.427003 -0.266117 -0.695137 0.396484 0.513284 0.298799 0.101466 -0.143793 0.154842 0.242197 0.290873 -0.424011 -0.141366 -0.087195 0.379406 -0.125776 -0.054379 0.394520 -0.007250 0.233784 -0.103612 -0.092058 -0.081693 -0.599793 0.217709 0.415869 0.365571 0.094321 0.334421 0.211955 0.345208 -0.326537 0.570829 -0.040704 0.138239 -0.027766 0.329938 -0.123119 -0.421173 -0.511044 0.269026 -0.265253 -0.291311 0.339375 -0.522760 0.128530 -0.490527
15 -0.496962 -0.446517 0.508438 -0.422786 0.087477 0.178932 0.023131 -0.267076 -0.007523 0.186839 -0.289731 0.452222 -0.311005 0.318058 0.396688 -0.186462 -0.245105 -0.389384 -0.270163 -0.661579 0.392822 0.499028 0.323022 0.107919 -0.166572 0.165206 0.232550 0.278228 -0.410563 -0.150364 -0.076108 0.376337 -0.101856 -0.032055 0.382109 -0.004315 0.207701 -0.117142 -0.070488 -0.066352 -0.593005 0.199325 0.381870 0.350953 0.100672 0.331064 0.184003 0.346638 -0.309522 0.524849 -0.046217 0.113495 -0.024744 0.295897 -0.123286 -0.403694 -0.499401 0.278942 -0.292361 -0.252324 0.321476 -0.506798 0.120796 -0.481850
