17 64
9 -0.163361 -0.243853 0.050167 -0.166073 0.038207 0.066743 0.005030 -0.019374 0.127577 -0.014095 0.103756 0.268708 -0.137156 -0.106173 0.153800 -0.115442 -0.134872 -0.058235 -0.026901 -0.218616 0.150186 0.236212 0.068352 -0.002230 -0.153211 -0.017488 0.032763 0.004925 -0.088670 0.010255 -0.018768 0.094741 -0.188641 0.028707 0.112854 -0.098145 0.259970 0.105950 -0.065371 0.099408 -0.189740 -0.099795 0.299876 0.309284 -0.106272 0.258718 0.148895 -0.135559 -0.147635 -0.001008 -0.144133 0.128221 0.010157 0.107536 -0.191811 -0.254713 -0.158031 -0.017933 -0.116429 -0.062875 0.185456 -0.113515 -0.085233 0.078342
4 -0.082116 -0.252047 0.048364 -0.146764 0.002517 0.031366 0.083783 0.137891 0.095541 -0.049194 0.200442 0.261734 -0.076871 -0.337719 0.195234 -0.316733 -0.036426 -0.200616 0.015203 -0.162145 0.066051 0.173117 -0.020652 -0.024493 -0.009392 -0.042608 -0.046093 -0.004155 0.046806 0.067709 -0.061604 0.033207 -0.315854 0.101142 0.016785 -0.250712 0.338782 0.132193 0.045843 0.012411 -0.219283 -0.212842 0.347721 0.450186 -0.225722 0.172810 0.061217 -0.373189 -0.154938 0.034271 -0.150518 0.053819 -0.014154 0.242143 -0.336516 -0.239530 -0.150626 0.053535 -0.085654 -0.055420 0.205426 -0.177528 -0.085973 0.159000
3 -0.111123 -0.255545 0.061494 -0.157357 0.021700 0.046272 0.081582 0.089214 0.087374 -0.049294 0.167321 0.256047 -0.108638 -0.280044 0.173608 -0.274399 -0.048667 -0.166800 -0.007765 -0.188740 0.084480 0.198972 0.007009 0.014899 -0.044193 -0.046401 -0.017041 0.004623 0.018195 0.060514 -0.056587 0.038106 -0.293102 0.107087 0.035210 -0.217523 0.311743 0.114306 0.018724 0.021467 -0.208865 -0.184580 0.336237 0.415908 -0.201085 0.192628 0.093645 -0.306167 -0.147829 0.037667 -0.136114 0.070947 -0.015334 0.210678 -0.303876 -0.247724 -0.152560 0.050181 -0.114627 -0.035104 0.174443 -0.155728 -0.090794 0.135353
8 -0.153262 -0.242478 0.087284 -0.165640 -0.006183 0.096493 0.008116 -0.063983 0.093177 0.058153 0.052047 0.251195 -0.149580 -0.077010 0.191342 -0.077658 -0.150759 -0.068250 -0.009740 -0.234547 0.152454 0.241776 0.060090 -0.058194 -0.139925 0.024757 0.048739 0.042935 -0.124319 0.033704 -0.010797 0.133241 -0.163566 0.007762 0.126274 -0.072021 0.240692 0.097965 -0.063717 0.119097 -0.223435 -0.049530 0.261727 0.285637 -0.061901 0.290355 0.130874 -0.095885 -0.169045 0.049940 -0.157497 0.122106 0.023622 0.128520 -0.184280 -0.256586 -0.212781 -0.059787 -0.071296 -0.110584 0.204676 -0.110802 -0.064695 0.024906
14 -0.455149 -0.309135 0.334417 -0.403975 0.127343 0.153444 -0.092776 -0.485122 -0.092067 0.173471 -0.202807 0.331302 -0.227760 0.432967 0.172004 0.126122 -0.347002 -0.089892 -0.161525 -0.529965 0.371542 0.539448 0.227405 0.064879 -0.375892 0.116333 0.260996 0.203304 -0.365085 -0.156744 -0.011056 0.328929 -0.028286 -0.024307 0.399511 0.173113 -0.077864 -0.063356 -0.122605 0.035644 -0.343523 0.211344 0.187918 0.014862 0.186155 0.286949 0.112374 0.386642 -0.234091 0.200320 -0.056138 0.180680 -0.030958 0.012576 0.042134 -0.353170 -0.312924 0.090195 -0.137519 -0.171101 0.246224 -0.166010 0.041390 -0.451824
12 -0.362082 -0.286819 0.205107 -0.303616 0.077184 0.131482 -0.090780 -0.361461 0.037624 0.129221 -0.092268 0.319144 -0.223033 0.294227 0.174810 0.126002 -0.332614 -0.016951 -0.103336 -0.436595 0.331892 0.433423 0.186691 0.009499 -0.346163 0.063303 0.194268 0.126894 -0.304498 -0.110435 0.001372 0.267618 -0.051366 -0.059315 0.311870 0.133286 0.062310 0.030382 -0.151932 0.136642 -0.263069 0.130562 0.235218 0.094102 0.117985 0.363265 0.187301 0.249666 -0.217882 0.092773 -0.112789 0.214720 0.016588 -0.004566 -0.028072 -0.338016 -0.261205 -0.041497 -0.107209 -0.142536 0.254446 -0.101864 -0.027488 -0.231973
10 -0.206942 -0.241521 0.070969 -0.169583 0.058757 0.103058 -0.032416 -0.120196 0.148962 0.019184 0.044575 0.276160 -0.188575 0.031997 0.149770 0.019307 -0.200585 -0.001747 -0.044621 -0.276810 0.230416 0.273901 0.099480 0.010511 -0.217793 -0.007509 0.088627 0.030423 -0.169718 -0.020845 -0.014406 0.122328 -0.114318 -0.013279 0.153029 -0.009617 0.222221 0.097898 -0.140963 0.142113 -0.191540 -0.021429 0.304554 0.246015 -0.015434 0.343021 0.223648 -0.000729 -0.140777 0.002872 -0.139093 0.186975 0.038185 0.051343 -0.132534 -0.270060 -0.175491 -0.097631 -0.107544 -0.085597 0.216753 -0.076118 -0.084425 0.018342
11 -0.301858 -0.259205 0.146945 -0.234997 0.091383 0.103732 -0.074677 -0.249581 0.089199 0.060175 -0.038557 0.288949 -0.206135 0.200016 0.156813 0.071727 -0.270261 -0.014439 -0.082110 -0.361611 0.291397 0.355312 0.149031 0.029163 -0.285280 0.022926 0.142632 0.083125 -0.246859 -0.086536 -0.004449 0.191773 -0.060604 -0.046718 0.249139 0.081756 0.119717 0.060751 -0.144962 0.137662 -0.206124 0.073526 0.257678 0.137302 0.059810 0.331657 0.202628 0.162008 -0.177090 0.054600 -0.103279 0.199693 0.022375 0.005944 -0.050386 -0.302542 -0.203844 -0.045914 -0.114957 -0.112398 0.220870 -0.096321 -0.030372 -0.124204
5 -0.141139 -0.335625 0.106000 -0.224421 0.067718 -0.014153 0.139295 0.129347 0.030443 -0.099454 0.220218 0.290643 -0.067981 -0.340716 0.180810 -0.461467 0.016595 -0.306632 0.004029 -0.184603 0.068306 0.226438 -0.034285 0.089337 0.011873 -0.070483 -0.025624 0.016210 0.090788 0.026873 -0.116135 0.009947 -0.385879 0.216208 0.020547 -0.322847 0.271681 0.080552 0.144617 -0.120825 -0.228615 -0.253272 0.337467 0.460739 -0.287249 0.070957 -0.023760 -0.406258 -0.135288 0.083986 -0.123487 0.028412 -0.042863 0.259340 -0.373696 -0.254085 -0.120548 0.229765 -0.159031 -0.015101 0.154297 -0.272818 -0.061505 0.119563
13 -0.201953 -0.226638 0.102054 -0.199598 0.031807 0.095206 -0.031947 -0.167130 0.101433 0.066940 -0.004287 0.251046 -0.161420 0.049441 0.164995 0.018619 -0.225462 -0.032798 -0.056927 -0.299610 0.232668 0.285366 0.092804 -0.007551 -0.217693 0.014360 0.101318 0.063980 -0.176011 -0.029586 -0.010370 0.170070 -0.114108 -0.040614 0.175551 0.008095 0.174309 0.084226 -0.114372 0.122907 -0.197013 0.019774 0.254357 0.201223 0.006424 0.315263 0.177247 0.044774 -0.166078 0.047975 -0.135801 0.177877 0.030797 0.069752 -0.118554 -0.271340 -0.201711 -0.079635 -0.064431 -0.108405 0.220591 -0.080153 -0.061518 -0.056783
1 -0.142164 -0.353022 0.130451 -0.253150 0.071375 -0.042808 0.163867 0.191180 -0.010637 -0.125922 0.245026 0.290007 -0.027117 -0.417276 0.168290 -0.565245 0.072694 -0.358999 0.010716 -0.174899 0.029140 0.216585 -0.040032 0.112326 0.041777 -0.075456 -0.043137 0.025965 0.152409 0.027516 -0.133295 -0.006303 -0.442694 0.271562 -0.011825 -0.383158 0.268297 0.058665 0.218870 -0.190860 -0.246884 -0.306922 0.349771 0.506539 -0.342017 -0.003620 -0.088264 -0.482600 -0.130274 0.103730 -0.115448 -0.018254 -0.075162 0.313373 -0.433605 -0.243011 -0.109684 0.332440 -0.201055 0.027178 0.133335 -0.316286 -0.068197 0.123565
2 -0.099395 -0.350491 0.084869 -0.231914 0.036181 -0.000524 0.169465 0.230691 0.034796 -0.126695 0.275088 0.321794 -0.049181 -0.493568 0.197687 -0.553706 0.047019 -0.312804 0.004114 -0.175066 0.028675 0.213749 -0.028519 0.069677 0.017689 -0.083218 -0.071661 -0.006048 0.146632 0.075718 -0.100987 -0.010756 -0.472905 0.253142 -0.029604 -0.390704 0.376934 0.096482 0.169062 -0.122643 -0.261863 -0.323404 0.413075 0.581599 -0.366484 0.084003 -0.025295 -0.543614 -0.150716 0.060797 -0.150923 -0.008450 -0.053994 0.344390 -0.478724 -0.271616 -0.134552 0.253699 -0.199153 0.024490 0.160271 -0.277083 -0.104808 0.185701
6 -0.106706 -0.276350 0.077756 -0.155880 0.014837 0.048480 0.090302 0.108297 0.079739 -0.034394 0.177540 0.267896 -0.100284 -0.299402 0.203970 -0.301792 -0.042746 -0.209602 0.016007 -0.191221 0.077918 0.194027 -0.011016 -0.019751 -0.014134 -0.036085 -0.019791 0.001431 0.018645 0.070943 -0.062830 0.039036 -0.296562 0.111403 0.041180 -0.237986 0.313305 0.121239 0.032239 -0.007188 -0.244898 -0.186712 0.348034 0.427960 -0.216648 0.184907 0.066515 -0.344202 -0.141961 0.064658 -0.150624 0.066390 -0.024801 0.235764 -0.311904 -0.253276 -0.168119 0.059849 -0.093813 -0.072728 0.210966 -0.183643 -0.075481 0.124963
7 -0.082610 -0.233425 0.027756 -0.128302 -0.020438 0.075515 0.042912 0.059724 0.149257 0.001156 0.134220 0.253722 -0.119306 -0.246396 0.206866 -0.168183 -0.101974 -0.112595 0.005492 -0.191336 0.116769 0.180634 0.009541 -0.051694 -0.060384 -0.028185 -0.015607 -0.002922 -0.046166 0.065221 -0.023974 0.083553 -0.241946 0.018412 0.052284 -0.164256 0.321950 0.137344 -0.047577 0.093462 -0.219212 -0.134603 0.333197 0.392662 -0.149804 0.275812 0.143095 -0.251723 -0.147664 0.025145 -0.179482 0.123111 0.017040 0.193115 -0.271363 -0.244518 -0.178465 -0.070641 -0.046961 -0.084518 0.228884 -0.117865 -0.090397 0.142182
0 -0.130431 -0.373060 0.116184 -0.267075 0.046358 -0.016055 0.173838 0.209667 -0.005659 -0.130572 0.276964 0.313086 -0.037971 -0.466935 0.194991 -0.595846 0.081088 -0.349844 -0.000410 -0.174275 0.011349 0.219877 -0.035600 0.102086 0.020571 -0.077267 -0.057334 0.003739 0.146562 0.045200 -0.114694 -0.001314 -0.473255 0.279544 -0.008642 -0.409652 0.335562 0.076143 0.222147 -0.170963 -0.269094 -0.336004 0.366733 0.563991 -0.368712 0.037706 -0.077811 -0.535571 -0.159012 0.090514 -0.138730 -0.031520 -0.074842 0.325004 -0.471145 -0.266003 -0.137126 0.331397 -0.229570 0.036451 0.131419 -0.322219 -0.082661 0.163349
15 -0.536232 -0.342628 0.366678 -0.450484 0.133799 0.197895 -0.125821 -0.595357 -0.067968 0.209491 -0.238126 0.379455 -0.278929 0.553595 0.204710 0.212725 -0.452650 -0.057502 -0.197778 -0.625308 0.453991 0.618920 0.284694 0.048018 -0.471210 0.136043 0.297884 0.221655 -0.450216 -0.203381 -0.005771 0.401040 0.015873 -0.083098 0.471707 0.253055 -0.082792 -0.062300 -0.176268 0.100267 -0.385476 0.275254 0.212610 -0.012923 0.260892 0.390418 0.163770 0.492148 -0.279282 0.197406 -0.070926 0.239809 -0.015593 -0.019259 0.069771 -0.417208 -0.369033 0.020723 -0.135882 -0.196608 0.309811 -0.143948 0.033730 -0.516543
16 -0.477935 -0.313677 0.314164 -0.396567 0.116646 0.170842 -0.113662 -0.522869 -0.033619 0.185680 -0.201881 0.359899 -0.263988 0.484721 0.199323 0.186564 -0.421801 -0.053290 -0.175082 -0.568317 0.413216 0.558929 0.256351 0.033056 -0.421933 0.113132 0.269396 0.190367 -0.409119 -0.182339 -0.007869 0.359810 -0.003584 -0.088632 0.426864 0.223536 -0.033866 -0.039161 -0.179913 0.101868 -0.344404 0.242243 0.221539 0.011944 0.222162 0.370456 0.179424 0.430100 -0.263005 0.174983 -0.072201 0.234458 -0.003261 -0.016488 0.054609 -0.385137 -0.328053 0.003476 -0.119673 -0.193701 0.294540 -0.140564 0.017366 -0.436582
