18 64
12 -0.035834 -0.228501 0.076653 -0.444327 -0.223753 0.072947 -0.314313 -0.472326 -0.095721 0.599151 -0.189731 0.225791 -0.155073 -0.189039 0.022909 0.504459 -0.215879 0.446640 0.274173 -0.293870 0.249697 0.495785 -0.061565 -0.190584 -0.580235 0.200839 0.568802 0.379730 -0.309215 0.354849 0.194741 0.400985 -0.449237 0.109772 0.270605 -0.021702 0.163859 0.292048 -0.276542 0.342354 -0.165399 -0.043997 0.165624 0.271340 -0.006812 0.628544 0.351278 0.097605 -0.329426 0.061459 -0.536048 0.320768 0.113737 0.004491 -0.255980 -0.284091 -0.378966 -0.228989 -0.059143 -0.276050 0.164136 0.017885 -0.388426 0.016822
15 -0.452409 -0.376085 0.466771 -0.364068 -0.000585 0.047766 0.382611 0.016603 0.025032 -0.125220 0.220355 0.298812 0.095088 0.014486 0.125843 -0.563441 -0.207270 -0.616931 -0.413157 -0.451714 0.241212 0.149410 0.263375 0.135398 -0.157531 0.045104 -0.160528 0.106775 0.296885 -0.271766 -0.343016 0.147037 -0.043217 0.084053 -0.095668 -0.286387 0.276026 -0.056946 0.466871 -0.154465 -0.374264 -0.261547 0.234893 0.480677 -0.050987 0.038348 -0.259638 -0.160331 -0.259120 0.153670 0.019349 -0.161085 -0.066585 0.322118 -0.497765 -0.449894 -0.435170 0.356755 -0.186398 0.201887 0.330949 -0.160928 -0.043494 -0.407661
9 0.042324 -0.265599 -0.042292 -0.261240 -0.139847 0.137977 -0.200808 -0.247981 0.093216 0.394653 -0.127558 0.266406 -0.214909 -0.215002 0.121712 0.361880 -0.127104 0.359897 0.244339 -0.187006 0.196667 0.361418 -0.052032 -0.152238 -0.363298 0.113064 0.395983 0.158340 -0.356460 0.322290 0.185556 0.259286 -0.341205 0.082835 0.214573 -0.064868 0.228258 0.209418 -0.346123 0.236507 -0.221731 -0.025437 0.253589 0.304962 -0.081082 0.583087 0.376569 -0.014602 -0.124586 0.040644 -0.490810 0.336412 0.120585 0.041283 -0.165148 -0.208119 -0.267552 -0.260661 -0.067420 -0.290041 0.164563 -0.056867 -0.272441 0.148991
6 0.056511 -0.350269 -0.106203 -0.034723 0.011169 0.157468 0.006680 0.061710 0.301706 0.047564 0.041725 0.283896 -0.251017 -0.196289 0.241082 0.039071 0.015982 0.080815 0.171385 -0.080518 0.148841 0.126460 -0.065269 -0.013497 -0.035946 -0.053496 0.131440 -0.107131 -0.298139 0.171679 0.072464 0.017041 -0.160502 0.081484 0.088338 -0.161054 0.277844 0.114856 -0.273165 0.018594 -0.245105 -0.050388 0.338270 0.335193 -0.183945 0.442773 0.317784 -0.190752 0.126766 0.052840 -0.348284 0.302498 0.103789 0.067982 -0.115462 -0.139427 -0.103081 -0.185658 -0.096539 -0.220816 0.173374 -0.184161 -0.075186 0.294753
2 -0.317028 -0.498224 0.265708 -0.217588 0.100615 0.070160 0.390836 0.197362 0.221100 -0.265177 0.298777 0.359241 -0.024575 -0.091817 0.237153 -0.636123 -0.065715 -0.570366 -0.259030 -0.304697 0.197999 0.069287 0.148970 0.183413 -0.007703 -0.079378 -0.173831 -0.106970 0.154716 -0.221613 -0.293682 -0.008928 -0.055424 0.138939 -0.075841 -0.363348 0.348446 -0.032374 0.315984 -0.258607 -0.365534 -0.266194 0.344605 0.512555 -0.217241 0.096561 -0.137511 -0.331327 -0.025654 0.125464 -0.068877 -0.022148 -0.026057 0.268411 -0.408011 -0.368144 -0.258870 0.306133 -0.240159 0.101496 0.293148 -0.296566 0.013935 -0.095131
5 -0.120589 -0.398688 0.050586 -0.111452 0.078919 0.079496 0.176620 0.108093 0.250043 -0.124305 0.191413 0.284049 -0.136483 -0.132175 0.216263 -0.291942 0.001138 -0.233918 -0.023435 -0.147776 0.152842 0.087120 -0.007057 0.112392 -0.009626 -0.084367 -0.008176 -0.115092 -0.064824 -0.033090 -0.116306 -0.019835 -0.106173 0.116890 0.024091 -0.266916 0.284289 0.069317 0.027284 -0.115350 -0.237840 -0.171117 0.287512 0.378512 -0.203191 0.235306 0.084333 -0.258212 0.044852 0.070617 -0.190128 0.143221 0.038535 0.106336 -0.220857 -0.231009 -0.137007 0.064901 -0.155781 -0.066272 0.190106 -0.241790 -0.015834 0.141672
7 0.066191 -0.338390 -0.115326 -0.066872 -0.018742 0.163680 -0.022487 0.025203 0.291680 0.087040 0.015873 0.283357 -0.246983 -0.209299 0.232604 0.085315 0.010826 0.124694 0.174286 -0.086142 0.153477 0.149591 -0.063056 -0.017277 -0.067927 -0.038712 0.153085 -0.080297 -0.319661 0.184007 0.097105 0.059666 -0.191854 0.072733 0.096672 -0.152553 0.265575 0.112390 -0.285801 0.045998 -0.252528 -0.049976 0.324696 0.343654 -0.167227 0.468728 0.330736 -0.166942 0.102492 0.048332 -0.376808 0.315113 0.109533 0.068228 -0.129807 -0.134240 -0.120537 -0.202972 -0.091754 -0.214172 0.166923 -0.173231 -0.098036 0.295133
8 0.090534 -0.313238 -0.108183 -0.136582 -0.082350 0.159857 -0.138806 -0.114315 0.207118 0.265294 -0.073504 0.266540 -0.267892 -0.219645 0.194382 0.268740 -0.032365 0.293036 0.272421 -0.106259 0.173252 0.250553 -0.094754 -0.099062 -0.204519 0.036176 0.305605 0.040128 -0.387693 0.291414 0.166153 0.145437 -0.268322 0.088497 0.165050 -0.099952 0.250416 0.180213 -0.358250 0.164429 -0.221222 -0.018333 0.286533 0.314464 -0.126980 0.572075 0.394170 -0.089495 0.013734 0.049659 -0.465849 0.358254 0.141328 0.034193 -0.130512 -0.149661 -0.177874 -0.278345 -0.077389 -0.289859 0.148256 -0.124699 -0.182418 0.280287
3 -0.280818 -0.471558 0.211993 -0.159426 0.128942 0.057234 0.343302 0.199479 0.241834 -0.270792 0.308546 0.317172 -0.069176 -0.112610 0.230097 -0.579513 -0.009034 -0.520893 -0.188153 -0.245056 0.171421 0.051413 0.074239 0.196031 0.041505 -0.104548 -0.147695 -0.121586 0.118872 -0.175434 -0.273986 -0.052858 -0.056132 0.144784 -0.054390 -0.369502 0.335807 0.022027 0.254657 -0.223419 -0.310334 -0.273925 0.329223 0.486646 -0.229569 0.110929 -0.075160 -0.344387 -0.002868 0.116156 -0.075642 0.019392 -0.025407 0.208900 -0.350333 -0.331961 -0.210407 0.248446 -0.217841 0.062003 0.255036 -0.294000 0.029236 0.014878
10 0.085792 -0.309417 -0.101862 -0.150400 -0.078152 0.164080 -0.150902 -0.130780 0.209913 0.276279 -0.077073 0.276961 -0.272968 -0.217645 0.182471 0.300657 -0.041768 0.306297 0.268273 -0.125606 0.197574 0.266433 -0.095400 -0.087771 -0.228390 0.036802 0.330791 0.056946 -0.391305 0.294450 0.161817 0.148723 -0.280347 0.093243 0.164594 -0.100507 0.260215 0.188854 -0.378728 0.167077 -0.227487 -0.024215 0.312133 0.332976 -0.115563 0.596126 0.424935 -0.079830 0.007565 0.048503 -0.472899 0.372507 0.146590 0.033655 -0.142574 -0.156995 -0.185901 -0.290267 -0.081593 -0.292884 0.166897 -0.118998 -0.203361 0.270946
11 0.044540 -0.286924 -0.060850 -0.099033 -0.046343 0.139511 -0.072526 -0.042213 0.218962 0.162090 -0.040728 0.250277 -0.228216 -0.168558 0.194517 0.154901 -0.032232 0.161326 0.175267 -0.123372 0.174711 0.181861 -0.049272 -0.049180 -0.134556 0.006401 0.203691 0.015591 -0.306403 0.195648 0.105945 0.100625 -0.195004 0.054514 0.110586 -0.099673 0.251556 0.134198 -0.276343 0.108510 -0.214118 -0.020903 0.293669 0.309210 -0.111208 0.472219 0.334591 -0.082601 0.022801 0.066501 -0.356647 0.289106 0.116226 0.064824 -0.136519 -0.147943 -0.157721 -0.201723 -0.081194 -0.219475 0.160178 -0.135974 -0.119174 0.217533
4 -0.182131 -0.404795 0.120212 -0.131271 0.095214 0.068966 0.233616 0.153773 0.233441 -0.178185 0.231682 0.297610 -0.084848 -0.121886 0.208784 -0.400132 -0.016955 -0.342328 -0.093956 -0.184965 0.161172 0.073010 0.040095 0.122445 0.001858 -0.076649 -0.076061 -0.107829 0.024819 -0.093995 -0.177072 -0.028579 -0.080334 0.120739 -0.017500 -0.292233 0.297028 0.038049 0.125433 -0.154351 -0.271140 -0.206270 0.308815 0.415461 -0.198838 0.166194 -0.000319 -0.289979 0.022039 0.074430 -0.133020 0.072710 0.011850 0.165908 -0.276910 -0.262542 -0.164835 0.139629 -0.172110 -0.010427 0.229792 -0.249078 -0.001474 0.059154
1 -0.172384 -0.456376 0.093520 -0.114506 0.127711 0.049682 0.242073 0.195509 0.275437 -0.219248 0.244785 0.291024 -0.103709 -0.139690 0.226787 -0.448306 0.039300 -0.350704 -0.049414 -0.156475 0.145162 0.042110 0.008891 0.164207 0.040699 -0.113653 -0.063536 -0.148822 0.000764 -0.107013 -0.184889 -0.060140 -0.078518 0.143580 -0.013179 -0.325214 0.284480 0.035084 0.127935 -0.215130 -0.260577 -0.217857 0.313238 0.409655 -0.249319 0.154141 0.003877 -0.321073 0.089878 0.092579 -0.155959 0.113035 0.008657 0.145908 -0.261376 -0.238579 -0.117003 0.171200 -0.209480 -0.011140 0.200558 -0.304351 0.010471 0.136269
0 -0.239016 -0.475079 0.162219 -0.167971 0.110021 0.066883 0.300894 0.173192 0.243305 -0.237053 0.292230 0.313456 -0.075620 -0.118135 0.237647 -0.524888 0.000394 -0.444327 -0.145851 -0.216748 0.156944 0.054163 0.052089 0.177140 0.007080 -0.103103 -0.104330 -0.143781 0.059567 -0.157897 -0.227822 -0.034064 -0.067464 0.139289 -0.018805 -0.351600 0.320855 0.030190 0.212421 -0.224575 -0.301701 -0.253514 0.303545 0.453265 -0.235560 0.145204 -0.055754 -0.337568 0.017442 0.101019 -0.123153 0.053905 -0.015259 0.167364 -0.316667 -0.305752 -0.190494 0.223554 -0.222036 0.034501 0.236195 -0.297186 0.013856 0.055063
13 -0.018395 -0.194443 0.097183 -0.473418 -0.249891 0.080868 -0.329585 -0.514106 -0.123390 0.656577 -0.243526 0.208578 -0.138200 -0.196508 0.008765 0.551632 -0.250129 0.476670 0.260863 -0.317744 0.267725 0.521551 -0.058046 -0.214750 -0.627683 0.237109 0.604070 0.427363 -0.314243 0.378682 0.202136 0.442104 -0.459607 0.091137 0.280080 -0.007270 0.169741 0.297234 -0.291382 0.367202 -0.167319 -0.023321 0.155253 0.271264 0.024194 0.646249 0.357656 0.140720 -0.363956 0.074198 -0.549286 0.318929 0.124789 0.032760 -0.260703 -0.291913 -0.420647 -0.253984 -0.038756 -0.298846 0.173745 0.043870 -0.414182 -0.047156
16 -0.495759 -0.418777 0.535593 -0.404613 -0.009474 0.050225 0.435685 0.038716 0.036971 -0.128126 0.209930 0.356962 0.100223 0.026434 0.157005 -0.636026 -0.243791 -0.705483 -0.474952 -0.528615 0.283633 0.167120 0.319415 0.144854 -0.168542 0.058995 -0.165237 0.135375 0.317873 -0.313819 -0.388932 0.170713 -0.060236 0.080698 -0.116267 -0.309708 0.342230 -0.091705 0.500546 -0.201622 -0.440680 -0.266906 0.304530 0.560531 -0.049242 0.041169 -0.262018 -0.152517 -0.288651 0.209090 0.030029 -0.178155 -0.056874 0.394299 -0.564972 -0.493215 -0.488347 0.419521 -0.221904 0.204178 0.386725 -0.217922 -0.055280 -0.488148
14 -0.045537 -0.160596 0.148375 -0.472021 -0.250973 0.076155 -0.318812 -0.510918 -0.158858 0.650303 -0.271297 0.192420 -0.115501 -0.149588 -0.010905 0.541616 -0.250101 0.437497 0.217727 -0.334239 0.274013 0.508635 -0.022419 -0.202398 -0.610704 0.256020 0.575238 0.467394 -0.283219 0.348134 0.185883 0.443772 -0.427847 0.082460 0.250866 0.016826 0.143353 0.255747 -0.250108 0.362262 -0.171611 -0.006979 0.139635 0.259661 0.068715 0.597368 0.324159 0.190223 -0.381433 0.097396 -0.491321 0.264804 0.118031 0.057872 -0.268244 -0.280183 -0.432900 -0.212855 -0.041055 -0.262831 0.167751 0.047832 -0.386823 -0.122900
17 -0.454212 -0.405389 0.478657 -0.349631 0.004795 0.043786 0.411709 0.064540 0.064539 -0.144372 0.224476 0.336495 0.085838 0.014093 0.149499 -0.602355 -0.198654 -0.665994 -0.427796 -0.461554 0.256888 0.131250 0.279446 0.146281 -0.126032 0.039056 -0.172217 0.097835 0.295109 -0.281774 -0.358703 0.130247 -0.042485 0.085655 -0.114484 -0.311727 0.323367 -0.069062 0.462548 -0.186128 -0.401775 -0.269592 0.281161 0.529573 -0.070043 0.036846 -0.238298 -0.168561 -0.241932 0.184903 0.020031 -0.161466 -0.053820 0.345818 -0.513427 -0.455610 -0.440131 0.390666 -0.205238 0.185446 0.352276 -0.211405 -0.029596 -0.409734
