23 64
17 -0.048355 -0.175193 0.141952 -0.148594 -0.123688 0.070122 0.063923 -0.078483 0.562145 0.313481 0.000607 0.609359 -0.075098 0.320014 0.000970 0.053522 -0.283852 -0.396051 -0.368453 0.092960 0.252209 -0.141668 0.357855 0.051768 0.157596 0.244177 -0.014812 0.005471 -0.031649 -0.071330 -0.083079 0.295584 0.176177 -0.169732 -0.033161 -0.235740 0.119748 0.132994 0.060852 0.203196 -0.322269 0.029312 0.084626 0.183764 0.041994 0.227050 0.242354 0.064700 -0.141140 0.203693 -0.067055 -0.058751 0.065179 -0.043006 0.108766 -0.003853 -0.427423 0.075272 0.113382 -0.275423 0.227336 -0.436245 0.011215 -0.173400
20 -0.283654 -0.369215 0.311074 -0.353365 -0.452292 -0.410130 0.216476 -0.144749 -0.190949 0.105921 -0.274822 0.204835 0.331553 -0.202161 0.061257 -0.170220 -0.561728 -0.249672 -0.005628 -0.346584 0.674534 -0.022271 0.479342 0.231198 -0.119008 0.455358 0.383890 -0.029348 0.118500 -0.158870 -0.139584 -0.051303 -0.123314 -0.058533 0.134235 -0.211873 0.411421 0.041311 -0.121115 -0.218251 -0.478045 -0.288533 -0.245442 0.362318 0.101901 0.472584 0.357289 0.209787 0.041579 -0.106299 -0.413709 0.016956 0.124603 -0.402115 -0.103083 -0.169854 -0.266309 -0.090026 -0.367492 0.074250 0.478742 -0.022663 0.324354 0.230930
12 -0.085368 -0.189627 0.155926 -0.107662 -0.098808 -0.064114 0.050963 -0.013019 0.251239 0.111632 0.007700 0.363727 -0.054403 0.022917 0.084589 -0.089331 -0.293155 -0.319451 -0.133770 -0.104249 0.293216 -0.025350 0.186877 0.065203 0.090611 0.099316 -0.015159 0.070868 0.038941 -0.032291 -0.048275 0.098876 -0.044144 -0.121347 -0.003024 -0.122905 0.223218 0.211975 0.024443 0.194361 -0.155139 -0.033364 0.167929 0.219097 -0.035207 0.245965 0.279952 -0.035673 -0.181047 0.108402 -0.076276 0.007776 0.051431 -0.008138 -0.087347 -0.153194 -0.253206 0.005029 0.054746 -0.113824 0.226752 -0.203594 0.112214 0.048153
14 -0.185835 -0.265689 0.216052 -0.280112 -0.274316 -0.215011 0.135390 -0.113972 0.047362 0.140791 -0.131259 0.294636 0.180946 -0.035656 0.026062 -0.101104 -0.353349 -0.265656 -0.113005 -0.156680 0.447670 -0.041006 0.350268 0.184047 -0.044352 0.318610 0.226443 -0.018887 0.060883 -0.121520 -0.111653 0.055742 -0.040695 -0.045185 0.064241 -0.236444 0.253939 0.053326 -0.023738 -0.111572 -0.368571 -0.191108 -0.127427 0.284495 0.054239 0.309252 0.233658 0.128313 -0.006420 0.002094 -0.255165 -0.010664 0.079562 -0.244330 -0.038345 -0.091707 -0.266625 0.026084 -0.205171 -0.030094 0.320351 -0.170898 0.173982 0.074403
13 -0.132242 -0.212303 0.171883 -0.179989 -0.086493 -0.209356 0.073117 0.020121 0.029569 -0.027142 0.040612 0.189589 0.075274 -0.180092 0.082886 -0.242561 -0.207587 -0.303371 -0.031606 -0.194152 0.327732 0.023177 0.060773 0.176398 -0.004571 0.042544 0.068050 0.091959 0.126515 -0.082783 -0.098280 -0.027839 -0.194117 -0.011280 0.011023 -0.189713 0.290782 0.200587 0.077051 0.003694 -0.092380 -0.190570 0.116179 0.308124 -0.092322 0.176928 0.199287 -0.084700 -0.153076 0.042991 -0.118053 0.018394 0.056734 -0.039866 -0.232655 -0.200382 -0.134730 0.096097 -0.094100 0.013808 0.219908 -0.148296 0.144441 0.141284
3 -0.144890 -0.230823 0.106997 -0.247084 0.054884 -0.182120 0.049091 0.086826 0.152215 -0.115060 0.271712 0.272625 0.059709 -0.184799 0.056660 -0.387058 0.017159 -0.399189 -0.097295 -0.085496 0.201907 0.030043 -0.071562 0.284405 0.020410 -0.088507 0.000264 0.072837 0.176945 -0.172843 -0.176905 -0.004161 -0.276629 0.109208 -0.046439 -0.364000 0.252883 0.191813 0.255908 -0.096629 -0.057739 -0.320865 0.200416 0.416021 -0.195464 0.016984 0.046780 -0.269462 -0.187427 0.067130 -0.051767 -0.006519 0.026493 0.030911 -0.342239 -0.158681 -0.073524 0.318749 -0.135622 0.044967 0.147531 -0.360733 0.017323 0.149668
11 0.018334 -0.181157 0.025499 0.091633 -0.029992 -0.008022 0.016041 0.209907 0.398507 -0.036982 0.041314 0.353977 -0.163630 -0.118667 0.191983 -0.172458 -0.261147 -0.261177 -0.028151 -0.010613 0.171173 -0.055263 0.157185 -0.075465 0.223785 0.033418 -0.244866 -0.016930 -0.011082 0.056829 0.024674 0.050407 -0.057336 -0.227446 -0.023210 -0.059037 0.309151 0.244656 -0.055523 0.384481 -0.081704 -0.021240 0.336296 0.270813 -0.103721 0.249172 0.320506 -0.200013 -0.179011 0.043580 -0.074189 0.033631 0.019561 0.144374 -0.073840 -0.149973 -0.176565 -0.116093 0.150788 -0.147005 0.195069 -0.170237 0.157695 0.266525
6 0.047357 -0.190120 -0.078437 0.092285 0.004422 -0.001495 0.030081 0.292745 0.408558 -0.136995 0.139363 0.328177 -0.122681 -0.232175 0.212340 -0.271572 -0.142205 -0.230127 0.012013 0.064683 0.078163 -0.055952 0.101816 -0.067475 0.237760 -0.005799 -0.287816 -0.124847 0.006716 0.030964 -0.005506 0.013548 -0.121313 -0.164888 -0.042822 -0.147146 0.309403 0.168577 -0.033621 0.258544 -0.110411 -0.126047 0.337411 0.345096 -0.153685 0.184420 0.203212 -0.331761 -0.098496 -0.035306 -0.106643 0.041067 -0.002978 0.177051 -0.113695 -0.092778 -0.080345 -0.091840 0.102628 -0.109314 0.187892 -0.200588 0.100235 0.366963
10 0.119124 -0.202420 -0.126577 0.165069 -0.101953 0.125351 0.035060 0.255899 0.640421 0.005422 -0.013229 0.501350 -0.199748 -0.044835 0.209789 -0.081552 -0.320484 -0.141406 -0.062618 0.199130 0.114723 -0.147277 0.371672 -0.186031 0.300327 0.197696 -0.328462 -0.232847 -0.124940 0.072590 0.049656 0.130778 0.086723 -0.318301 -0.035345 -0.067110 0.288350 0.096904 -0.180193 0.440632 -0.263067 0.009627 0.277137 0.273658 -0.011170 0.369080 0.334068 -0.210036 -0.027597 -0.076709 -0.175997 0.028817 0.032902 0.120976 0.110475 0.022173 -0.210402 -0.306864 0.170712 -0.223348 0.230441 -0.209319 0.110978 0.367621
4 -0.065046 -0.202627 -0.013178 -0.117356 0.114560 -0.117044 0.006290 0.217597 0.292913 -0.188298 0.339865 0.311756 -0.011852 -0.221794 0.125934 -0.412106 0.052130 -0.369623 -0.051970 0.020302 0.098158 0.006245 -0.099037 0.167458 0.111245 -0.139982 -0.165361 -0.011348 0.135106 -0.132684 -0.131632 -0.011626 -0.265008 0.040527 -0.067891 -0.331717 0.272269 0.199879 0.212900 0.013169 -0.018281 -0.295712 0.312256 0.428551 -0.231515 -0.003657 0.030583 -0.384200 -0.177915 0.020530 -0.028685 0.005311 0.008169 0.127287 -0.307426 -0.125837 -0.010585 0.250479 -0.035685 -0.015395 0.140813 -0.374966 0.013113 0.251441
16 -0.123661 -0.189508 0.219743 -0.244846 -0.193988 -0.016729 0.097779 -0.183686 0.365256 0.328073 -0.078642 0.522672 0.003035 0.280950 0.000566 0.039054 -0.364943 -0.389272 -0.348194 -0.045893 0.360182 -0.085744 0.375347 0.117820 0.061102 0.284104 0.128146 0.040845 -0.008466 -0.115914 -0.108415 0.260631 0.123708 -0.140552 0.024088 -0.216590 0.148600 0.116979 0.041584 0.087621 -0.356918 0.017559 -0.011352 0.170153 0.079867 0.271768 0.263807 0.160199 -0.139247 0.191021 -0.097417 -0.040332 0.085026 -0.132863 0.076766 -0.051075 -0.425370 0.063248 0.014879 -0.215116 0.272262 -0.362062 0.054622 -0.194212
15 -0.177861 -0.221614 0.243487 -0.329387 -0.178242 -0.099038 0.109098 -0.195292 0.235405 0.257805 -0.023666 0.442675 0.097027 0.192470 -0.025231 -0.044991 -0.294046 -0.397969 -0.307540 -0.093458 0.392652 -0.054072 0.297814 0.217468 -0.017704 0.248577 0.191508 0.060103 0.060589 -0.168446 -0.155762 0.199119 0.039827 -0.038779 0.021447 -0.288228 0.148821 0.104926 0.116830 -0.053172 -0.332333 -0.101822 -0.062337 0.226662 0.049527 0.224972 0.178349 0.128696 -0.117935 0.151536 -0.125352 -0.044018 0.082346 -0.172910 -0.027967 -0.078804 -0.366364 0.157723 -0.085725 -0.120175 0.272797 -0.348041 0.053915 -0.168493
18 0.015014 -0.181461 0.075775 -0.082029 -0.134051 0.142856 0.047717 -0.047521 0.690093 0.334966 -0.048117 0.680352 -0.140204 0.344023 0.044649 0.086566 -0.370940 -0.340368 -0.379065 0.160300 0.251799 -0.168020 0.455244 -0.023072 0.215844 0.299411 -0.084987 -0.062485 -0.093204 -0.034503 -0.047661 0.339810 0.238609 -0.254508 -0.019224 -0.181559 0.129783 0.122302 -0.017340 0.334076 -0.359918 0.109864 0.114370 0.157313 0.076981 0.329289 0.304842 0.050531 -0.120779 0.161298 -0.092581 -0.049246 0.075867 -0.004259 0.186168 0.039818 -0.451762 -0.074697 0.169661 -0.327030 0.249055 -0.429468 0.016204 -0.108718
2 -0.143770 -0.265227 0.078173 -0.305288 0.111765 -0.197451 0.038577 0.120483 0.197933 -0.164245 0.371423 0.317345 0.088887 -0.198238 0.045502 -0.472175 0.095898 -0.438874 -0.118946 -0.051370 0.186171 0.030670 -0.129734 0.350008 -0.006965 -0.146757 -0.009666 0.067498 0.208493 -0.242028 -0.217928 0.001646 -0.330010 0.168883 -0.073951 -0.442630 0.250330 0.183714 0.349975 -0.175626 -0.033722 -0.389374 0.239734 0.473585 -0.246059 -0.045128 -0.027822 -0.352689 -0.190492 0.061388 -0.049805 -0.012799 0.034708 0.055112 -0.422273 -0.145218 -0.030430 0.439828 -0.177527 0.072813 0.135196 -0.464296 -0.036445 0.150971
0 -0.121969 -0.309225 -0.041455 -0.279301 0.169425 -0.207783 0.018735 0.255454 0.266823 -0.322101 0.518687 0.318013 0.086255 -0.346607 0.116885 -0.628389 0.215078 -0.436750 -0.048335 0.028774 0.090657 0.021102 -0.209009 0.356447 0.029136 -0.223886 -0.109440 -0.050176 0.209463 -0.280779 -0.233408 -0.044754 -0.421827 0.186141 -0.075700 -0.532960 0.316871 0.179427 0.379085 -0.222402 -0.021361 -0.525923 0.304668 0.597019 -0.330653 -0.080365 -0.096624 -0.546750 -0.169302 -0.021747 -0.086325 0.010593 0.000127 0.088677 -0.486020 -0.124297 0.073734 0.471984 -0.219544 0.104876 0.130147 -0.533752 -0.056317 0.365666
19 0.082114 -0.176234 0.027651 0.070157 -0.117894 0.155339 0.032532 0.079245 0.685363 0.214428 -0.073587 0.608878 -0.223026 0.198241 0.123404 0.053349 -0.400845 -0.276210 -0.232131 0.158655 0.197652 -0.161280 0.413586 -0.134502 0.276565 0.249095 -0.228981 -0.084595 -0.120818 0.057961 0.027171 0.257595 0.192757 -0.339722 -0.031125 -0.070534 0.200383 0.173360 -0.104568 0.490406 -0.269681 0.125040 0.235254 0.172437 0.047053 0.363798 0.384490 -0.048281 -0.137603 0.102991 -0.100212 -0.014717 0.045755 0.080552 0.177082 -0.005648 -0.388913 -0.201028 0.251685 -0.318690 0.227496 -0.302732 0.095288 0.076759
7 0.116576 -0.203077 -0.154163 0.223676 -0.029306 0.040427 0.020524 0.403079 0.512174 -0.184876 0.087099 0.355970 -0.198702 -0.319744 0.306722 -0.273286 -0.226004 -0.176824 0.080772 0.099032 0.059545 -0.076381 0.170095 -0.191465 0.334780 0.012300 -0.436880 -0.192173 -0.055362 0.111789 0.076154 0.011774 -0.116891 -0.292355 -0.044803 -0.062759 0.376408 0.182526 -0.148161 0.441470 -0.120788 -0.078948 0.422997 0.371903 -0.157558 0.280812 0.299115 -0.382970 -0.092382 -0.092868 -0.152177 0.073191 -0.009850 0.251560 -0.075677 -0.099423 -0.076697 -0.263926 0.192931 -0.139356 0.213398 -0.130522 0.172001 0.531447
1 -0.109517 -0.331032 -0.075723 -0.279179 0.219740 -0.190693 0.014010 0.315666 0.381985 -0.345351 0.572520 0.377056 0.081879 -0.339721 0.100227 -0.667109 0.280499 -0.459964 -0.061237 0.104396 0.051554 -0.001606 -0.211563 0.366886 0.065299 -0.231435 -0.153469 -0.073985 0.219514 -0.303263 -0.271301 -0.021115 -0.415694 0.208055 -0.116802 -0.601419 0.293214 0.149464 0.425735 -0.242218 -0.038938 -0.570534 0.349151 0.646262 -0.354573 -0.127423 -0.149096 -0.609975 -0.137771 -0.022703 -0.092089 0.008855 -0.005065 0.140408 -0.500804 -0.078236 0.085643 0.522048 -0.220906 0.093067 0.124044 -0.624664 -0.111846 0.375924
5 -0.074991 -0.269320 -0.055762 -0.206601 0.249140 -0.123554 -0.004122 0.265770 0.428861 -0.280381 0.562248 0.421654 -0.036863 -0.242622 0.128072 -0.587259 0.197383 -0.505789 -0.122215 0.074888 0.054673 0.023464 -0.241473 0.307427 0.113508 -0.288657 -0.214126 -0.003996 0.190385 -0.237351 -0.217546 0.009264 -0.378938 0.135023 -0.107777 -0.498273 0.294946 0.257044 0.390292 -0.054511 0.051599 -0.417373 0.429837 0.553372 -0.352712 -0.101894 -0.050725 -0.572036 -0.255913 0.055645 0.011544 0.010196 0.009969 0.186199 -0.454585 -0.144948 0.031607 0.460482 -0.064358 0.004635 0.100387 -0.592902 -0.080077 0.281511
9 0.167080 -0.201641 -0.189588 0.265577 -0.065045 0.142195 0.012688 0.378952 0.707557 -0.072192 0.014155 0.499473 -0.260890 -0.159915 0.284689 -0.151687 -0.321856 -0.132788 -0.002861 0.223539 0.041969 -0.133738 0.340772 -0.284305 0.371923 0.150472 -0.467981 -0.264807 -0.142491 0.143969 0.102112 0.119873 0.040836 -0.389261 -0.024862 -0.036536 0.353218 0.150479 -0.221722 0.574431 -0.211694 0.007960 0.389217 0.315928 -0.080096 0.359944 0.355720 -0.319023 -0.072401 -0.100634 -0.179315 0.047825 -0.001410 0.227660 0.103795 -0.019961 -0.185308 -0.359853 0.250548 -0.258290 0.219896 -0.184259 0.144532 0.484933
8 0.163084 -0.217381 -0.209757 0.264109 -0.044521 0.114592 0.023138 0.439863 0.651291 -0.150788 0.075436 0.442643 -0.232741 -0.259405 0.311359 -0.241633 -0.226088 -0.140025 0.059363 0.220229 0.005633 -0.125017 0.259696 -0.261776 0.379161 0.093688 -0.488669 -0.272202 -0.110294 0.127442 0.082129 0.063542 -0.032203 -0.327383 -0.055156 -0.079951 0.369610 0.126024 -0.174201 0.491751 -0.195583 -0.063832 0.407269 0.378287 -0.124055 0.311144 0.284337 -0.399716 -0.046693 -0.119227 -0.184653 0.049831 -0.004624 0.263369 0.011046 -0.020187 -0.115680 -0.313728 0.206451 -0.202326 0.209287 -0.191258 0.140030 0.551080
21 -0.298314 -0.395240 0.274141 -0.401898 -0.522178 -0.426038 0.229167 -0.174089 -0.179479 0.124934 -0.291265 0.237999 0.383267 -0.228906 0.076266 -0.174464 -0.595336 -0.224695 0.004332 -0.305424 0.704006 -0.038896 0.560377 0.241322 -0.142434 0.532099 0.419542 -0.128027 0.098514 -0.179637 -0.136517 -0.043012 -0.115663 -0.061127 0.153069 -0.270002 0.418825 -0.005190 -0.154340 -0.284264 -0.575012 -0.327966 -0.341205 0.387675 0.119057 0.533431 0.337571 0.232770 0.119180 -0.169398 -0.480654 0.025517 0.124935 -0.483506 -0.048833 -0.123546 -0.266579 -0.126177 -0.429458 0.073971 0.514522 -0.032520 0.331380 0.300936
22 -0.248069 -0.363249 0.260535 -0.327281 -0.466766 -0.368056 0.205093 -0.153861 -0.133542 0.125410 -0.286257 0.240667 0.311679 -0.180134 0.081902 -0.133166 -0.585701 -0.217663 -0.004501 -0.283138 0.652607 -0.038616 0.529321 0.189770 -0.110226 0.488395 0.349619 -0.099453 0.082787 -0.132981 -0.113319 -0.028940 -0.089317 -0.093197 0.136270 -0.208402 0.385579 0.017456 -0.166114 -0.190640 -0.496832 -0.264483 -0.270331 0.343152 0.124150 0.514903 0.346991 0.222056 0.079863 -0.133482 -0.430536 0.019302 0.107821 -0.411502 -0.026772 -0.133026 -0.266556 -0.139648 -0.329567 0.032754 0.480352 -0.013428 0.316190 0.257426
