14 64
11 -0.187947 -0.378448 0.044508 -0.136273 0.003584 -0.043266 -0.105083 0.014993 0.233606 -0.075061 0.192396 0.267680 -0.190453 0.017625 0.349295 -0.162536 -0.341337 -0.038680 0.011880 -0.448254 0.348331 0.062366 0.075315 0.022231 -0.398982 -0.261560 0.128921 -0.039742 -0.149322 -0.192243 0.062207 0.034125 -0.109864 -0.188592 0.164586 0.119311 0.539026 0.382094 -0.078972 0.147901 0.094201 0.080239 0.470168 0.194683 -0.197145 0.575124 0.414540 -0.046466 -0.216252 0.063482 -0.145259 0.291288 0.093535 -0.072523 -0.298832 -0.433030 -0.055955 -0.002825 -0.235419 0.001474 0.272462 -0.104260 -0.081628 0.264195
8 0.029515 -0.162853 -0.059331 0.075433 0.057193 0.027519 0.164676 0.179167 0.181897 -0.133025 0.207276 0.155206 -0.154352 -0.256783 0.185570 -0.291391 0.034786 -0.201594 0.032559 0.020214 0.004415 0.045498 -0.115973 0.007373 0.172134 -0.078704 -0.108271 -0.096123 0.043350 0.091219 -0.115836 -0.123727 -0.171781 0.090581 -0.038263 -0.241952 0.347601 0.129640 -0.018432 0.045997 -0.064017 -0.166085 0.227506 0.342778 -0.185866 0.120335 0.104296 -0.338178 -0.055742 0.002758 -0.054330 0.048132 0.073092 0.137171 -0.171053 -0.131188 -0.037069 -0.084324 0.001197 -0.126285 0.088033 -0.152603 0.004140 0.261645
0 -0.161534 -0.331811 0.055912 -0.180128 -0.025728 0.005748 -0.028464 0.157058 0.177844 -0.089476 0.196812 0.239281 -0.078994 -0.126951 0.191893 -0.262031 -0.031384 -0.018635 0.028312 -0.206528 0.108090 0.033330 0.100371 0.018065 -0.260718 -0.071720 0.062577 -0.034831 -0.058390 -0.143152 -0.027602 0.048255 -0.148564 0.014514 0.033373 -0.109940 0.437582 0.126296 0.085612 0.000439 -0.132577 -0.168106 0.341292 0.383178 -0.165034 0.314824 0.143602 -0.221051 -0.128674 0.013057 -0.175270 0.092095 0.038411 0.061972 -0.355860 -0.211075 -0.102788 0.141108 -0.365181 0.091171 0.152766 -0.229048 -0.168131 0.248941
3 0.006261 -0.159735 -0.039267 0.074844 0.072727 0.020753 0.162702 0.201680 0.166477 -0.152783 0.221782 0.147660 -0.154640 -0.273718 0.167875 -0.307138 0.054438 -0.212762 0.030457 0.002098 -0.008286 0.041444 -0.107034 0.025152 0.179099 -0.091626 -0.105846 -0.092629 0.068220 0.092832 -0.122677 -0.141226 -0.180624 0.105757 -0.045743 -0.251567 0.347483 0.134968 -0.012193 0.028011 -0.070771 -0.187446 0.256087 0.356020 -0.201597 0.103733 0.113663 -0.358581 -0.054439 0.011219 -0.036038 0.040500 0.040590 0.144680 -0.183381 -0.136125 -0.032702 -0.055596 -0.025092 -0.096807 0.087100 -0.147720 -0.008120 0.271472
10 -0.153049 -0.321179 0.034627 -0.135612 0.000196 -0.010896 -0.041901 0.079828 0.199245 -0.080918 0.185401 0.242037 -0.130942 -0.055981 0.230450 -0.185843 -0.167361 -0.022222 0.018230 -0.285488 0.207938 0.054589 0.077393 0.023384 -0.288799 -0.148930 0.088593 -0.039800 -0.082873 -0.142014 -0.004713 0.022931 -0.127060 -0.056372 0.073183 -0.010833 0.446570 0.217735 -0.010815 0.060192 -0.025941 -0.054362 0.382104 0.279311 -0.162147 0.402276 0.260812 -0.137300 -0.140934 0.018020 -0.146743 0.179726 0.071051 0.001520 -0.300844 -0.284601 -0.064540 0.041949 -0.268315 0.036903 0.197827 -0.146811 -0.133628 0.236019
5 0.122291 -0.106642 -0.123207 0.198994 0.116590 0.039423 0.289030 0.228847 0.194571 -0.194177 0.255624 0.132757 -0.195365 -0.366088 0.192061 -0.368880 0.102551 -0.331689 0.030494 0.140960 -0.065237 0.047917 -0.236153 0.030267 0.417116 -0.103804 -0.209515 -0.157240 0.112800 0.206964 -0.176580 -0.234687 -0.212312 0.161925 -0.082826 -0.359164 0.324044 0.129756 -0.053813 0.024805 -0.053065 -0.207878 0.198035 0.367981 -0.238640 0.005999 0.075787 -0.463487 -0.003698 -0.001422 0.003727 0.021660 0.073345 0.188651 -0.101755 -0.095867 0.005149 -0.161387 0.159796 -0.223264 0.056836 -0.146460 0.089322 0.303484
4 0.130223 -0.083657 -0.113129 0.210145 0.114692 0.043196 0.284919 0.282212 0.190194 -0.203207 0.270451 0.127129 -0.173666 -0.409778 0.183084 -0.390010 0.145848 -0.347811 0.039957 0.165625 -0.093796 0.027656 -0.242759 0.011159 0.452089 -0.082064 -0.232218 -0.150236 0.138947 0.217922 -0.189118 -0.246768 -0.218258 0.173516 -0.109144 -0.392714 0.340437 0.120498 -0.034466 0.013515 -0.088350 -0.248396 0.218326 0.417668 -0.236958 -0.025740 0.052397 -0.513308 -0.004072 -0.001705 0.010782 -0.014032 0.057950 0.229627 -0.126890 -0.070222 -0.004035 -0.149246 0.153367 -0.219957 0.072949 -0.164546 0.084544 0.310099
6 0.172259 -0.061201 -0.138057 0.269633 0.132454 0.054528 0.333130 0.277500 0.190749 -0.211703 0.271301 0.107672 -0.201039 -0.427613 0.195864 -0.389646 0.142696 -0.389623 0.038309 0.190075 -0.108280 0.023937 -0.286895 0.012191 0.537712 -0.105298 -0.256490 -0.181762 0.148878 0.269050 -0.196489 -0.288363 -0.212690 0.179658 -0.111534 -0.405010 0.318044 0.133529 -0.075230 0.006782 -0.069294 -0.222736 0.202384 0.382425 -0.255212 -0.046416 0.064468 -0.530744 0.027326 0.009849 0.033632 -0.001806 0.055845 0.231109 -0.071979 -0.069340 0.013584 -0.202955 0.236166 -0.269568 0.066151 -0.133521 0.124756 0.312258
9 -0.069280 -0.230025 -0.021397 -0.044371 0.023510 0.010699 0.055178 0.143379 0.199920 -0.106720 0.194847 0.204033 -0.125757 -0.175159 0.184866 -0.241138 -0.044943 -0.092709 0.017030 -0.107685 0.073167 0.059314 0.001102 0.002569 -0.060647 -0.082819 -0.018290 -0.074997 -0.018969 -0.022585 -0.061876 -0.026530 -0.156841 0.018873 0.022242 -0.150166 0.394532 0.148588 -0.010674 0.055476 -0.078333 -0.146915 0.293416 0.338293 -0.171523 0.229926 0.158223 -0.249748 -0.103678 -0.009393 -0.113292 0.099271 0.056926 0.080099 -0.228043 -0.188673 -0.064170 -0.007389 -0.151572 -0.039664 0.133210 -0.162672 -0.085735 0.250167
2 -0.058976 -0.229858 0.001810 -0.044776 0.022296 0.010279 0.071231 0.186460 0.160455 -0.117291 0.194297 0.189787 -0.100298 -0.204046 0.165874 -0.280467 0.014155 -0.111091 0.033920 -0.082281 0.045913 0.036307 -0.002207 0.014370 -0.025200 -0.072746 -0.035289 -0.057115 0.016853 -0.015269 -0.070772 -0.051068 -0.166238 0.070250 -0.024341 -0.174512 0.364514 0.107324 0.041803 0.008875 -0.097677 -0.167740 0.286589 0.354726 -0.178125 0.181297 0.104970 -0.285937 -0.073989 0.003331 -0.098797 0.050897 0.046059 0.119382 -0.265958 -0.152882 -0.053526 0.044436 -0.178333 -0.000746 0.110766 -0.179471 -0.080462 0.239283
7 0.128859 -0.085954 -0.122624 0.197484 0.104603 0.050025 0.281762 0.261698 0.200306 -0.195165 0.252238 0.129650 -0.175896 -0.396869 0.179348 -0.366691 0.132324 -0.324401 0.028044 0.155096 -0.086247 0.034782 -0.224925 0.019516 0.433244 -0.084167 -0.225389 -0.153171 0.121447 0.209514 -0.177881 -0.224439 -0.217715 0.160131 -0.104713 -0.376970 0.324967 0.105116 -0.047585 0.016322 -0.092526 -0.234820 0.211644 0.405849 -0.228216 -0.011281 0.063032 -0.484978 0.002467 -0.006108 -0.001269 0.004444 0.060518 0.222124 -0.121014 -0.068537 -0.005154 -0.159592 0.151215 -0.206109 0.067326 -0.153027 0.073325 0.305354
12 -0.201084 -0.377861 0.052215 -0.169617 -0.015189 -0.042995 -0.112116 0.003994 0.208827 -0.052457 0.191312 0.273073 -0.165919 0.018438 0.309756 -0.145782 -0.318178 -0.007975 0.019624 -0.431090 0.324089 0.074807 0.095959 0.013165 -0.422832 -0.227757 0.145340 -0.023180 -0.136086 -0.194418 0.056349 0.057225 -0.124893 -0.156245 0.151223 0.107301 0.507964 0.343859 -0.052246 0.132474 0.063736 0.047620 0.446597 0.206582 -0.181703 0.551956 0.375889 -0.052079 -0.216386 0.045171 -0.162150 0.269472 0.086572 -0.072910 -0.318250 -0.407889 -0.065350 0.022702 -0.264043 0.028667 0.260626 -0.107816 -0.121714 0.248655
13 -0.160850 -0.333308 0.043314 -0.135329 -0.005304 -0.038641 -0.084119 0.003974 0.196307 -0.052150 0.171806 0.234937 -0.158868 -0.001265 0.296114 -0.142614 -0.299914 -0.031764 0.011580 -0.394159 0.304028 0.063369 0.059900 0.017475 -0.362139 -0.220839 0.127124 -0.025268 -0.117097 -0.160697 0.042896 0.036439 -0.113546 -0.150836 0.137727 0.088003 0.477286 0.335765 -0.060763 0.122218 0.076750 0.054587 0.410232 0.185618 -0.174435 0.506213 0.355866 -0.053911 -0.196319 0.053399 -0.139502 0.254446 0.085129 -0.055301 -0.280148 -0.382296 -0.059971 -0.003906 -0.206510 0.000570 0.242936 -0.088840 -0.094806 0.224120
1 -0.166148 -0.317790 0.058998 -0.162957 -0.006269 -0.013344 -0.027956 0.145219 0.179626 -0.087013 0.178407 0.228184 -0.083522 -0.115668 0.173024 -0.239707 -0.054333 -0.021666 0.036712 -0.216883 0.126132 0.044604 0.096851 0.022798 -0.243744 -0.081392 0.067417 -0.018621 -0.043654 -0.131349 -0.036582 0.038621 -0.146140 0.011365 0.027664 -0.092224 0.404376 0.131758 0.066217 0.009760 -0.106283 -0.147821 0.348913 0.351040 -0.162820 0.300173 0.158084 -0.194593 -0.114843 0.015055 -0.161320 0.112708 0.038538 0.063956 -0.337205 -0.214056 -0.084342 0.120453 -0.331965 0.083306 0.155449 -0.202364 -0.165841 0.233952
