22 64
13 -0.034468 -0.105819 0.235819 -0.308378 -0.149964 0.028802 0.079649 -0.290848 -0.035057 0.353479 -0.326594 0.114927 0.085086 0.008749 0.105119 0.031147 -0.506187 -0.077852 -0.261068 -0.384084 0.351774 0.238747 0.185958 -0.109948 -0.292265 0.294717 0.292023 0.210543 -0.061570 0.023697 -0.107702 0.363221 -0.039447 -0.184921 0.262272 0.001995 0.244430 0.079740 -0.102757 0.082810 -0.237476 0.134786 0.021819 0.117844 0.132604 0.312939 0.119611 0.224777 -0.278548 0.155681 -0.236131 0.072430 0.109481 0.200567 -0.067637 -0.273185 -0.454442 -0.191207 0.076595 -0.274246 0.341396 -0.009124 -0.086054 -0.464818
11 -0.203775 -0.200314 0.135083 -0.282821 -0.318580 -0.129558 -0.069176 -0.172045 0.194328 0.255509 -0.135569 0.331981 0.056814 0.198466 -0.004274 0.122887 -0.445585 0.068431 -0.069676 -0.165937 0.414081 -0.054172 0.386343 0.019426 -0.273315 0.255613 0.280715 0.068635 -0.114729 -0.247049 0.028767 0.191024 0.094295 -0.184188 0.089618 0.078952 0.308206 0.143750 -0.011662 0.202679 -0.249712 0.065464 -0.034424 0.063171 0.108400 0.444305 0.387712 0.214586 -0.132850 -0.078853 -0.206522 0.082528 0.239417 -0.323473 -0.079428 -0.056946 -0.245651 -0.135749 -0.316074 0.049795 0.212913 -0.157555 -0.005494 0.110850
12 -0.083123 -0.232190 0.254668 -0.304202 -0.282711 -0.058273 -0.012047 -0.310543 0.111921 0.432972 -0.262657 0.361027 0.061096 0.218076 0.034860 0.168237 -0.596743 -0.106252 -0.189797 -0.241416 0.430333 0.071552 0.363665 -0.103285 -0.254208 0.384525 0.289764 0.175819 -0.088114 -0.043854 -0.021235 0.363422 0.049615 -0.242338 0.221563 0.039342 0.215028 0.182352 -0.069313 0.237808 -0.247182 0.089054 -0.040824 0.069573 0.166365 0.437239 0.297263 0.246823 -0.298837 0.106603 -0.296960 0.023090 0.117446 -0.121849 0.021811 -0.204282 -0.480893 -0.105471 0.043637 -0.255395 0.345837 -0.122543 0.014350 -0.247570
10 -0.238605 -0.117202 0.073501 -0.332429 -0.203688 -0.013435 0.037600 -0.108847 0.102066 0.098165 -0.066146 0.137983 0.043923 -0.075245 0.032213 -0.048802 -0.203147 0.145073 -0.059247 -0.229907 0.286033 0.091089 0.188213 0.097930 -0.307997 0.117204 0.274507 0.023874 -0.102617 -0.233407 -0.051856 0.105923 -0.019462 0.001224 0.037265 -0.059649 0.357579 0.015897 0.021195 -0.008898 -0.345639 0.002835 0.040165 0.200610 0.010973 0.332309 0.215735 0.065870 -0.006655 -0.123482 -0.142317 0.159431 0.254320 -0.095072 -0.247806 -0.059542 -0.160168 -0.206781 -0.478626 0.177032 0.135901 -0.101146 -0.152772 0.102213
5 -0.196175 -0.346882 0.111891 -0.229064 0.075772 -0.209447 0.119308 0.254540 0.341874 -0.116123 0.332542 0.271048 0.061028 -0.478115 0.193547 -0.521812 0.100215 -0.557208 0.121893 -0.130814 0.282727 -0.012554 -0.232249 0.253535 0.289256 -0.109082 0.076048 0.006126 0.176089 -0.152947 -0.330186 -0.069400 -0.302427 0.155964 -0.086115 -0.607107 0.305598 0.261767 0.222936 -0.295028 -0.368028 -0.399197 0.378671 0.595607 -0.334235 0.097062 0.085023 -0.532106 0.062207 0.134583 -0.203777 0.233209 0.054037 0.179558 -0.465369 -0.125272 -0.078558 0.064024 -0.133317 -0.062437 0.425999 -0.495554 -0.010061 0.372615
14 -0.133922 -0.070169 0.221561 -0.364496 -0.070849 0.134881 0.114946 -0.273449 -0.134840 0.246907 -0.303514 -0.008023 0.053117 -0.118681 0.115080 -0.043433 -0.341614 0.049878 -0.258352 -0.461599 0.273953 0.380694 0.120095 -0.059447 -0.375936 0.229743 0.295864 0.198722 -0.101293 0.029181 -0.117778 0.323002 -0.082264 -0.043738 0.265368 -0.033699 0.265642 -0.034230 -0.092448 0.002245 -0.337467 0.106651 0.056874 0.196498 0.096803 0.271437 0.012828 0.183898 -0.209344 0.095686 -0.191130 0.105359 0.112596 0.321923 -0.174464 -0.296456 -0.421587 -0.235862 -0.119903 -0.132726 0.260967 0.057575 -0.170458 -0.478346
9 -0.248966 -0.030119 0.091190 -0.367448 -0.070091 0.078480 0.120909 -0.103134 -0.046145 0.042727 -0.127245 -0.062653 0.066576 -0.283748 0.097366 -0.182007 -0.141756 0.157243 -0.143792 -0.403023 0.217781 0.305900 0.056483 0.063652 -0.355170 0.071574 0.275810 0.068978 -0.081355 -0.135700 -0.129319 0.146750 -0.111393 0.060274 0.126724 -0.114586 0.383575 -0.068493 -0.020465 -0.117561 -0.398469 0.015366 0.110395 0.278917 -0.032743 0.220037 0.035184 0.038663 -0.023851 -0.075787 -0.115779 0.200209 0.208241 0.230032 -0.325598 -0.179653 -0.200702 -0.280755 -0.446860 0.137068 0.167106 0.011868 -0.241444 -0.136649
4 -0.206747 -0.317011 0.122239 -0.235019 0.122736 -0.194124 0.115950 0.360010 0.300007 -0.155877 0.348062 0.252740 0.077864 -0.611435 0.214226 -0.619594 0.178522 -0.555583 0.127899 -0.165722 0.267688 0.046197 -0.255497 0.245020 0.312742 -0.125577 0.037272 0.060827 0.227613 -0.111987 -0.350016 -0.095353 -0.388593 0.235076 -0.134015 -0.653676 0.363505 0.218884 0.249691 -0.311949 -0.412457 -0.430665 0.486658 0.719104 -0.374090 0.056725 0.025069 -0.608408 0.058852 0.136057 -0.170354 0.195293 0.062160 0.360227 -0.603108 -0.132182 -0.062130 0.078449 -0.193315 -0.020765 0.443897 -0.509287 -0.052124 0.348829
17 -0.055578 -0.362585 0.332719 -0.292158 -0.390293 -0.174559 -0.062097 -0.340080 0.299231 0.580610 -0.258216 0.598534 0.097627 0.392890 -0.007905 0.276723 -0.760711 -0.304893 -0.194493 -0.118715 0.562542 -0.106958 0.490082 -0.126173 -0.142493 0.534981 0.285015 0.186549 -0.067896 -0.039820 -0.000522 0.436079 0.152731 -0.380856 0.237749 -0.013695 0.181501 0.359165 -0.046349 0.384515 -0.245871 0.022698 -0.116415 0.054509 0.199623 0.525842 0.439735 0.278761 -0.377204 0.174049 -0.417251 -0.034716 0.083877 -0.342391 0.169563 -0.202070 -0.629447 -0.006879 0.221185 -0.425763 0.463493 -0.266679 0.173874 -0.191279
2 -0.202533 -0.127367 0.056087 -0.322976 -0.061454 0.001797 0.109346 0.089528 0.066506 -0.023798 0.059344 0.096185 0.051528 -0.399255 0.124600 -0.338524 0.018163 -0.013416 -0.016982 -0.241771 0.196197 0.180652 -0.006892 0.135007 -0.142357 -0.006464 0.165206 0.049189 0.020596 -0.129167 -0.141072 0.026741 -0.237956 0.182462 -0.047953 -0.280606 0.397165 -0.014034 0.112960 -0.161782 -0.388188 -0.120488 0.225054 0.435138 -0.168841 0.184712 0.034934 -0.206852 0.031433 -0.050023 -0.107036 0.145142 0.207480 0.243630 -0.471853 -0.094312 -0.097702 -0.116917 -0.458685 0.170708 0.161819 -0.189956 -0.198283 0.115915
0 -0.259300 -0.189989 0.036945 -0.293103 -0.084010 -0.108906 0.048456 0.078314 0.210719 -0.062982 0.169007 0.145497 0.057071 -0.262788 0.101419 -0.285032 0.022972 -0.103189 0.061165 -0.153985 0.232994 0.006121 -0.028145 0.209641 -0.061412 -0.049480 0.182603 -0.038514 0.000501 -0.281864 -0.156406 -0.015644 -0.128596 0.090231 -0.046742 -0.295360 0.327152 0.097735 0.153507 -0.189192 -0.348812 -0.180094 0.158319 0.345160 -0.164956 0.197055 0.130857 -0.214725 0.084446 -0.061369 -0.126700 0.217698 0.181858 -0.040992 -0.365727 -0.028474 -0.030247 -0.077788 -0.441990 0.180833 0.195520 -0.286917 -0.109784 0.330477
8 -0.176760 -0.123383 0.093190 -0.293394 -0.039513 0.029559 0.106185 0.042058 0.029199 0.020693 0.007001 0.072068 0.041182 -0.342284 0.120166 -0.281836 -0.012919 -0.030020 -0.046645 -0.249753 0.181652 0.207409 -0.003694 0.084518 -0.137524 0.042194 0.155454 0.083909 0.009840 -0.061363 -0.139342 0.072805 -0.201563 0.150328 0.007397 -0.250183 0.340000 -0.009855 0.081482 -0.110932 -0.358532 -0.103883 0.188565 0.396161 -0.120072 0.174255 0.005345 -0.154517 -0.020667 -0.004312 -0.122595 0.112491 0.159008 0.271013 -0.397441 -0.132741 -0.164747 -0.116085 -0.345548 0.085691 0.173883 -0.147178 -0.168137 0.006218
21 -0.268794 -0.142747 0.037556 -0.305707 -0.136879 -0.088698 0.039752 0.028992 0.175500 -0.015938 0.088267 0.134075 0.055009 -0.216629 0.065977 -0.204711 -0.045751 0.011411 0.039870 -0.175982 0.256495 0.028625 0.052083 0.181346 -0.144223 -0.005264 0.217319 -0.017416 -0.029515 -0.277351 -0.109444 0.001416 -0.092012 0.072802 -0.046126 -0.205555 0.347460 0.065171 0.111390 -0.122631 -0.352268 -0.102630 0.120192 0.287579 -0.116352 0.241584 0.175310 -0.113393 0.080630 -0.107985 -0.109920 0.207957 0.232495 -0.070447 -0.343607 -0.017466 -0.043575 -0.144906 -0.500676 0.222235 0.154376 -0.213261 -0.131190 0.288323
1 -0.278697 -0.273832 0.080601 -0.287267 0.045461 -0.162651 0.102356 0.238999 0.279711 -0.150114 0.290959 0.170528 0.068803 -0.490117 0.163856 -0.500164 0.149807 -0.342899 0.121486 -0.184417 0.254897 0.034005 -0.186421 0.270773 0.134726 -0.125330 0.131093 -0.001120 0.120605 -0.230417 -0.296226 -0.076873 -0.270703 0.194889 -0.103449 -0.528600 0.352776 0.156861 0.224802 -0.313727 -0.417652 -0.342599 0.347194 0.569371 -0.304631 0.116399 0.065646 -0.450781 0.120421 0.035375 -0.157253 0.262270 0.127188 0.172575 -0.530540 -0.082745 -0.025119 -0.013859 -0.371689 0.116559 0.331765 -0.418186 -0.109082 0.386038
3 -0.179634 -0.235548 0.108353 -0.272762 0.045300 -0.058839 0.119514 0.225349 0.161036 -0.070780 0.201939 0.186333 0.042871 -0.523394 0.173011 -0.485799 0.132641 -0.308948 0.044167 -0.183971 0.199444 0.134714 -0.136757 0.181111 0.111829 -0.049820 0.067082 0.078493 0.134527 -0.049226 -0.235582 -0.017735 -0.337897 0.242248 -0.095594 -0.496362 0.351070 0.097453 0.194147 -0.207676 -0.399143 -0.295123 0.356842 0.608783 -0.276339 0.115588 -0.006736 -0.432767 0.016626 0.077881 -0.144305 0.125765 0.096475 0.359707 -0.542567 -0.129811 -0.122429 0.016132 -0.281093 0.049923 0.282093 -0.349470 -0.119055 0.198627
16 -0.085871 -0.088395 0.231135 -0.331757 -0.177638 0.032595 0.078369 -0.317919 -0.052307 0.351114 -0.337855 0.115229 0.073772 0.048775 0.102305 0.047071 -0.532491 -0.024496 -0.272363 -0.420076 0.349521 0.256619 0.233573 -0.113521 -0.343246 0.295719 0.328642 0.190744 -0.093730 -0.032930 -0.099364 0.365944 -0.024150 -0.196659 0.278727 0.050956 0.275417 0.047148 -0.122196 0.067995 -0.273484 0.169973 0.015869 0.089527 0.152124 0.326973 0.150792 0.268362 -0.275809 0.126120 -0.209335 0.092071 0.134124 0.152007 -0.059678 -0.261970 -0.436509 -0.215093 -0.009184 -0.229789 0.328869 -0.001433 -0.115046 -0.455574
15 -0.144410 -0.056899 0.210764 -0.359952 -0.018696 0.142626 0.141466 -0.243978 -0.131873 0.194158 -0.266505 -0.067831 0.070317 -0.189968 0.137393 -0.107703 -0.296088 0.015761 -0.264739 -0.483450 0.254877 0.401259 0.049254 -0.046827 -0.351412 0.186820 0.269715 0.183883 -0.073905 0.026566 -0.163007 0.310697 -0.093859 -0.030168 0.267160 -0.084468 0.262492 -0.035907 -0.073157 -0.046654 -0.343956 0.074489 0.077727 0.228346 0.067004 0.227396 -0.052031 0.132697 -0.187376 0.096632 -0.184369 0.133011 0.094679 0.392501 -0.207626 -0.319331 -0.407798 -0.258164 -0.098018 -0.129456 0.285693 0.072546 -0.183975 -0.490193
19 -0.016098 -0.380113 0.337101 -0.279112 -0.368039 -0.152758 -0.066012 -0.325456 0.299401 0.571459 -0.250413 0.615871 0.074279 0.375771 -0.002210 0.261569 -0.733775 -0.331585 -0.168499 -0.081767 0.539332 -0.112047 0.468552 -0.122586 -0.110859 0.529362 0.248619 0.191345 -0.060969 -0.007107 0.004304 0.427446 0.128688 -0.361430 0.214157 -0.028970 0.142526 0.360368 -0.026503 0.387974 -0.226190 0.011664 -0.092666 0.065332 0.194050 0.518794 0.420595 0.228936 -0.376129 0.194204 -0.416210 -0.056246 0.051930 -0.305248 0.166835 -0.190272 -0.626511 0.025938 0.263731 -0.439810 0.446332 -0.282474 0.184084 -0.177497
20 -0.217719 -0.208338 0.152379 -0.293957 -0.366339 -0.176607 -0.045424 -0.231692 0.194786 0.290866 -0.166148 0.337257 0.075835 0.251803 -0.020080 0.171446 -0.553032 0.050501 -0.086584 -0.215502 0.462133 -0.068374 0.416128 0.008725 -0.288701 0.283427 0.353206 0.060133 -0.116427 -0.294713 -0.002552 0.210293 0.116504 -0.249451 0.133639 0.115671 0.327802 0.168385 -0.056915 0.178407 -0.263394 0.079537 -0.060035 0.014508 0.142308 0.470229 0.466210 0.260281 -0.151538 -0.079139 -0.237313 0.127805 0.254523 -0.413378 -0.031553 -0.071129 -0.264662 -0.183824 -0.287113 0.016931 0.275707 -0.140743 -0.005629 0.099456
7 -0.112797 -0.301487 0.111948 -0.202028 0.087960 -0.130264 0.114573 0.294918 0.250107 -0.083233 0.270171 0.257869 0.050947 -0.535080 0.207818 -0.532067 0.142485 -0.511754 0.084752 -0.121919 0.216424 0.051363 -0.205654 0.189469 0.297167 -0.083114 -0.002868 0.071257 0.193734 -0.022058 -0.273580 -0.035248 -0.370208 0.206411 -0.116544 -0.575949 0.280120 0.179163 0.216655 -0.236503 -0.349354 -0.358283 0.410890 0.634606 -0.324715 0.068028 -0.002480 -0.532296 0.016878 0.166433 -0.177846 0.128615 0.028330 0.370636 -0.515880 -0.129054 -0.105926 0.099581 -0.082453 -0.067349 0.372614 -0.445982 -0.029587 0.251223
6 -0.230542 -0.355322 0.133906 -0.231335 0.102922 -0.232954 0.127475 0.310230 0.364707 -0.143934 0.368849 0.260647 0.076344 -0.543954 0.211018 -0.577307 0.127012 -0.617570 0.144399 -0.170111 0.297126 -0.022907 -0.267615 0.265362 0.334558 -0.137393 0.087331 0.005003 0.209004 -0.169842 -0.376204 -0.095010 -0.318158 0.165437 -0.099005 -0.661871 0.331349 0.287171 0.234670 -0.357620 -0.416400 -0.434010 0.448794 0.648027 -0.374042 0.081298 0.088603 -0.594361 0.092261 0.160100 -0.202507 0.269357 0.036544 0.224655 -0.513246 -0.135484 -0.070615 0.059047 -0.148434 -0.061675 0.492561 -0.525504 -0.025006 0.398677
18 0.001920 -0.392058 0.348215 -0.279886 -0.371271 -0.152512 -0.093597 -0.331855 0.298422 0.627930 -0.276642 0.658087 0.087317 0.403231 0.000821 0.277320 -0.768783 -0.342044 -0.196746 -0.068616 0.562916 -0.102432 0.513544 -0.153208 -0.095575 0.578533 0.236657 0.222648 -0.053499 0.038527 0.024444 0.472097 0.132373 -0.366548 0.237742 -0.022100 0.119533 0.366749 -0.029777 0.450099 -0.224437 0.030496 -0.109927 0.061473 0.207438 0.538456 0.402965 0.254882 -0.413858 0.211228 -0.435334 -0.102653 0.045358 -0.275899 0.180319 -0.199927 -0.668730 0.037828 0.310308 -0.484834 0.467909 -0.293286 0.206393 -0.230769
