23 64
20 -0.200387 -0.216253 0.141043 -0.060718 -0.495980 -0.275708 0.387015 0.049896 0.041681 0.035896 0.000571 0.181661 0.193439 -0.394696 0.237171 -0.253151 -0.370565 -0.478246 0.030939 -0.149113 0.386691 -0.225659 0.282827 0.067304 0.284869 0.302537 0.171997 -0.373903 0.116890 -0.019749 -0.134589 -0.236145 -0.009928 -0.129934 0.040331 -0.437522 0.569490 0.190058 -0.224881 -0.282519 -0.615128 -0.311452 -0.205082 0.414888 -0.098424 0.400314 0.383749 -0.083542 0.196293 -0.051027 -0.278187 0.090058 0.049314 -0.424612 0.085945 -0.117824 -0.241808 -0.303379 -0.172314 -0.125972 0.508006 -0.040567 0.370627 0.486958
0 -0.525620 -0.419670 0.497812 -0.467589 -0.189276 -0.177152 0.069421 0.125935 -0.152614 -0.074905 0.411363 0.045565 0.078509 -0.321669 0.007924 -0.557853 0.480992 -0.555256 -0.095504 -0.297645 -0.113832 -0.144347 0.015074 0.443978 0.076259 -0.070968 0.079199 0.227120 0.294407 -0.226349 -0.197778 0.132801 -0.324055 0.236011 -0.071373 -0.583106 0.189348 0.194396 0.666800 -0.236746 -0.359293 -0.719680 0.033566 0.669537 -0.255382 0.011956 -0.064863 -0.419223 -0.395703 0.376816 -0.122443 -0.167659 -0.360704 -0.046723 -0.676136 -0.238935 -0.401819 0.729988 -0.532526 0.538733 0.014777 -0.425310 -0.072318 0.376011
14 -0.054658 -0.289801 0.300163 -0.263194 0.158872 0.187646 -0.181845 -0.165463 0.410123 0.208018 -0.185152 0.393249 -0.215445 0.253610 0.062866 0.095203 -0.254467 -0.150525 -0.158574 -0.149045 0.339065 0.139615 0.108695 0.063426 -0.247259 0.154062 0.037231 0.312326 -0.240958 -0.010715 -0.003177 0.385990 0.100012 -0.192751 0.142173 -0.019728 0.051950 0.256951 0.086870 0.414617 -0.064246 0.096736 0.333524 0.179517 0.101952 0.346577 0.221657 0.099470 -0.315647 0.275432 -0.161502 0.068483 -0.008489 0.239241 -0.045227 -0.240127 -0.486582 0.117116 0.094379 -0.263195 0.141176 -0.323382 0.003876 -0.286923
6 -0.138979 -0.185673 0.136770 -0.026157 -0.361090 -0.190946 0.295470 0.042837 0.101862 0.061434 -0.003846 0.198104 0.116934 -0.281062 0.196994 -0.179651 -0.330976 -0.421335 0.025023 -0.100905 0.315222 -0.175547 0.218428 0.003261 0.233403 0.254928 0.107043 -0.278433 0.079271 0.029355 -0.100703 -0.163194 0.026165 -0.135250 0.037364 -0.350214 0.450845 0.208261 -0.183573 -0.153767 -0.470451 -0.220666 -0.110612 0.324014 -0.087479 0.326547 0.316033 -0.076745 0.128551 -0.001530 -0.220749 0.072037 0.024834 -0.295988 0.108814 -0.126751 -0.245078 -0.235409 -0.057890 -0.191744 0.422336 -0.055149 0.303023 0.335229
15 -0.069729 -0.273586 0.242720 -0.244515 0.077288 0.233660 -0.072529 -0.139378 0.398022 0.106588 -0.150931 0.325937 -0.214180 0.159792 0.097712 0.074033 -0.248392 -0.094193 -0.161316 -0.203567 0.293008 0.119015 0.130835 0.066090 -0.284000 0.097822 0.005715 0.187490 -0.243422 -0.065670 -0.016360 0.328679 0.083362 -0.215023 0.078796 -0.013116 0.141170 0.168623 0.037172 0.308093 -0.142951 0.053681 0.347478 0.239781 0.105199 0.388958 0.245364 0.061817 -0.228546 0.190830 -0.175068 0.134264 -0.000133 0.217554 -0.097527 -0.240198 -0.439781 0.010070 0.021331 -0.136049 0.154921 -0.206476 -0.055645 -0.183945
17 -0.168781 -0.212904 0.274257 -0.156475 0.041657 0.021710 -0.063345 0.074036 0.287714 0.133879 0.097352 0.329962 -0.052802 0.120434 0.010833 -0.133630 0.078215 -0.392691 -0.208097 -0.004123 0.069245 -0.048785 0.089772 0.073660 0.140251 0.123649 -0.093885 0.216566 0.008692 -0.013765 -0.052815 0.252830 0.052451 -0.038779 0.040626 -0.262029 0.068398 0.198091 0.270734 0.237302 -0.189463 -0.178499 0.131319 0.298971 -0.060432 0.006059 0.022604 -0.091365 -0.311866 0.290807 -0.050573 -0.149696 -0.099280 0.123096 -0.118054 -0.140226 -0.417212 0.350033 0.014515 -0.118205 0.089738 -0.425889 0.094200 -0.127512
4 -0.240048 -0.208533 0.269430 -0.148280 -0.123831 -0.140070 0.071960 0.117681 0.096480 0.060694 0.182344 0.207188 0.063949 -0.115781 0.042598 -0.270297 0.096462 -0.480070 -0.098372 -0.053493 0.061488 -0.131460 0.077112 0.123619 0.239491 0.112714 -0.011364 0.074920 0.152405 -0.034100 -0.111659 0.059182 -0.053781 0.029300 0.000363 -0.388388 0.189129 0.206577 0.247263 -0.007447 -0.291807 -0.340137 0.002797 0.375255 -0.139619 0.010593 0.048678 -0.191350 -0.199199 0.220159 -0.076353 -0.130805 -0.125397 -0.056985 -0.168163 -0.127003 -0.317802 0.294790 -0.106990 -0.003081 0.164165 -0.331804 0.146848 0.133543
10 -0.029081 -0.260081 0.172185 -0.195263 0.012447 0.237938 0.012675 -0.151925 0.445837 0.090661 -0.221020 0.345360 -0.224430 0.108554 0.151980 0.124501 -0.390109 -0.050085 -0.141932 -0.235218 0.383337 0.124883 0.181447 0.033918 -0.292824 0.127123 0.052542 0.059926 -0.300973 -0.054720 -0.017761 0.256771 0.099475 -0.277101 0.088229 0.006057 0.267335 0.144516 -0.155796 0.249463 -0.223857 0.102531 0.366001 0.253690 0.123240 0.502228 0.383576 0.109733 -0.105841 0.112378 -0.224767 0.238801 0.077556 0.156567 -0.008757 -0.236952 -0.405464 -0.190762 0.021757 -0.208569 0.248077 -0.129016 -0.033856 -0.121025
16 -0.119042 -0.166338 0.148535 -0.090326 -0.031462 0.097508 0.062448 0.058662 0.358907 0.064583 0.009653 0.319895 -0.099577 0.052858 0.101150 -0.064872 -0.087118 -0.274548 -0.209256 -0.082446 0.139299 -0.006569 0.145511 0.018642 0.090675 0.105745 -0.080205 0.036797 -0.103050 -0.040595 -0.046666 0.184694 0.069874 -0.141781 0.033594 -0.178675 0.228162 0.101076 0.018831 0.159811 -0.305134 -0.077076 0.203748 0.311265 -0.017941 0.144188 0.181335 -0.033722 -0.149793 0.163832 -0.086707 0.020929 0.010612 0.107590 -0.045835 -0.136769 -0.349080 0.042422 0.002225 -0.144283 0.184424 -0.280105 0.066649 -0.063985
7 -0.068358 -0.167156 0.076166 -0.056066 -0.168308 0.091163 0.182117 0.005823 0.375317 0.042251 -0.092553 0.309985 -0.077387 -0.054353 0.186115 -0.005686 -0.311405 -0.220279 -0.151368 -0.138382 0.290600 -0.022124 0.216760 -0.010627 0.043888 0.154772 -0.022930 -0.145895 -0.159795 -0.033963 -0.033083 0.083333 0.091287 -0.241990 0.034864 -0.151825 0.372085 0.090304 -0.204604 0.077723 -0.406531 -0.026771 0.169770 0.314235 0.018866 0.344937 0.343750 0.028169 0.024905 0.036425 -0.183661 0.159343 0.092395 -0.009539 0.056054 -0.148610 -0.314912 -0.245825 0.010011 -0.191280 0.318776 -0.114918 0.129486 0.061379
3 -0.357425 -0.282080 0.350970 -0.269855 -0.129819 -0.127084 0.079918 0.128020 0.015446 -0.009279 0.271960 0.140646 0.042275 -0.193590 0.017804 -0.375565 0.278799 -0.491388 -0.121219 -0.161451 -0.033107 -0.114045 0.050536 0.263500 0.176957 0.012599 0.004755 0.149051 0.198910 -0.108067 -0.145886 0.102022 -0.173713 0.120661 -0.045403 -0.456900 0.179556 0.170445 0.409434 -0.089815 -0.318728 -0.486345 0.048933 0.506367 -0.187580 -0.008893 0.007008 -0.276215 -0.280350 0.289621 -0.078412 -0.133745 -0.218259 -0.013787 -0.390049 -0.172564 -0.347841 0.471894 -0.280188 0.237976 0.076417 -0.364269 0.028449 0.211359
19 -0.051631 -0.334916 0.401151 -0.330216 0.197917 0.110575 -0.279908 -0.193168 0.329630 0.281883 -0.181453 0.388684 -0.156860 0.283946 0.000217 0.041606 -0.216205 -0.220352 -0.109424 -0.069650 0.346148 0.092757 0.093399 0.107840 -0.243593 0.229169 0.078744 0.419291 -0.149813 0.016003 -0.024325 0.414587 0.100161 -0.128767 0.162380 -0.077955 -0.076636 0.344157 0.251560 0.449054 0.033149 0.045794 0.234139 0.129525 0.105589 0.313115 0.114771 0.064507 -0.392599 0.340679 -0.165883 -0.054711 -0.088743 0.222134 -0.048976 -0.213975 -0.528117 0.285737 0.106174 -0.276280 0.098987 -0.406382 0.039061 -0.303753
9 -0.016664 -0.224332 0.083057 -0.107898 -0.096510 0.242154 0.138937 -0.103115 0.514110 0.057303 -0.231100 0.377922 -0.211140 0.029463 0.223474 0.124731 -0.495031 -0.066318 -0.154014 -0.229728 0.401023 0.098270 0.252822 -0.051678 -0.205310 0.163255 0.006537 -0.114896 -0.329793 -0.040147 -0.007648 0.188462 0.132443 -0.357271 0.080715 -0.011908 0.411930 0.104113 -0.317198 0.210196 -0.368560 0.111527 0.349080 0.297101 0.108686 0.544164 0.467509 0.110967 0.003514 0.019769 -0.252665 0.298803 0.136681 0.096781 0.084964 -0.230653 -0.390887 -0.383340 0.044593 -0.268764 0.344153 -0.059536 0.027802 -0.035744
18 -0.094020 -0.246473 0.305890 -0.226683 0.170987 0.080164 -0.207628 -0.043452 0.345841 0.231220 -0.042943 0.384895 -0.111145 0.243816 -0.000706 -0.042842 -0.051709 -0.290911 -0.197368 0.002324 0.200554 0.041662 0.089174 0.075856 -0.016323 0.183523 -0.023553 0.339136 -0.083117 0.015060 -0.033177 0.363142 0.098032 -0.070622 0.125411 -0.161538 -0.028925 0.261716 0.260606 0.392549 -0.065301 -0.021015 0.185306 0.186874 0.020372 0.124068 0.039353 -0.000527 -0.366789 0.317465 -0.080131 -0.126982 -0.066393 0.216655 -0.063522 -0.152336 -0.465856 0.312923 0.078980 -0.239381 0.080929 -0.461266 0.065549 -0.271406
5 -0.166272 -0.153864 0.146517 -0.019170 -0.204043 -0.159597 0.198345 0.124617 0.186626 0.063755 0.115130 0.259083 0.074074 -0.149518 0.117221 -0.216589 -0.091385 -0.495488 -0.098848 -0.014080 0.156863 -0.147290 0.130153 0.030841 0.348918 0.170530 -0.022250 -0.110654 0.101893 0.019145 -0.098856 -0.041266 0.012135 -0.062533 0.021696 -0.380743 0.315417 0.192799 0.003949 -0.031881 -0.382986 -0.250899 -0.043774 0.339689 -0.139363 0.071387 0.172525 -0.123923 -0.042945 0.117021 -0.104344 -0.045230 -0.008851 -0.151076 0.026282 -0.107712 -0.270413 0.031320 -0.003627 -0.178899 0.281812 -0.252403 0.265209 0.174937
13 -0.026300 -0.382275 0.371151 -0.402485 0.173751 0.238370 -0.214360 -0.325801 0.361362 0.192731 -0.301710 0.310668 -0.272247 0.205248 0.076407 0.147788 -0.399965 -0.004960 -0.060587 -0.303916 0.462843 0.216181 0.081128 0.138855 -0.575949 0.120846 0.172107 0.366851 -0.297560 -0.050643 -0.022478 0.421116 0.040471 -0.238338 0.150656 0.069076 0.060940 0.311961 0.075684 0.399734 0.051223 0.131793 0.424792 0.165569 0.171083 0.584429 0.310387 0.133965 -0.321669 0.264382 -0.265262 0.216266 -0.029365 0.269370 -0.131062 -0.333175 -0.509407 0.043465 0.041804 -0.185838 0.140884 -0.187836 -0.132423 -0.255723
12 -0.016481 -0.395690 0.368657 -0.396835 0.155320 0.232572 -0.227760 -0.366782 0.380504 0.226024 -0.339832 0.361104 -0.279189 0.239092 0.097907 0.198581 -0.507394 0.001522 -0.037387 -0.308231 0.541602 0.226136 0.119231 0.107593 -0.597649 0.160969 0.192965 0.345037 -0.328661 -0.039284 -0.002218 0.413867 0.066432 -0.277801 0.176989 0.105584 0.073524 0.343282 0.011003 0.436473 0.042253 0.180735 0.424446 0.131661 0.199018 0.659888 0.366805 0.175217 -0.303887 0.237692 -0.288049 0.239740 -0.004620 0.223548 -0.070185 -0.344748 -0.516656 -0.025685 0.077593 -0.250709 0.196583 -0.166889 -0.090327 -0.253471
8 -0.055096 -0.197941 0.060457 -0.055570 -0.186601 0.161138 0.220987 -0.032840 0.424487 0.023509 -0.149755 0.318295 -0.143006 -0.053866 0.235903 0.040793 -0.413615 -0.136523 -0.132339 -0.203755 0.338615 0.020239 0.245689 -0.048026 -0.068595 0.155210 0.001464 -0.191973 -0.244554 -0.045464 -0.029916 0.084594 0.112541 -0.300539 0.045053 -0.087534 0.463287 0.077122 -0.299548 0.095336 -0.432551 0.028145 0.241240 0.328165 0.055797 0.474240 0.432882 0.058215 0.057317 -0.003016 -0.228675 0.252543 0.138300 0.001807 0.066297 -0.192528 -0.333947 -0.377600 -0.012701 -0.209769 0.351449 -0.048446 0.083105 0.077035
11 -0.009200 -0.320440 0.253371 -0.278796 0.065672 0.227836 -0.091014 -0.274807 0.423418 0.154192 -0.320231 0.347658 -0.252081 0.164196 0.154425 0.177413 -0.518594 -0.011709 -0.077018 -0.288968 0.513632 0.176164 0.162222 0.059651 -0.457339 0.154246 0.137823 0.165567 -0.341897 -0.046647 -0.000109 0.310334 0.103340 -0.317647 0.150086 0.079690 0.209141 0.255794 -0.136511 0.341978 -0.095982 0.181256 0.388178 0.171941 0.171409 0.628310 0.423073 0.179861 -0.168840 0.150767 -0.268003 0.277205 0.066307 0.161835 0.005388 -0.299705 -0.449074 -0.184134 0.059758 -0.262570 0.253100 -0.113006 -0.026458 -0.170469
21 -0.208438 -0.218607 0.143799 -0.075854 -0.541261 -0.287814 0.415581 0.027306 0.014949 0.026744 -0.006297 0.156358 0.200556 -0.455118 0.258405 -0.261073 -0.399494 -0.476303 0.074276 -0.171716 0.408862 -0.232668 0.284694 0.078410 0.254326 0.297222 0.194188 -0.413559 0.126238 -0.017981 -0.134431 -0.274319 -0.031498 -0.133637 0.016764 -0.455950 0.597300 0.200779 -0.244403 -0.327540 -0.629558 -0.323407 -0.220096 0.428627 -0.105792 0.451660 0.403586 -0.083662 0.239970 -0.069882 -0.292535 0.125983 0.044172 -0.457386 0.081958 -0.126785 -0.227325 -0.343547 -0.195043 -0.102969 0.521440 0.008678 0.367108 0.548388
2 -0.470622 -0.389912 0.461267 -0.422850 -0.171273 -0.162055 0.080973 0.126683 -0.112224 -0.064107 0.355017 0.069221 0.068215 -0.302861 0.005083 -0.510067 0.410726 -0.520038 -0.088751 -0.275361 -0.081489 -0.122509 0.029790 0.396575 0.074534 -0.053094 0.063643 0.214655 0.273526 -0.192511 -0.187117 0.121095 -0.302049 0.210881 -0.083163 -0.537685 0.186888 0.172837 0.594392 -0.208486 -0.338198 -0.651054 0.062314 0.630568 -0.236803 0.013541 -0.043435 -0.379517 -0.350673 0.346692 -0.118442 -0.145443 -0.316521 -0.012991 -0.619066 -0.225194 -0.376920 0.659002 -0.470560 0.471242 0.028393 -0.391183 -0.067402 0.324219
1 -0.494603 -0.420110 0.516762 -0.460518 -0.151566 -0.206875 0.039838 0.107757 -0.140534 -0.034871 0.349583 0.057617 0.085946 -0.296445 -0.019540 -0.525998 0.430903 -0.553843 -0.056874 -0.273134 -0.063670 -0.128669 0.011691 0.428632 0.074658 -0.032031 0.101519 0.275862 0.302892 -0.189532 -0.206987 0.137716 -0.311896 0.235155 -0.068797 -0.567032 0.135165 0.214674 0.655028 -0.203465 -0.308229 -0.681724 0.036085 0.623428 -0.238571 0.004307 -0.068187 -0.380820 -0.381376 0.388608 -0.131909 -0.164282 -0.348722 -0.021572 -0.634214 -0.228642 -0.397981 0.724339 -0.474289 0.469871 0.022460 -0.429314 -0.057860 0.325032
22 -0.171787 -0.229661 0.136768 -0.071558 -0.508432 -0.270151 0.393339 0.003128 0.024895 0.030986 -0.049819 0.162013 0.181769 -0.428155 0.260804 -0.230170 -0.443021 -0.437692 0.086313 -0.170148 0.432272 -0.205934 0.290890 0.064799 0.206311 0.310647 0.200529 -0.403927 0.099760 -0.001978 -0.130555 -0.258428 -0.027333 -0.152201 0.034768 -0.416711 0.577158 0.195479 -0.276925 -0.301838 -0.584832 -0.291185 -0.198740 0.404418 -0.075957 0.482426 0.409677 -0.056082 0.239720 -0.076015 -0.310785 0.139530 0.044924 -0.431915 0.110764 -0.132787 -0.222940 -0.360575 -0.160415 -0.141534 0.522676 0.026233 0.355723 0.517589
