24 64
18 0.198305 -0.335204 0.164840 -0.225752 -0.126146 -0.244772 -0.215344 -0.070564 0.146611 0.500330 -0.545299 0.206956 0.323568 0.214533 0.017522 -0.050288 -0.678785 0.009044 -0.250551 -0.057757 0.711741 -0.234849 0.527167 0.077911 0.117778 0.640749 0.445215 0.253514 0.033563 -0.106594 -0.148833 0.425013 0.273768 -0.244126 0.427552 0.112838 -0.003791 0.136586 -0.001232 0.280223 -0.186385 0.276214 -0.288525 -0.188765 0.283868 0.603260 0.269959 0.186439 -0.123404 0.058133 -0.485922 -0.154196 0.221038 0.022820 0.023662 0.154090 -0.375425 -0.388968 -0.009024 -0.201514 0.503077 -0.288406 0.200129 -0.120834
15 -0.309700 -0.195292 0.409009 -0.203028 -0.182860 0.104782 0.386775 -0.308663 0.149720 0.229936 -0.035394 0.311063 0.031277 0.230893 0.120353 0.109495 -0.349094 -0.582630 -0.473588 -0.415926 0.362658 0.193020 0.141414 -0.041022 -0.134268 0.228562 0.024150 0.108424 -0.029682 0.031758 -0.210744 0.256400 0.128792 -0.164588 0.087318 -0.299041 0.341553 0.077054 -0.071602 0.005279 -0.429335 -0.187208 0.009907 0.447873 0.140343 0.163144 0.053593 0.349229 -0.293282 0.297783 -0.159542 0.018518 0.051034 0.004247 0.003857 -0.548290 -0.703652 0.076622 0.264289 -0.406876 0.467199 -0.049884 0.152113 -0.679989
12 0.045242 -0.290706 0.167045 -0.193728 0.010704 -0.158505 -0.162469 -0.085891 0.204768 0.351595 -0.346896 0.222117 0.134414 0.209104 0.011750 0.005374 -0.491948 0.000805 -0.253777 -0.163912 0.556381 -0.030086 0.385024 0.048552 0.002351 0.448465 0.389107 0.259849 -0.009073 -0.084657 -0.163959 0.345884 0.169588 -0.174399 0.390728 0.062059 0.112118 0.158130 -0.072501 0.273214 -0.169185 0.126465 -0.044377 -0.001691 0.189174 0.476875 0.320564 0.129619 -0.172979 0.063950 -0.378885 -0.020188 0.160178 0.080933 -0.013908 0.020128 -0.337116 -0.289944 -0.034223 -0.199749 0.419333 -0.246596 0.030273 -0.146757
2 -0.141645 0.054132 -0.101299 -0.530933 -0.237073 -0.287087 -0.214409 0.005268 0.065695 0.131652 -0.014851 0.378847 0.400390 -0.445598 -0.146692 -0.255237 -0.276623 0.008459 -0.068154 0.135193 0.395684 -0.010650 0.287855 0.404533 -0.256208 0.126910 0.075423 -0.113396 0.162709 -0.034413 0.174380 0.089345 -0.332278 0.114562 -0.124814 -0.416053 0.172010 0.158412 0.147492 0.009070 -0.138757 -0.097461 -0.141020 0.219818 -0.241843 0.143426 -0.030539 0.107778 -0.017041 -0.237799 -0.023062 -0.130570 0.113424 -0.237400 -0.165081 -0.036477 -0.027697 0.270658 -0.463456 0.171317 0.012244 -0.228608 0.103991 0.245336
14 -0.240905 -0.172843 0.254402 -0.229910 0.017333 0.035001 0.131136 -0.188241 0.205139 0.147876 -0.048950 0.284465 0.003674 0.140854 0.023997 0.055767 -0.270015 -0.273959 -0.400525 -0.329432 0.349601 0.237621 0.171830 0.054160 -0.166722 0.203531 0.136041 0.157805 -0.035654 -0.017024 -0.177751 0.251319 0.034221 -0.094130 0.200057 -0.206228 0.299101 0.105273 -0.103724 0.114061 -0.308631 -0.168537 0.134856 0.385835 0.080578 0.189803 0.178886 0.188401 -0.262749 0.132532 -0.177163 0.057570 0.052908 0.084284 -0.043910 -0.346526 -0.481508 0.004455 0.043076 -0.251304 0.354820 -0.127294 -0.010186 -0.419755
6 0.107804 -0.352695 -0.143610 -0.158294 -0.432984 -0.034289 0.244368 0.212809 0.307962 0.214200 0.351135 0.504013 0.082407 -0.674711 0.571268 -0.591365 0.000315 -0.534377 0.256273 0.296519 0.170749 -0.188289 -0.101568 -0.105026 0.291821 0.064785 -0.142921 -0.426948 0.018297 0.248084 0.126729 -0.137012 -0.257710 0.182351 -0.186550 -0.766891 0.532175 0.335215 0.179730 -0.141716 -0.451295 -0.156794 -0.116571 0.534682 -0.540371 0.421509 -0.159213 -0.499786 0.224468 0.062903 -0.282396 -0.002344 0.206804 -0.019339 -0.216203 -0.103728 -0.179879 -0.022690 -0.073347 -0.365685 0.240096 -0.460540 0.282496 0.558295
9 -0.159012 -0.132230 0.065181 -0.239248 0.078713 -0.033538 -0.045554 -0.069262 0.277622 0.102222 -0.009844 0.310835 0.006837 -0.006198 -0.007264 -0.026605 -0.240391 -0.048767 -0.292545 -0.178701 0.305946 0.225581 0.202445 0.072724 -0.190872 0.174758 0.158779 0.094415 -0.027383 -0.019890 -0.096634 0.218681 -0.067482 -0.053605 0.223544 -0.185894 0.325696 0.156815 -0.119317 0.206809 -0.206403 -0.146824 0.183956 0.343787 -0.029644 0.224055 0.231766 0.041458 -0.214591 -0.037659 -0.180350 0.074162 0.079000 0.089395 -0.062269 -0.193978 -0.285194 -0.050856 -0.120104 -0.161673 0.245186 -0.184307 -0.113435 -0.128314
4 -0.017689 -0.246334 -0.062045 -0.230318 -0.153336 -0.127779 0.055172 0.109916 0.267036 0.105354 0.221848 0.360522 0.120403 -0.382809 0.265080 -0.413606 -0.035131 -0.336149 0.044237 0.127921 0.209951 -0.042876 -0.009662 0.049814 0.122841 0.074947 -0.008901 -0.167243 0.055897 0.023702 0.009891 0.014625 -0.191719 0.091208 0.001521 -0.502369 0.303198 0.247670 0.162282 -0.051728 -0.280417 -0.184150 -0.034357 0.370597 -0.335545 0.210773 -0.056498 -0.316092 0.060064 -0.007161 -0.214785 0.025444 0.111225 0.011829 -0.166974 -0.047923 -0.115572 0.051374 -0.115061 -0.167612 0.193736 -0.385121 0.121629 0.311772
3 -0.178092 -0.069645 -0.028816 -0.351675 -0.081133 -0.102577 -0.037318 -0.007535 0.170063 0.043086 0.140067 0.330478 0.123873 -0.311950 0.017476 -0.232699 -0.105439 -0.130423 -0.126521 -0.010240 0.237445 0.115139 0.117206 0.230515 -0.145169 0.036555 0.035109 -0.081180 0.068133 -0.007835 0.037243 0.070782 -0.249670 0.099394 -0.009037 -0.400205 0.275521 0.175597 0.070254 0.028398 -0.213277 -0.193917 0.047896 0.362908 -0.233768 0.146399 0.041314 -0.070524 -0.074212 -0.100546 -0.065030 0.007255 0.057617 -0.054064 -0.164278 -0.143336 -0.129604 0.141184 -0.276691 0.023312 0.086020 -0.220099 -0.000988 0.154825
21 -0.275539 0.240359 -0.074517 -0.649252 -0.448147 -0.335649 -0.191968 -0.065636 -0.044218 0.194933 -0.055936 0.458069 0.504466 -0.577640 -0.242684 -0.176110 -0.350127 -0.026011 -0.020537 0.161352 0.454909 -0.005612 0.337909 0.514170 -0.413585 0.100520 0.017334 -0.182208 0.196457 0.071007 0.308144 0.010140 -0.446658 0.172286 -0.377906 -0.562365 0.244044 0.151743 0.128811 -0.051055 -0.153957 -0.085227 -0.221222 0.288879 -0.288119 0.087754 -0.092390 0.402499 -0.004206 -0.242163 0.153308 -0.198540 0.152809 -0.445267 -0.148437 -0.172183 -0.059673 0.475124 -0.584057 0.188405 -0.084610 -0.152935 0.208456 0.196160
13 -0.078016 -0.258393 0.253832 -0.190969 0.015777 -0.060410 0.005821 -0.152655 0.219428 0.281644 -0.241109 0.228161 0.061887 0.234534 0.036118 0.045778 -0.410485 -0.167045 -0.359892 -0.284429 0.473462 0.086258 0.281498 0.019870 -0.061745 0.359687 0.292703 0.253351 -0.031454 -0.066615 -0.208795 0.335381 0.155772 -0.182943 0.336797 -0.038608 0.210869 0.139221 -0.089812 0.206706 -0.239758 -0.000108 0.037010 0.173768 0.175751 0.352443 0.274865 0.178894 -0.244575 0.149918 -0.311612 0.027470 0.114853 0.112657 -0.017082 -0.167689 -0.459813 -0.177933 0.057252 -0.266849 0.427153 -0.194722 0.012973 -0.345708
5 -0.065134 -0.281105 -0.150750 -0.337485 -0.088171 -0.185889 0.008678 0.127958 0.346289 0.023222 0.352601 0.419032 0.133727 -0.506560 0.258727 -0.553899 0.020906 -0.337396 0.030494 0.162131 0.209957 0.001743 -0.034065 0.176743 0.112779 -0.011197 -0.009893 -0.228806 0.094287 -0.046433 0.016133 0.014544 -0.308421 0.150117 0.032948 -0.613471 0.299434 0.309033 0.230113 -0.072398 -0.278974 -0.273371 -0.009640 0.421704 -0.475834 0.190817 -0.059353 -0.461786 0.080166 -0.097435 -0.224371 0.084548 0.084986 -0.005184 -0.224923 -0.020129 -0.023398 0.100077 -0.223406 -0.060073 0.144846 -0.465655 0.067223 0.489947
10 -0.133017 -0.202665 0.096248 -0.240633 0.169271 -0.049000 -0.119768 -0.085612 0.314016 0.137773 -0.092435 0.299303 -0.014116 0.109358 -0.029728 0.004854 -0.311184 0.023923 -0.350246 -0.234928 0.414602 0.222433 0.274141 0.107680 -0.175822 0.246206 0.280751 0.192984 -0.037188 -0.078966 -0.167167 0.282965 0.005258 -0.081545 0.348466 -0.081936 0.292130 0.170884 -0.146994 0.282639 -0.192979 -0.092777 0.214462 0.281928 0.059097 0.341625 0.349829 0.039824 -0.243791 -0.036203 -0.253169 0.090455 0.103021 0.136598 -0.073835 -0.134944 -0.302776 -0.173824 -0.139789 -0.147038 0.320924 -0.216673 -0.158516 -0.141698
0 -0.151855 -0.083453 -0.136936 -0.547183 -0.101741 -0.350835 -0.251257 0.063243 0.177821 0.043639 0.141020 0.381222 0.367056 -0.457943 -0.063042 -0.436601 -0.149905 -0.081980 -0.064179 0.145156 0.351589 -0.015875 0.204516 0.431758 -0.133728 0.061649 0.103445 -0.125149 0.177456 -0.167515 0.104670 0.107198 -0.347800 0.119039 0.022449 -0.468992 0.129281 0.240614 0.253744 -0.034274 -0.148268 -0.195735 -0.105839 0.230869 -0.354056 0.108426 -0.029941 -0.151710 0.000571 -0.236107 -0.103369 -0.045704 0.051193 -0.181782 -0.201492 0.050282 0.057171 0.281192 -0.472138 0.210008 0.038236 -0.389448 0.062350 0.415416
1 -0.169243 -0.218259 -0.094112 -0.417993 -0.006660 -0.272231 -0.096473 0.108894 0.321028 0.004345 0.295971 0.402319 0.187123 -0.445399 0.107502 -0.492990 0.009041 -0.263161 -0.017789 0.088322 0.256129 0.063759 0.035041 0.264756 -0.002825 -0.006956 0.066229 -0.115010 0.134843 -0.115050 -0.000096 0.055013 -0.329051 0.150056 0.052091 -0.563468 0.238207 0.290966 0.233576 -0.064782 -0.227115 -0.299664 0.048043 0.401318 -0.444394 0.092497 -0.022320 -0.341598 0.035448 -0.114981 -0.171232 0.088959 0.047181 -0.011697 -0.231639 -0.015655 0.008846 0.219563 -0.324697 0.033374 0.115317 -0.461563 -0.005739 0.399075
11 -0.089344 -0.211577 0.115305 -0.257088 0.118699 -0.149604 -0.202138 -0.054668 0.262570 0.205353 -0.208769 0.269626 0.077917 0.128582 -0.045781 -0.029767 -0.376652 0.047987 -0.303336 -0.198971 0.477174 0.115578 0.350414 0.128189 -0.128495 0.312426 0.330786 0.234747 -0.014261 -0.113793 -0.129859 0.310647 0.044349 -0.119955 0.367552 -0.011337 0.207705 0.174243 -0.090573 0.287912 -0.148951 0.007124 0.114685 0.143589 0.077686 0.354284 0.341294 0.100691 -0.221129 -0.012773 -0.268324 0.033315 0.116971 0.098224 -0.056211 -0.048155 -0.267136 -0.148800 -0.177920 -0.108487 0.311484 -0.259849 -0.076564 -0.106072
19 0.249391 -0.363577 0.182356 -0.206797 -0.120195 -0.234914 -0.241907 -0.070335 0.137314 0.520141 -0.607557 0.182996 0.312128 0.260409 0.022454 -0.035224 -0.711773 0.045249 -0.240444 -0.056138 0.733852 -0.273174 0.553635 0.068070 0.137133 0.683219 0.478118 0.284910 0.014343 -0.125849 -0.157238 0.444466 0.320235 -0.275669 0.464363 0.185516 -0.033393 0.132465 -0.001292 0.309331 -0.173492 0.325720 -0.297606 -0.247347 0.339283 0.658596 0.310967 0.175490 -0.126877 0.068342 -0.517461 -0.166881 0.225276 0.037683 0.033101 0.201639 -0.382656 -0.445688 0.000062 -0.194673 0.516477 -0.292149 0.209839 -0.109082
20 0.219439 -0.352626 0.204137 -0.210005 -0.115868 -0.226674 -0.219423 -0.092604 0.128293 0.524474 -0.630180 0.178170 0.316895 0.290203 -0.000338 0.003996 -0.740754 0.051133 -0.291897 -0.107016 0.757058 -0.238536 0.573846 0.067831 0.111203 0.702675 0.498056 0.305730 0.010804 -0.124843 -0.182124 0.462488 0.333401 -0.285422 0.484783 0.195771 -0.006388 0.112171 -0.041290 0.314256 -0.198809 0.314349 -0.287203 -0.223870 0.373252 0.656379 0.332992 0.227791 -0.154103 0.068644 -0.522414 -0.162488 0.236006 0.039167 0.036831 0.162387 -0.422874 -0.464216 0.003653 -0.208571 0.549336 -0.263968 0.199611 -0.181469
16 -0.399507 -0.188405 0.471167 -0.224004 -0.110877 0.088289 0.399890 -0.351041 0.154648 0.191156 -0.027983 0.303158 0.002869 0.326165 0.079527 0.134697 -0.331099 -0.628316 -0.565683 -0.517717 0.352471 0.270201 0.147966 -0.012349 -0.164274 0.200995 0.048537 0.175425 -0.030004 -0.033940 -0.260921 0.293806 0.130186 -0.190137 0.141629 -0.272165 0.328267 0.056964 -0.080732 -0.013373 -0.430850 -0.229627 0.067729 0.468724 0.162208 0.071045 0.087638 0.403571 -0.357499 0.341139 -0.123861 0.053944 0.009127 0.023771 0.017868 -0.589757 -0.722603 0.153351 0.269876 -0.392377 0.470119 -0.061206 0.110306 -0.793431
8 0.119261 -0.361610 -0.110552 -0.094657 -0.491416 0.067443 0.353402 0.184305 0.314956 0.246467 0.348943 0.511582 0.004511 -0.652329 0.645604 -0.540929 0.013528 -0.586890 0.260650 0.281698 0.134427 -0.164162 -0.144528 -0.199233 0.299086 0.075173 -0.201850 -0.434023 -0.034627 0.329716 0.119936 -0.148203 -0.228538 0.178774 -0.242295 -0.787511 0.612960 0.307723 0.141754 -0.118165 -0.496459 -0.150253 -0.108910 0.612668 -0.504037 0.461617 -0.179401 -0.461343 0.205713 0.125494 -0.283651 -0.002145 0.246121 0.019085 -0.216888 -0.182532 -0.277150 -0.070484 0.012283 -0.467766 0.252543 -0.423058 0.300515 0.476883
17 -0.302972 -0.236501 0.478411 -0.192936 -0.223375 0.074257 0.418678 -0.332007 0.136326 0.290394 -0.104496 0.312784 0.070244 0.317629 0.125428 0.131503 -0.409619 -0.659602 -0.515942 -0.447670 0.415636 0.144223 0.188320 -0.058436 -0.084147 0.298561 0.053653 0.148040 -0.024484 0.016054 -0.239138 0.298723 0.197460 -0.215674 0.121376 -0.274665 0.311714 0.065962 -0.064447 -0.009868 -0.457887 -0.164219 -0.052320 0.410312 0.194898 0.168875 0.060534 0.418622 -0.309585 0.367366 -0.200751 -0.009980 0.052852 -0.015921 0.041063 -0.554529 -0.774381 0.088389 0.328265 -0.456945 0.530937 -0.069267 0.219399 -0.771930
23 -0.193330 0.271144 -0.155884 -0.693478 -0.553703 -0.341196 -0.235955 -0.032700 -0.083278 0.233564 -0.115740 0.486134 0.601936 -0.701422 -0.258459 -0.206161 -0.430468 0.049824 0.026076 0.275266 0.504321 -0.089787 0.387961 0.571182 -0.419458 0.157796 -0.006664 -0.267663 0.203283 0.117282 0.368529 0.011957 -0.486760 0.188330 -0.440435 -0.604163 0.249644 0.132479 0.132774 -0.045011 -0.162622 -0.040049 -0.317060 0.267218 -0.276194 0.172814 -0.137242 0.419029 0.021345 -0.318442 0.131543 -0.281977 0.200602 -0.518906 -0.163816 -0.140411 -0.054670 0.441150 -0.641436 0.208127 -0.089031 -0.151557 0.284297 0.301558
7 0.143384 -0.394296 -0.129595 -0.065062 -0.456579 0.095764 0.379997 0.196250 0.349766 0.215481 0.391979 0.499490 -0.022700 -0.654860 0.682688 -0.559892 0.047838 -0.614664 0.247028 0.274795 0.106945 -0.161600 -0.183103 -0.217900 0.351835 0.049433 -0.219831 -0.453940 -0.041174 0.316545 0.095220 -0.145306 -0.219166 0.168846 -0.210566 -0.790862 0.596858 0.308880 0.138360 -0.135270 -0.517203 -0.173176 -0.084877 0.622734 -0.515443 0.461845 -0.177762 -0.543830 0.224145 0.127637 -0.316080 0.032425 0.224619 0.061118 -0.219898 -0.169674 -0.269382 -0.117138 0.067177 -0.474544 0.282291 -0.424240 0.285639 0.495597
22 -0.214150 0.229190 -0.115228 -0.697956 -0.469752 -0.368829 -0.268485 -0.063326 -0.057380 0.229606 -0.138139 0.477108 0.579857 -0.605225 -0.276379 -0.188546 -0.457069 0.058401 -0.030032 0.212574 0.545204 -0.051566 0.428472 0.576485 -0.437867 0.185585 0.057704 -0.197258 0.210923 0.065415 0.314737 0.053734 -0.452297 0.157113 -0.346129 -0.545542 0.223040 0.145261 0.119117 -0.010620 -0.135808 -0.051419 -0.283784 0.248010 -0.234944 0.188498 -0.078322 0.425756 -0.013238 -0.308582 0.098624 -0.253798 0.174773 -0.480123 -0.146793 -0.125858 -0.059477 0.422784 -0.628745 0.211239 -0.052917 -0.161925 0.234249 0.255001
