10 64
6 0.142476 -0.315174 -0.020166 0.208006 -0.004815 0.082798 0.253655 0.236157 0.253881 -0.011523 0.110172 0.048167 -0.130849 -0.260095 0.380017 -0.217203 0.026321 -0.379128 0.205574 -0.097179 0.003145 -0.193969 -0.221424 -0.130771 0.411461 -0.187722 -0.015453 -0.275531 -0.084322 0.149230 -0.062527 -0.120434 0.047271 -0.053130 0.011834 -0.209008 0.087648 0.164145 -0.131075 -0.331649 -0.240862 0.069439 0.250976 0.063345 -0.313355 0.179293 0.096639 -0.361737 0.339658 0.297630 -0.223983 0.305135 -0.075828 0.151600 0.017416 -0.116816 -0.040606 -0.188472 0.253727 -0.315543 0.324904 -0.122637 0.107499 0.209861
5 0.024790 -0.213848 0.009409 0.080254 0.054369 -0.003561 0.175923 0.205913 0.095878 -0.098407 0.197113 0.072068 -0.082685 -0.281909 0.204468 -0.309301 0.057847 -0.306946 0.096194 -0.068199 -0.044576 -0.055950 -0.148802 -0.014840 0.242169 -0.153525 -0.041757 -0.163811 0.064486 0.110126 -0.072306 -0.135376 -0.109258 0.068242 0.011889 -0.233891 0.162448 0.169288 -0.005083 -0.191343 -0.111647 -0.098459 0.218296 0.163622 -0.302501 0.041048 0.044929 -0.374178 0.096507 0.147415 -0.082800 0.110438 -0.099717 0.113799 -0.080205 -0.145636 -0.015710 0.024843 0.062207 -0.136295 0.152577 -0.116444 0.044331 0.204080
2 -0.103887 -0.099720 0.069870 -0.073688 0.080416 -0.075590 0.088274 0.228715 -0.118935 -0.179989 0.278249 0.091737 -0.009493 -0.370720 0.006584 -0.430179 0.110777 -0.203495 -0.024976 -0.068844 -0.142831 0.078706 -0.015646 0.075432 0.038365 -0.104664 -0.077046 -0.039232 0.247484 0.101097 -0.043697 -0.138084 -0.301421 0.206211 -0.006031 -0.256137 0.265288 0.158538 0.142588 -0.055096 -0.022261 -0.289583 0.224001 0.303241 -0.322370 -0.110360 -0.017652 -0.426107 -0.168923 0.001226 0.063640 -0.136083 -0.177369 0.130718 -0.229122 -0.181331 -0.018212 0.298361 -0.198469 0.112670 -0.038031 -0.084746 -0.062171 0.191591
4 -0.028064 -0.150758 0.032713 0.030926 0.073888 -0.039267 0.122460 0.199806 0.025140 -0.125933 0.223863 0.069597 -0.050453 -0.282498 0.121145 -0.323657 0.077184 -0.267106 0.055219 -0.057604 -0.065429 -0.011455 -0.112974 0.020696 0.170119 -0.127091 -0.050235 -0.103144 0.127241 0.088055 -0.074313 -0.136213 -0.158352 0.104837 0.006119 -0.232124 0.185290 0.168709 0.047383 -0.128888 -0.066162 -0.167449 0.208327 0.203399 -0.276687 -0.020606 0.023336 -0.367809 -0.006362 0.087568 -0.018172 0.021671 -0.116885 0.102257 -0.120867 -0.143584 -0.009829 0.109402 -0.016805 -0.056398 0.093582 -0.108203 0.014350 0.190791
3 -0.102167 -0.101291 0.063974 -0.039609 0.088597 -0.065116 0.096227 0.196503 -0.085835 -0.172772 0.284642 0.072471 -0.044193 -0.335884 0.035306 -0.395483 0.115068 -0.234767 -0.014672 -0.063566 -0.133011 0.061288 -0.061808 0.080140 0.086826 -0.116209 -0.065531 -0.055965 0.214752 0.098121 -0.065537 -0.145013 -0.261455 0.178862 0.015013 -0.262949 0.253187 0.186438 0.112684 -0.053781 -0.022480 -0.276827 0.202439 0.282066 -0.300257 -0.082618 0.011773 -0.410450 -0.157952 0.027878 0.059753 -0.094579 -0.171115 0.091568 -0.183677 -0.181146 -0.025938 0.236755 -0.144131 0.060923 -0.013659 -0.090784 -0.033933 0.213454
0 -0.061580 -0.144426 0.042573 -0.021563 0.064099 -0.043047 0.107707 0.205555 -0.017621 -0.141864 0.248168 0.080182 -0.036466 -0.318202 0.091028 -0.365393 0.096580 -0.240878 0.018440 -0.065507 -0.105872 0.017970 -0.072284 0.039481 0.111834 -0.116323 -0.054670 -0.096149 0.152050 0.084831 -0.056030 -0.116402 -0.208229 0.129087 0.019903 -0.251111 0.221911 0.166090 0.081851 -0.109273 -0.071390 -0.221930 0.205345 0.248922 -0.298295 -0.041868 0.007993 -0.393124 -0.070738 0.061709 -0.006761 -0.027324 -0.150705 0.102392 -0.154992 -0.161312 -0.029326 0.183945 -0.095200 0.005361 0.047213 -0.111592 -0.018879 0.203131
1 -0.016932 -0.201012 0.035123 0.035867 0.059014 -0.026688 0.152018 0.229762 0.060884 -0.114440 0.209383 0.074750 -0.056655 -0.318891 0.158160 -0.345831 0.080873 -0.288721 0.080020 -0.078584 -0.070900 -0.031747 -0.111027 0.001403 0.200651 -0.137272 -0.043926 -0.131152 0.107451 0.104444 -0.072402 -0.122092 -0.153983 0.094671 0.005504 -0.252835 0.179227 0.162168 0.036124 -0.177223 -0.115654 -0.155758 0.235179 0.210884 -0.316696 0.000658 0.024852 -0.394149 0.048580 0.128246 -0.067133 0.067067 -0.132647 0.136213 -0.125481 -0.151675 -0.025325 0.098676 -0.008072 -0.073932 0.122922 -0.122417 0.006542 0.206193
8 0.079915 -0.265301 0.003874 0.135219 0.009571 0.046612 0.213473 0.230626 0.162096 -0.048262 0.148334 0.059293 -0.106332 -0.285604 0.291121 -0.273498 0.054176 -0.331193 0.150436 -0.081618 -0.036899 -0.122717 -0.170164 -0.082166 0.318114 -0.156305 -0.033528 -0.208761 -0.007825 0.138316 -0.059609 -0.118205 -0.040370 0.014558 0.006352 -0.224613 0.139424 0.158278 -0.054222 -0.247638 -0.188140 -0.024411 0.232261 0.133406 -0.308071 0.112586 0.062508 -0.374513 0.201662 0.223851 -0.156080 0.188379 -0.091116 0.148107 -0.050760 -0.130781 -0.044500 -0.069898 0.134718 -0.209601 0.224326 -0.122025 0.066609 0.210564
9 -0.103822 -0.100969 0.051619 -0.071972 0.074514 -0.066968 0.082142 0.218649 -0.084732 -0.171623 0.273029 0.096230 -0.012737 -0.360536 0.016661 -0.408280 0.103708 -0.194478 -0.029198 -0.062007 -0.148362 0.077696 -0.012780 0.059952 0.040108 -0.094798 -0.074219 -0.062714 0.216776 0.095290 -0.040283 -0.113041 -0.283611 0.175225 0.018488 -0.259130 0.262889 0.158207 0.117688 -0.051169 -0.044008 -0.289625 0.213463 0.299860 -0.315243 -0.101454 -0.010770 -0.414580 -0.162751 -0.001924 0.040860 -0.110706 -0.180744 0.115649 -0.195861 -0.177437 -0.029865 0.272752 -0.182544 0.086088 -0.023184 -0.092011 -0.063568 0.198845
7 0.115068 -0.283828 -0.019521 0.164940 0.000366 0.065502 0.229316 0.227338 0.220527 -0.034650 0.124351 0.054738 -0.113613 -0.273376 0.334223 -0.236777 0.040317 -0.352704 0.166468 -0.089116 -0.009550 -0.158405 -0.194931 -0.090745 0.367876 -0.178592 -0.031423 -0.244170 -0.052249 0.131483 -0.058092 -0.107774 -0.001943 -0.030582 0.005655 -0.216233 0.100336 0.150725 -0.096350 -0.292274 -0.217508 0.022535 0.239801 0.100495 -0.303486 0.145336 0.083087 -0.357963 0.275095 0.256132 -0.193178 0.256762 -0.081908 0.150200 -0.018069 -0.115389 -0.036762 -0.134439 0.202443 -0.251413 0.276096 -0.122234 0.088562 0.212583
