14 64
5 0.033101 -0.291362 -0.117136 0.072445 0.029213 0.079574 0.184298 0.141365 0.232640 -0.134533 0.259049 0.211013 -0.174906 -0.195163 0.282874 -0.224945 -0.017208 -0.234897 0.043236 -0.090336 0.029534 -0.022457 -0.099851 0.023954 0.183257 -0.223734 -0.055500 -0.282255 -0.063890 0.034140 -0.031646 -0.110120 -0.123986 0.026552 0.031542 -0.179182 0.222718 0.132863 -0.122365 -0.168641 -0.158589 -0.060857 0.283125 0.195160 -0.274984 0.220344 0.176000 -0.354665 0.128169 0.061934 -0.143420 0.220722 -0.020859 0.017090 -0.083579 -0.162724 0.022543 -0.092364 0.050778 -0.123094 0.206060 -0.122047 0.017314 0.304647
4 -0.031026 -0.125599 -0.085764 0.023662 0.078203 0.085781 0.153869 0.187705 0.096717 -0.232175 0.362545 0.198175 -0.141877 -0.279351 0.088430 -0.246994 0.097088 -0.173063 -0.074412 -0.051417 -0.070564 0.035408 -0.043429 0.125774 0.119169 -0.188323 -0.083687 -0.221012 0.104521 0.043596 -0.080317 -0.185702 -0.237103 0.160460 -0.045255 -0.251613 0.312221 0.099217 -0.071323 -0.125921 -0.155030 -0.264164 0.335384 0.365945 -0.230503 0.102007 0.183438 -0.456626 -0.015386 -0.063904 0.007673 0.030142 -0.092331 0.038570 -0.182899 -0.122204 0.027243 0.019228 -0.113055 0.058957 0.113894 -0.071788 -0.102922 0.310820
6 0.162903 -0.448755 -0.195072 0.205517 0.002029 0.118634 0.298839 0.209159 0.422594 -0.080511 0.227104 0.256147 -0.223647 -0.244764 0.499654 -0.249502 -0.091490 -0.370930 0.173181 -0.090932 0.072585 -0.108067 -0.197758 -0.120655 0.390472 -0.280462 -0.078034 -0.440623 -0.186741 0.109470 -0.019939 -0.112086 -0.041737 -0.071766 0.065347 -0.205434 0.185430 0.170218 -0.244217 -0.292800 -0.258816 0.084526 0.336218 0.112764 -0.392270 0.312785 0.191995 -0.427000 0.357372 0.182053 -0.306581 0.425839 0.012983 0.074522 0.023136 -0.188154 0.027509 -0.272708 0.284671 -0.373478 0.379427 -0.169103 0.118584 0.350045
3 -0.119263 -0.140145 -0.010590 -0.064936 0.045636 0.061882 0.066903 0.130306 0.014041 -0.214210 0.362958 0.175822 -0.136962 -0.221831 0.085781 -0.238472 0.082635 -0.131831 -0.097076 -0.149463 -0.042567 0.041088 0.004210 0.168278 -0.024716 -0.206960 -0.032193 -0.145730 0.094954 -0.026433 -0.034022 -0.138354 -0.246803 0.134025 -0.008009 -0.181966 0.338155 0.148261 -0.003784 -0.074811 -0.104982 -0.256036 0.326146 0.351895 -0.206664 0.165265 0.211510 -0.383138 -0.131440 -0.035841 0.031571 0.002426 -0.122084 -0.019403 -0.253384 -0.177774 -0.005566 0.116484 -0.227981 0.169296 0.079705 -0.064063 -0.119172 0.312206
0 -0.200310 -0.197427 0.066287 -0.164045 -0.010821 -0.011857 -0.096785 0.037092 -0.011438 -0.127920 0.302812 0.155444 -0.085614 -0.075915 0.157897 -0.180664 -0.027556 -0.093743 -0.056671 -0.279513 0.076399 0.014710 0.033738 0.130611 -0.216109 -0.216779 0.051036 -0.052838 0.003310 -0.159058 0.050652 -0.016813 -0.177792 -0.015196 0.092327 -0.029499 0.315899 0.244321 0.063128 -0.008765 -0.019529 -0.140626 0.287004 0.227857 -0.161341 0.270977 0.216457 -0.204720 -0.228606 0.032196 -0.011370 0.052387 -0.110122 -0.110188 -0.276927 -0.250480 -0.035738 0.190951 -0.265465 0.185936 0.127988 -0.089864 -0.072340 0.264994
11 -0.368278 -0.275531 0.189691 -0.307114 -0.054004 -0.119648 -0.320954 -0.051788 -0.060965 -0.071313 0.298405 0.155360 -0.051521 0.070522 0.235818 -0.153231 -0.157616 -0.061235 -0.026904 -0.496570 0.224766 0.008786 0.091348 0.125557 -0.484628 -0.268257 0.152938 0.078258 -0.066135 -0.334398 0.146078 0.104052 -0.151006 -0.176601 0.217240 0.144442 0.367264 0.416196 0.155287 0.106205 0.097998 -0.059574 0.325157 0.149696 -0.137397 0.425125 0.284261 -0.036092 -0.422623 0.104738 -0.025770 0.099686 -0.132523 -0.226728 -0.373155 -0.394220 -0.074079 0.328867 -0.385425 0.269541 0.192095 -0.121140 -0.048131 0.268656
1 -0.039727 -0.293120 -0.035409 -0.002751 -0.003468 0.020441 0.062570 0.099391 0.185806 -0.077813 0.214062 0.174229 -0.121661 -0.125150 0.283066 -0.184001 -0.061334 -0.200402 0.067317 -0.178751 0.088427 -0.037572 -0.067880 0.004737 0.054652 -0.209262 0.003897 -0.180898 -0.081671 -0.043455 0.007113 -0.032840 -0.092903 -0.052145 0.072247 -0.092881 0.204828 0.187606 -0.057517 -0.120430 -0.110727 -0.022708 0.271376 0.144262 -0.231929 0.255840 0.170765 -0.246487 0.044615 0.105108 -0.149977 0.221552 -0.037079 -0.012940 -0.127650 -0.196272 -0.008167 -0.020943 0.000008 -0.075622 0.229492 -0.126780 0.016220 0.260446
2 -0.177075 -0.135834 0.036806 -0.143409 0.020355 0.025928 -0.027001 0.081690 -0.047125 -0.190242 0.340822 0.167578 -0.100955 -0.154132 0.070613 -0.214020 0.040594 -0.072976 -0.113056 -0.214743 0.002810 0.051848 0.055317 0.182029 -0.170742 -0.204367 0.005158 -0.073125 0.084652 -0.098321 0.014722 -0.085980 -0.245577 0.096160 0.021202 -0.097584 0.343907 0.173665 0.051781 -0.020534 -0.044439 -0.227401 0.309839 0.315672 -0.170366 0.198296 0.212032 -0.291831 -0.220855 -0.039340 0.048363 -0.026773 -0.121853 -0.062094 -0.300872 -0.208599 -0.014543 0.198303 -0.309444 0.247902 0.057665 -0.055917 -0.127453 0.276764
7 0.168020 -0.454526 -0.207802 0.193058 -0.007129 0.132135 0.313906 0.209698 0.432993 -0.090634 0.227883 0.267915 -0.233253 -0.263398 0.499045 -0.261483 -0.075229 -0.362805 0.157290 -0.081712 0.068433 -0.097277 -0.189722 -0.096035 0.394946 -0.281338 -0.093383 -0.439686 -0.188442 0.107884 -0.022443 -0.103933 -0.068408 -0.056284 0.046278 -0.222164 0.194497 0.144025 -0.236903 -0.286346 -0.272310 0.066793 0.336224 0.149052 -0.389432 0.321331 0.193737 -0.435719 0.353165 0.171056 -0.312678 0.421859 0.025698 0.089859 -0.005801 -0.179797 0.024377 -0.275374 0.268416 -0.345679 0.360056 -0.176875 0.107607 0.368683
9 -0.072444 -0.107037 -0.064749 -0.023711 0.069619 0.080129 0.116980 0.155477 0.051745 -0.232389 0.357883 0.190902 -0.136060 -0.252248 0.051882 -0.236100 0.096259 -0.123067 -0.108880 -0.072542 -0.077553 0.059166 -0.000449 0.152851 0.036673 -0.176775 -0.066641 -0.188214 0.108869 0.017949 -0.060883 -0.161418 -0.249905 0.164331 -0.030171 -0.224260 0.325910 0.096199 -0.045820 -0.086028 -0.130334 -0.279228 0.314758 0.368692 -0.207833 0.105327 0.187595 -0.415640 -0.079734 -0.084525 0.031454 -0.006137 -0.104101 0.010039 -0.202002 -0.133538 0.013881 0.069466 -0.185337 0.123736 0.066124 -0.058211 -0.128495 0.300448
8 0.164245 -0.418440 -0.195145 0.194451 0.001176 0.129844 0.314323 0.200468 0.398841 -0.086733 0.213303 0.247737 -0.227606 -0.249223 0.452808 -0.253059 -0.052622 -0.337195 0.150745 -0.045947 0.045792 -0.083098 -0.183475 -0.094160 0.386206 -0.242940 -0.092298 -0.408549 -0.165509 0.121306 -0.038970 -0.114275 -0.062232 -0.023208 0.032199 -0.225836 0.189233 0.120832 -0.217321 -0.259757 -0.254472 0.048138 0.297970 0.151061 -0.358282 0.283032 0.166350 -0.419238 0.331379 0.149972 -0.283507 0.372876 0.036740 0.090885 0.001158 -0.156164 0.019606 -0.264611 0.247156 -0.335659 0.314793 -0.169382 0.097881 0.342040
13 -0.364211 -0.283875 0.200510 -0.324317 -0.066134 -0.131820 -0.325570 -0.067235 -0.057240 -0.046785 0.289097 0.148737 -0.039527 0.058620 0.245050 -0.147696 -0.178835 -0.070126 -0.016827 -0.518809 0.247395 0.009666 0.075536 0.118100 -0.500217 -0.269473 0.173938 0.097594 -0.062762 -0.335862 0.139145 0.123472 -0.160217 -0.191408 0.220039 0.140833 0.368629 0.438034 0.161575 0.103358 0.103298 -0.054265 0.329309 0.150074 -0.139835 0.443719 0.286489 -0.030676 -0.430977 0.121594 -0.048033 0.122359 -0.126229 -0.216714 -0.392088 -0.409500 -0.088008 0.317616 -0.364943 0.255707 0.216752 -0.119407 -0.059507 0.257672
10 -0.094603 -0.136342 -0.035908 -0.047654 0.055497 0.077034 0.089318 0.132995 0.036688 -0.222900 0.354662 0.185284 -0.140250 -0.210678 0.077749 -0.226280 0.084630 -0.120466 -0.102141 -0.120223 -0.040890 0.040296 0.003931 0.171627 -0.009690 -0.200617 -0.039353 -0.167613 0.086465 -0.023522 -0.044402 -0.151344 -0.233004 0.146138 -0.022374 -0.185880 0.327512 0.115576 -0.023472 -0.092050 -0.112896 -0.248258 0.320015 0.346659 -0.195910 0.157148 0.206632 -0.380623 -0.091858 -0.055252 0.028731 0.007095 -0.099742 -0.017129 -0.232293 -0.153107 0.010794 0.091803 -0.216870 0.154908 0.076148 -0.063943 -0.120374 0.301844
12 -0.416891 -0.317254 0.232868 -0.364284 -0.087449 -0.163192 -0.394581 -0.102070 -0.076592 -0.017457 0.291406 0.157260 -0.030796 0.114264 0.271840 -0.126299 -0.221989 -0.057769 0.006475 -0.580796 0.286226 0.009699 0.095645 0.099667 -0.573754 -0.283470 0.206225 0.129437 -0.090786 -0.383972 0.176541 0.164145 -0.150054 -0.237498 0.262517 0.202404 0.362303 0.485090 0.185025 0.134165 0.129707 -0.021813 0.332526 0.108156 -0.134641 0.490588 0.299723 0.019322 -0.479603 0.142297 -0.061384 0.142231 -0.136609 -0.264497 -0.410934 -0.450395 -0.095461 0.355188 -0.389006 0.273495 0.241704 -0.125570 -0.049824 0.260594
