12 64
9 -0.122035 -0.207196 -0.116104 0.000981 0.104670 0.115045 0.001352 0.424948 0.342952 -0.308253 0.117962 0.355759 -0.131163 -0.119986 0.089046 -0.270497 -0.042232 0.204472 -0.110484 -0.069280 -0.011500 0.063424 0.396243 -0.042561 -0.239860 -0.011958 -0.143397 -0.244269 -0.116618 -0.082378 0.073035 -0.050468 -0.046560 -0.009966 0.007014 -0.009225 0.554377 -0.099935 -0.155550 0.091395 -0.208171 -0.126278 0.506763 0.420392 -0.182939 0.176870 0.222013 -0.195485 0.032313 -0.212390 -0.055267 -0.002113 0.025876 0.165566 -0.142083 -0.100476 0.015065 0.118873 -0.532923 0.139306 0.029467 -0.168689 -0.178633 0.246274
8 0.084174 -0.190755 0.072432 0.092810 -0.063905 0.049544 0.145956 0.285867 0.091475 -0.042120 0.116504 0.030008 -0.071174 -0.325257 0.271112 -0.311877 0.195337 -0.306474 0.161333 -0.006151 -0.026727 -0.143076 -0.172983 -0.040281 0.339366 -0.069245 -0.131555 0.002886 0.045406 0.092890 -0.077228 -0.095411 -0.111694 0.072276 -0.158314 -0.239075 0.190058 0.068645 0.134649 -0.101359 -0.183801 -0.105142 0.198933 0.322712 -0.161991 0.109597 -0.016407 -0.366345 0.057288 0.211537 -0.094959 0.007354 0.012300 0.278060 -0.303650 -0.031343 -0.083867 -0.025558 0.043482 -0.049077 0.146212 -0.196687 0.087806 0.235933
4 0.057478 -0.176639 0.050308 0.079294 -0.035262 0.047888 0.116590 0.302197 0.116025 -0.079997 0.126340 0.067275 -0.065320 -0.297173 0.236240 -0.300963 0.168931 -0.249251 0.125952 -0.009648 -0.018582 -0.119463 -0.112591 -0.033424 0.268189 -0.063477 -0.133302 -0.019285 0.038923 0.061145 -0.066035 -0.096143 -0.106194 0.063430 -0.143247 -0.212555 0.227652 0.052100 0.105292 -0.081639 -0.178612 -0.117256 0.238591 0.335379 -0.155317 0.103839 0.008488 -0.347714 0.048670 0.151455 -0.078851 -0.001323 0.012904 0.259971 -0.287457 -0.032608 -0.062142 -0.002072 -0.020578 -0.022794 0.140426 -0.193222 0.056128 0.230836
2 -0.083664 -0.206029 -0.085398 0.011510 0.075828 0.106703 0.023318 0.412059 0.298050 -0.267755 0.109699 0.308341 -0.112407 -0.152460 0.113213 -0.276270 -0.009926 0.134605 -0.068669 -0.065999 -0.007135 0.026757 0.319724 -0.041631 -0.161582 -0.023964 -0.141119 -0.204228 -0.087697 -0.058571 0.057192 -0.059951 -0.057122 0.006748 -0.030379 -0.033320 0.492917 -0.086155 -0.108232 0.048727 -0.205102 -0.112003 0.469782 0.399940 -0.181197 0.166927 0.182322 -0.218983 0.050481 -0.148688 -0.061197 -0.004145 0.025866 0.193507 -0.177943 -0.085172 0.007817 0.105633 -0.453377 0.124858 0.048766 -0.166662 -0.142806 0.232620
1 0.029592 -0.184519 0.023009 0.061379 -0.015688 0.056653 0.102003 0.299269 0.150844 -0.104304 0.110655 0.101744 -0.072944 -0.258573 0.208815 -0.278888 0.126631 -0.175883 0.087150 -0.028552 -0.015464 -0.090879 -0.033775 -0.028794 0.186477 -0.061462 -0.119917 -0.060571 0.006475 0.038089 -0.040815 -0.076793 -0.088815 0.043230 -0.108804 -0.173858 0.246937 0.025610 0.055296 -0.071685 -0.182127 -0.103870 0.264251 0.318281 -0.161404 0.113405 0.041843 -0.303601 0.062701 0.104458 -0.084574 0.019634 0.005397 0.232083 -0.243082 -0.043900 -0.048992 0.012501 -0.085851 -0.000240 0.121964 -0.177185 0.017585 0.221039
0 -0.028655 -0.193415 -0.027305 0.033266 0.021200 0.086160 0.060456 0.339937 0.211500 -0.181356 0.123433 0.195000 -0.098768 -0.203325 0.173680 -0.280420 0.070156 -0.034333 0.005202 -0.044906 -0.020679 -0.037282 0.124639 -0.030408 0.017904 -0.045207 -0.129320 -0.133272 -0.046423 -0.012205 0.009894 -0.065718 -0.072391 0.021231 -0.056934 -0.111840 0.375567 -0.013389 -0.016416 -0.005808 -0.190840 -0.114988 0.344965 0.360112 -0.167375 0.147820 0.110402 -0.266583 0.033732 -0.011677 -0.069690 0.000562 0.010101 0.194501 -0.208199 -0.070084 -0.032956 0.060323 -0.263771 0.057648 0.080464 -0.177833 -0.049310 0.237981
3 0.002180 -0.179897 0.005241 0.057980 0.003022 0.071450 0.091247 0.313520 0.163301 -0.140799 0.118760 0.136934 -0.098057 -0.238921 0.189137 -0.282836 0.105097 -0.116189 0.048132 -0.034506 -0.024596 -0.059623 0.033055 -0.024553 0.122344 -0.056335 -0.129675 -0.084046 -0.006328 0.031136 -0.020453 -0.083710 -0.089974 0.045159 -0.090912 -0.146699 0.310399 0.013944 0.023150 -0.024539 -0.174219 -0.110627 0.297456 0.339898 -0.164060 0.127843 0.079603 -0.290004 0.035406 0.053402 -0.062263 0.000150 0.007543 0.217022 -0.230525 -0.061003 -0.043569 0.028272 -0.162644 0.029853 0.088188 -0.166493 -0.008964 0.233979
7 0.150740 -0.193860 0.060565 0.126971 -0.096970 0.075665 0.194589 0.292550 0.089962 -0.028959 0.140823 0.005667 -0.078580 -0.396837 0.336250 -0.327966 0.228475 -0.400067 0.177574 -0.003557 -0.030711 -0.189732 -0.262048 -0.030803 0.460052 -0.116103 -0.159917 -0.018050 0.054193 0.126764 -0.082801 -0.115226 -0.137612 0.068347 -0.191282 -0.286474 0.164323 0.091989 0.136016 -0.158148 -0.213846 -0.096830 0.197770 0.335997 -0.185033 0.131285 -0.014411 -0.437105 0.091825 0.271561 -0.111359 0.033691 0.003352 0.310592 -0.331028 -0.024304 -0.089378 -0.081330 0.152842 -0.078544 0.193170 -0.193632 0.133280 0.268538
5 0.137272 -0.203464 0.059298 0.122223 -0.081260 0.065857 0.192873 0.287270 0.092250 -0.040653 0.152926 0.017471 -0.085767 -0.381183 0.332709 -0.342453 0.222283 -0.397376 0.175707 0.002387 -0.025209 -0.175430 -0.260464 -0.024091 0.441191 -0.114018 -0.156444 -0.018235 0.054711 0.117956 -0.090658 -0.123357 -0.138395 0.079189 -0.180223 -0.288113 0.182264 0.099730 0.141998 -0.144405 -0.195128 -0.104773 0.194379 0.338448 -0.187684 0.128988 -0.015680 -0.434821 0.076532 0.257487 -0.104420 0.027187 0.014819 0.294306 -0.327179 -0.034576 -0.083888 -0.067584 0.133419 -0.084130 0.180901 -0.206222 0.134871 0.272810
6 0.180906 -0.211566 0.078427 0.157091 -0.111598 0.079174 0.227692 0.305604 0.076742 -0.010136 0.159736 -0.017949 -0.087159 -0.440420 0.382862 -0.355372 0.254724 -0.477088 0.217023 -0.002888 -0.037653 -0.222955 -0.331328 -0.045703 0.543981 -0.135046 -0.164903 -0.016721 0.069651 0.160741 -0.100215 -0.140129 -0.143264 0.078822 -0.207295 -0.324178 0.155513 0.127121 0.153540 -0.192759 -0.226850 -0.094473 0.195359 0.340509 -0.209202 0.140104 -0.025846 -0.493052 0.108738 0.328734 -0.122061 0.043637 -0.004099 0.333623 -0.349594 -0.031007 -0.102690 -0.106481 0.218536 -0.119886 0.226657 -0.203700 0.166921 0.287700
10 -0.118337 -0.196282 -0.105395 -0.000526 0.104698 0.112364 0.000319 0.402263 0.324779 -0.297314 0.111503 0.337959 -0.124896 -0.099196 0.075004 -0.247520 -0.035291 0.202265 -0.105655 -0.067051 -0.000787 0.056161 0.379190 -0.028299 -0.237803 -0.011911 -0.128104 -0.225676 -0.108712 -0.089736 0.060782 -0.056867 -0.036916 0.000514 -0.005918 -0.003597 0.525211 -0.105279 -0.144729 0.077452 -0.196221 -0.119631 0.487330 0.401078 -0.160256 0.173559 0.215055 -0.178797 0.039898 -0.205642 -0.046797 -0.004356 0.033410 0.154143 -0.144428 -0.086865 0.020946 0.113625 -0.520678 0.144791 0.028806 -0.160369 -0.178120 0.228180
11 -0.157136 -0.216108 -0.128502 -0.007013 0.131541 0.119060 -0.023150 0.445944 0.372954 -0.349629 0.116351 0.393074 -0.147283 -0.081091 0.075215 -0.273492 -0.069461 0.263213 -0.140879 -0.085641 0.001806 0.083460 0.467321 -0.032432 -0.314050 -0.012424 -0.146805 -0.264189 -0.140673 -0.114984 0.092498 -0.052603 -0.030659 -0.022124 0.025484 0.030236 0.606924 -0.114981 -0.182395 0.124604 -0.197575 -0.120038 0.550062 0.430825 -0.181703 0.194644 0.259023 -0.163037 0.023140 -0.256067 -0.039544 -0.006214 0.033449 0.149021 -0.131050 -0.114108 0.030827 0.145234 -0.618087 0.172309 0.009279 -0.172205 -0.198821 0.253743
