16 64
7 -0.118970 -0.254109 0.088077 -0.095485 0.055403 0.006176 0.038791 0.060364 0.179150 -0.073951 0.104063 0.128235 -0.137918 -0.162557 0.198606 -0.204781 -0.026305 -0.172396 0.025815 -0.210795 0.179275 0.075362 -0.063667 0.114809 -0.021169 -0.111852 0.021762 0.046391 -0.037172 -0.032981 -0.090667 0.015643 -0.142092 0.006420 0.017600 -0.157919 0.262862 0.169703 0.028411 0.037638 -0.085462 -0.107329 0.286408 0.318166 -0.128609 0.264741 0.169836 -0.152943 -0.087151 0.114907 -0.120148 0.168285 0.031262 0.131942 -0.269180 -0.221090 -0.117073 -0.020812 -0.093908 -0.010207 0.161661 -0.153436 -0.024489 0.186055
13 -0.079736 -0.225141 0.320114 -0.372829 0.121943 0.149483 -0.070845 -0.341712 0.146939 0.136160 -0.201003 0.038708 -0.072731 0.049859 0.230627 0.080979 -0.341066 -0.060847 -0.141728 -0.507141 0.702835 0.222872 -0.179415 0.232133 -0.591013 0.011288 0.336168 0.340967 -0.213969 -0.123630 -0.152518 0.178532 0.064509 -0.122766 0.150648 -0.045943 0.377489 0.331161 -0.010457 0.129064 0.002387 0.125167 0.281699 0.290966 0.182323 0.659899 0.260680 0.252360 -0.203723 0.199573 -0.213442 0.270048 0.258932 0.212474 -0.326966 -0.425126 -0.411105 -0.230712 -0.063049 -0.188255 0.370919 -0.049459 -0.027821 -0.359359
4 -0.187824 -0.314991 0.080235 -0.064336 0.097560 -0.105322 0.088850 0.186775 0.150399 -0.181939 0.274645 0.146885 -0.131600 -0.256727 0.163822 -0.399856 0.121770 -0.310336 0.102969 -0.135980 0.045367 0.039602 -0.103173 0.167415 0.159329 -0.182134 -0.040219 0.001870 0.103529 -0.046593 -0.159912 -0.082015 -0.253466 0.134760 -0.040472 -0.283897 0.215824 0.164969 0.150945 -0.068493 -0.078081 -0.268269 0.297785 0.370552 -0.265836 0.089732 0.087338 -0.352353 -0.069236 0.115631 -0.074218 0.123065 -0.054844 0.103303 -0.330746 -0.187454 -0.010167 0.149299 -0.142742 0.071144 0.104991 -0.249225 -0.026629 0.365010
11 -0.089758 -0.226140 0.200866 -0.216714 0.079946 0.105744 -0.037272 -0.153894 0.175385 0.054914 -0.091816 0.090158 -0.124231 -0.017414 0.231493 -0.012079 -0.227352 -0.068071 -0.064799 -0.369664 0.461427 0.158762 -0.090996 0.130378 -0.345445 -0.025462 0.181986 0.195870 -0.173277 -0.063682 -0.087985 0.112514 0.002563 -0.097626 0.108559 -0.048084 0.349271 0.254448 -0.038322 0.140723 -0.039055 0.062613 0.289257 0.282121 0.056847 0.507513 0.246763 0.104837 -0.155242 0.150136 -0.168974 0.221903 0.167771 0.171933 -0.262326 -0.334235 -0.285546 -0.171041 -0.076251 -0.131892 0.271633 -0.078260 -0.014796 -0.116896
3 -0.208316 -0.331982 0.097916 -0.064162 0.099176 -0.108849 0.117477 0.187102 0.126133 -0.193151 0.291744 0.126016 -0.153467 -0.278565 0.160331 -0.438679 0.161643 -0.338293 0.104977 -0.137129 0.006183 0.037945 -0.112926 0.195298 0.193424 -0.195785 -0.038931 -0.000795 0.122801 -0.030414 -0.173567 -0.094849 -0.270645 0.166506 -0.041079 -0.315798 0.207139 0.168997 0.175309 -0.083836 -0.079457 -0.295851 0.277976 0.378127 -0.293153 0.072454 0.080717 -0.378838 -0.076713 0.141343 -0.063979 0.115589 -0.084540 0.095883 -0.336361 -0.196063 -0.018112 0.177058 -0.161996 0.095286 0.067058 -0.254256 -0.027964 0.397921
8 -0.124562 -0.271077 0.071509 -0.059117 0.039086 -0.000612 0.052010 0.104911 0.182446 -0.079691 0.122742 0.143345 -0.160130 -0.176208 0.210432 -0.238988 -0.003067 -0.168983 0.056834 -0.175629 0.119472 0.067229 -0.039940 0.069242 0.024836 -0.102133 -0.009343 0.021805 -0.034990 -0.006271 -0.076711 0.003458 -0.150976 0.019521 0.014301 -0.159626 0.279525 0.157717 0.031072 0.061320 -0.094953 -0.119013 0.280317 0.323260 -0.159800 0.242536 0.158306 -0.187778 -0.089479 0.108887 -0.118794 0.147860 0.022906 0.129022 -0.259262 -0.211362 -0.106617 -0.008084 -0.110340 -0.013358 0.129974 -0.169705 -0.021308 0.241318
5 -0.201525 -0.351864 0.065489 -0.050553 0.092956 -0.122915 0.123111 0.201908 0.154901 -0.203657 0.303442 0.142455 -0.158893 -0.275416 0.180441 -0.462682 0.166312 -0.344024 0.116606 -0.108863 -0.013358 0.029344 -0.111185 0.184608 0.219436 -0.202827 -0.058273 -0.032206 0.106036 -0.039576 -0.164172 -0.090281 -0.274254 0.155698 -0.030645 -0.319596 0.206392 0.161116 0.174759 -0.084093 -0.074479 -0.295497 0.260146 0.368468 -0.314686 0.057966 0.070600 -0.386340 -0.067111 0.134585 -0.076440 0.125943 -0.076926 0.076426 -0.316113 -0.186193 0.002963 0.186448 -0.157017 0.081494 0.052024 -0.282485 -0.011553 0.435763
6 -0.154591 -0.284787 0.088829 -0.069067 0.075199 -0.046303 0.073859 0.116309 0.150302 -0.121743 0.188601 0.124286 -0.143231 -0.202525 0.180805 -0.301463 0.050974 -0.243712 0.067927 -0.170697 0.093426 0.053228 -0.085772 0.132386 0.076915 -0.145598 -0.002411 0.014376 0.032455 -0.025958 -0.123383 -0.039759 -0.184695 0.074244 -0.000052 -0.218830 0.232298 0.173306 0.085869 -0.019290 -0.077919 -0.180868 0.273326 0.322053 -0.203626 0.171486 0.125245 -0.251859 -0.075507 0.124653 -0.092279 0.142612 -0.023602 0.103343 -0.276013 -0.207918 -0.068115 0.064017 -0.114838 0.020746 0.120596 -0.191884 -0.021440 0.273988
12 -0.111799 -0.239153 0.123151 -0.131685 0.055457 0.037751 0.002228 -0.031947 0.164133 -0.010201 0.032132 0.117430 -0.137417 -0.088853 0.206075 -0.116298 -0.112362 -0.117153 0.002947 -0.259062 0.267920 0.113416 -0.064729 0.092624 -0.146612 -0.069180 0.084981 0.098017 -0.092914 -0.033186 -0.076107 0.054670 -0.083463 -0.034089 0.066267 -0.098089 0.288084 0.205361 -0.005286 0.096634 -0.057562 -0.034225 0.267095 0.277922 -0.058592 0.349235 0.194996 -0.046614 -0.124217 0.118499 -0.135986 0.181250 0.081054 0.122351 -0.242016 -0.263687 -0.176568 -0.078847 -0.080851 -0.069515 0.191042 -0.116102 -0.019776 0.074085
1 -0.266382 -0.418053 0.061268 -0.023065 0.110083 -0.198510 0.157007 0.335452 0.169853 -0.286783 0.429007 0.173966 -0.168978 -0.378719 0.171885 -0.612653 0.279331 -0.441209 0.185842 -0.079898 -0.116566 -0.003426 -0.111871 0.208505 0.367047 -0.262073 -0.113305 -0.069280 0.202059 -0.044309 -0.208719 -0.148269 -0.372893 0.233922 -0.086687 -0.416301 0.196658 0.153707 0.248538 -0.156908 -0.110328 -0.425286 0.326505 0.450966 -0.434061 -0.042777 0.042787 -0.554482 -0.044862 0.147362 -0.065568 0.119081 -0.154750 0.089119 -0.394513 -0.168030 0.071066 0.299538 -0.211213 0.160022 0.035638 -0.359622 -0.038878 0.607968
10 -0.082511 -0.218625 0.149559 -0.172144 0.069659 0.094125 -0.011694 -0.096378 0.178096 0.019266 -0.037450 0.111319 -0.127220 -0.044059 0.207305 -0.036321 -0.176170 -0.071325 -0.046722 -0.310103 0.378611 0.135595 -0.070055 0.117969 -0.259046 -0.044121 0.134694 0.138580 -0.138052 -0.052404 -0.084094 0.077538 -0.031057 -0.061742 0.070968 -0.064911 0.317993 0.206310 -0.041313 0.105934 -0.060469 0.022689 0.290058 0.283831 0.020462 0.440156 0.230004 0.035638 -0.116424 0.115442 -0.151738 0.202210 0.139097 0.153849 -0.252226 -0.283159 -0.225112 -0.148785 -0.077761 -0.095419 0.242481 -0.082214 -0.030769 -0.042142
2 -0.198303 -0.349719 0.057092 -0.034812 0.083016 -0.117850 0.125154 0.243242 0.149961 -0.212124 0.314510 0.162005 -0.158109 -0.298766 0.174146 -0.468454 0.168765 -0.329461 0.125992 -0.108580 -0.033282 0.024737 -0.080160 0.160276 0.230994 -0.206412 -0.078582 -0.042959 0.123274 -0.023874 -0.148314 -0.104237 -0.292244 0.167698 -0.055468 -0.307960 0.216290 0.143396 0.165444 -0.085180 -0.092949 -0.298529 0.298975 0.382791 -0.331638 0.052288 0.077272 -0.416731 -0.053875 0.119431 -0.070982 0.112117 -0.087809 0.098936 -0.336458 -0.178141 0.018259 0.192069 -0.172044 0.105724 0.056516 -0.269005 -0.029998 0.452141
9 -0.102762 -0.230703 0.093830 -0.099827 0.046011 0.052561 0.012208 0.017261 0.192700 -0.026712 0.041201 0.136343 -0.149937 -0.121173 0.210590 -0.123438 -0.103988 -0.103061 0.001609 -0.241961 0.229269 0.106605 -0.033114 0.061514 -0.111072 -0.067213 0.049558 0.061819 -0.094979 -0.010777 -0.060592 0.050205 -0.092427 -0.044222 0.056141 -0.100650 0.311604 0.186291 -0.037710 0.108687 -0.090575 -0.045056 0.299100 0.303778 -0.077885 0.341374 0.211727 -0.079285 -0.109940 0.100429 -0.137915 0.179764 0.066364 0.143625 -0.232675 -0.250840 -0.169920 -0.097015 -0.083689 -0.066121 0.191987 -0.110604 -0.032352 0.111429
0 -0.228240 -0.371860 0.071218 -0.045721 0.094663 -0.145254 0.132485 0.253353 0.146638 -0.235573 0.359176 0.148168 -0.158448 -0.316912 0.174828 -0.519426 0.220235 -0.381224 0.137298 -0.101500 -0.060767 0.009029 -0.112056 0.196963 0.268379 -0.225514 -0.074612 -0.047473 0.145851 -0.044809 -0.179273 -0.114389 -0.309782 0.188188 -0.051566 -0.359386 0.207553 0.160998 0.209577 -0.121385 -0.094662 -0.352554 0.284138 0.404629 -0.357380 0.021337 0.058743 -0.458381 -0.064692 0.142800 -0.067846 0.112619 -0.116993 0.076801 -0.351349 -0.178057 0.022710 0.239473 -0.189072 0.121657 0.046461 -0.310533 -0.026058 0.500350
14 -0.078805 -0.229115 0.355074 -0.413162 0.133687 0.193620 -0.098384 -0.407665 0.147631 0.173128 -0.260110 0.046125 -0.081574 0.096549 0.247785 0.147140 -0.397768 -0.027428 -0.168624 -0.562414 0.795354 0.261396 -0.179920 0.241927 -0.685446 0.035500 0.380299 0.384266 -0.271443 -0.127007 -0.139791 0.209073 0.102340 -0.146036 0.182404 -0.010443 0.397734 0.349569 -0.042547 0.163192 -0.004506 0.178704 0.297990 0.290220 0.237739 0.746045 0.293942 0.329231 -0.218606 0.211029 -0.232612 0.289803 0.296196 0.227558 -0.326658 -0.463655 -0.465592 -0.275524 -0.063574 -0.223167 0.409681 -0.031135 -0.016272 -0.447879
15 -0.097207 -0.262844 0.359948 -0.419023 0.136587 0.198624 -0.085299 -0.401369 0.173964 0.157363 -0.237039 0.061381 -0.099980 0.084297 0.277388 0.115274 -0.411920 -0.047690 -0.169378 -0.586129 0.812461 0.267000 -0.181000 0.246546 -0.689881 0.019483 0.369810 0.377421 -0.272076 -0.138849 -0.153445 0.210935 0.095234 -0.152025 0.183250 -0.021535 0.432126 0.368732 -0.032726 0.176780 -0.011390 0.169304 0.325808 0.320055 0.224280 0.782681 0.305998 0.305895 -0.231090 0.212685 -0.244255 0.308738 0.302251 0.238493 -0.358976 -0.494905 -0.478380 -0.290829 -0.071324 -0.217341 0.429938 -0.038776 -0.020275 -0.419834
