12 64
9 -0.010185 -0.140907 -0.350181 0.185702 0.182191 0.160386 0.125100 0.186234 0.585293 -0.290017 0.223088 0.330936 -0.267709 -0.060648 0.186926 -0.054238 -0.145382 0.018604 -0.155876 0.021507 -0.010328 0.081445 0.113632 -0.033581 0.076326 -0.125147 -0.123460 -0.524538 -0.248687 -0.006402 -0.024159 -0.062195 0.040769 -0.181108 0.203759 -0.127222 0.413916 0.064802 -0.489564 0.035073 -0.218769 -0.096207 0.376138 0.248109 -0.185746 0.203179 0.380835 -0.209466 0.144908 -0.207304 -0.123369 0.318010 -0.000746 -0.082859 0.283068 -0.122721 0.043831 -0.301392 -0.013754 -0.267702 0.204387 -0.099211 -0.063795 0.341749
6 0.003635 -0.126835 -0.207794 0.142887 0.119164 0.118740 0.136310 0.169721 0.365835 -0.222913 0.203828 0.213212 -0.213520 -0.130258 0.173230 -0.124250 -0.042884 -0.079350 -0.091262 -0.005997 -0.025122 0.032802 0.021455 0.014205 0.135582 -0.134906 -0.109087 -0.350562 -0.123176 0.031735 -0.036412 -0.094358 -0.028413 -0.073190 0.098628 -0.149085 0.320250 0.081109 -0.292196 -0.008254 -0.160204 -0.100224 0.295819 0.234671 -0.181097 0.155399 0.270489 -0.243321 0.087600 -0.084258 -0.067974 0.200697 -0.022781 -0.010426 0.112435 -0.111352 0.018402 -0.188085 -0.003960 -0.158521 0.141948 -0.082993 -0.021799 0.293764
3 -0.062600 -0.168953 0.076144 0.031869 0.019823 0.059291 0.170104 0.232743 0.020730 -0.169653 0.205588 0.045789 -0.175279 -0.342044 0.156416 -0.363609 0.198992 -0.241038 0.000208 -0.096035 -0.110006 -0.021580 -0.057012 0.129358 0.217125 -0.148720 -0.105138 -0.052163 0.102363 0.106831 -0.067595 -0.137593 -0.210602 0.148281 -0.081411 -0.256589 0.284290 0.106312 0.076568 -0.045582 -0.129644 -0.212612 0.250230 0.371596 -0.241028 0.097691 0.121067 -0.378712 -0.069246 0.138763 0.015859 -0.018741 -0.113498 0.175122 -0.270274 -0.140333 -0.081606 0.085185 -0.155350 0.118330 -0.011283 -0.111334 -0.013028 0.318710
0 -0.114744 -0.226759 0.228442 -0.046394 -0.041963 0.050120 0.182838 0.302573 -0.135440 -0.156256 0.221491 -0.018362 -0.156938 -0.465664 0.166186 -0.512372 0.339786 -0.308805 0.040479 -0.163723 -0.168469 -0.065088 -0.061268 0.182275 0.222379 -0.154579 -0.094733 0.071257 0.195734 0.125885 -0.072206 -0.146988 -0.297984 0.255875 -0.163137 -0.323573 0.313190 0.111919 0.268254 -0.092420 -0.163804 -0.291283 0.265129 0.484241 -0.292098 0.097827 0.054622 -0.476688 -0.141574 0.258508 0.032608 -0.128309 -0.180468 0.277868 -0.488782 -0.164061 -0.153586 0.257123 -0.303256 0.283675 -0.075769 -0.153550 -0.036464 0.355521
7 0.009143 -0.134720 -0.151512 0.106991 0.081180 0.107053 0.148209 0.177690 0.290000 -0.207863 0.199104 0.171107 -0.192826 -0.193165 0.180145 -0.181939 0.025339 -0.131165 -0.073942 -0.018955 -0.033047 0.011501 -0.015779 0.061767 0.175148 -0.147052 -0.122477 -0.272296 -0.071973 0.037555 -0.043055 -0.092614 -0.087391 -0.024330 0.036328 -0.183720 0.290057 0.071378 -0.189210 -0.028958 -0.157037 -0.125539 0.272082 0.275842 -0.185759 0.143194 0.222909 -0.275277 0.057847 -0.026207 -0.057103 0.153379 -0.030601 0.046355 -0.001838 -0.101841 0.000077 -0.130114 -0.015981 -0.080380 0.108739 -0.097975 -0.007032 0.302338
5 0.006922 -0.138385 -0.114570 0.095832 0.079143 0.084992 0.161555 0.167496 0.226251 -0.198892 0.207150 0.145845 -0.186374 -0.212921 0.172574 -0.219316 0.047774 -0.167816 -0.056017 -0.021926 -0.035968 0.013868 -0.049227 0.083203 0.191268 -0.154772 -0.117548 -0.226017 -0.026310 0.053832 -0.056715 -0.114783 -0.117848 0.022332 0.013459 -0.199405 0.272670 0.086927 -0.132118 -0.034641 -0.122281 -0.134648 0.247671 0.272028 -0.197584 0.121525 0.191279 -0.293444 0.032799 -0.000109 -0.034488 0.118957 -0.031613 0.057850 -0.044918 -0.111515 0.000114 -0.091472 -0.014375 -0.059410 0.080481 -0.096847 0.007072 0.294014
4 -0.010004 -0.133893 -0.060922 0.082016 0.062352 0.078907 0.152018 0.200052 0.169183 -0.195129 0.214874 0.119352 -0.174125 -0.253146 0.167059 -0.255892 0.095174 -0.189321 -0.040483 -0.039712 -0.056112 -0.005038 -0.052373 0.089335 0.200318 -0.150554 -0.120887 -0.175791 0.014500 0.062881 -0.059103 -0.125706 -0.141452 0.051612 -0.019496 -0.214708 0.284871 0.094716 -0.073103 -0.037394 -0.130468 -0.163251 0.261473 0.311479 -0.202141 0.112444 0.172641 -0.326954 0.000447 0.033505 -0.014219 0.070709 -0.056613 0.096357 -0.115558 -0.112218 -0.020855 -0.042123 -0.053763 -0.007922 0.069285 -0.103239 0.001911 0.301327
8 -0.039831 -0.161106 -0.010599 0.063859 0.043400 0.077531 0.154149 0.203602 0.127569 -0.169306 0.190422 0.098671 -0.182927 -0.254839 0.162291 -0.278882 0.116062 -0.174447 -0.017929 -0.057647 -0.081489 -0.003252 -0.027206 0.073489 0.174768 -0.124404 -0.097979 -0.138757 0.019196 0.081596 -0.055131 -0.113673 -0.137470 0.076853 -0.018900 -0.211653 0.292669 0.091399 -0.033301 -0.024019 -0.136197 -0.165614 0.243997 0.314711 -0.209997 0.118536 0.152419 -0.317755 -0.020591 0.066168 -0.019890 0.044914 -0.069808 0.111010 -0.141620 -0.126323 -0.056575 -0.002238 -0.111720 0.017557 0.031440 -0.108172 -0.014873 0.295863
11 -0.006188 -0.131317 -0.304239 0.170764 0.167337 0.137607 0.116227 0.170247 0.514152 -0.269750 0.209608 0.289423 -0.244234 -0.060167 0.181505 -0.067565 -0.120179 -0.011634 -0.135045 0.012877 0.002863 0.063102 0.079813 -0.009136 0.088289 -0.132179 -0.118385 -0.458505 -0.212627 -0.011048 -0.026259 -0.072264 0.028286 -0.154766 0.170033 -0.117925 0.369950 0.069844 -0.420629 0.025568 -0.180297 -0.083022 0.341008 0.225126 -0.170794 0.185744 0.342823 -0.196607 0.126167 -0.169492 -0.097570 0.281124 0.003284 -0.070158 0.231985 -0.114464 0.047540 -0.262075 -0.004860 -0.230404 0.183041 -0.095274 -0.036443 0.316259
10 0.012560 -0.129237 -0.337595 0.186395 0.175548 0.156984 0.134265 0.165015 0.548913 -0.279742 0.222680 0.308525 -0.256899 -0.055041 0.184149 -0.046668 -0.130724 -0.005960 -0.147372 0.026756 0.007884 0.066228 0.074166 -0.007600 0.098215 -0.138702 -0.119774 -0.495594 -0.226472 -0.009950 -0.035938 -0.081832 0.034212 -0.157285 0.170838 -0.126445 0.378722 0.061273 -0.459758 0.011990 -0.195143 -0.083857 0.352805 0.230594 -0.166677 0.199467 0.363872 -0.207506 0.152495 -0.191265 -0.106990 0.304309 0.016244 -0.082015 0.255478 -0.106708 0.057806 -0.303176 0.015937 -0.254630 0.202186 -0.090542 -0.046194 0.323608
1 -0.130667 -0.253577 0.265007 -0.057048 -0.041460 0.035452 0.197353 0.333423 -0.153376 -0.159993 0.221008 -0.027003 -0.157003 -0.506598 0.166688 -0.561905 0.368843 -0.336517 0.063339 -0.180484 -0.173883 -0.067979 -0.064192 0.195892 0.241969 -0.159057 -0.094972 0.103943 0.227076 0.138167 -0.088120 -0.156084 -0.325794 0.289398 -0.191059 -0.349977 0.315717 0.111329 0.310435 -0.106990 -0.171157 -0.312723 0.286834 0.517422 -0.318434 0.088380 0.039859 -0.506535 -0.141652 0.289604 0.030983 -0.138640 -0.191692 0.320442 -0.544131 -0.172997 -0.162418 0.293530 -0.331173 0.313610 -0.085410 -0.169749 -0.044910 0.368959
2 -0.107533 -0.233285 0.214134 -0.036365 -0.030868 0.049314 0.190584 0.318638 -0.117175 -0.166593 0.216788 0.000527 -0.159296 -0.467931 0.165670 -0.517487 0.319746 -0.298821 0.040984 -0.162671 -0.159284 -0.056610 -0.045832 0.173467 0.218303 -0.157603 -0.102572 0.058172 0.195351 0.131650 -0.068868 -0.155510 -0.299429 0.257174 -0.167071 -0.314774 0.322155 0.103321 0.249674 -0.091179 -0.161096 -0.279420 0.288154 0.482007 -0.304303 0.096753 0.061810 -0.477980 -0.122487 0.243018 0.030333 -0.120178 -0.170176 0.289746 -0.482396 -0.166983 -0.138905 0.250587 -0.304317 0.276000 -0.071710 -0.149064 -0.040651 0.351691
