16 64
13 0.019258 -0.283689 0.356560 -0.228996 0.229325 0.203611 0.364223 -0.312576 -0.046279 0.071771 -0.086137 -0.111205 -0.146995 -0.330530 0.274025 -0.301075 -0.181624 -0.495250 -0.128815 -0.385661 0.414301 0.285734 -0.453987 0.264161 -0.068005 -0.057011 0.177450 0.168939 0.023737 0.272047 -0.278653 -0.011053 -0.046146 0.153546 0.172181 -0.415014 0.176121 0.399337 0.069196 -0.071658 -0.060570 0.017322 0.086368 0.228074 -0.148730 0.349536 -0.006249 -0.154780 -0.073183 0.351164 -0.159574 0.202785 0.027701 0.372472 -0.156533 -0.537191 -0.483151 -0.238043 0.267333 -0.368265 0.235482 0.051646 0.158660 -0.364478
6 -0.015709 -0.245873 0.224401 -0.147538 0.149738 0.148836 0.241959 -0.109456 0.009432 -0.023507 0.000561 -0.007541 -0.132708 -0.241562 0.207066 -0.263609 -0.074917 -0.313034 -0.081232 -0.271823 0.265763 0.163952 -0.239626 0.205868 -0.050118 -0.078826 0.085420 0.081998 0.013622 0.138311 -0.174514 -0.044971 -0.068492 0.134070 0.063030 -0.277013 0.204225 0.230076 0.058066 -0.065881 -0.078654 -0.026973 0.165339 0.247983 -0.132568 0.277038 0.047044 -0.168090 -0.033796 0.215394 -0.100753 0.123319 0.023950 0.264990 -0.199553 -0.349269 -0.285293 -0.104256 0.051503 -0.151523 0.153367 -0.017222 0.070634 -0.138442
7 -0.050510 -0.245390 0.102965 -0.108262 0.072995 0.130371 0.145805 0.026484 0.100228 -0.121131 0.072552 0.097560 -0.154100 -0.151202 0.189346 -0.230148 0.003209 -0.156160 -0.075483 -0.208121 0.196117 0.070405 -0.060509 0.219508 -0.062947 -0.127871 0.001434 0.015368 -0.033310 -0.019459 -0.091245 -0.050440 -0.099703 0.099656 -0.039765 -0.156778 0.257912 0.080674 0.051746 -0.038784 -0.094595 -0.055733 0.246140 0.306156 -0.092253 0.298756 0.134742 -0.151883 -0.016605 0.101924 -0.067226 0.092463 0.061891 0.173021 -0.289237 -0.208813 -0.130887 -0.026777 -0.147875 0.070395 0.088128 -0.087158 -0.002284 0.081922
8 -0.101590 -0.339039 0.017198 -0.089256 0.001247 0.166999 0.062585 0.114063 0.276083 -0.142224 0.081601 0.234630 -0.209520 0.004645 0.222134 -0.132186 0.001749 0.042969 -0.030177 -0.194147 0.200291 0.006215 0.131642 0.148195 -0.173907 -0.108059 0.011779 -0.061920 -0.182641 -0.163299 -0.036937 -0.002929 -0.030124 0.032336 -0.075299 -0.029597 0.359133 -0.047895 -0.016452 -0.009778 -0.185758 -0.032953 0.351926 0.360646 -0.024004 0.446516 0.244077 -0.083886 0.051148 0.017383 -0.143990 0.152604 0.147907 0.090380 -0.333231 -0.122852 -0.071425 -0.048407 -0.354375 0.160391 0.115202 -0.175404 -0.115318 0.230018
2 -0.045940 -0.197449 0.114925 -0.132543 0.066498 0.043179 0.150657 0.185504 -0.031665 -0.215795 0.161261 0.085367 -0.077632 -0.345742 0.134037 -0.446694 0.127951 -0.227251 -0.091326 -0.166010 0.070258 0.047200 -0.048703 0.280501 0.009299 -0.175108 -0.099477 0.046312 0.140072 0.004577 -0.063769 -0.117195 -0.276961 0.201402 -0.124846 -0.239050 0.294256 0.070633 0.195749 -0.077203 -0.045777 -0.182456 0.277762 0.406839 -0.221003 0.117758 0.051123 -0.318031 -0.095211 0.091728 0.027809 -0.068401 -0.024273 0.258395 -0.428125 -0.184869 -0.062087 0.209976 -0.246595 0.233439 -0.028754 -0.124390 0.001669 0.164688
10 -0.136394 -0.394461 -0.053009 -0.025232 0.000638 0.235287 0.023007 0.109257 0.421335 -0.185706 0.116027 0.338297 -0.326678 0.199500 0.265051 0.010491 -0.043233 0.170283 -0.025309 -0.215474 0.280459 -0.028226 0.224216 0.151870 -0.248365 -0.147400 0.037859 -0.134196 -0.314406 -0.275409 -0.027545 -0.038182 0.064959 -0.014338 -0.097486 0.099402 0.453625 -0.097432 -0.139844 0.031900 -0.206930 0.032312 0.461138 0.369536 0.074966 0.640816 0.422639 -0.001248 0.110460 -0.052729 -0.150705 0.238424 0.251297 -0.029951 -0.330641 -0.091410 -0.007842 -0.170257 -0.454911 0.191762 0.170991 -0.190970 -0.168632 0.334905
4 -0.038216 -0.161535 0.174825 -0.120948 0.129828 0.032287 0.190380 0.119980 -0.103408 -0.201661 0.166740 0.021898 -0.082765 -0.382923 0.130657 -0.471134 0.114563 -0.341304 -0.096359 -0.179704 0.101347 0.090253 -0.171042 0.309223 0.068137 -0.179056 -0.086372 0.095876 0.199642 0.078704 -0.119263 -0.163045 -0.278869 0.238119 -0.093583 -0.299730 0.261676 0.166218 0.210954 -0.067005 0.006604 -0.186456 0.237344 0.379362 -0.230238 0.078605 0.021756 -0.341997 -0.134961 0.139336 0.072121 -0.082167 -0.045444 0.280680 -0.390594 -0.246594 -0.103637 0.176606 -0.126509 0.141232 -0.012286 -0.085060 0.071590 0.087254
3 -0.059445 -0.165097 0.153331 -0.105393 0.113950 0.026493 0.189886 0.152983 -0.103616 -0.243049 0.199714 0.033400 -0.118568 -0.381087 0.121325 -0.490663 0.163457 -0.318790 -0.104175 -0.169888 0.056405 0.070498 -0.131676 0.349764 0.091141 -0.214072 -0.109023 0.080707 0.206319 0.057019 -0.104439 -0.185121 -0.313743 0.257702 -0.125679 -0.288709 0.284111 0.136407 0.217109 -0.059237 0.016190 -0.212835 0.253281 0.407251 -0.242268 0.079404 0.063064 -0.355064 -0.147794 0.128145 0.102633 -0.098070 -0.054678 0.250060 -0.423799 -0.222178 -0.064365 0.214312 -0.196788 0.226657 -0.070130 -0.098007 0.051035 0.178490
5 -0.029057 -0.220337 0.183163 -0.138657 0.137322 0.105911 0.225026 -0.050157 -0.015846 -0.096144 0.065782 0.009745 -0.133123 -0.267379 0.181789 -0.329419 -0.006037 -0.310734 -0.098095 -0.227699 0.203955 0.142525 -0.209606 0.265269 -0.006517 -0.126509 0.018261 0.075334 0.063072 0.098383 -0.151162 -0.079374 -0.148849 0.166010 0.011340 -0.276481 0.218322 0.195401 0.107881 -0.051351 -0.033492 -0.082815 0.167916 0.286597 -0.158679 0.214636 0.050711 -0.209624 -0.077725 0.175253 -0.037070 0.061167 0.012280 0.237174 -0.258708 -0.305703 -0.206126 -0.010532 -0.016560 -0.031771 0.068778 -0.046403 0.073436 -0.029433
9 -0.101825 -0.334782 -0.009055 -0.163856 -0.044117 0.138821 0.053376 0.177169 0.270786 -0.158678 0.085167 0.235348 -0.130029 -0.119365 0.201554 -0.228013 0.047611 0.049511 -0.070105 -0.178899 0.108294 0.002235 0.184269 0.151098 -0.186035 -0.096983 -0.029368 -0.094045 -0.154467 -0.172374 0.006527 0.076974 -0.111768 0.011996 -0.061551 -0.092378 0.351352 -0.086980 0.039826 -0.051652 -0.238490 -0.110877 0.330973 0.415634 -0.101406 0.353714 0.169238 -0.142667 0.027398 0.007155 -0.184383 0.122808 0.069434 0.140519 -0.362422 -0.106651 -0.085900 0.072151 -0.408559 0.235301 0.069209 -0.209336 -0.150707 0.259223
1 -0.103533 -0.323243 0.025922 -0.176518 -0.030068 0.097394 0.068336 0.208804 0.223846 -0.170831 0.089171 0.200816 -0.094596 -0.186355 0.173790 -0.294395 0.091046 -0.006731 -0.056439 -0.174023 0.089108 -0.002614 0.152642 0.182459 -0.137951 -0.104785 -0.042453 -0.051239 -0.082278 -0.154513 -0.018746 0.058535 -0.157332 0.054430 -0.096207 -0.140243 0.315922 -0.084035 0.104060 -0.085730 -0.221301 -0.149509 0.325536 0.433081 -0.135546 0.278442 0.118692 -0.184492 0.023082 0.035231 -0.162242 0.090078 0.039948 0.190107 -0.406420 -0.100382 -0.076717 0.135223 -0.402016 0.266759 0.046798 -0.218419 -0.142565 0.251379
0 -0.087557 -0.269540 0.026276 -0.162515 -0.024605 0.075685 0.080233 0.233224 0.119443 -0.220776 0.155886 0.177661 -0.088353 -0.246545 0.156710 -0.370509 0.145053 -0.062164 -0.085758 -0.149325 0.035844 -0.009686 0.116394 0.236909 -0.082885 -0.153166 -0.096830 -0.041904 0.001179 -0.130920 -0.001224 -0.010178 -0.232712 0.111765 -0.126529 -0.162367 0.326802 -0.057915 0.157065 -0.082666 -0.157111 -0.187156 0.307604 0.444900 -0.174310 0.209233 0.101358 -0.255659 -0.041175 0.028791 -0.071271 -0.003296 0.004770 0.183800 -0.444207 -0.100921 -0.036010 0.214621 -0.404230 0.331349 -0.022198 -0.201410 -0.098516 0.287345
14 -0.005071 -0.329285 0.323873 -0.204484 0.219153 0.256155 0.331169 -0.338213 0.044102 0.092548 -0.110888 -0.047691 -0.202496 -0.193794 0.293455 -0.176667 -0.220762 -0.394113 -0.105141 -0.391518 0.458122 0.282520 -0.383089 0.219299 -0.125708 -0.033242 0.213432 0.129291 -0.089596 0.225695 -0.260581 0.010646 0.041881 0.115887 0.187786 -0.330574 0.183487 0.347593 -0.017946 -0.048504 -0.114571 0.075519 0.119887 0.202298 -0.076591 0.457260 0.065073 -0.072856 -0.011549 0.316602 -0.204383 0.267540 0.082452 0.307254 -0.111213 -0.511310 -0.475944 -0.323355 0.225428 -0.391719 0.280842 0.042869 0.126134 -0.350349
15 0.000058 -0.313733 0.350809 -0.220802 0.236242 0.245219 0.362799 -0.349904 -0.001859 0.084261 -0.096749 -0.083118 -0.179128 -0.255472 0.290961 -0.237087 -0.221029 -0.460564 -0.124394 -0.400252 0.453360 0.299347 -0.431289 0.240681 -0.100058 -0.042672 0.193236 0.146967 -0.032575 0.254204 -0.282890 0.001784 0.013966 0.135275 0.190445 -0.376872 0.167958 0.383623 0.026652 -0.054802 -0.093798 0.053688 0.095865 0.205336 -0.105154 0.415619 0.017059 -0.115034 -0.040593 0.332177 -0.184676 0.243264 0.054651 0.345126 -0.125750 -0.545262 -0.497761 -0.308920 0.272064 -0.395798 0.276072 0.065601 0.151945 -0.381922
11 -0.165810 -0.442179 -0.050961 -0.015155 0.005398 0.245493 0.008308 0.138229 0.470488 -0.212576 0.126544 0.375230 -0.371277 0.231985 0.302325 0.004814 -0.045992 0.186323 -0.013544 -0.245620 0.312557 -0.039056 0.256808 0.163693 -0.267342 -0.170182 0.036780 -0.139525 -0.353310 -0.310988 -0.021497 -0.048465 0.077242 -0.026555 -0.105228 0.127061 0.509530 -0.097721 -0.153903 0.052474 -0.215611 0.044768 0.523930 0.404138 0.078072 0.710160 0.481549 0.009645 0.114816 -0.047827 -0.156265 0.264193 0.275972 -0.037599 -0.366693 -0.104602 0.000917 -0.174760 -0.516385 0.216778 0.184765 -0.222133 -0.172978 0.389400
12 -0.152707 -0.409832 -0.046969 -0.025760 -0.003165 0.234201 0.012127 0.095859 0.422202 -0.175092 0.118171 0.348038 -0.341474 0.218131 0.275828 0.024522 -0.056336 0.174150 -0.012691 -0.230581 0.290586 -0.020126 0.229256 0.141903 -0.255957 -0.150337 0.045958 -0.128373 -0.327653 -0.276183 -0.020223 -0.032252 0.067224 -0.019844 -0.086470 0.115741 0.452698 -0.085486 -0.146634 0.049393 -0.206285 0.042940 0.466954 0.360994 0.077086 0.663532 0.436813 0.009852 0.101231 -0.047750 -0.156514 0.250918 0.252715 -0.044316 -0.330984 -0.105412 -0.011927 -0.178160 -0.454433 0.186748 0.179439 -0.189512 -0.166451 0.343676
