17 64
3 0.038628 -0.262342 -0.001043 -0.142078 -0.037097 -0.005306 0.137128 0.171971 0.174470 -0.073923 0.166701 0.209531 -0.050316 -0.365235 0.218957 -0.339504 -0.006482 -0.212522 0.000766 -0.171583 0.126673 0.041438 -0.079098 0.103325 -0.004298 -0.142921 0.014684 -0.015121 0.055922 -0.026169 -0.108547 0.001328 -0.335812 0.074915 -0.092178 -0.269384 0.380863 0.098939 0.060102 -0.150101 -0.141801 -0.176833 0.372254 0.461672 -0.234344 0.222769 0.135776 -0.345474 -0.051510 0.097547 -0.177303 0.138146 0.074870 0.247245 -0.426127 -0.165358 -0.063947 0.055739 -0.106988 0.006458 0.196377 -0.224688 -0.141466 0.209573
11 -0.255407 -0.216314 0.323070 -0.170854 0.115391 0.212318 0.022175 -0.129520 0.013214 0.012579 -0.214312 0.176159 -0.243259 0.243362 0.278338 -0.090133 -0.137943 -0.177227 -0.164965 -0.401594 0.278751 0.243045 0.152198 0.085664 -0.146760 0.078869 0.095862 0.154805 -0.301647 -0.137569 -0.067870 0.133601 0.083965 -0.063337 0.187756 0.083064 0.196511 -0.080833 -0.061821 -0.007556 -0.308204 0.197935 0.275379 0.193394 0.168208 0.281789 0.149057 0.234088 -0.138127 0.288681 0.047457 0.056674 0.039319 0.217800 -0.068755 -0.223191 -0.286246 0.041692 -0.209296 -0.120962 0.186361 -0.237854 0.116177 -0.302922
14 -0.370880 -0.256916 0.506219 -0.246655 0.185406 0.265468 0.016112 -0.232655 -0.075189 0.050373 -0.347182 0.179256 -0.295386 0.394058 0.332512 -0.096378 -0.191034 -0.264053 -0.222279 -0.559525 0.383664 0.342296 0.192883 0.123046 -0.204557 0.135594 0.166346 0.265260 -0.388735 -0.185172 -0.102323 0.182230 0.161507 -0.071455 0.279261 0.144722 0.158515 -0.119537 -0.050320 -0.043435 -0.389623 0.312416 0.303968 0.160661 0.264171 0.305247 0.137894 0.390740 -0.183486 0.432497 0.111414 0.042159 0.021347 0.284724 -0.033598 -0.294766 -0.393569 0.105389 -0.257172 -0.178363 0.231621 -0.298795 0.196715 -0.529779
4 0.038561 -0.283404 0.003608 -0.149348 -0.014301 -0.059157 0.124605 0.215023 0.195139 -0.085745 0.186655 0.225505 -0.008476 -0.392811 0.218555 -0.384733 -0.012471 -0.251898 0.039767 -0.167820 0.154741 0.032128 -0.104136 0.095276 0.006384 -0.151304 0.014720 -0.000221 0.092057 -0.045991 -0.133495 -0.010716 -0.356065 0.081591 -0.108122 -0.293774 0.376499 0.117415 0.093650 -0.183598 -0.125891 -0.196916 0.407097 0.473989 -0.266135 0.185358 0.104798 -0.380311 -0.032932 0.098240 -0.191487 0.148773 0.083316 0.272996 -0.458672 -0.165138 -0.033385 0.093508 -0.095025 -0.012004 0.236052 -0.262977 -0.139304 0.210411
12 -0.096660 -0.201673 0.115461 -0.117248 0.022447 0.145185 0.050962 0.015318 0.132330 -0.014855 -0.046553 0.204690 -0.165415 -0.015574 0.227708 -0.115250 -0.073503 -0.107727 -0.081738 -0.239757 0.181296 0.141126 0.078229 0.046273 -0.077107 0.007563 0.036228 0.043005 -0.174821 -0.063393 -0.053255 0.083836 -0.077000 -0.023250 0.052007 -0.050181 0.275654 -0.027603 -0.067537 -0.014947 -0.254209 0.026005 0.305561 0.311990 0.019495 0.274144 0.168076 -0.014514 -0.074693 0.140160 -0.075508 0.098518 0.071025 0.203194 -0.187425 -0.152893 -0.177124 -0.027225 -0.147775 -0.069552 0.185080 -0.197324 -0.020627 -0.034976
7 0.011839 -0.178718 -0.116089 -0.017819 -0.067816 0.266220 0.057426 0.143068 0.386162 -0.048953 -0.002899 0.312088 -0.232590 -0.117349 0.235977 -0.007075 0.002521 0.098715 -0.083967 -0.051084 0.075613 0.103752 0.161673 -0.044046 -0.016822 0.064586 -0.085918 -0.115431 -0.287551 0.001476 0.010548 0.119300 -0.092386 -0.067845 -0.016606 -0.104330 0.423470 -0.127543 -0.228668 0.131586 -0.391396 -0.081347 0.351497 0.510144 0.038827 0.385703 0.274932 -0.109878 -0.008927 -0.040912 -0.204217 0.138883 0.152039 0.210564 -0.181435 -0.035636 -0.177911 -0.243574 -0.174132 -0.065614 0.168139 -0.201749 -0.119148 0.209565
5 0.058412 -0.332782 -0.032481 -0.169480 -0.025220 -0.089737 0.164668 0.240065 0.227078 -0.106956 0.246883 0.250690 -0.003876 -0.475764 0.236625 -0.461401 0.001123 -0.290751 0.051344 -0.158503 0.142649 0.028498 -0.139596 0.124238 0.025775 -0.194402 0.013313 -0.031898 0.127555 -0.044566 -0.155565 -0.018796 -0.434295 0.111066 -0.125369 -0.365508 0.414343 0.142488 0.119472 -0.224463 -0.116014 -0.254309 0.425463 0.528033 -0.341914 0.187252 0.104361 -0.466581 -0.030048 0.093625 -0.232791 0.179789 0.088779 0.276592 -0.515244 -0.183388 -0.013655 0.117020 -0.096180 -0.003636 0.235856 -0.295856 -0.170762 0.287532
13 -0.018687 -0.210506 0.080230 -0.133760 0.002539 0.064831 0.091274 0.068020 0.130460 -0.027334 0.028532 0.179349 -0.089339 -0.170913 0.218541 -0.212713 -0.067437 -0.170542 -0.049191 -0.223422 0.181232 0.090970 -0.016284 0.074129 -0.058868 -0.061372 0.044126 0.036822 -0.053885 -0.046892 -0.087933 0.044106 -0.181146 0.010882 -0.011282 -0.141639 0.309802 0.047599 -0.001447 -0.091729 -0.174068 -0.041221 0.323714 0.348051 -0.088460 0.240574 0.140544 -0.143958 -0.062922 0.136548 -0.112584 0.116883 0.077629 0.233210 -0.288204 -0.166220 -0.127784 0.008212 -0.099563 -0.053476 0.201859 -0.192386 -0.066498 0.025720
2 0.036159 -0.290488 0.001205 -0.166079 -0.028174 -0.031201 0.139110 0.190812 0.180290 -0.080146 0.166977 0.230432 -0.021399 -0.373080 0.219101 -0.381479 -0.010575 -0.227466 0.013804 -0.167417 0.138740 0.047526 -0.075283 0.103323 -0.015506 -0.138801 0.015003 -0.011064 0.067348 -0.046871 -0.118071 0.008108 -0.351673 0.089311 -0.096985 -0.282500 0.370493 0.082271 0.092157 -0.183239 -0.143386 -0.183534 0.378479 0.465794 -0.254943 0.193143 0.095898 -0.357170 -0.035598 0.095130 -0.192454 0.136347 0.084203 0.266193 -0.445936 -0.162350 -0.048329 0.101770 -0.122163 0.005445 0.202418 -0.259571 -0.142404 0.193977
1 0.047814 -0.385748 0.016584 -0.218663 -0.012207 -0.165116 0.170458 0.290325 0.200876 -0.114430 0.267515 0.248440 0.056167 -0.549049 0.235612 -0.563997 0.013227 -0.366358 0.096481 -0.199369 0.171938 0.012984 -0.173609 0.153128 0.024524 -0.227862 0.039299 0.014078 0.204134 -0.066359 -0.190346 -0.031367 -0.498250 0.151958 -0.160585 -0.415226 0.402281 0.168922 0.208418 -0.314394 -0.095482 -0.287568 0.473252 0.553572 -0.414464 0.142012 0.055159 -0.527752 -0.014310 0.141292 -0.251701 0.186120 0.072634 0.332825 -0.612533 -0.204510 0.009883 0.222728 -0.117889 0.024816 0.264810 -0.343054 -0.187643 0.281535
8 -0.078688 -0.167294 -0.024521 -0.022245 -0.030566 0.344728 0.025533 0.053804 0.341336 -0.015402 -0.120231 0.308935 -0.302189 0.072922 0.244493 0.077981 -0.021815 0.137495 -0.127384 -0.095589 0.100927 0.170830 0.245721 -0.065182 -0.064512 0.156815 -0.062369 -0.065649 -0.405709 -0.019780 0.023265 0.162584 0.039685 -0.094436 0.065009 -0.002228 0.378986 -0.199529 -0.267414 0.195971 -0.454929 0.018608 0.307107 0.443618 0.171190 0.407495 0.273327 0.064115 -0.038608 0.001123 -0.144420 0.100161 0.151964 0.196913 -0.069894 -0.040806 -0.255684 -0.256223 -0.226182 -0.105269 0.145149 -0.210801 -0.054492 0.065726
10 -0.213408 -0.188453 0.225068 -0.120151 0.076574 0.306057 0.023137 -0.101584 0.124502 0.011319 -0.221184 0.229328 -0.296782 0.247437 0.271538 0.014928 -0.107717 -0.052229 -0.184750 -0.318661 0.234532 0.241613 0.213211 0.038840 -0.134178 0.131391 0.055335 0.084353 -0.386291 -0.106978 -0.039380 0.155790 0.110438 -0.084514 0.165223 0.083494 0.257179 -0.157245 -0.170327 0.067757 -0.400728 0.169928 0.291859 0.275680 0.226142 0.352612 0.216541 0.231340 -0.102794 0.202007 -0.000309 0.070815 0.083969 0.211179 -0.034661 -0.156102 -0.304642 -0.089445 -0.229739 -0.130242 0.181201 -0.227785 0.064255 -0.227693
9 -0.145562 -0.156697 0.034448 -0.040273 0.005888 0.392922 0.006381 -0.011303 0.320885 -0.007073 -0.186408 0.315260 -0.344489 0.184172 0.259514 0.121247 -0.061343 0.137423 -0.183848 -0.157695 0.132603 0.226491 0.298367 -0.061165 -0.103088 0.195379 -0.043693 -0.046008 -0.479479 -0.048415 0.026057 0.198614 0.109693 -0.132664 0.136626 0.057121 0.361499 -0.229615 -0.307833 0.218404 -0.502476 0.081944 0.307128 0.408433 0.244736 0.423321 0.291527 0.171196 -0.068485 0.035075 -0.101122 0.095808 0.134170 0.192994 0.005394 -0.066487 -0.307814 -0.260626 -0.248252 -0.135923 0.157468 -0.216129 -0.015608 -0.036872
0 0.049280 -0.338073 -0.019613 -0.195257 -0.044599 -0.067396 0.155600 0.229134 0.210620 -0.097894 0.235728 0.248671 -0.003495 -0.466423 0.243074 -0.458306 0.016599 -0.273977 0.034027 -0.168483 0.131370 0.027081 -0.119888 0.129755 -0.002984 -0.181477 0.020375 -0.030003 0.104060 -0.056589 -0.138501 0.005098 -0.427918 0.107055 -0.113646 -0.360973 0.419948 0.126306 0.131458 -0.228071 -0.141714 -0.254974 0.410239 0.538063 -0.328282 0.202992 0.097853 -0.453449 -0.044660 0.103549 -0.239075 0.164383 0.078979 0.273341 -0.522520 -0.181473 -0.038989 0.138352 -0.132517 0.018675 0.222660 -0.305235 -0.173965 0.278782
6 0.034158 -0.230822 -0.042014 -0.080015 -0.033825 0.066927 0.101178 0.180665 0.254714 -0.063580 0.107187 0.239120 -0.095431 -0.276500 0.214014 -0.217882 -0.009137 -0.109683 -0.000695 -0.119767 0.112629 0.048948 -0.004702 0.031418 0.005654 -0.070733 -0.016560 -0.052512 -0.050263 -0.011143 -0.071189 0.027955 -0.234197 0.022734 -0.068946 -0.207008 0.371922 0.029563 -0.043806 -0.066545 -0.216335 -0.136589 0.370569 0.450648 -0.150213 0.254412 0.172061 -0.267042 -0.007415 0.048097 -0.188996 0.146748 0.097046 0.233194 -0.321868 -0.112047 -0.083159 -0.047100 -0.109315 -0.039176 0.203158 -0.212725 -0.128225 0.201898
15 -0.420937 -0.268901 0.555612 -0.265122 0.203606 0.299022 0.017102 -0.278095 -0.088461 0.052626 -0.379672 0.182975 -0.325322 0.467727 0.360756 -0.090987 -0.219610 -0.285623 -0.257198 -0.611079 0.413441 0.373467 0.219576 0.129947 -0.227233 0.153386 0.173374 0.281666 -0.430926 -0.219480 -0.114737 0.206683 0.207293 -0.094459 0.317248 0.179087 0.152027 -0.137987 -0.051572 -0.035743 -0.422995 0.354295 0.303857 0.144405 0.313639 0.329588 0.137744 0.449451 -0.207414 0.463639 0.137536 0.041047 0.017432 0.289675 -0.011148 -0.320907 -0.433475 0.099937 -0.271270 -0.189214 0.249548 -0.309184 0.224107 -0.593016
16 -0.359875 -0.230939 0.485514 -0.232121 0.173763 0.244514 0.023406 -0.240639 -0.088824 0.046837 -0.328065 0.158683 -0.281159 0.401052 0.319193 -0.097078 -0.197871 -0.268585 -0.228775 -0.543543 0.356292 0.322208 0.185795 0.118296 -0.191989 0.120419 0.162211 0.245651 -0.363062 -0.196925 -0.106436 0.174510 0.160994 -0.083537 0.276536 0.154283 0.143417 -0.115090 -0.044257 -0.055879 -0.356327 0.313648 0.272628 0.121991 0.260088 0.275063 0.127857 0.387350 -0.188805 0.420614 0.130222 0.037750 0.013290 0.252335 -0.013459 -0.281760 -0.366331 0.106376 -0.233639 -0.170288 0.217826 -0.279592 0.189585 -0.519193
