19 64
4 -0.182638 -0.253872 0.153013 -0.092354 0.100113 -0.173719 -0.034982 0.263905 0.080799 -0.157696 0.246762 0.158351 0.016566 -0.283485 0.185526 -0.449701 -0.026647 -0.341189 0.051392 -0.228920 0.207725 0.005746 -0.039393 0.116182 0.061049 -0.188717 -0.119613 0.115011 0.207911 -0.047472 -0.053928 -0.073255 -0.225305 0.055119 -0.056219 -0.174309 0.252558 0.284938 0.233857 0.069584 0.034446 -0.156799 0.364037 0.320743 -0.289471 0.110983 0.040636 -0.297040 -0.154868 0.103871 -0.007735 0.006046 -0.047259 0.215000 -0.432799 -0.277602 -0.022774 0.217283 -0.110801 0.120579 0.193869 -0.169751 0.082208 0.214352
16 -0.016184 0.075553 0.159084 -0.149357 -0.096814 -0.345060 0.091887 -0.110288 0.178889 0.569725 -0.211511 0.207764 0.227016 0.180630 0.185031 -0.290931 -0.510212 -0.561790 -0.534939 -0.250374 0.388174 -0.043292 0.270111 -0.044761 0.254945 0.251221 0.384724 0.204967 0.272941 -0.068240 -0.367146 0.358990 0.010857 -0.203075 0.223246 -0.232748 0.298541 0.156286 -0.002198 -0.115083 -0.092033 0.319497 -0.100223 -0.004744 -0.029482 0.073489 0.038589 0.370757 -0.289786 0.480228 0.069190 -0.044942 0.219511 0.241280 0.025888 -0.068913 -0.281778 -0.028552 0.194093 -0.554396 0.465478 -0.455694 -0.120020 -0.585037
3 -0.198648 -0.191139 0.206806 -0.132208 0.059751 -0.266139 -0.040399 0.153275 -0.013341 0.003362 0.180185 0.135627 0.066720 -0.198911 0.121372 -0.413976 -0.096570 -0.383589 -0.039998 -0.257927 0.228631 0.011897 0.013769 0.130210 0.070914 -0.132174 0.008182 0.200014 0.287927 -0.006979 -0.077648 -0.014446 -0.227773 0.070325 -0.002640 -0.176229 0.206441 0.320915 0.241881 0.069543 0.096432 -0.090312 0.229409 0.211075 -0.284673 0.070640 0.037411 -0.152618 -0.236115 0.194099 0.039751 -0.046966 -0.045571 0.160706 -0.368219 -0.279986 -0.065423 0.271264 -0.079852 0.061021 0.168593 -0.175309 0.054170 0.069501
13 -0.071532 -0.023627 0.165203 -0.142993 -0.044767 -0.174751 0.054979 -0.084163 0.165541 0.361415 -0.132825 0.184615 0.113962 0.121667 0.170650 -0.189344 -0.388713 -0.384305 -0.385920 -0.272185 0.363850 0.004772 0.205781 -0.000025 0.084654 0.149555 0.251641 0.160990 0.146076 -0.054068 -0.235684 0.255546 0.029331 -0.152037 0.159079 -0.151533 0.271033 0.156200 -0.008606 -0.017084 -0.105055 0.211908 0.030464 0.077328 -0.015662 0.184554 0.087394 0.254825 -0.215749 0.330425 0.010716 0.006212 0.151271 0.198802 -0.057554 -0.149707 -0.268572 -0.050299 0.088802 -0.343449 0.381283 -0.282299 -0.070508 -0.404589
12 -0.155779 -0.125943 0.186037 -0.133401 0.014939 -0.162873 -0.014295 0.019853 0.061319 0.139355 0.034722 0.160960 0.054642 -0.015935 0.134190 -0.231915 -0.225206 -0.310804 -0.172018 -0.275924 0.288761 0.029204 0.110129 0.058884 0.012676 -0.010105 0.104439 0.164640 0.163373 -0.031335 -0.107467 0.098862 -0.077998 -0.035166 0.070665 -0.108446 0.213811 0.224123 0.093207 0.054828 -0.015305 0.052318 0.160979 0.138658 -0.123878 0.163027 0.083384 0.046615 -0.202115 0.213005 0.013014 -0.004487 0.033500 0.145839 -0.210865 -0.230643 -0.160390 0.095552 -0.021630 -0.088881 0.256424 -0.166422 0.000704 -0.138698
11 -0.096479 -0.176219 0.086045 -0.051570 0.037073 0.020892 0.034760 0.136207 0.247353 -0.010377 0.042048 0.195769 -0.036448 -0.072120 0.234325 -0.217582 -0.165195 -0.222882 -0.129916 -0.218821 0.248066 0.009671 0.102693 0.004902 0.026003 -0.019110 -0.036576 0.005904 -0.006882 -0.060306 -0.084719 0.074409 0.002113 -0.105307 0.034826 -0.103067 0.298229 0.118455 -0.006779 0.054549 -0.170377 0.027368 0.290349 0.265586 -0.079974 0.253945 0.119069 -0.061132 -0.062866 0.118105 -0.066491 0.079936 0.059532 0.225959 -0.196270 -0.190095 -0.162155 -0.070857 -0.042118 -0.089286 0.300165 -0.165118 0.015363 -0.014563
10 -0.064625 -0.236232 0.023536 -0.028782 0.028834 0.250743 0.104028 0.136393 0.453997 -0.047571 0.002489 0.281892 -0.140680 -0.019902 0.328376 -0.109042 -0.189163 -0.125427 -0.200333 -0.229483 0.295124 0.022286 0.168517 -0.031104 -0.031055 0.032605 -0.069260 -0.129669 -0.207127 -0.093015 -0.098550 0.122410 0.132068 -0.179322 0.041534 -0.101390 0.414902 0.003581 -0.161386 0.053956 -0.394922 0.050933 0.392518 0.397494 0.032994 0.460515 0.211927 -0.055170 0.051081 0.061276 -0.172009 0.179898 0.129498 0.279816 -0.161361 -0.178733 -0.265286 -0.301043 -0.074940 -0.144517 0.412475 -0.167095 -0.031637 -0.019630
6 -0.083418 -0.227200 0.043847 0.003411 0.061981 0.060042 0.041724 0.262721 0.306822 -0.119943 0.127078 0.221936 -0.065713 -0.181886 0.269315 -0.266961 -0.087208 -0.219256 -0.041812 -0.178952 0.204247 -0.015401 0.062205 -0.017614 0.077644 -0.070309 -0.139347 -0.062453 -0.019280 -0.037984 -0.056048 0.003958 -0.022335 -0.083938 -0.017174 -0.136651 0.331665 0.125112 -0.009312 0.057785 -0.213631 -0.050807 0.396995 0.356912 -0.141109 0.260272 0.124181 -0.217798 0.002550 0.062017 -0.101466 0.099783 0.029590 0.264995 -0.250262 -0.192160 -0.123007 -0.084542 -0.055868 -0.047937 0.316365 -0.160802 0.039799 0.132082
5 -0.166862 -0.315622 0.129968 -0.183183 0.080447 -0.299725 0.016572 0.249330 0.034055 -0.137586 0.305683 0.153980 0.069622 -0.371447 0.179738 -0.647358 0.022220 -0.429292 0.040414 -0.183075 0.171183 0.003711 -0.090257 0.220898 0.098713 -0.222613 -0.064806 0.133788 0.317516 -0.071678 -0.117608 -0.056661 -0.370813 0.159007 -0.058903 -0.306226 0.249150 0.302555 0.381449 -0.020930 0.120848 -0.225658 0.250549 0.333826 -0.407547 0.033539 -0.054488 -0.368718 -0.204857 0.142676 -0.024099 -0.022338 -0.024676 0.197390 -0.521768 -0.266293 0.023025 0.364581 -0.162881 0.156237 0.097345 -0.288386 0.041889 0.281923
14 -0.071993 -0.086723 0.127128 -0.094536 -0.015907 0.038067 0.071219 -0.040832 0.301792 0.246688 -0.139290 0.233788 0.001987 0.135583 0.235676 -0.077679 -0.353890 -0.262500 -0.352796 -0.277827 0.371659 0.027666 0.225907 -0.041654 0.016739 0.152995 0.155979 0.049068 -0.046182 -0.063142 -0.183807 0.237909 0.137701 -0.201085 0.146282 -0.103298 0.326052 0.074967 -0.131308 0.022292 -0.271133 0.198563 0.169045 0.184735 0.064720 0.329955 0.162264 0.211528 -0.099358 0.240961 -0.067660 0.088036 0.156290 0.234059 -0.035101 -0.160912 -0.318885 -0.208203 0.046706 -0.326997 0.437345 -0.226232 -0.054253 -0.342882
15 -0.041887 -0.165133 0.037884 -0.042217 0.012365 0.269441 0.128962 0.033808 0.487458 0.066402 -0.114270 0.271703 -0.115971 0.090884 0.341510 -0.041002 -0.307407 -0.148578 -0.313783 -0.256785 0.351152 0.041681 0.213235 -0.076312 -0.034837 0.126522 0.004039 -0.115711 -0.242482 -0.116085 -0.161335 0.219433 0.221879 -0.270110 0.109438 -0.079872 0.409784 -0.034967 -0.226570 0.038503 -0.441654 0.159620 0.319257 0.329560 0.135047 0.472649 0.205737 0.095359 0.033176 0.113808 -0.162218 0.197725 0.179698 0.305242 -0.050424 -0.157228 -0.340612 -0.405834 0.011534 -0.284106 0.488518 -0.182918 -0.052496 -0.212418
1 -0.207863 -0.382036 0.168822 -0.253682 0.067936 -0.349101 0.007865 0.267718 -0.040518 -0.163192 0.349378 0.134832 0.087869 -0.439980 0.157115 -0.739706 0.097554 -0.434842 0.089685 -0.200964 0.138061 0.003016 -0.105939 0.288466 0.061813 -0.265938 -0.050689 0.177074 0.371050 -0.085372 -0.106227 -0.065962 -0.459489 0.240454 -0.089649 -0.343435 0.225325 0.314232 0.497940 -0.056512 0.158925 -0.295694 0.240407 0.363401 -0.478941 0.008337 -0.100350 -0.431468 -0.229560 0.159583 -0.038301 -0.047011 -0.062583 0.191468 -0.634476 -0.285441 0.043806 0.503008 -0.262729 0.278421 0.019497 -0.312239 0.017859 0.357680
8 -0.012634 -0.322765 -0.067696 0.033294 0.024295 0.297522 0.131122 0.343214 0.565863 -0.183418 0.088655 0.322520 -0.170712 -0.199840 0.418904 -0.256037 -0.063055 -0.114689 -0.087979 -0.131540 0.197593 -0.028666 0.136526 -0.078723 0.065040 -0.007299 -0.226298 -0.237068 -0.244324 -0.082013 -0.062801 0.072137 0.078326 -0.163289 -0.029020 -0.171688 0.494840 -0.038126 -0.128308 0.051653 -0.472962 -0.046124 0.495047 0.547691 -0.062612 0.458667 0.172491 -0.275393 0.132874 -0.002544 -0.244164 0.190697 0.124890 0.376188 -0.255661 -0.139681 -0.214237 -0.306459 -0.128646 -0.092066 0.396207 -0.235553 -0.007846 0.209586
9 -0.016028 -0.270749 -0.057830 0.008987 0.023816 0.274042 0.126793 0.268694 0.530445 -0.136534 0.050307 0.298951 -0.146414 -0.151103 0.376776 -0.210511 -0.102525 -0.114624 -0.133818 -0.141936 0.201176 -0.004434 0.142587 -0.071277 0.042481 0.018418 -0.174225 -0.215788 -0.232406 -0.088378 -0.081556 0.105429 0.086052 -0.180413 0.007279 -0.159814 0.454093 -0.042038 -0.146267 0.035188 -0.451087 -0.022548 0.437286 0.488662 -0.029863 0.418383 0.165863 -0.202726 0.104934 0.010321 -0.221705 0.189385 0.118800 0.344431 -0.194187 -0.132056 -0.223854 -0.302597 -0.094242 -0.126548 0.390207 -0.220168 -0.025744 0.125578
7 -0.042929 -0.289767 -0.031331 -0.000588 0.043915 0.192439 0.094208 0.301761 0.434142 -0.196044 0.125597 0.260871 -0.125556 -0.224016 0.343866 -0.280982 -0.037926 -0.151445 -0.051714 -0.143269 0.179526 -0.014011 0.073763 -0.011436 0.058467 -0.067037 -0.208456 -0.163924 -0.143594 -0.079869 -0.051636 0.034549 -0.004507 -0.110591 -0.039250 -0.165170 0.397717 0.022761 -0.045393 0.039891 -0.339175 -0.081767 0.443662 0.473680 -0.108695 0.351414 0.134498 -0.279511 0.075473 0.005988 -0.184692 0.157061 0.069831 0.317469 -0.281458 -0.159394 -0.148703 -0.179881 -0.110073 -0.018276 0.320163 -0.194636 0.015115 0.218945
2 -0.215518 -0.275945 0.213163 -0.196168 0.060922 -0.261758 -0.031729 0.163161 -0.045195 -0.055943 0.229248 0.148146 0.056964 -0.257286 0.137959 -0.498035 -0.055869 -0.367026 -0.004771 -0.277446 0.231580 0.032552 -0.008807 0.194255 -0.002782 -0.186319 -0.007032 0.205012 0.293038 -0.034965 -0.058208 -0.032409 -0.299664 0.135069 -0.029559 -0.194435 0.224539 0.322706 0.324232 0.052861 0.123132 -0.138099 0.252146 0.260106 -0.336657 0.102482 0.010735 -0.223977 -0.244267 0.170052 0.010836 -0.048633 -0.043817 0.164580 -0.480306 -0.317534 -0.045346 0.349595 -0.171037 0.165309 0.113163 -0.186577 0.044771 0.144971
0 -0.189742 -0.394857 0.140950 -0.257066 0.050042 -0.236417 0.029662 0.224586 0.018551 -0.160863 0.324709 0.163380 0.039736 -0.390028 0.197730 -0.668092 0.074114 -0.374214 0.034619 -0.210201 0.158336 0.015143 -0.074308 0.278999 0.004387 -0.240826 -0.051454 0.118073 0.268429 -0.098053 -0.089342 -0.033530 -0.393971 0.201813 -0.062731 -0.321996 0.273510 0.273689 0.426062 -0.039934 0.079327 -0.264996 0.245369 0.390982 -0.415403 0.114871 -0.056195 -0.397520 -0.206153 0.133599 -0.075726 -0.017475 -0.031580 0.181209 -0.597853 -0.289820 -0.013812 0.404249 -0.277667 0.255543 0.046777 -0.294327 0.007636 0.334962
18 -0.029359 0.082345 0.175695 -0.142804 -0.099386 -0.400570 0.050389 -0.090413 0.153782 0.622015 -0.198407 0.222335 0.269952 0.175548 0.149884 -0.282612 -0.514255 -0.575546 -0.531221 -0.235106 0.410609 -0.063263 0.293619 -0.054165 0.284126 0.266499 0.393503 0.242736 0.332877 -0.009503 -0.334278 0.352258 0.013053 -0.171498 0.225277 -0.245953 0.269056 0.214082 0.016825 -0.063071 -0.057683 0.319708 -0.130939 -0.033294 -0.073264 0.059513 0.026691 0.384051 -0.302163 0.488552 0.074144 -0.092109 0.204684 0.224474 0.027159 -0.081222 -0.287656 0.011949 0.205382 -0.559434 0.466539 -0.445062 -0.092490 -0.598326
17 -0.012448 0.072258 0.148264 -0.112526 -0.110018 -0.333235 0.076227 -0.075356 0.205638 0.585584 -0.199022 0.231945 0.236533 0.179433 0.158048 -0.231854 -0.487993 -0.534953 -0.519436 -0.211224 0.381850 -0.070373 0.293933 -0.077925 0.276059 0.272217 0.356236 0.190449 0.269666 -0.007694 -0.318851 0.345436 0.048652 -0.193301 0.209285 -0.240320 0.285276 0.172898 -0.029927 -0.063845 -0.112011 0.297279 -0.108298 0.002482 -0.045952 0.080911 0.048538 0.369409 -0.256941 0.456477 0.041355 -0.064820 0.206464 0.216672 0.054628 -0.069219 -0.301858 -0.034874 0.208147 -0.562194 0.467686 -0.424697 -0.092724 -0.571583
