12 64
6 0.162560 -0.331703 0.016262 0.192423 -0.095730 0.115423 0.272922 0.207591 0.244003 0.047460 0.089147 -0.020317 -0.152746 -0.324302 0.457572 -0.235088 0.131495 -0.455103 0.230110 -0.084285 -0.035593 -0.242087 -0.302525 -0.109939 0.529786 -0.175986 -0.040522 -0.220532 -0.117020 0.164210 -0.070205 -0.054170 0.022915 -0.074156 -0.014493 -0.280354 0.054819 0.164462 -0.053249 -0.317556 -0.304420 0.037465 0.163274 0.130608 -0.281766 0.223032 0.064129 -0.381397 0.294897 0.404934 -0.269882 0.308020 -0.082120 0.191169 -0.057845 -0.092556 -0.127876 -0.227052 0.311994 -0.300116 0.311952 -0.171325 0.154237 0.276934
9 -0.135782 -0.164420 -0.175592 -0.006647 0.152442 0.093404 -0.001161 0.414230 0.402064 -0.341903 0.123445 0.392252 -0.119122 -0.128220 0.014669 -0.235775 -0.078710 0.245033 -0.152941 -0.044528 -0.009393 0.125266 0.429246 -0.021395 -0.251934 -0.003985 -0.152972 -0.272179 -0.096248 -0.083998 0.048938 -0.036637 -0.080103 -0.013261 0.016419 -0.026871 0.533938 -0.128888 -0.218807 0.108068 -0.208184 -0.169502 0.532277 0.435120 -0.182499 0.119660 0.242533 -0.184584 0.043656 -0.295626 -0.053428 0.030986 0.021594 0.159347 -0.092158 -0.086866 0.050607 0.091926 -0.513520 0.133172 0.031347 -0.145037 -0.229375 0.239623
5 0.095376 -0.314306 -0.015315 0.071301 -0.036038 0.059180 0.206624 0.204475 0.236734 -0.052296 0.140367 0.067223 -0.097183 -0.284851 0.352647 -0.300513 0.128196 -0.363353 0.141332 -0.048347 0.008328 -0.151849 -0.218744 0.005463 0.347085 -0.158249 -0.062517 -0.176683 -0.070395 0.041397 -0.083400 -0.045174 -0.064073 -0.006403 -0.032375 -0.281356 0.119974 0.101146 0.031338 -0.261804 -0.229493 -0.062258 0.175294 0.222161 -0.250156 0.160888 0.024720 -0.355014 0.194545 0.249478 -0.217128 0.214363 -0.022160 0.161753 -0.149595 -0.079163 -0.064042 -0.071453 0.127258 -0.161943 0.222140 -0.231326 0.099975 0.268909
2 -0.054340 -0.204057 -0.132019 -0.024559 0.097620 0.066613 0.054774 0.338512 0.315792 -0.270232 0.144353 0.309781 -0.077460 -0.170825 0.092534 -0.280313 -0.009997 0.068347 -0.081370 -0.028111 0.020867 0.054151 0.227622 0.030688 -0.113664 -0.055288 -0.132150 -0.215396 -0.057481 -0.081465 0.005380 -0.048588 -0.113130 0.030793 -0.030070 -0.105089 0.402953 -0.084369 -0.088442 -0.016484 -0.178522 -0.151766 0.407039 0.382563 -0.190079 0.111090 0.137848 -0.238508 0.071051 -0.165211 -0.084854 0.043018 0.042226 0.159381 -0.164700 -0.069243 0.045623 0.095778 -0.349916 0.091750 0.062627 -0.184760 -0.130648 0.225937
1 0.004998 -0.268935 -0.044547 0.001434 0.026968 0.039647 0.119182 0.257267 0.266866 -0.145564 0.142497 0.161080 -0.067164 -0.229218 0.222225 -0.296450 0.088090 -0.183202 0.051143 -0.043582 0.020106 -0.065094 -0.030772 0.036353 0.135024 -0.105662 -0.077896 -0.165687 -0.054936 -0.040397 -0.061926 -0.030345 -0.087699 0.012008 -0.032759 -0.218776 0.221777 0.019073 0.014274 -0.167792 -0.208298 -0.126930 0.265530 0.301528 -0.212646 0.120478 0.053322 -0.295275 0.130233 0.077803 -0.163560 0.138234 -0.002383 0.157108 -0.175590 -0.066336 -0.019920 0.033894 -0.098584 -0.032212 0.154650 -0.233759 -0.008021 0.246712
0 -0.063854 -0.219028 -0.076935 -0.026678 0.068290 0.048142 0.049307 0.288787 0.291612 -0.213651 0.149296 0.227594 -0.071225 -0.174132 0.139577 -0.270118 0.046504 -0.035448 -0.031327 -0.043982 0.008413 -0.002327 0.119625 0.036818 -0.023479 -0.066648 -0.093532 -0.185819 -0.068299 -0.085357 -0.024792 -0.020591 -0.082640 -0.002052 -0.002113 -0.153694 0.324513 -0.020850 -0.038426 -0.067492 -0.196429 -0.161299 0.330377 0.347822 -0.181311 0.112751 0.107395 -0.243896 0.064044 -0.052337 -0.113376 0.082795 -0.003051 0.127839 -0.152015 -0.070378 -0.001874 0.083098 -0.259991 0.044016 0.103111 -0.215075 -0.079834 0.243125
4 0.022362 -0.240119 -0.044233 0.033716 0.016890 0.050956 0.117385 0.246690 0.250658 -0.125078 0.137233 0.140225 -0.074657 -0.221359 0.230076 -0.263309 0.080843 -0.188750 0.058348 -0.038231 0.009145 -0.077693 -0.048254 0.005688 0.162372 -0.101407 -0.080256 -0.168308 -0.058291 -0.014392 -0.052546 -0.039662 -0.065894 -0.005545 -0.025803 -0.202138 0.213680 0.038263 -0.009122 -0.152184 -0.203580 -0.103997 0.251367 0.272678 -0.199096 0.124665 0.063117 -0.289970 0.126486 0.088680 -0.150831 0.134356 -0.009223 0.148061 -0.143928 -0.064070 -0.027251 -0.004636 -0.052385 -0.063439 0.166122 -0.206363 0.010036 0.237074
3 -0.061179 -0.224164 -0.078673 -0.024825 0.081101 0.040759 0.067634 0.300720 0.284609 -0.233195 0.162707 0.238655 -0.079721 -0.196884 0.135558 -0.302889 0.050558 -0.049448 -0.033665 -0.039408 0.013060 0.012669 0.113654 0.057486 -0.011046 -0.078700 -0.109041 -0.176544 -0.042755 -0.075180 -0.035547 -0.043094 -0.114292 0.028726 -0.022992 -0.168128 0.339009 -0.022283 -0.025978 -0.060620 -0.179506 -0.173863 0.345624 0.370494 -0.197154 0.104184 0.107391 -0.266544 0.056806 -0.061507 -0.098721 0.069922 0.008761 0.146151 -0.180467 -0.077663 0.011379 0.093502 -0.266543 0.058059 0.087186 -0.217165 -0.078621 0.254520
8 0.123016 -0.309473 -0.002666 0.130299 -0.069014 0.095730 0.228298 0.208338 0.237955 -0.003110 0.095400 0.031786 -0.129040 -0.286643 0.387165 -0.252192 0.120537 -0.364286 0.173995 -0.060788 -0.015840 -0.183548 -0.222296 -0.061257 0.405482 -0.147162 -0.057427 -0.188241 -0.100759 0.102590 -0.063615 -0.043244 -0.014936 -0.039769 -0.028694 -0.254392 0.102868 0.109835 -0.018597 -0.254138 -0.262121 -0.004522 0.170906 0.180030 -0.246489 0.196143 0.050265 -0.341220 0.232224 0.302173 -0.233270 0.241314 -0.038443 0.180831 -0.104398 -0.078734 -0.096967 -0.149500 0.186818 -0.211188 0.243480 -0.190026 0.113203 0.262232
7 0.185679 -0.344039 0.006715 0.193081 -0.111254 0.124870 0.290208 0.210416 0.253473 0.046459 0.086481 -0.019856 -0.157113 -0.347290 0.485384 -0.251338 0.142358 -0.477619 0.229864 -0.082403 -0.027838 -0.252457 -0.321256 -0.093676 0.561551 -0.192755 -0.059474 -0.221977 -0.123501 0.164795 -0.066081 -0.050108 0.005762 -0.075371 -0.032532 -0.292302 0.048339 0.155857 -0.043171 -0.327711 -0.311894 0.044782 0.160382 0.144072 -0.287768 0.237307 0.061692 -0.392968 0.305631 0.421056 -0.281017 0.317249 -0.070282 0.210689 -0.083073 -0.087912 -0.127190 -0.238468 0.333830 -0.292846 0.313109 -0.180289 0.172419 0.292754
10 -0.100809 -0.177595 -0.147450 -0.012450 0.128173 0.082337 0.023692 0.363064 0.358760 -0.303759 0.134409 0.339738 -0.103849 -0.133090 0.048097 -0.239999 -0.035691 0.154769 -0.116841 -0.036619 0.009361 0.083826 0.318540 0.015144 -0.177883 -0.029767 -0.132432 -0.237651 -0.079650 -0.090144 0.016052 -0.045551 -0.084296 0.008013 -0.008230 -0.066071 0.459126 -0.104986 -0.154862 0.042684 -0.192687 -0.162964 0.462044 0.404818 -0.168988 0.120270 0.197444 -0.201214 0.058125 -0.224661 -0.063953 0.041783 0.032298 0.146053 -0.123517 -0.071420 0.046327 0.083005 -0.427833 0.112677 0.050179 -0.163736 -0.180871 0.232985
11 -0.129159 -0.175246 -0.146769 -0.014012 0.141819 0.075196 0.001459 0.383597 0.369429 -0.325116 0.126826 0.354477 -0.113075 -0.123880 0.040470 -0.251190 -0.051300 0.184722 -0.130599 -0.048649 0.007895 0.100392 0.364241 0.010827 -0.211160 -0.025000 -0.145408 -0.236100 -0.087121 -0.097427 0.034463 -0.040200 -0.082539 -0.006880 0.006670 -0.041557 0.491022 -0.104663 -0.165543 0.085793 -0.181559 -0.161488 0.486902 0.413701 -0.174655 0.119396 0.216253 -0.180942 0.034077 -0.244000 -0.048778 0.031639 0.026463 0.148555 -0.118064 -0.086063 0.048454 0.104275 -0.473306 0.132992 0.030591 -0.163184 -0.184845 0.241746
