20 64
11 -0.272526 -0.171077 0.188914 -0.218482 0.098757 -0.047783 -0.065985 -0.037044 0.256139 0.046250 0.021168 0.481447 -0.078287 0.128225 -0.074424 -0.071694 -0.326518 -0.178329 -0.301209 -0.157497 0.285250 0.180646 0.407788 0.124517 -0.155905 0.184921 0.038956 0.075834 0.048442 -0.023878 -0.064148 0.159224 -0.057404 -0.051851 0.139664 -0.133333 0.268638 0.171379 -0.060676 0.282581 -0.167680 -0.139970 0.276756 0.306897 -0.019693 0.196634 0.288051 0.056025 -0.290543 0.001607 -0.013286 -0.068973 -0.068914 0.002882 0.009785 -0.231035 -0.295291 0.179530 -0.165268 -0.092507 0.182936 -0.215444 -0.037516 -0.087275
5 -0.120214 -0.409458 -0.039158 -0.001097 0.002715 -0.016238 0.246159 0.190167 0.138995 -0.191421 0.325447 0.163590 -0.232379 -0.380017 0.402258 -0.491190 0.069124 -0.308406 0.123732 -0.234172 -0.015874 0.145999 -0.192746 0.009745 0.148946 -0.302431 -0.112434 -0.115166 -0.012107 0.048522 -0.071482 -0.082502 -0.363674 0.116339 0.014333 -0.250619 0.408393 0.163129 0.044776 -0.062229 -0.099198 -0.181714 0.338737 0.417230 -0.406063 0.184653 0.084804 -0.413672 -0.087205 0.127399 -0.157400 0.232953 0.042568 0.170368 -0.392535 -0.356890 -0.015245 0.028744 -0.066104 -0.030940 0.112365 -0.183677 -0.002899 0.400169
12 -0.220390 -0.233345 0.221241 -0.265558 0.026394 -0.090948 -0.057378 -0.073142 0.173058 0.101583 0.025689 0.390238 -0.027582 0.039998 -0.002928 -0.124651 -0.280123 -0.241372 -0.184611 -0.178531 0.278576 0.140626 0.253370 0.109745 -0.152282 0.133984 0.068241 0.130251 0.055964 -0.020503 -0.048090 0.182446 -0.115142 -0.044530 0.124885 -0.162147 0.203759 0.230388 0.058717 0.209027 -0.114217 -0.136797 0.198048 0.268148 -0.072878 0.197323 0.190962 0.005963 -0.292490 0.089287 -0.091074 -0.029908 -0.065116 0.013269 -0.085718 -0.258428 -0.299812 0.222173 -0.091602 -0.093807 0.177481 -0.224411 0.001030 -0.062259
9 -0.433327 -0.131815 0.084502 -0.201860 0.218196 -0.028262 -0.034903 0.008740 0.223216 -0.165843 0.189696 0.494596 -0.195372 0.065376 -0.103900 -0.138633 -0.281222 -0.047984 -0.355892 -0.272912 0.179141 0.383251 0.437745 0.162813 -0.255075 0.041211 0.017348 -0.008817 0.069035 -0.065590 -0.108221 0.066612 -0.218689 0.044345 0.172633 -0.105187 0.441061 0.102987 -0.183234 0.279480 -0.167977 -0.252120 0.474487 0.440801 -0.086959 0.148255 0.372688 -0.027294 -0.354940 -0.162721 0.091938 -0.002897 -0.083976 0.003895 -0.073184 -0.320736 -0.157940 0.157891 -0.358473 0.047041 0.135480 -0.134955 -0.213874 0.035452
6 0.086687 -0.544531 -0.163162 0.202021 -0.103992 0.071307 0.437806 0.358522 0.292665 -0.178732 0.390267 0.165548 -0.310724 -0.570212 0.656995 -0.616153 0.174220 -0.466454 0.267354 -0.112586 -0.093098 -0.014930 -0.362563 -0.119938 0.495407 -0.375025 -0.251110 -0.280419 -0.073292 0.192176 -0.060291 -0.160971 -0.349995 0.116693 -0.077362 -0.378310 0.471225 0.175013 0.015669 -0.136948 -0.202345 -0.141139 0.331826 0.482591 -0.547246 0.282133 0.054983 -0.639497 0.103792 0.230046 -0.297686 0.320560 0.121523 0.274235 -0.429059 -0.328619 -0.015456 -0.173104 0.139490 -0.191814 0.184376 -0.244146 0.118198 0.604351
15 -0.047963 -0.246365 0.276551 -0.235817 -0.063315 -0.079600 -0.074367 -0.075936 0.384180 0.320452 -0.125416 0.547310 0.087711 0.166536 -0.056665 -0.024078 -0.391496 -0.404299 -0.255337 0.095745 0.406564 -0.093861 0.386277 0.073483 0.058917 0.413588 -0.001320 0.130625 0.070932 0.064428 -0.031184 0.292172 0.134015 -0.157863 0.083604 -0.271404 0.039172 0.282474 0.121891 0.341939 -0.205259 -0.081902 -0.018384 0.189850 0.036590 0.246706 0.149588 0.067943 -0.215063 0.154715 -0.187418 -0.186775 -0.057795 -0.014932 0.137226 -0.099936 -0.503152 0.184455 0.145692 -0.306220 0.260584 -0.353148 0.205770 -0.179372
17 0.107203 -0.335029 0.302671 -0.183494 -0.171279 -0.103007 -0.043892 -0.024432 0.602262 0.505063 -0.188542 0.723516 0.153440 0.200189 -0.050649 0.009938 -0.451215 -0.600527 -0.262236 0.322359 0.494241 -0.306595 0.455687 0.026369 0.296185 0.599896 -0.061053 0.106839 0.089453 0.181244 -0.011800 0.355741 0.272545 -0.224675 0.031458 -0.428902 -0.026482 0.374683 0.164734 0.431850 -0.287925 -0.088185 -0.154598 0.197997 0.029413 0.308527 0.156229 0.044039 -0.144856 0.250415 -0.324305 -0.275687 -0.041154 -0.048934 0.275019 -0.011089 -0.670928 0.183544 0.355852 -0.522190 0.343332 -0.508514 0.378138 -0.180500
2 -0.292593 -0.317686 0.157231 -0.257186 0.054413 -0.121847 0.025828 0.018344 0.047205 -0.077961 0.195572 0.275224 -0.093845 -0.152328 0.111255 -0.341145 -0.124749 -0.212376 -0.057318 -0.308095 0.146611 0.238196 0.087306 0.122934 -0.191349 -0.101787 0.047866 0.094261 0.080988 -0.058502 -0.067369 0.069572 -0.324963 0.086261 0.095469 -0.168208 0.324246 0.200204 0.117710 0.070414 -0.045978 -0.213160 0.314546 0.359561 -0.247617 0.144857 0.126914 -0.165341 -0.294393 0.071050 -0.076598 0.071397 -0.047574 0.073206 -0.326437 -0.365969 -0.134621 0.282014 -0.238015 0.065125 0.096752 -0.191521 -0.092906 0.124324
3 -0.375766 -0.229864 0.087549 -0.180515 0.156289 -0.052100 0.042358 0.042125 0.128874 -0.185279 0.244572 0.348588 -0.205277 -0.096982 0.042153 -0.272543 -0.146797 -0.129893 -0.182735 -0.315313 0.115149 0.336024 0.206249 0.150098 -0.178759 -0.101924 0.008988 0.009290 0.068253 -0.044196 -0.103845 0.013874 -0.312050 0.097451 0.121315 -0.148159 0.426752 0.142882 -0.066021 0.154417 -0.107779 -0.254929 0.439754 0.440267 -0.203564 0.147898 0.273360 -0.149627 -0.309757 -0.050370 0.025017 0.077539 -0.062408 0.054183 -0.235040 -0.368458 -0.106653 0.173408 -0.308109 0.078174 0.099939 -0.135834 -0.169779 0.154426
16 -0.154091 -0.186760 0.243765 -0.238046 0.015670 -0.069356 -0.085773 -0.070710 0.331926 0.217843 -0.080320 0.554103 0.022573 0.195515 -0.105803 -0.020488 -0.389663 -0.296026 -0.318922 0.000870 0.362011 0.030992 0.455893 0.106074 -0.040685 0.352563 0.030513 0.109986 0.072687 0.018482 -0.051986 0.245645 0.063794 -0.111170 0.114766 -0.202707 0.130302 0.213330 0.025474 0.325372 -0.201621 -0.100416 0.106602 0.230475 0.040800 0.211568 0.227113 0.094276 -0.259228 0.074914 -0.085305 -0.168439 -0.068677 -0.021301 0.119355 -0.129901 -0.417937 0.198856 -0.007037 -0.217831 0.225893 -0.306787 0.085314 -0.175868
1 -0.248297 -0.442776 0.019746 -0.101215 0.042604 -0.053672 0.210205 0.172340 0.077895 -0.234200 0.357470 0.179900 -0.247064 -0.394190 0.379448 -0.547079 0.050462 -0.275735 0.105617 -0.370469 0.003433 0.253840 -0.150752 0.054862 0.000696 -0.341205 -0.051914 -0.052865 0.012443 -0.009257 -0.093670 -0.063418 -0.460934 0.153427 0.048527 -0.233181 0.481715 0.173749 0.070932 -0.068540 -0.089877 -0.232680 0.443844 0.488339 -0.434626 0.190304 0.113711 -0.407352 -0.182204 0.119369 -0.133898 0.253193 0.015416 0.189770 -0.500125 -0.445801 -0.013069 0.128159 -0.213123 0.061005 0.108161 -0.190051 -0.098057 0.393872
14 -0.071951 -0.236746 0.274737 -0.242690 -0.050559 -0.076461 -0.069997 -0.090784 0.273567 0.275061 -0.118426 0.443483 0.052544 0.113043 -0.006778 -0.040114 -0.336693 -0.353000 -0.198241 -0.021262 0.365865 -0.026792 0.288630 0.074576 -0.010676 0.305131 0.051234 0.154491 0.034658 0.047351 -0.019811 0.257558 0.053454 -0.131617 0.102527 -0.215588 0.073371 0.266585 0.096569 0.254579 -0.166097 -0.056308 0.041056 0.184591 0.003465 0.233619 0.156034 0.072775 -0.221610 0.188077 -0.166484 -0.111417 -0.054439 0.012435 0.061300 -0.150942 -0.435609 0.193809 0.092789 -0.258980 0.232805 -0.305021 0.158233 -0.170920
13 -0.136333 -0.266453 0.308268 -0.320296 -0.045232 -0.120604 -0.082990 -0.116597 0.176209 0.230149 -0.082511 0.364734 0.059850 0.049073 0.028916 -0.120279 -0.323668 -0.334228 -0.154331 -0.149818 0.358101 0.041004 0.213215 0.094757 -0.142323 0.213512 0.100138 0.209330 0.048220 -0.015807 -0.031963 0.263929 -0.046859 -0.117721 0.124399 -0.189295 0.124534 0.296680 0.162304 0.203316 -0.098536 -0.079282 0.087659 0.205653 -0.043427 0.226837 0.125649 0.056036 -0.293934 0.205942 -0.165933 -0.056494 -0.058742 0.035607 -0.070874 -0.239669 -0.401395 0.262386 0.014229 -0.176050 0.212976 -0.283143 0.096080 -0.154666
0 -0.258414 -0.383513 0.084612 -0.188177 0.019859 -0.090356 0.112696 0.076163 0.019799 -0.157863 0.296626 0.169311 -0.158196 -0.294344 0.283496 -0.455825 0.001574 -0.251373 0.059269 -0.348228 0.046124 0.228210 -0.104217 0.081332 -0.105422 -0.256629 0.000292 0.020286 0.027998 -0.054272 -0.065085 0.007945 -0.403217 0.105947 0.082874 -0.196462 0.390592 0.204453 0.131315 -0.029873 -0.044531 -0.225754 0.336456 0.403840 -0.348289 0.161988 0.081981 -0.300633 -0.251672 0.116614 -0.119443 0.177594 -0.020590 0.109932 -0.436617 -0.414215 -0.064792 0.215957 -0.208603 0.074562 0.089530 -0.185298 -0.076083 0.282850
4 -0.269150 -0.278082 0.005915 -0.073812 0.105665 -0.030639 0.124171 0.132017 0.140377 -0.216426 0.301420 0.270634 -0.218522 -0.208490 0.191159 -0.359730 -0.042721 -0.185652 -0.054479 -0.263026 0.039054 0.256350 0.040135 0.070189 -0.029270 -0.190599 -0.063241 -0.066854 0.033849 -0.015023 -0.094314 -0.049810 -0.323957 0.105259 0.071065 -0.178512 0.436817 0.130845 -0.040583 0.063251 -0.108392 -0.229341 0.413047 0.436019 -0.278626 0.141833 0.190715 -0.272201 -0.206812 -0.008981 -0.029024 0.134728 -0.009533 0.101369 -0.291206 -0.345270 -0.037756 0.093344 -0.212999 0.031803 0.111087 -0.150470 -0.105758 0.268159
10 -0.368902 -0.139268 0.092918 -0.181514 0.190147 0.002819 -0.024346 0.002656 0.255302 -0.110798 0.140323 0.507412 -0.192112 0.098717 -0.088423 -0.099299 -0.288366 -0.065889 -0.359300 -0.231450 0.217171 0.320058 0.443721 0.163590 -0.209356 0.080334 0.027693 -0.008220 0.046532 -0.046190 -0.103877 0.071312 -0.157839 0.033678 0.147960 -0.110516 0.415083 0.095596 -0.187994 0.271609 -0.191577 -0.202218 0.438856 0.416964 -0.051013 0.199473 0.383931 -0.003226 -0.305045 -0.124507 0.069805 -0.017870 -0.055070 0.008226 -0.045239 -0.274705 -0.189504 0.117416 -0.317765 0.003805 0.155841 -0.156868 -0.178099 0.007323
18 0.198787 -0.325247 0.256167 -0.134297 -0.187679 -0.055659 -0.027420 0.003116 0.671634 0.553415 -0.229315 0.761013 0.153741 0.210715 -0.026063 0.017545 -0.462415 -0.606702 -0.282322 0.424882 0.509552 -0.370194 0.490000 0.007179 0.405760 0.662767 -0.094216 0.062676 0.074916 0.221544 -0.010071 0.362041 0.337250 -0.228804 0.009275 -0.450203 -0.056730 0.341072 0.144445 0.454376 -0.336412 -0.027343 -0.204161 0.173311 0.059066 0.353679 0.144704 0.029277 -0.074462 0.245621 -0.339019 -0.312717 -0.002578 -0.014901 0.328598 0.075827 -0.684870 0.086586 0.410669 -0.580696 0.362233 -0.541428 0.416174 -0.176721
7 0.204946 -0.550556 -0.268240 0.324292 -0.136879 0.147900 0.516950 0.439641 0.403005 -0.183026 0.393043 0.191282 -0.362697 -0.614854 0.739454 -0.626143 0.220852 -0.479340 0.276463 -0.000194 -0.126011 -0.087257 -0.381542 -0.159324 0.676051 -0.373092 -0.338763 -0.377816 -0.117105 0.257866 -0.054154 -0.200102 -0.312148 0.118112 -0.135062 -0.417800 0.499077 0.119442 -0.048604 -0.128319 -0.266193 -0.101657 0.317729 0.514735 -0.554994 0.334264 0.069528 -0.703874 0.211498 0.222020 -0.327368 0.329727 0.189084 0.322537 -0.402438 -0.251234 0.002336 -0.324841 0.217469 -0.254604 0.194650 -0.266054 0.164424 0.692148
19 0.158941 -0.325487 0.276653 -0.159158 -0.174360 -0.065434 -0.036106 -0.018998 0.637636 0.516696 -0.211987 0.743231 0.140951 0.206912 -0.044697 0.019860 -0.458850 -0.596261 -0.269935 0.383810 0.494872 -0.335537 0.473939 0.025185 0.350190 0.633432 -0.086121 0.077205 0.075566 0.196655 -0.011510 0.355950 0.304308 -0.230341 0.017860 -0.433149 -0.052360 0.351801 0.151513 0.447824 -0.313382 -0.059695 -0.176030 0.182120 0.057943 0.333891 0.158660 0.025991 -0.109445 0.236465 -0.325805 -0.294521 -0.030694 -0.035727 0.312258 0.042928 -0.674849 0.125250 0.386090 -0.542953 0.343396 -0.518933 0.397026 -0.165041
8 0.097805 -0.478920 -0.206020 0.243681 -0.075460 0.124759 0.432939 0.360181 0.332207 -0.185554 0.355628 0.202448 -0.347083 -0.502498 0.610433 -0.550010 0.157567 -0.384673 0.197788 -0.060552 -0.092923 0.003275 -0.274789 -0.115584 0.502867 -0.320322 -0.262997 -0.306231 -0.094403 0.204353 -0.066523 -0.173456 -0.300300 0.125936 -0.084185 -0.345340 0.493635 0.105260 -0.065493 -0.078468 -0.231083 -0.110810 0.337134 0.485898 -0.475115 0.300247 0.103928 -0.587452 0.120995 0.163886 -0.247756 0.280643 0.156716 0.274271 -0.364108 -0.266927 -0.006647 -0.251271 0.102959 -0.195106 0.163583 -0.228361 0.090410 0.579536
