17 64
14 -0.390238 -0.167441 0.455412 -0.244257 0.179283 0.272666 -0.085901 -0.398168 -0.025017 0.160446 -0.516713 0.170289 -0.350149 0.543050 0.306185 0.146588 -0.356786 -0.105251 -0.295024 -0.625712 0.403103 0.434593 0.288706 0.053811 -0.328816 0.185457 0.274134 0.241383 -0.564907 -0.146249 0.008084 0.317814 0.240005 -0.259465 0.480765 0.294759 0.130021 -0.079779 -0.296740 0.084529 -0.357387 0.457583 0.250621 -0.006232 0.323063 0.351577 0.298142 0.665446 -0.235957 0.438824 0.087445 0.164906 -0.006955 0.160045 0.246120 -0.335100 -0.439939 0.005346 -0.190516 -0.324356 0.212124 -0.217169 0.189938 -0.627431
11 -0.261814 -0.183535 0.291517 -0.176509 0.073650 0.190194 -0.105025 -0.258390 0.081324 0.153919 -0.339865 0.157804 -0.285348 0.333172 0.256682 0.151992 -0.333618 0.041556 -0.152860 -0.495113 0.351359 0.293638 0.222372 -0.026713 -0.379304 0.113665 0.252260 0.177764 -0.429574 -0.072986 0.040333 0.241075 0.152170 -0.230923 0.338896 0.233005 0.279497 0.066941 -0.265008 0.187591 -0.201143 0.315976 0.276912 0.073220 0.187147 0.452952 0.347426 0.452394 -0.211674 0.272024 -0.043257 0.199190 0.064061 0.097485 0.079968 -0.321278 -0.350367 -0.095505 -0.192410 -0.239102 0.196964 -0.115968 0.033533 -0.327441
3 -0.130509 -0.299656 0.209587 -0.129788 0.188213 -0.058588 0.067600 0.324145 0.101695 -0.209247 0.213196 0.200374 -0.066137 -0.425288 0.258276 -0.560640 0.102303 -0.453367 0.038967 -0.245724 0.170216 0.089887 -0.150634 0.165365 0.107235 -0.139914 -0.047876 0.084103 0.108992 0.005703 -0.154173 -0.115316 -0.301319 0.139733 -0.007228 -0.372955 0.415041 0.237822 0.153616 -0.136911 -0.172404 -0.258613 0.518192 0.565646 -0.315282 0.087385 0.082426 -0.442313 -0.119329 0.222613 -0.046068 0.030390 -0.066956 0.370176 -0.423298 -0.278951 -0.120246 0.268174 -0.180290 -0.058055 0.248217 -0.360415 0.068374 0.161639
8 -0.073391 -0.207064 0.154398 -0.101986 -0.060688 0.123892 -0.050629 -0.037133 0.125620 0.153410 -0.130024 0.121953 -0.186790 -0.048292 0.224573 0.041214 -0.197210 0.083803 0.029760 -0.305321 0.225491 0.130602 0.077946 -0.118278 -0.287307 0.059536 0.167139 0.134705 -0.211252 0.092470 0.048121 0.131942 -0.016856 -0.106635 0.121895 0.041656 0.411504 0.196995 -0.142518 0.231727 -0.114502 0.093669 0.290034 0.250070 -0.011087 0.481960 0.291570 0.076526 -0.170128 0.150744 -0.189024 0.158600 0.103466 0.158491 -0.178508 -0.281977 -0.295520 -0.160905 -0.148154 -0.151730 0.174332 -0.045223 -0.095431 -0.008323
2 -0.114482 -0.317274 0.221448 -0.133883 0.183137 -0.052340 0.086324 0.345259 0.084572 -0.207091 0.210790 0.212536 -0.059694 -0.455451 0.280697 -0.598189 0.097904 -0.478871 0.044863 -0.256885 0.176135 0.092407 -0.154295 0.154854 0.116761 -0.143262 -0.059136 0.088064 0.119782 0.020725 -0.149053 -0.123317 -0.320286 0.155941 -0.019189 -0.380575 0.425987 0.234400 0.168773 -0.156424 -0.184987 -0.247240 0.538830 0.578633 -0.337451 0.087470 0.064850 -0.470407 -0.112146 0.238833 -0.049191 0.017284 -0.064336 0.410637 -0.451633 -0.290474 -0.125182 0.284525 -0.177165 -0.063202 0.258995 -0.368187 0.079701 0.144697
10 -0.216815 -0.170481 0.232315 -0.155902 0.062556 0.163787 -0.086772 -0.199875 0.096991 0.123637 -0.252160 0.162457 -0.248749 0.252065 0.212904 0.129074 -0.281049 0.050007 -0.122589 -0.420696 0.306534 0.251829 0.183977 -0.021741 -0.345720 0.090512 0.232271 0.140663 -0.353867 -0.057776 0.018194 0.190121 0.101165 -0.176682 0.273163 0.168762 0.295412 0.075004 -0.239851 0.155023 -0.181172 0.228434 0.282653 0.119433 0.143537 0.418756 0.328962 0.338864 -0.181708 0.208803 -0.059874 0.183032 0.068908 0.083417 0.030139 -0.280730 -0.297434 -0.094095 -0.188748 -0.205142 0.191843 -0.108150 -0.017496 -0.241408
4 -0.152623 -0.329647 0.209005 -0.145140 0.240996 -0.098517 0.055719 0.381747 0.136969 -0.267203 0.277911 0.249475 -0.044787 -0.455124 0.268116 -0.637258 0.115787 -0.515070 0.048621 -0.245022 0.201054 0.095394 -0.176150 0.194052 0.117466 -0.163386 -0.060879 0.075624 0.139019 -0.036822 -0.191696 -0.148006 -0.336940 0.161324 -0.011257 -0.424971 0.455733 0.261194 0.181488 -0.179019 -0.177012 -0.315574 0.589936 0.630882 -0.352407 0.055598 0.073110 -0.511665 -0.119608 0.209231 -0.041409 0.030800 -0.065630 0.386827 -0.465159 -0.289811 -0.087222 0.328411 -0.205040 -0.069836 0.296833 -0.432700 0.077232 0.188645
5 -0.157204 -0.391010 0.219054 -0.160603 0.275802 -0.122494 0.093756 0.434021 0.153011 -0.316155 0.330907 0.281826 -0.047919 -0.533413 0.308114 -0.757594 0.142523 -0.608746 0.060094 -0.256929 0.215437 0.103912 -0.220171 0.238389 0.164320 -0.205078 -0.082989 0.065882 0.173480 -0.037012 -0.223337 -0.181491 -0.399315 0.205630 -0.022154 -0.502986 0.492784 0.289060 0.224442 -0.229489 -0.185491 -0.362703 0.644187 0.700877 -0.428373 0.038954 0.057230 -0.604427 -0.114288 0.235972 -0.050054 0.037393 -0.072554 0.432953 -0.526324 -0.324759 -0.076900 0.385864 -0.215540 -0.075437 0.315184 -0.495553 0.100900 0.230222
9 -0.160007 -0.167330 0.183637 -0.125646 0.035322 0.126289 -0.063490 -0.110409 0.103176 0.101822 -0.176507 0.143101 -0.200518 0.107397 0.198861 0.056891 -0.224867 0.029756 -0.070006 -0.345284 0.242766 0.200206 0.131258 -0.046226 -0.274723 0.066169 0.172778 0.113286 -0.264563 -0.000677 0.022961 0.151848 0.038777 -0.138349 0.211088 0.091402 0.305483 0.113401 -0.186098 0.156891 -0.152709 0.146613 0.273387 0.163231 0.056485 0.371194 0.277474 0.199462 -0.163899 0.170476 -0.090345 0.157294 0.052067 0.113523 -0.031203 -0.264328 -0.266329 -0.086892 -0.152491 -0.176092 0.174059 -0.089638 -0.029778 -0.139682
12 -0.178842 -0.183773 0.239028 -0.148419 0.013108 0.154068 -0.069434 -0.163307 0.063645 0.154505 -0.236894 0.135623 -0.225945 0.149681 0.229306 0.088645 -0.255951 0.031218 -0.070765 -0.404054 0.276363 0.226040 0.147628 -0.060921 -0.304013 0.086694 0.202353 0.164793 -0.303770 0.007835 0.038640 0.187109 0.055693 -0.151496 0.230341 0.135828 0.293179 0.108815 -0.187550 0.179121 -0.172082 0.207310 0.267486 0.141156 0.093061 0.423290 0.288337 0.264296 -0.189518 0.224242 -0.092506 0.161286 0.060056 0.134052 -0.040246 -0.292624 -0.316577 -0.101102 -0.151264 -0.187204 0.182621 -0.079881 -0.014846 -0.200378
6 -0.084761 -0.232256 0.170691 -0.090502 0.088868 0.009933 0.032492 0.179875 0.086300 -0.066371 0.080842 0.146911 -0.090725 -0.261547 0.223845 -0.306523 -0.007511 -0.248059 0.040191 -0.235100 0.164113 0.082863 -0.071033 0.040696 -0.008082 -0.063777 0.020390 0.081595 0.002913 0.045333 -0.071163 -0.036459 -0.167072 0.047524 0.031166 -0.196069 0.350329 0.199281 0.038745 -0.023006 -0.139358 -0.103341 0.387542 0.381564 -0.189250 0.191664 0.127836 -0.239966 -0.102622 0.182619 -0.081560 0.064829 -0.013482 0.268678 -0.285558 -0.245949 -0.157396 0.094737 -0.123897 -0.096186 0.210211 -0.208517 0.020852 0.074624
7 -0.052968 -0.201224 0.147321 -0.094866 -0.017957 0.081041 -0.010678 0.068197 0.110982 0.060618 -0.040199 0.114644 -0.134318 -0.182911 0.219062 -0.104973 -0.098326 -0.049525 0.030495 -0.264225 0.186317 0.092419 0.005427 -0.042616 -0.152983 -0.000940 0.088080 0.112559 -0.105716 0.087659 0.007437 0.064437 -0.098363 -0.043948 0.058508 -0.073782 0.383339 0.197239 -0.059473 0.128538 -0.124749 -0.004071 0.325959 0.323368 -0.093770 0.361167 0.222492 -0.076542 -0.137738 0.160240 -0.152568 0.116307 0.049171 0.223077 -0.247447 -0.254950 -0.238773 -0.066562 -0.124958 -0.101818 0.180032 -0.095252 -0.054010 0.048710
1 -0.138257 -0.382847 0.215098 -0.163402 0.227068 -0.111654 0.077557 0.427988 0.156542 -0.269911 0.302063 0.261453 -0.037696 -0.541134 0.294261 -0.704076 0.134736 -0.541211 0.080809 -0.254257 0.207434 0.084284 -0.200099 0.198199 0.122635 -0.180353 -0.061676 0.083331 0.164947 -0.016809 -0.201646 -0.152646 -0.386625 0.188814 -0.039430 -0.480043 0.501422 0.288438 0.218360 -0.194770 -0.185201 -0.353970 0.628312 0.697046 -0.411151 0.081890 0.067537 -0.583182 -0.113967 0.227087 -0.087241 0.044332 -0.058436 0.434582 -0.545401 -0.314236 -0.100246 0.346711 -0.224153 -0.059091 0.309086 -0.459145 0.056756 0.236920
13 -0.088343 -0.201141 0.173398 -0.121496 -0.056761 0.133740 -0.066729 -0.085789 0.130131 0.177271 -0.176752 0.114275 -0.198295 -0.002566 0.227399 0.084304 -0.238559 0.105048 0.006375 -0.346184 0.261953 0.152224 0.094109 -0.112694 -0.336666 0.070628 0.202414 0.154707 -0.248071 0.078821 0.051811 0.163605 0.009739 -0.141857 0.154928 0.075319 0.411628 0.201991 -0.171539 0.248360 -0.110437 0.132971 0.287525 0.225402 0.021581 0.514754 0.321202 0.148228 -0.185144 0.168185 -0.191367 0.184789 0.111552 0.149581 -0.151018 -0.301119 -0.320865 -0.181285 -0.148912 -0.170045 0.183454 -0.033905 -0.098835 -0.055963
0 -0.127499 -0.340617 0.221889 -0.149230 0.201641 -0.068623 0.085860 0.371221 0.101947 -0.238269 0.256213 0.227175 -0.051436 -0.485464 0.296241 -0.652208 0.128681 -0.525884 0.046837 -0.251733 0.175122 0.085894 -0.182666 0.181985 0.135377 -0.159913 -0.067173 0.075257 0.130709 -0.002289 -0.169598 -0.132873 -0.342841 0.166866 -0.013505 -0.430742 0.446865 0.254137 0.196908 -0.186713 -0.197154 -0.295002 0.556693 0.623608 -0.364747 0.072443 0.053118 -0.521604 -0.119967 0.245011 -0.055418 0.018192 -0.076605 0.410646 -0.475480 -0.297310 -0.121058 0.323341 -0.191483 -0.064914 0.275941 -0.417432 0.090286 0.179715
16 -0.369426 -0.176416 0.441305 -0.233583 0.140905 0.275056 -0.080550 -0.393616 -0.002482 0.183144 -0.513668 0.166921 -0.360048 0.525283 0.324797 0.158110 -0.383029 -0.075923 -0.279487 -0.633559 0.406126 0.415997 0.291780 0.020142 -0.354265 0.181995 0.283960 0.240565 -0.565015 -0.135788 0.012701 0.325660 0.236048 -0.280853 0.466066 0.306943 0.183755 -0.054321 -0.305405 0.118532 -0.339527 0.465675 0.261453 0.006413 0.317983 0.409397 0.328695 0.658063 -0.250274 0.433317 0.060034 0.184475 0.020447 0.160888 0.214306 -0.348956 -0.451730 -0.041658 -0.188984 -0.325331 0.220823 -0.196397 0.154333 -0.592972
15 -0.384667 -0.183342 0.456123 -0.244566 0.162080 0.286813 -0.076741 -0.395700 -0.006476 0.165706 -0.510517 0.165211 -0.356817 0.524747 0.325823 0.142027 -0.368597 -0.097798 -0.290047 -0.635954 0.414268 0.424836 0.284672 0.042209 -0.344215 0.182936 0.268548 0.241701 -0.565428 -0.141930 0.005618 0.324654 0.245799 -0.270196 0.470189 0.291818 0.160710 -0.061619 -0.288402 0.109905 -0.357423 0.456363 0.257640 0.013191 0.322153 0.397598 0.305412 0.651486 -0.242818 0.435478 0.066206 0.176147 0.007159 0.173326 0.214411 -0.353605 -0.461383 -0.031100 -0.189333 -0.316866 0.224429 -0.201649 0.177522 -0.608276
