26 64
23 -0.044663 0.160758 -0.366759 0.174855 -0.191929 0.126544 -0.374740 0.196407 0.714200 -0.046856 0.103548 0.028422 0.281397 -0.316671 -0.312590 -0.343573 -0.010345 0.085743 0.341656 0.589567 0.210694 -0.070338 0.097398 0.687375 0.242293 -0.024306 -0.292763 -0.612688 -0.657511 0.572545 -0.159854 0.283547 -0.339384 -0.348698 -0.398438 -0.280075 0.278554 -0.093188 -0.444584 -0.163372 -0.358652 0.404870 0.043762 0.183403 0.256243 0.402126 -0.223347 0.638388 0.039656 -0.334952 -0.014038 0.170346 0.143148 0.201085 -0.114671 -0.183699 0.191888 -0.329180 -0.293756 -0.196641 -0.044855 -0.139028 0.410574 0.080745
9 0.015328 0.031018 -0.245207 0.120106 -0.228185 0.130284 -0.139545 0.131777 0.532535 -0.016156 -0.019734 0.048944 0.131749 -0.282759 -0.033108 -0.204256 -0.065900 0.033983 0.243928 0.282977 0.208082 -0.045994 0.113344 0.354055 0.217089 0.017705 -0.174821 -0.437933 -0.498158 0.323050 -0.086171 0.186218 -0.215590 -0.306833 -0.254058 -0.162346 0.249981 -0.121813 -0.382900 -0.162026 -0.422282 0.283343 0.089582 0.212411 0.176432 0.408996 -0.018178 0.359294 0.161887 -0.198825 -0.133154 0.245747 0.138297 0.211472 -0.098881 -0.062357 0.099321 -0.416818 -0.153199 -0.128995 0.103423 -0.072370 0.258686 0.144404
6 0.056238 -0.199537 -0.065597 0.034421 -0.133106 0.132580 -0.016694 0.257404 0.397327 -0.090330 0.042318 0.136386 -0.059772 -0.290100 0.283687 -0.270416 0.040725 -0.181686 0.133278 -0.024244 0.114378 -0.135914 0.006956 0.124108 0.210914 -0.118009 -0.147305 -0.219991 -0.291002 0.034180 0.003918 0.092731 -0.146617 -0.230392 -0.123693 -0.143918 0.276388 0.022508 -0.118352 -0.155024 -0.352038 0.071984 0.339381 0.332417 -0.063118 0.346966 0.152408 -0.124115 0.103180 0.117627 -0.182171 0.221020 0.010892 0.266467 -0.241052 -0.064945 -0.034701 -0.141101 -0.075165 -0.037562 0.215679 -0.232656 0.128285 0.284133
10 0.067505 -0.060032 -0.127122 0.069932 -0.139381 0.118347 -0.169070 0.066709 0.520845 0.094525 -0.020934 0.254616 0.033352 -0.023962 0.013147 -0.089020 -0.230311 -0.086585 0.075170 0.209184 0.264041 -0.100917 0.175464 0.228416 0.144941 0.054338 -0.142668 -0.263807 -0.348543 0.208711 -0.059386 0.231407 -0.091674 -0.309953 -0.159245 -0.084249 0.188597 0.029844 -0.252721 0.038710 -0.230701 0.274369 0.168300 0.133620 0.170172 0.429399 0.091371 0.267395 -0.024882 -0.037160 -0.099925 0.115893 0.095348 0.132329 -0.036450 -0.098444 -0.055073 -0.233501 0.027266 -0.238945 0.186918 -0.178783 0.195209 0.034581
17 -0.060071 -0.195617 0.111687 -0.173462 -0.147097 -0.012063 -0.037521 -0.212188 0.325397 0.291439 -0.084505 0.376905 0.097146 0.221444 0.017983 -0.069230 -0.472221 -0.267456 -0.198992 -0.030082 0.400623 0.037310 0.317909 0.140994 -0.039054 0.243233 0.081779 -0.054633 -0.151346 0.042916 -0.150909 0.358373 -0.024274 -0.249722 0.083099 -0.092371 0.141204 0.078059 -0.088181 0.052046 -0.225241 0.187500 -0.014603 0.075500 0.176018 0.377520 0.063215 0.322274 -0.206067 0.076249 -0.159194 0.022726 0.077940 0.023185 0.032803 -0.191533 -0.286481 -0.050940 0.090034 -0.313708 0.302723 -0.227445 0.116422 -0.289273
4 -0.073207 -0.346808 0.091417 -0.177734 0.023444 0.012864 -0.115932 0.302902 0.319901 -0.146516 0.191271 0.227365 -0.000686 -0.249106 0.276040 -0.548783 0.114201 -0.376791 0.020074 -0.089253 0.110225 -0.135425 -0.003220 0.250163 0.078753 -0.164401 -0.120808 -0.084336 -0.126439 -0.117889 -0.045829 0.150847 -0.207571 -0.126648 -0.026051 -0.272374 0.273313 0.166604 0.209684 -0.174925 -0.210823 -0.095159 0.386273 0.403298 -0.199868 0.220314 0.006105 -0.272638 -0.127382 0.253089 -0.131566 0.052678 -0.120507 0.277805 -0.383460 -0.178879 -0.108653 0.337463 -0.221473 0.032733 0.180181 -0.483541 0.101631 0.227949
11 0.054270 -0.134479 -0.037933 0.024029 -0.112153 0.110135 -0.133827 0.110590 0.419803 0.055643 -0.037300 0.250350 -0.036541 -0.048717 0.160024 -0.135404 -0.210643 -0.155801 0.031227 0.044331 0.244825 -0.108304 0.128582 0.142815 0.112343 -0.004187 -0.148477 -0.147527 -0.285677 0.097660 0.002942 0.206107 -0.073992 -0.300543 -0.088409 -0.046790 0.226332 0.092446 -0.143732 0.087783 -0.179588 0.220502 0.250826 0.176312 0.080448 0.406162 0.147896 0.135159 -0.096327 0.094905 -0.098438 0.096137 0.060150 0.161295 -0.111215 -0.149890 -0.125265 -0.121678 0.034635 -0.186285 0.210195 -0.218134 0.193881 0.076284
20 -0.301265 -0.345995 0.423319 -0.577213 -0.341291 -0.202353 0.277244 -0.468194 -0.310326 0.217783 -0.300615 0.124349 0.167084 -0.159692 0.358594 -0.191805 -0.560458 -0.346259 -0.145373 -0.751176 0.709579 0.293575 0.238040 0.196151 -0.344442 0.244585 0.555846 0.117745 -0.028179 -0.309079 -0.164582 0.103174 -0.231148 -0.066996 0.292255 -0.127081 0.360035 0.022615 -0.070537 -0.447070 -0.539823 -0.013400 -0.073362 0.304699 0.062982 0.533921 0.288949 0.227652 0.015832 0.153161 -0.316162 0.282265 0.124254 -0.065259 -0.217008 -0.248464 -0.292873 -0.146586 -0.274513 0.013058 0.539435 -0.044855 0.094815 -0.144028
12 -0.077634 -0.199929 0.106876 -0.162773 -0.065171 -0.009278 -0.132851 -0.085781 0.281277 0.175477 0.027287 0.324215 0.057279 0.104764 0.046898 -0.182379 -0.312724 -0.262775 -0.113792 -0.041960 0.310655 0.010869 0.201165 0.204487 -0.045735 0.087130 0.025224 -0.045303 -0.146752 0.049034 -0.093308 0.290636 -0.108791 -0.198975 0.056919 -0.107157 0.170414 0.159723 -0.011545 0.041885 -0.129509 0.151112 0.116794 0.116684 0.062054 0.336407 0.048146 0.192649 -0.250798 0.118391 -0.087849 0.007034 -0.000723 0.065916 -0.081238 -0.233771 -0.209498 0.099399 -0.007740 -0.217743 0.221050 -0.271296 0.122073 -0.152511
14 -0.227977 -0.247092 0.306089 -0.413427 -0.231842 -0.117192 0.146108 -0.319092 -0.174279 0.152733 -0.195019 0.114528 0.107259 -0.134738 0.262180 -0.162165 -0.403274 -0.267223 -0.090996 -0.538570 0.532216 0.221332 0.151322 0.194110 -0.249484 0.141663 0.366528 0.074398 -0.079504 -0.179192 -0.109318 0.105455 -0.205336 -0.078776 0.196144 -0.104362 0.297394 0.051757 -0.069719 -0.298483 -0.389462 0.030584 0.011796 0.250918 0.044604 0.425629 0.213939 0.198389 -0.039049 0.132002 -0.206004 0.212847 0.081408 -0.012069 -0.186204 -0.236909 -0.225030 -0.084043 -0.207723 -0.020114 0.391121 -0.066288 0.106368 -0.111236
13 -0.156292 -0.297092 0.268483 -0.328960 -0.075610 -0.072646 -0.018857 -0.080048 0.002930 0.073513 0.006664 0.213396 0.038098 -0.095405 0.256014 -0.305877 -0.253978 -0.362198 -0.130522 -0.390693 0.360393 0.059349 0.067880 0.205496 -0.177280 -0.018436 0.156299 0.090718 -0.043631 -0.141167 -0.057637 0.167293 -0.191277 -0.112902 0.156914 -0.143268 0.310036 0.230916 0.109530 -0.114506 -0.156231 -0.003730 0.204812 0.270199 -0.086512 0.337108 0.146988 0.005793 -0.262527 0.264293 -0.121294 0.061602 -0.035272 0.071283 -0.269561 -0.325865 -0.261244 0.226094 -0.145173 -0.058355 0.296968 -0.268784 0.108718 -0.054129
3 -0.120811 -0.367704 0.221541 -0.272081 -0.002656 -0.030300 -0.091328 0.148296 0.149334 -0.050469 0.105079 0.261280 -0.026176 -0.159261 0.294587 -0.450112 -0.057843 -0.409830 -0.066000 -0.260985 0.224137 -0.078955 0.037495 0.233083 -0.051729 -0.116319 0.001485 0.044275 -0.056358 -0.156344 -0.021361 0.152022 -0.190327 -0.108845 0.069886 -0.209851 0.292687 0.251492 0.219310 -0.097484 -0.137905 -0.076974 0.348458 0.352904 -0.177560 0.286585 0.114763 -0.190787 -0.251089 0.330756 -0.110448 0.012788 -0.116997 0.157452 -0.351582 -0.278906 -0.226180 0.383708 -0.195578 0.004939 0.228275 -0.432401 0.114410 0.134118
19 0.123929 -0.127935 -0.100288 0.065546 -0.125495 0.134206 -0.209677 0.049385 0.675582 0.213840 -0.044377 0.444556 0.016376 0.180711 -0.019359 -0.053570 -0.367573 -0.183500 -0.047365 0.309680 0.283044 -0.169684 0.294097 0.160153 0.178805 0.156662 -0.204049 -0.219708 -0.328403 0.211033 -0.071820 0.387636 0.008025 -0.398401 -0.129663 -0.072434 0.124070 0.084897 -0.185298 0.214760 -0.173945 0.311738 0.160663 0.074862 0.221927 0.439158 0.080138 0.287960 -0.173586 0.041050 -0.126697 0.005492 0.082248 0.126892 0.047992 -0.119200 -0.204671 -0.138004 0.190131 -0.391223 0.225958 -0.310763 0.204367 -0.095854
18 0.070504 -0.148915 -0.032584 -0.020256 -0.103977 0.071489 -0.196480 -0.083119 0.609929 0.318628 -0.061084 0.500032 0.057945 0.307104 -0.047046 -0.042058 -0.493909 -0.230184 -0.169562 0.243027 0.368661 -0.095475 0.373794 0.151682 0.099499 0.238026 -0.099842 -0.148988 -0.247202 0.181260 -0.120188 0.444260 0.031570 -0.364679 -0.028270 -0.068258 0.098351 0.112080 -0.149787 0.239891 -0.139684 0.329092 0.068432 0.012989 0.238925 0.440694 0.050982 0.368664 -0.249740 0.054672 -0.119311 -0.042283 0.093177 0.085252 0.096504 -0.155762 -0.264741 -0.094424 0.209800 -0.446214 0.267951 -0.318500 0.167664 -0.260139
5 -0.188271 -0.410329 0.103286 -0.285694 0.075962 -0.066299 -0.136419 0.288978 0.311078 -0.187657 0.295192 0.200892 0.096764 -0.268058 0.180085 -0.769572 0.222105 -0.421110 0.010004 -0.026661 0.067512 -0.090296 0.016720 0.422429 0.029979 -0.175904 -0.074564 -0.142828 -0.106433 -0.119823 -0.124088 0.191228 -0.285193 -0.032196 0.004341 -0.405781 0.240371 0.147679 0.328831 -0.324251 -0.217467 -0.163505 0.273266 0.405205 -0.275125 0.124318 -0.183351 -0.251247 -0.133457 0.220030 -0.128916 0.020705 -0.179205 0.272596 -0.417248 -0.205283 -0.054574 0.538623 -0.410007 0.103777 0.063297 -0.579236 0.084259 0.194257
7 0.073354 -0.139410 -0.131055 0.067798 -0.165748 0.152495 -0.040486 0.253052 0.442729 -0.088007 0.005560 0.111455 -0.027996 -0.305430 0.242255 -0.244862 0.035212 -0.114102 0.157564 0.053700 0.128559 -0.130112 0.033094 0.161031 0.238724 -0.091230 -0.187367 -0.268357 -0.348573 0.084050 0.002363 0.115240 -0.156451 -0.259548 -0.173733 -0.135280 0.260708 -0.044922 -0.181332 -0.141684 -0.381192 0.122524 0.290764 0.322885 0.003723 0.368572 0.119219 -0.026798 0.140076 0.043644 -0.178962 0.230021 0.054658 0.281528 -0.224816 -0.031417 0.003916 -0.236633 -0.079098 -0.034958 0.191108 -0.194089 0.160555 0.283524
8 0.066374 -0.076001 -0.227977 0.144305 -0.191581 0.174482 -0.090422 0.296439 0.554212 -0.110623 0.042499 0.052810 0.033680 -0.355103 0.118224 -0.293866 0.114137 -0.034389 0.263498 0.243263 0.081516 -0.143487 0.035391 0.264795 0.300453 -0.077708 -0.244450 -0.402746 -0.457065 0.223500 -0.041833 0.132488 -0.191609 -0.271952 -0.271505 -0.189703 0.263397 -0.110885 -0.254340 -0.187908 -0.432557 0.171874 0.222698 0.314735 0.055198 0.365218 0.009595 0.086239 0.202627 -0.074521 -0.170732 0.245061 0.081218 0.302733 -0.207415 -0.007746 0.088592 -0.312041 -0.157111 -0.045539 0.099180 -0.177690 0.205117 0.304133
15 -0.193490 -0.252906 0.290512 -0.381004 -0.178732 -0.101124 0.078743 -0.427571 0.039624 0.329886 -0.169646 0.309476 0.138285 0.192973 0.116571 -0.097185 -0.604902 -0.327117 -0.269714 -0.350931 0.569831 0.209363 0.325802 0.159173 -0.230110 0.294321 0.306690 0.071831 -0.059774 -0.108242 -0.199283 0.319520 -0.077883 -0.171721 0.236005 -0.078430 0.184454 0.078803 -0.042346 -0.086183 -0.291233 0.146224 -0.095165 0.097089 0.170875 0.431811 0.102188 0.358451 -0.208375 0.108384 -0.184953 0.083774 0.089970 -0.020682 -0.019615 -0.256851 -0.338722 -0.060671 -0.005764 -0.232970 0.406590 -0.144523 0.085648 -0.385803
1 -0.197900 -0.405356 0.083371 -0.281322 0.096917 -0.054313 -0.224354 0.418883 0.362058 -0.268317 0.340578 0.171039 0.133292 -0.366055 0.146931 -0.870028 0.330514 -0.402117 0.091210 0.045081 0.029021 -0.154343 -0.022092 0.514976 0.037794 -0.233134 -0.151333 -0.176711 -0.143721 -0.098027 -0.115996 0.190355 -0.329195 -0.034208 -0.080773 -0.455920 0.264458 0.150981 0.382429 -0.351573 -0.210443 -0.183599 0.343492 0.467334 -0.295540 0.109208 -0.249612 -0.277571 -0.140491 0.214970 -0.107095 -0.006865 -0.208440 0.325278 -0.513849 -0.219220 -0.018357 0.630326 -0.514577 0.168311 0.015408 -0.640654 0.118459 0.274670
16 -0.122859 -0.251072 0.217165 -0.291648 -0.177147 -0.054513 0.069273 -0.342555 0.176017 0.336593 -0.162701 0.363588 0.090966 0.229261 0.114368 -0.084044 -0.556200 -0.320652 -0.263948 -0.234561 0.481703 0.142239 0.355425 0.109464 -0.112845 0.293150 0.227392 0.020179 -0.103452 -0.071321 -0.187058 0.354632 -0.046369 -0.212304 0.190498 -0.074569 0.155259 0.036989 -0.071322 -0.051644 -0.308146 0.175503 -0.055209 0.088726 0.170924 0.405728 0.106877 0.325242 -0.180923 0.127987 -0.190974 0.077755 0.086685 0.024918 0.023274 -0.187926 -0.324430 -0.073856 0.053572 -0.282736 0.378431 -0.210031 0.066053 -0.350539
0 -0.249349 -0.455177 0.186097 -0.390287 0.045696 -0.075958 -0.143886 0.291111 0.191876 -0.226261 0.302430 0.171117 0.113541 -0.358635 0.244675 -0.836065 0.249222 -0.446459 0.017125 -0.163064 0.099830 -0.076548 -0.014623 0.476876 -0.068329 -0.212981 -0.029383 -0.100673 -0.103047 -0.191160 -0.096923 0.174928 -0.348810 -0.008592 0.030870 -0.427549 0.318043 0.176911 0.394442 -0.391719 -0.252425 -0.220744 0.315760 0.493959 -0.311033 0.166522 -0.163171 -0.292204 -0.181573 0.270211 -0.137099 0.017625 -0.212163 0.261835 -0.531763 -0.269828 -0.093648 0.637684 -0.532359 0.198206 0.087866 -0.599319 0.100642 0.241220
2 -0.151393 -0.406093 0.192472 -0.312078 0.037810 -0.053490 -0.113309 0.238564 0.169136 -0.137843 0.198709 0.229088 0.035133 -0.245528 0.270920 -0.623761 0.089132 -0.415788 -0.023391 -0.198303 0.149422 -0.089690 0.010617 0.312429 -0.057129 -0.167505 -0.028343 -0.012900 -0.049552 -0.178989 -0.045198 0.145702 -0.252215 -0.047026 0.037971 -0.295244 0.282969 0.211726 0.318269 -0.222433 -0.157818 -0.143133 0.348125 0.400185 -0.255453 0.203064 -0.024520 -0.272848 -0.201068 0.298061 -0.116145 0.000395 -0.158070 0.220696 -0.433177 -0.250812 -0.144521 0.515131 -0.330631 0.097317 0.153842 -0.507704 0.087966 0.183089
24 -0.126983 0.180020 -0.366664 0.137096 -0.202774 0.071693 -0.357425 0.177846 0.655487 -0.093994 0.154286 -0.090928 0.378710 -0.425851 -0.364717 -0.468933 0.094021 0.110983 0.404908 0.593075 0.191116 0.002663 0.083083 0.788593 0.223331 -0.022912 -0.240565 -0.674912 -0.671399 0.595744 -0.215523 0.255119 -0.425859 -0.289359 -0.397918 -0.349230 0.285734 -0.161408 -0.436957 -0.335360 -0.440988 0.370586 -0.052762 0.209987 0.227603 0.351254 -0.344275 0.676691 0.136458 -0.428566 -0.018871 0.219904 0.121461 0.240573 -0.149098 -0.151009 0.298306 -0.331983 -0.449478 -0.099021 -0.109971 -0.097662 0.404554 0.087920
25 -0.059205 0.161945 -0.371063 0.170868 -0.219006 0.109820 -0.389537 0.116813 0.774770 0.025171 0.087829 0.061672 0.316903 -0.234485 -0.362407 -0.332532 -0.084376 0.074063 0.320745 0.641030 0.268265 -0.042758 0.182312 0.698145 0.242630 0.042710 -0.267651 -0.635602 -0.682501 0.620808 -0.189915 0.341459 -0.323412 -0.389252 -0.390137 -0.270745 0.247287 -0.095250 -0.485528 -0.148572 -0.389224 0.462712 -0.029419 0.131760 0.313386 0.447136 -0.246518 0.741675 0.045264 -0.377162 -0.037884 0.177035 0.160453 0.207206 -0.060280 -0.176277 0.190185 -0.388747 -0.263385 -0.246390 -0.035013 -0.120498 0.417891 -0.009829
21 -0.270862 -0.350595 0.423520 -0.568561 -0.328276 -0.180353 0.226980 -0.472165 -0.245480 0.263728 -0.303942 0.213841 0.119800 -0.098603 0.384281 -0.150776 -0.620616 -0.373622 -0.165253 -0.728265 0.738381 0.265557 0.263157 0.166867 -0.338932 0.240611 0.521303 0.139123 -0.032609 -0.299743 -0.126205 0.132932 -0.204230 -0.105293 0.284076 -0.102519 0.347739 0.084826 -0.065298 -0.344719 -0.489509 0.040043 -0.021354 0.279764 0.065102 0.583899 0.333694 0.230883 -0.034035 0.196291 -0.291130 0.260576 0.122840 -0.066955 -0.192138 -0.260526 -0.328086 -0.130729 -0.204922 -0.045952 0.557657 -0.086131 0.102943 -0.148835
22 -0.258114 -0.282728 0.371392 -0.521759 -0.337876 -0.177287 0.220690 -0.489135 -0.280578 0.238787 -0.329657 0.142027 0.140377 -0.132507 0.348290 -0.113724 -0.605717 -0.292306 -0.102900 -0.682120 0.729332 0.292182 0.253118 0.184797 -0.340540 0.247362 0.515795 0.088402 -0.063208 -0.245791 -0.125114 0.087804 -0.223249 -0.095534 0.251559 -0.081775 0.326968 0.025033 -0.143917 -0.377881 -0.483207 0.065949 -0.071059 0.252497 0.110263 0.580491 0.304548 0.302857 0.035015 0.117068 -0.272883 0.281088 0.138721 -0.078987 -0.151681 -0.226954 -0.248784 -0.213169 -0.216722 -0.036244 0.521510 0.001147 0.119959 -0.131847
