16 64
4 -0.093287 -0.183271 0.078942 0.036435 0.199422 -0.178514 0.093232 0.400478 0.035117 -0.304071 0.460708 0.102595 0.021758 -0.459428 0.127375 -0.539152 0.258394 -0.563593 0.130239 -0.067363 -0.044603 -0.090952 -0.277160 0.179525 0.410118 -0.283293 -0.125864 -0.086558 0.312741 -0.001019 -0.190412 -0.286032 -0.309457 0.201847 -0.098741 -0.426496 0.149980 0.254788 0.188521 -0.333751 -0.093590 -0.379922 0.407651 0.378764 -0.405349 -0.180361 -0.004908 -0.650505 0.028235 0.146468 0.052870 0.012980 -0.229324 0.163137 -0.305398 -0.121747 0.121740 0.302984 0.002356 0.021944 0.235802 -0.268117 0.079212 0.356436
13 -0.112916 -0.370715 0.267613 -0.474949 -0.028819 0.244989 -0.056766 -0.257040 0.151287 0.083408 -0.118760 0.141860 -0.097390 -0.063433 0.341048 -0.035250 -0.216633 -0.041060 -0.184490 -0.555456 0.589828 0.179018 -0.046101 0.292741 -0.573483 -0.075196 0.230217 0.228947 -0.290359 -0.187911 -0.008319 0.275626 -0.070074 -0.110628 0.114121 -0.067170 0.378802 0.205104 0.065226 0.048204 -0.192468 0.064043 0.327101 0.423691 0.083314 0.749960 0.252664 0.123700 -0.189527 0.217201 -0.301721 0.261506 0.163750 0.234119 -0.501443 -0.412408 -0.425699 -0.092310 -0.234300 0.066753 0.320946 -0.116188 -0.053275 -0.157150
2 -0.025118 -0.226863 -0.059037 -0.066729 -0.042334 0.006454 0.056311 0.241211 0.106482 -0.131088 0.237125 0.215741 -0.036742 -0.296905 0.161855 -0.293519 0.123095 -0.153740 0.041778 -0.052464 -0.054405 -0.010680 0.011220 0.050208 0.113927 -0.140941 -0.106292 -0.126180 0.029590 -0.014058 0.027663 -0.023864 -0.271677 0.091968 -0.060681 -0.199551 0.187323 0.017067 0.062296 -0.136343 -0.198688 -0.199935 0.274318 0.334392 -0.255287 0.072451 0.047268 -0.373755 0.010825 0.023745 -0.118226 0.041112 -0.072567 0.118715 -0.280592 -0.067579 0.022241 0.161540 -0.138540 0.108401 0.099326 -0.193872 -0.045765 0.308150
7 0.002040 -0.277661 -0.112593 -0.183777 -0.197312 0.170993 0.008856 0.107279 0.192486 -0.018844 0.071478 0.296997 -0.097306 -0.206004 0.243135 -0.122938 0.002572 0.097767 -0.059841 -0.130872 0.030278 0.059904 0.186634 0.012520 -0.139068 -0.066175 -0.081673 -0.118179 -0.204566 -0.050888 0.172789 0.188344 -0.245698 -0.031980 -0.014681 -0.055697 0.277212 -0.091676 -0.032601 0.027368 -0.297483 -0.071061 0.251093 0.378221 -0.129243 0.353109 0.145743 -0.166912 -0.043265 -0.020955 -0.256037 0.102948 0.042593 0.132100 -0.325570 -0.093310 -0.111518 0.025339 -0.239804 0.171011 0.073120 -0.150988 -0.116249 0.263310
11 -0.075035 -0.311797 0.063777 -0.288834 -0.095398 0.172590 -0.034531 -0.042540 0.161862 0.009301 -0.001703 0.218932 -0.104595 -0.121569 0.275965 -0.099417 -0.089410 0.021717 -0.100111 -0.309479 0.261096 0.112520 0.082939 0.131925 -0.310386 -0.075124 0.050346 0.035820 -0.230974 -0.109596 0.092683 0.204275 -0.154720 -0.066270 0.061880 -0.050012 0.311083 0.060507 0.013196 0.052743 -0.217860 -0.011365 0.275746 0.366753 -0.049050 0.488899 0.189980 -0.031019 -0.119494 0.086773 -0.244806 0.161191 0.077351 0.150471 -0.366573 -0.239521 -0.229415 0.002368 -0.240097 0.114344 0.162370 -0.141318 -0.062600 0.089501
3 -0.062806 -0.188418 -0.006482 -0.000526 0.060651 -0.077284 0.075221 0.310042 0.063061 -0.209051 0.337154 0.154294 -0.025633 -0.362403 0.129638 -0.390442 0.194189 -0.322276 0.079312 -0.044431 -0.086210 -0.045546 -0.102899 0.100907 0.267192 -0.202009 -0.123008 -0.117052 0.159988 0.008002 -0.061482 -0.145394 -0.287901 0.142583 -0.074573 -0.290999 0.158501 0.115422 0.105078 -0.205892 -0.145239 -0.282768 0.314824 0.337027 -0.322205 -0.059703 0.031599 -0.490397 0.011179 0.071902 -0.024378 0.019291 -0.158455 0.119303 -0.264339 -0.081618 0.073717 0.220956 -0.075304 0.079217 0.129859 -0.209770 0.006472 0.347758
5 -0.097975 -0.197656 0.040902 0.035190 0.181705 -0.181634 0.094173 0.395599 0.046927 -0.308798 0.463045 0.124486 0.004642 -0.453465 0.133047 -0.546780 0.260511 -0.537742 0.122413 -0.047191 -0.081626 -0.077879 -0.245341 0.176185 0.414136 -0.287953 -0.142634 -0.120141 0.285996 0.000757 -0.156943 -0.264429 -0.329412 0.194761 -0.076029 -0.416763 0.143940 0.234212 0.174012 -0.314640 -0.093331 -0.379184 0.379861 0.365301 -0.428009 -0.190290 -0.001861 -0.640503 0.020643 0.129599 0.042467 0.018010 -0.235916 0.131134 -0.276487 -0.117329 0.135449 0.321623 -0.014098 0.033547 0.190695 -0.277873 0.082079 0.397007
9 0.009288 -0.373543 -0.205058 -0.239941 -0.318066 0.256940 -0.000465 0.105838 0.282617 0.029737 0.042729 0.429687 -0.149518 -0.202393 0.312625 -0.089371 -0.036719 0.257165 -0.077313 -0.124289 -0.007436 0.108573 0.337572 -0.073277 -0.247900 -0.017218 -0.103119 -0.192005 -0.349535 -0.051928 0.283632 0.315468 -0.291451 -0.071476 0.018673 -0.009058 0.370556 -0.185708 -0.094620 0.112157 -0.415418 -0.053863 0.264070 0.456013 -0.137819 0.492327 0.186131 -0.146623 -0.061890 -0.085216 -0.384106 0.135478 0.093423 0.127872 -0.358591 -0.097186 -0.164196 -0.007188 -0.347816 0.202411 0.042475 -0.186304 -0.190080 0.345484
8 0.026516 -0.343174 -0.171816 -0.193596 -0.284198 0.221592 0.029696 0.114878 0.234244 0.025958 0.066870 0.372286 -0.126673 -0.195077 0.277234 -0.102138 0.004777 0.188632 -0.033383 -0.086194 -0.016640 0.067686 0.259193 -0.063824 -0.169520 -0.021792 -0.089670 -0.165121 -0.273514 -0.040482 0.215788 0.240153 -0.264825 -0.017730 -0.027523 -0.039118 0.315184 -0.171846 -0.049370 0.050797 -0.372607 -0.066917 0.232433 0.414564 -0.127403 0.420617 0.137690 -0.181162 -0.024813 -0.061147 -0.337349 0.106733 0.093652 0.123301 -0.352163 -0.062937 -0.128656 -0.004171 -0.293890 0.177426 0.049540 -0.180570 -0.171488 0.318878
12 -0.043344 -0.323434 -0.018502 -0.263574 -0.162269 0.179565 -0.009507 -0.000937 0.168668 0.023655 0.039031 0.276178 -0.102810 -0.146925 0.259763 -0.093806 -0.059451 0.077108 -0.068301 -0.229718 0.159135 0.104404 0.137419 0.060712 -0.264349 -0.058337 0.014199 -0.033574 -0.226357 -0.082223 0.127901 0.212135 -0.207089 -0.030176 0.028065 -0.051322 0.293390 -0.018106 -0.002179 0.036052 -0.268764 -0.041724 0.254524 0.372583 -0.081890 0.452407 0.160459 -0.097304 -0.085256 0.026802 -0.278568 0.141275 0.076718 0.127351 -0.364286 -0.177818 -0.185520 0.007377 -0.250090 0.136979 0.128147 -0.146513 -0.115501 0.164702
10 0.007573 -0.352342 -0.110559 -0.255459 -0.243582 0.256075 0.009965 0.024309 0.250655 0.039395 0.007141 0.347859 -0.137430 -0.143325 0.295933 -0.051930 -0.061608 0.190667 -0.088228 -0.184961 0.119337 0.100017 0.231924 0.010223 -0.286402 -0.028486 -0.022547 -0.106862 -0.320438 -0.080711 0.191056 0.268650 -0.213509 -0.057181 0.008630 -0.018999 0.343255 -0.122913 -0.065760 0.065396 -0.351920 -0.017665 0.258347 0.418104 -0.065404 0.527459 0.192264 -0.084278 -0.045714 -0.025951 -0.347152 0.158381 0.128774 0.136175 -0.367816 -0.128345 -0.191931 -0.052428 -0.299232 0.160499 0.100619 -0.159277 -0.162634 0.221272
1 -0.087395 -0.212572 0.022529 0.020637 0.136572 -0.164058 0.092320 0.382563 0.064283 -0.265223 0.411007 0.137559 0.011326 -0.422299 0.117229 -0.497954 0.253469 -0.459993 0.136078 -0.028032 -0.097264 -0.076018 -0.189255 0.137396 0.377841 -0.245286 -0.126057 -0.120533 0.247692 -0.000857 -0.135477 -0.215728 -0.313758 0.190026 -0.087545 -0.384641 0.115872 0.165561 0.163939 -0.310477 -0.126818 -0.355442 0.348594 0.347332 -0.401063 -0.175101 -0.019118 -0.592987 0.053079 0.112884 -0.002547 0.027794 -0.210120 0.131729 -0.270554 -0.080451 0.127322 0.305872 -0.041544 0.047766 0.168515 -0.274686 0.039451 0.381354
0 -0.067300 -0.204929 -0.009237 -0.015543 0.060757 -0.092131 0.067759 0.322141 0.070010 -0.220123 0.361155 0.160217 -0.010254 -0.376223 0.144701 -0.421644 0.209135 -0.348987 0.082991 -0.042548 -0.089804 -0.057624 -0.118320 0.110601 0.272849 -0.213813 -0.125814 -0.128906 0.160424 -0.013621 -0.062633 -0.139910 -0.298673 0.137295 -0.064268 -0.313167 0.160504 0.127477 0.127436 -0.231359 -0.150621 -0.302946 0.313572 0.348461 -0.341617 -0.071120 0.015882 -0.514474 0.007621 0.080170 -0.034984 0.022329 -0.169864 0.111199 -0.273895 -0.083497 0.078369 0.253799 -0.080372 0.079231 0.140203 -0.241341 0.017149 0.366907
6 -0.114888 -0.175976 0.123748 0.055004 0.263032 -0.213050 0.105595 0.405415 0.009941 -0.332203 0.488238 0.060622 0.026257 -0.475625 0.118844 -0.577031 0.269236 -0.652191 0.140461 -0.093117 -0.029784 -0.100231 -0.342660 0.216579 0.457598 -0.317703 -0.108720 -0.076668 0.362785 0.009032 -0.235920 -0.339259 -0.295825 0.217716 -0.083996 -0.463812 0.126203 0.319896 0.202092 -0.379611 -0.059933 -0.394684 0.423923 0.354951 -0.436453 -0.225620 -0.007514 -0.680440 0.037459 0.189488 0.091633 0.022514 -0.272729 0.161295 -0.280971 -0.152440 0.131100 0.325888 0.041196 -0.009574 0.261938 -0.264464 0.113735 0.338980
14 -0.148416 -0.369260 0.308082 -0.490226 0.005191 0.243968 -0.083697 -0.276766 0.133040 0.076734 -0.131625 0.132427 -0.106200 -0.045858 0.344586 -0.033767 -0.227488 -0.058305 -0.195888 -0.593286 0.624244 0.202575 -0.052629 0.315662 -0.595433 -0.076954 0.238332 0.260253 -0.300131 -0.189403 -0.003757 0.276227 -0.054630 -0.119177 0.145794 -0.057264 0.376578 0.239597 0.066342 0.075133 -0.180952 0.074123 0.339568 0.418919 0.091953 0.758620 0.264869 0.153287 -0.218277 0.237209 -0.281024 0.258590 0.146127 0.236308 -0.491691 -0.447996 -0.447944 -0.076435 -0.241009 0.060807 0.328130 -0.113347 -0.019449 -0.186937
15 -0.166926 -0.371193 0.360803 -0.514911 0.041204 0.241833 -0.078707 -0.311959 0.120268 0.071652 -0.133365 0.098005 -0.092145 -0.036471 0.347010 -0.042816 -0.250616 -0.106065 -0.209043 -0.640377 0.688473 0.206492 -0.098671 0.354748 -0.622675 -0.088491 0.261704 0.298773 -0.275778 -0.212090 -0.049092 0.267329 -0.026992 -0.121397 0.147834 -0.070153 0.368664 0.281718 0.099000 0.060211 -0.159093 0.079230 0.346787 0.413940 0.113762 0.778450 0.254196 0.164350 -0.226651 0.261811 -0.268826 0.271137 0.148602 0.254090 -0.515835 -0.485355 -0.473436 -0.091572 -0.218054 0.054727 0.369706 -0.097304 -0.006167 -0.242273
