13 64
10 -0.219468 -0.311375 -0.084912 -0.042661 0.187699 0.083433 0.000183 0.027496 0.197445 -0.323541 0.376910 0.443282 -0.280912 0.289136 0.027857 0.017550 -0.114405 0.133931 -0.046480 -0.208622 0.337046 0.108480 0.181096 0.305025 -0.321588 -0.292810 0.077370 -0.123755 -0.039107 -0.310768 -0.095519 -0.287882 -0.107803 0.244999 -0.152531 0.140217 0.347478 -0.035679 -0.119010 -0.050715 0.029416 -0.057428 0.542335 0.251788 0.018763 0.452081 0.429317 -0.112446 0.069824 -0.264421 0.073428 0.134114 0.223572 -0.224002 -0.350819 -0.124867 0.261702 0.003067 -0.460514 0.299478 0.149045 -0.072494 -0.220665 0.294401
2 -0.131100 -0.274215 -0.092285 -0.020399 0.191526 -0.027239 0.064015 0.040076 0.195081 -0.260695 0.303955 0.317890 -0.181904 0.095527 0.071607 -0.136518 -0.093693 -0.064595 -0.001830 -0.115341 0.240094 0.105596 0.013945 0.235134 -0.099719 -0.251387 0.016577 -0.123777 0.014421 -0.181761 -0.115593 -0.212358 -0.144017 0.175094 -0.061267 -0.020359 0.216090 0.050475 -0.057471 -0.076152 0.064429 -0.077615 0.358758 0.174836 -0.114310 0.220691 0.240226 -0.164278 0.063647 -0.148458 0.017400 0.155601 0.142915 -0.126467 -0.205592 -0.139694 0.208772 0.029552 -0.196876 0.093628 0.118298 -0.117637 -0.075679 0.244005
5 -0.033042 -0.285890 -0.124583 0.045536 0.324096 -0.248952 0.206083 0.020618 0.270897 -0.240463 0.296011 0.172286 -0.086480 -0.122232 0.141601 -0.406087 -0.082232 -0.461572 0.093939 0.043943 0.176365 0.128620 -0.344778 0.214586 0.271109 -0.251647 -0.027769 -0.164667 0.113913 -0.037909 -0.268423 -0.200115 -0.182137 0.129925 0.099433 -0.327285 0.033565 0.248893 0.017082 -0.172377 0.191101 -0.146474 0.110818 0.049440 -0.337053 -0.129509 -0.007998 -0.279258 0.096269 0.005591 -0.050123 0.266663 0.077276 -0.075268 0.056783 -0.196937 0.202182 0.045196 0.235515 -0.315076 0.120073 -0.250712 0.164499 0.210823
3 -0.045302 -0.209322 -0.141628 0.001326 0.131037 -0.037340 0.158103 0.086588 0.273940 -0.216226 0.230166 0.203090 -0.153374 -0.204298 0.131719 -0.271153 0.013335 -0.220961 -0.028923 -0.010654 0.058338 0.111371 -0.099152 0.191988 0.190900 -0.189432 -0.109288 -0.157290 0.020480 -0.017418 -0.126194 -0.070086 -0.237073 0.075894 -0.000504 -0.253285 0.159269 0.072909 -0.051157 -0.037221 -0.045451 -0.190454 0.213081 0.276039 -0.221866 0.055567 0.130399 -0.265858 0.019349 -0.040700 -0.074466 0.191172 0.028845 0.037144 -0.111459 -0.124859 0.071872 -0.035321 0.029862 -0.038451 0.066061 -0.163504 0.004920 0.312865
7 0.029669 -0.149078 -0.244650 -0.031597 -0.059403 0.127749 0.203213 0.186774 0.398465 -0.199938 0.147615 0.211054 -0.188809 -0.492147 0.203338 -0.289022 0.138882 -0.146575 -0.157040 0.023837 -0.119346 0.112606 0.019674 0.170871 0.328621 -0.131881 -0.291306 -0.215950 -0.073295 0.079939 -0.014785 0.137115 -0.380027 -0.039966 -0.050466 -0.366619 0.236911 -0.074719 -0.113147 0.075885 -0.319538 -0.298729 0.231196 0.556916 -0.230053 0.115739 0.174060 -0.347717 -0.037783 -0.033049 -0.191097 0.195045 -0.047835 0.251431 -0.209287 -0.059455 -0.091623 -0.152839 0.029744 0.091646 0.010344 -0.158929 -0.058792 0.473049
0 -0.105059 -0.285719 -0.088264 -0.002850 0.253462 -0.123295 0.098874 0.022443 0.208179 -0.251342 0.314673 0.258699 -0.130615 0.052263 0.094977 -0.229951 -0.094349 -0.219414 0.045634 -0.063451 0.233315 0.098937 -0.133153 0.227600 0.009930 -0.254966 0.028086 -0.137990 0.051869 -0.155606 -0.180045 -0.220971 -0.130236 0.159200 0.011917 -0.122705 0.140868 0.142612 -0.015385 -0.140198 0.128554 -0.095589 0.260170 0.098295 -0.189639 0.089069 0.137531 -0.198808 0.081425 -0.085951 -0.001939 0.194522 0.118143 -0.140330 -0.097655 -0.163152 0.216707 0.059472 -0.046445 -0.069417 0.136497 -0.177425 0.019754 0.211941
4 -0.029179 -0.219152 -0.129170 0.033200 0.226488 -0.155944 0.169708 0.073015 0.268612 -0.217939 0.260831 0.170879 -0.093486 -0.188769 0.131659 -0.343190 -0.025492 -0.358213 0.042216 0.036152 0.098657 0.110455 -0.239030 0.171772 0.256180 -0.198654 -0.079567 -0.154230 0.081773 -0.013003 -0.200916 -0.128619 -0.204803 0.086628 0.055559 -0.307649 0.091884 0.174549 -0.010903 -0.100116 0.065617 -0.183359 0.152191 0.166701 -0.279984 -0.073900 0.035430 -0.288558 0.047651 -0.013139 -0.061450 0.213597 0.037664 -0.000340 -0.011990 -0.150548 0.126480 0.005067 0.163769 -0.206574 0.108311 -0.212250 0.095711 0.249504
1 -0.069099 -0.293521 -0.088305 0.027217 0.323753 -0.234092 0.157989 0.020551 0.235004 -0.241205 0.300965 0.193826 -0.080248 -0.032118 0.107397 -0.342047 -0.096162 -0.388226 0.102831 -0.001750 0.220955 0.109512 -0.283440 0.218769 0.164652 -0.254096 0.020587 -0.137777 0.111331 -0.095255 -0.257057 -0.227130 -0.142021 0.153253 0.066174 -0.245146 0.044233 0.221716 0.022794 -0.193986 0.193795 -0.117429 0.166794 0.030718 -0.284551 -0.074127 0.025028 -0.239275 0.114371 -0.018392 -0.026052 0.244579 0.094256 -0.108829 0.008026 -0.183820 0.227970 0.074936 0.135676 -0.240622 0.142788 -0.229553 0.114468 0.178974
12 -0.229765 -0.306453 -0.078129 -0.054203 0.149470 0.089136 -0.025504 0.035534 0.179563 -0.301482 0.364292 0.445896 -0.277470 0.267751 0.040282 0.024761 -0.120993 0.154145 -0.044750 -0.229370 0.317751 0.111906 0.214538 0.272453 -0.330936 -0.285196 0.060326 -0.110322 -0.047820 -0.297331 -0.052839 -0.252285 -0.127145 0.219085 -0.146196 0.164688 0.350403 -0.033937 -0.116733 -0.011902 0.010118 -0.049946 0.548810 0.258990 0.013406 0.466361 0.433054 -0.108097 0.036716 -0.257493 0.064567 0.123470 0.200542 -0.206633 -0.370878 -0.135229 0.239764 0.010109 -0.466914 0.326050 0.146165 -0.056919 -0.223434 0.306357
11 -0.215125 -0.302148 -0.072902 -0.040920 0.168792 0.059804 -0.013059 0.040595 0.183160 -0.302096 0.347043 0.412670 -0.261436 0.247668 0.053038 -0.015327 -0.117219 0.104450 -0.035376 -0.211866 0.310803 0.102779 0.172688 0.271524 -0.287198 -0.284388 0.051890 -0.110374 -0.040233 -0.283251 -0.064283 -0.252590 -0.114353 0.202682 -0.123142 0.137789 0.327174 -0.008548 -0.101451 -0.022556 0.037019 -0.042949 0.510692 0.229479 -0.011844 0.416987 0.397791 -0.105675 0.042476 -0.226801 0.066037 0.128900 0.190426 -0.196022 -0.329606 -0.140585 0.238442 0.023320 -0.420048 0.277978 0.135869 -0.074194 -0.177753 0.291262
6 -0.050957 -0.250640 -0.100541 0.040408 0.271025 -0.181103 0.157514 0.035552 0.228955 -0.221891 0.280332 0.179691 -0.097051 -0.078444 0.116356 -0.314046 -0.073115 -0.351901 0.072653 0.004202 0.162915 0.103327 -0.248360 0.184566 0.186073 -0.229016 -0.014341 -0.148342 0.090525 -0.052673 -0.216455 -0.193056 -0.151516 0.122218 0.062787 -0.242670 0.073262 0.202031 -0.008064 -0.144646 0.138505 -0.125574 0.163323 0.072249 -0.268845 -0.051748 0.047975 -0.248563 0.082764 -0.017681 -0.029241 0.220695 0.066422 -0.076073 0.007711 -0.170910 0.179971 0.032924 0.136993 -0.218097 0.125886 -0.197206 0.100443 0.201214
9 0.041092 -0.128036 -0.257681 -0.031165 -0.080808 0.134930 0.213176 0.206205 0.414652 -0.183078 0.131698 0.198372 -0.179585 -0.556332 0.204013 -0.307858 0.158412 -0.148450 -0.165667 0.053293 -0.176284 0.122759 0.023417 0.132415 0.364170 -0.093106 -0.316408 -0.227666 -0.076117 0.122559 -0.008880 0.177839 -0.396860 -0.061770 -0.030377 -0.411634 0.247789 -0.078064 -0.120641 0.102697 -0.360873 -0.334509 0.205697 0.593153 -0.247521 0.081470 0.148892 -0.373418 -0.060328 -0.030198 -0.216281 0.186892 -0.075576 0.288555 -0.184988 -0.054148 -0.134368 -0.165763 0.053274 0.062382 -0.002417 -0.165873 -0.064468 0.484018
8 0.060549 -0.142959 -0.259442 -0.015572 -0.059434 0.101197 0.248704 0.206755 0.431047 -0.182518 0.135243 0.175735 -0.175238 -0.597947 0.228334 -0.366723 0.170649 -0.228130 -0.142152 0.082931 -0.182834 0.123805 -0.048451 0.136239 0.441157 -0.097096 -0.327882 -0.229447 -0.059309 0.148678 -0.043554 0.171414 -0.408081 -0.057915 -0.014292 -0.473346 0.226380 -0.044537 -0.098505 0.087070 -0.340184 -0.349046 0.166163 0.586559 -0.286032 0.033781 0.108192 -0.403082 -0.054245 0.004267 -0.229090 0.205334 -0.074833 0.304252 -0.158251 -0.064904 -0.137647 -0.168159 0.124869 -0.006679 -0.003990 -0.199304 -0.018261 0.491242
