16 64
13 -0.077038 -0.266761 0.103098 -0.371409 0.021675 0.304547 0.036009 -0.259341 0.377597 0.096076 -0.212115 0.189244 -0.201165 -0.114414 0.211133 0.109939 -0.280767 0.140307 -0.258580 -0.430220 0.469845 0.315390 0.062571 0.191222 -0.531977 0.061243 0.241278 0.103261 -0.351023 -0.019512 -0.071881 0.328517 -0.060600 -0.149549 0.177149 -0.145366 0.469594 0.122283 -0.234225 0.181026 -0.285802 -0.010612 0.346576 0.504102 0.093794 0.701246 0.384328 0.164937 -0.139907 0.072921 -0.368505 0.372149 0.184398 0.258692 -0.250107 -0.368897 -0.473953 -0.344549 -0.178752 -0.116437 0.272326 -0.047480 -0.227595 -0.134239
10 -0.064308 -0.234326 -0.008956 -0.243392 -0.034628 0.258120 0.015817 -0.128577 0.385758 0.050243 -0.137936 0.218848 -0.182437 -0.077274 0.188046 0.110927 -0.196685 0.170872 -0.178982 -0.289669 0.299801 0.213478 0.140211 0.091062 -0.355792 0.040581 0.120275 -0.007781 -0.327874 -0.041425 -0.004735 0.283934 -0.052051 -0.155788 0.114199 -0.076104 0.357599 0.010406 -0.232832 0.151950 -0.302762 -0.013930 0.305906 0.411793 0.063160 0.556466 0.325991 0.104272 -0.054215 0.005183 -0.323531 0.319766 0.137519 0.180372 -0.184240 -0.225644 -0.320128 -0.295405 -0.165152 -0.045660 0.216131 -0.059660 -0.204959 0.013161
7 -0.059023 -0.222134 -0.123385 -0.106004 -0.133903 0.126110 -0.039277 0.124331 0.333219 -0.023747 0.008429 0.240518 -0.095429 -0.173484 0.235696 -0.052997 -0.069158 0.080055 -0.050116 -0.150638 0.025061 0.051774 0.205735 -0.068257 -0.061096 -0.042138 -0.102007 -0.158595 -0.246428 -0.048908 0.151792 0.250563 -0.124558 -0.206791 0.081151 -0.029187 0.208737 -0.037850 -0.143050 0.091479 -0.315305 -0.041942 0.265004 0.294108 -0.119520 0.291305 0.180877 -0.080404 -0.008092 -0.005121 -0.268420 0.222050 -0.035139 0.129523 -0.138671 -0.107094 -0.129446 -0.087369 -0.112697 0.057330 0.154068 -0.114169 -0.087642 0.254530
6 -0.012742 -0.202494 -0.078607 -0.088398 -0.129623 0.064263 0.016761 0.298016 0.108289 -0.134556 0.229796 0.205126 0.019800 -0.374681 0.241100 -0.313759 0.064337 -0.136702 -0.026740 -0.133967 -0.097549 -0.064176 0.100083 -0.030486 0.074594 -0.170824 -0.194739 -0.207290 -0.004963 -0.031154 0.154945 0.068960 -0.252796 -0.061166 -0.016446 -0.131790 0.206633 0.032175 0.047722 -0.119938 -0.276413 -0.146758 0.312602 0.315082 -0.295992 0.114380 0.039980 -0.398193 -0.011418 0.028582 -0.144088 0.040770 -0.176292 0.173845 -0.283847 -0.109898 -0.028095 0.158283 -0.120443 0.179976 0.157339 -0.118184 -0.026624 0.308726
0 -0.005196 -0.225153 -0.093981 -0.101712 -0.170649 0.035438 0.016472 0.430123 0.040238 -0.202733 0.361644 0.225601 0.087530 -0.501843 0.277859 -0.472771 0.159142 -0.227897 -0.016935 -0.116970 -0.206162 -0.141899 0.096340 -0.032117 0.147795 -0.239162 -0.276414 -0.280820 0.073034 -0.055785 0.204788 0.033025 -0.340419 -0.030832 -0.044939 -0.189556 0.216632 0.039913 0.148800 -0.230830 -0.317538 -0.227818 0.344725 0.362016 -0.415628 0.026951 -0.037307 -0.583365 -0.017359 0.038231 -0.124898 -0.038860 -0.279031 0.188210 -0.367134 -0.095866 0.021685 0.324454 -0.166781 0.277708 0.158009 -0.168616 -0.001498 0.409850
9 -0.099644 -0.245831 -0.110566 -0.151464 -0.109603 0.164262 -0.062862 0.024185 0.439241 0.033653 -0.109241 0.256045 -0.154717 -0.091215 0.228321 0.054717 -0.150585 0.185754 -0.083300 -0.192568 0.108103 0.139839 0.252723 -0.072676 -0.192239 0.038437 -0.015760 -0.119283 -0.366418 -0.046259 0.130598 0.345731 -0.059947 -0.267874 0.163067 -0.009320 0.264202 -0.036415 -0.238350 0.197212 -0.337221 -0.009366 0.260699 0.318006 -0.043538 0.400063 0.260684 0.074912 -0.034389 -0.010254 -0.340802 0.312663 0.029646 0.124262 -0.070386 -0.150997 -0.225802 -0.192705 -0.146859 -0.028661 0.159700 -0.120103 -0.137489 0.191020
3 0.030191 -0.179395 -0.051836 -0.110086 -0.122471 0.033961 0.079167 0.428414 -0.068464 -0.249740 0.422974 0.201220 0.100401 -0.581066 0.237768 -0.549008 0.168982 -0.302552 -0.057002 -0.130943 -0.170080 -0.117007 0.017529 0.054773 0.150394 -0.283243 -0.286618 -0.225490 0.209290 -0.018466 0.143518 -0.076534 -0.418002 0.084452 -0.122679 -0.244425 0.263709 0.081723 0.210201 -0.257880 -0.241521 -0.268267 0.382355 0.415115 -0.431616 0.003343 -0.049411 -0.675782 -0.058809 0.023655 -0.036416 -0.120714 -0.260852 0.245865 -0.471709 -0.130519 0.039886 0.347726 -0.155678 0.321572 0.145180 -0.117819 -0.003972 0.362160
4 0.014583 -0.189641 -0.084050 -0.094721 -0.129893 0.035180 0.040141 0.404643 0.017115 -0.218548 0.371132 0.225128 0.079655 -0.511767 0.253017 -0.472988 0.127426 -0.246044 -0.038530 -0.118927 -0.149765 -0.102754 0.055076 0.003609 0.137729 -0.246102 -0.279766 -0.236330 0.125438 -0.035006 0.162014 -0.016991 -0.366070 0.012450 -0.080240 -0.199179 0.246937 0.063491 0.148612 -0.197566 -0.261969 -0.229778 0.368938 0.385568 -0.391746 0.034103 -0.021982 -0.590791 -0.044449 0.009332 -0.080834 -0.061071 -0.231787 0.217575 -0.402586 -0.116824 0.030585 0.283374 -0.133488 0.265780 0.164409 -0.133532 -0.000399 0.367520
8 -0.083194 -0.240968 -0.110204 -0.102811 -0.136239 0.130788 -0.055348 0.098554 0.371220 0.013257 -0.049935 0.236999 -0.127221 -0.115862 0.235101 -0.008601 -0.080516 0.132024 -0.029434 -0.145405 0.031469 0.068136 0.234054 -0.099551 -0.093988 0.008903 -0.065139 -0.136548 -0.305200 -0.044143 0.147400 0.286845 -0.075463 -0.229138 0.112864 -0.007767 0.220846 -0.048571 -0.169238 0.143218 -0.322085 -0.020775 0.238500 0.283772 -0.084396 0.322277 0.198359 -0.005331 -0.012860 0.006542 -0.297524 0.246690 -0.006112 0.113673 -0.096646 -0.105422 -0.164815 -0.118062 -0.140996 0.015773 0.134661 -0.134356 -0.100034 0.244826
5 0.003231 -0.214652 -0.109213 -0.082696 -0.148982 0.019557 0.028291 0.404239 0.054399 -0.201504 0.346836 0.231548 0.069999 -0.481683 0.268267 -0.461517 0.122944 -0.223103 -0.014261 -0.100522 -0.178548 -0.109790 0.083781 -0.031433 0.153692 -0.234589 -0.281993 -0.262947 0.079556 -0.040881 0.187672 0.021056 -0.344509 -0.024641 -0.047895 -0.177656 0.216215 0.045748 0.131415 -0.183915 -0.270309 -0.208788 0.333151 0.344291 -0.403434 0.023282 -0.028577 -0.553798 -0.026883 0.016071 -0.111826 -0.029637 -0.237344 0.185979 -0.349484 -0.103616 0.037504 0.285222 -0.130579 0.245693 0.143602 -0.154643 0.009123 0.397408
2 0.020496 -0.211415 -0.111822 -0.087435 -0.176626 0.013256 0.034547 0.498001 -0.002072 -0.241253 0.408250 0.240369 0.118390 -0.569674 0.270178 -0.546994 0.179822 -0.257786 -0.013423 -0.093873 -0.241672 -0.156857 0.099621 -0.033331 0.190132 -0.269341 -0.334187 -0.292933 0.143921 -0.042449 0.220085 -0.010774 -0.401666 0.009488 -0.095159 -0.200965 0.220918 0.026959 0.189446 -0.254604 -0.299531 -0.249571 0.371253 0.378936 -0.466756 -0.031990 -0.073656 -0.663810 -0.015994 0.014320 -0.089783 -0.093933 -0.294785 0.225102 -0.419504 -0.083246 0.071081 0.381458 -0.169464 0.328340 0.139545 -0.161771 0.006297 0.435551
11 -0.089251 -0.236586 -0.054969 -0.167000 -0.073703 0.171182 -0.043178 -0.010859 0.386648 0.029899 -0.108725 0.223701 -0.157070 -0.092554 0.225234 0.040932 -0.158102 0.141994 -0.099583 -0.229937 0.171849 0.148303 0.191151 -0.015049 -0.221517 0.020955 0.018560 -0.065321 -0.328786 -0.040527 0.089882 0.297586 -0.057903 -0.225872 0.144926 -0.025606 0.288801 0.008774 -0.209226 0.180694 -0.289932 -0.000014 0.272807 0.327148 -0.025457 0.428151 0.269467 0.074518 -0.053809 0.018556 -0.304670 0.292862 0.053368 0.144351 -0.113313 -0.186009 -0.242860 -0.194520 -0.141160 -0.034081 0.171490 -0.102119 -0.121814 0.131707
12 -0.067921 -0.226385 -0.101819 -0.124796 -0.122415 0.130341 -0.034561 0.093322 0.317083 -0.012476 0.007293 0.239106 -0.103379 -0.162699 0.223424 -0.042245 -0.084591 0.086119 -0.056005 -0.169325 0.050476 0.074001 0.195305 -0.054928 -0.101830 -0.035062 -0.068985 -0.134990 -0.238609 -0.044064 0.131689 0.244152 -0.126489 -0.185407 0.085182 -0.034249 0.228600 -0.020207 -0.141446 0.097834 -0.301833 -0.045856 0.269101 0.302770 -0.107502 0.315468 0.192140 -0.071727 -0.026160 -0.005521 -0.267297 0.221979 -0.020490 0.125697 -0.152178 -0.128786 -0.147149 -0.094845 -0.125408 0.048971 0.157696 -0.104988 -0.106720 0.228932
14 -0.082794 -0.267241 0.138366 -0.391288 0.059089 0.337574 0.050459 -0.313170 0.371618 0.103266 -0.240090 0.185659 -0.228133 -0.084917 0.195304 0.146708 -0.298361 0.149368 -0.281906 -0.458851 0.535328 0.355447 0.042036 0.237076 -0.579209 0.074632 0.282975 0.144512 -0.361108 -0.010072 -0.108055 0.313397 -0.042677 -0.116485 0.174925 -0.152001 0.486317 0.128709 -0.251587 0.192148 -0.280634 -0.000450 0.361164 0.524623 0.137925 0.751122 0.414166 0.201967 -0.141994 0.076673 -0.361339 0.380516 0.220231 0.271967 -0.260649 -0.392612 -0.506560 -0.385239 -0.188034 -0.134258 0.282636 -0.031022 -0.236564 -0.194246
15 -0.072998 -0.262098 0.170640 -0.422274 0.077643 0.345680 0.081454 -0.318004 0.317953 0.076435 -0.195115 0.167585 -0.200372 -0.131917 0.193807 0.089015 -0.298006 0.092764 -0.314269 -0.488220 0.559186 0.354171 -0.003155 0.283764 -0.601141 0.044679 0.281664 0.154647 -0.296999 -0.016510 -0.138965 0.276589 -0.067681 -0.076885 0.152842 -0.190511 0.508325 0.162088 -0.198629 0.147002 -0.262958 -0.025910 0.377178 0.550324 0.121821 0.750638 0.386488 0.139583 -0.160215 0.079302 -0.334302 0.347386 0.208924 0.300526 -0.321477 -0.426303 -0.515973 -0.360040 -0.186315 -0.104886 0.303012 -0.009597 -0.236409 -0.228972
1 -0.016371 -0.237969 -0.089974 -0.100207 -0.171931 0.024909 0.014687 0.451132 0.061987 -0.203048 0.344121 0.229802 0.087117 -0.511787 0.275905 -0.478664 0.160170 -0.222824 -0.001876 -0.123527 -0.203901 -0.141405 0.115565 -0.037719 0.160197 -0.236056 -0.283608 -0.269405 0.073566 -0.056090 0.202734 0.045256 -0.345782 -0.036139 -0.058792 -0.187046 0.205946 0.023646 0.150921 -0.225522 -0.329289 -0.227811 0.363572 0.371934 -0.421814 0.022689 -0.036461 -0.576762 -0.002679 0.044182 -0.136853 -0.023886 -0.279605 0.213269 -0.381947 -0.090711 0.024446 0.324720 -0.174073 0.291035 0.159792 -0.174805 -0.011620 0.420612
