23 64
20 -0.054240 -0.164942 0.249130 -0.284443 -0.533729 -0.361517 0.271714 -0.184615 -0.062030 0.099261 -0.359398 0.242647 0.289992 -0.012754 0.042824 -0.126805 -0.638744 -0.327210 -0.005921 -0.116679 0.655613 -0.280432 0.490447 0.296291 0.012135 0.491875 0.397169 -0.142028 0.105703 -0.435122 -0.282839 -0.144322 -0.002969 -0.198897 -0.089839 -0.133039 0.375952 -0.102394 -0.085196 -0.444755 -0.467696 -0.096288 -0.255091 0.201855 0.347084 0.448207 0.464038 0.199525 0.179501 -0.096775 -0.194748 -0.002054 0.243245 -0.484773 0.035435 0.220911 -0.093552 -0.207523 -0.313154 0.049016 0.459031 -0.189806 0.263745 0.287389
16 -0.001973 -0.154336 0.212891 -0.213003 -0.354663 -0.158475 0.166378 -0.160381 0.091048 0.127378 -0.282430 0.298305 0.107799 0.064668 0.060521 -0.059629 -0.510359 -0.288302 -0.052468 -0.047547 0.492405 -0.195259 0.378763 0.194629 0.035589 0.380735 0.215256 -0.062699 0.010941 -0.284809 -0.178183 -0.013397 0.039338 -0.203135 -0.064128 -0.086087 0.248982 -0.018882 -0.039135 -0.167306 -0.353315 -0.002600 -0.104831 0.153379 0.276296 0.394594 0.384358 0.120844 0.053755 -0.005796 -0.133628 -0.012443 0.164505 -0.272810 0.052726 0.142592 -0.179187 -0.163392 -0.132159 -0.043220 0.328765 -0.212774 0.205993 0.162513
17 0.071858 -0.216500 0.178012 -0.208368 -0.199525 -0.002516 0.038440 -0.131011 0.305465 0.179465 -0.181754 0.447056 -0.004116 0.214250 0.010889 -0.013892 -0.399420 -0.261722 -0.141129 0.105192 0.372586 -0.185792 0.338802 0.153032 0.033725 0.331753 0.049232 0.024824 -0.043844 -0.211081 -0.096993 0.165194 0.103872 -0.191452 -0.057100 -0.075397 0.091201 0.055004 0.108411 0.109881 -0.229116 0.032526 -0.016507 0.109642 0.225201 0.346868 0.280845 0.019719 -0.086549 0.051026 -0.131151 -0.090538 0.109525 -0.130882 0.043980 0.121104 -0.283690 -0.018684 0.004252 -0.094473 0.194451 -0.334186 0.141293 0.050315
13 -0.068784 -0.082564 0.223798 -0.184064 -0.139703 -0.187869 0.144555 -0.036071 -0.033743 -0.043901 -0.001685 0.110997 0.104804 -0.196498 0.103706 -0.251898 -0.261641 -0.427302 -0.075452 -0.218018 0.396541 -0.080503 0.003353 0.271218 0.073353 0.041800 0.115540 0.064115 0.170598 -0.197170 -0.193419 -0.116160 -0.152016 -0.070095 -0.062100 -0.198487 0.314389 0.195405 0.083385 -0.166653 -0.152712 -0.126459 0.099479 0.274985 0.023728 0.202787 0.273860 -0.103183 -0.103341 0.080001 -0.002548 0.014296 0.079415 -0.063997 -0.218785 -0.097357 -0.113412 -0.023779 -0.057742 0.033408 0.304555 -0.137524 0.186590 0.126157
12 0.026794 -0.157299 0.179091 -0.120117 -0.109887 -0.016408 0.043241 -0.042825 0.227306 0.072418 -0.072989 0.325905 -0.057473 0.025573 0.081839 -0.090991 -0.315944 -0.319879 -0.071725 -0.014835 0.328916 -0.114776 0.153771 0.133184 0.103608 0.157504 -0.008598 0.052448 0.010435 -0.117515 -0.085905 0.045554 0.003749 -0.158073 -0.055562 -0.092932 0.174441 0.181950 0.066769 0.129916 -0.159650 0.005089 0.137767 0.170754 0.094642 0.296354 0.308552 -0.094774 -0.123627 0.083210 -0.050487 -0.024361 0.061439 -0.026633 -0.051938 -0.012380 -0.222968 -0.064832 0.057449 -0.087473 0.217957 -0.230324 0.167095 0.116253
3 -0.072410 -0.165510 0.179767 -0.159421 0.045596 -0.127098 0.069766 0.119667 0.106539 -0.171367 0.215664 0.177843 0.002248 -0.279206 0.105135 -0.396677 -0.038322 -0.465610 -0.044402 -0.114926 0.243972 -0.049819 -0.137086 0.296095 0.122156 -0.104864 -0.068398 0.096830 0.196999 -0.140150 -0.173019 -0.104918 -0.232890 0.025701 -0.098122 -0.303419 0.290978 0.292682 0.241646 -0.020893 -0.037477 -0.258241 0.270508 0.396405 -0.139052 0.103863 0.171960 -0.357022 -0.200073 0.093932 0.019753 -0.020053 -0.005245 0.086311 -0.349992 -0.158855 -0.101392 0.156003 -0.044008 0.071793 0.182791 -0.256082 0.136361 0.236319
11 0.078424 -0.226346 0.100345 -0.062243 -0.057406 0.077523 -0.003416 0.035410 0.405212 0.035179 -0.049972 0.411733 -0.149972 0.068042 0.086807 -0.074264 -0.267591 -0.216489 -0.039541 0.127899 0.224150 -0.128341 0.191652 0.048918 0.085298 0.192457 -0.114232 -0.014987 -0.096635 -0.076920 -0.029941 0.101009 0.070434 -0.196310 -0.031390 -0.081944 0.186813 0.176949 0.054143 0.285941 -0.145071 -0.020147 0.181128 0.195119 0.080346 0.317578 0.300601 -0.167490 -0.130172 0.029134 -0.115401 -0.031631 0.044236 -0.003287 0.022805 0.011489 -0.255499 -0.060730 0.055760 -0.141011 0.134409 -0.293905 0.141708 0.204771
10 0.149598 -0.331234 0.027633 -0.030604 -0.018950 0.238760 -0.044924 0.075898 0.636087 0.040936 -0.039898 0.566247 -0.278720 0.175339 0.072535 -0.008522 -0.220093 -0.090157 -0.019498 0.317322 0.123189 -0.142938 0.272165 -0.033204 0.056190 0.271317 -0.228679 -0.069511 -0.229681 -0.042173 0.013080 0.204416 0.158238 -0.212498 -0.049176 -0.071795 0.150564 0.120841 0.069737 0.470495 -0.174231 -0.036635 0.225030 0.232491 0.122655 0.391004 0.283828 -0.245304 -0.127991 -0.028454 -0.204998 -0.054476 0.045513 0.037555 0.082325 0.077060 -0.330590 -0.074761 0.059908 -0.187808 0.042416 -0.388983 0.070109 0.272816
6 0.065754 -0.183420 0.046855 0.085082 0.019249 0.050461 0.022860 0.231197 0.399550 -0.117658 0.107127 0.299032 -0.188712 -0.213103 0.175926 -0.189239 -0.128891 -0.280316 0.088771 0.077735 0.138615 -0.114380 -0.007806 -0.007227 0.220906 0.018035 -0.220376 -0.062033 -0.029842 0.047663 -0.020892 -0.067367 -0.033691 -0.161381 -0.070578 -0.169227 0.322423 0.306307 -0.009101 0.282780 -0.107670 -0.122845 0.359667 0.331092 -0.101526 0.256713 0.323669 -0.369533 -0.096985 0.026078 -0.080486 0.047649 -0.009113 0.108028 -0.073599 -0.092713 -0.166044 -0.126793 0.107835 -0.152138 0.178351 -0.207301 0.170042 0.384457
4 -0.029897 -0.145811 0.111275 -0.029238 0.070983 -0.082612 0.037921 0.237368 0.214791 -0.207636 0.223258 0.179309 -0.052413 -0.341701 0.147300 -0.352262 -0.015899 -0.401536 0.054779 -0.051579 0.184193 -0.065825 -0.159676 0.156941 0.184682 -0.104180 -0.161653 0.039257 0.136118 -0.050098 -0.119097 -0.138636 -0.187557 -0.034311 -0.104621 -0.278267 0.338955 0.324464 0.141756 0.087422 -0.049761 -0.252873 0.362294 0.423684 -0.168597 0.115464 0.207188 -0.418016 -0.148899 0.050816 -0.009174 0.023812 -0.012914 0.142521 -0.291113 -0.154379 -0.085231 0.041615 0.020994 -0.010988 0.204859 -0.219311 0.154801 0.330097
15 -0.078636 -0.115573 0.267321 -0.264150 -0.284262 -0.206307 0.189024 -0.161857 -0.051635 0.058303 -0.167731 0.168940 0.162885 -0.060303 0.070390 -0.170161 -0.403126 -0.392328 -0.081085 -0.181566 0.503132 -0.134473 0.202267 0.295943 0.030761 0.234837 0.229262 0.019138 0.126859 -0.295649 -0.233396 -0.073540 -0.063055 -0.105430 -0.075928 -0.165526 0.255686 0.047795 0.058370 -0.267087 -0.295531 -0.074381 -0.072053 0.211014 0.191465 0.304827 0.297145 0.059024 0.001331 0.043818 -0.062755 -0.004230 0.136184 -0.202267 -0.115029 0.034171 -0.147839 -0.088388 -0.139308 0.044412 0.347666 -0.163538 0.201682 0.103375
14 -0.090798 -0.089296 0.269978 -0.226247 -0.148835 -0.195805 0.158230 -0.080095 -0.075924 -0.028580 -0.033630 0.125130 0.108027 -0.182535 0.102369 -0.253684 -0.286859 -0.472465 -0.103486 -0.264102 0.443371 -0.060198 0.015814 0.322076 0.074491 0.051399 0.151141 0.091373 0.169603 -0.215121 -0.202231 -0.112897 -0.170822 -0.060710 -0.050315 -0.202651 0.302459 0.189219 0.083958 -0.205496 -0.185547 -0.114131 0.095177 0.276787 0.040514 0.210079 0.301234 -0.071427 -0.114158 0.114162 0.010368 0.011004 0.075649 -0.075804 -0.221445 -0.107338 -0.134550 0.001636 -0.069732 0.039724 0.320911 -0.153318 0.216397 0.086830
2 -0.071755 -0.301179 0.143904 -0.262700 0.141751 -0.113011 0.001673 0.222704 0.249901 -0.256530 0.379118 0.298273 0.014803 -0.303453 0.074495 -0.549893 0.121500 -0.479297 -0.034760 0.007891 0.168850 -0.060803 -0.184022 0.363824 0.064314 -0.156747 -0.168457 0.113861 0.218453 -0.224630 -0.191893 -0.028829 -0.303415 0.111434 -0.149465 -0.421361 0.249333 0.289300 0.468403 -0.003231 0.004987 -0.411499 0.347415 0.519143 -0.228077 0.029517 0.018343 -0.555659 -0.249656 0.063231 -0.038808 -0.068998 -0.030993 0.165793 -0.509112 -0.138616 -0.091001 0.392399 -0.127616 0.159734 0.101415 -0.452762 0.050350 0.312182
18 0.149941 -0.267554 0.123912 -0.125410 -0.216921 0.104863 -0.001613 -0.106096 0.504836 0.230264 -0.277704 0.581252 -0.122813 0.311597 0.033545 0.087859 -0.491585 -0.154521 -0.086001 0.255259 0.354111 -0.226347 0.478964 0.025670 0.062381 0.466946 -0.018747 -0.053034 -0.185582 -0.152229 -0.036125 0.223791 0.230743 -0.293345 -0.040728 -0.004568 0.093244 0.037757 0.009230 0.305302 -0.285760 0.114032 0.006644 0.074916 0.298812 0.479341 0.373067 0.024831 -0.045986 0.000176 -0.198879 -0.084727 0.126404 -0.137115 0.207423 0.200657 -0.347779 -0.160688 0.044641 -0.211285 0.176277 -0.375413 0.155208 0.142332
0 -0.115740 -0.374436 0.124319 -0.316223 0.183589 -0.136828 -0.012466 0.301885 0.303909 -0.361131 0.526487 0.300116 0.031062 -0.413698 0.104821 -0.692119 0.257302 -0.530755 0.013733 0.038182 0.121191 -0.078142 -0.277533 0.427329 0.055569 -0.223601 -0.205640 0.079184 0.243812 -0.291725 -0.237485 -0.046158 -0.372390 0.160541 -0.169292 -0.554644 0.297823 0.325910 0.583947 -0.065616 -0.004451 -0.571828 0.390697 0.656706 -0.308224 0.000934 -0.054756 -0.716454 -0.259450 0.044071 -0.078104 -0.050608 -0.063448 0.176969 -0.627504 -0.152537 -0.065153 0.492136 -0.210720 0.223537 0.097850 -0.553560 0.017919 0.457906
19 0.163365 -0.307355 0.095640 -0.108347 -0.115384 0.169201 -0.045837 -0.038997 0.579843 0.161844 -0.170529 0.601223 -0.190253 0.285866 0.029191 0.047800 -0.366543 -0.145242 -0.068264 0.306250 0.240492 -0.198826 0.385537 0.011475 0.055170 0.378742 -0.127961 -0.034182 -0.203067 -0.117645 -0.005457 0.254124 0.200009 -0.264821 -0.048470 -0.029540 0.059828 0.082364 0.086142 0.394234 -0.211767 0.053493 0.103490 0.117607 0.222423 0.412785 0.309245 -0.104614 -0.108573 0.010130 -0.197841 -0.089979 0.067588 -0.050887 0.154431 0.156660 -0.353489 -0.061687 0.079867 -0.197894 0.093544 -0.415155 0.115455 0.170771
9 0.173518 -0.335699 -0.012846 0.043180 -0.000903 0.265503 -0.051290 0.164459 0.711979 -0.006654 -0.009524 0.581207 -0.337502 0.068333 0.130296 -0.031690 -0.219008 -0.095096 0.026190 0.323217 0.070737 -0.131935 0.235939 -0.113417 0.105703 0.236626 -0.311646 -0.118665 -0.270099 0.038363 0.068545 0.188400 0.136181 -0.274763 -0.020123 -0.082073 0.235642 0.202678 -0.003407 0.564706 -0.179430 -0.057525 0.325925 0.288468 0.043086 0.400660 0.347286 -0.336615 -0.149321 -0.035265 -0.229201 -0.010126 0.006292 0.086542 0.111931 0.018473 -0.348125 -0.125092 0.117452 -0.252443 0.054037 -0.370571 0.104362 0.369873
7 0.155608 -0.248167 -0.045666 0.179796 0.033308 0.191566 -0.018864 0.323170 0.633950 -0.127872 0.088111 0.429620 -0.323385 -0.188443 0.211579 -0.119799 -0.121393 -0.169411 0.135768 0.227891 0.045816 -0.132347 0.060917 -0.140331 0.250707 0.070212 -0.373196 -0.136180 -0.178617 0.132801 0.075575 0.007071 0.034704 -0.248657 -0.073629 -0.129546 0.341585 0.296893 -0.079624 0.504828 -0.141493 -0.106330 0.453136 0.373431 -0.099367 0.334183 0.379030 -0.444331 -0.089835 -0.023244 -0.165151 0.063828 -0.017618 0.172094 0.014093 -0.060357 -0.228163 -0.205448 0.168659 -0.234449 0.121976 -0.250484 0.163958 0.496307
5 -0.032013 -0.308406 0.073869 -0.133598 0.197067 -0.018901 -0.024182 0.283051 0.396246 -0.277381 0.394194 0.322564 -0.113529 -0.308631 0.127134 -0.489756 0.143825 -0.423483 0.034219 0.087130 0.087661 -0.054688 -0.213710 0.244476 0.132458 -0.166375 -0.267759 0.047335 0.117461 -0.117051 -0.137583 -0.029501 -0.235257 0.050145 -0.121332 -0.397836 0.266458 0.343166 0.367463 0.157772 0.011017 -0.381866 0.422465 0.515944 -0.254374 0.072268 0.067820 -0.610307 -0.230274 0.047649 -0.060913 -0.012087 -0.055074 0.205328 -0.402907 -0.154157 -0.112194 0.267392 -0.033097 0.045910 0.080712 -0.432418 0.064900 0.403856
1 -0.090124 -0.402880 0.108799 -0.248632 0.243989 -0.089102 -0.049978 0.377860 0.447029 -0.367309 0.518139 0.361094 -0.043221 -0.413735 0.106673 -0.673003 0.276003 -0.514546 0.081474 0.122059 0.090103 -0.084684 -0.269817 0.358810 0.120387 -0.203605 -0.295602 0.084606 0.207153 -0.226926 -0.220923 -0.028627 -0.331018 0.137405 -0.202653 -0.555240 0.262582 0.346805 0.574890 0.062136 -0.003202 -0.560953 0.480849 0.674412 -0.321993 0.007134 -0.046576 -0.771909 -0.233915 0.043835 -0.094816 -0.033149 -0.079831 0.263099 -0.594836 -0.132269 -0.084133 0.452682 -0.149163 0.164018 0.083339 -0.588180 0.014595 0.506887
8 0.187186 -0.347650 -0.026396 0.113286 -0.038375 0.273932 -0.033612 0.217757 0.747105 -0.008322 -0.036628 0.572124 -0.365615 0.047307 0.164094 -0.017741 -0.207125 -0.065979 0.112958 0.366242 0.059220 -0.173890 0.257620 -0.174826 0.157321 0.273931 -0.331498 -0.151850 -0.295653 0.069214 0.069681 0.143732 0.173642 -0.284253 -0.063266 -0.076159 0.269732 0.177262 -0.042292 0.581995 -0.215882 -0.052107 0.326677 0.310839 0.061675 0.447219 0.368012 -0.340629 -0.080249 -0.050296 -0.252457 0.004389 0.033686 0.087368 0.127715 0.058482 -0.334503 -0.207610 0.105329 -0.272405 0.064275 -0.360692 0.118996 0.456860
21 -0.083687 -0.129296 0.296015 -0.337700 -0.586245 -0.387735 0.271645 -0.261987 -0.110189 0.167032 -0.418553 0.231418 0.323585 0.005314 0.038691 -0.099520 -0.685025 -0.358288 -0.004724 -0.142906 0.714536 -0.283584 0.517129 0.323081 0.005150 0.528409 0.455452 -0.118400 0.116334 -0.456932 -0.289128 -0.134613 0.006813 -0.204636 -0.104498 -0.137762 0.331629 -0.110164 -0.073804 -0.492199 -0.506565 -0.047378 -0.319481 0.159175 0.384154 0.467183 0.460498 0.281943 0.206143 -0.066911 -0.168651 0.003662 0.252896 -0.517007 0.056124 0.248187 -0.105502 -0.223947 -0.321483 0.052809 0.478661 -0.183994 0.279919 0.244384
22 -0.041325 -0.147840 0.231408 -0.254891 -0.539126 -0.331851 0.239296 -0.196598 -0.029917 0.137162 -0.396630 0.249119 0.260553 0.005047 0.056541 -0.071628 -0.637903 -0.286651 0.048266 -0.065206 0.629368 -0.279806 0.513815 0.236742 0.015669 0.522545 0.375694 -0.165115 0.063718 -0.384106 -0.244817 -0.130716 0.031886 -0.219156 -0.099517 -0.118393 0.324076 -0.114591 -0.120053 -0.404109 -0.470645 -0.055407 -0.273504 0.166817 0.362887 0.467987 0.440806 0.240215 0.224301 -0.094953 -0.196725 0.011241 0.223849 -0.476081 0.108020 0.251344 -0.091481 -0.242074 -0.279172 0.000770 0.437983 -0.173427 0.260440 0.297702
