23 64
15 -0.072892 -0.263120 0.178494 -0.227298 -0.072379 0.071410 0.040875 -0.032983 0.196721 0.066024 -0.091167 0.317953 0.001638 -0.001067 0.088116 -0.081045 -0.224566 -0.163231 -0.133512 -0.115152 0.339842 0.021912 0.223235 0.118928 -0.085488 0.208588 0.039161 0.045445 -0.072867 -0.083859 -0.061486 0.141071 0.013177 -0.055843 0.032315 -0.140274 0.192587 0.041272 0.035968 0.071765 -0.315474 -0.078741 0.131627 0.303560 0.081525 0.337540 0.166998 -0.030578 -0.064331 0.034533 -0.200753 -0.012505 0.058533 0.068212 -0.134399 -0.101758 -0.308995 -0.021520 -0.115424 -0.036418 0.252879 -0.199763 0.084024 -0.022622
10 -0.075674 -0.312245 0.156267 -0.217651 -0.091693 0.217801 0.068667 -0.018559 0.349867 0.056954 -0.136519 0.385897 -0.127145 0.029319 0.132473 0.007597 -0.205001 -0.083309 -0.185788 -0.163152 0.304343 0.050747 0.278123 0.093407 -0.116618 0.208448 0.027055 0.006255 -0.240586 -0.087658 -0.030087 0.223368 0.046434 -0.129216 0.054241 -0.114733 0.287301 -0.017123 -0.077943 0.118635 -0.456683 -0.067482 0.259267 0.407750 0.111207 0.441605 0.307141 -0.017549 -0.061801 0.063459 -0.269441 0.082178 0.071003 0.114369 -0.125440 -0.120268 -0.405516 -0.102211 -0.162313 -0.050597 0.259743 -0.234868 0.017055 -0.000704
13 -0.062879 -0.311949 0.254037 -0.355633 -0.280128 0.059584 0.030531 -0.244945 0.077144 0.219441 -0.324845 0.314035 0.049537 0.017712 0.134017 0.057334 -0.480752 -0.059493 -0.092238 -0.211842 0.580340 -0.000868 0.401758 0.164102 -0.259639 0.388672 0.246373 0.021215 -0.159767 -0.098445 -0.007521 0.165994 0.054945 -0.136187 0.092554 -0.064681 0.231812 0.043753 -0.087332 0.045085 -0.422065 0.023383 -0.034508 0.246324 0.237403 0.675023 0.329768 0.176084 0.002828 0.002363 -0.332540 0.029622 0.107932 -0.107225 -0.060427 -0.085378 -0.397843 -0.208946 -0.210152 -0.024001 0.351147 -0.087740 0.150085 0.026648
20 -0.125277 -0.320878 0.268679 -0.473288 -0.447934 -0.267446 0.024058 -0.374579 -0.244883 0.244754 -0.363352 0.174468 0.328426 -0.106757 0.081775 0.012160 -0.624389 -0.053418 0.096477 -0.236126 0.809009 -0.058424 0.422753 0.294265 -0.321044 0.489799 0.491291 -0.021094 0.019351 -0.188744 -0.064543 -0.013587 -0.042113 -0.039793 0.108937 -0.109805 0.184738 0.066582 -0.073622 -0.203716 -0.383793 -0.076248 -0.360594 0.148334 0.274540 0.740654 0.295576 0.265930 0.148050 -0.165068 -0.420426 0.024206 0.163614 -0.440140 -0.069905 -0.013251 -0.213248 -0.257753 -0.340345 0.091206 0.460556 0.037444 0.276302 0.223311
14 -0.090368 -0.297104 0.249110 -0.338318 -0.135896 -0.018443 -0.011672 -0.173941 0.047982 0.166710 -0.193111 0.303885 0.079657 0.030843 0.039273 -0.042662 -0.320905 -0.129398 -0.086077 -0.121752 0.455910 0.028136 0.295898 0.188537 -0.195624 0.306919 0.171591 0.094332 -0.041816 -0.070792 -0.030736 0.146154 -0.001073 -0.013511 0.071787 -0.126996 0.102981 0.068299 0.065015 0.052794 -0.266821 -0.057589 -0.037176 0.210016 0.126175 0.417988 0.153097 0.091962 -0.056091 0.025208 -0.244215 -0.057448 0.047224 -0.059857 -0.089378 -0.090743 -0.318816 0.031011 -0.171746 -0.012203 0.228897 -0.161281 0.135514 -0.034551
17 0.013346 -0.129546 0.212006 -0.098291 -0.041519 -0.112308 0.040012 0.115696 0.121387 0.119966 0.056241 0.368829 0.136664 -0.059953 -0.027052 -0.234357 -0.175536 -0.425823 -0.153400 0.134363 0.282350 -0.112616 0.187822 0.080624 0.199997 0.281677 -0.099032 0.123008 0.266840 0.075005 -0.115393 -0.001303 -0.019652 0.067557 -0.094344 -0.305138 0.164853 0.189326 0.212113 0.178490 -0.131720 -0.182628 0.018149 0.299867 -0.008759 0.094635 0.014011 -0.177401 -0.172474 0.048711 -0.027495 -0.322785 0.023932 0.088176 -0.114462 -0.036971 -0.275648 0.161619 0.067033 -0.143013 0.217551 -0.265764 0.210926 -0.058768
3 -0.113289 -0.181761 0.147411 -0.132525 0.081671 -0.280927 0.053728 0.227178 0.105986 -0.088533 0.280370 0.314865 0.203405 -0.215112 -0.028856 -0.442596 -0.007791 -0.510544 -0.061290 0.092461 0.247946 -0.045485 -0.002936 0.190925 0.236415 0.109033 -0.090949 0.095946 0.366677 -0.052820 -0.238507 -0.113635 -0.195083 0.191691 -0.097698 -0.448247 0.207821 0.198884 0.297940 -0.020147 -0.091141 -0.401875 0.102886 0.432326 -0.160282 -0.095542 -0.079274 -0.348260 -0.144815 -0.019165 -0.025595 -0.226399 0.027613 0.065449 -0.279298 -0.076710 -0.084279 0.295341 -0.036563 -0.055002 0.247403 -0.359468 0.170418 0.104436
16 -0.014186 -0.177835 0.172243 -0.107049 -0.023840 0.097122 0.065509 0.091895 0.255688 0.068924 -0.009131 0.384763 -0.044436 -0.018940 0.090302 -0.148532 -0.170267 -0.293733 -0.201960 -0.018869 0.241921 -0.017522 0.204549 0.048452 0.097347 0.203838 -0.088428 0.058718 0.013398 0.012276 -0.079057 0.100504 0.010711 -0.041167 -0.024646 -0.200473 0.260233 0.091998 0.055073 0.165285 -0.290300 -0.083885 0.214826 0.361384 0.031133 0.231334 0.158982 -0.140788 -0.148018 0.090922 -0.077381 -0.132388 0.039220 0.181622 -0.119798 -0.087528 -0.334726 0.019641 -0.007520 -0.136980 0.239751 -0.269348 0.101677 -0.063723
7 0.014961 -0.140908 0.093096 0.013451 0.026409 0.185163 0.115612 0.266173 0.458615 -0.033701 0.094198 0.417841 -0.125545 -0.101625 0.130039 -0.165413 -0.031326 -0.347221 -0.237069 0.017688 0.132222 -0.044069 0.114073 0.000704 0.276476 0.126346 -0.225149 0.012683 -0.029151 0.014144 -0.121264 0.093901 0.006539 -0.087788 -0.082175 -0.273805 0.370103 0.071605 -0.000438 0.188628 -0.400451 -0.166500 0.406212 0.535332 -0.009310 0.158133 0.224947 -0.298861 -0.143444 0.103574 -0.069130 -0.070690 0.052712 0.312139 -0.174017 -0.067722 -0.346884 -0.062265 0.059163 -0.175629 0.292351 -0.346897 0.064084 0.010033
4 -0.096650 -0.156998 0.082774 -0.048068 0.158242 -0.101106 0.052327 0.325932 0.333047 -0.161534 0.306735 0.358982 0.055611 -0.201908 0.049672 -0.375851 0.069011 -0.469306 -0.105082 0.060330 0.165634 -0.011764 -0.061596 0.105961 0.283417 0.037437 -0.185412 0.057535 0.196936 -0.082231 -0.243927 -0.048905 -0.142189 0.082041 -0.091066 -0.416778 0.308490 0.157648 0.185126 0.034806 -0.220148 -0.373016 0.349422 0.549265 -0.138110 -0.080572 0.022226 -0.419775 -0.147413 0.012216 -0.025721 -0.102890 0.046448 0.221638 -0.289582 -0.081267 -0.131822 0.163664 0.005782 -0.125010 0.308119 -0.424604 0.089981 0.098886
9 -0.044884 -0.281011 0.113756 -0.150171 -0.091305 0.302804 0.101819 0.061553 0.457044 0.030085 -0.132279 0.412772 -0.191965 -0.018424 0.188984 0.009471 -0.184128 -0.088714 -0.216921 -0.163165 0.243407 0.052503 0.274926 0.021042 -0.039567 0.197114 -0.045716 -0.040368 -0.301529 -0.063538 -0.025977 0.244290 0.057365 -0.194600 0.048497 -0.122003 0.375428 -0.038850 -0.154468 0.152382 -0.550706 -0.057065 0.369991 0.488452 0.103501 0.445757 0.364100 -0.077104 -0.062603 0.077731 -0.267162 0.120361 0.074683 0.211105 -0.117375 -0.116826 -0.442282 -0.193875 -0.122723 -0.103495 0.298278 -0.256387 -0.004929 0.017819
12 -0.104206 -0.375796 0.244850 -0.374283 -0.244845 0.119294 0.022527 -0.230275 0.160414 0.182049 -0.302891 0.368535 -0.012099 0.062421 0.139618 0.082133 -0.455697 -0.021143 -0.118727 -0.259467 0.552276 0.045856 0.416044 0.158871 -0.301187 0.348977 0.224127 0.021682 -0.239525 -0.138238 0.005046 0.230401 0.052891 -0.158123 0.120362 -0.033111 0.238566 0.011071 -0.102874 0.069284 -0.470936 0.008292 0.066521 0.288119 0.228139 0.680582 0.365638 0.158584 -0.020259 0.007631 -0.371650 0.088268 0.097691 -0.078068 -0.091438 -0.124081 -0.426527 -0.184107 -0.240309 0.000569 0.351207 -0.124172 0.100460 0.021094
8 -0.001032 -0.219764 0.114343 -0.050128 -0.042252 0.311397 0.121116 0.159928 0.488891 0.022394 -0.054337 0.421457 -0.214212 -0.025947 0.176452 -0.045451 -0.096347 -0.187864 -0.241408 -0.069391 0.158666 0.001527 0.212515 -0.019259 0.113611 0.181546 -0.140594 -0.012282 -0.223845 -0.000899 -0.055914 0.196321 0.076466 -0.158489 -0.009470 -0.175717 0.393643 0.001738 -0.097625 0.211814 -0.505859 -0.075030 0.398749 0.512830 0.067567 0.338585 0.320555 -0.171196 -0.110393 0.121310 -0.173941 0.025449 0.070880 0.285182 -0.123545 -0.092575 -0.447351 -0.157413 -0.040412 -0.161174 0.268375 -0.309093 0.018372 -0.006830
11 -0.090897 -0.343449 0.183421 -0.271003 -0.137977 0.199779 0.044798 -0.083179 0.294377 0.078898 -0.213003 0.365818 -0.100093 0.037079 0.172799 0.029525 -0.302184 -0.044226 -0.150523 -0.236357 0.402014 0.057629 0.321775 0.106839 -0.206613 0.232834 0.093224 0.000801 -0.280623 -0.127640 -0.003709 0.231009 0.056499 -0.170957 0.090454 -0.053730 0.285359 -0.016319 -0.107486 0.087322 -0.470152 -0.008899 0.229202 0.362020 0.152061 0.546408 0.339630 0.058798 -0.030361 0.052066 -0.310289 0.122270 0.083370 0.069316 -0.119803 -0.135822 -0.401549 -0.148370 -0.202962 -0.027790 0.306385 -0.190177 0.049105 0.008814
18 -0.032871 -0.163176 0.239049 -0.211814 -0.021289 -0.195956 -0.026756 0.002699 0.001592 0.140952 0.015912 0.322572 0.205522 -0.036963 -0.051529 -0.254552 -0.228919 -0.381502 -0.103828 0.098972 0.372540 -0.063585 0.188861 0.162183 0.079462 0.295048 0.006582 0.160135 0.288527 0.019602 -0.120785 0.007425 -0.052082 0.114910 -0.037950 -0.279511 0.059136 0.196329 0.268553 0.122345 -0.058352 -0.159885 -0.087529 0.200505 0.009987 0.118990 -0.055114 -0.102646 -0.158001 0.016100 -0.045973 -0.313059 0.020049 0.014043 -0.118655 -0.037258 -0.217222 0.209242 0.001008 -0.089354 0.200572 -0.245921 0.220593 -0.067248
19 -0.033257 -0.224407 0.301591 -0.295754 -0.097252 -0.146500 -0.033439 -0.130947 -0.031100 0.211936 -0.118416 0.324800 0.189221 0.038718 -0.050826 -0.154329 -0.335367 -0.304927 -0.103665 0.040138 0.451855 -0.059062 0.279610 0.188012 -0.062110 0.365708 0.088137 0.170936 0.198125 0.000522 -0.074058 0.076873 0.000699 0.059961 -0.000247 -0.203511 0.016585 0.175783 0.241003 0.133254 -0.090971 -0.092918 -0.154122 0.137951 0.096479 0.266271 0.004834 0.019647 -0.143598 0.031798 -0.122224 -0.280630 0.012607 -0.054167 -0.070130 -0.052336 -0.299633 0.176220 -0.037236 -0.061603 0.191049 -0.190782 0.228707 -0.101980
2 -0.147613 -0.227878 0.121394 -0.172898 0.151791 -0.364957 0.040866 0.282797 0.104583 -0.167186 0.356326 0.325677 0.276014 -0.258129 -0.042955 -0.528545 0.035308 -0.533884 -0.013524 0.074268 0.278632 -0.005318 -0.073376 0.226968 0.202638 0.035920 -0.095732 0.111141 0.415985 -0.118743 -0.273226 -0.145346 -0.269644 0.257522 -0.119230 -0.482800 0.180978 0.179194 0.363488 -0.118849 -0.048399 -0.464388 0.157878 0.462303 -0.231075 -0.197470 -0.170731 -0.399606 -0.102833 -0.059578 -0.043211 -0.192815 0.052792 0.092552 -0.374041 -0.095686 0.017893 0.401859 -0.068582 -0.018055 0.272424 -0.404923 0.155068 0.098668
1 -0.284221 -0.329315 0.081663 -0.212841 0.284204 -0.434480 0.038990 0.407939 0.253620 -0.346866 0.530327 0.336556 0.270373 -0.352807 -0.040186 -0.652949 0.223242 -0.593708 0.043361 0.028748 0.235703 0.058550 -0.226622 0.307880 0.235104 -0.090864 -0.102219 0.100647 0.395887 -0.251877 -0.391632 -0.150595 -0.367334 0.305560 -0.100765 -0.630720 0.238293 0.172752 0.412724 -0.244116 -0.118802 -0.688801 0.324223 0.663896 -0.339761 -0.333801 -0.193773 -0.553729 -0.085842 -0.075975 -0.112918 -0.041828 0.048798 0.122449 -0.513029 -0.137832 0.086201 0.501745 -0.165955 0.021191 0.328605 -0.569798 0.081720 0.233321
5 -0.253194 -0.298658 0.052110 -0.177778 0.271363 -0.340785 0.034574 0.356167 0.281448 -0.329579 0.495542 0.327647 0.189519 -0.299144 0.006687 -0.577428 0.184289 -0.534547 0.016154 0.019122 0.210026 0.067133 -0.217142 0.264890 0.207989 -0.094696 -0.108001 0.056062 0.300068 -0.239517 -0.350556 -0.124391 -0.310916 0.234484 -0.056374 -0.559224 0.264887 0.177976 0.331553 -0.185106 -0.128571 -0.604088 0.329851 0.615422 -0.293523 -0.254783 -0.128303 -0.515184 -0.102251 -0.071855 -0.098625 -0.008270 0.051441 0.107014 -0.435890 -0.143045 0.055404 0.397262 -0.135624 -0.020574 0.315488 -0.528928 0.077092 0.230336
0 -0.254583 -0.308599 0.091107 -0.240108 0.199885 -0.447343 0.033879 0.297861 0.126182 -0.272935 0.478118 0.296349 0.300884 -0.314375 -0.044278 -0.615113 0.153270 -0.553112 0.037647 0.049275 0.249367 0.029055 -0.170202 0.315968 0.172334 -0.038490 -0.046707 0.072595 0.407081 -0.221385 -0.336476 -0.158245 -0.342869 0.306341 -0.068267 -0.588130 0.200247 0.188743 0.410844 -0.238589 -0.064780 -0.631458 0.155031 0.550382 -0.302891 -0.263757 -0.207826 -0.469730 -0.093806 -0.090434 -0.106613 -0.102894 0.033614 0.004899 -0.434247 -0.124973 0.078554 0.494969 -0.175184 0.035642 0.274664 -0.489914 0.123325 0.230794
6 0.009042 -0.092960 0.104936 0.047175 0.038172 0.077166 0.100159 0.277211 0.349860 -0.037295 0.154068 0.359990 -0.057121 -0.135992 0.110827 -0.216225 -0.038040 -0.404065 -0.166105 0.051423 0.142620 -0.080489 0.056276 -0.009460 0.312684 0.123467 -0.191961 0.009148 0.084361 0.031958 -0.152874 -0.016144 -0.003353 -0.037428 -0.088266 -0.300507 0.366021 0.149467 0.033945 0.144244 -0.311473 -0.189581 0.339494 0.476375 -0.039692 0.102504 0.174754 -0.333689 -0.135621 0.079006 -0.010767 -0.122787 0.042944 0.241258 -0.154068 -0.058446 -0.268843 -0.040656 0.076828 -0.201816 0.311093 -0.317224 0.108670 0.043901
21 -0.117188 -0.299090 0.302526 -0.490657 -0.444291 -0.305607 0.005059 -0.381143 -0.268657 0.282387 -0.347320 0.206396 0.360543 -0.129114 0.081698 -0.034313 -0.650291 -0.132046 0.103238 -0.194375 0.855940 -0.074170 0.418300 0.308370 -0.293252 0.518171 0.480390 0.006104 0.089626 -0.156376 -0.070220 -0.043084 -0.053878 -0.008833 0.080589 -0.162599 0.177846 0.129988 -0.017984 -0.177619 -0.350179 -0.071368 -0.389769 0.147924 0.258916 0.740744 0.258552 0.250460 0.128628 -0.151868 -0.376071 -0.040421 0.162097 -0.431229 -0.071761 -0.009745 -0.221240 -0.223385 -0.312200 0.056052 0.470294 0.011900 0.321163 0.208230
22 -0.082054 -0.327287 0.332735 -0.503437 -0.513341 -0.230716 0.021203 -0.432466 -0.244500 0.343118 -0.447427 0.253290 0.326095 -0.092665 0.113699 0.035914 -0.745725 -0.103263 0.062086 -0.213010 0.911820 -0.087771 0.526388 0.290143 -0.328661 0.609241 0.496517 -0.012512 0.023648 -0.128548 -0.042877 0.007057 -0.006038 -0.073002 0.098648 -0.129516 0.213937 0.108064 -0.088709 -0.127743 -0.428125 -0.026018 -0.401245 0.168389 0.340400 0.887936 0.340831 0.311544 0.125716 -0.138120 -0.430251 -0.048782 0.161967 -0.432617 -0.024022 -0.010338 -0.320893 -0.306614 -0.304624 0.025302 0.510366 0.038442 0.337245 0.190112
