13 64
10 -0.262620 -0.226727 -0.051421 0.032015 0.098884 0.145248 -0.095200 -0.002253 0.204972 -0.221896 0.364128 0.371270 -0.347261 0.341377 0.097481 0.136061 -0.069335 0.164389 -0.017239 -0.167089 0.223081 0.068226 0.170508 0.128997 -0.267360 -0.171407 0.062965 -0.107889 -0.151735 -0.257989 -0.053824 -0.203566 0.011210 0.098980 -0.041136 0.163653 0.431542 0.056462 -0.169510 0.153718 -0.045918 -0.075155 0.445338 0.275546 0.127798 0.521906 0.467474 -0.070731 -0.093254 -0.215025 0.068039 0.094661 0.177553 -0.287603 -0.240011 -0.123444 0.104165 -0.128968 -0.406375 0.176685 0.172528 -0.080899 -0.171410 0.360107
0 -0.045753 -0.196604 0.060834 -0.090446 0.045494 -0.060266 0.085565 0.287578 -0.007104 -0.213291 0.344911 0.113068 0.007797 -0.394247 0.181682 -0.545227 0.222415 -0.352414 0.019333 -0.014141 -0.071069 -0.036210 -0.162207 0.128580 0.136113 -0.131743 -0.131753 -0.044032 0.170576 -0.025866 -0.091689 -0.127158 -0.283025 0.167938 -0.046603 -0.362627 0.331977 0.172430 0.268744 -0.127743 -0.079662 -0.332786 0.209786 0.438393 -0.291602 -0.029362 -0.075873 -0.510516 -0.156571 0.078467 -0.008034 -0.120491 -0.082369 0.159019 -0.361000 -0.136325 -0.036683 0.302841 -0.176353 0.072060 0.053149 -0.290921 0.054701 0.293293
9 -0.133488 -0.185060 -0.046094 0.067705 0.010946 0.123751 -0.035633 0.138016 0.180841 -0.146275 0.276234 0.285305 -0.245695 0.054857 0.174049 -0.021459 -0.015145 0.036905 0.032210 -0.100976 0.085464 0.020592 0.104523 -0.022415 -0.059756 -0.105125 -0.055035 -0.103474 -0.098252 -0.086366 -0.000658 -0.125424 -0.056186 0.036835 -0.042893 0.039398 0.397381 0.074636 -0.112355 0.143817 -0.127006 -0.088328 0.382765 0.313947 -0.004334 0.369457 0.306209 -0.199104 -0.087465 -0.102863 -0.003724 0.047193 0.089623 -0.060799 -0.229584 -0.111424 0.012230 -0.111906 -0.231475 0.068041 0.170776 -0.098594 -0.084226 0.334134
4 -0.023473 -0.165187 0.015177 0.013303 -0.005305 0.016216 0.050607 0.281510 0.069606 -0.148088 0.275416 0.156108 -0.066526 -0.296433 0.211302 -0.353334 0.131583 -0.228631 0.057157 -0.024305 -0.042208 -0.038605 -0.074919 -0.011553 0.144198 -0.093459 -0.148365 -0.060590 0.072949 0.017621 -0.031474 -0.107491 -0.197749 0.081524 -0.061547 -0.216592 0.342964 0.134605 0.112260 -0.005111 -0.130124 -0.213115 0.274184 0.391143 -0.200186 0.096485 0.038614 -0.417710 -0.112417 0.041189 -0.027949 -0.063793 -0.027288 0.156730 -0.301738 -0.110969 -0.042358 0.100821 -0.112421 0.018985 0.122269 -0.203416 0.033011 0.295324
3 -0.059195 -0.175578 0.028226 -0.008595 0.022865 0.009646 0.059567 0.241507 0.056373 -0.169368 0.292104 0.147876 -0.087092 -0.262724 0.181050 -0.351431 0.142885 -0.225978 0.035763 -0.039653 -0.034880 -0.021606 -0.077278 0.052387 0.115297 -0.112609 -0.114784 -0.057102 0.081463 -0.005886 -0.058506 -0.122583 -0.199501 0.112874 -0.053007 -0.225819 0.333980 0.136898 0.120010 -0.022529 -0.106026 -0.233490 0.261253 0.384251 -0.194386 0.098310 0.056786 -0.399677 -0.120019 0.037883 -0.008861 -0.055399 -0.033350 0.111536 -0.297668 -0.121810 -0.033678 0.124275 -0.152754 0.050598 0.092213 -0.201861 0.013553 0.301040
7 -0.012112 -0.169657 -0.053719 0.124863 -0.076656 0.141829 0.021637 0.265169 0.193267 -0.089167 0.214469 0.238888 -0.198014 -0.166475 0.274836 -0.122896 0.029700 -0.065979 0.083913 -0.059270 0.001403 -0.039285 0.049974 -0.145742 0.134875 -0.073813 -0.164456 -0.109703 -0.080674 0.045829 0.045987 -0.079488 -0.103933 -0.018629 -0.079074 -0.042180 0.391246 0.077484 -0.091176 0.137123 -0.218997 -0.075923 0.377984 0.370228 -0.091504 0.314015 0.221610 -0.313325 -0.055816 -0.006080 -0.069404 0.031345 0.047770 0.132740 -0.257240 -0.093372 -0.055299 -0.154070 -0.080885 -0.011494 0.205192 -0.111751 -0.011403 0.346813
8 -0.073427 -0.191863 -0.047217 0.122539 -0.047602 0.155717 -0.005560 0.202491 0.201114 -0.099769 0.239474 0.276376 -0.255622 -0.028183 0.244404 -0.042382 -0.000500 0.006496 0.082420 -0.079430 0.050847 -0.011961 0.088634 -0.118664 0.041279 -0.075491 -0.107819 -0.101056 -0.113799 -0.008293 0.024253 -0.109149 -0.058905 0.009305 -0.071810 0.023111 0.418399 0.071583 -0.121276 0.174042 -0.186712 -0.061479 0.394998 0.348918 -0.024701 0.390207 0.288820 -0.247677 -0.069014 -0.053924 -0.044073 0.044211 0.096515 0.035091 -0.251234 -0.101686 -0.032738 -0.179409 -0.159146 0.012417 0.200416 -0.102039 -0.052893 0.354722
5 -0.022922 -0.195600 0.051151 -0.065660 0.040654 -0.057080 0.105646 0.292736 0.005218 -0.199538 0.322941 0.109269 -0.000225 -0.409060 0.192331 -0.541711 0.210950 -0.359147 0.033302 -0.003521 -0.073364 -0.034110 -0.169747 0.105490 0.172437 -0.126481 -0.144245 -0.046044 0.168160 0.005419 -0.090470 -0.127439 -0.281701 0.163141 -0.053750 -0.362103 0.319743 0.167487 0.250987 -0.117769 -0.081238 -0.311772 0.205944 0.426414 -0.298947 -0.032887 -0.077973 -0.509058 -0.136849 0.086722 -0.017123 -0.107813 -0.072525 0.182438 -0.345836 -0.133786 -0.037698 0.268439 -0.135360 0.043089 0.054780 -0.279268 0.065603 0.288296
6 -0.017573 -0.177060 -0.026707 0.100970 -0.052379 0.106360 0.038029 0.266619 0.149856 -0.101808 0.236391 0.212659 -0.168887 -0.198103 0.259664 -0.188886 0.054538 -0.118782 0.085501 -0.055596 -0.012369 -0.040457 0.008836 -0.113882 0.139387 -0.083465 -0.148756 -0.099860 -0.034241 0.047288 0.020213 -0.099507 -0.123714 0.017888 -0.069299 -0.090199 0.378528 0.104801 -0.037566 0.088966 -0.189578 -0.108332 0.350183 0.363682 -0.130521 0.257104 0.173648 -0.348149 -0.065936 0.015804 -0.056243 0.008085 0.022741 0.131851 -0.261909 -0.107595 -0.052141 -0.083743 -0.087573 -0.014161 0.184513 -0.132357 0.000958 0.330380
2 -0.050606 -0.179261 0.033324 -0.044395 0.037572 -0.017432 0.064569 0.237300 0.024890 -0.182391 0.294258 0.142965 -0.046202 -0.270643 0.159227 -0.394828 0.147422 -0.237772 0.024237 -0.029795 -0.026227 -0.016790 -0.089068 0.086726 0.084471 -0.117218 -0.107483 -0.046906 0.111185 -0.026306 -0.065536 -0.128560 -0.218236 0.142509 -0.057559 -0.241688 0.314931 0.127725 0.167374 -0.062426 -0.073031 -0.242850 0.234786 0.370295 -0.211461 0.053179 0.007476 -0.403024 -0.117418 0.029779 -0.001004 -0.080936 -0.028630 0.112904 -0.311998 -0.118489 -0.013175 0.190573 -0.173033 0.069960 0.065844 -0.216987 0.019029 0.266901
12 -0.304294 -0.257514 -0.076017 0.067923 0.080442 0.193009 -0.138950 -0.021514 0.257826 -0.215808 0.388697 0.450457 -0.430286 0.445889 0.131979 0.244912 -0.133365 0.248049 0.000108 -0.211951 0.273317 0.083920 0.242249 0.082534 -0.321642 -0.186414 0.070223 -0.126666 -0.224630 -0.284426 -0.018167 -0.209725 0.043482 0.066716 -0.039769 0.269196 0.490636 0.057462 -0.257646 0.240129 -0.067576 -0.023579 0.532731 0.279107 0.182073 0.664515 0.587252 -0.028096 -0.102573 -0.260328 0.063800 0.138767 0.222032 -0.346854 -0.252365 -0.143888 0.116162 -0.224373 -0.440868 0.188204 0.226922 -0.050911 -0.202903 0.416952
1 -0.039526 -0.213432 0.078262 -0.098336 0.057298 -0.083748 0.112318 0.314835 -0.012485 -0.221170 0.347648 0.099344 0.025514 -0.449252 0.180984 -0.604454 0.249221 -0.401809 0.035522 -0.009578 -0.078445 -0.040233 -0.192334 0.145865 0.175796 -0.137392 -0.136397 -0.030267 0.206989 -0.011155 -0.118382 -0.136556 -0.311190 0.195764 -0.064694 -0.413190 0.318989 0.175886 0.306440 -0.165503 -0.082073 -0.359960 0.212367 0.460929 -0.328256 -0.068618 -0.110475 -0.550945 -0.141702 0.105403 -0.015913 -0.122172 -0.093930 0.200551 -0.388349 -0.138152 -0.037206 0.334967 -0.167014 0.070056 0.050327 -0.313893 0.059385 0.294682
11 -0.271791 -0.235943 -0.066451 0.072208 0.072233 0.177513 -0.124394 0.014013 0.245900 -0.207228 0.351477 0.406026 -0.392819 0.377045 0.141282 0.189371 -0.108742 0.209509 0.000179 -0.188965 0.235763 0.065209 0.219811 0.064903 -0.272299 -0.166976 0.041881 -0.120364 -0.207830 -0.250239 -0.010095 -0.190498 0.040184 0.047199 -0.032998 0.231441 0.473094 0.060417 -0.228919 0.228415 -0.070628 -0.026816 0.494803 0.276551 0.149812 0.599545 0.530865 -0.043076 -0.100712 -0.223688 0.058098 0.117030 0.194397 -0.289834 -0.233284 -0.135335 0.094035 -0.196457 -0.405611 0.164144 0.204665 -0.062683 -0.167188 0.394062
