28 64
9 -0.085195 -0.246594 -0.003447 -0.313774 -0.152759 0.001430 0.079160 0.193946 0.397522 -0.126793 -0.044341 0.149622 0.080607 -0.418761 -0.031430 -0.240535 -0.010124 -0.025028 0.022843 -0.066744 0.138883 -0.040175 0.201819 0.199626 -0.158262 0.003867 -0.005106 -0.141255 -0.119073 -0.076559 -0.059119 0.181136 -0.174082 -0.178303 -0.148123 -0.343455 0.318109 0.020874 -0.007394 -0.154525 -0.440752 -0.322595 0.285266 0.479581 -0.136035 0.256915 0.191502 -0.223847 0.057266 -0.017636 -0.331247 0.268080 -0.032484 0.140620 -0.313948 -0.115810 -0.191818 0.001970 -0.348845 0.188769 0.148450 -0.189965 -0.195785 0.327048
8 -0.032828 -0.263614 0.004839 -0.204245 -0.051868 0.053273 0.084308 0.082202 0.243225 -0.020739 0.006307 0.172203 0.013146 -0.383664 0.168393 -0.268184 -0.058019 -0.120528 -0.000301 -0.141224 0.186699 0.099682 0.045673 0.164423 -0.081212 -0.022245 0.016631 -0.112834 -0.093869 0.095319 -0.054229 0.133218 -0.253164 -0.003985 -0.024404 -0.317388 0.263813 0.036948 -0.056750 -0.139167 -0.274568 -0.126811 0.234529 0.423638 -0.176277 0.295239 0.044494 -0.106598 0.052495 0.062850 -0.273015 0.194735 -0.005765 0.245841 -0.251933 -0.210663 -0.161833 -0.005921 -0.141842 -0.042725 0.182437 -0.146254 -0.057040 0.119509
7 0.006016 -0.253492 -0.016574 -0.181295 -0.006277 0.097584 0.101129 0.016639 0.091497 -0.045488 0.053106 0.058015 -0.014891 -0.407916 0.220211 -0.316241 0.057186 -0.229380 -0.004843 -0.158304 0.233657 0.150148 -0.077824 0.254603 0.014253 -0.175145 -0.053793 -0.076798 -0.077660 0.241788 0.024092 0.025961 -0.295334 0.063031 -0.036209 -0.326056 0.133436 0.125887 -0.066773 -0.155717 -0.218904 -0.078720 0.163362 0.350473 -0.209398 0.329916 0.005856 -0.135202 0.076703 0.115191 -0.217088 0.178350 -0.044780 0.318240 -0.303366 -0.297412 -0.108776 -0.044655 0.000318 -0.000657 0.127539 0.008587 0.072109 0.054321
13 0.012930 -0.229124 -0.001817 -0.186492 -0.026095 0.024013 0.035175 -0.117950 0.226151 0.213126 -0.065993 0.345844 -0.013343 -0.184181 0.346482 -0.294715 -0.353579 -0.285528 -0.140051 -0.178038 0.390263 0.194502 0.130112 0.158312 0.018001 0.086938 0.132589 -0.127019 -0.104507 0.138586 -0.107694 0.199760 -0.275370 -0.019335 0.149482 -0.268517 0.248062 0.060657 -0.179656 -0.129243 -0.221371 0.197450 0.142936 0.279160 -0.096635 0.436473 0.038808 0.142935 -0.000166 0.152748 -0.171270 0.140465 0.074948 0.271336 -0.057503 -0.201439 -0.151808 -0.100140 0.044958 -0.371318 0.329034 -0.252173 0.057388 -0.117246
25 0.098877 0.020928 -0.240230 -0.108850 -0.018257 -0.257417 0.061503 -0.137035 -0.154784 -0.369733 -0.031548 -0.496712 0.128504 -0.165917 -0.257637 -0.545351 0.478599 -0.539086 0.275868 0.431099 0.477301 0.093481 0.181371 0.844130 0.282271 -0.583375 -0.480088 -0.158106 -0.156354 0.648866 0.089558 -0.396649 -0.383733 -0.294236 -0.650213 -0.387435 -0.253220 0.210802 -0.259216 -0.388114 -0.028507 -0.167470 -0.342707 -0.061102 0.096584 0.410369 -0.032992 0.148427 0.122546 0.095908 0.237701 0.236285 -0.164804 0.203759 -0.322909 -0.276120 0.535229 -0.066254 0.070191 0.378045 -0.359367 0.390099 0.348319 0.251355
12 -0.100229 -0.173483 -0.012617 -0.352586 -0.222731 -0.175917 -0.027750 -0.108112 0.421388 0.279104 -0.233142 0.463882 0.039744 0.091507 0.129420 -0.325481 -0.472351 -0.305205 -0.190489 -0.027133 0.534322 0.010804 0.550038 0.218446 0.078395 0.184936 0.206809 -0.061452 -0.118295 -0.145161 -0.134385 0.269477 -0.125793 -0.273867 -0.010204 -0.179357 0.273725 0.067128 -0.118783 -0.078964 -0.441104 0.233274 0.081913 0.129822 0.064167 0.486477 0.326832 0.193180 -0.055393 0.128837 -0.086303 0.156163 0.229982 0.092225 -0.106635 0.025488 -0.106210 -0.175382 -0.225629 -0.145342 0.298675 -0.457006 -0.053916 0.036893
16 -0.070998 -0.127791 -0.182532 -0.313197 -0.169134 -0.258931 -0.047157 -0.130597 0.407676 0.379529 -0.258723 0.516605 0.048426 0.277683 0.276930 -0.564037 -0.509595 -0.489137 -0.408241 -0.019978 0.676064 0.161121 0.785431 0.250100 0.227310 0.077743 0.147042 -0.096629 -0.154816 0.025191 -0.148372 0.331707 -0.250303 -0.348472 0.015904 -0.182035 0.341290 -0.007510 -0.314404 -0.154338 -0.430115 0.470861 0.033796 0.071221 0.075523 0.597384 0.229939 0.449076 -0.160969 0.282936 0.076899 0.120552 0.319657 0.333722 -0.145264 -0.066569 0.053700 -0.180037 -0.156294 -0.323837 0.347438 -0.545904 -0.063583 -0.226242
2 0.024150 -0.214108 -0.080371 -0.174302 0.003433 0.043519 0.133543 0.095402 0.036104 -0.228782 0.074477 -0.129766 0.042194 -0.473387 0.057083 -0.392338 0.272373 -0.208390 0.084905 -0.045141 0.191536 0.139207 -0.055795 0.379996 -0.012624 -0.329944 -0.206475 -0.097911 -0.084877 0.332815 0.051429 -0.079626 -0.352338 0.015962 -0.244960 -0.369283 0.103246 0.090917 -0.068768 -0.242663 -0.181350 -0.229629 0.132868 0.362774 -0.206266 0.275549 -0.047472 -0.168625 0.100331 0.073494 -0.160987 0.211265 -0.093994 0.348709 -0.428116 -0.331992 0.039142 0.028531 -0.081782 0.207300 -0.036878 0.133990 0.045067 0.143300
6 0.091191 -0.273373 0.036431 -0.048689 0.107894 0.129581 0.104829 -0.077820 0.070370 -0.033066 0.123056 0.178196 -0.036270 -0.514171 0.332935 -0.281468 -0.129045 -0.278071 0.111933 -0.127810 0.247650 0.231297 -0.260765 0.284641 0.010034 -0.029800 -0.035806 -0.222955 -0.051749 0.339231 -0.084486 -0.038382 -0.411195 0.205604 0.073056 -0.400582 0.125389 0.088931 -0.128360 -0.205747 -0.026833 -0.020927 0.156155 0.410893 -0.206924 0.327770 -0.142503 -0.044215 0.158150 0.030396 -0.212631 0.136900 -0.125528 0.261630 -0.034275 -0.289737 -0.078661 0.006727 0.184707 -0.321073 0.199335 -0.009310 0.241885 0.049371
10 -0.108451 -0.234069 0.179990 -0.487959 -0.318948 -0.081126 0.096428 -0.137343 0.403194 0.046263 -0.287903 0.253034 0.024182 -0.173410 -0.118180 -0.167571 -0.318886 -0.201950 0.078197 0.017154 0.435849 -0.169886 0.316477 0.366041 -0.071484 0.191781 0.232343 -0.043009 -0.126334 -0.292476 -0.123426 0.124811 -0.006408 -0.274677 -0.188850 -0.250690 0.151805 0.177519 0.079995 -0.142542 -0.554606 -0.115821 0.089364 0.184542 0.093461 0.424649 0.507014 -0.156854 0.115467 0.005828 -0.267271 0.283189 0.096403 -0.139941 -0.151407 0.100007 -0.247383 -0.219510 -0.348335 0.213360 0.151958 -0.275362 -0.028829 0.384590
19 -0.086112 -0.294957 0.347339 -0.633904 -0.442327 -0.102324 0.124718 -0.347501 0.470199 0.138677 -0.440703 0.372647 0.010328 -0.186532 -0.162878 -0.102725 -0.574232 -0.294148 0.191572 0.086830 0.587156 -0.276652 0.316463 0.474569 -0.088416 0.402474 0.396297 -0.056059 -0.138590 -0.432672 -0.177031 0.130062 0.063102 -0.323263 -0.184635 -0.284558 0.061310 0.293030 0.172860 -0.152997 -0.636245 -0.083450 -0.010068 0.097065 0.190097 0.531997 0.679022 -0.195334 0.198832 -0.023574 -0.357072 0.320459 0.098328 -0.361807 0.021963 0.239449 -0.372210 -0.308949 -0.334874 0.172090 0.181739 -0.360426 0.104083 0.521982
3 0.060896 -0.125969 -0.114339 -0.103975 0.037266 -0.049457 0.123658 -0.042849 -0.121077 -0.298571 0.076633 -0.326937 0.030563 -0.394879 -0.035433 -0.450473 0.394724 -0.384776 0.201806 0.129746 0.288757 0.153056 -0.089318 0.587279 0.150051 -0.470309 -0.322776 -0.102048 -0.084484 0.536480 0.073274 -0.274644 -0.390578 -0.026904 -0.384629 -0.391676 -0.091500 0.200128 -0.134363 -0.280716 -0.048919 -0.207514 -0.081525 0.180106 -0.114339 0.320410 -0.064817 -0.076034 0.115192 0.098082 0.011201 0.207666 -0.157352 0.291070 -0.370549 -0.355449 0.235887 -0.022819 0.066079 0.249402 -0.194520 0.308089 0.241271 0.186692
22 0.284162 -0.098746 -0.053479 0.191971 0.194543 -0.158554 0.010877 -0.144877 0.182258 -0.302135 0.161387 0.237532 0.146577 -0.570456 0.032022 -0.286397 -0.326219 -0.355642 0.539329 0.471110 0.361898 0.144222 -0.192763 0.722844 0.053512 0.228991 -0.292585 -0.655455 -0.047153 0.445945 -0.352054 -0.317285 -0.640355 0.076719 -0.208037 -0.612806 0.044678 -0.111064 -0.297748 -0.413460 0.366261 -0.182061 -0.112360 0.445838 0.106767 0.278323 -0.334448 0.305654 0.336726 -0.376951 0.028311 0.079038 -0.316366 -0.139190 0.525385 0.002249 0.387691 0.196282 0.293458 -0.559526 0.037689 -0.038564 0.578825 0.483918
5 0.183144 -0.186134 -0.020054 0.061618 0.173277 0.014052 0.106229 -0.143743 -0.019413 -0.235169 0.155851 0.023749 0.011852 -0.537743 0.152941 -0.323999 -0.026807 -0.359785 0.343430 0.157039 0.303165 0.223028 -0.327776 0.571668 0.082490 -0.093957 -0.228881 -0.338141 -0.050430 0.491113 -0.131766 -0.281763 -0.519951 0.189697 -0.144936 -0.480181 -0.031640 0.064641 -0.175133 -0.306379 0.194787 -0.114086 -0.037299 0.339575 -0.084944 0.290307 -0.239485 0.060445 0.252035 -0.111852 -0.050048 0.126651 -0.214807 0.124098 0.100146 -0.232032 0.201555 0.066979 0.274380 -0.274178 -0.013498 0.136335 0.456103 0.229842
1 -0.077330 -0.251678 -0.021816 -0.307378 -0.127556 0.010197 0.102395 0.239740 0.317775 -0.196853 -0.008595 0.006978 0.101716 -0.483084 -0.050587 -0.285232 0.167438 -0.038304 0.040077 -0.081053 0.107458 -0.028475 0.141768 0.235916 -0.150447 -0.132762 -0.080018 -0.105833 -0.109757 0.017061 -0.007113 0.133741 -0.198171 -0.156006 -0.218604 -0.372667 0.272229 0.038224 0.011904 -0.196137 -0.421795 -0.389876 0.275644 0.491144 -0.191304 0.234702 0.126427 -0.272243 0.072132 0.028145 -0.330965 0.285758 -0.073192 0.227391 -0.437272 -0.191875 -0.153738 0.039416 -0.343432 0.299117 0.085355 -0.087586 -0.200386 0.309893
0 -0.040932 -0.224526 -0.097003 -0.263210 -0.088550 0.032506 0.092680 0.240234 0.207425 -0.218506 0.065729 -0.079458 0.098264 -0.489354 0.002102 -0.359325 0.293531 -0.095110 0.001446 -0.069402 0.106706 0.023050 0.089310 0.275083 -0.090874 -0.268003 -0.167976 -0.107873 -0.111312 0.163953 0.063003 0.072509 -0.255336 -0.118942 -0.223374 -0.388866 0.247667 0.079476 -0.027215 -0.201142 -0.360927 -0.359987 0.219630 0.467545 -0.231425 0.261162 0.050195 -0.264624 0.038295 0.066900 -0.265647 0.244413 -0.090718 0.309606 -0.499282 -0.281483 -0.084659 0.047816 -0.271078 0.307509 0.033154 0.003937 -0.138203 0.246656
11 -0.122102 -0.172170 0.006849 -0.366825 -0.227241 -0.155480 -0.011484 -0.031515 0.409815 0.182884 -0.222951 0.343415 0.042595 0.036413 0.058679 -0.317416 -0.323794 -0.263726 -0.155090 -0.029025 0.483994 -0.050947 0.495875 0.240574 0.066648 0.112031 0.159523 -0.011254 -0.117567 -0.172707 -0.094010 0.219427 -0.061932 -0.289252 -0.074942 -0.181111 0.262585 0.108715 -0.051366 -0.057477 -0.473301 0.125384 0.099548 0.148258 0.043333 0.443723 0.368756 0.079177 -0.039184 0.121167 -0.103897 0.177163 0.209772 0.090207 -0.204088 0.016479 -0.126830 -0.179712 -0.292861 0.024312 0.230508 -0.389417 -0.066211 0.116991
14 0.066765 -0.280936 0.020767 -0.076573 0.092413 0.096338 0.051593 -0.137119 0.128688 0.173268 0.044144 0.375068 -0.059118 -0.327584 0.456833 -0.304334 -0.329788 -0.306896 -0.039666 -0.195228 0.362378 0.299157 -0.106834 0.201310 0.042690 0.075988 0.084211 -0.169249 -0.077077 0.285556 -0.109627 0.097234 -0.408901 0.201391 0.204891 -0.325145 0.198101 0.042180 -0.180166 -0.142749 -0.058555 0.215204 0.160642 0.357715 -0.178081 0.401193 -0.116333 0.140568 0.076383 0.108220 -0.175073 0.091421 0.020028 0.315378 0.007589 -0.263437 -0.112633 -0.023034 0.178541 -0.506082 0.305741 -0.193650 0.215285 -0.134362
15 0.070615 -0.322522 0.013202 -0.060600 0.144552 0.178564 0.096731 -0.074345 0.087027 0.059019 0.142778 0.275809 -0.057288 -0.494773 0.490277 -0.342432 -0.192972 -0.303055 -0.017189 -0.252916 0.296461 0.330509 -0.244816 0.217975 0.008881 -0.032901 -0.008499 -0.196324 -0.058847 0.365366 -0.083735 0.054508 -0.454671 0.260378 0.186128 -0.397558 0.196600 0.063303 -0.157729 -0.173661 -0.051087 0.092060 0.219674 0.470485 -0.260428 0.388245 -0.201433 0.015301 0.108359 0.093951 -0.234684 0.118499 -0.065186 0.409315 -0.093655 -0.377247 -0.137054 -0.004217 0.216425 -0.434374 0.302573 -0.069605 0.216210 -0.112115
4 0.096983 -0.106124 -0.035345 -0.055400 0.060749 -0.050710 0.088530 -0.023766 -0.035845 -0.352555 0.111765 -0.226406 0.076986 -0.509131 -0.087074 -0.335319 0.258497 -0.320915 0.348574 0.207018 0.277462 0.074117 -0.210015 0.620171 0.096858 -0.274126 -0.310668 -0.190614 -0.048433 0.416758 -0.025042 -0.323170 -0.381557 0.011085 -0.369017 -0.441156 -0.075669 0.167891 -0.075243 -0.272596 0.021147 -0.290850 -0.055409 0.271296 -0.054698 0.253643 -0.076843 -0.106698 0.204031 -0.082788 -0.017312 0.179910 -0.207270 0.120045 -0.181063 -0.215526 0.217741 0.008246 0.080903 0.161991 -0.142572 0.251735 0.336477 0.355184
27 0.078005 0.012935 -0.245588 -0.136535 -0.016717 -0.252966 0.056392 -0.113991 -0.164962 -0.324139 -0.043445 -0.486156 0.113785 -0.115121 -0.225192 -0.573791 0.491496 -0.564492 0.209150 0.367801 0.522845 0.111296 0.215707 0.832271 0.316337 -0.616843 -0.475006 -0.087420 -0.156714 0.638019 0.108418 -0.380833 -0.367641 -0.300492 -0.623548 -0.367892 -0.233101 0.230395 -0.251849 -0.353488 -0.074965 -0.113194 -0.322818 -0.071181 0.083618 0.441572 0.008384 0.148607 0.083599 0.149166 0.269934 0.233148 -0.121019 0.264749 -0.391499 -0.301755 0.510858 -0.094108 0.058836 0.399581 -0.338728 0.371945 0.326992 0.197829
20 -0.127878 -0.317889 0.403114 -0.755950 -0.527225 -0.125610 0.163143 -0.378343 0.471242 0.110364 -0.514070 0.299960 0.022566 -0.230455 -0.248085 -0.126341 -0.538251 -0.330525 0.231031 0.075480 0.677067 -0.333021 0.341862 0.581439 -0.086459 0.367393 0.437240 0.005401 -0.152795 -0.488089 -0.162212 0.096410 0.099847 -0.380883 -0.274131 -0.309549 0.039714 0.377067 0.225798 -0.181672 -0.771952 -0.140624 -0.028950 0.080421 0.210575 0.598110 0.823665 -0.281298 0.231317 -0.010817 -0.394449 0.394097 0.122253 -0.398797 -0.089787 0.248553 -0.411552 -0.394895 -0.430764 0.353331 0.154352 -0.323844 0.109953 0.616675
18 -0.096671 -0.130573 -0.261504 -0.317118 -0.159779 -0.260758 -0.081513 -0.034064 0.405030 0.394606 -0.205189 0.479738 0.065642 0.299442 0.306507 -0.638999 -0.376051 -0.493392 -0.504195 -0.046087 0.672916 0.168131 0.839816 0.215827 0.282403 -0.038242 0.086546 -0.041084 -0.142602 0.087300 -0.068914 0.355744 -0.241067 -0.348287 0.010220 -0.182611 0.361886 0.028190 -0.310387 -0.097662 -0.469748 0.479217 0.046610 0.078318 -0.000159 0.617003 0.207862 0.416223 -0.210004 0.338412 0.090090 0.097197 0.350980 0.455194 -0.299740 -0.133415 0.064779 -0.182923 -0.186907 -0.241457 0.340654 -0.530201 -0.112768 -0.279490
17 -0.100322 -0.148273 -0.224148 -0.339640 -0.190469 -0.263250 -0.065863 -0.070492 0.422699 0.426592 -0.233703 0.515897 0.060169 0.304301 0.311215 -0.612321 -0.434743 -0.510447 -0.495957 -0.058722 0.695211 0.156624 0.842034 0.208476 0.268002 0.004986 0.126984 -0.039722 -0.149568 0.061244 -0.078661 0.371247 -0.227584 -0.359639 0.023153 -0.185703 0.369542 0.043585 -0.304919 -0.099538 -0.491311 0.486262 0.042952 0.076755 0.008534 0.632088 0.243095 0.424588 -0.204890 0.348233 0.063115 0.110306 0.358442 0.414896 -0.266368 -0.125877 0.022768 -0.188885 -0.180407 -0.273218 0.363635 -0.553628 -0.099513 -0.278387
24 0.274126 -0.104619 -0.029312 0.226133 0.233005 -0.106442 0.003722 -0.042155 0.230284 -0.335251 0.241336 0.248813 0.157504 -0.683676 0.043081 -0.266984 -0.283161 -0.289141 0.547004 0.414844 0.299110 0.138276 -0.301324 0.704517 0.031710 0.235693 -0.315931 -0.650984 -0.041171 0.421451 -0.367108 -0.301259 -0.651199 0.131567 -0.177185 -0.642667 0.125110 -0.122812 -0.247325 -0.376026 0.366781 -0.224569 -0.017458 0.556579 0.040498 0.225736 -0.364086 0.239042 0.336447 -0.420291 0.005669 0.080389 -0.324910 -0.103354 0.484480 -0.009903 0.336915 0.223450 0.253289 -0.549597 0.058394 -0.061181 0.567376 0.516832
26 0.083856 0.038249 -0.255861 -0.123577 -0.018193 -0.276808 0.044803 -0.100809 -0.149858 -0.345008 -0.040619 -0.504585 0.142689 -0.127241 -0.254289 -0.552870 0.501652 -0.540718 0.215590 0.403474 0.501561 0.092504 0.243547 0.819941 0.299585 -0.611184 -0.494788 -0.118910 -0.161473 0.642268 0.111200 -0.363995 -0.355336 -0.337377 -0.648569 -0.375296 -0.220484 0.217000 -0.264436 -0.354498 -0.065229 -0.151840 -0.332035 -0.070457 0.084893 0.430240 -0.014986 0.156481 0.075148 0.139178 0.269426 0.238886 -0.139920 0.237071 -0.375522 -0.289536 0.527923 -0.077946 0.037566 0.402960 -0.335242 0.363218 0.311168 0.228756
21 -0.117904 -0.320503 0.434839 -0.745973 -0.517801 -0.096287 0.164900 -0.392545 0.492077 0.109254 -0.500134 0.339523 0.013531 -0.283007 -0.241600 -0.076181 -0.581873 -0.295219 0.275200 0.079967 0.638434 -0.336594 0.280119 0.563537 -0.129230 0.424510 0.455138 -0.027191 -0.145657 -0.512662 -0.182358 0.100186 0.093856 -0.341907 -0.255777 -0.326240 0.037712 0.361523 0.248731 -0.179872 -0.742580 -0.158174 -0.008346 0.111524 0.203015 0.568925 0.798509 -0.296237 0.262997 -0.050612 -0.418635 0.393418 0.096498 -0.440717 -0.022869 0.276475 -0.439510 -0.372263 -0.417570 0.306594 0.161639 -0.337825 0.115309 0.648522
23 0.296134 -0.064982 -0.080198 0.253623 0.233431 -0.167381 -0.013692 -0.035769 0.266155 -0.394348 0.232071 0.253595 0.193905 -0.674431 -0.024115 -0.289667 -0.306311 -0.307903 0.604391 0.536592 0.327908 0.115787 -0.243362 0.787661 0.048707 0.251945 -0.380235 -0.734321 -0.053346 0.440504 -0.408012 -0.340763 -0.687561 0.074728 -0.258938 -0.682871 0.121158 -0.164572 -0.298013 -0.418832 0.405732 -0.257021 -0.059320 0.558467 0.106951 0.226989 -0.384716 0.309588 0.350380 -0.478343 0.057247 0.077423 -0.338584 -0.167749 0.548612 0.023957 0.428391 0.245814 0.250949 -0.571051 0.031857 -0.073982 0.606125 0.594722
