28 64
22 0.476417 -0.163378 0.069895 0.130362 -0.086042 -0.123959 -0.206007 0.078790 0.039936 -0.019966 -0.086192 0.265971 0.334857 -0.531149 0.084710 -0.185894 -0.389417 -0.046847 0.587607 0.540108 0.289599 -0.182036 0.234524 0.346506 -0.109622 0.665602 -0.233870 -0.536002 0.004315 0.369595 -0.186968 -0.122332 -0.420701 -0.047677 -0.173682 -0.431237 0.096634 -0.242537 -0.111468 -0.239817 0.236186 -0.169384 -0.234482 0.455496 0.282902 0.526937 -0.400070 0.223738 0.285146 -0.355602 -0.160707 -0.256878 -0.394745 -0.063850 0.455001 0.300592 0.176390 0.253599 0.078829 -0.425519 0.137486 -0.114603 0.427762 0.583508
6 0.044771 -0.366276 -0.306266 -0.133251 -0.242727 0.093129 0.202851 0.154422 0.294982 0.030354 -0.124148 0.034360 -0.132943 -0.015570 0.243398 -0.423009 0.151508 -0.355439 0.030176 0.035016 0.363454 -0.007194 0.345775 0.155906 0.333710 -0.308028 -0.250393 -0.204579 -0.398541 0.344317 0.213463 -0.069194 -0.009832 -0.357703 -0.110323 -0.247205 0.140917 0.188076 -0.337398 -0.132445 -0.627701 0.120056 -0.034032 0.070352 -0.120977 0.614343 0.343341 -0.102645 0.194374 0.218193 -0.171667 0.355906 0.096262 0.264900 -0.227168 -0.297936 -0.040962 -0.400155 0.017860 0.037319 0.041882 0.057368 0.129852 0.211377
25 0.127795 -0.376307 -0.381905 -0.308012 -0.346981 0.004742 0.167448 0.054563 0.153421 0.001101 -0.315142 -0.334234 0.036522 0.022014 0.107841 -0.429366 0.401846 -0.490969 0.104386 0.030587 0.560653 -0.100123 0.459726 0.467342 0.331655 -0.641072 -0.309510 -0.226778 -0.580079 0.510414 0.395144 -0.075617 -0.013265 -0.664170 -0.303882 -0.289054 -0.200216 0.242510 -0.472304 -0.514971 -0.749652 0.135368 -0.227016 -0.180797 -0.077123 0.790360 0.370055 0.064283 0.357501 0.460873 -0.192821 0.610649 -0.092218 0.288159 -0.326729 -0.397932 0.121062 -0.357481 0.075387 0.295069 -0.034789 0.291742 0.172944 0.173054
19 0.331429 -0.193103 0.050266 0.008605 -0.160524 -0.078839 -0.128531 0.034823 0.071910 0.023017 -0.111621 0.252309 0.236801 -0.356642 0.076063 -0.134086 -0.310842 -0.037282 0.396259 0.365810 0.248008 -0.158696 0.248818 0.251900 -0.121997 0.467755 -0.146051 -0.386080 -0.060621 0.230880 -0.070068 -0.022187 -0.294008 -0.086527 -0.141821 -0.297610 0.092005 -0.164030 -0.072416 -0.175748 0.078874 -0.112023 -0.168090 0.328235 0.187628 0.453067 -0.217427 0.164416 0.193345 -0.213904 -0.194716 -0.151288 -0.246132 -0.080958 0.269564 0.184270 0.065063 0.199709 -0.000256 -0.257660 0.101658 -0.123185 0.302173 0.431322
5 -0.014336 -0.374054 -0.218050 -0.165136 -0.115212 0.047155 0.170266 0.193381 0.231223 -0.085089 0.021016 0.094838 -0.123909 -0.089601 0.228320 -0.533378 0.128580 -0.394922 0.004290 -0.049920 0.350689 0.043810 0.205260 0.270672 0.234540 -0.312261 -0.219119 -0.139120 -0.252866 0.217445 0.095943 -0.137165 -0.147056 -0.208604 -0.062486 -0.289703 0.242762 0.217153 -0.196319 -0.144860 -0.455255 0.014971 0.093761 0.219368 -0.155039 0.492325 0.311038 -0.181478 0.080500 0.149033 -0.096252 0.254291 0.068698 0.260290 -0.301860 -0.332765 -0.020024 -0.192803 -0.051523 0.067041 0.035367 -0.016547 0.128245 0.219556
9 0.090999 -0.294280 -0.205148 -0.010156 -0.194494 0.077076 0.096011 0.148939 0.322107 0.016517 -0.027618 0.322043 -0.090457 -0.111896 0.229861 -0.286363 -0.132670 -0.115755 0.081356 0.186648 0.197986 -0.009850 0.324254 0.001779 0.146832 0.097991 -0.203722 -0.285664 -0.221460 0.192981 0.086584 -0.008921 -0.094218 -0.139473 -0.048140 -0.185247 0.278870 0.008249 -0.201872 0.075795 -0.339034 0.022915 0.014486 0.250916 -0.039769 0.456471 0.151454 -0.090149 0.105963 -0.091296 -0.201267 0.061320 0.103084 0.096732 -0.023860 -0.069475 -0.055385 -0.218256 -0.053326 -0.131864 0.076031 -0.117520 0.141013 0.315966
11 -0.078589 -0.449237 0.135430 -0.287963 -0.155881 0.067453 0.037993 0.046110 0.188383 0.036520 0.000909 0.386711 -0.027790 -0.154337 0.308674 -0.371908 -0.242229 -0.172797 -0.022122 -0.204943 0.307313 0.061546 0.211353 0.151045 -0.255189 0.124688 0.027273 -0.063461 -0.142045 -0.076228 -0.032747 0.150013 -0.226765 -0.025710 0.059990 -0.196081 0.425730 0.033936 0.086604 -0.043436 -0.237158 -0.036731 0.204836 0.470657 -0.054956 0.480078 0.081410 -0.016570 -0.105949 0.059087 -0.261353 0.011716 0.056750 0.149190 -0.282012 -0.246180 -0.260755 0.176671 -0.272892 -0.044934 0.183304 -0.283752 0.060962 0.105507
10 -0.019950 -0.335608 -0.077703 -0.106107 -0.105145 0.074475 0.132228 0.143241 0.246066 -0.014142 0.032667 0.279205 -0.110218 -0.104954 0.264085 -0.412010 -0.102203 -0.267873 -0.000261 -0.037913 0.294525 0.061126 0.209798 0.122426 0.104158 -0.003462 -0.131439 -0.141471 -0.158623 0.108270 -0.020693 -0.052633 -0.139282 -0.083399 0.002642 -0.235467 0.358741 0.095578 -0.110345 -0.010152 -0.349467 0.013556 0.132974 0.337269 -0.064636 0.448801 0.195620 -0.123023 0.016840 0.016258 -0.121529 0.084912 0.105627 0.199641 -0.184315 -0.207620 -0.117067 -0.146556 -0.093885 -0.087929 0.134093 -0.138094 0.114426 0.182836
12 -0.029199 -0.297445 0.283783 -0.273750 -0.245134 0.010022 0.002998 -0.175366 0.088216 0.248384 -0.159311 0.355960 0.121390 -0.139784 0.237168 -0.109168 -0.435399 -0.114252 0.033148 -0.147865 0.329646 0.049822 0.249345 0.053160 -0.288570 0.409150 0.148829 -0.055748 -0.104843 -0.051880 -0.091780 0.287804 -0.163468 -0.054299 0.059041 -0.157438 0.257678 -0.088563 0.086394 -0.065939 -0.215532 0.040201 -0.007224 0.338814 0.097969 0.442115 -0.094581 0.218838 -0.058172 0.050252 -0.276977 -0.029307 0.010878 0.040947 -0.049265 -0.072676 -0.310502 0.124469 -0.158561 -0.203833 0.283150 -0.268341 0.100838 -0.030684
18 0.209491 -0.188431 -0.055184 0.058857 -0.196245 -0.037329 0.014463 0.065962 0.215432 0.111194 -0.102057 0.329102 0.084626 -0.195379 0.152545 -0.166700 -0.316868 -0.081702 0.217632 0.313951 0.237032 -0.085449 0.317216 0.035138 0.101514 0.408436 -0.133393 -0.319793 -0.091224 0.215536 -0.040379 -0.009224 -0.129448 -0.089937 -0.064780 -0.226727 0.202662 -0.092960 -0.145347 0.026823 -0.145445 0.015731 -0.147159 0.243289 0.096466 0.421063 -0.040366 0.077968 0.159494 -0.182863 -0.173039 -0.086212 0.001573 -0.018804 0.214068 0.133224 -0.019215 -0.115321 0.012057 -0.293752 0.131623 -0.150511 0.246137 0.334443
13 -0.056158 -0.347676 0.411092 -0.438574 -0.220345 -0.002122 -0.027770 -0.223038 0.009614 0.260784 -0.211664 0.225016 0.191063 -0.194817 0.226555 -0.152503 -0.362057 -0.172974 0.003542 -0.334412 0.402180 0.060912 0.148687 0.204543 -0.451948 0.310938 0.249699 0.075773 -0.116725 -0.094216 -0.113502 0.365798 -0.219257 -0.081503 0.074107 -0.212324 0.227813 -0.032891 0.182549 -0.222969 -0.187803 0.012309 0.037826 0.381763 0.075117 0.459240 -0.124063 0.276893 -0.105992 0.219593 -0.318484 0.044872 -0.064714 0.135420 -0.195693 -0.190293 -0.386659 0.296306 -0.204185 -0.125522 0.289791 -0.272559 0.047683 -0.170396
17 0.077348 -0.237483 0.205495 -0.159356 -0.310357 -0.027996 0.004534 -0.159869 0.134190 0.281498 -0.224323 0.358779 0.158643 -0.124387 0.178506 -0.011921 -0.462501 -0.046365 0.099307 0.050416 0.290337 -0.046623 0.332581 -0.009986 -0.193004 0.509081 0.101213 -0.154665 -0.114114 0.030666 -0.046511 0.261912 -0.092708 -0.097153 -0.001693 -0.140061 0.195483 -0.141256 0.008994 -0.020172 -0.186891 0.054645 -0.144731 0.246992 0.136719 0.430643 -0.107998 0.271410 0.039285 -0.021967 -0.297995 -0.066400 0.021873 -0.062912 0.116323 0.060689 -0.248908 0.052018 -0.099082 -0.262514 0.237622 -0.240935 0.162964 0.060802
2 -0.143853 -0.462110 0.183510 -0.429476 -0.072293 0.011719 0.070449 0.091283 0.053180 -0.049216 0.074755 0.225489 0.025217 -0.227515 0.265360 -0.583281 -0.079147 -0.404736 -0.081781 -0.403622 0.427018 0.109135 0.075694 0.408127 -0.227087 -0.137268 0.027933 0.067236 -0.072035 -0.075896 -0.075460 0.036483 -0.349083 -0.024834 0.047597 -0.318577 0.410575 0.183967 0.151162 -0.256570 -0.270533 -0.083851 0.285833 0.506285 -0.143475 0.440621 0.144437 -0.102400 -0.150402 0.198386 -0.141960 0.090586 -0.021096 0.288364 -0.497349 -0.422211 -0.226633 0.291560 -0.272718 0.109177 0.173200 -0.211179 0.059944 0.006625
16 0.072184 -0.089132 0.338714 -0.177933 -0.313944 -0.116292 0.050360 -0.259638 -0.009321 0.383100 -0.319722 0.261251 0.275236 -0.166132 0.131308 -0.019480 -0.572227 -0.235215 0.100576 -0.011780 0.428294 -0.008279 0.295635 0.080023 -0.056155 0.617459 0.146671 -0.097220 -0.040076 0.065387 -0.169496 0.216902 -0.105486 -0.146799 0.026104 -0.216804 0.128537 -0.130699 -0.006283 -0.140301 -0.259154 0.141178 -0.271885 0.175296 0.221104 0.375619 -0.140706 0.389766 0.057147 0.027013 -0.140346 -0.062340 -0.028662 -0.043126 0.247867 0.107136 -0.260341 -0.032836 0.025556 -0.368707 0.331416 -0.198215 0.287935 -0.069387
7 0.081075 -0.279404 -0.332380 -0.012419 -0.208062 0.069615 0.219416 0.197401 0.342100 0.018676 -0.072644 0.137712 -0.142680 -0.079971 0.239020 -0.426804 0.056506 -0.334197 0.046532 0.158512 0.304680 0.002408 0.303978 0.095566 0.453054 -0.152174 -0.287136 -0.250669 -0.304212 0.333656 0.131215 -0.126771 -0.036180 -0.266631 -0.085922 -0.269706 0.206535 0.143569 -0.330130 -0.013325 -0.564477 0.111045 -0.052491 0.124397 -0.106350 0.503308 0.314361 -0.149984 0.193930 0.061151 -0.113753 0.247462 0.153396 0.227663 -0.099679 -0.169321 -0.009348 -0.471612 0.066075 -0.076965 0.042431 0.000072 0.195932 0.293053
8 0.105116 -0.253028 -0.287586 0.065129 -0.203319 0.070515 0.213524 0.175302 0.345958 0.067829 -0.084249 0.199430 -0.154637 -0.070780 0.249062 -0.365286 -0.035323 -0.265848 0.086955 0.231547 0.253076 -0.002286 0.299936 -0.003363 0.445130 0.013459 -0.260262 -0.259861 -0.263230 0.331655 0.078845 -0.115060 -0.004144 -0.199049 -0.062040 -0.243351 0.237343 0.089671 -0.300830 0.084547 -0.485323 0.126714 -0.095985 0.132690 -0.061152 0.472491 0.244345 -0.116249 0.182957 -0.005311 -0.115622 0.156372 0.186266 0.179924 0.006113 -0.084062 -0.035650 -0.486631 0.074727 -0.186785 0.044711 -0.047964 0.214007 0.304435
1 -0.157313 -0.435985 0.505198 -0.589620 -0.157016 -0.030284 -0.026973 -0.164356 -0.048164 0.195812 -0.123102 0.204173 0.215624 -0.281223 0.256521 -0.361454 -0.284637 -0.326003 -0.050726 -0.536303 0.485470 0.109140 0.052348 0.380466 -0.511471 0.176616 0.286883 0.188261 -0.058818 -0.175795 -0.172302 0.338364 -0.343866 -0.030691 0.110537 -0.315378 0.310720 0.065619 0.309525 -0.345992 -0.215479 -0.052282 0.171697 0.521886 -0.015377 0.451170 -0.095789 0.187864 -0.188296 0.312332 -0.284359 0.068202 -0.107372 0.253127 -0.413061 -0.335939 -0.426959 0.464881 -0.301075 -0.013553 0.314405 -0.325154 0.027764 -0.218729
20 0.292662 -0.003339 0.249122 -0.046271 -0.274114 -0.249575 -0.044560 -0.140843 -0.110394 0.265851 -0.306461 0.120112 0.446030 -0.350434 -0.020906 -0.046770 -0.492699 -0.205535 0.349601 0.259894 0.424905 -0.159587 0.267539 0.275830 0.035518 0.665646 0.027186 -0.257578 0.045433 0.220496 -0.188539 0.010277 -0.217253 -0.153826 -0.094261 -0.327556 -0.010844 -0.169543 -0.058555 -0.298315 -0.059492 0.032972 -0.427435 0.143045 0.273496 0.354175 -0.243712 0.382355 0.231468 -0.128690 -0.079316 -0.135687 -0.218460 -0.139300 0.423298 0.287945 -0.003011 0.056828 0.097951 -0.351665 0.233433 -0.085639 0.425157 0.205035
0 -0.090279 -0.528518 0.244514 -0.529110 -0.116807 0.070111 -0.076548 -0.009863 0.024311 -0.022745 0.012719 0.170094 0.088409 -0.253310 0.272728 -0.426581 -0.030161 -0.214295 -0.007790 -0.408475 0.357069 0.051574 0.077303 0.422808 -0.530752 -0.114359 0.099762 0.039541 -0.180867 -0.105393 0.011264 0.230372 -0.366199 -0.063354 0.024038 -0.273148 0.298889 0.097426 0.214010 -0.336942 -0.162708 -0.140077 0.267634 0.520540 -0.092380 0.538920 -0.013589 0.016239 -0.148242 0.264434 -0.318105 0.111744 -0.153747 0.242231 -0.523538 -0.408329 -0.266343 0.504799 -0.356461 0.168771 0.150386 -0.234498 -0.031596 0.009087
4 -0.094151 -0.323194 -0.062012 -0.205676 -0.055764 0.007245 0.137593 0.208654 0.147822 -0.087565 0.120870 0.165770 -0.057687 -0.173778 0.229765 -0.603690 0.035040 -0.504609 -0.029878 -0.170083 0.403897 0.086905 0.115461 0.332258 0.195696 -0.221443 -0.172254 -0.064288 -0.108067 0.130137 -0.033218 -0.175708 -0.242104 -0.116954 -0.005159 -0.358586 0.354460 0.258457 -0.085837 -0.168244 -0.422172 -0.029629 0.188265 0.366916 -0.143730 0.415445 0.274679 -0.206911 -0.022883 0.113071 0.007201 0.144674 0.025604 0.285515 -0.331494 -0.353301 -0.075104 -0.074024 -0.074719 0.023357 0.142302 -0.078761 0.169888 0.150373
21 0.236008 -0.042274 0.309440 -0.149083 -0.378046 -0.176605 -0.046255 -0.280935 -0.068698 0.389774 -0.402227 0.170905 0.418278 -0.267375 0.031902 0.084347 -0.556433 -0.124757 0.288190 0.191812 0.429050 -0.141989 0.336996 0.167972 -0.099164 0.704992 0.115282 -0.217692 -0.056041 0.162383 -0.108763 0.196713 -0.127861 -0.192445 -0.086545 -0.246112 -0.037038 -0.201414 -0.026360 -0.238729 -0.151052 0.107658 -0.446934 0.092891 0.288916 0.432721 -0.258888 0.477614 0.204497 -0.044453 -0.187914 -0.086987 -0.153452 -0.164065 0.385190 0.263971 -0.139510 0.031514 0.039691 -0.342226 0.264631 -0.132307 0.360018 0.094010
3 -0.128282 -0.440961 0.065943 -0.342845 0.013805 0.006238 0.092259 0.213084 0.065159 -0.160453 0.180444 0.153597 -0.031550 -0.280257 0.258280 -0.730911 0.069000 -0.531284 -0.033745 -0.330475 0.432980 0.115108 0.016786 0.510714 -0.022249 -0.282981 -0.110384 0.011272 -0.059278 0.053330 -0.087809 -0.149229 -0.394493 -0.030470 0.019416 -0.425806 0.417394 0.284400 0.066964 -0.277430 -0.293023 -0.122555 0.304011 0.527841 -0.190988 0.447309 0.214776 -0.226860 -0.113003 0.178950 -0.025332 0.120118 -0.068967 0.349697 -0.499425 -0.468689 -0.118298 0.204266 -0.196580 0.117133 0.121973 -0.134499 0.124229 0.134965
14 -0.077193 -0.216596 0.529131 -0.417097 -0.273350 -0.047298 0.016576 -0.357330 -0.057831 0.420734 -0.331617 0.222210 0.263044 -0.160419 0.204757 -0.050667 -0.518424 -0.266482 -0.015543 -0.333786 0.491771 0.095326 0.190860 0.156405 -0.328547 0.508229 0.301547 0.103842 -0.094322 -0.057806 -0.183145 0.400153 -0.145258 -0.120468 0.109930 -0.224661 0.170934 -0.071878 0.145098 -0.213817 -0.293069 0.122266 -0.117973 0.290429 0.173548 0.426373 -0.168982 0.434075 -0.088884 0.239363 -0.232217 0.020078 -0.048391 0.094590 -0.010964 -0.106316 -0.454823 0.159946 -0.101651 -0.281126 0.390109 -0.274250 0.165372 -0.304079
15 -0.029061 -0.102898 0.516996 -0.327198 -0.332269 -0.078772 0.058030 -0.415787 -0.066487 0.497968 -0.407379 0.203798 0.321392 -0.133547 0.165239 0.034943 -0.631184 -0.283026 0.011655 -0.215498 0.526987 0.063033 0.269194 0.084859 -0.189229 0.644469 0.264376 0.036980 -0.070060 0.006922 -0.206920 0.379403 -0.053271 -0.178560 0.075843 -0.207743 0.093619 -0.120628 0.075793 -0.177993 -0.345363 0.200395 -0.277680 0.166673 0.260781 0.423240 -0.210499 0.511050 -0.008429 0.169649 -0.179449 -0.004151 -0.028233 0.035164 0.162230 0.008630 -0.428752 -0.028761 0.011632 -0.368951 0.436715 -0.206597 0.253033 -0.309901
23 0.522933 -0.114775 0.096901 0.119489 -0.100299 -0.159749 -0.234531 0.052179 -0.008897 0.001967 -0.136979 0.202050 0.417095 -0.566226 0.025323 -0.148538 -0.394954 -0.062883 0.630985 0.569604 0.325551 -0.217779 0.225936 0.421374 -0.110054 0.691232 -0.232082 -0.546273 0.005472 0.407265 -0.198815 -0.118746 -0.437086 -0.088202 -0.208626 -0.464260 0.025085 -0.258923 -0.120814 -0.318274 0.257897 -0.165937 -0.299737 0.419641 0.326409 0.524159 -0.445101 0.297833 0.314416 -0.338576 -0.140543 -0.253805 -0.454940 -0.089343 0.506305 0.330251 0.197873 0.287899 0.114309 -0.437097 0.141382 -0.087818 0.470475 0.571889
24 0.613737 -0.131734 0.082178 0.152441 -0.077527 -0.180398 -0.281015 0.086547 -0.023954 -0.041673 -0.125162 0.164465 0.467028 -0.647116 0.013938 -0.185869 -0.362882 -0.066316 0.731536 0.648611 0.341069 -0.254188 0.231526 0.508942 -0.121459 0.707446 -0.290786 -0.622150 0.001588 0.487450 -0.204203 -0.166309 -0.506606 -0.110778 -0.246815 -0.523301 -0.008285 -0.276808 -0.143355 -0.393601 0.329158 -0.206831 -0.330046 0.456420 0.346466 0.585798 -0.505946 0.307741 0.377607 -0.372430 -0.145880 -0.261519 -0.564249 -0.071199 0.556730 0.369199 0.278586 0.351221 0.139384 -0.444918 0.115281 -0.055351 0.511419 0.670315
26 0.104298 -0.316911 -0.323507 -0.324767 -0.327418 -0.037007 0.233482 0.021662 0.089824 0.058117 -0.365840 -0.403678 0.061598 0.036147 0.089240 -0.442353 0.382972 -0.607539 0.057861 -0.044607 0.641037 -0.059744 0.437043 0.494650 0.427241 -0.641628 -0.290395 -0.152948 -0.551944 0.533047 0.340698 -0.102402 0.019646 -0.696631 -0.274980 -0.332182 -0.208262 0.279642 -0.484709 -0.545397 -0.815051 0.182918 -0.278131 -0.232848 -0.075030 0.759636 0.396576 0.098362 0.341508 0.537071 -0.095700 0.648781 -0.079836 0.318711 -0.297745 -0.423765 0.087321 -0.431291 0.134858 0.249100 0.007111 0.310550 0.207350 0.080494
27 0.128912 -0.352973 -0.408353 -0.274389 -0.300165 -0.014575 0.227138 0.127669 0.131263 -0.008495 -0.287914 -0.354392 0.014211 0.011860 0.101716 -0.513741 0.425402 -0.596682 0.094575 0.010264 0.598470 -0.070472 0.428882 0.497670 0.469782 -0.672657 -0.362217 -0.199788 -0.536340 0.555708 0.347315 -0.187141 -0.025004 -0.659479 -0.276568 -0.354889 -0.164208 0.292932 -0.503913 -0.516257 -0.794479 0.144696 -0.223845 -0.170758 -0.101562 0.760589 0.435702 0.001368 0.357866 0.462548 -0.086153 0.617550 -0.085788 0.336840 -0.307208 -0.423430 0.135576 -0.428428 0.140213 0.259223 -0.033849 0.323932 0.204648 0.184040
