23 64
15 -0.173010 -0.280885 0.332044 -0.298317 -0.218209 -0.168405 -0.032679 -0.167555 0.307747 0.580526 -0.080418 0.581126 0.302528 0.283943 0.015348 -0.000502 -0.509900 -0.528868 -0.402951 -0.030585 0.626337 -0.124887 0.497690 -0.001523 0.112059 0.488265 0.069357 0.206764 0.219429 0.073760 -0.067089 0.392863 0.233433 -0.094149 0.078393 -0.313181 -0.011113 0.270527 0.214554 0.330090 -0.321523 0.012963 -0.244917 0.141442 0.051867 0.360324 -0.047597 0.268567 -0.196555 0.200864 -0.241268 -0.260357 0.077846 -0.024472 -0.006253 -0.186648 -0.609691 0.089257 0.213052 -0.321101 0.505616 -0.295358 0.243942 -0.443526
17 -0.058454 -0.295928 0.316661 -0.247251 -0.330429 -0.241039 0.030344 -0.065770 0.445110 0.762747 -0.106916 0.713314 0.489216 0.263738 -0.054669 -0.026237 -0.506033 -0.697504 -0.507663 0.235667 0.702895 -0.331499 0.630732 -0.007891 0.408528 0.701931 -0.022888 0.182314 0.371608 0.230701 -0.057489 0.427335 0.366261 -0.041327 -0.011440 -0.533340 -0.108906 0.280859 0.304165 0.410904 -0.425073 -0.037154 -0.507791 0.160839 0.011103 0.326246 -0.173656 0.270626 -0.085824 0.210610 -0.332302 -0.462992 0.122169 -0.033829 0.080650 -0.063712 -0.740439 0.096544 0.353804 -0.428360 0.553822 -0.387830 0.416132 -0.502131
12 -0.329770 -0.348267 0.292701 -0.328310 -0.125320 -0.108857 -0.129983 -0.200526 0.361520 0.422040 0.009504 0.661054 0.055040 0.429468 0.113421 0.038855 -0.571285 -0.335981 -0.389783 -0.281093 0.601307 0.062552 0.531939 -0.020235 -0.210422 0.303094 0.158835 0.196755 0.022168 -0.121143 -0.064560 0.403927 0.114342 -0.179335 0.183117 -0.090687 0.273342 0.269410 0.058963 0.368915 -0.246372 0.045303 0.115865 0.239497 0.079472 0.512234 0.215720 0.309580 -0.377626 0.169046 -0.182494 -0.070162 0.115056 -0.070919 -0.112078 -0.330786 -0.509191 0.116756 -0.027862 -0.257740 0.501850 -0.339301 0.016698 -0.323475
7 -0.035515 -0.434087 -0.002369 -0.009148 -0.115898 0.110205 0.229590 0.285640 0.428682 -0.097848 0.136033 0.366797 -0.278211 -0.265863 0.435879 -0.430162 -0.023392 -0.304257 -0.131568 -0.202852 0.086939 0.001438 0.126400 0.041283 0.189110 -0.119810 -0.189273 -0.082955 -0.124348 0.007107 -0.034321 0.113525 -0.240066 -0.083037 -0.035486 -0.239922 0.585556 0.072620 -0.011139 0.129326 -0.276592 -0.126471 0.425116 0.612831 -0.254208 0.402132 0.296387 -0.277973 -0.168140 0.215987 -0.219070 0.137781 0.100927 0.294043 -0.401637 -0.271766 -0.249426 -0.004665 -0.128493 -0.028414 0.164309 -0.349236 -0.000126 0.354550
2 -0.193591 -0.146420 0.200672 -0.278900 -0.233581 -0.405730 0.126291 0.348291 -0.437181 -0.246728 0.183180 -0.027173 0.394711 -0.636402 -0.050991 -0.665417 0.108457 -0.216936 0.011054 -0.144406 0.191629 -0.148175 0.232792 0.399626 -0.003161 0.092913 0.090433 0.039498 0.545370 -0.126548 -0.158409 -0.320404 -0.449612 0.354581 -0.226267 -0.401815 0.459626 -0.012975 0.336991 -0.344350 -0.167810 -0.561217 -0.027470 0.601357 -0.186271 0.070544 -0.017525 -0.354650 -0.048099 -0.155721 -0.040502 -0.350985 -0.038588 -0.014282 -0.639217 -0.009307 0.076114 0.370354 -0.673823 0.591433 0.097910 -0.074304 0.049341 0.471249
20 -0.163065 -0.142712 0.192365 -0.326138 -0.404070 -0.500449 0.222928 0.305229 -0.587295 -0.217422 0.068263 -0.076642 0.529051 -0.765260 -0.060436 -0.687426 -0.009575 -0.182716 0.045676 -0.160451 0.314025 -0.183489 0.331675 0.454385 -0.012147 0.187323 0.170416 -0.020194 0.611121 -0.112714 -0.140012 -0.403272 -0.496628 0.390798 -0.265985 -0.418954 0.491251 -0.081384 0.286936 -0.459313 -0.239587 -0.563779 -0.202555 0.589991 -0.167348 0.151342 0.006939 -0.285214 0.080773 -0.253996 -0.110897 -0.369955 0.028369 -0.119288 -0.643219 0.037189 0.115783 0.270290 -0.753144 0.679211 0.127975 0.046644 0.133511 0.544198
4 -0.159884 -0.184297 0.161937 -0.131449 -0.035386 -0.187952 0.086826 0.383933 -0.116067 -0.247505 0.298649 0.050050 0.110182 -0.467766 0.065775 -0.596849 0.244497 -0.311925 -0.036707 -0.112007 0.002239 -0.099748 0.024264 0.257544 0.139141 -0.063324 -0.075019 0.071924 0.341478 -0.075583 -0.156975 -0.165975 -0.341978 0.227843 -0.144366 -0.374945 0.422218 0.099183 0.322350 -0.129447 -0.122453 -0.469203 0.207324 0.588636 -0.237057 0.008032 0.007162 -0.456126 -0.194260 0.043533 0.000104 -0.223630 -0.083705 0.162616 -0.560629 -0.105152 -0.043549 0.347657 -0.404234 0.343221 0.067187 -0.237323 0.002031 0.379921
16 -0.204243 -0.343828 0.288112 -0.275320 -0.182258 -0.106245 -0.033378 -0.150404 0.429838 0.529543 -0.061567 0.669627 0.135321 0.357770 0.122250 -0.007494 -0.541357 -0.482427 -0.434847 -0.134165 0.603441 -0.042118 0.516947 -0.038583 0.037725 0.402833 0.078671 0.188241 0.075655 0.007860 -0.067275 0.438446 0.184206 -0.167803 0.136324 -0.230558 0.171624 0.257726 0.109989 0.375464 -0.322154 0.065259 -0.045171 0.223349 0.040866 0.446594 0.106408 0.286619 -0.287693 0.243796 -0.237350 -0.147381 0.133437 0.012076 -0.041702 -0.260482 -0.604104 0.075680 0.146513 -0.370831 0.509311 -0.386845 0.151791 -0.399398
14 -0.258613 -0.355295 0.330561 -0.316466 -0.158683 -0.105301 -0.063378 -0.178057 0.362043 0.493451 -0.050962 0.640989 0.102110 0.335441 0.129040 -0.006042 -0.533558 -0.460474 -0.394013 -0.224612 0.597546 0.018412 0.483442 -0.023022 -0.050574 0.355930 0.119243 0.219105 0.053857 -0.013436 -0.059520 0.426178 0.127191 -0.162066 0.163629 -0.198568 0.194392 0.283415 0.101779 0.349609 -0.308547 0.046169 0.029062 0.243501 0.033148 0.457138 0.142092 0.276710 -0.330047 0.258835 -0.224922 -0.107272 0.092488 0.009753 -0.082042 -0.315844 -0.593667 0.118262 0.093680 -0.334043 0.505994 -0.364464 0.120067 -0.383496
13 -0.304642 -0.359325 0.319998 -0.331956 -0.122415 -0.084259 -0.071961 -0.200346 0.357449 0.406363 -0.013889 0.604085 0.019153 0.346799 0.176025 -0.018905 -0.549042 -0.400033 -0.380344 -0.343311 0.578414 0.088233 0.435537 -0.017824 -0.183798 0.254991 0.154489 0.221889 -0.001024 -0.108484 -0.091596 0.418113 0.067846 -0.204662 0.188144 -0.120922 0.310656 0.287967 0.066600 0.327627 -0.254490 0.050310 0.162800 0.281547 0.047694 0.498934 0.220967 0.270785 -0.401498 0.250726 -0.194351 -0.011392 0.110467 0.016930 -0.155224 -0.379890 -0.544329 0.101923 0.021458 -0.290495 0.504109 -0.350276 0.018403 -0.338874
9 -0.148955 -0.380984 0.016453 -0.088273 -0.081086 0.044793 0.082965 0.157637 0.411703 -0.029343 0.118126 0.448424 -0.226369 -0.017214 0.322856 -0.273073 -0.186256 -0.173039 -0.198732 -0.239523 0.196829 0.066078 0.281682 0.018234 -0.042940 -0.029552 -0.060384 -0.041103 -0.129998 -0.102248 -0.041082 0.169002 -0.159761 -0.122116 0.054965 -0.110479 0.580614 0.080609 -0.060054 0.202716 -0.216672 -0.079511 0.399970 0.507592 -0.129272 0.436678 0.334409 -0.081408 -0.249313 0.113208 -0.173200 0.107482 0.133868 0.138531 -0.309300 -0.271020 -0.230775 0.026813 -0.220861 -0.046330 0.215296 -0.336884 -0.081998 0.221737
11 -0.293954 -0.382756 0.127206 -0.223759 -0.076474 -0.034471 -0.068740 -0.021545 0.439472 0.142730 0.062251 0.605842 -0.141498 0.300079 0.248704 -0.113348 -0.445386 -0.166701 -0.332227 -0.332730 0.442233 0.108555 0.483519 0.006380 -0.255865 0.113070 0.087770 0.067368 -0.125784 -0.221723 -0.060018 0.300816 -0.024352 -0.205507 0.164383 -0.006007 0.560662 0.150964 -0.060989 0.318551 -0.204946 0.018280 0.356172 0.402545 0.016549 0.548625 0.377220 0.184565 -0.371030 0.099735 -0.155520 0.061958 0.184423 0.001491 -0.232793 -0.324773 -0.329400 0.067805 -0.250560 -0.126536 0.368985 -0.379377 -0.096066 -0.022828
10 -0.218842 -0.392195 0.033119 -0.139898 -0.076223 0.025938 0.005987 0.082751 0.469408 0.035825 0.119374 0.564035 -0.208315 0.180678 0.285786 -0.174961 -0.308501 -0.128434 -0.284372 -0.267097 0.322858 0.076666 0.413608 0.022464 -0.165608 0.034174 0.011277 -0.016497 -0.145260 -0.189287 -0.057124 0.222600 -0.081404 -0.153735 0.092969 -0.045958 0.611305 0.086844 -0.083599 0.268421 -0.214947 -0.036495 0.401398 0.481015 -0.037123 0.532666 0.388550 0.051420 -0.298776 0.069707 -0.164187 0.085622 0.193660 0.045839 -0.284752 -0.276659 -0.256679 0.026321 -0.278520 -0.066747 0.292376 -0.373230 -0.122933 0.134489
0 -0.188151 -0.158055 0.228603 -0.228445 -0.134036 -0.303538 0.107749 0.357077 -0.344967 -0.246533 0.268721 -0.036049 0.275281 -0.607251 0.001240 -0.663879 0.228505 -0.326124 0.001913 -0.136188 0.063981 -0.132903 0.071296 0.349256 0.091290 0.003057 0.004292 0.076297 0.483532 -0.076535 -0.160706 -0.252227 -0.418220 0.315507 -0.183530 -0.438613 0.400547 0.083520 0.386185 -0.269966 -0.145696 -0.561849 0.061695 0.602309 -0.236346 -0.000966 -0.053218 -0.455044 -0.144143 -0.015564 -0.010232 -0.314456 -0.126481 0.081098 -0.615615 -0.076680 -0.010698 0.413913 -0.515356 0.481462 0.074620 -0.145978 0.050468 0.421887
1 -0.244685 -0.177614 0.238992 -0.193958 -0.024472 -0.277138 0.056094 0.408143 -0.236708 -0.289420 0.318983 -0.015702 0.183942 -0.539203 -0.001399 -0.654731 0.286775 -0.323511 0.001395 -0.170371 0.001077 -0.098791 0.038112 0.319334 0.092253 -0.053647 -0.008606 0.114835 0.438909 -0.110329 -0.203005 -0.209677 -0.401788 0.282768 -0.151264 -0.415829 0.417900 0.106085 0.378828 -0.222129 -0.125372 -0.578919 0.213822 0.635498 -0.247083 -0.044046 -0.016176 -0.485735 -0.207209 0.037119 0.014708 -0.256463 -0.160289 0.143278 -0.627150 -0.108057 -0.017044 0.452326 -0.516615 0.446214 0.079664 -0.221900 -0.034069 0.415905
6 -0.006352 -0.426219 0.031914 0.027624 -0.095697 0.090356 0.291374 0.403235 0.338572 -0.173055 0.200448 0.259388 -0.250098 -0.463339 0.429673 -0.573876 0.139633 -0.404833 -0.065604 -0.171711 -0.023619 -0.046442 -0.002136 0.075137 0.333099 -0.171359 -0.245956 -0.073802 -0.022737 0.076902 -0.062753 0.022887 -0.310606 0.006847 -0.093683 -0.356422 0.568589 0.099688 0.083209 0.042062 -0.282891 -0.236539 0.430361 0.679052 -0.355222 0.279073 0.218354 -0.464086 -0.143287 0.263272 -0.199184 0.087937 0.020953 0.377784 -0.481924 -0.264018 -0.233624 0.065163 -0.119387 0.028843 0.118168 -0.346912 0.039600 0.435066
3 -0.184821 -0.155294 0.216753 -0.182431 -0.101784 -0.282721 0.109627 0.341746 -0.271231 -0.215072 0.243912 -0.015423 0.229819 -0.544920 -0.008503 -0.599398 0.203931 -0.320730 0.001055 -0.123230 0.061040 -0.118875 0.072897 0.309104 0.128261 0.004574 -0.003988 0.080448 0.451251 -0.043056 -0.163144 -0.226979 -0.368520 0.288653 -0.172256 -0.412831 0.356359 0.089087 0.338750 -0.218520 -0.138150 -0.511936 0.080746 0.553051 -0.230901 -0.008889 -0.030383 -0.414580 -0.124989 0.004760 -0.010324 -0.271385 -0.118732 0.092416 -0.548537 -0.080662 -0.024125 0.362753 -0.442394 0.412403 0.078287 -0.140344 0.042001 0.380203
5 -0.087006 -0.300664 0.099823 -0.069782 -0.065257 -0.064110 0.207664 0.359042 0.066247 -0.222193 0.239856 0.123778 -0.067401 -0.485192 0.242325 -0.595946 0.186829 -0.356106 -0.033199 -0.156992 -0.007001 -0.046357 -0.018180 0.189978 0.217257 -0.131385 -0.139873 0.003571 0.166396 -0.004586 -0.119697 -0.089394 -0.355490 0.136162 -0.117218 -0.365129 0.481583 0.094148 0.206322 -0.074794 -0.182355 -0.354090 0.296291 0.616940 -0.298570 0.128910 0.103824 -0.453417 -0.163001 0.145458 -0.093573 -0.051282 -0.026580 0.255344 -0.523863 -0.191821 -0.116456 0.205338 -0.265651 0.199489 0.071904 -0.269094 0.022869 0.409821
19 -0.048539 -0.316685 0.301005 -0.249393 -0.320590 -0.212347 0.032223 -0.070329 0.465581 0.733494 -0.114447 0.723993 0.447101 0.269455 -0.026044 -0.041404 -0.520215 -0.674387 -0.499616 0.228628 0.702517 -0.316649 0.631750 -0.000075 0.389982 0.686601 -0.032941 0.167599 0.332818 0.203193 -0.057677 0.431299 0.356732 -0.057193 -0.004923 -0.504554 -0.088852 0.266498 0.295131 0.421566 -0.422883 -0.016232 -0.474980 0.164413 0.024324 0.361671 -0.146995 0.254805 -0.091565 0.199289 -0.333686 -0.439459 0.135613 -0.023000 0.070722 -0.061457 -0.727990 0.069949 0.335627 -0.416128 0.541881 -0.399195 0.407254 -0.465399
8 -0.035262 -0.458887 -0.006885 -0.000809 -0.127039 0.103955 0.258907 0.329418 0.410319 -0.138059 0.145720 0.349729 -0.295018 -0.322932 0.458295 -0.493571 0.011441 -0.295360 -0.104444 -0.205929 0.058591 0.003001 0.119265 0.047210 0.195523 -0.127080 -0.193805 -0.091535 -0.121286 0.006850 -0.046903 0.082683 -0.280043 -0.057033 -0.048042 -0.257946 0.651670 0.055174 -0.002372 0.112622 -0.282950 -0.162984 0.441615 0.669356 -0.275754 0.407323 0.304297 -0.322742 -0.172802 0.209405 -0.228561 0.132889 0.113741 0.310984 -0.449893 -0.274111 -0.235662 0.003334 -0.188489 0.002053 0.138899 -0.364567 -0.008408 0.421840
18 -0.026920 -0.266245 0.271048 -0.244167 -0.341066 -0.272653 0.008788 -0.040905 0.442798 0.776658 -0.114218 0.726141 0.567498 0.274342 -0.108891 -0.036337 -0.508882 -0.653539 -0.529433 0.343453 0.732578 -0.386341 0.700080 0.020594 0.443566 0.773295 -0.032262 0.154272 0.427963 0.228329 -0.057979 0.405232 0.409811 0.003419 -0.037587 -0.552911 -0.153289 0.239601 0.333225 0.426027 -0.423804 -0.039703 -0.615173 0.125457 0.038644 0.321913 -0.229120 0.278866 -0.027767 0.123572 -0.328198 -0.548171 0.157172 -0.070165 0.104032 0.030261 -0.701468 0.071169 0.314813 -0.388083 0.538443 -0.387956 0.441432 -0.481056
21 -0.180226 -0.139892 0.252544 -0.340184 -0.365220 -0.498538 0.203861 0.336282 -0.595129 -0.206658 0.132316 -0.085861 0.539476 -0.819228 -0.066286 -0.742613 0.076280 -0.293427 0.057155 -0.141944 0.273140 -0.202960 0.256120 0.466043 0.056524 0.162493 0.126859 0.027236 0.670986 -0.070689 -0.150447 -0.398875 -0.509881 0.426501 -0.290158 -0.505863 0.433860 -0.009081 0.387083 -0.455010 -0.238222 -0.614134 -0.183857 0.619778 -0.222201 0.085837 -0.066803 -0.373521 0.046112 -0.180188 -0.080562 -0.410888 -0.047497 -0.055875 -0.681081 0.015222 0.070340 0.357763 -0.699847 0.669286 0.126236 0.006176 0.152935 0.523437
22 -0.147475 -0.123935 0.230416 -0.307268 -0.342049 -0.470381 0.190518 0.291476 -0.576811 -0.187101 0.096797 -0.099097 0.516335 -0.761308 -0.064583 -0.667117 0.054199 -0.265996 0.074068 -0.120787 0.258654 -0.187220 0.238192 0.423749 0.045118 0.167232 0.122647 0.011145 0.624026 -0.046870 -0.136570 -0.378442 -0.470254 0.389448 -0.265804 -0.463743 0.366944 -0.021392 0.336435 -0.444245 -0.205950 -0.568209 -0.201019 0.551530 -0.188809 0.077745 -0.080906 -0.322395 0.070258 -0.174033 -0.088264 -0.378558 -0.060508 -0.063546 -0.593065 0.021778 0.078215 0.324996 -0.615075 0.599670 0.122727 0.037769 0.155572 0.474733
