16 64
13 -0.148090 -0.351504 0.535492 -0.609291 0.147077 0.063734 0.173461 -0.268432 -0.179363 0.015312 -0.056954 -0.094894 0.043211 -0.433298 0.164368 -0.441506 -0.096705 -0.427740 -0.197846 -0.633012 0.575139 0.269458 -0.323767 0.564518 -0.432198 -0.152993 0.269076 0.462665 0.182873 -0.029953 -0.275029 0.115043 -0.311189 0.221290 -0.010986 -0.409653 0.230759 0.344830 0.417440 -0.169947 -0.018446 -0.151765 0.265196 0.484378 -0.131823 0.415175 -0.016241 -0.133364 -0.251084 0.374965 -0.164023 0.125865 0.010642 0.483161 -0.720845 -0.552466 -0.463915 0.170137 -0.150809 0.166065 0.210598 -0.048166 -0.054037 -0.335635
10 -0.055132 -0.203229 -0.246876 0.292040 -0.020043 0.306676 0.003121 0.315697 0.567539 -0.214313 0.303719 0.416403 -0.402873 0.048107 0.318933 0.161135 -0.044932 0.113338 0.027897 -0.098846 0.066337 -0.096477 0.206511 -0.154631 0.122344 -0.160773 -0.139245 -0.386827 -0.307755 -0.078520 0.031671 -0.134769 0.070652 -0.167901 -0.062745 0.076091 0.541100 0.006491 -0.474599 0.119058 -0.394736 -0.036929 0.660778 0.431153 0.013317 0.588036 0.601014 -0.268440 0.145740 -0.141980 -0.115880 0.286022 0.094128 -0.038248 -0.104941 -0.036287 0.034535 -0.469575 -0.147785 -0.045086 0.405948 -0.088746 -0.155409 0.551320
3 -0.124782 -0.255330 0.204368 -0.259943 0.096697 -0.010323 0.075141 0.034454 0.012444 -0.126192 0.122515 0.046862 0.000365 -0.258680 0.136615 -0.355081 0.044798 -0.281692 -0.058232 -0.277002 0.227350 0.069122 -0.133641 0.304053 -0.104353 -0.156706 0.041893 0.126173 0.100715 -0.099111 -0.140423 -0.000092 -0.204643 0.118986 -0.038243 -0.255390 0.173976 0.155154 0.237839 -0.145206 -0.062459 -0.173932 0.245613 0.342945 -0.157199 0.170322 0.010911 -0.215836 -0.087875 0.159379 -0.076585 0.071842 -0.032233 0.216094 -0.419518 -0.243192 -0.133625 0.181732 -0.163020 0.151637 0.132225 -0.149969 -0.013531 0.042187
4 -0.085033 -0.215643 0.055057 -0.110359 0.082813 -0.033563 0.031563 0.161854 0.134294 -0.176817 0.200675 0.130996 -0.017547 -0.198436 0.148369 -0.298847 0.071909 -0.231359 0.004895 -0.137993 0.139888 -0.009215 -0.086167 0.186963 0.023681 -0.160088 -0.042459 -0.005516 0.057599 -0.129079 -0.103524 -0.054103 -0.166950 0.062328 -0.060631 -0.201841 0.194760 0.100517 0.134202 -0.130742 -0.085214 -0.177694 0.286776 0.322565 -0.153667 0.114552 0.055305 -0.261359 -0.015530 0.064316 -0.061392 0.078505 -0.007232 0.129986 -0.319235 -0.123853 -0.001085 0.132367 -0.131821 0.096962 0.162426 -0.202429 -0.002268 0.189170
6 -0.063342 -0.191526 -0.123055 0.113710 0.028112 0.093942 0.010937 0.269493 0.330313 -0.208572 0.272419 0.261354 -0.179652 -0.081989 0.218936 -0.103605 0.041013 -0.076023 0.033814 -0.066696 0.038219 -0.077320 0.058946 -0.006104 0.123718 -0.163493 -0.119741 -0.227958 -0.102584 -0.103456 -0.017149 -0.102917 -0.053054 -0.055024 -0.050030 -0.066263 0.322715 0.044841 -0.148524 -0.027585 -0.217023 -0.118544 0.424011 0.327807 -0.105811 0.259736 0.276645 -0.284971 0.073075 -0.047173 -0.070371 0.154391 0.010301 0.015051 -0.163422 -0.048678 0.059977 -0.110336 -0.123869 0.023647 0.245919 -0.161141 -0.050894 0.393901
11 -0.059719 -0.178664 -0.137766 0.170215 0.011746 0.188771 0.003456 0.252968 0.399448 -0.185440 0.238753 0.296013 -0.266788 -0.028658 0.254532 0.026042 -0.025348 0.004558 0.017872 -0.116603 0.086349 -0.064372 0.113667 -0.060289 0.094043 -0.152421 -0.113838 -0.245750 -0.182655 -0.074179 0.005599 -0.100488 0.006247 -0.111428 -0.051165 0.010981 0.399663 0.045435 -0.280663 0.061096 -0.271662 -0.053096 0.515406 0.353493 -0.036310 0.412436 0.412066 -0.235014 0.083973 -0.065888 -0.081797 0.208164 0.048119 0.024050 -0.146150 -0.069507 0.017975 -0.278300 -0.112277 -0.006722 0.313360 -0.093802 -0.084971 0.399738
5 -0.131572 -0.289296 0.133160 -0.239523 0.108185 -0.091471 0.053949 0.121641 0.060441 -0.189342 0.202485 0.097263 0.037507 -0.245438 0.130814 -0.435471 0.109375 -0.303321 -0.010634 -0.181485 0.164555 0.020676 -0.127769 0.302777 -0.043827 -0.178615 0.003248 0.058122 0.113262 -0.171420 -0.142638 -0.026558 -0.228846 0.135065 -0.046853 -0.283505 0.153547 0.116337 0.283823 -0.211601 -0.045769 -0.232677 0.227304 0.337669 -0.212233 0.061751 -0.046111 -0.274963 -0.049109 0.117881 -0.078024 0.057249 -0.032691 0.149690 -0.402387 -0.172838 -0.026238 0.296256 -0.207156 0.164904 0.102434 -0.259914 0.002433 0.146265
7 -0.054321 -0.195891 -0.193153 0.188216 0.001761 0.162936 0.005626 0.323529 0.437992 -0.233318 0.296873 0.329274 -0.251204 -0.063293 0.270258 -0.036739 0.025723 -0.022599 0.031760 -0.061872 0.028704 -0.098176 0.120913 -0.061693 0.165612 -0.176748 -0.171678 -0.306124 -0.175122 -0.103773 0.016577 -0.107269 -0.027431 -0.112284 -0.065739 -0.021337 0.391983 0.014856 -0.258955 0.024343 -0.295043 -0.099287 0.517947 0.379003 -0.082087 0.354677 0.382273 -0.302976 0.107161 -0.088404 -0.088206 0.200930 0.028719 0.011045 -0.151005 -0.028621 0.070462 -0.227796 -0.122346 0.018391 0.302479 -0.150152 -0.071231 0.487763
9 -0.069593 -0.196158 -0.239687 0.253909 -0.027346 0.272666 -0.002661 0.319785 0.523915 -0.217770 0.307701 0.394512 -0.356230 -0.000933 0.305912 0.096509 -0.027558 0.084424 0.014817 -0.088141 0.017839 -0.085222 0.207449 -0.152005 0.130818 -0.155275 -0.166325 -0.386014 -0.276326 -0.073037 0.052643 -0.100356 0.036341 -0.169850 -0.034548 0.047462 0.497046 0.010846 -0.418365 0.112140 -0.387642 -0.066484 0.606145 0.414331 -0.030804 0.507181 0.526201 -0.288719 0.112725 -0.136735 -0.114023 0.252949 0.040386 -0.028162 -0.095365 -0.045758 0.026480 -0.389981 -0.143609 -0.021702 0.365274 -0.095316 -0.132395 0.542523
1 -0.135224 -0.290660 0.133803 -0.230706 0.106995 -0.106078 0.039517 0.157087 0.073696 -0.193299 0.201292 0.102021 0.051935 -0.246165 0.122532 -0.435237 0.127263 -0.299468 0.012190 -0.172062 0.158374 0.000725 -0.115847 0.290732 -0.027813 -0.173829 -0.000484 0.062173 0.118659 -0.183702 -0.144903 -0.029344 -0.225066 0.134021 -0.066376 -0.280879 0.142258 0.098119 0.290741 -0.229097 -0.059536 -0.240339 0.246504 0.344503 -0.212069 0.043002 -0.052822 -0.281116 -0.026343 0.119101 -0.081763 0.056750 -0.035718 0.160360 -0.413575 -0.147486 -0.008671 0.312476 -0.220032 0.175668 0.113697 -0.277960 -0.005938 0.157692
8 -0.063391 -0.219584 -0.241820 0.266187 -0.021453 0.254465 0.004387 0.352715 0.542115 -0.235629 0.325216 0.404580 -0.360033 -0.011417 0.325685 0.056838 -0.001345 0.053812 0.040146 -0.070536 0.024025 -0.103799 0.185746 -0.140275 0.166316 -0.167511 -0.179338 -0.380950 -0.269345 -0.086720 0.036091 -0.121644 0.024323 -0.154219 -0.058172 0.027183 0.510832 0.009618 -0.392499 0.098041 -0.379996 -0.079239 0.618686 0.439360 -0.043541 0.501339 0.519238 -0.314236 0.123072 -0.125150 -0.114683 0.251332 0.061312 -0.018272 -0.126558 -0.033852 0.046910 -0.372201 -0.150867 -0.022826 0.366179 -0.138037 -0.116276 0.576931
2 -0.144339 -0.317841 0.162361 -0.289998 0.104278 -0.105433 0.053074 0.137776 0.031476 -0.197104 0.200782 0.097837 0.072399 -0.277584 0.127034 -0.490198 0.125687 -0.318033 -0.012457 -0.203495 0.172924 0.021694 -0.118649 0.331131 -0.073345 -0.184324 0.003224 0.082536 0.137714 -0.191185 -0.139749 -0.012868 -0.258433 0.160350 -0.062538 -0.300745 0.140321 0.102227 0.345692 -0.247445 -0.052574 -0.249268 0.232817 0.357319 -0.236147 0.044765 -0.089797 -0.292684 -0.049802 0.131335 -0.087707 0.037406 -0.045957 0.184181 -0.461743 -0.181235 -0.030656 0.367993 -0.250938 0.216807 0.092218 -0.278872 -0.002921 0.129643
0 -0.143504 -0.296362 0.130917 -0.251775 0.077900 -0.070334 0.037985 0.126977 0.053155 -0.181386 0.203421 0.101931 0.041579 -0.230036 0.136073 -0.424899 0.125990 -0.271407 -0.015454 -0.178757 0.132450 0.005768 -0.091027 0.281910 -0.066587 -0.163820 -0.000279 0.038837 0.087134 -0.186040 -0.113793 -0.001233 -0.212384 0.122046 -0.035622 -0.266737 0.152854 0.092886 0.290686 -0.212820 -0.080145 -0.234422 0.210992 0.335701 -0.203574 0.072292 -0.057656 -0.271252 -0.052454 0.113027 -0.090169 0.041965 -0.050953 0.132811 -0.398759 -0.160172 -0.040484 0.314656 -0.245749 0.192625 0.092009 -0.264435 -0.007542 0.157516
14 -0.164683 -0.349129 0.541381 -0.608940 0.141750 0.084992 0.165530 -0.283078 -0.194279 0.023465 -0.071487 -0.095239 0.029611 -0.409148 0.158258 -0.415862 -0.092498 -0.403311 -0.203729 -0.635256 0.559336 0.279866 -0.297062 0.555606 -0.438637 -0.139550 0.266094 0.459120 0.161295 -0.020364 -0.253509 0.126695 -0.293581 0.220795 0.003368 -0.388017 0.209315 0.327547 0.405334 -0.152211 -0.037401 -0.139549 0.249576 0.466635 -0.118003 0.419431 -0.016384 -0.110846 -0.251718 0.372440 -0.159682 0.116680 -0.005202 0.471173 -0.696780 -0.550723 -0.476750 0.168092 -0.163505 0.177259 0.193836 -0.032518 -0.048470 -0.344219
15 -0.157986 -0.320981 0.423182 -0.502575 0.120597 0.051713 0.137515 -0.180746 -0.128778 -0.034521 0.003918 -0.050449 0.036301 -0.349426 0.149772 -0.410418 -0.048218 -0.362414 -0.162670 -0.505997 0.438281 0.203906 -0.234364 0.468939 -0.335704 -0.143176 0.175728 0.335624 0.146551 -0.067934 -0.215281 0.094936 -0.254558 0.181958 -0.009257 -0.339967 0.181028 0.257321 0.375187 -0.153853 -0.044977 -0.154513 0.222820 0.410760 -0.127969 0.322013 -0.040892 -0.148873 -0.197989 0.285558 -0.131627 0.090832 -0.017953 0.377001 -0.604216 -0.443566 -0.358192 0.183713 -0.166566 0.187333 0.166360 -0.069686 -0.033899 -0.217839
12 -0.071366 -0.190517 -0.178461 0.218529 -0.031412 0.306503 0.001806 0.226937 0.474373 -0.157871 0.249264 0.360398 -0.370492 0.031504 0.297785 0.165685 -0.081438 0.105172 -0.000008 -0.157478 0.090203 -0.049206 0.190549 -0.136799 0.054356 -0.140598 -0.102417 -0.315590 -0.283566 -0.048011 0.041849 -0.083975 0.058001 -0.162151 -0.029771 0.079698 0.487781 0.038174 -0.427347 0.138024 -0.369372 -0.014601 0.597694 0.388192 0.020176 0.585366 0.552425 -0.220290 0.091006 -0.105460 -0.118277 0.268549 0.064629 -0.012577 -0.115814 -0.091539 -0.032174 -0.447264 -0.123459 -0.031748 0.383220 -0.031290 -0.148877 0.449303
