14 64
6 0.025798 -0.438071 -0.094243 0.196491 0.057336 0.106600 0.343649 0.213956 0.333133 -0.112694 0.284980 0.187819 -0.271378 -0.252555 0.347149 -0.289174 0.144591 -0.402667 0.208982 -0.001050 -0.086683 -0.079143 -0.211553 -0.030671 0.509642 -0.200725 -0.049788 -0.367361 -0.088250 0.147817 -0.156301 -0.164288 -0.063013 0.122577 0.012114 -0.358114 0.100090 0.092757 -0.132038 -0.323574 -0.334918 -0.127144 0.250309 0.215975 -0.356587 0.164563 0.110615 -0.504042 0.331219 0.198720 -0.243931 0.324590 -0.073965 0.051492 0.000716 -0.111844 -0.011888 -0.176166 0.156714 -0.278912 0.250927 -0.226199 0.048358 0.417056
9 -0.166709 0.048790 -0.261453 -0.075483 0.111912 0.101883 -0.006472 0.173122 0.335010 -0.285046 0.098218 0.304225 -0.141395 -0.172503 -0.149890 -0.085228 -0.075510 0.332201 -0.328578 0.025652 -0.156059 0.287843 0.428120 0.056295 -0.238778 0.057197 -0.165745 -0.253145 -0.069914 0.006514 0.057450 0.108884 -0.201466 -0.050305 0.116501 -0.090252 0.425658 -0.132860 -0.299518 0.294182 -0.177162 -0.292439 0.302650 0.425927 -0.107108 0.007600 0.262139 -0.088851 -0.165736 -0.393923 -0.011460 0.017049 -0.068716 0.054212 0.061573 -0.078028 -0.030047 -0.005954 -0.384593 0.161277 -0.135985 -0.001294 -0.293882 0.242510
5 -0.019705 -0.369681 -0.075907 0.098633 0.053516 0.061703 0.268485 0.155083 0.260038 -0.107575 0.266862 0.188526 -0.218729 -0.238516 0.253582 -0.262580 0.086306 -0.308868 0.139394 -0.042631 -0.054652 -0.007799 -0.144241 0.011433 0.338536 -0.181496 -0.023813 -0.280225 -0.036119 0.107773 -0.131633 -0.116737 -0.129493 0.122142 0.017712 -0.305851 0.126071 0.098805 -0.095500 -0.237344 -0.251965 -0.151354 0.244410 0.225766 -0.319498 0.147214 0.115581 -0.429217 0.206449 0.125823 -0.200828 0.267607 -0.067909 0.039245 -0.057550 -0.138102 -0.011557 -0.103215 0.075888 -0.177137 0.194602 -0.175801 -0.017438 0.357954
3 -0.142944 -0.069406 -0.141170 -0.096100 0.062613 0.046586 0.041549 0.109284 0.203799 -0.180777 0.161004 0.246572 -0.122198 -0.209495 -0.057910 -0.125852 -0.068597 0.134751 -0.178287 -0.077707 -0.077402 0.217724 0.237428 0.062387 -0.155595 -0.040154 -0.061727 -0.167200 0.013397 0.029209 0.003671 0.051099 -0.247625 0.028682 0.065693 -0.127548 0.325201 -0.004875 -0.174773 0.131888 -0.138737 -0.247841 0.298272 0.350442 -0.172713 0.077713 0.218549 -0.185885 -0.127012 -0.215767 -0.056781 0.075140 -0.077556 0.049507 -0.078431 -0.144852 -0.033515 0.013969 -0.252356 0.120806 -0.018965 -0.004311 -0.255302 0.232333
2 -0.140831 -0.120502 -0.080753 -0.206936 -0.010110 -0.001719 0.024313 0.040690 0.097823 -0.086163 0.195811 0.262832 -0.064066 -0.285466 -0.044306 -0.126890 -0.171487 0.109978 -0.142423 -0.219069 0.005457 0.248562 0.204668 0.045489 -0.281674 -0.095476 0.032310 -0.082681 0.097838 0.039424 0.018421 0.085803 -0.374848 0.053504 0.046192 -0.110278 0.338362 0.095043 -0.115929 0.091660 -0.097251 -0.233881 0.363534 0.348180 -0.232042 0.168609 0.231652 -0.234112 -0.194091 -0.176413 -0.113075 0.111241 -0.083581 0.074312 -0.244157 -0.246809 -0.057040 0.048609 -0.224150 0.159600 0.069124 0.057656 -0.340965 0.189766
1 -0.079649 -0.264911 -0.069737 0.003263 0.050821 0.029801 0.162612 0.130896 0.219217 -0.112623 0.221755 0.198419 -0.155791 -0.224201 0.127885 -0.205888 0.026451 -0.153718 0.046675 -0.076084 -0.042661 0.069624 -0.012785 0.027395 0.138939 -0.125847 -0.013618 -0.199093 0.001076 0.063504 -0.091141 -0.042971 -0.178028 0.089804 0.025719 -0.235341 0.173524 0.070717 -0.092276 -0.116149 -0.203074 -0.188931 0.266524 0.263116 -0.258979 0.116408 0.135475 -0.330892 0.078865 0.017353 -0.156111 0.199568 -0.074803 0.049291 -0.096752 -0.141601 -0.021151 -0.037583 -0.044504 -0.056291 0.136307 -0.116735 -0.115818 0.292236
12 -0.184948 -0.107115 -0.062844 -0.302788 -0.044449 -0.030517 -0.026682 -0.013572 0.049311 -0.050993 0.213288 0.292538 -0.035805 -0.319732 -0.089717 -0.096517 -0.251296 0.170977 -0.176887 -0.308522 0.041416 0.317036 0.255237 0.049910 -0.427991 -0.105026 0.080645 -0.024032 0.144572 0.029563 0.041214 0.141619 -0.472939 0.048073 0.055794 -0.081209 0.384655 0.140264 -0.110246 0.146195 -0.069284 -0.263557 0.417693 0.385443 -0.240944 0.218075 0.276691 -0.224808 -0.299598 -0.216689 -0.126727 0.117373 -0.098150 0.074078 -0.334914 -0.312966 -0.080620 0.075116 -0.267638 0.230694 0.087312 0.115354 -0.440298 0.174270
4 -0.054559 -0.218067 -0.114850 0.050537 0.062335 0.064459 0.161176 0.156520 0.252427 -0.142560 0.212738 0.205885 -0.170839 -0.203341 0.125872 -0.184879 0.037752 -0.120541 0.014301 -0.020595 -0.072148 0.062502 0.010687 0.009628 0.164371 -0.102777 -0.061909 -0.242745 -0.032000 0.069766 -0.072580 -0.055455 -0.138289 0.065041 0.032873 -0.220631 0.196651 0.037547 -0.138992 -0.078382 -0.214970 -0.180374 0.253810 0.265861 -0.229300 0.098114 0.144743 -0.317073 0.087714 -0.024353 -0.129047 0.171964 -0.063092 0.043298 -0.033377 -0.105531 -0.011388 -0.073472 -0.041200 -0.076366 0.113829 -0.114158 -0.088559 0.297167
0 -0.109631 -0.188442 -0.065178 -0.116081 0.009213 0.014433 0.082245 0.064216 0.133300 -0.087868 0.216311 0.218778 -0.100352 -0.241385 0.045587 -0.158961 -0.070713 -0.025017 -0.051665 -0.153967 -0.015868 0.149988 0.082387 0.040978 -0.091772 -0.112844 0.023998 -0.134207 0.048010 0.038839 -0.031322 0.025279 -0.270881 0.068466 0.045152 -0.167274 0.254029 0.097265 -0.087925 -0.019684 -0.139872 -0.208421 0.293958 0.292493 -0.235428 0.151333 0.176494 -0.276825 -0.075137 -0.071485 -0.131414 0.145312 -0.081697 0.040304 -0.174277 -0.197646 -0.045985 0.017630 -0.135783 0.055183 0.103642 -0.028754 -0.223039 0.231285
7 0.017713 -0.433555 -0.096977 0.168118 0.048794 0.098977 0.330725 0.205826 0.333156 -0.112218 0.281336 0.197332 -0.260743 -0.265467 0.335008 -0.287550 0.133623 -0.385903 0.194152 -0.015035 -0.074970 -0.061867 -0.195160 -0.015824 0.481032 -0.202617 -0.050926 -0.349526 -0.080413 0.136236 -0.150447 -0.142508 -0.093186 0.119102 0.005156 -0.355133 0.103946 0.086603 -0.124113 -0.308273 -0.331582 -0.138296 0.260701 0.235802 -0.353760 0.169865 0.115852 -0.495556 0.309430 0.184760 -0.248953 0.325920 -0.070998 0.061944 -0.029960 -0.116853 -0.013133 -0.166347 0.143033 -0.248157 0.247114 -0.221159 0.028312 0.417568
10 -0.182807 0.032960 -0.248474 -0.107008 0.107991 0.093160 -0.010352 0.158073 0.315119 -0.282700 0.125263 0.322186 -0.140282 -0.184036 -0.158549 -0.086882 -0.095451 0.334300 -0.330898 -0.013822 -0.130948 0.305067 0.430601 0.075055 -0.282591 0.035148 -0.140447 -0.235247 -0.043777 -0.002853 0.050515 0.104297 -0.241458 -0.028445 0.105035 -0.089557 0.446355 -0.112526 -0.289096 0.286215 -0.166974 -0.306954 0.339701 0.446825 -0.118358 0.038351 0.284604 -0.107527 -0.187524 -0.400410 -0.014489 0.024678 -0.067823 0.050953 0.007631 -0.105610 -0.027647 0.007587 -0.406525 0.191861 -0.118080 0.011486 -0.331097 0.247420
8 0.025459 -0.460338 -0.072707 0.170725 0.036439 0.091784 0.346011 0.195976 0.309648 -0.082900 0.286855 0.188675 -0.263339 -0.271900 0.355630 -0.297793 0.129705 -0.415787 0.230680 -0.026495 -0.065927 -0.069925 -0.228178 -0.035430 0.492883 -0.205502 -0.029015 -0.331820 -0.068301 0.154503 -0.162470 -0.153456 -0.095978 0.137793 -0.000685 -0.362719 0.100235 0.112315 -0.103163 -0.324301 -0.324574 -0.127003 0.254702 0.223598 -0.366582 0.187221 0.103268 -0.514535 0.312309 0.216784 -0.262939 0.331474 -0.062981 0.066099 -0.050889 -0.133204 -0.023928 -0.171433 0.165805 -0.273877 0.264502 -0.223419 0.032715 0.411950
11 -0.166396 0.016991 -0.237990 -0.048935 0.121912 0.094228 0.004790 0.183351 0.330120 -0.287776 0.106947 0.289723 -0.154974 -0.153674 -0.115838 -0.105533 -0.052504 0.280094 -0.288808 0.023869 -0.142395 0.254935 0.387743 0.062826 -0.187651 0.036076 -0.163923 -0.248082 -0.073446 0.000439 0.043434 0.077224 -0.175226 -0.038933 0.106532 -0.092496 0.402277 -0.117820 -0.275840 0.262529 -0.168924 -0.271744 0.298309 0.402192 -0.113577 0.013264 0.252370 -0.098550 -0.135521 -0.349336 -0.005920 0.025640 -0.064043 0.047295 0.057472 -0.076710 -0.017938 -0.001028 -0.365473 0.143722 -0.122211 -0.025420 -0.250674 0.255249
13 -0.155390 -0.115129 -0.073041 -0.259200 -0.030865 -0.011655 0.007927 0.012139 0.084642 -0.064522 0.204015 0.276502 -0.052332 -0.321887 -0.061235 -0.114169 -0.219766 0.137189 -0.166234 -0.274008 0.028680 0.284973 0.223517 0.048376 -0.360496 -0.102618 0.064062 -0.055406 0.122669 0.041110 0.022495 0.118713 -0.432049 0.044626 0.051988 -0.108542 0.381961 0.128900 -0.121788 0.117261 -0.087818 -0.253955 0.402337 0.383405 -0.242582 0.208632 0.267188 -0.238058 -0.250730 -0.191865 -0.130945 0.127330 -0.088815 0.085328 -0.297547 -0.290411 -0.081043 0.046456 -0.240070 0.186311 0.089369 0.089733 -0.404136 0.183604
