22 64
16 -0.004867 0.002983 0.030218 -0.112611 0.069405 0.010363 -0.001175 -0.075511 0.109267 0.418628 -0.233694 0.438245 0.073936 0.420946 0.260493 -0.141324 -0.343882 -0.315702 -0.628850 -0.190049 0.324013 0.196513 0.446504 -0.078038 0.226042 0.340056 0.227111 0.094597 -0.046674 -0.080962 -0.241412 0.386139 0.016810 -0.047957 0.323472 -0.051199 0.174076 -0.298558 -0.215971 -0.151730 -0.392559 0.359473 0.053662 0.117957 0.207088 0.114043 -0.049215 0.384722 -0.198347 0.322451 0.068796 -0.190061 0.210898 0.366938 0.081998 0.056170 -0.216788 -0.008312 0.064263 -0.538481 0.492349 -0.534163 -0.058527 -0.727014
14 -0.056207 -0.060511 0.073573 -0.169839 0.019749 0.005278 -0.022136 -0.096021 0.061919 0.316008 -0.184558 0.340216 0.048344 0.254943 0.173307 -0.077297 -0.280780 -0.192561 -0.412596 -0.210243 0.302661 0.182894 0.330251 -0.017273 0.073200 0.254361 0.224948 0.111030 -0.058201 -0.066813 -0.153461 0.297256 -0.032187 -0.019734 0.246693 -0.042723 0.151605 -0.168938 -0.149498 -0.088580 -0.333478 0.221851 0.078993 0.135131 0.138925 0.168913 0.035569 0.261284 -0.160554 0.217787 -0.017589 -0.089605 0.151020 0.237905 -0.010167 -0.010827 -0.206654 -0.013989 -0.027176 -0.332061 0.377964 -0.369886 -0.055334 -0.476114
6 -0.151350 -0.303351 0.067214 -0.109514 0.074305 0.090251 0.075328 0.020027 0.165532 -0.020976 0.175355 0.244686 -0.134858 -0.114639 0.210557 -0.155471 -0.113106 -0.186444 -0.107564 -0.293406 0.220158 0.170758 0.043417 0.063610 -0.005614 -0.079261 0.019662 0.008782 0.006854 0.019904 -0.131679 0.082208 -0.170491 0.060719 0.069047 -0.160858 0.237914 0.104544 -0.054607 0.032249 -0.220636 -0.122320 0.350479 0.372655 -0.096345 0.352706 0.147973 -0.194180 -0.109531 0.074614 -0.170601 0.144378 -0.001986 0.198867 -0.308753 -0.287810 -0.182661 -0.110849 -0.016950 -0.042867 0.337471 -0.089639 -0.107670 0.061762
4 -0.209037 -0.344192 0.110252 -0.163086 0.147586 -0.002457 0.013937 0.068652 0.124855 -0.054717 0.251716 0.249823 -0.074631 -0.100276 0.203571 -0.261627 -0.025807 -0.267836 -0.095581 -0.317780 0.218832 0.177783 0.003350 0.114948 -0.018498 -0.123630 0.035856 0.080604 0.080031 -0.051388 -0.187849 0.089172 -0.240042 0.121848 0.063969 -0.210833 0.200812 0.099731 0.064990 -0.059551 -0.160780 -0.197831 0.389867 0.420006 -0.131821 0.253031 0.039542 -0.220067 -0.155953 0.131750 -0.146743 0.104898 -0.037373 0.239668 -0.410808 -0.295901 -0.128068 0.094630 -0.062779 -0.014046 0.353860 -0.204198 -0.135604 0.027534
10 -0.097676 -0.145544 0.089456 -0.212973 -0.127616 0.064259 0.054196 -0.096205 0.114716 0.141378 -0.149550 0.246240 -0.017813 -0.007556 0.075905 -0.010661 -0.276439 -0.018133 -0.154860 -0.178566 0.273415 0.107096 0.254667 0.043827 -0.057852 0.220035 0.171116 0.014192 -0.113213 -0.086278 -0.068519 0.169068 -0.023375 -0.059263 0.124320 -0.049658 0.221938 -0.032132 -0.111016 0.033592 -0.400307 0.030764 0.090748 0.199476 0.095754 0.320315 0.241380 0.026951 -0.058793 -0.013861 -0.167243 0.065842 0.119993 0.032386 -0.080165 -0.042876 -0.247532 -0.219623 -0.171664 -0.043090 0.256158 -0.138610 -0.027472 -0.020789
12 -0.188561 -0.214255 0.136714 -0.229286 0.093254 -0.025259 -0.078749 -0.115588 -0.043887 0.162535 0.072211 0.259273 -0.028035 0.089633 0.161030 -0.081455 -0.175380 -0.159790 -0.191060 -0.390774 0.304695 0.266982 0.104237 0.063003 -0.133275 -0.020802 0.221661 0.193969 0.029724 -0.042162 -0.128610 0.181317 -0.226271 0.105679 0.169698 -0.047059 0.147126 0.044773 -0.039375 -0.055059 -0.140006 0.021337 0.287215 0.237195 -0.010867 0.268349 0.073158 0.053586 -0.229661 0.178648 -0.079118 0.051784 0.039299 0.193320 -0.305595 -0.252981 -0.137366 0.081623 -0.061446 -0.111817 0.363087 -0.185272 -0.160330 -0.247312
11 -0.165399 -0.231672 0.104345 -0.180885 0.001387 0.028817 0.026221 -0.049027 0.103133 0.061478 0.041116 0.234832 -0.066462 -0.041161 0.142906 -0.104154 -0.188227 -0.126772 -0.119706 -0.273580 0.263189 0.153469 0.127254 0.072788 -0.053273 0.037479 0.122951 0.052636 -0.025757 -0.053632 -0.108810 0.121805 -0.121615 0.016419 0.113619 -0.097791 0.217679 0.072562 -0.050048 0.025103 -0.257870 -0.048137 0.231729 0.270052 -0.018825 0.318707 0.180974 -0.068037 -0.121901 0.057490 -0.144249 0.104415 0.045983 0.103261 -0.223795 -0.193944 -0.191369 -0.103186 -0.107770 -0.033938 0.300488 -0.131351 -0.071512 0.009994
19 -0.154446 -0.270837 0.198078 -0.424308 -0.452011 -0.037432 0.180234 -0.091400 0.323754 0.111331 -0.351302 0.310779 0.076023 -0.245663 -0.084432 -0.158861 -0.414095 -0.035205 0.076576 0.118140 0.268323 -0.123646 0.415172 0.119945 0.017059 0.584078 0.163022 -0.138335 -0.199234 -0.270070 -0.054084 0.203948 0.126040 -0.238208 0.089653 -0.233053 0.251530 0.050787 0.108472 0.127067 -0.756071 -0.170429 -0.227579 0.199585 0.098285 0.315120 0.387002 -0.192869 0.064710 -0.228704 -0.384578 0.095609 0.124542 -0.305038 0.110864 0.182341 -0.455220 -0.339942 -0.434502 0.126862 0.090867 -0.290079 0.204607 0.495596
3 -0.243409 -0.321456 0.159108 -0.233797 0.158942 -0.093529 -0.014845 0.026416 0.062667 0.016673 0.186785 0.244925 -0.013240 -0.022504 0.157190 -0.327699 -0.015306 -0.319399 -0.152659 -0.289864 0.209330 0.177136 0.054053 0.166971 -0.001128 -0.052148 0.122280 0.133468 0.111365 -0.095829 -0.223008 0.142882 -0.233756 0.149155 0.125493 -0.243097 0.136397 0.066385 0.137511 -0.125592 -0.145060 -0.170326 0.265572 0.346352 -0.126984 0.140956 -0.036441 -0.124048 -0.194919 0.204667 -0.097143 0.031864 -0.047082 0.208640 -0.344218 -0.236460 -0.130242 0.243475 -0.126889 -0.044070 0.292839 -0.328308 -0.122788 -0.070575
9 -0.114791 -0.238122 0.109838 -0.294614 -0.325420 0.075188 0.162199 -0.061400 0.288234 0.074878 -0.237977 0.278410 -0.016238 -0.230415 0.014194 -0.064288 -0.347774 0.020407 -0.005062 -0.034184 0.257345 -0.010489 0.327985 0.068366 -0.022557 0.378835 0.107814 -0.121949 -0.196104 -0.134800 -0.021181 0.169581 0.046701 -0.177824 0.079174 -0.156031 0.292332 0.033092 -0.051275 0.140477 -0.632320 -0.112217 -0.019389 0.265225 0.063657 0.391765 0.386046 -0.155030 0.042478 -0.179086 -0.339821 0.145119 0.115557 -0.130529 -0.003516 0.032701 -0.384465 -0.387330 -0.301131 0.085139 0.171192 -0.135981 0.091759 0.354266
15 -0.044063 -0.051965 0.066544 -0.173583 -0.097090 0.067622 0.032495 -0.138227 0.105181 0.294347 -0.232033 0.311321 0.017104 0.173289 0.134334 0.008972 -0.359473 -0.090638 -0.337959 -0.174916 0.311054 0.141849 0.347927 -0.035895 0.030262 0.304028 0.198992 0.048034 -0.111737 -0.063000 -0.102447 0.268872 0.028950 -0.090216 0.204296 -0.009533 0.193496 -0.124119 -0.180670 0.018831 -0.408296 0.205782 0.032697 0.119758 0.175520 0.276565 0.156850 0.208282 -0.112701 0.090971 -0.080074 -0.029676 0.176249 0.134075 0.025141 0.002614 -0.266768 -0.217327 -0.051260 -0.245193 0.341512 -0.234209 -0.022790 -0.313272
13 -0.113221 -0.091154 0.103096 -0.182119 0.091659 0.015828 -0.088521 -0.158785 -0.064585 0.285375 -0.035962 0.273865 -0.007865 0.220193 0.195933 0.003809 -0.253306 -0.145579 -0.353199 -0.412722 0.349883 0.288870 0.180841 0.002601 -0.099621 0.045263 0.270613 0.217910 0.002028 -0.014450 -0.136373 0.242903 -0.168513 0.062708 0.220598 0.024018 0.168749 -0.044068 -0.160506 -0.065478 -0.159941 0.188943 0.256592 0.177225 0.088954 0.279660 0.074388 0.230648 -0.251181 0.239484 -0.009276 -0.005194 0.114340 0.271428 -0.221543 -0.203828 -0.154580 0.004115 0.014681 -0.250775 0.432659 -0.199265 -0.175900 -0.487962
7 -0.073466 -0.286077 0.029692 -0.124356 -0.116296 0.163217 0.170130 0.036708 0.312040 -0.037772 0.011701 0.265668 -0.126844 -0.227859 0.158298 -0.105039 -0.193846 -0.085891 -0.055901 -0.132302 0.208575 0.054895 0.152439 0.052180 0.040926 0.092810 -0.050144 -0.119030 -0.110923 -0.009469 -0.060174 0.098264 -0.055682 -0.074838 0.011192 -0.174994 0.281513 0.055536 -0.086917 0.121312 -0.427271 -0.136816 0.224587 0.378245 -0.032832 0.413840 0.275965 -0.242230 0.015461 -0.074715 -0.277510 0.173578 0.052400 0.095216 -0.178658 -0.143295 -0.280077 -0.325117 -0.080626 0.029966 0.258779 -0.057565 -0.000885 0.267205
0 -0.388525 -0.539645 0.229180 -0.373524 0.200603 -0.191029 -0.019836 0.134324 0.111898 -0.159996 0.362980 0.261973 0.017403 -0.201083 0.153061 -0.561181 0.122566 -0.415360 -0.015275 -0.328125 0.194116 0.152793 -0.025875 0.309781 -0.058729 -0.149501 0.101107 0.124285 0.172967 -0.219509 -0.280115 0.113390 -0.353553 0.223730 0.092399 -0.410934 0.160511 0.153205 0.354984 -0.223490 -0.168829 -0.438735 0.359161 0.525701 -0.283715 0.113636 -0.086952 -0.368028 -0.194983 0.186934 -0.208858 0.097173 -0.147587 0.176693 -0.552694 -0.315395 -0.116414 0.463204 -0.311216 0.147165 0.279488 -0.446592 -0.142108 0.196696
2 -0.329247 -0.476105 0.193482 -0.308757 0.240286 -0.168024 -0.028261 0.109047 0.082947 -0.098446 0.339921 0.285962 0.007239 -0.106006 0.179915 -0.510267 0.073024 -0.419822 -0.088194 -0.332410 0.211465 0.192594 -0.009226 0.250154 -0.032743 -0.153994 0.091831 0.145698 0.185030 -0.163286 -0.276034 0.121938 -0.344485 0.230966 0.104279 -0.346378 0.136882 0.113866 0.285717 -0.205717 -0.105574 -0.324038 0.368999 0.462472 -0.248040 0.102315 -0.119588 -0.278878 -0.213570 0.219497 -0.143361 0.054728 -0.110382 0.242981 -0.509513 -0.316582 -0.086135 0.439634 -0.202614 0.043071 0.310729 -0.424259 -0.151631 0.034373
5 -0.303048 -0.461230 0.153733 -0.248190 0.260090 -0.170026 0.014443 0.129423 0.154695 -0.106039 0.350797 0.290333 -0.004930 -0.085086 0.200198 -0.545573 0.082281 -0.479529 -0.117412 -0.256211 0.178359 0.161185 -0.019037 0.235508 0.073318 -0.134532 0.047297 0.090824 0.187207 -0.152152 -0.314100 0.117644 -0.295118 0.208344 0.115144 -0.392956 0.132105 0.106028 0.274441 -0.199035 -0.106901 -0.321622 0.315078 0.447496 -0.251182 0.058869 -0.149845 -0.284175 -0.192500 0.226902 -0.127363 0.047164 -0.100530 0.239088 -0.427095 -0.285410 -0.085455 0.403323 -0.137085 -0.034482 0.305857 -0.465354 -0.114934 0.041838
8 -0.058186 -0.235970 0.057168 -0.169702 -0.205362 0.151450 0.168136 -0.024564 0.285878 0.067134 -0.131691 0.283032 -0.084007 -0.162550 0.110107 -0.055322 -0.279177 -0.029564 -0.075400 -0.075117 0.230279 0.041632 0.254869 0.011605 0.026234 0.258180 0.025411 -0.101272 -0.156681 -0.034867 -0.051555 0.151868 0.015189 -0.113945 0.051522 -0.138395 0.284233 0.002319 -0.099678 0.145907 -0.513070 -0.067897 0.094410 0.306983 0.056100 0.408914 0.294129 -0.146222 0.011205 -0.098228 -0.283658 0.119258 0.113752 0.034910 -0.075515 -0.048814 -0.339655 -0.376007 -0.137962 -0.012154 0.233351 -0.099429 0.029783 0.207553
1 -0.387354 -0.569914 0.223418 -0.329798 0.251840 -0.176439 -0.003448 0.164120 0.165267 -0.166876 0.404030 0.293785 -0.013034 -0.196300 0.189760 -0.575221 0.126849 -0.471594 -0.026638 -0.344347 0.209052 0.171795 -0.044434 0.289785 -0.007534 -0.179086 0.063628 0.129232 0.195061 -0.182487 -0.318077 0.112387 -0.363840 0.236418 0.077493 -0.438321 0.162912 0.160001 0.336762 -0.211213 -0.159869 -0.447687 0.429393 0.572519 -0.298978 0.129297 -0.101365 -0.390875 -0.193934 0.218764 -0.213783 0.114852 -0.151927 0.249472 -0.580878 -0.355267 -0.121181 0.446303 -0.236670 0.092301 0.338625 -0.455062 -0.159526 0.169925
18 -0.001653 0.013254 0.016237 -0.099074 0.117028 0.002347 -0.026280 -0.076726 0.101957 0.443667 -0.204991 0.447308 0.083749 0.464581 0.277303 -0.149887 -0.335016 -0.337492 -0.674595 -0.199465 0.339475 0.213312 0.441856 -0.079306 0.239919 0.320481 0.232484 0.115534 -0.016238 -0.066186 -0.261500 0.399054 0.012623 -0.019963 0.338376 -0.054820 0.155050 -0.302081 -0.215130 -0.155782 -0.350055 0.385664 0.059112 0.108308 0.205335 0.108732 -0.096560 0.413718 -0.217594 0.351017 0.095767 -0.214630 0.217021 0.407825 0.067715 0.044633 -0.198363 0.013912 0.098453 -0.576484 0.521107 -0.551972 -0.080088 -0.799306
17 0.008948 0.019404 0.019736 -0.095663 0.065275 0.006301 0.007273 -0.080686 0.144602 0.465770 -0.243892 0.475301 0.088784 0.472583 0.267528 -0.136404 -0.372527 -0.350785 -0.685261 -0.159308 0.340405 0.183234 0.482997 -0.099880 0.270015 0.382921 0.224883 0.087856 -0.037665 -0.071915 -0.259939 0.412284 0.053447 -0.060880 0.336913 -0.068136 0.178150 -0.309730 -0.228396 -0.136478 -0.408048 0.386202 0.016598 0.108330 0.226150 0.109695 -0.066730 0.424160 -0.206500 0.337999 0.078741 -0.221507 0.235318 0.371713 0.124414 0.073760 -0.240929 -0.022112 0.102917 -0.604172 0.520983 -0.570424 -0.047083 -0.786742
21 -0.201022 -0.325574 0.208563 -0.465563 -0.519936 0.005436 0.216067 -0.101169 0.364767 0.090129 -0.349603 0.333019 0.035611 -0.351711 -0.066711 -0.129829 -0.467010 0.017641 0.117221 0.042596 0.331609 -0.100460 0.429977 0.135896 -0.029797 0.578035 0.180318 -0.162224 -0.243250 -0.266371 -0.027910 0.191718 0.102472 -0.254136 0.078325 -0.241196 0.349641 0.101024 0.060754 0.181151 -0.867356 -0.207841 -0.160264 0.285139 0.078039 0.459445 0.522475 -0.255323 0.085101 -0.292557 -0.464531 0.186067 0.150679 -0.333902 0.036893 0.123927 -0.515002 -0.482459 -0.505609 0.203680 0.137299 -0.220481 0.196529 0.628059
20 -0.189778 -0.317637 0.221395 -0.496152 -0.588104 -0.005214 0.235964 -0.120679 0.365445 0.121727 -0.441593 0.341201 0.065769 -0.347552 -0.094467 -0.111646 -0.530467 0.048409 0.105490 0.060332 0.355373 -0.122538 0.499200 0.132976 -0.026619 0.675287 0.224485 -0.174271 -0.277708 -0.300395 -0.028072 0.219602 0.137194 -0.299099 0.107468 -0.225216 0.371498 0.067094 0.036756 0.177989 -0.951077 -0.194226 -0.222859 0.266734 0.127325 0.472236 0.574575 -0.226143 0.096862 -0.321995 -0.500957 0.178099 0.180329 -0.382701 0.090803 0.178311 -0.555700 -0.535497 -0.551413 0.204585 0.141724 -0.238529 0.227202 0.639875
