19 64
10 -0.162768 -0.695326 0.055499 -0.178383 -0.069521 0.346409 0.163222 -0.096378 0.274522 -0.124542 0.252183 0.331966 -0.409512 0.072128 0.363960 -0.082988 -0.065430 0.167786 0.189886 -0.257589 0.372593 0.123851 0.001398 0.127923 -0.443840 -0.164986 0.033693 -0.015696 -0.275431 -0.159357 -0.067536 -0.054575 -0.045258 0.231671 -0.169781 0.015239 0.449460 0.035923 0.127431 0.183924 -0.148204 -0.060543 0.357971 0.451143 0.030006 0.912532 0.237643 -0.224831 0.027785 -0.118962 -0.349033 0.256416 0.368040 -0.001634 -0.661113 -0.331096 -0.166822 -0.293652 -0.420558 0.260079 0.135626 -0.053818 -0.179101 0.412265
7 -0.025093 -0.269931 0.101901 -0.174756 -0.021660 0.105895 0.148825 0.011637 0.078063 -0.055191 0.124074 0.037895 -0.046821 -0.300703 0.188392 -0.255328 0.040090 -0.194075 -0.007372 -0.176148 0.149717 0.034683 -0.145378 0.166102 -0.033611 -0.115992 -0.034795 0.034749 0.039586 0.013326 -0.087677 0.034393 -0.155380 0.094123 -0.074022 -0.248355 0.153847 0.125329 0.180235 -0.043043 -0.128758 -0.150000 0.149234 0.324434 -0.137620 0.276940 -0.010213 -0.268759 -0.026365 0.094693 -0.183519 0.104628 0.011177 0.209953 -0.386386 -0.217070 -0.188726 -0.047976 -0.036086 0.110199 0.126600 -0.040530 -0.024450 0.125759
13 0.015921 -0.013232 0.320332 -0.406478 0.193966 0.114325 0.155120 -0.459243 0.005452 0.176783 -0.199233 -0.184703 0.170147 -0.167040 0.168231 -0.181063 -0.368026 -0.416549 -0.328411 -0.348807 0.579478 0.273461 -0.378066 0.237755 -0.238124 0.114382 0.167036 0.303404 0.091334 -0.025633 -0.372620 0.264136 0.070599 -0.093631 0.190570 -0.318260 0.021564 0.297303 0.210027 0.003984 -0.032887 0.079406 -0.102691 0.125709 0.163318 0.252608 -0.235284 0.093492 -0.203905 0.199514 -0.117672 0.134035 0.128768 0.430582 -0.174653 -0.376767 -0.492224 -0.350494 0.390731 -0.324454 0.401711 0.055934 0.093303 -0.664817
8 -0.097428 -0.458008 0.080141 -0.179958 -0.064024 0.208535 0.148513 -0.019081 0.162196 -0.083273 0.170245 0.172288 -0.202564 -0.115111 0.259739 -0.184891 0.005617 -0.006570 0.085171 -0.199446 0.206002 0.066214 -0.042714 0.117897 -0.234121 -0.112701 -0.000853 0.002615 -0.115448 -0.085226 -0.072877 0.013343 -0.099057 0.143220 -0.110740 -0.115901 0.297540 0.049546 0.164272 0.046301 -0.155591 -0.116315 0.231423 0.380304 -0.054405 0.533329 0.084060 -0.238745 -0.010017 -0.003051 -0.257916 0.155965 0.163971 0.106933 -0.496495 -0.244395 -0.177524 -0.122025 -0.249746 0.185759 0.109202 -0.071281 -0.115718 0.256043
16 -0.078222 0.197414 0.075136 0.073547 -0.102314 -0.225794 0.152723 0.330946 0.260183 0.157017 0.167079 0.379191 0.122136 -0.035129 0.256325 -0.531252 -0.237912 -0.730347 -0.563001 -0.088408 0.095283 -0.105294 0.312685 -0.135791 0.570194 0.194901 -0.119771 0.050439 0.377554 -0.148221 -0.391365 0.140911 -0.148517 -0.202060 -0.016794 -0.333665 0.639497 0.031377 0.046543 -0.004878 -0.314220 -0.051466 0.247323 0.506156 -0.006947 -0.106360 0.073591 -0.101810 -0.456902 0.280581 0.291961 -0.299179 0.127462 0.383673 -0.197437 0.011564 -0.204778 0.042319 0.116103 -0.356089 0.509657 -0.557495 -0.046407 -0.211433
5 0.014925 -0.010781 0.188006 -0.205291 0.120630 0.017237 0.159027 -0.190467 0.062220 0.094492 -0.028495 -0.047559 0.102067 -0.190034 0.171411 -0.261214 -0.226355 -0.447789 -0.268458 -0.212948 0.369100 0.133517 -0.244958 0.169142 0.041289 0.036892 0.042377 0.171323 0.160738 0.002355 -0.299983 0.129873 -0.031222 -0.047587 0.084743 -0.313620 0.117458 0.238616 0.151514 -0.005249 -0.048171 0.001776 -0.002087 0.192046 0.023468 0.140162 -0.119220 -0.049898 -0.178281 0.179633 -0.028533 0.050403 0.087038 0.333744 -0.176624 -0.253680 -0.309565 -0.213281 0.301497 -0.248953 0.326994 -0.056834 0.087002 -0.353024
4 -0.010936 0.129982 0.130950 -0.026438 0.020423 -0.137188 0.126148 0.093080 0.140089 0.151779 0.075739 0.156905 0.131608 -0.141389 0.200900 -0.379958 -0.222964 -0.618484 -0.394326 -0.123893 0.242029 -0.001386 0.005155 0.003488 0.378704 0.115067 -0.054144 0.137910 0.309036 -0.009867 -0.322779 0.107134 -0.096179 -0.111610 0.028390 -0.334208 0.345942 0.186147 0.089231 0.034663 -0.149741 -0.017118 0.113088 0.326622 -0.016185 -0.009488 -0.021130 -0.085480 -0.318965 0.241539 0.151983 -0.151082 0.094639 0.364681 -0.169768 -0.116221 -0.244973 -0.092715 0.271889 -0.335414 0.428860 -0.289906 0.069329 -0.281045
2 -0.024854 -0.180138 0.120855 -0.180394 -0.070137 0.029790 0.165574 0.147836 0.021455 -0.067944 0.158030 0.024664 0.050648 -0.442503 0.149680 -0.391529 0.107635 -0.307045 -0.085541 -0.169895 0.009250 -0.023385 -0.086864 0.148181 0.082565 -0.107365 -0.086698 0.021698 0.169586 0.026928 -0.088580 0.054594 -0.252387 0.073033 -0.096421 -0.338451 0.189183 0.106450 0.232367 -0.135286 -0.186915 -0.244481 0.172036 0.401047 -0.228042 0.089963 -0.058912 -0.362446 -0.089667 0.154361 -0.121181 0.003169 -0.113136 0.289354 -0.407541 -0.179293 -0.193830 0.124518 -0.051432 0.154843 0.118363 -0.095651 -0.052224 0.121357
6 0.002616 -0.135748 0.157234 -0.154813 0.076720 0.050500 0.144959 -0.102955 0.049508 0.057202 0.042336 -0.010886 0.014930 -0.240892 0.182806 -0.236947 -0.116414 -0.339229 -0.109800 -0.190123 0.283707 0.095434 -0.223930 0.141505 0.041346 -0.032064 0.023185 0.119223 0.113419 0.075989 -0.187857 0.052959 -0.073023 0.044845 0.030836 -0.279192 0.115462 0.240168 0.137383 0.012927 -0.060283 -0.038482 0.062729 0.211653 -0.076279 0.219683 -0.055712 -0.155232 -0.095696 0.154102 -0.097310 0.075677 0.049206 0.266850 -0.239449 -0.258579 -0.255071 -0.169002 0.185859 -0.137572 0.243423 -0.024576 0.067549 -0.134607
9 -0.138521 -0.407379 0.086204 -0.226705 -0.117025 0.182006 0.129241 0.075703 0.155117 -0.102399 0.176753 0.186015 -0.128128 -0.175664 0.219589 -0.253313 0.055375 -0.012076 0.008886 -0.203182 0.077224 0.037860 0.071887 0.083037 -0.239451 -0.069874 -0.029877 -0.035072 -0.085425 -0.130706 -0.052405 0.088390 -0.141084 0.087027 -0.094044 -0.154502 0.339776 -0.017651 0.189728 -0.019632 -0.256753 -0.205120 0.251824 0.456577 -0.086569 0.407527 0.046022 -0.270928 -0.062219 0.006814 -0.245909 0.093126 0.058778 0.141684 -0.491887 -0.204910 -0.205301 0.028792 -0.342256 0.249808 0.095702 -0.131104 -0.180266 0.251502
1 -0.123746 -0.411895 0.107476 -0.265798 -0.133527 0.158031 0.150915 0.142259 0.109328 -0.159403 0.191539 0.109235 -0.073855 -0.332387 0.183913 -0.326893 0.171619 -0.051599 0.040785 -0.214650 -0.004030 -0.007772 0.019786 0.153416 -0.201442 -0.132060 -0.056383 -0.035245 -0.028375 -0.125044 -0.038862 0.082524 -0.223073 0.111481 -0.150022 -0.229431 0.270351 -0.032204 0.264748 -0.138008 -0.273917 -0.299230 0.267377 0.500767 -0.167952 0.311208 -0.000600 -0.368276 -0.017750 0.048911 -0.270124 0.103117 -0.045594 0.192837 -0.561348 -0.187402 -0.186465 0.145017 -0.361122 0.367190 0.046375 -0.119078 -0.196700 0.312414
3 -0.046098 -0.096127 0.076571 -0.025033 -0.080529 -0.060056 0.141332 0.234425 0.106126 0.005310 0.208141 0.167680 0.010289 -0.295788 0.184792 -0.392395 0.031126 -0.406879 -0.158789 -0.102976 0.030244 -0.068546 0.037033 0.044242 0.298145 -0.042428 -0.111875 0.024662 0.232122 0.035557 -0.141532 0.013957 -0.221456 0.040624 -0.098973 -0.311703 0.325402 0.119935 0.140900 -0.017730 -0.187157 -0.178251 0.207840 0.416812 -0.191304 0.078734 0.043060 -0.302332 -0.179577 0.173738 0.009825 -0.091013 -0.019202 0.257017 -0.343279 -0.116578 -0.152197 0.066576 -0.002589 0.002396 0.210902 -0.221046 -0.023945 0.130674
0 -0.093222 -0.334462 0.083176 -0.182172 -0.138271 0.097824 0.148346 0.199889 0.108512 -0.119408 0.235582 0.136775 -0.056648 -0.358807 0.204112 -0.365300 0.161530 -0.169119 -0.007475 -0.170950 -0.023131 -0.049729 0.017999 0.118285 -0.023979 -0.127710 -0.093416 -0.044072 0.050343 -0.058397 -0.041572 0.049718 -0.242953 0.097315 -0.138268 -0.273469 0.304606 0.034295 0.230902 -0.101413 -0.259067 -0.287066 0.256205 0.498113 -0.212830 0.253918 0.023675 -0.396878 -0.068069 0.090656 -0.198208 0.038435 -0.059352 0.198322 -0.511392 -0.172046 -0.175264 0.138151 -0.260473 0.273589 0.089447 -0.155127 -0.133278 0.317777
12 -0.176511 -0.749804 0.068622 -0.218376 -0.077735 0.359949 0.150647 -0.121911 0.253577 -0.134316 0.260794 0.308296 -0.415923 0.029972 0.371926 -0.078323 -0.043882 0.195064 0.242114 -0.282191 0.368639 0.139596 -0.036839 0.142387 -0.499472 -0.194562 0.037714 -0.011957 -0.302759 -0.146363 -0.028844 -0.041072 -0.065747 0.241980 -0.156883 0.013021 0.413963 0.067375 0.155013 0.189584 -0.139630 -0.084988 0.350660 0.447311 -0.002757 0.943346 0.224293 -0.251252 0.034974 -0.120494 -0.403592 0.293514 0.336222 -0.017883 -0.689680 -0.373408 -0.182725 -0.274378 -0.432433 0.301193 0.110491 -0.020624 -0.172259 0.454888
15 0.009193 -0.066022 0.330740 -0.424244 0.213933 0.157425 0.163768 -0.510149 0.002917 0.166471 -0.198233 -0.195870 0.140713 -0.158366 0.183511 -0.155009 -0.375271 -0.390127 -0.293791 -0.365431 0.622259 0.301429 -0.418967 0.259920 -0.286522 0.095995 0.169636 0.306207 0.056110 -0.013982 -0.363220 0.254956 0.093133 -0.067799 0.195231 -0.306701 -0.013158 0.315816 0.218925 0.027462 -0.022027 0.091702 -0.112859 0.107152 0.171647 0.318946 -0.243422 0.090875 -0.174858 0.180520 -0.153970 0.169967 0.142980 0.418334 -0.189511 -0.416389 -0.508204 -0.398168 0.398853 -0.311277 0.397381 0.101047 0.113604 -0.659022
11 -0.184138 -0.779496 0.072186 -0.205680 -0.088153 0.368071 0.154906 -0.083372 0.268390 -0.145086 0.270885 0.330843 -0.438643 0.021595 0.394399 -0.102208 -0.028746 0.197154 0.252720 -0.287183 0.365024 0.126543 -0.013192 0.137756 -0.490011 -0.201347 0.022899 -0.015379 -0.310394 -0.141711 -0.016640 -0.053060 -0.070986 0.251878 -0.173494 0.014648 0.453366 0.063795 0.158629 0.204149 -0.153162 -0.087358 0.382075 0.480689 -0.019437 0.972625 0.244975 -0.268252 0.036146 -0.112331 -0.407357 0.285729 0.343723 -0.005654 -0.722190 -0.379322 -0.185243 -0.263119 -0.471848 0.320997 0.104795 -0.039169 -0.171485 0.493473
14 0.013579 -0.060938 0.347852 -0.433743 0.236193 0.148123 0.154886 -0.526127 0.005469 0.193113 -0.221462 -0.193645 0.145467 -0.161924 0.190559 -0.156481 -0.390236 -0.416378 -0.300771 -0.372370 0.661422 0.321572 -0.440024 0.267392 -0.274747 0.114410 0.191562 0.336726 0.056350 0.005839 -0.378730 0.263087 0.093504 -0.063550 0.215825 -0.328124 -0.012574 0.340239 0.211438 0.037956 -0.021224 0.105006 -0.114382 0.112417 0.175042 0.324268 -0.243208 0.108701 -0.185146 0.204509 -0.155734 0.172199 0.156551 0.442717 -0.180662 -0.427342 -0.529450 -0.411145 0.423971 -0.362151 0.420607 0.080898 0.132576 -0.698354
18 -0.023084 0.243288 0.107007 0.061488 -0.017806 -0.252565 0.144765 0.246558 0.230676 0.238636 0.115129 0.303971 0.179577 -0.107890 0.251791 -0.530156 -0.289593 -0.825783 -0.581100 -0.080598 0.219998 -0.065626 0.175717 -0.086580 0.647727 0.213909 -0.091415 0.127868 0.443271 -0.024461 -0.422329 0.142986 -0.123314 -0.172555 0.036934 -0.418139 0.528364 0.164952 0.055964 0.051067 -0.245222 0.002165 0.154334 0.429897 -0.031117 -0.106516 0.009185 -0.081545 -0.445676 0.323875 0.285113 -0.292085 0.134090 0.453940 -0.146021 -0.039622 -0.260359 -0.064381 0.303596 -0.486551 0.562185 -0.499812 0.058667 -0.336973
17 -0.052685 0.220558 0.096450 0.091438 -0.068816 -0.261358 0.147464 0.306250 0.271785 0.232991 0.151691 0.381236 0.151089 -0.058342 0.268871 -0.533089 -0.284231 -0.820262 -0.586698 -0.076081 0.187327 -0.095097 0.259112 -0.133254 0.656998 0.224887 -0.110508 0.107617 0.430651 -0.061402 -0.415213 0.140343 -0.131919 -0.188132 0.006845 -0.394467 0.620794 0.127057 0.041867 0.064940 -0.283709 -0.019759 0.206498 0.492200 -0.024704 -0.090673 0.060324 -0.081942 -0.476019 0.320504 0.294022 -0.316257 0.157346 0.424490 -0.175924 -0.023922 -0.252862 -0.023016 0.237064 -0.470174 0.571265 -0.557611 0.026902 -0.283644
