23 64
20 -0.112038 -0.141569 -0.017816 -0.279119 -0.415178 -0.422256 0.087812 -0.019735 -0.002260 0.188313 -0.349801 0.249365 0.497097 -0.132387 0.097606 -0.230679 -0.682391 -0.036021 -0.126642 -0.089861 0.827645 -0.171739 0.645831 0.223042 0.086377 0.550751 0.400494 -0.198906 0.134118 -0.308907 -0.158685 -0.056557 0.078853 -0.067300 0.124187 -0.120688 0.353660 -0.126907 -0.178203 -0.220304 -0.554805 0.081749 -0.394321 0.097784 0.182035 0.540717 0.270964 0.262380 0.325640 -0.353156 -0.289024 -0.041682 0.420784 -0.333941 -0.021042 0.233760 0.004087 -0.515956 -0.471810 0.082715 0.573453 -0.129120 0.302699 0.260010
17 -0.215719 -0.222107 0.143390 -0.268767 -0.164703 -0.154570 -0.022128 -0.138603 0.138009 0.217689 -0.164454 0.386687 0.162653 0.251764 0.079228 -0.060008 -0.446601 -0.149821 -0.224192 -0.127255 0.547240 -0.000535 0.438332 0.112532 -0.048647 0.366842 0.232906 0.019051 -0.057742 -0.247640 -0.089772 0.161334 0.144915 -0.086475 0.193531 -0.044898 0.203989 0.002378 -0.021547 0.051047 -0.375072 0.082020 -0.143558 0.088364 0.163349 0.356341 0.183563 0.258344 -0.043319 -0.052932 -0.158586 -0.059592 0.238593 -0.211204 0.014887 -0.010989 -0.228213 -0.107462 -0.250218 -0.094905 0.369801 -0.289328 0.201618 -0.087204
8 0.006586 -0.318057 0.186505 -0.156247 -0.083313 0.135575 0.056739 0.061394 0.204347 0.099675 -0.020579 0.278746 -0.180648 -0.237546 0.238870 -0.179536 -0.109898 -0.219909 -0.004408 -0.182823 0.175326 0.074499 0.018142 -0.004071 0.016109 0.068645 -0.011622 0.135726 -0.101845 0.101633 -0.016614 0.164115 -0.183439 -0.049275 0.026136 -0.185386 0.337193 0.206303 0.043937 0.195246 -0.257779 -0.091762 0.339213 0.439746 -0.093713 0.387052 0.246723 -0.258918 -0.228519 0.210826 -0.237434 0.067311 0.015647 0.277445 -0.306904 -0.234404 -0.380224 -0.040781 -0.007631 -0.121450 0.202826 -0.234182 0.009775 0.122743
3 -0.161569 -0.247278 0.117501 -0.281450 0.140865 -0.113974 -0.091711 0.181230 0.147001 -0.157095 0.275438 0.258955 0.049829 -0.243520 0.099909 -0.460494 0.141277 -0.315821 -0.050684 -0.040741 0.133809 0.088514 -0.113813 0.223809 -0.021308 -0.034225 -0.066974 0.131774 0.085283 -0.161047 -0.120244 0.062619 -0.272032 0.115987 0.044614 -0.365193 0.276893 0.201264 0.325960 0.028958 -0.098949 -0.362815 0.247939 0.498717 -0.191074 -0.007595 -0.054014 -0.363693 -0.280916 0.047894 -0.077086 -0.081811 -0.007780 0.160389 -0.393917 -0.156259 -0.127775 0.371509 -0.223684 0.040517 0.112567 -0.458156 0.054087 0.170546
18 -0.180287 -0.155218 0.052792 -0.255224 -0.206008 -0.275997 -0.003376 -0.053424 0.092113 0.169731 -0.186302 0.303284 0.304190 0.082353 0.076665 -0.166969 -0.460496 -0.125924 -0.173576 -0.076379 0.594762 -0.062103 0.459066 0.156321 0.045551 0.390386 0.254467 -0.062658 0.044217 -0.278510 -0.128464 0.071081 0.100449 -0.059325 0.152619 -0.100257 0.210185 -0.054452 -0.039349 -0.074360 -0.404375 0.061819 -0.231558 0.082555 0.135715 0.326898 0.139857 0.224370 0.103554 -0.164490 -0.166360 -0.056708 0.283777 -0.218729 -0.006223 0.105192 -0.084759 -0.214743 -0.311940 -0.020811 0.417137 -0.253031 0.226710 0.046151
9 0.028705 -0.224512 0.058917 -0.203426 -0.058743 0.011297 0.001853 0.101381 0.126463 -0.014138 0.024010 0.229571 -0.000325 -0.255292 0.107950 -0.265302 -0.068369 -0.087890 -0.041743 -0.010580 0.172188 0.011619 0.082662 0.124182 -0.066050 0.123313 0.018288 0.022340 -0.006334 -0.015239 -0.027825 0.063661 -0.172992 0.032606 0.031322 -0.224219 0.331517 0.124680 0.095397 0.094415 -0.171602 -0.184067 0.139455 0.384993 -0.076824 0.272925 0.137627 -0.252968 -0.145698 -0.018750 -0.191003 -0.060274 0.055606 0.109047 -0.245530 -0.073551 -0.197387 0.040951 -0.208490 0.015965 0.100188 -0.241627 0.023651 0.217302
4 -0.074380 -0.281895 0.112003 -0.195479 0.097373 -0.084974 -0.021950 0.283321 0.216857 -0.152485 0.254518 0.224946 -0.009855 -0.472635 0.215491 -0.495301 0.142912 -0.398546 0.070030 -0.102033 0.117620 0.069696 -0.213715 0.138725 0.132348 -0.102452 -0.128629 0.132640 0.090779 -0.037537 -0.123592 0.047691 -0.371549 0.061875 -0.031139 -0.414819 0.322715 0.256704 0.257699 0.020367 -0.156221 -0.364121 0.414580 0.605876 -0.276979 0.060343 0.021799 -0.503994 -0.225883 0.140892 -0.159761 0.046557 -0.037122 0.342485 -0.488311 -0.203450 -0.152068 0.226523 -0.062447 -0.021618 0.213101 -0.410191 0.041472 0.282913
12 -0.190371 -0.342746 0.278530 -0.251332 -0.133299 0.108972 -0.002722 -0.201683 0.203031 0.290099 -0.139180 0.441889 -0.151317 0.226366 0.207913 0.039471 -0.397980 -0.208453 -0.183603 -0.299174 0.428486 0.127237 0.285642 -0.008391 -0.098207 0.232936 0.158180 0.165017 -0.208976 -0.061889 -0.017294 0.288382 0.056878 -0.134365 0.194150 0.001634 0.253181 0.155963 -0.038056 0.257536 -0.375445 0.125334 0.171507 0.210577 0.110882 0.515727 0.323001 0.124963 -0.259436 0.198024 -0.200753 0.053367 0.123503 0.020057 -0.110298 -0.250852 -0.473353 -0.109565 -0.060345 -0.200180 0.345558 -0.262650 0.097455 -0.148808
10 -0.027090 -0.194453 0.048332 -0.227606 -0.084704 -0.036270 -0.017624 0.012585 0.104774 0.031593 -0.021078 0.253050 0.066835 -0.090317 0.076711 -0.195088 -0.168700 -0.053465 -0.100724 -0.005715 0.283879 -0.004811 0.189073 0.153743 -0.099007 0.195250 0.092626 -0.008354 -0.015516 -0.109028 -0.044357 0.061443 -0.064822 0.020714 0.070752 -0.161387 0.285334 0.066457 0.064142 0.063158 -0.198791 -0.104643 0.006289 0.269077 0.019174 0.302955 0.132541 -0.089779 -0.088987 -0.085083 -0.161441 -0.081673 0.128468 -0.031682 -0.153942 -0.015180 -0.159897 -0.014476 -0.261243 0.020162 0.146977 -0.233806 0.068686 0.147287
11 -0.104067 -0.286140 0.187341 -0.236670 -0.140586 0.042763 -0.002975 -0.116940 0.167377 0.203922 -0.146829 0.370463 -0.049627 0.123795 0.147262 -0.043500 -0.351639 -0.120499 -0.162038 -0.166232 0.396013 0.043689 0.304418 0.055052 -0.104682 0.269550 0.157392 0.078634 -0.144346 -0.087907 -0.023975 0.198314 0.047756 -0.096239 0.159547 -0.041449 0.283738 0.104221 -0.022411 0.183161 -0.317163 0.059442 0.067636 0.208131 0.102724 0.461456 0.277606 0.075851 -0.171466 0.071441 -0.201184 -0.016983 0.143617 -0.031012 -0.084737 -0.127956 -0.358041 -0.097342 -0.167155 -0.119471 0.267025 -0.251281 0.105181 -0.027736
15 -0.324969 -0.323092 0.285829 -0.331067 -0.068685 0.007120 -0.063201 -0.253903 0.212861 0.279602 -0.115440 0.512976 -0.027093 0.460513 0.139045 0.015067 -0.436712 -0.248776 -0.317397 -0.267785 0.524064 0.135924 0.387075 0.067482 -0.136667 0.307238 0.200504 0.158873 -0.196368 -0.252740 -0.074412 0.325136 0.176607 -0.127964 0.282695 0.011287 0.185373 0.082895 0.033119 0.202071 -0.397377 0.134814 0.029972 0.120416 0.186177 0.391442 0.211524 0.282624 -0.266053 0.131766 -0.128434 -0.028668 0.180009 -0.121562 -0.018000 -0.195490 -0.430072 0.015630 -0.163744 -0.197977 0.378796 -0.391532 0.170067 -0.297970
14 -0.241771 -0.328116 0.287739 -0.281861 -0.082920 0.063372 -0.039334 -0.209123 0.190116 0.270152 -0.129660 0.452198 -0.101347 0.319774 0.159684 0.028203 -0.370450 -0.216730 -0.228932 -0.278039 0.439615 0.134900 0.300156 0.032905 -0.118928 0.252580 0.179435 0.179207 -0.209007 -0.134937 -0.034716 0.295259 0.099283 -0.115654 0.235671 0.003347 0.213910 0.124273 0.000206 0.222108 -0.364394 0.113723 0.119576 0.172578 0.130825 0.420511 0.267736 0.183625 -0.267347 0.183323 -0.162693 0.010847 0.132916 -0.034222 -0.068002 -0.223780 -0.446083 -0.010138 -0.115663 -0.196840 0.326439 -0.329050 0.128812 -0.220195
2 -0.220967 -0.284539 0.131707 -0.344240 0.226166 -0.172146 -0.140647 0.245340 0.171620 -0.231529 0.383577 0.305619 0.100312 -0.256113 0.094884 -0.585390 0.230222 -0.401101 -0.062717 -0.025419 0.126452 0.114029 -0.176065 0.274020 -0.036661 -0.077537 -0.111452 0.168435 0.122724 -0.239779 -0.151770 0.072905 -0.325573 0.159739 0.052877 -0.444633 0.281275 0.222413 0.451202 -0.004846 -0.072501 -0.462826 0.295408 0.579013 -0.250832 -0.127642 -0.158456 -0.437846 -0.340617 0.052026 -0.056500 -0.120371 -0.023175 0.194106 -0.475825 -0.180917 -0.101115 0.558909 -0.270485 0.057195 0.111473 -0.591779 0.069589 0.155551
0 -0.245597 -0.244192 0.072247 -0.369285 0.229308 -0.267128 -0.163915 0.270542 0.146131 -0.295863 0.443478 0.264910 0.201344 -0.312698 0.078963 -0.657319 0.256627 -0.405012 -0.058429 0.019562 0.155066 0.079014 -0.195891 0.345756 -0.021908 -0.082596 -0.092266 0.107327 0.179996 -0.319915 -0.185152 0.014994 -0.343043 0.180944 0.062700 -0.505356 0.295384 0.220899 0.477185 -0.086844 -0.064468 -0.532480 0.210906 0.587053 -0.263219 -0.172553 -0.204249 -0.459116 -0.296393 -0.039223 -0.043824 -0.133119 -0.003447 0.108224 -0.479137 -0.123835 -0.005499 0.560632 -0.341026 0.111409 0.131565 -0.611162 0.101194 0.248978
16 -0.266220 -0.272866 0.231275 -0.294102 -0.118550 -0.057205 -0.033373 -0.200324 0.179829 0.260967 -0.163044 0.451275 0.038935 0.362694 0.124241 -0.015298 -0.448476 -0.213490 -0.272445 -0.224485 0.520652 0.079417 0.408938 0.072045 -0.081734 0.330943 0.220892 0.103930 -0.148103 -0.245247 -0.083839 0.261951 0.153015 -0.128354 0.244103 -0.000505 0.198651 0.037933 -0.009488 0.122417 -0.399403 0.131555 -0.022144 0.104193 0.177601 0.370426 0.220086 0.275486 -0.170541 0.079983 -0.138460 -0.025434 0.200349 -0.136921 0.002286 -0.112356 -0.346594 -0.046306 -0.186941 -0.168485 0.378038 -0.351031 0.174671 -0.214708
1 -0.252663 -0.244501 0.048957 -0.322208 0.237106 -0.420071 -0.144134 0.421954 0.188103 -0.337570 0.435505 0.221979 0.305257 -0.488509 0.090253 -0.783078 0.285406 -0.495827 0.063536 0.043096 0.191175 0.029440 -0.223081 0.341873 0.159319 -0.090080 -0.120701 0.104280 0.294237 -0.313754 -0.254723 -0.048173 -0.408446 0.198063 -0.019192 -0.600346 0.254002 0.197680 0.497773 -0.191747 -0.097028 -0.588500 0.241664 0.637073 -0.345701 -0.271929 -0.264941 -0.522903 -0.157028 -0.042301 -0.073972 -0.078435 0.001793 0.200266 -0.540924 -0.060333 0.104612 0.533903 -0.309208 0.118976 0.217788 -0.643279 0.129285 0.356971
19 0.017992 -0.161572 0.011893 -0.205239 -0.236424 -0.160709 0.043884 0.027268 0.068429 0.099434 -0.195477 0.221599 0.209622 -0.164425 0.078552 -0.198989 -0.359468 -0.020936 -0.064688 0.010750 0.439138 -0.103583 0.360115 0.147185 0.002187 0.349966 0.188620 -0.096221 0.040078 -0.122242 -0.068547 0.004866 -0.015344 -0.030383 0.058408 -0.142637 0.301973 -0.010537 -0.049203 -0.030811 -0.316149 -0.025437 -0.147598 0.193140 0.076246 0.397826 0.202708 0.009801 0.096854 -0.177391 -0.229212 -0.068586 0.215921 -0.113704 -0.071943 0.112837 -0.101825 -0.236069 -0.301358 0.029718 0.266683 -0.160874 0.149654 0.232867
5 -0.170128 -0.247686 0.022134 -0.272531 0.187619 -0.324535 -0.094852 0.376728 0.206911 -0.301111 0.394930 0.214623 0.215663 -0.509469 0.142289 -0.706685 0.232374 -0.457810 0.062845 0.023057 0.176866 0.027236 -0.233771 0.300622 0.163580 -0.105550 -0.122913 0.065519 0.232031 -0.235374 -0.216078 -0.042655 -0.404055 0.152254 -0.017018 -0.557850 0.293257 0.221652 0.400529 -0.142662 -0.103653 -0.524145 0.267485 0.623184 -0.331354 -0.149896 -0.163608 -0.532407 -0.154310 -0.020715 -0.108194 -0.026821 0.006008 0.210818 -0.507318 -0.088400 0.057147 0.397837 -0.229294 0.074169 0.218260 -0.561349 0.114400 0.385206
7 0.045459 -0.305193 0.132100 -0.127624 -0.056333 0.102811 0.078625 0.173642 0.231941 0.004446 0.060930 0.226154 -0.164830 -0.448663 0.281265 -0.287528 -0.014357 -0.286954 0.054018 -0.189920 0.132330 0.060960 -0.106479 0.032474 0.119612 -0.049095 -0.083529 0.114166 -0.038470 0.121919 -0.036922 0.112743 -0.311623 -0.033690 -0.042028 -0.278107 0.355555 0.234916 0.062703 0.123889 -0.244866 -0.177494 0.442189 0.545040 -0.198799 0.330432 0.232149 -0.412234 -0.190588 0.218808 -0.246774 0.130479 -0.020334 0.383300 -0.420664 -0.239546 -0.303540 -0.043675 0.043213 -0.076097 0.226783 -0.232335 -0.005991 0.250706
13 -0.029482 -0.330207 0.225314 -0.192455 -0.095490 0.180766 0.036837 -0.055191 0.199506 0.164706 -0.062028 0.326282 -0.215537 -0.077583 0.227883 -0.070900 -0.204347 -0.185143 -0.077100 -0.236484 0.240902 0.102104 0.085643 -0.002108 -0.079391 0.104778 0.051561 0.153134 -0.166659 0.070375 0.002868 0.214615 -0.105799 -0.085507 0.089005 -0.104241 0.332647 0.216334 0.002754 0.245375 -0.267815 -0.014175 0.311864 0.368995 -0.017749 0.472213 0.310267 -0.142655 -0.274630 0.220809 -0.231108 0.068381 0.037185 0.196216 -0.243154 -0.269738 -0.445100 -0.065019 -0.017181 -0.149766 0.221323 -0.216530 0.011838 0.021908
6 0.010452 -0.343294 0.173105 -0.138258 0.018138 0.080607 0.057211 0.246161 0.239733 -0.054540 0.166869 0.229641 -0.179689 -0.526250 0.298752 -0.390147 0.083976 -0.383095 0.099781 -0.201347 0.075748 0.082468 -0.216980 0.032869 0.139001 -0.113541 -0.125038 0.155101 -0.000692 0.131138 -0.064168 0.096178 -0.379859 0.002044 -0.042420 -0.360181 0.384993 0.315668 0.147363 0.115382 -0.213758 -0.278521 0.541600 0.636646 -0.285322 0.249010 0.183186 -0.544067 -0.260060 0.272692 -0.235673 0.125952 -0.081296 0.450291 -0.498967 -0.303662 -0.313125 0.085095 0.052848 -0.095668 0.227746 -0.308418 -0.011544 0.279257
21 -0.108545 -0.146495 -0.013785 -0.294084 -0.496940 -0.455033 0.113063 -0.028941 0.012150 0.248807 -0.429557 0.279417 0.533197 -0.173909 0.131210 -0.240172 -0.792375 -0.045032 -0.116278 -0.099837 0.929690 -0.198529 0.737084 0.217023 0.126437 0.628680 0.438395 -0.223852 0.144131 -0.302672 -0.162477 -0.059447 0.092069 -0.094649 0.112859 -0.130521 0.389634 -0.134892 -0.221859 -0.221230 -0.639619 0.133725 -0.436292 0.098844 0.202262 0.640805 0.322476 0.305399 0.387566 -0.373737 -0.322976 -0.027375 0.471503 -0.344296 -0.009723 0.266464 -0.013072 -0.635125 -0.492480 0.071475 0.645840 -0.118350 0.338722 0.301229
22 -0.110542 -0.165533 0.003982 -0.281335 -0.474949 -0.427237 0.110459 -0.041124 0.026660 0.255272 -0.425978 0.295093 0.497992 -0.133874 0.144903 -0.217327 -0.784726 -0.065637 -0.122418 -0.114536 0.910682 -0.179263 0.728091 0.193873 0.120695 0.617931 0.419782 -0.207962 0.122624 -0.286135 -0.162053 -0.034270 0.095748 -0.107652 0.120924 -0.118872 0.370845 -0.135683 -0.228027 -0.205777 -0.627191 0.136217 -0.403770 0.105153 0.211549 0.637069 0.314686 0.317123 0.360459 -0.333173 -0.324532 -0.021366 0.445910 -0.318565 0.001099 0.236598 -0.038432 -0.604507 -0.445753 0.034638 0.649463 -0.125504 0.330363 0.258490
