13 64
10 -0.424003 -0.299811 0.044053 0.027177 0.199974 0.094332 -0.058610 -0.089288 0.269558 -0.218398 0.348554 0.348475 -0.457631 0.462988 -0.026255 0.213438 -0.012376 0.177777 0.062497 -0.188579 0.276792 0.139258 0.158973 0.238198 -0.246693 -0.137809 0.196018 0.012621 -0.118144 -0.281375 -0.250937 -0.236376 0.038831 0.225015 -0.094799 0.106151 0.359300 0.020909 -0.157653 0.162646 -0.042037 -0.167915 0.461037 0.319904 0.210416 0.540662 0.530604 0.007062 -0.055414 -0.192716 0.064350 0.193270 0.221963 -0.336767 -0.271597 -0.110994 0.098190 -0.189801 -0.484387 0.200367 0.150021 -0.112782 -0.297274 0.400331
3 -0.083889 -0.171568 -0.077346 -0.023810 0.089483 -0.001312 0.110218 0.158584 0.182062 -0.210355 0.229909 0.197572 -0.128710 -0.237465 0.079433 -0.253451 0.045915 -0.138756 -0.041939 -0.067011 0.006420 0.090115 0.008146 0.153031 0.104152 -0.162105 -0.099158 -0.121086 0.062840 -0.003110 -0.076888 -0.076100 -0.247758 0.101069 -0.042732 -0.205628 0.214551 0.045927 -0.032545 -0.032652 -0.101999 -0.214779 0.296363 0.329355 -0.212122 0.071899 0.150519 -0.295694 -0.014883 -0.049067 -0.039312 0.102996 -0.036886 0.086377 -0.195282 -0.119282 0.040141 0.035518 -0.107844 0.085635 0.060452 -0.112758 -0.077911 0.295384
8 -0.321261 -0.273171 0.045265 -0.023798 0.129516 0.043358 -0.017255 0.021879 0.217196 -0.175637 0.252871 0.267940 -0.308205 0.194400 0.010284 0.012582 0.031138 0.083017 0.053472 -0.142494 0.147860 0.115116 0.135395 0.163360 -0.147686 -0.089505 0.099711 0.007700 -0.060865 -0.172800 -0.174368 -0.126036 -0.050953 0.171972 -0.064176 -0.010931 0.300615 0.013446 -0.055959 0.108733 -0.084579 -0.190104 0.362549 0.328237 0.053162 0.346012 0.331477 -0.079718 -0.060547 -0.107322 -0.003821 0.131555 0.114880 -0.144672 -0.259526 -0.109891 0.029999 -0.053255 -0.395910 0.166544 0.086269 -0.143326 -0.224067 0.338142
2 -0.055161 -0.202399 -0.071036 -0.086155 0.051699 -0.032201 0.121795 0.254180 0.180490 -0.202497 0.177182 0.194547 -0.038687 -0.385867 0.094709 -0.387702 0.067887 -0.157780 -0.041066 -0.061984 -0.048572 0.085163 0.047861 0.115946 0.104602 -0.130417 -0.144525 -0.122298 0.086802 0.025010 -0.032384 -0.000326 -0.310031 0.085447 -0.039795 -0.265944 0.208024 0.009993 0.039204 -0.076611 -0.153861 -0.242415 0.291613 0.373906 -0.311208 -0.016731 0.041178 -0.348845 -0.001692 -0.018799 -0.103256 0.075302 -0.087092 0.213460 -0.237758 -0.121004 0.006924 0.151743 -0.138532 0.110008 0.031758 -0.158638 -0.077849 0.271757
5 0.017309 -0.164898 -0.161223 -0.030509 0.092375 -0.030215 0.182406 0.240758 0.224013 -0.257417 0.249006 0.212064 -0.059719 -0.450057 0.129335 -0.414527 0.046733 -0.255137 -0.084385 -0.022403 -0.040385 0.098256 -0.052202 0.162797 0.224384 -0.206543 -0.204415 -0.204503 0.111184 0.057247 -0.052336 -0.055383 -0.362894 0.077131 -0.031017 -0.327168 0.208830 0.059266 -0.026307 -0.098571 -0.120519 -0.254348 0.298842 0.375739 -0.357845 -0.044489 0.075350 -0.425816 0.013592 -0.044993 -0.078528 0.116135 -0.083382 0.197675 -0.182629 -0.134633 0.057992 0.075435 0.012186 0.034086 0.063577 -0.140130 -0.016310 0.314279
4 0.001635 -0.157117 -0.135303 -0.034534 0.085214 -0.032760 0.160002 0.250911 0.207427 -0.243976 0.235831 0.202271 -0.049484 -0.435953 0.114775 -0.399512 0.055374 -0.235339 -0.070361 -0.028306 -0.042856 0.089578 -0.034200 0.144491 0.204524 -0.184845 -0.193358 -0.177074 0.115347 0.052212 -0.051267 -0.050642 -0.346818 0.077733 -0.040074 -0.310741 0.209006 0.052734 -0.011530 -0.089143 -0.127209 -0.255024 0.303597 0.377755 -0.337779 -0.044761 0.068272 -0.412177 0.005826 -0.040491 -0.073720 0.097374 -0.086670 0.205370 -0.197241 -0.125205 0.047822 0.087929 -0.014717 0.049236 0.065715 -0.139560 -0.029400 0.300327
9 -0.261480 -0.259322 0.027632 -0.072835 0.094555 0.012306 0.004859 0.103386 0.208519 -0.166778 0.203552 0.236674 -0.199054 0.014594 0.020009 -0.112459 0.051166 0.035511 0.028611 -0.122857 0.067914 0.103666 0.141121 0.128048 -0.106642 -0.068931 0.043151 -0.024587 -0.026324 -0.122100 -0.124120 -0.047246 -0.115767 0.130608 -0.038258 -0.092782 0.263770 -0.003048 -0.010146 0.043364 -0.133329 -0.219816 0.328264 0.344630 -0.059802 0.216558 0.214816 -0.145487 -0.042883 -0.073128 -0.059916 0.111512 0.030682 -0.025328 -0.246124 -0.107109 -0.001891 0.045186 -0.356531 0.158314 0.063677 -0.163675 -0.203330 0.300184
1 -0.214717 -0.259673 0.025891 -0.100128 0.074402 -0.014660 0.033030 0.169892 0.198207 -0.168134 0.174177 0.209441 -0.127917 -0.126318 0.036762 -0.216371 0.076084 -0.027059 0.022618 -0.119014 0.025814 0.086234 0.125043 0.123682 -0.048112 -0.075831 -0.002006 -0.034199 0.013603 -0.084904 -0.099853 -0.010159 -0.174269 0.115954 -0.044184 -0.158508 0.228797 -0.011006 0.035552 -0.018633 -0.161649 -0.238270 0.320191 0.363453 -0.147247 0.129709 0.137202 -0.206101 -0.018047 -0.029737 -0.092941 0.103262 -0.024943 0.075239 -0.265598 -0.106446 -0.014102 0.114354 -0.317117 0.164138 0.054710 -0.180351 -0.178570 0.283546
6 0.012057 -0.177211 -0.130660 -0.055933 0.065481 -0.035411 0.172166 0.280728 0.204923 -0.236098 0.215101 0.194167 -0.023267 -0.493802 0.129212 -0.443914 0.061747 -0.247256 -0.071732 -0.042870 -0.070070 0.080206 -0.018977 0.131307 0.208771 -0.185234 -0.200339 -0.193213 0.116028 0.069006 -0.027378 -0.019980 -0.363873 0.064594 -0.028646 -0.331432 0.198649 0.045979 0.002614 -0.123869 -0.156930 -0.255715 0.303502 0.380395 -0.386574 -0.066456 0.039060 -0.433479 0.023496 -0.012824 -0.104859 0.103499 -0.123359 0.245098 -0.200464 -0.134385 0.029629 0.126883 -0.021201 0.057391 0.060345 -0.146140 -0.031459 0.294762
0 -0.123307 -0.217662 -0.020663 -0.099514 0.039369 -0.015641 0.070863 0.196033 0.167745 -0.169462 0.174205 0.177964 -0.074312 -0.265168 0.084106 -0.302792 0.084016 -0.106122 -0.019450 -0.087569 -0.032505 0.070485 0.068474 0.114202 0.036896 -0.101847 -0.077531 -0.083823 0.038241 -0.026572 -0.046697 0.013852 -0.237087 0.077907 -0.020636 -0.216814 0.210809 0.015340 0.048324 -0.047096 -0.160543 -0.236752 0.266510 0.355329 -0.228366 0.054667 0.074821 -0.276531 -0.032164 -0.003845 -0.100233 0.078584 -0.074902 0.132241 -0.236638 -0.115090 -0.024295 0.138531 -0.207686 0.130223 0.035750 -0.168668 -0.104703 0.276876
7 0.018449 -0.175243 -0.137491 -0.069349 0.051613 -0.035572 0.171268 0.280778 0.204448 -0.237741 0.211692 0.193967 -0.017794 -0.515540 0.138419 -0.460512 0.071106 -0.252924 -0.082396 -0.038228 -0.074690 0.083338 -0.020645 0.143232 0.217182 -0.187505 -0.219747 -0.186616 0.114550 0.066409 -0.016878 -0.002284 -0.386399 0.058781 -0.032852 -0.340790 0.197045 0.039017 0.018430 -0.112437 -0.159129 -0.263231 0.291658 0.397285 -0.389621 -0.069928 0.028909 -0.436106 0.006934 -0.011263 -0.109089 0.096734 -0.122546 0.258612 -0.219119 -0.132224 0.024207 0.135670 -0.017865 0.074173 0.046772 -0.154109 -0.021330 0.305706
11 -0.381488 -0.280247 0.042342 0.018633 0.170724 0.066497 -0.053063 -0.054516 0.236760 -0.200850 0.310781 0.311013 -0.405152 0.364646 0.005371 0.131917 -0.010759 0.129348 0.057911 -0.174633 0.230067 0.130849 0.141205 0.202691 -0.198984 -0.130315 0.143545 0.013965 -0.100199 -0.233986 -0.201523 -0.194910 0.004155 0.185461 -0.067839 0.080345 0.336009 0.041374 -0.120117 0.170539 -0.030986 -0.154730 0.410930 0.299484 0.144927 0.465518 0.457858 -0.014170 -0.080338 -0.153503 0.053370 0.164141 0.178790 -0.272452 -0.253226 -0.124729 0.075791 -0.138199 -0.426477 0.177688 0.117813 -0.115693 -0.235956 0.379415
12 -0.401821 -0.291230 0.042419 0.015665 0.175839 0.071694 -0.056415 -0.076497 0.239226 -0.198498 0.333521 0.330994 -0.423925 0.396114 -0.007832 0.163437 -0.018294 0.145783 0.065009 -0.182829 0.243643 0.144180 0.146465 0.207661 -0.218922 -0.133471 0.165961 0.015492 -0.100607 -0.244291 -0.216877 -0.205712 0.002884 0.205287 -0.073032 0.088875 0.340062 0.041413 -0.132416 0.172752 -0.034430 -0.164267 0.427130 0.304660 0.161921 0.492951 0.481866 -0.014202 -0.081474 -0.171151 0.052913 0.175810 0.190132 -0.301635 -0.263459 -0.127833 0.082488 -0.155741 -0.440336 0.183547 0.132165 -0.109591 -0.263695 0.390080
