23 64
20 -0.263973 0.121229 0.166665 -0.369901 -0.495862 -0.470468 0.240497 -0.418494 -0.303090 0.183954 -0.298138 -0.156149 0.563752 -0.221200 -0.060041 -0.029218 -0.554113 -0.159971 0.023392 -0.127978 0.808866 -0.104576 0.189104 0.354264 -0.092015 0.431558 0.465328 -0.095320 0.236245 -0.265208 -0.202224 -0.253876 0.132249 0.007435 -0.023448 -0.268662 0.188253 0.073487 -0.024780 -0.319677 -0.372311 -0.048228 -0.757418 -0.033193 0.223265 0.332781 0.108034 0.438352 0.352515 -0.349537 -0.122155 0.061345 0.397951 -0.618336 0.069746 0.091265 -0.038647 -0.542771 -0.309658 0.136742 0.375252 0.230078 0.419686 0.126518
15 -0.210381 0.063886 0.197594 -0.347166 -0.368529 -0.314562 0.123214 -0.395385 -0.159952 0.270865 -0.291910 -0.019237 0.406992 -0.058059 -0.008315 0.027681 -0.513556 -0.172830 -0.047233 -0.133537 0.713485 -0.060879 0.210401 0.251266 -0.112164 0.393995 0.396029 -0.005712 0.135430 -0.198313 -0.154540 -0.077603 0.153464 -0.044780 0.020031 -0.199492 0.117117 0.094382 -0.009887 -0.180115 -0.321238 0.057855 -0.546908 -0.036974 0.221690 0.353963 0.093214 0.423446 0.214883 -0.168418 -0.101962 0.041726 0.305577 -0.411002 0.076352 0.045292 -0.142772 -0.406571 -0.187181 -0.000176 0.360229 0.095594 0.305814 -0.044042
6 -0.049849 -0.247211 0.087376 -0.044855 -0.029570 -0.037000 0.114975 0.113538 0.103447 -0.037742 0.217332 0.320658 -0.111940 -0.223564 0.308915 -0.369000 -0.257957 -0.393797 -0.041062 -0.197030 0.337725 -0.014218 0.014717 0.104232 0.156410 -0.096242 -0.011785 -0.060642 0.106545 0.003209 -0.061778 -0.162132 -0.169068 0.041240 0.007848 -0.173452 0.453405 0.339491 0.011983 0.061797 -0.135285 0.008541 0.313697 0.285415 -0.214228 0.402844 0.305689 -0.331432 -0.118103 0.068360 -0.002458 0.017983 0.101282 0.052923 -0.273960 -0.243518 -0.099116 -0.118284 -0.057371 -0.082524 0.319532 -0.175170 0.165316 0.265770
7 -0.004445 -0.327429 0.105972 -0.158148 -0.125578 0.032563 0.089227 0.247838 0.136801 -0.023336 0.140460 0.383762 -0.073426 -0.395445 0.313405 -0.454042 -0.150887 -0.321284 -0.013143 -0.176086 0.209227 -0.036075 0.150840 0.066975 0.096620 -0.032396 -0.074839 -0.061025 0.067861 0.027285 0.025912 -0.020768 -0.285505 0.036309 -0.064251 -0.234426 0.439493 0.198409 0.092666 -0.000612 -0.295501 -0.078425 0.404628 0.453331 -0.269122 0.391026 0.227116 -0.432119 -0.092427 0.114394 -0.125978 -0.022642 -0.010172 0.244519 -0.398180 -0.179637 -0.173789 0.062436 -0.187950 0.042723 0.259071 -0.263182 0.050523 0.314443
18 -0.064084 -0.112145 0.197693 -0.275534 -0.136786 -0.075733 -0.066129 -0.215230 0.191529 0.390173 -0.200407 0.350410 0.113293 0.154467 0.116859 -0.021523 -0.473230 -0.246335 -0.193983 -0.080878 0.578701 -0.038882 0.301964 0.090901 -0.025430 0.345995 0.245962 0.117885 0.022783 -0.088942 -0.119474 0.195112 0.128517 -0.099750 0.082425 -0.140607 0.141864 0.174301 0.033688 0.119429 -0.260063 0.197883 -0.083724 0.066884 0.156333 0.463556 0.157227 0.215569 -0.065176 0.106075 -0.092581 -0.045270 0.202904 -0.009443 -0.007765 -0.002789 -0.310030 -0.202881 -0.027583 -0.242790 0.389516 -0.266508 0.100288 -0.181582
11 -0.051208 -0.237382 0.147058 -0.127084 -0.064775 -0.003971 -0.001373 -0.016825 0.140884 0.137202 0.033682 0.348354 -0.087184 -0.031153 0.263243 -0.180771 -0.333504 -0.288038 -0.056881 -0.190072 0.404473 -0.018881 0.137623 0.062923 0.026040 0.041994 0.094678 0.014943 -0.003469 -0.020163 -0.020046 -0.000168 -0.044545 -0.041995 0.055234 -0.086523 0.313169 0.282100 -0.007838 0.099354 -0.167392 0.130853 0.229981 0.170001 -0.075254 0.471699 0.287890 -0.101094 -0.100389 0.130899 -0.053530 0.026039 0.100224 0.034393 -0.157984 -0.174728 -0.186767 -0.107501 -0.056050 -0.148024 0.325444 -0.208371 0.122061 0.094226
10 0.002719 -0.275032 0.153053 -0.206655 -0.100212 0.059514 -0.033281 0.050619 0.229510 0.193430 -0.036622 0.427728 -0.055833 -0.073502 0.219435 -0.184746 -0.277613 -0.233592 -0.083236 -0.130032 0.326226 -0.039009 0.251523 0.031095 -0.005161 0.133072 0.071134 0.031168 -0.028613 -0.010223 -0.001875 0.144864 -0.078191 -0.053792 0.009882 -0.138530 0.259176 0.166877 0.042380 0.072424 -0.284337 0.081811 0.284058 0.265282 -0.065452 0.450040 0.224807 -0.145483 -0.083723 0.165218 -0.143439 -0.010188 0.037283 0.178000 -0.199524 -0.089438 -0.264636 -0.002498 -0.100465 -0.117991 0.305259 -0.305726 -0.000552 0.053936
8 0.001976 -0.333104 0.169414 -0.271529 -0.189672 0.067244 -0.012414 0.202570 0.146504 0.121925 -0.045096 0.373149 -0.010449 -0.336129 0.231179 -0.328561 -0.115061 -0.171827 0.043704 -0.129302 0.149998 -0.042248 0.267995 -0.012758 -0.052412 0.125830 0.003217 0.008436 -0.024399 0.034533 0.083392 0.156904 -0.225928 -0.005195 -0.061778 -0.208871 0.284871 0.078676 0.133675 -0.025936 -0.379045 -0.057367 0.331570 0.412205 -0.187952 0.363483 0.118143 -0.296206 -0.042553 0.168714 -0.228505 -0.032105 -0.073484 0.298876 -0.335014 -0.078744 -0.263929 0.170820 -0.255392 0.041218 0.196963 -0.308745 -0.056947 0.189750
2 -0.028255 -0.306093 0.080186 -0.185046 -0.163141 -0.059532 0.176455 0.343218 0.044170 -0.134058 0.204022 0.310088 0.028657 -0.619869 0.278252 -0.640382 -0.074330 -0.344256 0.028563 -0.132127 0.166173 -0.033585 0.116468 0.123990 0.142447 -0.033533 -0.126887 -0.090270 0.205250 0.023342 -0.019418 -0.121419 -0.401364 0.140783 -0.141837 -0.356579 0.507714 0.160615 0.187388 -0.072109 -0.313245 -0.232312 0.337259 0.565604 -0.349797 0.282071 0.128959 -0.562043 -0.060656 0.003650 -0.120574 -0.080338 0.007894 0.263174 -0.517626 -0.159848 -0.105404 0.090276 -0.294087 0.179978 0.204785 -0.231458 0.068815 0.444550
13 -0.083676 -0.123799 0.207162 -0.271103 -0.170982 -0.087724 -0.039504 -0.242952 0.090457 0.324195 -0.199112 0.262141 0.101816 0.088639 0.131509 0.014171 -0.456860 -0.207714 -0.092463 -0.160127 0.568440 -0.028923 0.229459 0.108691 -0.097213 0.262699 0.281772 0.079543 -0.013037 -0.089890 -0.067500 0.107731 0.092403 -0.098786 0.079205 -0.096426 0.148663 0.195570 -0.016439 0.028365 -0.236442 0.183003 -0.072473 0.037768 0.121183 0.473654 0.209474 0.217722 -0.003387 0.092624 -0.109435 0.036887 0.171053 -0.096634 -0.005459 -0.052754 -0.250940 -0.199729 -0.060657 -0.181895 0.365011 -0.157658 0.131652 -0.105245
16 -0.168287 0.049113 0.205050 -0.354387 -0.329649 -0.286334 0.076799 -0.403900 -0.041305 0.355198 -0.318910 0.102956 0.371431 0.056913 0.006204 0.039886 -0.580816 -0.221171 -0.135120 -0.098018 0.753605 -0.069650 0.275962 0.229783 -0.080581 0.453366 0.402565 0.031846 0.114037 -0.209545 -0.187395 0.018687 0.189738 -0.092693 0.052113 -0.197486 0.122037 0.108849 -0.010446 -0.107494 -0.326886 0.122990 -0.494457 -0.036306 0.265823 0.396620 0.123487 0.444971 0.142989 -0.104199 -0.094585 0.008871 0.325996 -0.348176 0.110397 0.072530 -0.207505 -0.397018 -0.126530 -0.115781 0.411252 -0.032518 0.273008 -0.133132
5 -0.069661 -0.272011 0.039817 -0.029469 -0.056368 -0.107024 0.229920 0.206190 0.053034 -0.179670 0.341115 0.305571 -0.082118 -0.428128 0.355740 -0.575707 -0.230379 -0.479399 -0.021953 -0.190870 0.346392 -0.013636 -0.041929 0.179767 0.244846 -0.160890 -0.086161 -0.134397 0.215093 -0.004306 -0.099671 -0.305980 -0.289437 0.126091 -0.045297 -0.282418 0.602859 0.368894 0.056852 0.023471 -0.142545 -0.113299 0.306352 0.413307 -0.321578 0.385942 0.305018 -0.496350 -0.110422 -0.031342 0.014583 -0.006339 0.147606 0.033896 -0.397585 -0.284530 -0.027186 -0.145714 -0.129044 0.015976 0.313787 -0.154148 0.239848 0.456730
4 -0.068919 -0.272948 0.032501 -0.022301 -0.032416 -0.128659 0.237065 0.281064 0.054166 -0.223821 0.414737 0.329114 -0.078446 -0.520006 0.382675 -0.691481 -0.211914 -0.537487 -0.032870 -0.182245 0.348745 -0.008881 -0.064698 0.194975 0.300031 -0.182682 -0.137484 -0.122038 0.287880 0.005794 -0.129851 -0.342790 -0.357435 0.164826 -0.071165 -0.339152 0.684440 0.409464 0.104594 0.058215 -0.132132 -0.163898 0.363073 0.502874 -0.368847 0.382912 0.296170 -0.606625 -0.164776 -0.049646 0.044233 -0.052785 0.158592 0.100890 -0.493224 -0.303733 -0.016463 -0.140216 -0.144091 0.037034 0.333410 -0.188494 0.244462 0.517811
19 -0.007384 -0.192652 0.186247 -0.282596 -0.149983 0.004683 -0.074396 -0.075696 0.212965 0.307853 -0.172381 0.374903 0.060637 0.025132 0.119428 -0.075125 -0.328666 -0.190447 -0.113164 -0.062337 0.377089 -0.054312 0.307198 0.038619 -0.061108 0.287936 0.152505 0.081996 -0.028047 -0.053283 -0.035108 0.237239 0.017652 -0.101334 0.031451 -0.146721 0.131978 0.109292 0.070463 0.065252 -0.299042 0.096759 0.075200 0.173163 0.064673 0.397778 0.136766 0.040254 -0.062748 0.145343 -0.165144 -0.039776 0.061588 0.105988 -0.081490 0.004837 -0.311994 -0.019303 -0.078060 -0.154080 0.294922 -0.303327 0.005925 -0.078399
3 -0.061230 -0.281431 0.055277 -0.104746 -0.108486 -0.105091 0.235309 0.341391 0.012412 -0.210742 0.321573 0.277453 -0.012289 -0.636385 0.310039 -0.708113 -0.084265 -0.437880 0.001729 -0.152461 0.207251 -0.018006 0.021307 0.182176 0.248783 -0.117878 -0.154745 -0.103270 0.285421 0.029830 -0.084754 -0.245212 -0.421802 0.189349 -0.135431 -0.381868 0.589452 0.251649 0.173850 -0.027719 -0.231338 -0.253895 0.332083 0.573421 -0.380879 0.288545 0.180017 -0.616446 -0.109711 -0.032213 -0.035508 -0.084098 0.059806 0.205722 -0.546870 -0.224229 -0.050347 -0.001867 -0.248433 0.173114 0.228414 -0.188726 0.140771 0.517949
17 -0.120955 -0.036034 0.201715 -0.269211 -0.223340 -0.180067 0.033682 -0.318936 0.088014 0.353364 -0.211352 0.237471 0.208946 0.140956 0.078876 0.025708 -0.543510 -0.284480 -0.176797 -0.104597 0.672710 -0.063928 0.249580 0.154963 -0.026493 0.358856 0.309639 0.056829 0.067031 -0.144786 -0.157139 0.067692 0.179859 -0.111555 0.077398 -0.160057 0.167182 0.194692 -0.014060 0.022927 -0.263149 0.161895 -0.272549 0.003496 0.198140 0.434285 0.186867 0.321593 0.016598 0.012119 -0.071868 -0.004439 0.271394 -0.229184 0.077010 -0.010911 -0.260953 -0.312909 -0.026100 -0.218452 0.418390 -0.134596 0.225198 -0.154147
12 -0.058293 -0.218828 0.198196 -0.201086 -0.084327 0.003901 -0.074610 -0.159844 0.182468 0.299891 -0.083067 0.399206 -0.056375 0.133374 0.218158 -0.021589 -0.439084 -0.264789 -0.107622 -0.193453 0.510710 -0.011159 0.216615 0.053449 -0.043014 0.156785 0.201998 0.080515 -0.052804 -0.040829 -0.031704 0.122899 0.047821 -0.100017 0.101308 -0.053036 0.206572 0.274337 -0.034248 0.126719 -0.202841 0.218787 0.157926 0.084065 0.043605 0.539176 0.296756 0.072915 -0.104510 0.177283 -0.086579 0.038922 0.118432 -0.001894 -0.062063 -0.134961 -0.271643 -0.141929 -0.001159 -0.242142 0.390470 -0.238863 0.094296 -0.068136
14 -0.141761 -0.034688 0.211766 -0.329390 -0.273232 -0.186922 0.013776 -0.306346 -0.032489 0.316182 -0.279442 0.135708 0.255373 0.015755 0.043832 0.038204 -0.457205 -0.162618 -0.063177 -0.137883 0.610672 -0.040451 0.251119 0.171005 -0.117127 0.348233 0.340354 0.052591 0.038183 -0.133308 -0.084252 0.053249 0.111738 -0.072300 0.048421 -0.142633 0.095565 0.110505 -0.010095 -0.083636 -0.304476 0.119659 -0.294379 0.006516 0.172445 0.393286 0.139212 0.330364 0.111620 -0.016155 -0.120793 0.030553 0.206910 -0.223706 0.041267 0.020769 -0.208998 -0.251342 -0.143506 -0.081070 0.339208 -0.055291 0.196458 -0.091896
9 0.003179 -0.322084 0.164511 -0.382712 -0.272412 0.040328 -0.000375 0.275191 0.122266 0.102066 -0.101787 0.347758 0.113262 -0.522422 0.174142 -0.412035 -0.044254 -0.119614 0.057642 -0.093811 0.073673 -0.046236 0.344063 0.000541 -0.100176 0.200019 -0.018656 -0.013198 0.012577 0.022290 0.102738 0.222799 -0.319536 0.007149 -0.115567 -0.308625 0.265391 -0.038663 0.201003 -0.128936 -0.498943 -0.184220 0.293306 0.528304 -0.222519 0.271120 0.009066 -0.345338 0.011146 0.122351 -0.307589 -0.061341 -0.136888 0.380391 -0.398978 -0.008167 -0.279357 0.273863 -0.368873 0.162628 0.151851 -0.324249 -0.122728 0.227655
1 -0.005666 -0.389843 0.192114 -0.466016 -0.348886 0.024536 0.043700 0.397884 0.077821 0.041685 -0.109457 0.330645 0.173920 -0.758657 0.177346 -0.561118 0.062194 -0.114013 0.143246 -0.103419 0.002070 -0.060401 0.374266 0.026417 -0.111899 0.203201 -0.058133 -0.024075 0.057017 0.031456 0.125718 0.220132 -0.455248 0.070471 -0.210174 -0.410273 0.289533 -0.117667 0.296147 -0.243747 -0.609296 -0.313785 0.340301 0.685368 -0.316081 0.232348 -0.062293 -0.480541 0.075771 0.118495 -0.385953 -0.072070 -0.200037 0.489820 -0.556032 0.014051 -0.278689 0.391561 -0.509605 0.318816 0.107891 -0.346800 -0.168519 0.350585
0 -0.015219 -0.339079 0.130420 -0.317534 -0.255360 -0.004480 0.096393 0.361067 0.057457 -0.043777 0.060298 0.316091 0.090039 -0.662539 0.234197 -0.585649 0.005711 -0.223976 0.070251 -0.113430 0.058795 -0.049881 0.239582 0.063010 0.007743 0.082106 -0.095846 -0.062999 0.113605 0.023820 0.062574 0.062167 -0.417130 0.089399 -0.153328 -0.372010 0.404831 0.028523 0.236304 -0.144435 -0.450892 -0.274197 0.328980 0.618473 -0.322386 0.254800 0.033839 -0.515304 -0.022625 0.068792 -0.246624 -0.086198 -0.107814 0.359033 -0.517784 -0.077186 -0.201457 0.252198 -0.393308 0.236064 0.148315 -0.294459 -0.049535 0.391696
21 -0.247218 0.111267 0.197032 -0.461232 -0.532563 -0.422140 0.168564 -0.416794 -0.281491 0.258462 -0.384788 -0.123932 0.583026 -0.250909 -0.074260 -0.002210 -0.507245 -0.097496 0.058035 -0.101259 0.756142 -0.097703 0.257320 0.320267 -0.176628 0.485114 0.462597 -0.062796 0.182853 -0.240824 -0.130254 -0.139129 0.107796 -0.007506 -0.055259 -0.282884 0.097640 0.009496 0.023700 -0.336404 -0.432573 -0.034036 -0.740637 -0.012499 0.221965 0.324385 0.030192 0.469751 0.379914 -0.294631 -0.168141 0.053111 0.328144 -0.520732 0.062838 0.142181 -0.088440 -0.430104 -0.352448 0.159301 0.321858 0.180536 0.345946 0.077671
22 -0.241527 0.119302 0.182418 -0.428984 -0.522667 -0.433748 0.186336 -0.415174 -0.310590 0.224241 -0.380197 -0.165316 0.590715 -0.245367 -0.089168 0.011378 -0.491549 -0.082491 0.066212 -0.096934 0.732807 -0.097554 0.241558 0.318533 -0.174800 0.477565 0.457115 -0.079571 0.191106 -0.237276 -0.141843 -0.165891 0.111665 -0.004405 -0.050365 -0.270509 0.086469 -0.013428 0.001165 -0.359119 -0.404107 -0.061396 -0.764402 -0.022753 0.235563 0.293889 0.018032 0.479726 0.392315 -0.315317 -0.171773 0.053407 0.318019 -0.545926 0.085318 0.140861 -0.061140 -0.431389 -0.335785 0.163846 0.312245 0.220137 0.353074 0.081433
