15 64
12 -0.207768 -0.389751 0.152358 -0.349553 0.013762 0.053798 -0.122925 -0.283922 -0.018119 0.162693 0.058609 0.354182 -0.211913 0.049982 0.134443 0.124833 -0.250125 0.088793 0.044319 -0.442718 0.404086 0.353675 0.039790 0.119790 -0.504304 -0.091865 0.365464 0.178315 -0.190314 0.019484 0.070227 0.102566 -0.285548 0.147452 0.177015 0.027812 0.275077 0.245636 -0.136961 0.086578 -0.073771 0.010356 0.377834 0.244047 -0.091662 0.566611 0.375521 0.042488 -0.201845 0.077027 -0.237455 0.245728 0.098805 -0.070539 -0.309618 -0.396959 -0.177468 0.050113 -0.248870 -0.052153 0.210879 -0.080168 -0.177005 0.004874
9 -0.017356 -0.254205 -0.088524 -0.029621 0.149011 0.051491 0.123055 0.061085 0.247345 -0.172070 0.167803 0.266516 -0.197385 -0.125782 0.168932 -0.199386 -0.007652 -0.143899 -0.027673 -0.053570 0.166905 0.145101 -0.083257 0.188008 0.043188 -0.140126 -0.020805 -0.111392 -0.084768 0.002125 -0.087367 -0.099306 -0.185896 0.124896 0.022024 -0.206125 0.271139 0.074570 -0.106671 -0.028968 -0.076937 -0.118251 0.282521 0.320481 -0.163691 0.200176 0.200329 -0.203452 0.027753 -0.019230 -0.094747 0.161656 0.114042 0.050635 -0.133195 -0.152598 0.014824 -0.033461 -0.077591 -0.102970 0.095112 -0.201992 0.017572 0.211500
10 -0.144986 -0.301560 0.081904 -0.211314 0.067325 0.045222 -0.033954 -0.102624 0.062909 0.004610 0.096881 0.272499 -0.175913 -0.007659 0.112419 -0.024758 -0.102870 0.008658 0.010688 -0.264595 0.269001 0.221000 0.014343 0.152687 -0.284170 -0.092904 0.197108 0.074820 -0.116560 -0.018807 -0.006924 0.006712 -0.205078 0.141596 0.082094 -0.058593 0.264521 0.143231 -0.073975 0.021645 -0.070053 -0.059442 0.317437 0.269770 -0.094677 0.370494 0.265898 -0.051753 -0.103754 0.037202 -0.141761 0.158666 0.086179 -0.014505 -0.249542 -0.255560 -0.091271 0.060369 -0.234764 -0.012416 0.131369 -0.130863 -0.109177 0.081024
2 -0.187467 -0.266427 0.090901 -0.138646 0.149943 -0.056797 0.028959 0.227595 0.143549 -0.255574 0.199151 0.158920 -0.066283 -0.150062 0.067912 -0.384449 0.157370 -0.143985 -0.008314 -0.107180 0.079394 0.024088 0.023549 0.251249 -0.069850 -0.111951 -0.004710 0.004942 0.054096 -0.162008 -0.137964 -0.089560 -0.157123 0.157668 -0.052284 -0.229250 0.292051 0.037276 0.171504 -0.113488 -0.074078 -0.263336 0.302626 0.400047 -0.171277 0.068251 0.064521 -0.238924 -0.037841 0.029786 -0.025160 0.012597 -0.004548 0.101094 -0.323428 -0.110342 0.006495 0.284265 -0.396109 0.178977 0.019122 -0.292910 -0.071145 0.238468
4 -0.017503 -0.234692 -0.095927 0.004889 0.190346 0.020488 0.144232 0.142327 0.268105 -0.255230 0.212522 0.242353 -0.175684 -0.158152 0.160282 -0.294338 0.054205 -0.204340 -0.036051 -0.004832 0.134806 0.097605 -0.106982 0.229154 0.116461 -0.161752 -0.081191 -0.132470 -0.030499 -0.034689 -0.131089 -0.152091 -0.178443 0.137587 -0.017195 -0.253356 0.282572 0.062206 -0.051330 -0.062985 -0.054874 -0.168591 0.285988 0.351271 -0.182359 0.118398 0.158626 -0.260926 0.043882 -0.029359 -0.044767 0.122435 0.103210 0.071679 -0.147314 -0.117628 0.059516 0.013320 -0.094903 -0.069029 0.073459 -0.242449 0.047128 0.253812
6 0.165670 -0.270939 -0.303915 0.159413 0.246658 0.123329 0.333057 0.103964 0.454449 -0.304823 0.253387 0.346393 -0.320442 -0.218926 0.294415 -0.283893 -0.006460 -0.313333 -0.069748 0.102479 0.174704 0.152986 -0.251555 0.253627 0.360991 -0.249115 -0.175210 -0.333592 -0.126729 0.093502 -0.153740 -0.238823 -0.214204 0.146561 0.001710 -0.347164 0.302435 0.065023 -0.276075 -0.083953 -0.082968 -0.102683 0.302362 0.358095 -0.250580 0.183940 0.262523 -0.351660 0.189700 -0.064944 -0.095287 0.270777 0.207956 0.069482 0.011206 -0.128793 0.116083 -0.255605 0.181684 -0.313094 0.125836 -0.237208 0.162731 0.330446
5 0.098291 -0.253841 -0.222779 0.083474 0.205798 0.083882 0.251068 0.068686 0.362731 -0.246357 0.212888 0.299657 -0.261754 -0.172437 0.237575 -0.246607 -0.011797 -0.249432 -0.055437 0.049631 0.168725 0.148557 -0.194375 0.231355 0.239172 -0.206453 -0.114389 -0.242694 -0.104675 0.053582 -0.128204 -0.177926 -0.199121 0.132724 0.013537 -0.286394 0.264570 0.068141 -0.200051 -0.062364 -0.060889 -0.100877 0.263200 0.315587 -0.211542 0.172611 0.221490 -0.277528 0.123643 -0.047607 -0.090152 0.226684 0.171673 0.049601 -0.030927 -0.132893 0.082957 -0.166814 0.098788 -0.231568 0.101015 -0.215215 0.114284 0.272782
11 -0.227024 -0.298290 0.152058 -0.233766 0.084661 -0.028247 -0.074736 0.027930 0.051043 -0.073427 0.118681 0.208373 -0.104642 -0.041770 0.076836 -0.165795 -0.001612 -0.024673 0.021182 -0.257799 0.200805 0.139753 0.060005 0.179271 -0.279557 -0.081876 0.155084 0.109763 -0.042370 -0.108572 -0.040352 0.006882 -0.178626 0.130145 0.046480 -0.090602 0.276083 0.122911 0.074300 -0.010727 -0.063814 -0.145174 0.320085 0.315934 -0.116025 0.257208 0.176266 -0.086473 -0.129194 0.060402 -0.095534 0.081682 0.018070 0.027501 -0.320216 -0.219933 -0.079892 0.223019 -0.373721 0.116132 0.084489 -0.202072 -0.117943 0.126335
7 0.097109 -0.263025 -0.219978 0.080756 0.199804 0.093113 0.242117 0.096910 0.388789 -0.256274 0.205774 0.308638 -0.263241 -0.183369 0.253462 -0.255550 0.002916 -0.246810 -0.054858 0.044460 0.178997 0.136243 -0.182773 0.236270 0.242514 -0.204835 -0.128146 -0.236032 -0.118687 0.038308 -0.125783 -0.169107 -0.198790 0.121073 -0.002389 -0.289389 0.284688 0.054380 -0.194433 -0.058714 -0.084182 -0.106282 0.290510 0.352934 -0.203962 0.191230 0.230690 -0.280150 0.128255 -0.041276 -0.099549 0.229082 0.179862 0.076321 -0.061787 -0.124073 0.076353 -0.167007 0.077044 -0.214152 0.112505 -0.236720 0.114095 0.288990
3 -0.144484 -0.252004 0.030509 -0.068186 0.180955 -0.043493 0.095020 0.248044 0.203789 -0.307179 0.230760 0.152301 -0.102310 -0.181443 0.095017 -0.420845 0.185535 -0.209064 -0.024900 -0.044632 0.048898 0.009071 -0.032894 0.277345 0.059007 -0.142550 -0.064904 -0.064823 0.054672 -0.138883 -0.170789 -0.132240 -0.152890 0.155262 -0.058888 -0.284581 0.286799 0.033597 0.135743 -0.127369 -0.073282 -0.278055 0.282411 0.406968 -0.192875 0.032281 0.070036 -0.286835 0.002884 0.022877 -0.008264 0.035536 0.001752 0.099055 -0.264395 -0.089419 0.035503 0.221138 -0.313938 0.128366 0.009860 -0.303357 -0.021784 0.292246
8 0.065522 -0.282483 -0.169852 0.041981 0.176192 0.098442 0.205834 0.041709 0.335935 -0.188864 0.180541 0.313612 -0.271529 -0.140782 0.243171 -0.197110 -0.026956 -0.201230 -0.028575 -0.001568 0.202874 0.167038 -0.163587 0.201741 0.156801 -0.172391 -0.058804 -0.181933 -0.137954 0.054869 -0.107828 -0.142932 -0.193744 0.135098 0.023883 -0.250941 0.290231 0.079219 -0.195196 -0.028850 -0.085506 -0.084642 0.287663 0.334972 -0.180179 0.246206 0.246298 -0.236914 0.089128 -0.023057 -0.119992 0.226135 0.184158 0.054150 -0.077329 -0.156430 0.033406 -0.160078 0.043743 -0.224388 0.121677 -0.219773 0.082634 0.246664
0 -0.296168 -0.310198 0.211037 -0.247737 0.110702 -0.074381 -0.037107 0.220903 0.072702 -0.223393 0.202477 0.107454 -0.025897 -0.132559 0.034349 -0.394031 0.225935 -0.119802 0.005640 -0.197298 0.056020 -0.016220 0.069555 0.281503 -0.189943 -0.091420 0.091395 0.074324 0.065436 -0.236656 -0.147684 -0.030757 -0.140351 0.164554 -0.039500 -0.237107 0.291000 0.048966 0.279357 -0.173673 -0.123043 -0.327133 0.301874 0.434087 -0.156122 0.095252 0.041950 -0.224888 -0.087405 0.098997 -0.049855 -0.008278 -0.083443 0.078641 -0.415857 -0.124416 -0.062498 0.416626 -0.559841 0.299126 0.018408 -0.328147 -0.153386 0.237711
14 -0.258651 -0.382860 0.227179 -0.399024 0.003999 0.038899 -0.175108 -0.284648 -0.074891 0.190425 0.018290 0.318485 -0.181545 0.069654 0.093913 0.139363 -0.225379 0.126015 0.052692 -0.483323 0.401584 0.347562 0.079528 0.122629 -0.577894 -0.056453 0.411896 0.248242 -0.181520 0.000502 0.078896 0.131980 -0.267463 0.152189 0.179579 0.050176 0.262737 0.240369 -0.088518 0.087146 -0.080382 0.000821 0.374200 0.244820 -0.065977 0.558506 0.357552 0.088252 -0.232541 0.107765 -0.230631 0.210674 0.067011 -0.059735 -0.343268 -0.395763 -0.212381 0.123408 -0.333331 0.004478 0.192022 -0.083125 -0.207278 -0.038042
13 -0.195131 -0.358220 0.160368 -0.330601 0.020038 0.047399 -0.122415 -0.253392 -0.010135 0.153383 0.030208 0.318631 -0.192655 0.043713 0.121567 0.111472 -0.227509 0.088059 0.041230 -0.416239 0.389069 0.327347 0.038993 0.115187 -0.482982 -0.069355 0.347680 0.190929 -0.179867 0.015928 0.056525 0.100070 -0.255204 0.132610 0.160519 0.021905 0.273557 0.228307 -0.119802 0.090108 -0.066703 0.008850 0.359142 0.245001 -0.073765 0.529162 0.350196 0.056299 -0.193298 0.082763 -0.220964 0.222973 0.101952 -0.042250 -0.298625 -0.367804 -0.179519 0.051716 -0.250018 -0.051102 0.194001 -0.086893 -0.166230 -0.011149
1 -0.342471 -0.332522 0.255050 -0.268570 0.135017 -0.115689 -0.042353 0.285849 0.084441 -0.262103 0.209711 0.085758 0.003395 -0.158783 0.009651 -0.469090 0.280657 -0.146134 0.023358 -0.201789 0.042668 -0.044157 0.082498 0.313091 -0.184015 -0.086787 0.089849 0.103503 0.108006 -0.278325 -0.191435 -0.035601 -0.139424 0.183460 -0.070133 -0.277151 0.292875 0.032653 0.353057 -0.212061 -0.131529 -0.383126 0.324931 0.479121 -0.173113 0.044797 0.002905 -0.249930 -0.077749 0.118788 -0.043979 -0.024046 -0.106491 0.116101 -0.469944 -0.109291 -0.057518 0.494334 -0.634328 0.356386 0.007672 -0.377979 -0.175905 0.258321
