15 64
10 0.008015 -0.344243 -0.161504 0.067838 -0.035755 0.237497 0.175779 0.074567 0.384611 -0.227398 0.200299 0.265443 -0.362958 -0.043933 0.365594 -0.048096 -0.020261 -0.097759 -0.074595 -0.256425 0.227511 -0.072562 0.026929 0.288954 0.129897 -0.400914 -0.091744 -0.252373 -0.221617 -0.149480 0.015448 -0.094680 -0.122054 -0.041450 -0.141761 0.003300 0.259998 -0.018326 -0.213973 -0.108708 -0.188350 0.067012 0.455042 0.293726 -0.097270 0.583127 0.489161 -0.163150 0.191869 0.064977 -0.118548 0.366356 0.113296 0.001228 -0.306080 -0.123110 0.079490 -0.275512 -0.085722 0.203232 0.202164 -0.059397 -0.033925 0.463706
7 0.026610 -0.282423 -0.092985 -0.010881 -0.033345 0.152431 0.146372 0.056299 0.278675 -0.153006 0.128646 0.182546 -0.242195 -0.134117 0.303828 -0.128141 0.015278 -0.140428 -0.059719 -0.193426 0.180791 -0.030946 -0.040907 0.252226 0.110402 -0.287333 -0.069100 -0.139116 -0.152526 -0.089173 -0.002484 -0.029922 -0.160326 -0.018083 -0.093603 -0.088903 0.215555 0.017304 -0.094846 -0.088106 -0.142869 0.006047 0.313964 0.291368 -0.116249 0.413530 0.316266 -0.154496 0.096606 0.101930 -0.127732 0.266439 0.086942 0.071212 -0.284530 -0.120627 0.007130 -0.152132 -0.051020 0.126447 0.135137 -0.106552 0.003363 0.336876
8 -0.003359 -0.275804 0.018535 -0.119484 -0.034491 0.061174 0.111459 0.069253 0.167684 -0.063373 0.053979 0.118603 -0.122225 -0.225945 0.229524 -0.241493 0.081876 -0.160736 -0.004757 -0.132929 0.109350 0.022594 -0.069378 0.184416 0.054014 -0.127425 -0.017538 -0.003077 -0.084891 -0.025452 -0.034982 0.050233 -0.196517 0.046454 -0.042979 -0.203445 0.193679 0.033724 0.064277 -0.071981 -0.141553 -0.093999 0.185127 0.330680 -0.149361 0.242145 0.110911 -0.165218 -0.001528 0.148729 -0.169089 0.147756 0.052375 0.159826 -0.296824 -0.123057 -0.098272 0.026276 -0.105616 0.060693 0.056910 -0.198775 -0.000658 0.216544
2 -0.003055 -0.254211 0.146685 -0.315237 -0.023301 -0.047032 0.052747 0.063353 0.000298 0.028057 -0.032764 0.056173 0.062509 -0.380889 0.148623 -0.406557 0.151093 -0.206943 0.002311 -0.088226 0.072333 0.108503 -0.134947 0.174793 -0.071218 0.031957 0.051929 0.167384 -0.002015 0.035073 -0.043404 0.153110 -0.295792 0.128383 0.036568 -0.363774 0.186102 0.077380 0.265763 -0.091700 -0.118751 -0.215916 0.043691 0.402364 -0.211685 0.036836 -0.134286 -0.184275 -0.145519 0.207113 -0.214980 -0.010075 0.008892 0.280945 -0.340320 -0.150497 -0.223295 0.303976 -0.176005 -0.006201 -0.034003 -0.322184 0.022922 0.026268
3 0.003430 -0.235927 0.083385 -0.198984 -0.011919 0.003034 0.085725 0.044608 0.071315 -0.022568 0.020825 0.069455 -0.042014 -0.296338 0.183512 -0.311734 0.107228 -0.200867 -0.012599 -0.109720 0.099921 0.069935 -0.133033 0.193628 0.003481 -0.059043 0.020911 0.088962 -0.029183 0.015087 -0.053065 0.077571 -0.243121 0.086441 0.002171 -0.284199 0.198928 0.086846 0.151108 -0.064977 -0.095433 -0.151867 0.107391 0.354929 -0.170203 0.138642 0.008871 -0.170031 -0.094401 0.177761 -0.163296 0.066119 0.034891 0.203559 -0.300477 -0.146814 -0.156684 0.141030 -0.109465 0.006957 0.010850 -0.241336 0.024959 0.116185
4 0.040583 -0.226199 0.106264 -0.240693 0.020541 -0.028048 0.076216 0.031246 0.043711 -0.010837 0.012183 0.066974 -0.004326 -0.352886 0.200413 -0.369365 0.089826 -0.257666 -0.023880 -0.110099 0.152150 0.104629 -0.211185 0.214211 -0.028554 -0.046500 0.041143 0.136255 -0.010807 0.038052 -0.065223 0.073592 -0.284342 0.098898 0.035589 -0.341175 0.250116 0.157229 0.179147 -0.061278 -0.047773 -0.165814 0.101806 0.390435 -0.196414 0.117651 -0.018508 -0.186078 -0.149818 0.200430 -0.166455 0.041474 0.060554 0.242722 -0.315037 -0.188884 -0.184392 0.184971 -0.079229 -0.072029 0.022371 -0.283920 0.071287 0.054567
6 0.019194 -0.282196 -0.039396 -0.044716 -0.003836 0.099605 0.135835 0.069076 0.225633 -0.120885 0.108261 0.160827 -0.193083 -0.187192 0.280483 -0.194587 0.016301 -0.176629 -0.031158 -0.182985 0.166197 0.003263 -0.075207 0.213953 0.084459 -0.232533 -0.035001 -0.089841 -0.111262 -0.038871 -0.019449 -0.023287 -0.177819 0.011768 -0.047878 -0.144640 0.229864 0.070455 -0.048374 -0.087901 -0.119200 -0.027188 0.286223 0.296146 -0.163094 0.334453 0.243004 -0.176938 0.053441 0.130089 -0.136633 0.223551 0.064181 0.110420 -0.266037 -0.154805 -0.033317 -0.070903 -0.053973 0.051343 0.122220 -0.141563 0.017041 0.269574
14 0.033925 -0.220270 0.149351 -0.303415 0.018669 -0.051208 0.049932 0.016463 -0.014690 0.034831 -0.036821 0.048268 0.049345 -0.379340 0.164974 -0.390173 0.111718 -0.247056 -0.016984 -0.095832 0.133254 0.138345 -0.211980 0.198970 -0.075948 0.018974 0.073862 0.189760 -0.004874 0.065471 -0.053560 0.118957 -0.300040 0.124497 0.070399 -0.374255 0.222088 0.152443 0.227199 -0.065689 -0.057086 -0.190061 0.045373 0.392572 -0.204737 0.053880 -0.096191 -0.166809 -0.181686 0.219963 -0.188348 -0.005246 0.039910 0.271697 -0.305104 -0.188992 -0.230026 0.269622 -0.107335 -0.094831 -0.013665 -0.314457 0.075251 -0.020197
9 -0.032750 -0.269761 0.078390 -0.227424 -0.032443 -0.005205 0.073529 0.098399 0.106401 -0.019845 0.007709 0.096645 -0.009621 -0.317661 0.156927 -0.328065 0.132699 -0.158954 0.009927 -0.097109 0.051338 0.069348 -0.057242 0.152837 -0.005971 -0.020143 0.010406 0.070842 -0.035048 0.000796 -0.043772 0.130202 -0.247871 0.085620 -0.004687 -0.296333 0.165971 0.019442 0.170121 -0.090563 -0.173678 -0.190857 0.120738 0.380938 -0.190574 0.097969 -0.038847 -0.186752 -0.055781 0.158826 -0.213221 0.071624 0.000454 0.234342 -0.311914 -0.115621 -0.162265 0.186308 -0.169110 0.048050 0.010276 -0.269642 -0.028140 0.133267
5 0.050296 -0.248826 -0.024095 -0.096159 0.008871 0.068509 0.125595 0.019688 0.180371 -0.095332 0.083793 0.134208 -0.147952 -0.213881 0.265422 -0.226021 0.016414 -0.203283 -0.053636 -0.152462 0.189316 0.039892 -0.141142 0.242029 0.049996 -0.197122 -0.017526 -0.031905 -0.092564 -0.027434 -0.034108 -0.002949 -0.209783 0.027547 -0.020467 -0.192360 0.236304 0.103655 0.000777 -0.067962 -0.063661 -0.047881 0.211960 0.306285 -0.153814 0.287862 0.184472 -0.157735 -0.013476 0.135353 -0.132859 0.180650 0.093366 0.123378 -0.265235 -0.165429 -0.061698 -0.029220 -0.025582 0.001777 0.088600 -0.171341 0.053337 0.201893
13 0.042409 -0.216358 0.096759 -0.230013 0.011874 -0.018232 0.073087 0.015530 0.047546 -0.002059 -0.002942 0.061419 -0.008324 -0.322581 0.191879 -0.327847 0.069966 -0.229747 -0.028423 -0.119194 0.154513 0.097247 -0.190558 0.205654 -0.039693 -0.051049 0.048900 0.124578 -0.023064 0.032651 -0.053706 0.078941 -0.261620 0.081253 0.035035 -0.305932 0.227943 0.143514 0.153873 -0.062545 -0.046380 -0.137056 0.098417 0.353885 -0.180283 0.130737 -0.002034 -0.155618 -0.129517 0.193200 -0.165258 0.057722 0.059426 0.224641 -0.292522 -0.180556 -0.174665 0.159495 -0.071089 -0.062794 0.025228 -0.253590 0.059655 0.044687
1 -0.049581 -0.292529 0.173067 -0.350213 -0.040444 -0.066870 0.044114 0.100208 0.022370 0.040506 -0.053091 0.054928 0.088225 -0.403679 0.123113 -0.428707 0.195451 -0.192655 0.036476 -0.087620 0.036287 0.102721 -0.090779 0.159825 -0.065302 0.067362 0.059161 0.186265 0.003260 0.019625 -0.058980 0.203224 -0.302016 0.137533 0.020985 -0.392988 0.142917 0.026790 0.311090 -0.119711 -0.183453 -0.262690 0.044043 0.434830 -0.222506 0.001127 -0.182280 -0.192667 -0.119473 0.222224 -0.260759 0.000278 -0.023122 0.316017 -0.373452 -0.124448 -0.242718 0.350468 -0.229376 0.037625 -0.038394 -0.359424 -0.023975 0.043914
0 -0.039608 -0.274770 0.171714 -0.352420 -0.042460 -0.057735 0.032595 0.076602 -0.008046 0.048218 -0.042179 0.050276 0.089501 -0.386105 0.129995 -0.421206 0.187554 -0.189254 0.020998 -0.079729 0.030748 0.105627 -0.104878 0.150755 -0.091918 0.074113 0.066889 0.178359 -0.007228 0.023902 -0.042617 0.197079 -0.290096 0.132777 0.051371 -0.384486 0.164745 0.053140 0.307263 -0.105507 -0.163662 -0.254414 0.015933 0.417110 -0.214936 0.005970 -0.184771 -0.187788 -0.152059 0.216456 -0.245961 -0.025678 -0.022693 0.284648 -0.346239 -0.135950 -0.253105 0.357976 -0.226872 0.013024 -0.047391 -0.355242 -0.003253 0.026414
11 -0.000202 -0.371821 -0.152589 0.078038 -0.026967 0.228201 0.174372 0.083086 0.398917 -0.239872 0.208775 0.272593 -0.388634 -0.050158 0.409855 -0.078330 -0.037623 -0.130810 -0.065867 -0.287085 0.254962 -0.073970 0.011978 0.297523 0.140906 -0.432282 -0.100020 -0.248805 -0.232349 -0.151234 0.022584 -0.105157 -0.128629 -0.058956 -0.129658 0.010143 0.291673 0.022816 -0.216142 -0.088042 -0.166204 0.086229 0.484311 0.299075 -0.121066 0.617040 0.520054 -0.165919 0.175425 0.091425 -0.115482 0.386881 0.118692 0.004968 -0.320917 -0.159984 0.079293 -0.277551 -0.079025 0.191797 0.213937 -0.071396 -0.002849 0.491537
12 0.010485 -0.365327 -0.161207 0.060956 -0.036603 0.232916 0.173727 0.058705 0.390487 -0.228416 0.211696 0.278135 -0.380091 -0.051576 0.402375 -0.059000 -0.044810 -0.124132 -0.075197 -0.288563 0.265036 -0.064518 0.004241 0.307367 0.127187 -0.434585 -0.090764 -0.245258 -0.230399 -0.153788 0.023789 -0.096124 -0.145319 -0.053323 -0.133584 0.008183 0.280657 0.018701 -0.218314 -0.096049 -0.167523 0.083804 0.477358 0.299933 -0.112149 0.624832 0.520339 -0.164441 0.172111 0.082212 -0.123106 0.390821 0.125459 -0.001325 -0.330559 -0.157191 0.079759 -0.285160 -0.066229 0.195906 0.220333 -0.062317 -0.013686 0.480769
