19 64
16 -0.003062 -0.022939 0.166019 -0.228914 -0.076286 -0.051437 0.060936 -0.114526 0.164767 0.521895 -0.377033 0.357293 0.107215 0.264813 0.320542 -0.203799 -0.395560 -0.464869 -0.601178 -0.311462 0.387860 0.062629 0.390884 0.006957 0.203796 0.293934 0.352068 0.101552 -0.096215 -0.087435 -0.172868 0.431732 0.051893 -0.192421 0.328284 -0.152240 0.234089 -0.108250 -0.166353 -0.268534 -0.442903 0.441857 0.015362 0.069292 0.051265 0.161971 0.081793 0.448333 -0.136593 0.548671 0.016661 -0.040143 0.162727 0.324963 0.127838 -0.009379 -0.350776 0.059884 0.026707 -0.554526 0.458605 -0.582364 0.014840 -0.699535
14 -0.044986 -0.086215 0.098812 -0.169322 -0.031704 0.030555 0.024115 -0.056968 0.194139 0.312406 -0.239673 0.295037 0.022728 0.139596 0.259761 -0.132592 -0.309388 -0.252735 -0.396032 -0.253557 0.303746 0.095672 0.304815 -0.020772 0.065570 0.192928 0.187696 0.037280 -0.127358 -0.036167 -0.073142 0.318195 0.045481 -0.156908 0.248935 -0.090281 0.218051 -0.041927 -0.153163 -0.072614 -0.348867 0.284280 0.096206 0.116033 0.012638 0.222738 0.098119 0.271315 -0.092864 0.311446 -0.053408 0.024617 0.106272 0.256461 0.054346 -0.086562 -0.287683 -0.034072 -0.016448 -0.354089 0.344128 -0.351994 0.007069 -0.414081
4 -0.106671 -0.277290 0.113278 -0.101854 0.063840 -0.028285 0.073396 0.259655 0.096673 -0.173193 0.180975 0.173566 -0.039821 -0.301182 0.302262 -0.491423 -0.017640 -0.365443 0.000349 -0.272499 0.155381 0.012433 -0.018782 0.111872 0.126803 -0.203543 -0.122632 0.002896 0.097414 -0.103805 -0.080657 -0.030622 -0.237483 0.026298 -0.056133 -0.163141 0.238165 0.107633 0.168396 -0.136810 -0.155579 -0.063866 0.421605 0.335547 -0.248453 0.147399 0.034434 -0.341748 -0.044511 0.166843 -0.025247 0.070236 -0.051518 0.325275 -0.422679 -0.203620 -0.021208 0.136859 -0.106705 0.105746 0.248082 -0.220877 0.039632 0.174810
3 -0.166887 -0.278645 0.188396 -0.132715 0.089253 -0.067420 0.046668 0.205907 0.010599 -0.124365 0.159774 0.172234 -0.046194 -0.260953 0.295161 -0.501872 -0.096651 -0.393479 -0.024737 -0.366830 0.210435 0.060312 0.015113 0.120118 0.082274 -0.210238 -0.063555 0.070207 0.140848 -0.078779 -0.074235 -0.028780 -0.246877 0.042711 -0.006685 -0.117218 0.232922 0.175326 0.174509 -0.099834 -0.103007 -0.000233 0.433275 0.271087 -0.268141 0.169036 0.057975 -0.283506 -0.110905 0.214672 0.026048 0.050436 -0.075498 0.323214 -0.423625 -0.278996 -0.043055 0.173709 -0.119282 0.099795 0.257242 -0.188340 0.045613 0.097255
10 0.007210 -0.149732 -0.111602 -0.017520 -0.042816 0.242297 0.075343 0.127445 0.440438 0.006083 -0.062875 0.281876 -0.099737 -0.067616 0.282703 -0.062318 -0.182274 -0.009584 -0.215104 -0.107021 0.152363 0.054735 0.239575 -0.111732 0.028064 0.087932 -0.128944 -0.194876 -0.241676 -0.022829 0.011345 0.217409 0.074019 -0.216958 0.085234 -0.070991 0.300371 -0.093755 -0.221559 0.105831 -0.412597 0.075601 0.260305 0.310444 0.008570 0.341172 0.144789 -0.023045 0.058472 -0.012388 -0.198342 0.154797 0.093780 0.266443 -0.034849 -0.081867 -0.222332 -0.310566 -0.014608 -0.149772 0.300177 -0.134093 -0.036884 0.005258
12 -0.112894 -0.173053 0.126010 -0.127412 0.040777 -0.020562 0.017191 0.073373 0.078254 0.039315 0.012536 0.212030 -0.024975 -0.070301 0.249000 -0.279889 -0.189454 -0.286363 -0.152834 -0.303364 0.239891 0.079276 0.119526 0.051004 0.048659 -0.059039 0.031305 0.046205 0.022066 -0.064054 -0.055190 0.093955 -0.117679 -0.046906 0.088714 -0.065290 0.198708 0.089015 0.013172 -0.063993 -0.172271 0.111568 0.290950 0.174851 -0.126719 0.189181 0.092766 -0.047395 -0.096828 0.204891 -0.000287 0.052970 -0.001538 0.245228 -0.203503 -0.191115 -0.111989 0.057954 -0.053315 -0.070669 0.282430 -0.201304 0.024012 -0.092901
6 -0.021949 -0.242966 -0.069356 0.035002 0.002041 0.196677 0.107343 0.298040 0.359632 -0.195864 0.129243 0.214714 -0.123289 -0.287280 0.322750 -0.266281 -0.061722 -0.109675 -0.014734 -0.136701 0.085903 0.002280 0.085858 -0.080500 0.095250 -0.096666 -0.271198 -0.191500 -0.101746 -0.020845 0.006181 0.036254 -0.052360 -0.122589 -0.056029 -0.101952 0.311792 0.007884 -0.055393 0.074055 -0.312915 -0.055441 0.420217 0.388355 -0.141820 0.298508 0.101481 -0.323345 0.075822 -0.036907 -0.165001 0.154146 0.006878 0.329235 -0.263190 -0.157085 -0.107224 -0.220305 -0.035658 0.039490 0.273653 -0.069592 0.000394 0.255436
11 -0.075217 -0.172863 0.009894 -0.027199 0.029583 0.114559 0.043405 0.170269 0.260702 -0.078221 0.038836 0.208840 -0.083002 -0.150428 0.278017 -0.214669 -0.172582 -0.149892 -0.112762 -0.224036 0.169472 0.057084 0.137887 -0.049857 0.042609 -0.053778 -0.137984 -0.092693 -0.076422 -0.035306 -0.004827 0.093565 -0.033823 -0.147169 0.049316 -0.045422 0.262373 0.051252 -0.079975 0.070520 -0.250167 0.052433 0.356104 0.260870 -0.101542 0.260964 0.122915 -0.134776 -0.016235 0.049837 -0.084358 0.123010 -0.001681 0.282440 -0.169469 -0.185181 -0.132722 -0.147489 -0.019837 -0.039491 0.290422 -0.089036 0.013918 0.057151
5 -0.147822 -0.392896 0.166695 -0.165503 0.087692 -0.086051 0.097228 0.292607 0.021990 -0.230268 0.255825 0.181500 -0.046727 -0.377281 0.340548 -0.664447 0.038246 -0.454103 0.057022 -0.323918 0.164349 0.019862 -0.072124 0.205125 0.122681 -0.292488 -0.113428 0.036568 0.159748 -0.132409 -0.096140 -0.082198 -0.346537 0.129108 -0.082354 -0.214768 0.244906 0.147508 0.299592 -0.214074 -0.104412 -0.109141 0.460097 0.372495 -0.357338 0.139502 -0.005461 -0.446481 -0.062191 0.218504 -0.020709 0.059587 -0.073307 0.341961 -0.563980 -0.259975 0.020766 0.290470 -0.196346 0.197867 0.203841 -0.285236 0.054627 0.255588
15 -0.015006 -0.098796 -0.021937 -0.069383 -0.056519 0.184620 0.054881 0.025917 0.362723 0.179255 -0.177033 0.286229 -0.040162 0.060024 0.278311 -0.045721 -0.291511 -0.088070 -0.329261 -0.171496 0.230990 0.072873 0.312555 -0.128556 0.031608 0.182037 -0.002958 -0.103933 -0.212251 -0.013671 -0.019018 0.302754 0.128903 -0.239437 0.176877 -0.051058 0.265507 -0.079413 -0.221895 0.084310 -0.414989 0.207493 0.160009 0.199433 0.051349 0.321851 0.115760 0.154145 -0.009164 0.113464 -0.145866 0.095062 0.110751 0.275440 0.048061 -0.089618 -0.299813 -0.268510 0.019791 -0.272745 0.349681 -0.189340 -0.018790 -0.233643
8 0.047659 -0.248215 -0.195302 0.048605 -0.109942 0.386818 0.140972 0.261976 0.602511 -0.077449 -0.016684 0.312371 -0.157925 -0.181934 0.371795 -0.098035 -0.119469 0.090030 -0.140387 -0.021124 0.076352 0.005956 0.268829 -0.221437 0.042137 0.108972 -0.301403 -0.311762 -0.327217 0.009371 0.055174 0.227283 0.126403 -0.246848 0.003326 -0.096127 0.396432 -0.157942 -0.213157 0.214821 -0.535696 0.006256 0.307265 0.454776 -0.002431 0.462262 0.111265 -0.172377 0.140193 -0.122645 -0.326503 0.181678 0.129535 0.351760 -0.119209 -0.077489 -0.276909 -0.465755 -0.048375 -0.083987 0.297058 -0.094941 -0.050691 0.188492
1 -0.153690 -0.437077 0.180601 -0.190763 0.062590 -0.077627 0.107156 0.327378 0.036211 -0.236455 0.262941 0.182245 -0.035380 -0.416589 0.360666 -0.706865 0.076917 -0.461866 0.078157 -0.329366 0.155685 -0.003593 -0.067813 0.211742 0.126018 -0.294060 -0.125582 0.041629 0.160819 -0.151134 -0.101726 -0.064154 -0.360527 0.140711 -0.113889 -0.242490 0.247499 0.123877 0.350649 -0.241827 -0.145009 -0.137395 0.472534 0.419704 -0.370847 0.156132 -0.034671 -0.485154 -0.044407 0.234270 -0.056870 0.062252 -0.076473 0.379168 -0.632985 -0.252069 0.005709 0.312755 -0.234175 0.244602 0.208628 -0.313727 0.037692 0.289253
13 -0.090711 -0.105210 0.147512 -0.141361 0.027743 -0.039184 0.014488 0.006276 0.079581 0.163081 -0.098552 0.210553 0.012688 0.019664 0.234024 -0.229359 -0.261222 -0.304259 -0.253343 -0.306868 0.277908 0.085022 0.174996 0.026759 0.057736 0.035719 0.119875 0.079738 0.008530 -0.048857 -0.083390 0.168001 -0.054016 -0.091802 0.157074 -0.064971 0.195092 0.070660 -0.039436 -0.075253 -0.193137 0.199460 0.206351 0.112053 -0.072189 0.170455 0.091448 0.099158 -0.120035 0.273483 0.017845 0.028990 0.031540 0.252270 -0.093361 -0.161398 -0.173652 0.038006 -0.014478 -0.197003 0.310523 -0.244593 0.019736 -0.263898
9 0.050266 -0.201975 -0.216737 0.028228 -0.094073 0.357926 0.115904 0.218984 0.599306 -0.064795 -0.034866 0.313904 -0.140319 -0.161459 0.335907 -0.056207 -0.134224 0.092424 -0.178055 -0.021067 0.075025 0.031514 0.265380 -0.194083 0.033478 0.109631 -0.263295 -0.316642 -0.337560 -0.001687 0.057432 0.250993 0.105498 -0.270314 0.047324 -0.099900 0.367112 -0.156845 -0.259766 0.186124 -0.523651 0.003881 0.289071 0.427170 0.003834 0.412975 0.135281 -0.125271 0.125848 -0.120824 -0.314927 0.201451 0.110103 0.311573 -0.051092 -0.062643 -0.259798 -0.440087 -0.023535 -0.119005 0.293892 -0.106464 -0.057230 0.153915
7 0.051538 -0.243969 -0.222309 0.074484 -0.070300 0.362870 0.139500 0.320362 0.592176 -0.215010 0.078241 0.269518 -0.171135 -0.293749 0.362924 -0.140918 -0.049781 0.058176 -0.062718 -0.027247 0.040106 -0.007852 0.162871 -0.157712 0.079269 -0.016034 -0.375002 -0.333092 -0.282592 -0.020403 0.054214 0.141633 0.036740 -0.236591 -0.063272 -0.109362 0.371807 -0.123536 -0.186144 0.171935 -0.477527 -0.081183 0.401899 0.495974 -0.053193 0.409850 0.136049 -0.302996 0.160196 -0.161507 -0.303098 0.229501 0.073381 0.350192 -0.193148 -0.085265 -0.178581 -0.438119 -0.020926 0.016387 0.282883 -0.050641 -0.039543 0.333092
2 -0.137712 -0.339098 0.169818 -0.160189 0.064791 -0.068181 0.074124 0.249349 0.009935 -0.156817 0.192625 0.180007 -0.028660 -0.311763 0.310512 -0.576032 -0.016597 -0.397767 0.016136 -0.321081 0.178969 0.027920 -0.014060 0.154055 0.088543 -0.229014 -0.082786 0.054046 0.143706 -0.106303 -0.075538 -0.042500 -0.289732 0.099335 -0.057370 -0.165614 0.230065 0.130249 0.252622 -0.167812 -0.114579 -0.049774 0.416040 0.318301 -0.302581 0.154312 -0.000396 -0.355727 -0.071815 0.209908 -0.013445 0.035526 -0.056797 0.333643 -0.501072 -0.243888 -0.014674 0.242186 -0.176066 0.157942 0.214041 -0.245712 0.040465 0.162079
0 -0.162482 -0.410296 0.203432 -0.223661 0.060629 -0.105003 0.077045 0.255917 -0.030884 -0.175640 0.236406 0.180747 -0.020480 -0.350289 0.335369 -0.673348 0.052771 -0.459535 0.039829 -0.340888 0.171122 0.016492 -0.056391 0.229112 0.087335 -0.270952 -0.055250 0.074129 0.159705 -0.145885 -0.087338 -0.046654 -0.356396 0.153665 -0.059481 -0.224328 0.228494 0.145054 0.344149 -0.245925 -0.108529 -0.100790 0.408208 0.357708 -0.357103 0.142881 -0.031591 -0.408850 -0.090435 0.264054 -0.028651 0.029242 -0.076582 0.321139 -0.581115 -0.256660 -0.005552 0.364747 -0.244204 0.209126 0.184208 -0.327086 0.048320 0.214948
17 -0.000079 -0.046749 0.157682 -0.205137 -0.101015 -0.023013 0.069915 -0.080274 0.205609 0.532209 -0.370835 0.373847 0.105477 0.254121 0.327587 -0.192044 -0.394685 -0.434325 -0.589524 -0.285064 0.384887 0.041373 0.422215 -0.038498 0.204608 0.321769 0.314133 0.087418 -0.101636 -0.052876 -0.152225 0.437043 0.090635 -0.193376 0.306648 -0.156127 0.257602 -0.107306 -0.163561 -0.205968 -0.468401 0.432408 0.009187 0.094225 0.047443 0.203642 0.070893 0.433737 -0.119297 0.520477 -0.018882 -0.054430 0.177872 0.339122 0.113992 -0.017983 -0.385650 0.017686 0.021791 -0.548317 0.463441 -0.558081 0.017131 -0.678170
18 0.004781 -0.022409 0.173955 -0.248332 -0.099561 -0.043823 0.052593 -0.133834 0.202251 0.631841 -0.443895 0.410074 0.130954 0.321911 0.344961 -0.190550 -0.453483 -0.472298 -0.679883 -0.312169 0.444480 0.062821 0.474076 -0.024713 0.219903 0.379043 0.400272 0.116873 -0.116314 -0.062890 -0.176143 0.503937 0.103704 -0.207169 0.374968 -0.166009 0.256009 -0.124760 -0.195124 -0.242944 -0.505545 0.514179 -0.030236 0.060251 0.073414 0.212460 0.075145 0.534316 -0.142191 0.591324 -0.003230 -0.069418 0.207703 0.358207 0.165763 0.003789 -0.420647 0.025985 0.024369 -0.639627 0.508091 -0.639485 0.014485 -0.802795
