13 64
6 0.098680 -0.443067 -0.039404 0.115265 -0.041081 0.073977 0.345507 0.122748 0.265448 0.001966 0.135914 0.103519 -0.227349 -0.298060 0.406637 -0.318222 0.065658 -0.399457 0.204672 -0.064116 -0.004147 -0.070558 -0.250045 -0.024313 0.426517 -0.187938 -0.025086 -0.221347 -0.093255 0.166820 -0.111974 -0.060242 -0.108850 0.065415 -0.001895 -0.312329 0.097656 0.127215 -0.036831 -0.242378 -0.222621 -0.016557 0.147280 0.171009 -0.342659 0.230837 0.065480 -0.379501 0.241930 0.289659 -0.287368 0.324920 0.007994 0.139299 -0.100005 -0.163761 -0.083469 -0.179592 0.212566 -0.264719 0.188264 -0.195783 0.085256 0.324049
9 -0.393119 -0.195593 -0.045497 -0.062966 0.155808 -0.012789 -0.112241 0.170883 0.212344 -0.308466 0.273163 0.295754 -0.263373 -0.031814 0.066979 -0.234758 -0.091415 0.102409 -0.150679 -0.221764 -0.062084 0.203095 0.335794 0.069770 -0.251428 -0.134557 -0.070918 -0.198985 -0.091754 -0.089090 0.092829 -0.001835 -0.142614 -0.069382 0.248269 0.009566 0.490112 0.181826 -0.166710 0.288061 -0.047040 -0.212164 0.405345 0.307061 -0.241352 0.179880 0.360589 -0.128980 -0.285969 -0.159786 0.047817 0.070847 -0.172400 -0.130503 -0.023109 -0.312481 -0.024523 0.184950 -0.480179 0.165940 -0.045271 -0.096301 -0.125451 0.408387
3 -0.275365 -0.229106 -0.019832 -0.043680 0.114031 -0.025262 -0.019525 0.125454 0.148632 -0.225047 0.256751 0.229680 -0.219087 -0.079059 0.114409 -0.254058 -0.051968 -0.034586 -0.060445 -0.181770 -0.031297 0.142099 0.162882 0.073270 -0.108804 -0.155654 -0.044968 -0.157103 -0.041179 -0.041090 0.035727 -0.037689 -0.156398 0.000443 0.170233 -0.057150 0.355523 0.182355 -0.082963 0.147945 -0.033040 -0.167430 0.309992 0.240132 -0.251245 0.156027 0.252410 -0.184046 -0.187503 -0.057489 0.004279 0.089858 -0.124399 -0.086698 -0.069530 -0.272613 -0.013591 0.143247 -0.303156 0.088187 -0.003844 -0.105462 -0.063557 0.349769
5 0.057042 -0.419903 -0.045933 0.086599 -0.014226 0.051828 0.306468 0.105700 0.249193 -0.030713 0.155378 0.124070 -0.222854 -0.263649 0.365797 -0.317425 0.046003 -0.359971 0.167434 -0.068751 0.004234 -0.033075 -0.211645 0.006385 0.356534 -0.189363 -0.027380 -0.210323 -0.081551 0.132770 -0.101406 -0.060172 -0.125772 0.069353 0.018148 -0.285951 0.119106 0.131299 -0.032453 -0.196421 -0.179198 -0.036369 0.150882 0.172480 -0.330796 0.212869 0.077740 -0.350252 0.186634 0.236625 -0.249068 0.295994 0.007146 0.101210 -0.097533 -0.176811 -0.062289 -0.133699 0.156407 -0.222337 0.153682 -0.189938 0.073442 0.322466
2 -0.172890 -0.282431 -0.014361 -0.041951 0.068101 -0.029720 0.056670 0.103093 0.098496 -0.160171 0.247773 0.207235 -0.177678 -0.126506 0.172027 -0.294540 -0.043823 -0.128373 0.007945 -0.156977 -0.007724 0.100649 0.051231 0.056168 -0.028867 -0.176543 -0.031980 -0.147811 -0.013149 -0.002610 0.020141 -0.057503 -0.179869 0.054251 0.120308 -0.097433 0.272123 0.179004 -0.017274 0.033905 -0.026200 -0.117003 0.245936 0.184783 -0.288182 0.150096 0.158733 -0.240099 -0.107140 0.011151 -0.047605 0.101069 -0.082450 -0.047227 -0.113106 -0.257527 -0.001996 0.133148 -0.184806 0.028620 0.026323 -0.117217 -0.015575 0.303080
4 -0.075406 -0.309672 -0.034159 0.028882 0.039344 0.009020 0.141862 0.117660 0.193807 -0.108081 0.198619 0.165556 -0.190657 -0.174248 0.243443 -0.272335 0.003197 -0.214847 0.073341 -0.102982 -0.001035 0.032667 -0.057839 0.023354 0.148579 -0.161809 -0.038636 -0.170429 -0.052457 0.043877 -0.042201 -0.051277 -0.131908 0.033683 0.071895 -0.176673 0.208856 0.149386 -0.041834 -0.048386 -0.108307 -0.092601 0.214199 0.195330 -0.272362 0.169782 0.133445 -0.272920 0.021129 0.096204 -0.129871 0.186617 -0.040570 0.022606 -0.091304 -0.197431 -0.030818 -0.010003 -0.028587 -0.090180 0.101308 -0.153462 0.019566 0.310140
0 -0.170457 -0.294419 -0.016397 -0.037685 0.060676 -0.015501 0.062211 0.100595 0.122021 -0.157595 0.254103 0.201932 -0.188730 -0.125817 0.194967 -0.290779 -0.026461 -0.144046 0.010378 -0.155161 -0.011026 0.083363 0.033546 0.059155 -0.008983 -0.178618 -0.027867 -0.162773 -0.035734 -0.010779 0.011483 -0.049724 -0.164730 0.039832 0.127911 -0.115452 0.277377 0.184068 -0.021746 0.019903 -0.050525 -0.124181 0.240364 0.197886 -0.282351 0.170472 0.166455 -0.247869 -0.098735 0.029626 -0.064688 0.119960 -0.084454 -0.055186 -0.107608 -0.253433 -0.017250 0.113803 -0.176000 0.013335 0.042718 -0.135561 -0.009853 0.322706
1 -0.081064 -0.343760 -0.021715 0.010009 0.033036 0.001426 0.154525 0.109600 0.177642 -0.100903 0.201840 0.167525 -0.189761 -0.181355 0.253620 -0.296603 0.002372 -0.228742 0.084551 -0.120316 0.001754 0.034642 -0.062007 0.032735 0.139692 -0.175100 -0.024095 -0.168773 -0.048061 0.044054 -0.040130 -0.048593 -0.146080 0.051048 0.074644 -0.182652 0.197410 0.153966 -0.020335 -0.073409 -0.105377 -0.088262 0.208788 0.185063 -0.297532 0.175698 0.120879 -0.281729 0.028060 0.115031 -0.144042 0.194689 -0.046212 0.020660 -0.108470 -0.213683 -0.031955 0.017023 -0.039464 -0.080586 0.094904 -0.159699 0.017872 0.311162
7 0.127706 -0.451053 -0.052576 0.123642 -0.056757 0.091862 0.367547 0.127676 0.297089 0.008902 0.115927 0.097393 -0.230664 -0.316324 0.428111 -0.314450 0.081350 -0.412258 0.207662 -0.053213 0.000591 -0.087753 -0.266276 -0.016970 0.467278 -0.189819 -0.037105 -0.228256 -0.111225 0.169655 -0.118284 -0.047544 -0.106331 0.055449 -0.022438 -0.329780 0.081135 0.103002 -0.041474 -0.262181 -0.250079 -0.008816 0.141432 0.184872 -0.335665 0.243747 0.063146 -0.381131 0.276049 0.307958 -0.311854 0.348251 0.022342 0.165554 -0.108434 -0.143001 -0.089776 -0.213776 0.242209 -0.271669 0.198619 -0.205950 0.092651 0.331938
11 -0.465279 -0.170272 -0.040075 -0.075041 0.190391 -0.020106 -0.177431 0.185595 0.219194 -0.364341 0.292634 0.319137 -0.283180 0.018690 0.037378 -0.223447 -0.107957 0.160676 -0.197197 -0.256027 -0.053727 0.224694 0.411738 0.097891 -0.334159 -0.143935 -0.079346 -0.196550 -0.103403 -0.138874 0.118515 -0.005809 -0.131295 -0.097616 0.277270 0.062859 0.551315 0.194601 -0.188215 0.357466 -0.020287 -0.226807 0.457826 0.326950 -0.221493 0.193570 0.422291 -0.086767 -0.348577 -0.206812 0.101207 0.047423 -0.192549 -0.170240 -0.018296 -0.334233 -0.010831 0.227793 -0.580908 0.231294 -0.068474 -0.089742 -0.140754 0.433535
8 0.103882 -0.441093 -0.032906 0.107367 -0.052801 0.075426 0.342815 0.118005 0.250931 0.011948 0.127398 0.099793 -0.221276 -0.293735 0.404817 -0.319231 0.073595 -0.391483 0.208254 -0.054377 -0.003883 -0.071166 -0.250201 -0.026251 0.418411 -0.174998 -0.026721 -0.202781 -0.091949 0.164755 -0.110454 -0.055251 -0.110899 0.074746 -0.012969 -0.309128 0.096703 0.116064 -0.016223 -0.232938 -0.218315 -0.015497 0.130007 0.174957 -0.328942 0.231365 0.048772 -0.372404 0.231693 0.288811 -0.286662 0.306156 0.022372 0.145220 -0.117399 -0.154927 -0.088675 -0.172905 0.204119 -0.255444 0.175201 -0.200795 0.087160 0.315707
10 -0.383695 -0.168399 -0.047598 -0.049459 0.160393 0.006736 -0.121281 0.167819 0.226608 -0.315443 0.257178 0.281708 -0.264522 0.001888 0.054122 -0.192009 -0.078602 0.123246 -0.164157 -0.214120 -0.047188 0.181317 0.338425 0.087562 -0.253147 -0.129883 -0.067217 -0.195286 -0.106060 -0.111885 0.083579 -0.009960 -0.107134 -0.080630 0.228201 0.026387 0.483410 0.157424 -0.181220 0.280443 -0.052694 -0.201305 0.407079 0.305620 -0.194765 0.192142 0.378321 -0.098652 -0.264564 -0.165465 0.062094 0.070577 -0.156816 -0.136295 -0.016614 -0.280452 -0.017560 0.157497 -0.485315 0.179000 -0.038300 -0.089931 -0.128690 0.395283
12 -0.191544 -0.290066 -0.015937 -0.043820 0.068191 -0.031899 0.046526 0.096641 0.114318 -0.158242 0.262054 0.216768 -0.188128 -0.120789 0.176400 -0.283735 -0.045563 -0.130197 0.013538 -0.163428 -0.007574 0.106769 0.051330 0.051113 -0.026784 -0.177226 -0.027083 -0.151317 -0.021743 -0.008387 0.015368 -0.048290 -0.181948 0.044827 0.132168 -0.101740 0.276659 0.190905 -0.026416 0.044779 -0.038033 -0.130535 0.254940 0.195586 -0.286203 0.162491 0.173106 -0.243996 -0.118059 0.009661 -0.056648 0.117323 -0.088876 -0.061301 -0.111152 -0.264824 -0.008315 0.121978 -0.182492 0.021672 0.042079 -0.123851 -0.022975 0.323537
