23 64
20 -0.215048 -0.232072 -0.152927 -0.134077 -0.437477 -0.063418 0.382772 -0.037510 0.147149 -0.031540 0.156653 0.353458 -0.007321 -0.539783 0.292101 -0.180653 -0.393291 -0.202673 0.043839 -0.209304 0.349214 0.019546 0.291388 0.128191 0.144821 -0.016646 0.096757 -0.587466 -0.008019 0.068885 0.091402 -0.251876 -0.224960 0.022018 -0.016312 -0.359809 0.474460 0.142303 -0.394596 -0.251483 -0.652461 -0.126392 0.020581 0.335866 -0.339936 0.558831 0.468284 -0.195987 0.396564 -0.255703 -0.243985 0.345091 0.072589 -0.379458 0.011640 -0.175896 -0.027973 -0.489480 -0.256496 0.066015 0.380026 0.147228 0.156083 0.660337
15 0.058263 -0.105011 0.035710 0.024539 -0.223202 0.034633 0.172809 -0.035560 0.312967 0.223940 -0.121170 0.525154 -0.035645 0.188096 0.042503 0.056970 -0.358841 -0.308751 -0.238847 0.181104 0.139864 -0.062119 0.411121 -0.134558 0.259752 0.375784 -0.117338 -0.149552 -0.062553 0.089865 0.014321 0.144924 0.102208 -0.179417 0.034647 -0.134580 0.146415 -0.025576 -0.167158 0.177599 -0.354056 0.005384 -0.070272 0.141862 0.085814 0.116399 0.201515 0.075458 -0.067311 0.033337 -0.098837 -0.145390 0.045640 -0.112384 0.319768 0.031757 -0.316391 -0.035523 0.209127 -0.370335 0.193458 -0.237693 0.218546 -0.094494
6 -0.137222 -0.168323 -0.145152 -0.048688 -0.287504 0.058493 0.351289 -0.005563 0.250060 -0.037200 0.173423 0.358171 -0.096904 -0.363847 0.252553 -0.141572 -0.263935 -0.229209 -0.053748 -0.099690 0.191088 0.042782 0.194170 0.048887 0.190365 -0.020405 -0.037211 -0.476878 -0.052319 0.081344 0.046017 -0.149733 -0.140712 -0.006586 -0.022952 -0.322538 0.399534 0.094392 -0.311206 -0.121820 -0.543852 -0.102744 0.081896 0.323132 -0.261253 0.378559 0.346180 -0.204006 0.251873 -0.163059 -0.152380 0.252634 0.064694 -0.209986 0.048808 -0.152254 -0.093588 -0.384439 -0.096061 -0.054203 0.280461 0.040369 0.110486 0.436635
9 0.003223 -0.094535 -0.028335 0.026988 -0.183861 0.058396 0.219772 0.000565 0.310882 0.111942 0.005010 0.470578 -0.077598 0.039520 0.087207 -0.020408 -0.274960 -0.291104 -0.208312 0.125282 0.099042 -0.005022 0.302396 -0.089695 0.248356 0.236547 -0.135376 -0.221842 -0.051590 0.089805 0.002791 0.058373 0.022468 -0.112511 0.014394 -0.199227 0.233029 0.005738 -0.186459 0.120734 -0.369340 -0.052390 0.007842 0.220363 -0.019932 0.120848 0.210451 -0.035667 -0.023528 -0.022754 -0.072114 -0.054199 0.050783 -0.096707 0.229864 -0.027800 -0.244705 -0.098509 0.135520 -0.293809 0.181364 -0.183034 0.164985 0.028170
10 -0.067954 -0.151161 -0.008411 -0.025456 -0.094114 0.100310 0.167516 0.025490 0.274565 0.020451 0.128100 0.477486 -0.142764 0.026362 0.117799 -0.073947 -0.220413 -0.247835 -0.189837 -0.003912 0.130983 0.046946 0.223379 -0.013250 0.120538 0.064628 -0.113169 -0.181184 -0.061029 0.024441 0.028744 0.001043 -0.034495 -0.031563 0.005081 -0.144890 0.295440 0.075519 -0.127461 0.109455 -0.311194 -0.030901 0.187103 0.243110 -0.098246 0.184626 0.257403 -0.127434 -0.056442 -0.026493 -0.018538 -0.009005 0.061052 -0.067309 0.052347 -0.120793 -0.184952 -0.038338 -0.003994 -0.159639 0.168425 -0.178664 0.101018 0.067561
14 0.033431 -0.206115 0.199177 -0.157883 -0.189407 -0.088383 -0.021345 -0.034943 0.281155 0.334970 -0.231423 0.487256 0.069428 0.192474 0.005056 0.019534 -0.311981 -0.322418 -0.168005 0.084417 0.251620 -0.108026 0.396928 -0.033943 0.120781 0.376271 0.021790 0.096131 -0.034413 0.026296 0.027250 0.290474 0.052916 -0.183353 0.039085 -0.137314 0.011272 0.050268 0.031776 0.141086 -0.246787 0.017142 -0.027941 0.127039 0.061299 0.129757 0.139874 0.156872 -0.126948 0.222564 -0.180707 -0.140568 -0.014008 -0.006976 0.153784 0.024509 -0.361067 0.234806 0.126939 -0.296555 0.188254 -0.380514 0.168051 -0.179763
5 -0.148659 -0.152288 -0.077837 0.003696 -0.047875 0.104963 0.236752 0.038212 0.244019 -0.124084 0.301906 0.493532 -0.216676 -0.083728 0.185355 -0.180657 -0.212073 -0.287439 -0.166490 -0.050405 0.133693 0.126681 0.139352 0.041414 0.141193 -0.082358 -0.166929 -0.294857 -0.033266 0.024717 0.032699 -0.157408 -0.120775 0.051313 0.001830 -0.186163 0.414922 0.147918 -0.168937 0.096978 -0.304927 -0.067561 0.257819 0.292646 -0.214135 0.208232 0.308603 -0.252527 -0.037425 -0.129251 0.064747 0.047145 0.082720 -0.132590 0.006732 -0.213596 -0.083494 -0.110968 -0.063991 -0.104562 0.164053 -0.113315 0.137853 0.228121
2 -0.269355 -0.346072 0.268600 -0.325552 0.116570 -0.060655 -0.103517 0.106962 0.182299 -0.045626 0.234690 0.605251 -0.097240 0.042745 0.112773 -0.328725 -0.171678 -0.374494 -0.175195 -0.293254 0.383552 0.123507 0.195129 0.250631 -0.195543 -0.132887 -0.011002 0.185631 0.066808 -0.168669 0.030492 0.028814 -0.243003 0.109248 -0.035309 -0.130200 0.344494 0.271919 0.225720 0.097825 -0.090465 -0.058657 0.558897 0.386776 -0.239621 0.222825 0.250838 -0.166560 -0.285684 0.163336 0.075099 -0.073701 0.016164 0.115815 -0.411364 -0.314814 -0.155919 0.514108 -0.315702 0.080180 0.181065 -0.429399 0.034361 -0.030087
11 -0.177488 -0.276766 0.175944 -0.226210 -0.002145 -0.040161 -0.051899 0.042783 0.183840 0.038522 0.110531 0.475664 -0.071503 0.041750 0.117986 -0.191374 -0.209166 -0.276307 -0.122445 -0.195533 0.294136 0.057163 0.207728 0.125580 -0.100619 -0.031469 0.006392 0.069243 -0.008400 -0.095591 0.060634 0.068422 -0.129507 0.001052 0.019941 -0.089732 0.246728 0.207846 0.095542 0.094238 -0.142790 -0.001574 0.336140 0.238876 -0.169243 0.226568 0.230969 -0.079441 -0.173187 0.124264 -0.014900 -0.015046 0.010451 0.020103 -0.196870 -0.218933 -0.166897 0.289078 -0.180559 -0.010605 0.169183 -0.305052 0.070626 0.012401
12 -0.101035 -0.298930 0.238022 -0.312609 -0.130567 -0.114906 -0.093372 -0.033824 0.196448 0.230729 -0.114505 0.363035 0.067328 0.019176 0.080777 -0.098524 -0.230769 -0.257482 -0.059611 -0.172023 0.323762 -0.045402 0.243643 0.105263 -0.098958 0.116960 0.128845 0.149878 -0.024322 -0.082353 0.044682 0.252355 -0.083404 -0.106830 0.028217 -0.129499 0.053246 0.159653 0.139567 0.011112 -0.182881 0.008891 0.148257 0.166991 -0.092567 0.242134 0.148131 0.068399 -0.098787 0.248269 -0.198337 0.040544 -0.037196 0.045803 -0.143582 -0.119038 -0.264237 0.287006 -0.086114 -0.053570 0.201178 -0.322111 0.040103 -0.053711
17 0.138060 -0.168098 0.192639 -0.058010 -0.245857 -0.047632 0.045884 -0.035670 0.435352 0.443071 -0.300411 0.682244 0.047759 0.372287 -0.038515 0.098169 -0.413149 -0.449695 -0.313193 0.288337 0.210104 -0.166470 0.546143 -0.152378 0.303538 0.591840 -0.097458 0.067194 -0.050651 0.091430 0.005604 0.377659 0.165111 -0.284854 0.043404 -0.168146 0.014951 -0.004879 -0.021473 0.291328 -0.321999 0.017929 -0.119983 0.140644 0.178083 0.055807 0.158936 0.207916 -0.215090 0.242752 -0.172495 -0.295427 0.007495 -0.028573 0.376623 0.108656 -0.508109 0.237432 0.332884 -0.530551 0.205369 -0.501173 0.268662 -0.314269
16 0.127667 -0.098877 0.105314 0.034711 -0.230208 0.003512 0.147704 -0.023009 0.403199 0.336507 -0.219390 0.693642 -0.016527 0.343828 -0.013383 0.077747 -0.430529 -0.437770 -0.343987 0.306177 0.163473 -0.105695 0.544190 -0.173917 0.356228 0.555982 -0.162368 -0.060263 -0.041674 0.111231 -0.014699 0.246982 0.144586 -0.241128 0.031057 -0.159914 0.121309 -0.054441 -0.135095 0.277808 -0.359171 0.008285 -0.096658 0.170657 0.179593 0.041361 0.200148 0.151433 -0.183512 0.122635 -0.082119 -0.302071 0.045844 -0.070272 0.426334 0.102178 -0.431278 0.109145 0.323969 -0.535919 0.204744 -0.415957 0.283546 -0.254679
18 0.139392 -0.211613 0.242235 -0.144776 -0.251920 -0.100196 -0.043157 -0.044824 0.427857 0.516303 -0.363115 0.682664 0.103809 0.364782 -0.036648 0.071262 -0.427389 -0.448707 -0.289362 0.265733 0.279722 -0.195922 0.573519 -0.111032 0.265761 0.620910 -0.029068 0.144428 -0.042061 0.067300 0.018997 0.450217 0.152233 -0.292723 0.062411 -0.173610 -0.047562 0.026451 0.051871 0.283157 -0.305145 0.050883 -0.136092 0.114708 0.171287 0.100733 0.134787 0.242034 -0.222399 0.305745 -0.218224 -0.298974 -0.008147 0.006500 0.325930 0.130259 -0.527806 0.305013 0.292867 -0.507111 0.220710 -0.567877 0.260546 -0.325887
19 0.108761 -0.223549 0.250346 -0.164749 -0.234448 -0.100989 -0.064617 -0.058536 0.355177 0.455818 -0.332370 0.595822 0.092785 0.317006 -0.029691 0.071179 -0.396249 -0.390546 -0.216705 0.190041 0.272356 -0.182070 0.500975 -0.079669 0.176603 0.526054 0.003321 0.144863 -0.051594 0.039863 0.044318 0.401656 0.125237 -0.275480 0.062608 -0.127075 -0.056517 0.061590 0.064653 0.237173 -0.250993 0.051067 -0.098744 0.080275 0.138024 0.122061 0.147099 0.215268 -0.198938 0.290124 -0.215078 -0.236636 -0.034429 -0.020695 0.269244 0.087716 -0.470337 0.308226 0.235770 -0.414904 0.194667 -0.490200 0.236280 -0.265739
1 -0.236468 -0.468617 0.424150 -0.565986 -0.039033 -0.206318 -0.195396 0.022775 0.268251 0.225332 -0.100983 0.390595 0.122592 -0.092620 0.116574 -0.297279 -0.135859 -0.389538 -0.047968 -0.382238 0.493056 -0.024802 0.181232 0.316960 -0.253266 0.004551 0.236974 0.369322 0.026360 -0.215329 -0.029913 0.360012 -0.216322 -0.051744 -0.023544 -0.276374 0.078556 0.253635 0.382181 -0.105160 -0.176587 -0.070631 0.365795 0.367626 -0.212634 0.293344 0.114301 0.043394 -0.149954 0.453113 -0.258950 0.129711 -0.066147 0.250112 -0.482523 -0.228810 -0.328945 0.574639 -0.280398 0.083419 0.259027 -0.540216 -0.068583 -0.092402
7 -0.046173 -0.115675 -0.155991 -0.002153 -0.307089 0.087555 0.363556 -0.017174 0.311530 0.030359 0.068663 0.333324 -0.079529 -0.289004 0.210465 -0.067422 -0.242076 -0.228379 -0.100472 0.008354 0.121456 0.002865 0.207550 -0.011073 0.271044 0.083253 -0.078430 -0.443794 -0.084768 0.107202 0.022898 -0.050206 -0.068073 -0.078668 -0.024547 -0.319738 0.309697 0.011268 -0.312137 -0.080567 -0.549250 -0.090370 -0.014205 0.289742 -0.166498 0.290557 0.284451 -0.133521 0.235247 -0.119417 -0.179619 0.209218 0.067064 -0.160682 0.150446 -0.064661 -0.158120 -0.397649 0.035565 -0.146491 0.245175 0.003402 0.119224 0.328120
13 -0.143686 -0.415561 0.423833 -0.517457 -0.050707 -0.177380 -0.226619 -0.006282 0.268444 0.297892 -0.176373 0.402025 0.127296 0.028482 0.083289 -0.215649 -0.184220 -0.368229 -0.102168 -0.298425 0.449108 -0.055276 0.218043 0.231182 -0.242603 0.097804 0.209211 0.401226 -0.002624 -0.184192 -0.003047 0.427228 -0.138604 -0.125949 0.018258 -0.200714 0.036863 0.239929 0.368652 -0.008189 -0.120435 -0.010256 0.293257 0.280418 -0.125265 0.250801 0.095027 0.106270 -0.229670 0.472052 -0.247417 0.038998 -0.066557 0.247202 -0.365647 -0.185568 -0.384267 0.585867 -0.168127 -0.018853 0.226435 -0.550322 -0.033112 -0.211672
8 0.015983 -0.103646 -0.132799 0.047607 -0.335860 0.072462 0.338497 -0.045505 0.316208 0.127859 -0.015270 0.376936 -0.066830 -0.148315 0.165002 0.005318 -0.297877 -0.236227 -0.110465 0.124835 0.096874 -0.042180 0.282675 -0.099782 0.323853 0.227388 -0.088620 -0.410915 -0.095709 0.147172 0.029684 0.003587 0.019662 -0.125783 0.008965 -0.272969 0.242358 -0.008656 -0.312194 0.012688 -0.518856 -0.054542 -0.127815 0.203394 -0.076398 0.250742 0.256515 -0.060519 0.183012 -0.098968 -0.189307 0.105335 0.068035 -0.205165 0.289082 -0.000474 -0.216197 -0.371738 0.133231 -0.266354 0.222155 -0.040099 0.179794 0.244823
0 -0.256801 -0.419731 0.330317 -0.468886 0.014720 -0.097517 -0.168192 0.035622 0.210591 0.097216 0.084362 0.427830 0.002429 -0.048445 0.161348 -0.299600 -0.123377 -0.335751 -0.095160 -0.387246 0.401852 0.040888 0.127072 0.269208 -0.277064 -0.119542 0.142107 0.256409 -0.011693 -0.211617 0.036730 0.231893 -0.215262 -0.006989 0.019624 -0.179481 0.212903 0.298411 0.310748 -0.019442 -0.135167 -0.040940 0.443948 0.340373 -0.251106 0.299952 0.177472 -0.074041 -0.224809 0.329051 -0.128532 0.089119 -0.041825 0.163621 -0.465048 -0.303934 -0.257058 0.510600 -0.312307 0.108444 0.211741 -0.454995 -0.039726 -0.031462
4 -0.254571 -0.215519 0.042885 -0.118384 0.077986 0.060137 0.094190 0.106589 0.175424 -0.197920 0.410794 0.568532 -0.212423 -0.067666 0.168670 -0.291432 -0.165582 -0.318110 -0.173876 -0.192671 0.241504 0.172671 0.123669 0.165717 -0.025107 -0.198489 -0.133334 -0.126346 0.041621 -0.079027 0.032190 -0.192816 -0.225296 0.152443 -0.034676 -0.155797 0.485618 0.237240 -0.012869 0.101532 -0.205266 -0.096542 0.495001 0.391060 -0.266305 0.232150 0.330299 -0.319434 -0.164955 -0.084340 0.155705 -0.017674 0.069215 -0.045513 -0.251463 -0.302672 -0.043775 0.140268 -0.253757 0.045888 0.181328 -0.215008 0.083481 0.192385
3 -0.313338 -0.324193 0.198521 -0.256968 0.159961 0.011164 -0.028449 0.120085 0.184999 -0.160922 0.381238 0.634605 -0.204256 -0.000221 0.150758 -0.360463 -0.145836 -0.383998 -0.190756 -0.299873 0.336020 0.186346 0.139181 0.262555 -0.145702 -0.231396 -0.080639 0.078826 0.062123 -0.148893 0.027046 -0.092366 -0.275074 0.171127 -0.040435 -0.145059 0.446467 0.299281 0.155879 0.122896 -0.120547 -0.086738 0.632705 0.433958 -0.291260 0.240921 0.318037 -0.285342 -0.283691 0.071843 0.156171 -0.048160 0.032528 0.070330 -0.414551 -0.367904 -0.103830 0.408632 -0.336593 0.102838 0.171571 -0.368829 0.043960 0.079492
22 -0.197715 -0.215882 -0.165685 -0.134801 -0.462301 -0.089129 0.394765 -0.051960 0.136133 -0.031323 0.128854 0.328992 0.026294 -0.591648 0.295898 -0.180848 -0.393552 -0.214032 0.075699 -0.171480 0.363280 0.008225 0.303054 0.144063 0.159090 0.021467 0.095233 -0.621367 0.015252 0.093274 0.073952 -0.271118 -0.244410 0.022537 -0.044226 -0.414187 0.449956 0.114725 -0.416180 -0.295484 -0.660447 -0.168130 -0.036614 0.366635 -0.316768 0.571079 0.435585 -0.170527 0.450667 -0.272890 -0.266838 0.347706 0.053131 -0.388288 0.043686 -0.143093 -0.010390 -0.509649 -0.233084 0.052154 0.392878 0.171861 0.166892 0.697701
21 -0.259101 -0.232564 -0.177077 -0.168562 -0.455903 -0.069566 0.427391 -0.044029 0.155081 -0.077687 0.201775 0.329580 -0.005449 -0.674917 0.335014 -0.234806 -0.366558 -0.228063 0.081461 -0.238239 0.378548 0.042875 0.252019 0.189825 0.145833 -0.067719 0.098747 -0.650814 0.011035 0.072799 0.073841 -0.307378 -0.287078 0.059534 -0.059715 -0.457664 0.513811 0.154034 -0.408625 -0.325028 -0.707425 -0.179623 0.028715 0.418229 -0.393970 0.606240 0.468321 -0.233083 0.475221 -0.286593 -0.252119 0.419159 0.071383 -0.381004 -0.036622 -0.196072 0.004021 -0.548855 -0.302790 0.112947 0.402361 0.181934 0.142251 0.765585
